{"Name":"RbmSpin","Nhidden":20,"Nvisible":10,"UseHiddenBias":true,"UseVisibleBias":true,"W":[[[-0.0038479945921078926,-0.007021888722638938],[0.0020250819702042847,0.019465267064330456],[0.003233747935006733,-0.0017105444833566703],[0.00288991987652527,0.0012286939590424283],[-0.0023979766355707423,0.00084815804077778],[0.0068198700244749035,-0.004922490244167217],[-0.00451344066165757,-0.008296485273244735],[0.0014170232830875112,0.00021464409203363587],[-0.0046688108227878325,-0.003242258059486352],[-0.008670914030076964,0.0006848356849718351],[0.0032255487960808353,-0.010459233185057515],[-0.00022641932242403653,0.010210957516911538],[-0.005241973607336121,-0.0008247105248037366],[-0.010835254507511254,0.00519737963459267],[0.008609134904838854,0.012374638813743222],[0.00491677974083228,0.0049768886518891196],[-0.010405458985988355,-0.004863627412800408],[0.0019081826997658872,-0.011323730891771955],[0.012774102812424432,-0.0022103741366630435],[-0.0015471831646639623,-0.00594499874599143]],[[0.00958297832403823,0.006083895789555084],[0.00457329145689226,-0.004657803982352416],[0.0010113375921156922,0.009776570769205028],[0.001171729486389671,-0.008001106250012319],[0.0011144001237754233,1.7250194182890266e-05],[-0.00026554639484538905,-0.005269042908848174],[-0.001937276145179021,0.011724851588454517],[-2.865611689510314e-05,0.011274707171387788],[-0.0015457953324513564,-0.010312077103312596],[-0.007295248649014928,-0.0021166570335093195],[0.003617447961054922,-0.005482395096781751],[0.0010877463580092092,-0.004684736761176407],[-0.0036019590585312043,-0.006353736728815199],[-0.008505668241596105,0.0019103114945450868],[0.006772529780797553,-0.009368706469629765],[-0.0017715052906944343,-0.0031033389018157768],[-0.0024582087665985094,-0.004335962320128781],[0.003864270565090524,0.0041178649678721745],[0.0086312717905191,0.020434336464876166],[-0.0010562551619241905,0.0075633538640248335]],[[-0.010247050866192002,-0.013121952838431167],[0.0018616042455445144,0.013108621897199198],[0.004515541118025579,-0.011720221167737698],[0.003287228434692116,-0.016440885489266033],[0.004747445256873848,-0.008537781646994732],[-0.0034056369445704068,0.0029196274898031357],[0.004411024792204452,-0.006522351933466137],[0.0019759386839121084,-0.022534428778033015],[0.003630439701801861,-0.00900500156631201],[-0.00490875843157385,-0.006718340452153401],[0.0006774485988286279,0.00041971039577894727],[0.0025418564082750625,0.0007307721205033091],[-0.0037749485703453545,-0.01124769111042452],[-0.007944906837310648,-0.005483129872476172],[-0.0006488970155630299,0.00020937760645914913],[-0.002587991033607134,-0.009167480502828259],[0.0012740523226344785,-0.0005043165594427437],[0.00378242573247249,-0.007938605049229889],[0.003335654459597938,-0.009645577796018847],[-0.002745542345083941,0.002734839190664961]],[[0.0016136309339920439,0.015191222513533312],[-0.004014020936482476,0.008157900462947856],[-0.003278477463028003,0.008705546890242395],[-0.00025421171764762737,-0.00011280285019528064],[0.008413673158145665,-0.002997276996005547],[-0.004220346600383396,-0.0002933530798484452],[0.0025278853161626175,0.0067773297722108095],[-0.006659989002000766,0.014155504171137388],[0.005562165313460093,0.005300841100326879],[-0.0004557372290184248,-0.0002840004371263444],[-0.0010423794308187222,-0.007217576499924801],[0.0006483534546180957,-1.4734581462474061e-05],[-0.007710140705053118,-0.001087546176719145],[-0.004129369312599451,0.006281900479210083],[0.0002294110544257893,-0.00595932490256788],[-0.005887196990403237,0.002702284773452981],[0.004490843672154329,-0.0037153531650286264],[0.006899721210155406,-0.007330619076476486],[0.007936806251451758,0.003780432050066789],[-0.005364723810224818,-0.004249105914157508]],[[-0.004653890218210469,-0.03812262503297224],[0.006800895284629762,-0.007337084178231643],[0.0014003977481573252,-0.005613678510621137],[0.001456696398896127,-0.0075969227463488056],[0.007381044461990797,0.0013996986958247385],[0.00016332634497554996,0.005456557579615071],[-0.0017360972053984047,-0.004026837235785993],[-0.004822197272358743,-0.007715459651188519],[0.005356475558433887,-0.010971103111495267],[-0.0008459938557494358,0.005686935214224666],[0.00416718191416414,-0.0036959160578109098],[0.0020210286540964352,-0.005979490009257177],[0.0025067727924886632,-0.009265611406088111],[0.003969580802946369,0.012711728632404476],[0.00594203974327397,0.00816182216750156],[-0.003242429509255694,-0.0004903883410246018],[0.002877650729579132,-0.0052992632576403164],[0.0025613027321886575,0.005381079513489841],[0.0005482124104220984,0.02422334543128738],[-0.003792552345214361,-0.0020253603732187236]],[[-0.005168330427579785,0.01985098735097872],[0.002008980462990551,0.007661029436879713],[0.007119319778805309,0.0015404312599159213],[-0.0051260960491483175,-0.0015416825973817833],[0.004659199257990685,-0.0024862635287389795],[0.009064329900157481,-0.005227701994402034],[0.003996750872000971,0.001903682663552122],[-0.0002626337781769924,-0.003095417497925793],[0.01138636299599076,-0.01510003693131915],[0.0004453996759329836,-0.005079491574073414],[0.008581007515616015,0.0014236566960232307],[-0.006885155563500858,0.0010530453492923876],[0.0059003782255313015,-0.0044188170974464565],[0.011019407748352887,0.0011533340965365116],[-0.0022520493414443657,0.0007940569735709956],[-0.005833676903412367,-0.003077441929347461],[0.0016257418091077834,0.0013719473465700401],[0.0034144483288442687,0.001691629411377282],[0.006644187456609149,-0.0018180827912174411],[-0.00011754888542266258,0.001953696583289655]],[[0.0022176751852468926,-0.02605453196831183],[0.005067178819352238,0.007363866999761001],[0.0018303000993636007,0.006712674360225942],[-0.001800723334025481,-0.009331365092957788],[0.004959048020142919,-0.007143915851749175],[0.007812605870690898,0.0007892078118534425],[-0.002887566189718158,0.009373094204943486],[-0.012209050184071925,0.007266599705920534],[0.002488017743010764,0.005373586360731362],[-0.0017010573519580321,-0.004911162287614188],[0.009275684070745338,-0.010709586454212567],[-0.0019167971524201666,0.0007552679401185977],[0.0031513001544687747,-0.00919215198452145],[0.006264963562603698,-0.007742848097833975],[0.0038332809149593623,-0.015205815470632107],[-0.00298275385340744,-0.0011495792571692303],[0.001106628434947046,-0.00606691821644378],[0.002306117503353072,-0.012224486656837119],[-0.003450717879752544,-0.0013792750909503108],[-0.0016667350707178382,0.0005904626653632933]],[[-0.0012780252595101902,0.02123937996276513],[-0.001247584071276949,0.003508459055408964],[0.013245485435927285,-0.010314851337824834],[0.005790075689155335,-0.013246472813759288],[0.007000081486992306,0.00043420093338757],[0.005570955116442903,0.0025295945468636117],[0.00505955996408648,-0.009124456663591943],[-0.00019149839042391023,-0.008377667509814963],[-0.0005284502123686654,-0.001971405405872418],[-0.0024250852651451996,0.004748891670590602],[0.0053019241336803285,-0.010452578541744487],[-0.0008669497981692,-0.0011274214501012663],[0.0032541782459446153,-0.008992133398809391],[0.0023941466383235873,0.009758644758734458],[-0.002709877433893606,0.0088828017170666],[0.004140837696874001,-0.0005451894956484139],[-0.002864531202329452,-0.008042135811337411],[0.0035299352991909547,-0.0054106037418765055],[-0.0012029582050950552,0.02055735247534318],[-0.0010666515588535325,-0.002783138321835556]],[[-0.0006685198283835079,-0.01376593493713922],[-0.007122060017394803,0.015374148854310784],[0.008481221545035448,0.005654432766587955],[0.003330737508448368,-0.001411212223582715],[0.005702717819041462,-0.001424665857008252],[0.016084729546667335,-0.01030735956071462],[-0.0021098055825490227,0.003305711953079879],[-0.01514206460347357,0.005424934114121765],[-0.0043742718863210486,-0.014246432449100663],[-0.0012544721066715448,-0.005822817931998178],[0.0030560708337033773,0.0021309000099588183],[-0.0016036757470790925,0.0037808051325312272],[-0.002992309028419703,0.001999989487999233],[0.0003717009007586664,0.0027968162654676337],[-0.0012210398657758101,0.0034016871834809514],[0.011139401967319025,-0.006031535747573114],[-0.011267158449983748,0.003728168754071925],[-0.0008468596878231874,0.0011479023654358978],[-0.0025898099078935062,-0.001971181394720105],[-0.0034363984074507604,0.005642541143344843]],[[0.0041884245306369125,0.005378839598989568],[0.0008466232284726938,-0.006448372686410384],[0.010220389111808142,-0.0019399081192829877],[0.006573409910527582,-0.008316701651752753],[-6.765427965095213e-05,-0.009599120055744509],[0.009067314556013768,0.010176872878984293],[0.000289670301833756,0.005084650074583494],[-0.0003102177502737821,-0.005858930503715915],[-0.002773302138421387,-0.0022472149518444366],[-0.007679618015962038,-0.0029200568331664814],[0.00326488761538149,-0.0020752556077484638],[0.0005895154788791677,-0.008527956600650734],[-0.0024382741411228,-0.01525076810610627],[-0.008743832232036276,-0.0024451015625817545],[0.00031085687611180635,-0.010460130532245072],[0.008724914838620975,-0.0014492187280230988],[-0.009851011867619776,-0.0050066863499728925],[-0.0010726487812248032,-0.001513431366008594],[-0.00016803527194207864,0.006623632962361942],[-0.0026539934976834464,-0.003578266888198989]]],"a":[[-0.0008667918437437715,0.008216315466177205],[-0.002826382814393579,-0.010031176974797402],[-0.0010818203266160656,0.01566109818442118],[-9.163233558312327e-05,-0.010213443413924014],[0.0009701135586209992,0.015530220937921778],[-0.0009844275923535507,-0.006684575824841724],[5.804871498537971e-05,0.00957354020559634],[-0.0033729812659541473,-0.007324551678170931],[-0.0012199776934262163,0.0070024432938573244],[-0.003883462031035273,-0.0043026636334905525]],"b":[[0.4448083646405865,0.04998508162145885],[-0.10209879308921595,-0.017805333119565597],[0.10311363710177587,0.029474247283537165],[0.04426655482667925,0.025945144340888862],[0.009773588370827382,0.006687042090324564],[-0.000338586488634721,-0.011008870234249077],[0.10046539285555137,0.01911234476227139],[0.14907441599263557,0.031829617559646146],[0.024536863083015305,0.004974254616284976],[0.009044750151046178,0.0004866661235038149],[-0.008213953691107622,0.0032923495314585174],[-0.06211587001145741,0.004939940590291542],[0.014817849489707895,0.0006735693176697289],[0.03515184216304736,0.0228334926924648],[-0.0940420404755977,-0.024561700469018406],[0.042719246538110864,0.018294755062011593],[-0.02296172003857102,-0.013126596125591075],[0.04780689667268087,0.012578853623672528],[0.10999557871125505,0.017829309278831633],[0.0009194173521096102,0.0011890697703431175]]}
