{"Name":"RbmSpin","Nhidden":40,"Nvisible":6,"UseHiddenBias":true,"UseVisibleBias":true,"W":[[[-0.0011638076322176957,0.03199671085819578],[0.020674800907255438,-0.19414922576229027],[0.04899569730994889,0.1312178750552699],[0.12102406331475739,0.07789794194264782],[-0.016517305625540973,-0.00865663800830273],[0.07763143414253615,-0.02570291494657272],[0.06229382907394303,0.17426456879178645],[-0.05310422833053343,-0.09452540029362294],[0.10010947381714223,0.03340460424461899],[0.0476214238042217,0.057168982880905696],[0.008809365624714693,0.12409833607903066],[0.020012904297091995,0.07793623586461972],[0.07955950379753553,-0.14246190013582927],[-0.07474486520873075,0.14736445326827263],[0.025778603832544544,0.11264747278485707],[0.06320018372064902,-0.05729552787759198],[0.10405346762160507,-0.02605186477996877],[0.18729279071124316,-0.013514823325789573],[-0.01824072483192718,-0.07356617690063351],[0.08528199498221474,0.017016299356378457],[0.00784262836536124,-0.04611153417922949],[-0.013133351629482523,-0.16957929937922372],[-0.10027408209388167,0.007773998070879741],[-0.06317858118042861,-0.05273749474384192],[-0.013174550370340175,-0.02162723468353926],[-0.1526465636312014,0.036632923815544824],[-0.05388278826769427,0.15474547663464736],[0.1531417865522536,-0.06541970089738518],[-0.013529063122931416,0.06421278430764117],[-0.01998071464783062,-0.060665187153563255],[0.008500423803301833,0.06344546977156823],[-0.0007581945888905624,0.10679372629194682],[0.07152205061683493,0.009066691613101878],[-0.04486806892508086,-0.012412601673711667],[-0.11416750324700507,-0.07507133302757714],[-0.02463541584311665,0.07085746465932873],[0.017649220695440362,-0.038909652489235884],[0.05772795840968336,-0.08278961328744731],[0.038907861640987536,-0.0016857266557635362],[-0.005180423306431692,0.028855312793596388]],[[0.05633029992711629,-0.15396433494069495],[-0.01914978839778003,0.04570617534486187],[0.05238679545155711,-0.1856200842345747],[0.13446130579150017,-0.10119269962605308],[0.13107667646054935,-0.05767253288120291],[0.022206714260939574,-0.015004435965710976],[0.052564449866242674,-0.07705699552205605],[-0.032615200551473905,0.06428335677892376],[0.0940018711155862,0.026728522000793547],[0.008407672037964706,0.018469423528046702],[-0.0066697472053892475,-0.07171185292503882],[-0.009627104268894293,-0.11287092946096719],[-0.005218279943567601,0.044088904088493384],[-0.0748416373942561,-0.13344465493337856],[-0.06039038103157029,-0.03856614536179046],[0.07855738357682866,0.14776055149635173],[0.030252182439968408,0.017820351464120938],[0.012031695593740567,-0.04235054402966701],[0.013491875310033515,0.035676220647881327],[-0.06004664210373829,0.039329636575689594],[-0.17686952828986574,-0.08516199746173571],[0.019436328385204954,0.03847753645843122],[-0.029706181129925794,-0.04327806220588141],[0.044056878714019386,0.09078604346304048],[0.04672653321869821,0.08274790850578832],[-0.15704204772961913,0.015753354044234967],[-0.054225663799923864,-0.14827871020536781],[0.159492517148422,0.043667412891832326],[0.013543930396993907,-0.20307401015084256],[0.0061815658348303,-0.004220879981813596],[0.05403474574012679,-0.030222795833447447],[0.04098891071488213,-0.024194621698903893],[-0.08310479363510279,-0.03818925684416176],[0.040598358602269444,0.05667364963025751],[-0.11698972881681757,0.16482269002959032],[0.0038711943730942,-0.1269158352883904],[0.02685511888614488,0.05159235623412039],[-0.056037064610397466,0.020956744730740436],[-0.011937987001688796,0.021694314820160935],[0.027630237553827906,0.06888530661583574]],[[0.05706997987674234,0.15672011718552345],[-0.026859023726529634,0.06859380066328309],[0.012909545938790436,0.11253794254459006],[0.05791334797553595,-0.005538232281576571],[0.1272639819858898,0.07036233157431625],[-0.05807510525848611,0.025828879630462372],[-0.04765914328317623,0.01913171386751574],[0.02932180040808565,-0.04495546759409117],[-0.014168105272686634,-0.05455280306056743],[-0.04102499830776104,-0.0890242106094815],[-0.017836262466398335,-0.049762719732908085],[-0.03266405713514656,0.02663965691007449],[-0.07602147792022464,-0.05174528036109297],[-0.014298530667586575,0.03894257676405273],[-0.06996179102212303,-0.011033333541429729],[0.0627718071464849,-0.10867516861615924],[-0.09963653219230131,0.10486291529088493],[-0.20131277658312643,-0.09023505528802855],[0.027410713837654758,0.06690193705617328],[-0.085839555863706,-0.18602314304408318],[-0.17765742614731353,0.09989102759064196],[0.03484149450020324,0.037459047703214246],[0.07868142719826182,-0.06771361941180007],[0.06814339509767059,-0.15635301280661493],[0.045950684984135556,-0.11363897759995087],[-0.04440493434876986,-0.020386719236423007],[0.0016174345643173065,0.061174946713703895],[-0.01801060616478525,-0.0051743254788032406],[0.004838128007059697,0.19881890559790244],[0.025072638612604815,0.10666423921784049],[0.04517020956656293,-0.007878610692643426],[0.03680294132558806,-0.03651215146054887],[-0.11710080153043646,0.05980656614763879],[0.07883151196237405,-0.06766460232208477],[-0.06491734302763306,-0.0461718418497543],[0.023244091220702007,0.05986077990258825],[0.008919050449189093,-0.10249468475684646],[-0.08692900978108044,0.0015325196391774998],[-0.041589202265899364,-0.09508286503855083],[0.031017261062643284,-0.07732904087490756]],[[0.019896736787615388,-0.0038812671750733303],[-0.013394926126937892,-0.10149712964992066],[-0.055758958470247054,-0.13830555598707583],[-0.11094195769898467,0.02034374517337981],[0.004629661293176771,-0.006317700090004203],[-0.08343282340772999,-0.04826738527196358],[-0.07490511834977155,-0.04142672205030059],[0.06477820347355065,0.019681660793588903],[-0.1090061256355946,-0.07089637776101028],[-0.04769236548896684,0.11335641950197575],[-0.0013880518172585336,0.1085898622022398],[-0.01719885501339118,0.069423903125499],[-0.07470274675831463,0.04873831793151142],[0.0778528523499585,-0.04912688628968245],[-0.016963095160461766,0.012981854371827969],[-0.05172009161767744,-0.026143186121355907],[-0.10122042469777263,-0.1648406771926017],[-0.18652249897368603,0.125552919289602],[-0.0037084553049959164,-0.13199737028698094],[-0.09118337376152094,0.11610113298600194],[0.0010176312399091815,0.013587790146618662],[0.013336391424986856,-0.028765577983249985],[0.06630973855407704,0.18192319435142543],[0.0771200944685607,0.08174570608117826],[0.012591766227836034,0.09798227164207486],[0.16101230493798785,0.07989732500758027],[0.058757724228008776,-0.0038434920288740724],[-0.1504500224750502,0.12372633189400035],[4.397063130705214e-05,-0.042816186024765585],[-0.0035319774650481267,-0.17487663097414574],[-0.010068213448884703,0.03448789088911328],[-0.006027898252132508,0.0021430684002895803],[-0.0855579074954634,-0.025238490695664736],[0.06133584875766636,0.026554818683591334],[0.1129369664218979,-0.030944199203078206],[0.021809313128922626,0.06489588105793342],[-0.016034842577751986,0.13710544026368426],[-0.048484627378564515,-0.02342613725367588],[-0.022032826445946663,0.1288911151353602],[-0.0035996963214268347,-0.01206224706020635]],[[-0.034311477102811024,-0.09057887679676566],[0.021405121188079218,-0.011943847086491328],[-0.0524225513744105,0.1073353402680898],[-0.11880746572230814,-0.0016312286255396654],[-0.13737598178445629,-0.015531361771566563],[-0.020130473447273742,-0.003108248344692791],[-0.031383342812838354,0.042009547756810824],[0.03305177257549497,-0.029252838630279738],[-0.09648770680684919,0.10650961736498839],[-0.015739592150583206,-0.04040159866488893],[0.010480851999231322,-0.07335419429148125],[0.012322179861272075,-0.12014879985214512],[0.023212521271755368,-0.05490479908051821],[0.07226058146929652,0.06278968388486966],[0.0509889130274029,0.14724456349675008],[-0.07246556332177483,0.10969159938718515],[-0.051785084137499916,0.05724257875701005],[-0.014315893035608747,0.0014750088667991406],[-0.01668328457308292,0.11470348177554311],[0.06482291807626991,-0.02557237333518032],[0.17947413318449645,0.07058840343138346],[-0.016506094937495625,-0.08024482865159477],[0.05847394258091924,-0.1137973504180509],[-0.03324919176641587,-0.002449675103042737],[-0.05007120367064172,-0.0738462717827572],[0.1432328657067567,-0.06276736366906017],[0.046127207529534926,-0.008604569113108357],[-0.15619474226101865,-0.10485274838979329],[-0.014842518728097191,-0.02557698228273092],[0.0031966593152149727,0.11907145605838175],[-0.05450343361117592,0.012416172346201347],[-0.04056435914048145,0.12079049864044718],[0.07268535704214134,-0.016594556442671615],[-0.03140639405660099,0.029801408562170038],[0.1212711357552476,0.06726504023891694],[-0.003953917013752888,-0.12459860409692869],[-0.024568889985287733,-0.15706257903432058],[0.06917174262868948,-0.055522145295477124],[0.010122938408371331,-0.11589372892016961],[-0.03159822262662926,0.20889607161189433]],[[-0.04525104746619826,0.0923657779132198],[0.019051370525972305,0.16005422651623838],[-0.007504097717564501,-0.04026664225737568],[-0.042887172416897844,-0.010429287309122008],[-0.1414902942046079,0.028458656003803852],[0.06182463194285111,0.014877601132634203],[0.0666177205933558,-0.11504923410493469],[-0.029857222039925354,0.040814082922623555],[0.019515297628016202,-0.07259879564218535],[0.0348589480614385,-0.023596419426751072],[0.017873419794631043,-0.05519421827233634],[0.03187180886891414,0.02873111300428576],[0.08180397432103106,0.16064223944495523],[-0.0013632481262555527,-0.06892602927377624],[0.03286571999911153,-0.2431339951956826],[-0.038839372865507815,-0.07135339091689161],[0.09326349856682145,0.021673797737223735],[0.19435683921712188,0.025680535978837345],[-0.03394269043088585,0.00269970986114383],[0.11198016138197799,0.008053089866164733],[0.18764397092384727,-0.05056429658155949],[-0.02167383679917839,0.19582578670378992],[-0.08653614144678225,0.02619365270954569],[-0.08362207496353528,0.026476388351536734],[-0.05888020218415402,0.06576925584526097],[0.03556270710124419,-0.044013626343503504],[-0.015657913425004742,-0.04533387383101143],[0.03420274971151233,-0.011379489643204625],[-0.0237335654816093,0.01965188358255095],[-0.021534842537491074,0.000933010489137226],[-0.04681437065266698,-0.03974996925426056],[-0.03144349080256339,-0.17587808630384247],[0.11323391469389225,-0.006159786059387503],[-0.07214128721239466,-0.023262698523113138],[0.058854178139736174,-0.04687925034466489],[-0.02919008751530428,0.05607701828247654],[-0.017994463111457366,0.07581475118656521],[0.09272793398011676,0.1103871768261545],[0.04457020762008514,0.0572862283792252],[-0.028516290580548925,-0.21060564051133]]],"a":[[-0.0033476129320773084,-0.0012141592443384744],[-0.0027675746795723767,-0.013652745581094692],[-0.010183872596851828,0.001436286567349019],[-0.011817402388024197,-0.0020569599829647904],[-0.0007345407794927427,0.002309721443506658],[-0.009067244649113257,-0.002730934568914922]],"b":[[0.00035777993306195357,0.00015896544214341238],[0.0067370933133994,-0.008549949081486602],[-0.008937505963704361,0.013084007484582919],[0.0004985050854883681,-0.0020725305059647223],[-0.0023698704149013577,0.0013021956256455704],[0.017964008277912488,0.004349821735276223],[-0.00716485289526655,-0.004270976653005282],[0.00420109304309738,0.007036610473958922],[-0.021480543858433208,-0.0007947724588177139],[-0.006189892262123227,-0.0023707069732171273],[0.0003334820810611075,0.006714775463521818],[-0.021839742746604145,-0.009801416778118577],[-0.0044432081317226394,0.010883480101122852],[0.02256436259138886,0.01839864131349215],[-0.018024989461657898,-0.0019113927272129119],[0.01938584791194167,-0.007712829092335486],[0.001892631876430549,-0.0013324449634170813],[-0.009337242850607235,-0.010888039911057603],[0.005560759437988045,-0.004216344290008444],[0.010139730260234375,-0.019426977035794237],[-0.00961838892383531,-0.014472218689019305],[0.005412669637092164,-0.017485863131013073],[-0.006698151611581859,0.0011331362463063224],[-0.00456159724018023,-0.003943647035713194],[-0.005998634166600832,0.005453156437699376],[0.0031498997361377504,-0.018884037772431198],[-0.019225522910331257,-0.008900990452136449],[-0.0001019550453936925,0.010762401498150925],[-0.0008613569696223819,0.0068903776572745755],[-0.008272913413096598,-0.012030603799362983],[0.011291633482896662,-0.004833434758047706],[0.005400474747052883,-0.006902016519216266],[-0.0060167639311406,-0.0037180394164299043],[-0.017975342683238065,-0.010314792208659052],[0.00898766495243682,0.012231827966435172],[0.0018118072802996534,-0.004431559326091089],[-0.006821941501286476,0.003536781842342781],[-0.004916219205974666,0.012585734604003142],[0.002928775632606788,-0.0030934745779781997],[0.0044667868364564045,0.009426906491628813]]}
