{"Name":"RbmSpin","Nhidden":40,"Nvisible":4,"UseHiddenBias":true,"UseVisibleBias":true,"W":[[[-0.0008686115577712842,-0.0064563428858494774],[-0.0007333354872991999,0.013488798660883771],[0.009799454851403124,0.03581210015638157],[0.0012317796460714102,-0.03686301917180481],[0.007620623589258542,0.009937782047683797],[0.010983816273805775,0.014690446618805779],[-0.002328596027293029,0.018787253359246654],[0.0028765604536840545,0.005873987677793528],[0.004293420807048252,0.029164386017431647],[0.005265613694111167,-0.016815479821918496],[0.00704726283515996,-0.0009384828522042304],[-0.0014248235343898717,0.003131634084877873],[-0.003616513710071832,0.018867606350271904],[-0.002255171319898742,0.011866259156288786],[-0.0004919438110791879,-0.030778393571922687],[-0.008083081883666826,0.027497701032710223],[-0.015151473675609395,0.03194671209007477],[0.011030639485964755,-0.009513805678915037],[0.0011466212512256154,-0.019612682633171112],[0.006508689826647485,0.01431010496087156],[-0.0030823618282486273,-0.003237986556153875],[0.009876810930119571,-0.0011552677980741074],[0.0026112069398373434,-0.004431154973514907],[1.7428766780627077e-05,-0.02310479758699819],[-0.005202886508871727,0.010014493461581654],[-0.005980974516145646,-0.002044258269729726],[0.0011203180262025596,-0.023765329864722712],[-0.011321400802388254,0.010560510487577326],[-0.005711915338626666,0.031741617841498246],[0.011338110554722941,-0.0007691549447841735],[-0.006116795409265051,0.022286557793980432],[-0.002067635929197637,-0.024996725637501053],[-0.00047226906153994793,0.003775318329394341],[-0.0013040303109231094,0.030278076588654806],[-0.0017364351773083103,-0.01789408339154699],[0.008139108690916741,-0.002847663804464912],[-0.00902417501262167,0.007204712348258945],[-0.005924843591006999,0.013285493373028806],[-0.005555776211726964,-0.005367690587771455],[0.0030582767978443227,0.005794778898964173]],[[-0.0004545160412926108,0.019497469960939956],[0.0014554147862707923,0.011589093113767044],[0.009525838616834948,-0.0027838628662368273],[-0.002517548119791037,0.009063273877422834],[0.003255443315075579,-0.03507255509235875],[0.01434899369431918,-0.007005998377431245],[-0.0001627229410411886,0.0017458706378555243],[0.0011360463331474451,-0.005634625927956164],[0.00328614053853079,-1.022407371611235e-05],[-0.0012149562995474458,0.007765766692488292],[0.004005720860850074,-0.002647628400322389],[-0.001365980112941815,0.0013174163906806995],[0.0005747569827189599,-0.0012089580051258938],[-0.001314290338868557,-0.01661771493722816],[0.0047550213461066615,0.0026453782608332086],[-0.008995999562197547,-0.009264322324817258],[-0.013811839155779078,-0.01130018841751003],[0.013419543583056753,0.015280592479415227],[-0.005249612262998956,-0.00889263498051173],[-0.0033921306104838784,0.021901586666170446],[-0.004136393555278742,0.003852122444325427],[-0.00047815432543566583,0.015129240972169342],[-0.0077991239504220855,-0.01480858705718454],[0.004828582887271742,0.012929162749839553],[-0.001798130505151072,-0.011677167254513919],[0.0034779676170736567,0.03085560777688376],[0.0005629215452977298,0.01252933352947311],[-0.015904903706379377,-0.0071934843983038925],[-0.004802796626314903,-0.02342640131285506],[0.01066357041579636,0.0033269889710924286],[-0.006707743265690948,-0.027630733690001737],[-0.0003221349738481458,-0.013272190188443611],[-0.00018875982924342592,0.003136204854995716],[0.001357285569767854,-0.00652659762124817],[-0.00829638654483459,-0.01369194854109041],[0.006361612533996088,0.021017961053485832],[-0.010644972069140774,0.03768342487330676],[-0.0020170751814951823,-0.015014546986982775],[0.0039058624637805686,0.005658626700879351],[0.0039018916668510056,-0.004479737945465619]],[[2.120525827075951e-05,-0.004434885122926359],[9.686788576114097e-05,0.014143539094054825],[0.01309540511121483,0.018406311045180358],[-0.0022179387150871983,0.00544342017462484],[0.0012734023817451028,0.02998236221593722],[0.009556645958388815,0.003103450541662276],[-8.946086762093466e-07,0.006066054599194785],[-0.002749922943471785,-0.016369020354762148],[0.0025258345753007504,0.00864704520635045],[0.004701612899857173,-0.0054057870684729075],[-0.0036854021521661455,-0.017825515503317856],[-0.0036724056917033393,-0.008836640175510209],[0.0017734609152200984,-0.005387366719791143],[0.000796814256123375,-0.008747165358980907],[0.00021507916562122124,-0.012015404652142521],[-0.002482401429804136,0.01611760016567171],[-0.012433596879262626,-0.005587356854127194],[0.007588853240694602,-0.022690934542846437],[-0.007787262701334622,0.015248967093092232],[-0.013350399187235386,-0.0044830001216169596],[-0.0030737999707648876,0.012271721267214299],[-0.004405337722040375,-0.034315739645723306],[-0.003463163057036063,0.0034142179078745],[0.0060041369109945925,0.006832373347604527],[0.004176660058865873,-0.01711034998151999],[0.004592485577182541,-0.010489459081023207],[-0.002283350637756608,0.005161780404676058],[-0.006309422174236487,-0.030567825325426526],[-0.001445022496403892,0.005571346305666637],[0.002761487849799943,-0.02668844019816502],[-0.0030015246322684453,0.03358402613275081],[-0.0007367248248815535,0.021170095871570892],[0.0021412888903196547,0.013447975559604232],[0.0021073099942955256,-0.014561793201320844],[-0.009370239378298012,0.009577525805503166],[0.007956668959700148,0.009924022713810716],[-0.004279519896248793,-0.015331901982140798],[0.002187098954495359,0.00518497757504659],[-0.0010734152608180467,-0.020370639216664564],[-0.0004284587128828015,-0.031175810413893633]],[[0.0041573372586921455,-0.032008282461346606],[0.0022882374026372636,-0.013973029548963489],[0.014401797815967714,-0.02514725278986974],[0.0005465524507440104,-0.01630692827425658],[0.001197406585511188,-0.018246644627259806],[0.006585557557626036,-0.007132994600185405],[0.0010177012383832146,-0.020606670354997816],[-0.000742130897258565,-0.02687926509707287],[0.009144837166490555,-0.01916254328478682],[0.01068022164278178,-0.010378657956019856],[-0.004869411655536773,-0.006784304035174821],[-0.0062558658700710415,0.026974106265772773],[0.00012976827104474857,-0.0039758807494935135],[0.0006039607259774938,-0.004693458985152421],[-0.005661447221320764,0.026367761886701178],[0.003257029025319757,-0.017238344305343812],[-0.01187041703556836,0.000467643189481569],[0.003028791058381442,0.005358458000559632],[-0.0022920871227653404,-0.0018707921371549842],[-0.0116823542188825,0.0027375267253244794],[-0.0032923820643508757,-0.01367280616142641],[-0.0006485217062876374,0.015658984265349583],[0.0020395628660131483,-0.0064623011482677845],[0.0038850788436803523,-0.009300694653924227],[0.0029015899414143033,0.021981838297976005],[0.003381825622729553,-0.006221284335210824],[-0.0016742379486175895,0.04007504805315869],[-0.0025735381197169085,0.03485923076534359],[-0.005210785112772928,-0.005792715505546407],[0.0014821475446578105,0.0036282361546933293],[-0.0016531964898072865,-0.016722771900421884],[-0.003353454887858757,-0.006574653951865224],[0.0028264805190803474,0.012555748819919674],[0.0032039995796985087,-0.013567185955067817],[-0.009080154627296331,0.01122290515190373],[0.009608173868340768,-0.003211065381742403],[-6.172943955905217e-05,-0.010080390985808022],[0.00014331471510934182,0.002468312189967329],[-0.00925615532447446,0.011183965434063905],[-0.001707168416127309,-0.018333943644204726]]],"a":[[-0.005450080187432901,-0.004383324238512263],[-0.004210845548550022,-0.008396171825950996],[-0.004782028960685582,-0.0064039534211277945],[-0.006740501737570567,-0.005847556331854165]],"b":[[-0.006159655686590595,0.010003300224203955],[-0.011052497096403545,-0.0012042792050381195],[-0.00020953045478076048,-0.0027197579488128765],[0.011488559474417924,-0.006915337262138549],[-0.013288897869493343,0.008328981956712686],[-0.0017251535878909493,-0.004951614326814618],[0.00016947365451308997,0.0018033476259324691],[0.01838571470499126,0.0041520377276597405],[-0.012601500428213744,-0.00385499050356446],[0.005677623060364154,0.007801133551066762],[-0.023746142649324436,0.0015781422879526472],[-0.007351022997626089,-0.0028055751311072794],[-0.001949351551703912,0.0036340448271500337],[-0.024571515300635074,-0.01360499173043261],[-0.003909326037289119,0.0077309455129073845],[0.02496028934283216,0.01374800631386313],[-0.019644259687088498,-0.006658934421830979],[0.02186148962054311,-0.00162209251444725],[0.0065488070324078475,-0.0008429522133088364],[-0.011751235625644278,-0.017092866919886145],[0.0072804920645188394,-0.0004134999996654909],[0.007816944829856638,-0.023017356086489634],[-0.015910323015348404,-0.010327341697963925],[0.007840409119552286,-0.015341532568464569],[-0.013783535308689795,0.0006246398177820006],[-0.0044154439479820815,-0.0038776623664750214],[-0.007927897376467602,0.00522963959739186],[0.0032382208458879374,-0.02213614949709228],[-0.01907210377165399,-0.01240777479487653],[-0.008284653602953771,0.01323020522052614],[-0.0026047163962481944,0.0002696733492331825],[-0.006266286758758224,-0.007209860453453711],[0.010676542181475058,-0.0053753767119612324],[0.0038167214863377734,-0.007766754259903999],[-0.006585908035525596,-0.004393774893232834],[-0.017892582983926975,-0.00935642600550761],[0.010201318855752482,0.018929053226487334],[4.113659345380535e-05,-0.008794908658097924],[-0.01043004122818818,0.0027354499048039857],[-0.003986719247915815,0.012010841341347162]]}
