{"Name":"RbmSpin","Nhidden":20,"Nvisible":4,"UseHiddenBias":true,"UseVisibleBias":true,"W":[[[0.0009052739715732323,0.0014606095716367912],[0.0020398852728936503,0.011812485125499053],[-0.0026047340954691543,-0.011870039847146819],[0.009041492725065596,0.031201901496734886],[0.01310275876153412,-0.007701505046913809],[-0.006210720037701174,0.0029412591325069406],[0.00616058513731577,-0.014279359498030879],[-0.007774937791156271,0.06472840259030793],[0.005963916077323928,-0.022368276854963245],[0.004289935657150309,0.04026126033556702],[0.0002512347441715997,0.007240961992399732],[-0.001069563622453278,0.013137632029342972],[-2.0234954174949776e-05,0.013767082811947622],[0.006191687403382698,0.04008944691412654],[-0.006249903947186098,-0.025237329102158076],[0.0029144558346849364,-0.0006791207566044907],[0.0019359006043602675,0.0276058288129407],[-0.0008030586468154724,0.035758438974685516],[-0.0023507043210554703,0.005849015661674872],[-0.0024426030780903105,-0.04703081391283942]],[[0.0004690946979479899,0.005553371736281942],[0.004234719090918961,-0.0020225123490492398],[-0.011193748043036132,0.04487124228600897],[0.002267106195121557,-0.005083107903467492],[0.009114700697854718,-0.01663880553612486],[-0.00469819366775438,-0.027233247943320407],[0.013622618621489127,-0.05557870125404103],[0.004139279004616688,-0.03822935751645129],[0.006130815656370694,-0.010504884260282352],[0.009374201096351542,-0.0688477896999234],[0.0035108987119876435,-0.00661380313722593],[-0.006056691272250786,0.007323316791464246],[0.002366960744380489,0.010710903222354885],[0.00039770418575193865,-0.001747231490196055],[-0.002981163260105646,0.01413955457044822],[-0.0024563406354946226,0.008123423147987172],[0.003325108765009022,-0.043498445115480046],[-0.003120471935854511,0.009069895401025777],[-0.005401873066450497,-0.0036458703972115343],[-0.007009146737573601,0.015661616683609367]],[[0.0011317138266858531,0.010915082886249804],[-0.0008522706334946874,-0.01705447404535603],[-0.005133962385185912,-0.014410977686434213],[0.013691970671703198,0.004362933123282267],[0.014800078464047175,0.06452630598473491],[-0.005493556043364641,0.03814765880426707],[0.01090501695249378,0.04904809107518427],[-0.010934957306423842,0.029981372992555464],[0.004942340701640125,-0.04678708849463716],[0.005367260006580289,-0.0034135480835664916],[0.0030124605831278826,-0.009495236491541744],[-0.007625742329176015,0.0249358811775748],[0.0018759713032017076,-0.02251006221978804],[-0.006779647374734863,-0.03900158891892919],[-0.0047417648886740014,-0.025514243091005265],[-0.004346445647702268,-0.05859777266005934],[-0.002943676569616491,0.005230838089727211],[0.0022473875647417555,0.002968558497770099],[-0.005704997515919286,-0.04204468089775825],[-0.009198738132118309,0.006406412159946679]],[[0.00681546022723371,-0.02473202722828681],[0.000491553837275423,0.01151449444022057],[0.0017906762219639307,-0.02277874888923025],[0.009715273186346421,-0.052384453580608156],[0.009180688542318304,-0.01973783499660765],[-0.003921482303776967,-0.02934469492402632],[0.004175395762082289,0.009635363779287559],[0.007323007058919241,0.015513237051710564],[0.00038321579910507504,0.057154933750719714],[-0.00705136263102169,0.0013125749562798866],[0.0017773196092633527,0.008356528047851466],[-0.005115550193199958,-0.022585956748943013],[0.004770624803817115,-0.007754714640264073],[0.00012327909761815494,-0.020670379606394493],[0.0019857863421625264,0.03384252804260984],[-0.003016951112462603,0.017346696917010785],[0.0030514322021074044,-0.02344170368585055],[0.0028023488776469127,-0.01448392051447013],[-0.004834310068559584,0.021754005588431637],[-0.004935544599042883,0.04941350936513832]]],"a":[[0.0012514499494573064,-0.00303970306180875],[-0.002683026126645944,-0.0026833930878469737],[0.0029379547280273194,-0.003668866495913658],[0.001112064906000107,-0.0038976992199666353]],"b":[[-0.0013161299698517105,-0.011833426113718489],[-0.016505461289724386,0.003710056890124384],[0.0005825331110507116,-0.005311641024692868],[-0.00425929692054975,0.011945914700763983],[-0.00583987672650065,0.021870392629219384],[0.008757292547062742,0.011171814413999996],[0.025361515085484444,0.017735315714744983],[-0.015182188455334384,-0.0015722734728416809],[0.010267631069103578,0.009696507926001298],[0.007745451178204238,0.016475085660526523],[0.0008772204591842659,0.004925577029896377],[0.002971203674339597,-0.008603101871618201],[0.013485827647802819,-0.0028916919151978854],[0.01847894847042668,0.004603047818493393],[0.0023124632070101094,-0.0012674633549785601],[0.0007573769464119486,-0.0012166992385941452],[-0.001605230635365284,0.005906568002826856],[-0.014966589674415245,0.018610322474675017],[-0.0004939025368863459,-0.006412989589908255],[-0.002878078927894536,0.014016251889457857]]}
