{"Name":"RbmSpin","Nhidden":40,"Nvisible":4,"UseHiddenBias":true,"UseVisibleBias":true,"W":[[[-6.897841123267246e-05,-0.006817577636577337],[-0.0005683026636702835,0.0589819537796664],[0.01275575380691663,0.12027367533622967],[-0.0001153807386286588,-0.11461761842240745],[0.007111842522457241,0.04578648764620546],[0.010297800455892847,0.0703544935472146],[-0.0014327902713718412,0.08530561746650214],[0.0009996523459698072,0.06428400434918945],[0.001710908061647631,0.12708820698629153],[0.005290643828190446,-0.05834747565968343],[0.003474897149678237,0.009126649419007525],[-0.002279333252743738,-0.028569311377343292],[-0.001537013510153398,0.06420056217725105],[-0.001259156098470967,0.06747485940675543],[-0.0007748023647361826,-0.1227827138715481],[-0.006582206285935585,0.11071099332843658],[-0.014288576096233983,0.12296994767611154],[0.010563895807034256,-0.06135252203143427],[-0.0024368023655242438,-0.023951813251717777],[-0.0001759768512721413,0.02305168168156537],[-0.0030338978154653613,0.001919325204279803],[0.005977268308896964,-0.02146802860351212],[0.0003215347501097888,0.021554547159509087],[0.00225346597464105,-0.09098148164307525],[-0.0019046715988260238,0.0073926718763900326],[-0.0017967888383539766,-0.04784289313549755],[-0.0020428037679141933,-0.11636767237087017],[-0.009071111511556642,0.004830864625692665],[-0.0028355400924821657,0.11936609611351827],[0.008539140322624887,-0.014475300958483806],[-0.005630825470474138,0.06971723116738132],[-0.0020774966278433084,-0.04748408599867982],[0.0002601620318873782,-0.00269707928066486],[3.6421540232149484e-05,0.1258010967505358],[-0.004840828815104531,-0.0483823949360896],[0.008267947918872169,-0.03489085099540719],[-0.006234821322898689,-0.025032547285257965],[-0.00320263311789597,0.05811964723740501],[-0.003702830991288787,-0.051379536006476156],[0.0022219629253607625,0.03708726468773878]],[[0.0003347508009253218,0.07061378242552423],[0.0014954830071629264,-0.007518196040736214],[0.00885875498253223,-0.050521735238569995],[-0.0012063130639377129,0.07853907049221033],[0.00019474435291800477,-0.14598209297732992],[0.011885827896692217,-0.059282158393226134],[-0.0002733649953913341,-0.032299093075975956],[0.0006311671046853464,-0.02896460397879315],[0.007243114850583316,-0.05015734379888233],[0.00243908766502423,0.06257363539082972],[0.002030107939266648,-0.0020060667372483443],[-0.002294414736772071,0.019094358833700132],[-0.000160216419276265,-0.024726235190455952],[-0.000956805480747676,-0.06774747017347352],[0.002043832551570098,0.05194490699081933],[-0.0047622372201288924,-0.07072445021296367],[-0.013370419876435169,-0.08251664061233296],[0.010002793275518203,0.08999693179945875],[-0.0036053991240718015,-0.036879824063790596],[-0.0046274538014922295,0.03455188106183853],[-0.00419478954746818,-0.0029206133427125084],[-0.0002166982403897645,0.07076979822769926],[-0.0044197181474127266,-0.05944412337973147],[0.004043389191232709,0.08129397740224474],[-0.000659515877793115,-0.011030095533501537],[0.002925908403046926,0.13742838629482435],[0.0023946333021349023,0.05390483544032497],[-0.01163791266634376,0.0032105482949577884],[-0.006830703658007549,-0.12072810576394144],[0.008530402848842702,0.03824975979647789],[-0.004934566085586103,-0.12120926682673515],[-0.0013105418254079038,-0.037835035860329526],[0.0006809226590394535,-0.004139904546623432],[0.0016167634708393595,-0.05456940710800426],[-0.007720699819981897,-0.03416202186196486],[0.007202688062884691,0.06655368528174514],[-0.007677933609129798,0.15329844604979567],[-0.0019289125780574655,-0.07132791279729347],[-0.0003957831391345108,0.06158382085082034],[0.0021810633357729485,0.0032205143576074973]],[[0.0003748310594368969,-0.006190720456033648],[0.0001505880906961455,0.06094318632164178],[0.013863779880315454,0.0787696699970419],[-0.001266581434259128,-0.0010630195122185476],[0.005272955106361352,0.14335440118287832],[0.00994745839113981,0.04983540670394342],[-0.0004075974781728257,0.05511333291462089],[-0.0014028172798601598,0.006046022077598913],[0.0010209070784675137,0.0527870420013093],[0.004743679930569024,-0.04048340898865135],[-0.0016906440944859079,-0.034101536383001604],[-0.0035154502164936124,-0.06568678658323159],[0.0007155757344170023,0.004726553785906717],[-3.8345245581321866e-05,0.010653048965294844],[-0.000499800735800508,-0.06301925878436428],[-0.004467987898875938,0.07313151331132735],[-0.013342050785783776,0.014529484996612694],[0.008868804608436623,-0.09550267989635704],[-0.005679910178997294,0.057234102594245294],[-0.00960962137805389,-0.02859708742697489],[-0.002999505161184754,0.05174446398933422],[-0.0001154362434549141,-0.1476518026064438],[-0.002594957832628126,0.03372301571897124],[0.005053128691287069,-0.0034792338473155805],[0.0018407583329553066,-0.0751093469110782],[0.002202723590269511,-0.07732774293382594],[-0.0032385483663714583,-0.04344005591328009],[-0.00728885672887714,-0.1538827388154944],[-0.0012391304739180781,0.05691146293753746],[0.004484704907732543,-0.08874285984336655],[-0.0042328441708981345,0.13118482339633117],[-0.0008481931888590657,0.08397052679165122],[0.0016415217021975915,0.02059808243242534],[0.0012759121705368617,-0.0008848935249062219],[-0.008172995089725361,0.02366807656808151],[0.008045037541666668,-0.0041993909326101765],[-0.005746952709154963,-0.10487384643054963],[0.0003979368352823653,0.04242141869716422],[-0.0021293733227071635,-0.08449529366775699],[0.0002492894658292214,-0.056648867872837606]],[[0.0022148114687694596,-0.08100752484209565],[0.0020294161531811935,-0.08715854274082971],[0.011344207725656252,-0.12223431454924681],[-0.00036887950123731854,-0.0015216859515982378],[0.0007673338898538126,-0.056557851307751345],[0.009343926740414914,-0.05725283767508057],[0.00063924040630879,-0.10212734906384807],[0.0002925507753061753,-0.08437434614999281],[0.009275303096671914,-0.11107924132343941],[0.006959080513419018,0.011423091103582148],[-0.0013161911061518746,-0.0012149770897768263],[-0.0046298770030966385,0.09774825569269599],[-0.00015687334607535625,-0.03590547989684073],[8.562014813353313e-05,-0.02857251832364944],[-0.0019525199717054709,0.12007640758856222],[-0.0004920224454083584,-0.09600542185857902],[-0.01226627998776648,-0.039455982052472166],[0.005632333677108437,0.055292580386545644],[-0.002460229167279959,-0.01152960793648255],[-0.007503142159135995,0.005459742914320367],[-0.0033567448945248345,-0.05153012485694206],[-0.0013003366486963876,0.09366725077597805],[8.162402832341805e-05,-0.018121264769841623],[0.0033852435515664683,0.0005227819446678694],[0.0008006621299212414,0.08195558509171341],[0.0021394611458776243,-0.00015714413458109208],[0.0006123698172768383,0.13990372496641063],[-0.00811138389594346,0.15349975742403435],[-0.006265145349710618,-0.047455605958351],[0.004691068285776941,0.044466030988208734],[-0.002681024070073364,-0.06817570940066982],[-0.002243718973675824,-0.022324878838880746],[0.0017241341254922115,0.019154148958776943],[0.0024354676512304226,-0.07472429630660737],[-0.0077486920029254105,0.04809073925474238],[0.008549890529530198,-0.0025801887726384907],[-0.004350688776386879,-0.003916208080371329],[-0.0008778962422264154,-0.023288916986215758],[-0.005751496880108452,0.06539527115391996],[0.00017222560872226262,-0.03185362427710848]]],"a":[[-0.0048070764846894765,-0.006848667226315257],[-0.005861410292738964,-0.010518406278757044],[-0.0041836586395973,0.0037206315538342366],[-0.0063313110172125145,-0.011384563866207426]],"b":[[-0.006412491488165751,0.009799474040599599],[-0.011031076215814969,-0.0011672354004921117],[4.585181984343488e-05,-0.0032327777611871316],[0.010745345233529094,-0.0077783728354512555],[-0.01283857673375849,0.008394994129472505],[-0.0014728475206402705,-0.004656833102718082],[0.00023100636388956455,0.0017900909559418437],[0.01843377661808444,0.004216169890135561],[-0.011941161872604177,-0.004050282198351779],[0.005384084423766183,0.007212145199099788],[-0.023721859269130965,0.0014485783192991456],[-0.007120345517931024,-0.002724153813034472],[-0.0018007939495072697,0.004035820556145712],[-0.024056141379302405,-0.013228450943498843],[-0.004254728074640766,0.00824994542724707],[0.025333880397966867,0.013618377199999815],[-0.01863446060953371,-0.006118062291113867],[0.0213291027332013,-0.0017221120078484257],[0.0067402906890388255,-0.000991423498922018],[-0.011769143357181563,-0.01764624066018996],[0.007049273989639375,-0.0004990376162352446],[0.008363844699564419,-0.023163001975098064],[-0.015589500590111388,-0.010504342091244701],[0.007139363429741993,-0.015831362965563173],[-0.013395632923857278,0.000922833679659496],[-0.005032499485255231,-0.0042211718313427335],[-0.008123223047994241,0.005655620383343101],[0.0042940434350903205,-0.022081367040205364],[-0.017866317934052474,-0.011951412999613052],[-0.008177994625218647,0.013189021535420169],[-0.002255432063759357,0.00033430232667040955],[-0.006384604515189457,-0.007120039237366371],[0.010741590980222584,-0.005327098994874625],[0.004387545100355039,-0.007395189544595146],[-0.0064910608091779875,-0.004668763364078975],[-0.018182936955460808,-0.009810997900676386],[0.009426557554761463,0.018522552758330965],[0.00036750880341242654,-0.008309573636301778],[-0.010572708002649164,0.0030219302333570324],[-0.003989450707246511,0.01209615987122106]]}
