{"Name":"RbmSpin","Nhidden":20,"Nvisible":4,"UseHiddenBias":true,"UseVisibleBias":true,"W":[[[0.3778633528037054,0.018628512499354526],[0.6521178587917518,-0.6419583256696851],[0.25058443906185024,0.13138600683443452],[0.08426826318122024,-0.46448331026936646],[-0.7354119275059785,-0.2479727308390009],[-0.6038326852552887,-0.5095623399150887],[-0.3002127981237484,-0.012379660075415978],[0.37713050570979045,-0.4115465735253268],[-0.19478923965273942,-0.13760568445641602],[-0.029513986600419276,0.28557119140960274],[-0.15353788269877564,-0.17332081972481703],[0.2811593696683582,0.27128622205011366],[-0.08170851619452603,0.0242257504388552],[-0.21249735657584448,-0.2749095597243767],[-1.1271909457354299,0.08151329173513623],[-0.14923811022020836,-0.09263988095564371],[0.3507579516541621,-0.5546751760505568],[0.6281585580398878,-0.02337999430063938],[0.08958903820247764,0.011412963571848813],[0.029247582961252405,-0.40612128284270005]],[[-0.2779060814889665,-0.09628382868351654],[0.05285347038719735,-0.4710174148933053],[-0.27656274417633947,-0.41707889852841784],[0.10999677892790155,0.607852592953317],[0.7474029141689545,0.5881143254417812],[0.03211461188695573,0.20960557560236548],[0.30275882305777124,0.12255849498534754],[-0.15318200683665714,0.6075026223148621],[0.3140663849123381,0.3369855850013597],[-0.2059836947998978,0.38758031209945615],[0.23738179827221048,0.3679732928192159],[-0.40173254555464794,-0.5137244422305933],[0.1656276849352638,0.16473423035639498],[0.10672573541477196,0.31604012069384035],[0.9777280481746633,0.12750507638009165],[0.17228818891980463,0.20519371203042552],[-0.17241412100930628,0.9270617879020115],[-0.010081265678232232,-0.5294515120395781],[-0.10960521797526192,-0.06003553946194821],[0.2336225864807518,0.8699957932329087]],[[-0.21474330101606962,-0.32298868397768293],[-0.3953521579000283,0.9323389835269372],[0.02385250645329441,-0.12278375111248155],[-0.37102489481829004,0.2487211088145235],[-0.05340767332390865,-0.448177510568867],[0.33804426580411606,-0.11814258288583501],[0.3002273042365586,0.14604765616880713],[-0.004807416857525728,-0.4031947252113572],[0.028826810804085615,-0.2823235445106016],[0.3631300904288556,-0.9884393048975868],[-0.09255983264847514,0.19798206211120883],[0.19003219370824406,0.09568149282818415],[-0.09246515942712777,0.5199943576444324],[0.19332347227843233,-0.11696049045057998],[0.5628914593749701,0.7101497844934386],[-0.06929088583668545,0.19863958403809748],[0.17038152247807667,0.06628017801889696],[-0.3853034238478227,-0.3095654869900265],[0.008676128410793198,-0.07003514837772501],[-0.05324472718477065,-0.6211766361470562]],[[0.12410757242478529,0.3938410371277999],[-0.30370528371152655,0.18488675020757256],[-0.01501596964054656,0.40428811866966097],[0.2114756954873819,-0.41399311836251335],[0.0876149131265964,0.12848407637123457],[0.213349855511575,0.4026103222681863],[-0.26790971269717634,-0.2674010969763303],[-0.2263886910495407,0.2792323315399107],[-0.13068366782914614,0.060438328106401776],[-0.11565237489942205,0.28460029889656235],[0.01726783072355963,-0.3931460847941312],[-0.08932656523911864,0.16956760060179232],[0.017539312583551188,-0.7147411292654995],[-0.0876188278053441,0.05450017637968692],[-0.4254156075677973,-0.9219376421887628],[0.03933552557604112,-0.34500018846453573],[-0.3433565881209992,-0.47277027176888414],[-0.23164766265402875,0.8957099656892402],[-0.006951833609991292,0.10057019422305696],[-0.2332114748040264,0.18175285005272512]]],"a":[[-0.3979661952676697,-1.1073725296999737],[0.607808178129234,0.5056848667149576],[-0.9043904727726597,0.26634386308278474],[0.6971669333678049,0.3220541380368847]],"b":[[-0.20164876990411215,-0.19454395943134628],[-0.568112370534924,-0.09666123968141037],[-0.5627763602034687,-0.12981314240233563],[0.3665301585874776,0.0854322340309237],[0.28841225722111247,-0.15828217436022987],[-0.28151049942722467,-0.44561116751353386],[-0.049421825218861924,0.050924618305759894],[-0.3724539665840157,-0.2871426836616379],[-0.518025542816668,-0.04953815502582453],[-0.08569641296932277,-0.16837988410239815],[0.403033161307995,0.12297718972660147],[-0.3265401085811623,0.29534973077905124],[0.502438688799562,0.2283514952779834],[0.03816744640652701,-0.10762531310915167],[0.36476933150049207,0.45745690292889307],[0.34595627339597745,0.14166104755109285],[-0.0115743869787445,-0.09303175081047342],[-0.29763388243792493,-0.2484371468911616],[-0.21143972511680456,-0.043165849697096144],[0.4201949110567542,0.05516863013446155]]}
