{"Name":"RbmSpin","Nhidden":24,"Nvisible":12,"UseHiddenBias":true,"UseVisibleBias":true,"W":[[[-0.4702250915728276,0.1822427060527777],[0.05494890196593206,0.17764403310016566],[-0.7447686268472403,-0.041701676063920945],[0.39140251386153047,-0.428999239244873],[0.6357096302977727,0.16816262293533957],[-0.4404245144037045,0.1333099274692995],[-0.06460887332673779,-0.044149358887078785],[0.19721067305841286,-0.10771006825287688],[-0.03419717691245898,-0.11260213656498279],[-0.37396968707576117,-0.1888264480157176],[-0.1338937214561677,0.09753947769593185],[-0.6307182403140986,-0.10542622494995152],[0.8040826126759423,0.08978467032252951],[0.3283438417334855,0.05630673351398225],[0.6637069969337038,-0.02437650187549532],[-0.009580757791773288,0.039961196016105954],[0.13314420997755955,-0.10531423604078442],[0.6836496196600681,-0.03672245564578523],[0.027159313494914104,-0.14469734162291406],[-0.516717876471887,0.23512728968220734],[0.05945923026788311,-0.05997494127992555],[-0.0066469759408979805,0.13570996541179828],[0.49354043433249967,0.11680527545203676],[0.012644213799882337,-0.40459856814553563]],[[-0.09777584251904019,-0.23001153086482917],[0.17532290177757381,-0.063721444319248],[-1.0044456785737297,0.0499253847556404],[0.402424622026052,0.3507711752991952],[0.09058569323475753,-9.121609497119888e-05],[-0.12757404759558033,-0.014904169058357567],[0.030583598345144576,0.08244812397818999],[1.0982022315159639,-0.0022577600888306075],[0.19107048968719312,0.14004654346725734],[-2.1786199238839224e-05,0.16758233798379255],[0.050619849178712734,-0.037573430108951915],[-0.24218575173578302,0.09596014037100307],[1.051028191766129,-0.10445324168883056],[0.9570162618989101,0.0018107571749066994],[0.2327599607112183,-0.09609994733551411],[-0.25410897037693186,0.007334267335818412],[-0.04347261222984179,0.018786696945354325],[0.08670131492413119,-0.10799240598068974],[0.21820058007986035,-0.01772867700660379],[-0.21621093143755288,-0.3281544773570946],[-0.12237135662419876,0.01268235957642084],[0.07902528514337497,-0.22699545758910936],[0.8669810341226665,-0.08695659557164548],[-0.07321929669060737,0.37765768857846377]],[[0.02529494972492696,0.04695755907694005],[0.7284619991825391,-0.010455381337349648],[-0.2390657464889788,0.11578766431990763],[0.06900676431266987,-0.28653826178055186],[-0.15367698992776618,-0.06862846029368701],[-0.0708483103657517,-0.03057804458832405],[0.5291111120288521,0.0009522606798098043],[0.9490953384172338,0.031015812953666066],[0.7397267619282134,-0.015288273725133628],[0.05422607240308232,-0.14561129241262408],[0.8068136073657544,-0.042913623111580625],[-0.02300972748303708,-0.0752300520249511],[0.2109493288455304,0.05328301664448191],[0.4841724667911324,-0.09209925512235034],[-0.12583680730777103,0.012558233038539991],[-0.6796515964708609,0.036129564943536426],[-0.6010595136710742,-0.03219436717945843],[-0.22529588596435365,0.23917598818131447],[0.6925757714451433,0.11836139311528296],[0.0020469481217913945,0.3059872283146292],[-0.5412354477565553,-0.16219080858784862],[-0.01247014445043874,0.042890976416300096],[0.2977670329471819,-0.05061955737662985],[0.009023142879109205,-0.4389407875270644]],[[0.007692904157550251,-0.03131819066940086],[0.8484461831335335,0.015551761295818211],[-0.2031081035731749,0.08503353279557402],[0.03963362468673731,-0.011656628861901922],[-0.18115832679450702,0.08421490079648],[0.0032692270482861056,0.01657800874083045],[0.8403607509690528,0.04221906443427119],[0.3037621839125855,-0.06506736165467278],[0.8849852986137374,-0.027001038761047605],[0.06228520306832041,0.06107154713432487],[0.9735582499673116,0.07659049311517413],[0.06508201760681284,0.11044381028556485],[0.05557637601977829,0.12765323004389176],[0.06943623097098212,-0.04992674686397575],[-0.32570806573670075,-0.11329876950773718],[-0.8168573624448915,-0.14156222454149717],[-0.9291696736701969,0.029228020637334852],[-0.1747580639824333,-0.24839484142879698],[0.6882429711744673,-0.11211656155809124],[0.19826142798659396,-0.20708452229729737],[-0.6555359508053701,0.3006294920100745],[-0.04854081757231141,0.2491216136737275],[0.31651424837344155,0.27112975960142077],[0.03332803111656125,0.5310795692532131]],[[0.26027723100924516,-0.15853146511155053],[0.32359390854166464,-0.07804798717566018],[-0.015343252338422026,0.1328227584409557],[0.024257190520311694,0.13875594917225326],[-0.3937917652418628,-0.021503229041970814],[0.37595693419924425,0.17092097461225064],[0.6170905934594688,-0.04548182191379123],[0.009073340245215193,0.09778955754148437],[0.347449271527562,0.01012952851231235],[0.40678095236846157,0.016069692217495272],[0.4632106429179746,-0.06337766300589126],[0.38925386032427217,-0.05679571331538135],[-0.13684440392920222,-0.0655064338461732],[0.12298631521489327,-0.10097623356178677],[-0.7318442715518246,-0.0005753627955525657],[-0.2667723565600985,0.1281047855256283],[-0.5207538703552609,-0.11768179175235959],[-0.2317117238482382,0.15361918669106173],[0.32742680834726184,0.05576342670154947],[0.5320032065511555,-0.014140110065392912],[-0.2735328472711791,-0.1985175368336649],[-0.019824906305114652,-0.5098418275152427],[0.043709723754653804,-0.04262325394871291],[0.02882701962099587,-0.4598216300977407]],[[0.7720818529104911,0.21897645326095969],[0.059740260463175876,-0.030232717403104972],[0.14117072029642003,0.12663240484070343],[-0.13398697329421344,-0.27362714314189174],[-0.824379962455658,-0.028091425510798292],[0.8767987452068313,-0.2849201108845071],[0.2784869056475363,0.011101441542227641],[-0.28881299038549463,-0.04588919046361879],[0.010161346588640199,-0.06661342088066906],[0.8286665505452456,-0.0176322129880714],[0.04707308984595335,0.020400546505809976],[0.8196598735523059,0.07915904455858093],[-0.24819752959570773,0.14475341069089864],[-0.05563520421649873,-0.038649492517705095],[-0.8687145789460333,0.0031423628664169565],[0.020084541669241125,-0.07870493939164716],[-0.13592337892815282,0.1596824531768983],[-0.5585125354034578,0.09500621018266096],[0.09430140004851449,0.10765100176118636],[0.7253530889761685,0.08662541644775466],[-0.02584268739467887,-0.008968766870884042],[0.0403137700963545,0.43775728961549804],[-0.23708686437893411,0.11981559713768397],[-0.01654646773691963,0.43867314709870353]],[[0.7009448434635416,-0.23046553729074692],[0.019038072817614344,-0.006542555746846813],[0.7702930559391498,0.0020921626949252617],[-0.3776191751119951,0.4556638029145443],[-0.5954823262248169,-0.057776040224950975],[0.6669966680063644,0.2638068822096353],[0.16013243138136463,-0.04086908978412665],[-0.26243117341917693,0.04561810451352751],[-0.04807558571649882,0.060583154591215375],[0.6566037230162379,0.06836504573577784],[-0.10810930710985699,-0.026108854223360484],[0.6736696849153084,-0.07608931037187266],[-0.6480441041178538,-0.04831220730780663],[-0.03851177949359027,-0.1600927535363298],[-0.43619503233110324,0.005384460620474854],[-0.07842622013984041,0.0064839912338356814],[-0.05378538955600813,-0.1215100672195025],[-0.5432427683791972,-0.1331550281614927],[-0.03166659362952993,-0.0025990880048104557],[0.366793276420081,-0.006698037257591299],[-0.025248457081809617,0.18020179955516802],[0.05540008231622655,-0.014425866564269927],[-0.6263139926853364,0.03308676112950782],[-0.017417741460438844,-0.40163323554085195]],[[0.3003110090572734,0.2075069102405763],[-0.10141135806654937,-0.026600980003086295],[1.0642560466729947,-0.030083299588194293],[-0.37736322709995074,-0.32703018352472435],[-0.21484902545497025,0.11143820074573242],[0.13869444722205115,-0.1174808037858676],[-0.10872484979651069,-0.032647542343891986],[-0.9222688394052007,0.0309084695025132],[-0.09477674578650827,-0.151506833564061],[0.31164278138459056,-0.023907009933946212],[-0.2658380965881973,0.05588951078427122],[0.2284777783116316,0.10540801121045675],[-0.8586594693906996,0.10197905726269763],[-0.8807038185326272,0.22704100277372685],[-0.0035982445129295808,0.0008201839397694652],[-0.12074214325425663,-0.02003757835300474],[0.08398276496631561,0.03957017945553277],[-0.3211022285380815,0.08801554896193518],[-0.3081764393171161,-0.014693156248421416],[-0.013151312475480507,-0.11533874771243349],[-0.009367050001985783,-0.19559141432596652],[-0.08684562227289705,-0.4673831567585784],[-0.9981993262802213,-0.014820014665806047],[0.010741406778215095,0.2070772622177025]],[[-0.08399912892110574,-0.03483029157983013],[-0.7285052258076788,0.02150329163904797],[0.31481184564635334,-0.10764497698847307],[-0.16750832955628914,0.3735295941520726],[0.01962949874340839,-0.0840000537711633],[-0.1712012065197511,-0.09331231487767655],[-0.6795175826434922,-0.09574392055607212],[-0.7435828703866897,0.0011929240155507872],[-0.5436259374591578,0.17790178379616164],[-0.016328237846276114,0.07115597853021857],[-0.7331129255472001,-0.1148190650671407],[-0.06675002605074343,-0.15789885875210274],[-0.24524982560710867,-0.13737706872113511],[-0.8100514923787183,-0.2675925177973697],[0.11165586960531215,0.042533460211908715],[0.4423291292004435,0.15358584605780864],[0.5777214339341964,0.04762607198245741],[-0.10956544945040042,-0.07218861944901481],[-0.7815206280600429,0.008313508825224867],[-0.11376756275951513,0.10998384833092764],[0.39261834343360325,-0.07470896681797501],[-0.040856408358105535,0.515218337323582],[-0.27758594959293076,0.054154588718221486],[-0.029720660774911898,-0.20424648816584354]],[[-0.20424786129416989,-0.007963746898741868],[-0.9402445973547209,-0.03664032005464228],[0.16986148383403354,-0.15281503456460924],[-0.1465479995257664,-0.20599589792521136],[0.14492379603555317,-0.04753560643908147],[-0.20360219123381623,0.03934798655432506],[-0.9623119054182933,0.12285554307615126],[-0.21562826863225604,0.048861945542528304],[-0.788953336827425,-0.12240714862941655],[-0.3043782567621724,-0.04483220702908615],[-0.7597756105930439,0.10733879245263182],[-0.08056769394578153,0.11024571263982803],[-0.20272357280533765,0.022684170966795456],[-0.31438661834094184,0.2594064842206512],[0.05879935761920539,0.10686653103008074],[0.9052226980737588,-0.2150583653400746],[0.8805752429609626,0.016924179936519873],[-0.0028527276805554082,0.025988524892146782],[-0.7062802354849713,0.028418431247884363],[-0.04766471620701734,-0.07957513256702523],[0.6170267425274082,0.307576021649773],[0.0004528328990721718,-0.542191208934468],[-0.031067370537776386,-0.19046208999316333],[-0.05183566433114646,0.1696066461008615]],[[-0.4084216998235649,0.13344972297850216],[-0.42624554815030485,0.13667910323428323],[-0.07861992994930822,-0.11996477924674372],[0.11338998825908604,0.07994981968951392],[0.4885977860394807,0.16872295369750087],[-0.3533632543190954,0.07713042574956977],[-0.5379448634662621,-0.16042630580821626],[-0.12332168730016171,-0.09391640468725394],[-0.43768874858855467,0.027079288045809655],[-0.7235833647374283,-0.029406883342263088],[-0.24865400787164504,-0.008227502243146837],[-0.304735260606695,-0.14116948222386602],[-0.013653266535666123,-0.10761889987869155],[-0.14600149961812756,-0.0024808081395459175],[0.46891701406820163,-0.0679930709767366],[0.6620302463655044,0.21463021044630703],[0.5271274975965694,-0.04901103906723367],[0.4210180803763194,-0.12106178244313968],[-0.23100092064415628,-0.17878931654789873],[-0.25465334256788413,-0.017667254046111275],[0.42578278675863784,-0.27922734027562085],[0.012450396359709598,0.4393815547920986],[0.06315100238484696,0.06485087438676458],[0.0335813210103447,-0.012085023683535505]],[[-0.7613071850200562,-0.16998696002537297],[-0.03340687534371482,-0.1070919338520796],[-0.21095121016523866,-0.1002926402102038],[0.2058178738070679,0.10375148171646768],[1.014385607833882,-0.21267033781443292],[-0.7123844618976561,-0.17239400839512659],[-0.07500030017209254,0.1511475434191887],[0.057800490360247446,0.07210085447774191],[-0.15038159038410115,0.1460934933795691],[-0.916894807017514,0.07713035263080173],[-0.07499543692538438,-0.06523065920666168],[-0.8120965240579203,0.134908547628596],[0.22538838825036936,-0.06473519483718844],[0.2227356501184314,0.1207437160711211],[0.9783246940845168,0.05874854837714722],[0.20115202939627047,-0.13528473327823706],[0.14082564061573805,0.1273465236067921],[0.9765082491999656,0.06608213663213539],[0.009711381248318154,0.11158534253104077],[-0.6640328039212121,-0.017915251566078812],[0.16079817059287171,0.21547697501649246],[0.010547483698555602,-0.08954474763625912],[0.038357025880713436,-0.33335874947462346],[0.0080284896873382,0.18785901380470105]]],"a":[[-0.14412954859573598,0.0018524114062162637],[0.035204126469539306,0.022605958970601022],[0.07496184300547945,-0.014860872107362349],[-0.2761664177466153,-0.02459226919154753],[-0.11379952184006539,-0.009222358943754328],[-0.011213120444325462,-0.001795943343338946],[0.1474972587183714,-0.02360895823482933],[-0.10288121010965692,0.01655197477157721],[-0.10998065618293396,0.03398240519996559],[0.2859248229733371,0.013708882696684003],[0.1378214122633377,0.012967536216584839],[0.07446578379176767,0.005787487275585643]],"b":[[-0.07097630975935411,0.032680980972860846],[0.07487674071967361,0.032837225080665756],[0.12318363789780928,-0.039790685884449374],[-0.009168178310110593,0.013790250837254658],[0.05692937619060492,0.0021389007367822433],[-0.05284560385796385,0.0011955117558670016],[0.06561207086690402,0.009366065684966219],[0.2699154087991533,-0.010662723146531593],[0.05783975621519961,0.01774417391158266],[-0.05424856875789482,0.021071301357722318],[0.05319949543251161,-0.002560027269360762],[-0.0886530823133718,-0.010743143499253425],[-0.11000377873822552,-0.031668698629272705],[0.049515794725801,0.011725765307836115],[0.031208627977516838,0.027550928224229335],[-0.05912685303450598,-0.0020852490010726753],[-0.04373234125248366,-0.0016159839846509245],[0.07805175838185538,-0.013763631758435564],[0.07927230587088782,-0.017722934396113752],[-0.043952057077065475,0.023266079215325166],[-0.06668718994437145,-0.007984991199211052],[0.039826157865339634,0.08264241910488586],[-0.09790592219545753,-0.05446156410933528],[0.003858931300814767,0.034423334616537654]]}
