{"Name":"RbmSpin","Nhidden":24,"Nvisible":12,"UseHiddenBias":true,"UseVisibleBias":true,"W":[[[-0.4285195546359405,0.23114690563213863],[0.13325214058051538,0.2026563646306939],[-0.6707354156957038,-0.03853409558699368],[-0.000777270538677513,-0.3652678346693967],[0.23186359742830903,0.22348409117848098],[-0.33996768072192063,0.22108300501113215],[0.02573771191680026,-0.07084383273088644],[0.3099319851071662,-0.10765396350489244],[0.05370976565409153,-0.17542723325606513],[0.02249818307939841,-0.18611501880007675],[-0.048928371845683584,0.12676206129377066],[-0.5850259154135273,-0.09763490560737133],[0.757426778446909,0.07490076463871852],[0.4604938996612911,0.06742159258206261],[0.196256387041277,0.0057100634695444194],[-0.07656102887037156,0.01106187809736404],[0.04387414173742462,-0.1536540593437182],[0.616962468534465,-0.14138349771355618],[0.09698692096046523,-0.16695087301858608],[-0.24479231191985024,0.2644897451899774],[0.003889982727992518,0.24893408890359495],[-0.00407777090104211,0.38218360896239817],[0.2709266381348589,0.27171383537730665],[-0.00698666685935021,-0.3879076845473059]],[[-0.18110582826093324,-0.22717478180719186],[0.20125510149185058,-0.10045963015214131],[-0.6693217782813179,0.021962500921202218],[0.0046329219058872245,0.4274832811942051],[0.02750208937928924,-0.001022531172975351],[-0.24204423457502952,0.033893485330407674],[0.03334368125550546,0.06426255152219415],[0.8439862795111559,0.0025202821825623897],[0.1975182268789987,0.15816899350257976],[0.08499660476091508,0.20275748090396792],[0.08242128070018653,-0.01829702142939453],[-0.42473207463120727,0.13495386316926505],[0.6899166486346331,-0.1337028550246018],[0.6002777010553895,0.0031604020164176534],[0.12990088173273065,-0.06816982885908053],[-0.20894692347322602,0.017576865792279392],[-0.05300988570025516,0.03309013234793156],[0.19589028530905173,-0.11543767250239922],[0.13653940765834846,-0.015011330116667873],[-0.23174684375624027,-0.5509723325832679],[-0.0020295021899664075,-0.2948577298151227],[0.011231284939091745,-0.3189916681466523],[0.5192468576478547,-0.07476283059686092],[-0.013246420678073098,0.39014857633187827]],[[-0.09039020389940289,0.04754126966139518],[0.4585407520202936,-0.005366522205477528],[-0.15381162348548136,0.13336883932418697],[-0.0029834449840609287,-0.3674562748325208],[-0.18602185370978727,-0.12298295361750514],[-0.19328477174895195,-0.028963523615097866],[0.22755232147316873,0.0032001119740329943],[0.6733654668349194,0.07007582590581081],[0.4914938533271074,0.028378590688024046],[0.22042965942804846,-0.1042755925239277],[0.527684556859766,-0.05506262132026588],[-0.1581761742238449,-0.07803834414956158],[0.14324968222224524,0.07211011538096751],[0.3779337176511589,-0.02134099469114479],[-0.22491580204800884,0.044071500806486565],[-0.372989589264978,-0.02505173098432965],[-0.30985427137236543,-0.06498557108270372],[-0.09588124479274772,0.300567909563388],[0.3635675467980272,0.16036829900445587],[-0.11532924516413565,0.4427244842588701],[-0.006473017973819636,-0.28529953720800105],[-0.010779240781104066,-0.07976152672708298],[0.21904668557186785,-0.2646602638415471],[-0.013067112131217404,-0.3514319371337042]],[[0.06977123036391579,-0.0330796851231892],[0.5370862512962714,0.022457056314606313],[-0.024764173040487107,0.07146403790422268],[0.00031265499891331555,-0.03414982044904137],[-0.3602189121926961,0.1146057303139203],[0.03355228358819586,0.06554732751130768],[0.5832346472999009,0.006204808990977763],[0.16483875974880371,-0.12348550266783863],[0.6092289684157787,-0.06116522766907009],[0.3281723926957901,0.09484192057546778],[0.7307512779146504,0.07808535095107132],[0.0490371115858146,0.1353736026027953],[-0.09129286187292028,0.15337457969443388],[-0.04895793989317682,-0.14069847795212687],[-0.5504371966218354,-0.0761824403789316],[-0.518625455065147,-0.10965379118262336],[-0.6262210199851379,0.06627790299897529],[-0.15589087884850822,-0.25523851843354994],[0.4760263366386205,-0.1372042669639544],[0.12445772856140735,-0.3285688025462456],[0.003819620748980989,0.34778696240220364],[-0.0028263301405991818,0.3857982441136304],[0.16891391164701208,0.29744567584745163],[0.005703268533322702,0.4221915216728499]],[[0.09007413248944396,-0.1851986081339224],[0.2914639289294641,-0.0806464461243753],[-0.06386822326768024,0.11536550966891888],[0.013021306462307942,0.34923472547314816],[-0.32145010824528075,-0.04512738121604894],[0.10208811979260098,0.2407024029358851],[0.6552499576178188,-0.03373549260475334],[0.044815039005106604,0.09454784700119122],[0.31034834625219,0.058491893956546276],[0.4081818209234511,0.047371663412013376],[0.4582524124397317,-0.10941495479118875],[0.08300209507828647,-0.06977994054087772],[-0.05973001931394607,-0.05084553525000036],[-0.035291370816511416,-0.17378947443071438],[-0.7524982867150442,0.00017474793284684827],[-0.35544063737580006,0.13342053685726898],[-0.5322673637443599,-0.1573258427077952],[-0.014722702468729247,0.22759553756572964],[0.3490052650812754,0.046181456920759],[0.140328080678119,-0.1149563614905895],[-0.005066135398091461,-0.30695205847232304],[-0.0057621294278400684,-0.44675020993531345],[0.16157215716037887,-0.137827295889656],[-0.004162050685827021,-0.3617768404114009]],[[0.4670275701625984,0.21992139524035584],[0.23948181714157477,-0.0028834913373970345],[0.16108778537893662,0.08393266025460126],[0.0033504928649763085,-0.35829491834652355],[-0.4171206846112525,-0.053115615077037],[0.48250328218328403,-0.4038892725762281],[0.44685139552422704,0.03342415441446884],[-0.11335246299598795,-0.04665276791147174],[0.1822572837148791,-0.02773960080892291],[0.4359803334801392,0.0035843679512285844],[0.21685101670646362,0.014245729390487308],[0.3846510432833656,0.06920389677213695],[-0.21878043632123662,0.16913435973830498],[0.012093859242610508,-0.03183595223981634],[-0.5390534512420491,-0.04540620631397441],[-0.2135161961047533,-0.09101074762491444],[-0.31132089680107206,0.16766858137790008],[-0.2560469186942797,0.12284011857935723],[0.27939246132813017,0.1208774096365998],[0.24292872201208393,0.27565667447667364],[0.00875400473895371,0.24412748427911599],[-0.0006562655612133312,0.28075264487147356],[-0.11226137423886379,0.105635384214943],[0.005845909088271869,0.41725803080102963]],[[0.6221599356706963,-0.29535654606821676],[0.06279810717354418,0.022522281173530927],[0.7315966019573005,-0.0573762803903088],[0.008716844709633147,0.34442615629363454],[-0.2756505380581214,-0.06296971336248347],[0.5640175429514677,0.3520655498708325],[0.15207814558510477,-0.02331939844228653],[-0.23713967796940694,0.010441671006238213],[-0.005795232673750034,0.06851673482627156],[0.24929714032225117,0.02756835605636776],[-0.09917990702908001,-0.058353660660964465],[0.6528253273349577,-0.13070443715696223],[-0.599361779159829,-0.01112023821280706],[-0.04126559431536409,-0.17227352771201726],[-0.08527604458453762,-0.003987536306481583],[-0.1315199975841078,0.01413622645466783],[-0.0487744076976583,-0.13171882099667148],[-0.5227709591090056,-0.13833858517475112],[0.02029835696894666,-0.0648403874499759],[0.16956658430578075,-0.026135206491517862],[0.0018188763740199984,0.4065166380835874],[0.020497498368962776,0.06069011012682142],[-0.41942939816096464,0.14416360593429606],[0.003765117923324704,-0.4186162902060854]],[[0.253957969212532,0.22074809558267963],[-0.15339536657307512,-0.0367231671358181],[0.7386801177719852,-0.004079573004630381],[0.006103554547416084,-0.39405802834714787],[-0.05983305090198124,0.11004297358113184],[0.13442101746875174,-0.126645955137509],[-0.13364915659192647,0.015114855726295631],[-0.653516336562914,0.040450448208189285],[-0.11240017240957266,-0.1618339825492351],[0.07868343033200115,-0.025180922487308022],[-0.30933871235275673,0.061670644036552785],[0.36716691969052245,0.1438962030762306],[-0.4949621644578635,0.0590224390584694],[-0.6172694147198932,0.27211357764733896],[0.18977679558722607,-0.05022859689232179],[-0.055347628981585774,-0.0185325051672895],[0.11805190976504171,0.05683398853101319],[-0.2987717329646799,0.05391467753416633],[-0.24360634751509105,-0.005179048236449934],[0.018018309083726175,-0.2231986804737189],[-0.005168631246393277,-0.4104114018287997],[-0.014301662608278302,-0.4695944667117763],[-0.6580273638484527,-0.025526167103957782],[-0.022573726854127858,0.2034581160158328]],[[-0.02203783245048247,-0.059610056047344574],[-0.49996506421603,0.03830524417744066],[0.26039937969195237,-0.08813640843477692],[-0.015755849312403813,0.48467013343826276],[0.10595354158373599,-0.12452011420949867],[-0.07646298441027435,-0.1279715540879103],[-0.4393820141988298,-0.08311720929425138],[-0.5328278735396754,0.021103732975966825],[-0.366146542065948,0.18597255602114046],[-0.21944730224066983,0.02353715120972114],[-0.5282411838553074,-0.11118748053429803],[0.07907191876487016,-0.20810424403269492],[-0.21673279336900833,-0.1324165092997741],[-0.6078731607160277,-0.19770027276619645],[0.2807602691091576,0.03472354678506685],[0.2350386631914191,0.1802171159798935],[0.34439785125136774,0.06839799909608076],[-0.16457546612857343,-0.06267678539454005],[-0.5130495562943413,0.03447712211520542],[0.01513233759697642,0.20008993274344528],[-0.0033723775524333727,-0.29773782397557724],[-0.008849181201905785,0.35918935608357283],[-0.30289353794670854,-0.017101441016494696],[-0.007669585521176506,-0.14589308451217667]],[[-0.2103727980765464,0.04047618979482691],[-0.5666494801796921,-0.04720441074370508],[-0.03974958339804369,-0.13523625096983108],[0.005581120668798322,-0.4137252024334155],[0.23730478668616264,-0.03657497696651366],[-0.150238220104158,-0.01736632655006834],[-0.6054356623020114,0.10470847067054781],[-0.13625158729029752,0.05440398139191879],[-0.45955575154936523,-0.16425012690141855],[-0.4204977065767926,-0.10575751997358351],[-0.423164761307916,0.09336424294385257],[-0.08213649543807738,0.13223688090462707],[-0.0614602916779968,0.017356116172620475],[-0.14446352830741135,0.27199062710367555],[0.24651172848836367,0.060598976228708815],[0.5710147746606081,-0.23383719010067094],[0.5047149990454973,0.01324895667065993],[0.029383326150230808,-0.04454958884693153],[-0.42583827918369,-0.013550398862905549],[-0.005680934418469552,-0.02061794532576791],[-0.0013257430632232807,0.4368327703445632],[-0.006350755244125777,-0.3667056173819208],[0.08032936517197217,-0.1568148923063724],[-0.008508845733645638,-0.16550337160691228]],[[-0.12419379489618747,0.18570549872285233],[-0.4898193117316163,0.18154504116638984],[-0.05552490030755067,-0.10917320079670055],[0.0032201436836155136,0.020636405626089746],[0.44225251083132844,0.24670724841107827],[-0.03454410252910298,0.04344322834082145],[-0.6548066636506672,-0.1206078938536991],[-0.21246674195004348,-0.07575963656062322],[-0.5078047549498361,0.024389577508856584],[-0.7005970578014931,0.0033496595848877993],[-0.3348285983075497,0.05128572394096019],[-0.016635097553928932,-0.15383291673835284],[-0.0816998449790838,-0.12808380117489274],[-0.17509665355583942,-0.03691009222737356],[0.5852800651906054,-0.08750542188455691],[0.752189595915107,0.23368303575196175],[0.5981620830417876,-0.08687623661936228],[0.13446939073689868,-0.1637069055339426],[-0.3686608996993681,-0.18003716137762482],[0.024772876907289066,-0.03362010979122543],[0.00941736042004658,-0.4989573822266884],[-0.0054775349511472825,0.37822944498010036],[0.08864061198145069,0.1700897426864345],[0.001184728424043476,0.1797688557949419]],[[-0.4057448445074394,-0.21909404828509504],[-0.23431025277404996,-0.20215745038644592],[-0.2498975828710325,-0.033766237704328926],[0.017484397879017528,0.2750758455172976],[0.6059122378955789,-0.23628444887855282],[-0.2977222165474653,-0.2643936132875227],[-0.26311734692104094,0.09611481146401604],[-0.09228442191814398,0.07265496537271407],[-0.3171599439239147,0.13291276434830346],[-0.5026683552555419,0.02947735460194035],[-0.2553826767383198,-0.0735899902334985],[-0.3329686679609655,0.1459459667566728],[0.22707980742428235,-0.07759492606997064],[0.15881883886107018,0.11335347888522204],[0.5459615466979116,0.11391132300599632],[0.37938366061940726,-0.11642767321902724],[0.33145921210054385,0.2024955942092413],[0.5327903131896609,0.16478577278936662],[-0.17168780403866307,0.1803381415425761],[-0.13939590167145535,0.066258851939861],[-0.0017129609414597428,0.44740486232946525],[0.010357063122735481,-0.19534244800017736],[-0.06629755479966021,-0.37135275791051264],[0.007149178392880254,0.2089317016941336]]],"a":[[-0.03736161728151263,-0.005143520410648337],[0.06539621860075952,0.014116870584543315],[0.112619513349155,0.020195797319301427],[0.02381390319390136,-0.03982037762758114],[-0.004510818455703075,-0.01560349672039647],[0.10970568904630576,0.005657793552629062],[0.07669110375268007,-0.0018691290965497168],[-0.08789870377097034,0.01079122297802881],[-0.12829281655425567,0.016906851793531078],[0.01495723390125524,0.015523140130199243],[-0.023541819907758596,0.024008328465428965],[-0.12387311357130021,-0.011387226252106794]],"b":[[0.008117067193223904,-0.0054869079438464256],[-0.02556133336520242,0.008650874054694334],[0.011617718995088155,0.030535872845831608],[0.00028717430760498284,-0.00011776115071422646],[0.03684805340960794,0.003249659113978792],[0.029019874027335354,0.02461565089907198],[-0.0845161355229244,-0.0018703852482605766],[0.026464052796548343,-0.0006684184070462917],[-0.03426852758433944,0.007727426550215983],[-0.053875975062995955,0.019530895107828877],[-0.024022546778010984,-0.016391664684797056],[0.014210258660157897,0.007170722828262858],[-0.00433704543147633,0.03550535290951379],[-0.0026789309377040966,-0.0050120126007578815],[0.036398400763999264,-0.0006953120436468846],[0.09099691240979284,0.007642397057138151],[0.09391259802168242,0.00495661323809352],[-0.034084875877500954,0.022823818442273804],[-0.034106861254400087,0.002479356536231284],[-0.012962545528143191,-0.010143715612134398],[0.00033983514518243457,-0.0006827235476176122],[0.00038697744858406686,0.0009395816795009708],[7.025956820559012e-05,-0.00010838775310411931],[-0.0001541625329503198,0.000904201641310938]]}
