{"Name":"RbmSpin","Nhidden":48,"Nvisible":12,"UseHiddenBias":true,"UseVisibleBias":true,"W":[[[-0.1696589438387259,0.11700172381088558],[0.010354016470502776,-0.1941165232054442],[0.029501544945764548,-0.08038924221110959],[0.023354457957547845,0.046323322796825335],[-0.002917114136978296,-0.06727716052280107],[0.08572714035342621,0.02553895620065709],[-0.022631588639185476,0.044725927421534896],[0.01423482762960497,-0.12155786571512713],[-0.11882318928214482,0.007292528922155105],[0.028775569544199353,0.04688967070400364],[0.0055538230780744074,0.0006153887529270098],[-0.06183209436133827,0.05400212594159209],[-0.1829609594496048,-0.09140332398404229],[0.17038415545542263,-0.029416858336033625],[-0.04194254947398586,0.015462973124764214],[-0.009907164699765913,-0.17964324209768598],[0.08061546006225352,0.01860709025594345],[0.09721531420042498,0.019384981667045234],[0.10549678710337346,-0.0902219901229815],[0.036579646888135156,-0.05207686820678017],[-0.056546563500458155,0.003524291770537713],[-0.14418242737184,0.014738500249185759],[-0.11706721446578493,0.048289258004222256],[0.06494726716895866,-0.04871392997389533],[-0.06698648630993437,0.04176589805170696],[0.018334929114198446,0.012679778537382058],[0.007285715255847024,0.03835827751771058],[-0.02055533829117011,0.044472968740839385],[-0.028257877916860415,-0.061799977894792295],[0.18574380006426344,0.06394811513580469],[-0.1167298818183745,-0.02752552678638798],[-0.013395930236738036,-0.047775812824574194],[-0.1097942305499598,0.005304281587147635],[-0.09294731934714505,0.06500857239969973],[0.06418818809177658,0.018487465253396635],[-0.09175990464277,0.07319304952759811],[-0.147209265926767,0.018185612395179705],[0.08158641074387335,0.0671897467654392],[-0.021342550420511284,-0.02354699948915573],[-0.15300232701162125,-0.03052166959661481],[-0.09152282973289397,0.051625485516096734],[0.2181506594267442,0.06606193650603252],[-0.1458495371936707,-0.11695408474562152],[0.00896377538983916,0.06786458452151184],[-0.13650702735432368,0.05866777321156952],[0.023624209944693074,0.01484771778911518],[-0.0010597978863465959,-0.148586457160112],[0.04224030844701284,-0.027340685987029465]],[[-0.12849430346036583,-0.11886395510496231],[-0.0045827557767422165,0.18593940438222087],[-0.07392960410295832,0.02544049588039101],[-0.04407000302781794,-0.05905449947923902],[-0.02796468255603081,0.03120956992399441],[0.13778875247846178,-0.04394315219565038],[-0.09480493152897271,-0.05965616486939219],[0.058044391231978354,0.09235649203648605],[-0.11944774707181825,0.026751301288829573],[-0.11951566183559519,-0.030714787278777255],[0.10905614517009486,0.0029414495772485698],[-0.08451317692622828,0.08763186607264321],[-0.16006612446435506,0.0891208071251273],[-0.026253225186063916,0.008678598870330317],[-0.031177111820157123,0.0033267596589004263],[-0.10444410802345445,0.1308229518288626],[0.1204691175005888,-0.012312913218973891],[0.1201775585957041,0.03825261171037836],[0.14314522880507663,0.11249689715237224],[-0.02960058043841066,-0.01684400370396462],[-0.0904067801805581,0.05859561967459533],[-0.10223006975490215,-0.01590934097233219],[-0.07245151484441982,-0.034790508046130035],[0.040405296522729874,-0.0055836883840213875],[0.01962126284521362,-0.05293499855558796],[0.042280760383330146,-0.0898612592509266],[-0.04947065448896926,-0.06012526559078152],[-0.06617298265671076,-0.0009350157097109255],[0.09982577853443095,0.057205787252025214],[0.16960492865735352,-0.06252067521374893],[0.015739556099590952,0.006460713086459749],[0.007629206284996371,0.1175904363256869],[-0.11360821086296774,-0.011803962379815607],[-0.0686688343478773,-0.06202787316188947],[0.015157690677296547,-0.05750703605787902],[-0.16397381275150627,-0.09134006259015899],[-0.039216932399647006,0.0029762110798204123],[-0.06631376760670979,-0.03899047532800471],[-0.06530091764367205,-0.003000354505365194],[-0.09572953563514744,0.0315187530630933],[-0.028625898191190553,-0.07328052358352957],[0.240171777002016,-0.02279495160550669],[0.01802375155090803,0.05725131005667017],[0.052649220129177415,-0.09458207875894732],[-0.1519640241037673,-0.03161677772789325],[0.0503284385544518,-0.07634829360305774],[-0.10420009718432925,0.13355533432018757],[0.040290196379778806,0.06192199977832115]],[[0.02147862101199646,0.06780727422949791],[0.05495908206302857,-0.14003600524520404],[-0.17870048971228367,0.015289269248488063],[-0.05182808069811144,0.06077391322851387],[-0.05345326699744386,-0.03746829431737365],[0.10235156238229971,0.06311060004804535],[-0.0962836610849887,0.03667970963364634],[0.10965432759159358,-0.09861118077664341],[-0.05428645948345396,-0.09973276489304939],[-0.21624506957784578,0.02610510684729439],[0.16549332058853042,-0.015633031371055674],[-0.024450076535814495,-0.15695492249375648],[-0.07040395149660171,-0.016778413727478556],[-0.13941875013133223,0.02008722699301393],[0.03203213574394249,-0.01919170036446637],[-0.095468857211855,-0.04698839816972398],[0.06397153244089293,0.017181472051471566],[0.09050859330175713,-0.08353985712919713],[0.05545784532131324,-0.09783443016392682],[-0.06612087665980892,0.07703440089657053],[-0.07666237953083224,-0.09209656552941801],[-0.03470540171835234,0.04193479729232935],[-0.04879626935781333,0.002063677160420916],[0.012373007235308616,0.036411172321805595],[0.040749994279126,0.0635825797514064],[0.06871404379810868,0.10205428580935794],[-0.02728542943211297,0.02391044892937064],[0.02204193333514468,-0.02147171029926002],[0.1844767712390946,-0.03673470174331599],[0.06628272715968826,0.05052008407148238],[0.07463709295370548,0.018870367889716525],[0.045890943164168724,-0.10122247173942575],[-0.0785843217561201,0.04410935984198556],[-0.10115663252658631,0.022988086694084274],[-0.06900751605709424,0.024702508794920353],[-0.11010036598463036,0.09235660447798616],[0.0967545382201992,0.0009139779681696693],[-0.161247179318837,0.020405666726165266],[-0.05832746297602824,0.07074725162986681],[0.025611306802012276,-0.03556027082004974],[0.01990712728880056,0.061821134282465294],[0.08250522972223359,-0.031210760244400833],[0.07897332234481634,0.00048713600202246585],[0.1471777172642833,0.06812166637714241],[-0.0863464213859653,-0.01668258975588955],[0.10100669442197091,0.11135429491994037],[-0.17619326564047466,-0.0981715699624782],[-0.00623368219008503,-0.09001711716655682]],[[0.13171009335688752,-0.004783913259679066],[0.0856600016524125,0.04962127058335487],[-0.1733093877080446,-0.01952351325807317],[0.09768529733902064,-0.05228769139673449],[-0.06407795771898785,0.052964469593826814],[0.05885361722646152,-0.05332377749513457],[-0.0026462454976362306,-0.01800915751806458],[0.08833256383500532,0.0706760986668913],[0.00283504737369671,0.15198191967279828],[-0.17636877537288034,-0.012250251884471399],[0.15367902205036935,0.01851276097914629],[0.06777294594128548,0.18398812885297033],[0.0075384954443036565,-0.03122199358419198],[-0.09621438189885195,-0.015186357931879613],[0.1460446242970398,0.051680805392128853],[0.01547306072909777,-0.019960297729263537],[-0.04776776819646886,-0.05256299190043775],[-0.0011070864110876992,0.10993968194790832],[-0.09652062637036132,0.07105787169264727],[-0.03855041319388696,-0.13715349169666058],[-0.05009551441282547,0.04751852290257659],[0.0012204567014697893,-0.08818567228749141],[-0.035003860607361756,0.006775876634048659],[0.04474571530317115,-0.02351513950107031],[0.06371889871293453,-0.1092829041889645],[0.058024875118258844,-0.05740795304069286],[0.022610307753439828,0.07965336322643791],[0.17053134826049757,0.03956864162459498],[0.14578741673330514,0.00791193563016672],[-0.054018414226180374,-0.0348263586365449],[0.07897303655149784,-0.009073052574194553],[0.07187516089874124,0.050384591191132394],[0.004597781399190993,-0.04086498102115952],[-0.12466589294939982,0.021643869791964223],[-0.1130703599284787,0.05093700631573076],[-0.02690405884843633,-0.0933570689419039],[0.18309954003065626,0.0074334603104749776],[-0.18389203599406825,-0.02490370017603291],[-0.06361676025443079,-0.10387776405849078],[0.1641077248166101,0.01206718203996477],[0.036491700769175545,-0.023146788209931313],[-0.06792488783623497,0.06753433473564184],[0.04970839082179057,0.03411618814957699],[0.13489300545003954,0.005083075420921389],[-0.02982950592183056,0.044230888718004145],[0.14479373892936712,-0.12502027622766018],[-0.12193386255827814,0.0895653843363758],[-0.038822734239892964,0.07768712153608097]],[[0.11107751128532443,0.005791653551147798],[0.04016662559509258,0.03406678919588977],[-0.03643009371667378,-0.014387663833656382],[0.22741315937048884,0.0601405414704926],[-0.04491184784082907,-0.02954187433370589],[0.04885362012368146,0.02470508287172452],[0.14276728764272179,-0.028577622479692876],[0.007067539531563599,-0.0649372156465192],[-0.007627600245780415,-0.15249080722709976],[-0.04126452148167036,0.00118897483994561],[0.05794577498947796,-0.03824193465750955],[0.07446882923331914,-0.1375530528731264],[0.029637960659945225,0.07697620928135969],[0.019022624925160304,-0.006207471040605871],[0.17561109473484296,-0.057977641634262785],[0.13031046289054743,0.06225841610064054],[-0.11163834887054802,0.13569069149242996],[-0.05520567995367035,-0.07667799459677277],[-0.17659213264676193,-0.05744795671090731],[-0.026005298454574704,0.13899898222097112],[-0.03092956926205453,0.031828470824555415],[0.020245100644721136,0.1221138270407728],[-0.004312109414558183,-0.01594667102774009],[0.09394238623476829,0.02731256968167225],[0.07876904767331004,0.10683060282614783],[-0.025234843977374893,0.004134392003141625],[-0.008813590787921415,-0.13470998622678007],[0.21406157494225664,-0.06054830161833364],[-0.012175131038780568,0.009495322270099861],[-0.12542070959661844,0.02278367553912679],[0.09347722680691183,-0.011808169090113901],[0.07519907631010267,0.01492725493274235],[0.09544489205131804,0.06645336848804945],[-0.042009767849999595,-0.05998478297438328],[-0.06464245280817733,-0.10014754515656918],[-0.009696313352087664,0.06921965949875111],[0.13251423913967664,0.008375695085824994],[-0.12631794761314297,0.018489582681418797],[-0.13574265118792198,0.07329705170681163],[0.21943595078503322,0.004112583847720442],[0.09074394834535454,-0.04009249084383038],[-0.09464250764120054,-0.03370954435185687],[-0.02588568437030172,-0.09164028468194639],[0.02721240013125866,-0.08291879731360607],[0.008752840988068517,-0.030575717925387557],[0.06662079474964305,0.09133805940888899],[0.0043095076282897455,-0.09160688037746427],[0.018609314523108135,-0.02875853489508503]],[[0.02435060892432559,-0.07485209271343707],[-0.03535076118419895,-0.09387703909734878],[0.11366822682071497,0.035775277408586145],[0.18869840152184028,-0.049762076001344926],[-0.024583998499392405,0.0030162010437823294],[0.06571353187086187,0.024005306652554143],[0.21844698891068715,0.0421895051340591],[-0.02958265469101462,0.016820195133451683],[-0.011275582475347257,0.056236581088337095],[0.032646113546532726,0.019856099591726673],[-0.025475435963054963,0.03771927832476562],[0.005732136080498419,0.07756621462306643],[0.009314269224550191,-0.07676925907372338],[0.039796022298905,0.04018154072797727],[0.08934091492014365,0.060275317430505015],[0.1692010618315796,-0.09303225257918368],[-0.04976726664575734,-0.2036031026520038],[-0.046542415093271276,-0.013103867921843582],[-0.15540255762229674,0.04373889761322193],[-0.09467534582559578,-0.10693281388104624],[-0.03592675314096952,-0.1074660438735473],[0.03418100159327684,-0.10544120487823987],[0.05465385272237391,0.018557300658624536],[0.11810694595315414,-0.04284270114117309],[0.04463755254443694,-0.10364649153133157],[-0.11881651988171747,-0.01873043043873261],[-0.09300360086077995,0.11941308688795638],[0.1050506779670397,0.07064165989556997],[-0.15395633177223575,0.02661100910854656],[-0.14058972930750324,-0.030569867022953306],[0.11276090057032713,0.02278936568111414],[0.04336950410957811,-0.01261130699503997],[0.1411828789258578,-0.08678019911431158],[0.0672583977050252,0.05179077219605423],[0.009998207770011104,0.06919424177651012],[0.006583926092670963,-0.0023262047476370474],[0.020539222931129964,0.0070453935695258115],[-0.0304863841810916,-0.01983628574911232],[-0.14373336869004136,-0.026282817368061578],[0.13531071259147345,-0.00862170459761212],[0.18313239339901158,0.060622318328017066],[-0.06922378593003065,-0.0015077602978316937],[-0.05166806725863756,0.14093362250061447],[-0.036801156262744696,0.127157296846328],[0.047224725107003984,-0.0010821155284554838],[-0.09752887549429443,-0.06606291181493586],[0.06440658829991519,0.08604677369772547],[0.10580395169437429,-0.00836233541151782]],[[-0.052209685918947285,0.14683204290024765],[-0.08466128716860706,0.10570498151471422],[0.21185648360009735,-0.03550662764041238],[0.009034319007106932,0.03587360789888882],[-0.03766629703021965,0.0026777080135039323],[0.04331264876439143,-0.04922943739067702],[0.1442444230330282,-0.06520405551291966],[-0.01335637697817368,-0.0017845165901002836],[0.038727829877329346,0.024861424311174416],[0.04789767682411069,-0.03772424340618484],[-0.04081195261181085,-0.02117758250536994],[-0.048364667864367335,-0.022024503928600527],[0.0013945474543397155,0.0811374631800919],[-0.05018610459002767,-0.045944751542222065],[0.029766709404518886,-0.02048176218435975],[0.11626304193224583,0.10545291026887645],[0.09242030219309866,0.20930430485798127],[-0.02798485970532651,0.10033687891822499],[-0.08581202462893503,-0.03293677086185653],[-0.1521051831210867,0.0462143878151519],[-0.05135909966869045,0.13375951003549832],[0.05142375288143017,0.04011053650728644],[0.16558465293755872,-0.02375750088412845],[0.04951344084167746,0.0782642461460569],[-0.0021402471729689405,0.06643248512201376],[-0.15344129322296599,0.03596811587201772],[-0.10333385174584615,-0.05142174548177472],[-0.11038439867218423,-0.07567561205049592],[-0.1898951869354318,-0.07376864088546291],[-0.10604543660589923,0.03332462416903389],[0.08193758489195013,-0.008038578094259865],[-0.010058057098002853,-0.02883616270066314],[0.13082200381032644,0.09859913616443566],[0.11768646996666618,-0.06494922637937033],[0.01301810730838168,0.03249018792638113],[0.05620693622867415,-0.07185095182401606],[-0.009339897446582111,-0.013071169627880217],[0.04036627461612826,-0.003262740921430167],[-0.02127795678594928,-0.003930037380615039],[0.0005613429661323523,-0.0036318310725713915],[0.1654446796828464,-0.057757843888751305],[-0.03828304180996547,-0.02546420587495263],[0.039897801659828265,-0.11246984331808757],[-0.04133975566047463,-0.09596054139547831],[0.08361223101061324,-0.005868286959699431],[-0.22128737470885315,0.030536678684063324],[0.05609852887832728,-0.008772713361677599],[0.13328735688856547,0.0036904574262047567]],[[-0.030585936288152784,-0.15385363001419927],[-0.08252786702338118,-0.08908921346650381],[0.17184146772497008,0.01951473721624818],[-0.1677406533064303,-0.002856835854208703],[-0.022694344763100328,0.06382087497830378],[-0.04184937561971523,0.03200283938522922],[-0.001249825020187284,0.05567359652184171],[-0.025468824145012284,0.009399089834904329],[0.11398161864693007,-0.058117901405230585],[0.05307535430670872,0.022190253403023344],[-0.01794048162729527,-0.03887785017504153],[-0.027127305468723627,0.0063689740253443025],[0.042138767161530095,-0.05862493344961479],[-0.1278096911101937,0.028627184270291164],[0.01735271798239392,-0.016531381956625894],[0.020803503930852306,-0.09753215861810577],[0.13092975088680492,-0.15455921411914672],[-0.042657723432110835,-0.14961101689759485],[-0.03916152525430313,0.009454899334585844],[-0.11591742175015722,0.004576387345717058],[-0.03809193272281711,-0.11025286672369813],[0.09190734720547804,0.019749631786324554],[0.20844370145227248,0.02741899028147318],[-0.10954494412647595,-0.09428295311437358],[0.01288029861828484,-0.06932533017725241],[-0.0978662335550138,-0.058658220389593695],[-0.03547051015307652,-0.01617248484328206],[-0.25337697682700555,0.0590431985473024],[-0.09228570305539169,0.10883702001027847],[-0.060303598728719696,-0.027658538231228772],[0.011952113021365387,-0.04199985606274965],[-0.05979485970744502,0.08412896507993939],[0.1028853021283398,-0.09621187160707328],[0.12076555974208482,0.043410406147442106],[-0.013441215008095204,-0.09280325990849334],[0.06136589308882778,0.1279759093137854],[0.025075013885486698,0.05925748109590299],[0.056486958910484775,0.00010530333298183546],[0.13734427335878185,-0.025114836149833848],[-0.07232336683229357,0.03055249750149112],[0.03644478496409827,0.012880661932211171],[-0.014177614341702458,0.07487773890455784],[0.17196430557243303,0.03922595121410561],[-0.08916856931279721,0.05096230569489128],[0.08831422043575464,0.033962553556398656],[-0.15514208701586998,-0.027842644617624698],[0.03765028449409071,-0.04358335247258095],[0.07712244154453617,0.0512066627254105]],[[0.038378152397478646,0.09907483721056962],[-0.05031379491258707,0.018899748047211746],[0.02989214114817274,-0.016606949658114253],[-0.2238696486937326,-0.03065068210554021],[0.05696326378398682,-0.15171168443607294],[-0.1418613201820228,-0.00981086214614095],[-0.10821701408858685,-0.06417696784206439],[-0.07194861168665749,-0.06052459753221103],[0.1415928898431284,0.016668677230358288],[0.05617515226821453,-0.013181711238471096],[-0.025919135674109063,0.0816348546559478],[0.0302383791722992,0.04800684748518945],[0.12317635687952708,0.0425704102972548],[-0.100212109677089,-0.004967598168900356],[-0.034049640144841964,0.04935319551750889],[-0.08943620199653689,0.06934232342045621],[0.02251616602153905,0.03637166746617713],[-0.07131522966228612,0.1437808918665883],[0.00797269029436363,0.02397145255175663],[0.02424100814052622,-0.021897394763547687],[0.03674285725059516,0.07952351426818013],[0.12510313641491105,-0.048998092415541275],[0.1246462285708467,-0.009490847728417464],[-0.21997330489425448,0.0690166835384261],[0.04428163258773709,0.07868842102725823],[0.0008422891869708108,0.018238040367820493],[0.03900297397498651,0.026933586158256098],[-0.21240560999882516,-0.033059051154900564],[0.03667182369793842,-0.1225044222730586],[-0.052581789295831086,0.010811232641206309],[-0.01739217974599414,0.07453242237071003],[-0.06993559132235252,-0.0699255271854791],[0.05840479474471175,0.06757991511945624],[0.13231450645276233,-0.05721239985191412],[0.0019495744740020975,0.07960769296008172],[0.042256397917471974,-0.12725118294390317],[0.03156758127100876,-0.07078345165102583],[0.008530994379749962,0.01986972330791834],[0.16908670550110144,0.06491802130532512],[-0.056426316987790597,-0.047298429644614746],[-0.07863747535384578,0.00244858737908056],[-0.03763505298594323,-0.1316743627635578],[0.1876028204261145,-0.012500271365524987],[-0.138182266544291,-0.010276840118953096],[0.08975061232632721,-0.07163055228318982],[-0.010532940416163714,0.018355599426749046],[0.0308199861938184,0.07884326766867505],[-0.03575128841861203,-0.0989142494018529]],[[0.0904081330512301,-0.015095287156196763],[0.0034957146778639542,0.023097202818389277],[-0.06339628871749303,0.036109395588443886],[-0.15894645073105276,0.04525849902721316],[0.11180765842460252,0.20098595315367063],[-0.19324105683171036,-0.028631609477796534],[-0.12358666985744955,0.05553779055544642],[-0.09081721539747412,0.09263578147944126],[0.08513244099105935,0.0033229328709018105],[0.09749319917876036,-0.010093483248138087],[-0.12009427959340464,-0.11677129331591486],[0.06462935727568166,-0.1040870632573698],[0.16432284592912078,0.00017244251463362337],[-0.005233962453395982,-0.008503706773639454],[-0.12269451839981294,-0.04982379871416056],[-0.11971816383504352,0.0014336450582035254],[-0.1289068706728553,0.02263249829423241],[-0.0361293930079932,-0.11475107641397053],[0.056684694226854335,-0.04599538684791065],[0.15018775478505925,0.036322939026237226],[0.13546534711817465,-0.07557118820267585],[0.10251438183067298,0.036029686308140546],[-0.025948634983935823,-0.011603882308775702],[-0.15756074307135606,-0.01627192893937451],[0.005816244664485029,-0.10326419568321552],[0.08144488157955482,0.06732576835295719],[0.07315195571821749,0.013891553163470476],[-0.029629312843849592,-0.022912092472672823],[0.06338027467319356,0.11100018070203245],[-0.022824765500881916,-0.012099602624117002],[-0.026480944433380362,-0.0667184075733711],[-0.03981776868102788,0.03559484883294419],[-0.032487121542273414,-0.026115194315188866],[0.10665887966511631,0.027467101805586924],[0.034670689308286956,-0.017923162269763357],[0.07756469515887296,0.08677050473347225],[-0.017099198888421083,0.0879165461586719],[0.027405964825062763,-0.058007562531953195],[0.11299668848335861,-0.08729908563121593],[-0.008677697609499758,0.048977516872826775],[-0.11070036150632316,-0.023380668056896495],[-0.11791920324076066,0.10521480932611361],[0.05895110906085515,0.019347945245198724],[-0.08285231638839673,0.01880165417556401],[0.10393873335377325,0.06383774993627592],[0.04032329947743331,0.0033001262236549873],[0.04910697628423135,-0.04760315930394556],[-0.16191640462487264,0.1135624937318116]],[[0.03536126827370561,-0.0031402499417694904],[0.0426819507968136,-0.085774022558587],[-0.05828106776822455,-0.0768557367739917],[-0.024900867875053374,-0.02076908280081625],[0.06929659688463316,-0.20612362290096983],[-0.14280226884050745,0.02303800172415393],[-0.05729727652628788,-0.027479996891473273],[-0.05393380438796591,-0.1264225864759604],[0.002848593870847637,-0.021322044703400433],[0.1339081758180807,0.026963914436555644],[-0.17528131738247435,0.09286449863244861],[0.0537481085330309,0.1600928622482089],[0.08325243405460477,-0.036267898722552476],[0.1387709167904318,-0.012460330268522885],[-0.14776590333621295,0.04720648207803479],[-0.03884551128608096,-0.08532351072262355],[-0.15697031670167985,-0.039831618428537954],[0.01347362237790535,0.08055183239737411],[0.052949727579395124,0.017294126170477174],[0.18484966998515992,-0.05583143881366786],[0.13774586829337873,0.07026353328362514],[0.0067723467662714155,-0.010673572486790786],[-0.12492545926492232,0.03357924949421362],[-0.023337427240885906,-0.04602288821439284],[-0.10620838412439267,0.09001506652564778],[0.0905586101814039,-0.1076859346166518],[0.08457139948797428,-0.030901814212708812],[0.09460029660819763,0.06065275336943516],[0.018322706506893327,-0.08170568868436899],[0.03694801759756657,0.030780685293743053],[-0.1075445520468032,0.017381097319444917],[-0.006874793755172642,0.019356629593846538],[-0.09322660226358279,-0.00933317059550715],[-0.0018370437142525065,-0.017799518459140906],[0.045679387521346024,-0.026032401402675667],[0.11855775417118712,-0.022731393277294832],[-0.12052242662082438,-0.033527389039808224],[0.12892102567404765,0.09027366870430394],[0.05929860103299264,0.059829143520396824],[-0.036295023480691045,-0.033977409102377475],[-0.11420023350978743,0.01989554889521628],[-0.10806539303617851,-0.027789007740907215],[-0.13966584135780616,-0.08454605255755387],[0.008734293684658202,-0.019926656085008553],[0.07181445845654615,-0.022832747808565323],[0.025373197313679853,-0.021981549745412377],[0.061018539386621905,-0.018186664036064924],[-0.15576772997980554,-0.08373344494375352]],[[-0.08750609521844428,-0.06061339186096934],[0.03715266709280043,0.1381079634121707],[0.007001379143498653,0.10219503716459934],[0.05124148088423572,0.0010737868746913354],[0.02305842057755172,0.13870227143690822],[-0.025545214145900535,-0.03331743252721281],[0.00798551258888748,-0.01585545070837478],[-0.011038318429775285,0.12093962052271132],[-0.0631351735058276,-0.02479883399127248],[0.11496069327433793,-0.04939239037873887],[-0.10729898112687564,-0.05266374728300076],[0.00815355781253487,-0.13154457470966024],[-0.07528569028165148,0.08548793116306154],[0.236988915394519,0.02125739374578561],[-0.0783847092114267,-0.03145855417441554],[0.03818798970690213,0.15720148011896953],[-0.04991672604088083,-0.0034258105351879947],[0.057068800425913044,-0.058455605023296],[0.048556503123358005,0.03906891910301128],[0.12203927491929344,0.053709740526271955],[0.045218661006093015,-0.05877995054749427],[-0.10089701041967825,-0.006209092060846792],[-0.13264243958372227,-0.054374223778086324],[0.04979625928513279,0.08195792351414881],[-0.14343828943273573,-0.07802733895041757],[0.038914813443211696,0.07360946647315694],[0.06740366487086488,0.020158200788507864],[0.07648702489726067,-0.07400407620605184],[-0.04627045627355329,0.061799069717990394],[0.11587181036376243,-0.05911061705875353],[-0.18117203120066883,0.01910279152058723],[-0.008658728088106566,0.0029134910266784874],[-0.09823215956380128,0.020285700181300204],[-0.09937048376714937,-0.03612906579429013],[0.05983578678710583,0.019797482550265606],[0.053122917446018596,-0.05197008165776497],[-0.18063560999559056,0.024718258820492073],[0.17758775416434894,-0.0914713061696157],[0.024917933557607467,-0.001482846390845848],[-0.12304026434397283,0.027150513594699076],[-0.11584226095363444,-0.03853426548202587],[0.031354994114525664,-0.04943295817167242],[-0.2282435471721526,0.1385985591917923],[0.023795821206873485,0.0001481726041719974],[-0.032361970927958866,-0.04581392552064597],[0.01622211259807096,0.02350818755726328],[0.046807242934917004,0.12405751775934946],[-0.04200230786024149,0.03838372395036282]]],"a":[[-0.0004996656289702458,-0.004939630066696465],[-0.005678693934869508,-0.008475087769347316],[-0.008252736367513263,-0.004009868178202496],[-0.007037575095863999,-0.004460216429352218],[-0.013740456305247067,0.00981417508229943],[-0.010217008526909967,-0.0032940855777166774],[-0.0035917584513896106,-0.001532717739796026],[0.010353703119075325,-0.010776964610744174],[-0.01627849220505837,0.0033580721064420532],[0.003502847370701376,-0.003188283017836195],[0.005022804369129425,0.010952571332085749],[0.02347624836228832,9.2362225695174e-05]],"b":[[-0.009211043891020114,-0.002829995108144816],[0.007190586899186414,0.0021566844565123105],[-0.017961417927106635,0.005873114760132347],[0.004181714463206973,-0.0007845828688188109],[-0.004343316181951093,0.003970751911352947],[-0.019442745934112254,-0.011480859693854631],[-0.004701506316598734,0.0046984477703809115],[0.022339914171323857,0.013365582757901647],[-0.01693658234457585,-0.008104894381689843],[0.017259514754917195,-0.0008561175510620073],[0.012867555791325713,0.0007901766238170436],[-0.006792407156987838,-0.015347648868189737],[0.008443588418024398,-0.0040372596510870684],[0.006257417107279007,-0.02293519138458894],[-0.009223947421662448,-0.010874069503724043],[0.007771783041603954,-0.0136299128306042],[-0.013566650461139532,-0.0015495705691980848],[-0.005494700278009264,-0.005769234019487356],[-0.005516446277347089,0.00840913522063819],[9.809159172905995e-07,-0.016788823654502582],[-0.02036684004215429,-0.014564685122737899],[-0.003833653479304049,0.014736384484941],[0.006625569024900725,0.0004590097119179391],[-0.003300755874381308,-0.008594047789548007],[0.009765791630627666,-0.004590944468291513],[0.004399561982219073,-0.004799754150023074],[-0.0060797812094193675,-0.004162158941223776],[-0.007792358718165133,-0.009162912427808981],[0.0038931764775619886,0.01595991013876945],[-0.0032125375386596444,-0.005149896392217663],[-0.012469909631200824,0.00023507605933408772],[-0.004264845792927437,0.012745154770887319],[0.004440034537268423,-0.004752153931627906],[0.011293568086289344,0.016379133717644066],[0.004493917553192255,0.0216973195280265],[1.4090707823327073e-05,-0.022304910761320244],[0.015073150087787498,0.0009759068410563179],[0.003673543152685781,0.005797771318798172],[-0.008060311794847166,0.007492579392215123],[0.013992013095496459,0.0010688994664540352],[0.019636874880052953,0.009914856135717546],[-0.005315078257591477,-0.008111719013695725],[0.012669350797032315,-0.011285420875333118],[0.0008767664512623898,0.004671788961240169],[0.0005394099264725354,0.012684437615698825],[-0.0072137799325090336,0.005364339734979429],[-0.0026323779812002157,-0.016672014059093493],[-0.0027846567439116596,0.016616027909093452]]}
