{"Name":"RbmSpin","Nhidden":24,"Nvisible":12,"UseHiddenBias":true,"UseVisibleBias":true,"W":[[[-0.3971064870766104,0.2208643128800163],[0.13817499726186577,0.22733295831756908],[-0.6287159957104975,-0.02784664835465356],[0.01950259209634979,-0.3745449284442577],[0.1696569573975019,0.2590414077473749],[-0.32109247119377576,0.19598333319668462],[0.03098624159331744,-0.04142932818877268],[0.42491211006017693,-0.0847781331574193],[0.07673527281719364,-0.11422375253967608],[0.0040851545497612276,-0.15740446130554564],[-0.03654355357932961,0.10488166911154563],[-0.5249843836225543,-0.10469527295303674],[0.6887625200505701,0.0857544037594133],[0.4800326443411238,0.03284610507898478],[0.14867512467789845,-0.0785605455092291],[-0.14523945752189435,0.009127891472363075],[-0.04322948105155139,-0.15730721561526495],[0.5870775927862746,-0.13760273699700384],[0.1322245697949939,-0.21648124754357922],[-0.15111940886088643,0.26211042149462366],[-0.03859931042635857,0.17122816218047654],[0.0009818197984242164,0.31416593413331706],[0.3422969204124475,0.1374996710366751],[-0.009570199777903897,-0.31743407965689685]],[[-0.09221351097261177,-0.24514413658878914],[0.19103752770064247,-0.0632791359188575],[-0.8045166162061245,0.0029257239672902395],[0.03161800906307736,0.4220717338347772],[-0.040075259177049946,0.06813662740570323],[-0.15555027447078748,0.010605958527840948],[0.008388888022667244,0.08595368680737056],[0.9296918576001395,0.01554866892498133],[0.19696516979146841,0.20415622682117837],[0.08380908273210746,0.24114059844938734],[0.071693560397534,-0.031446148581622264],[-0.31655056117738906,0.12513143716474887],[0.8184208942347297,-0.11755903260376828],[0.7202655379792112,0.015145726427998014],[0.07817788953138265,-0.1609456388688318],[-0.25152838478073625,0.02107093822546447],[-0.10450715470381669,0.04717734348191134],[0.17147714423369295,-0.12084755223435463],[0.17495720025547612,-0.0826427421332576],[-0.11806187188176381,-0.5103100710274349],[0.0015162002715154216,-0.21657846168209607],[0.0049464976659470685,-0.24650769258992936],[0.6611964841375578,-0.04953215173703242],[-0.013547502262186071,0.5207813819776305]],[[-0.08717453318634574,0.05843330074338992],[0.44028882045938034,-0.008085124714146404],[-0.31077914380891225,0.08115793541105777],[-0.06446307117442523,-0.30684375569840366],[-0.16303013846349287,-0.02816193323100218],[-0.17241057470649446,-0.018119163831466285],[0.11742486464215683,0.0018941304579315847],[0.5906944603248018,0.036845882848359726],[0.4520388202508469,0.013363818725712325],[0.07920592500117508,-0.06031431880381722],[0.5102495707128162,-0.06473414981660257],[-0.16789710089980286,-0.09044203556280711],[0.2889500385519835,0.05703781194037152],[0.338831142203671,-0.04401059045394848],[-0.11924026237731766,-0.04061840995569387],[-0.3506513840422472,-0.012623509676837164],[-0.30081872943430515,-0.050336899703788254],[-0.07211099564907261,0.2844156642800288],[0.3679271654449263,0.12496978345449229],[-0.057794499638822126,0.44138679336045217],[0.005989366614903745,-0.23974783150463258],[-0.010580512297320979,-0.23460728692097077],[0.39475695902620966,-0.10798220752943846],[-0.023771827568255518,-0.4728357727633056]],[[-0.019120517910510542,-0.05537488692044618],[0.7505239702652214,0.01809613581985529],[-0.12216238112066999,0.027560222125081746],[-0.012227868220678695,-0.14529341693438477],[-0.1796542324526164,0.1491008197972785],[-0.023646795076960637,0.07281575978207953],[0.5998487637012623,0.039651316089489595],[0.1696144867803352,-0.12793283305359118],[0.8133002251443281,-0.06740232291854974],[0.09727418476140097,0.13060359033948682],[0.9150008044250458,0.07462374172474236],[0.021213734786775577,0.1444281239391894],[0.014689000689293274,0.11692300461455772],[0.034128442379005294,-0.07173248032397482],[-0.33612913453308585,-0.15940752277065945],[-0.6721778556389434,-0.13841561276525488],[-0.7825499471105081,0.057757149723317074],[-0.12288146391866037,-0.2690060042299801],[0.6322698228913162,-0.14136927628888948],[0.07724530267965087,-0.31411882227534715],[0.007744537702850438,0.46956458347547464],[0.008790916210845814,0.3140969011351241],[0.23013321456279745,0.2228740593601339],[0.010590312805924651,0.3848820489254083]],[[0.1571952136516519,-0.16192092850723008],[0.27364385797703344,-0.10700290070849856],[-0.06021337436670694,0.07492701684247163],[0.07302594065168554,0.289549605432314],[-0.4774972615113474,-0.022733730551130996],[0.22527681565222563,0.2204415473524325],[0.7202904283505708,-0.054855063277812116],[-0.05170178176389277,0.06577143990187392],[0.27659201955801016,0.007145131785538726],[0.5471887330618187,0.031188934866151586],[0.4321084353210861,-0.09298565185657938],[0.17967662284491193,-0.07659379755414095],[-0.05499583591002739,-0.06896361981873693],[0.036523757918560315,-0.11810501620887606],[-0.8847243226727478,0.029000747943434685],[-0.28902374283286153,0.1543989153463968],[-0.443790554691898,-0.14580294987456466],[-0.061899542264403896,0.20838806572917837],[0.29918315025134984,0.09904771454143046],[0.28857675991735954,-0.1147487860354351],[-0.03443966487298092,-0.4162248245492698],[-0.01972969171541743,-0.33408679717186235],[0.08898237110338292,-0.12024224714163696],[-0.004207870832573611,-0.40868547524978655]],[[0.6028324975215711,0.25013069223887485],[0.06059619153080889,-0.05295047610087917],[0.23883213793629715,0.06279517244476557],[0.0012116547198670067,-0.27490004475643337],[-0.5198160028816844,-0.07541491169255303],[0.6340020569350784,-0.33404531415289684],[0.29364984650238357,0.0013818504813522794],[-0.32612003416250807,-0.07370941538418663],[-0.0031845399610758813,-0.10168522580000366],[0.628757029706634,-0.013786889968001233],[0.04702462603831658,0.018547120968338535],[0.5406028090171343,0.1137794127479372],[-0.2726116029619647,0.13640811454077312],[-0.08988866014821763,-0.017278565593870997],[-0.6731241988474695,0.007132231504845395],[0.00421221997711441,-0.08641138442522404],[-0.08306407984978363,0.18265311707501347],[-0.3727308532861266,0.09093280237185689],[0.08913784194409763,0.15857682170753556],[0.38280485757332156,0.19516114628444642],[0.011382962696058376,0.1192519255828143],[0.007912075387644688,0.38159696792876446],[-0.2799976834941427,0.0581696330044684],[0.0052721806786809634,0.37217337383295424]],[[0.5012242872175411,-0.2851300159350536],[0.003119851015054485,-0.005301859757443478],[0.6396864597481531,-0.05147810744321985],[-0.005208640292683528,0.3640548679323156],[-0.22975283346400957,-0.1089845402981238],[0.5153427377052547,0.3828450305623927],[0.12365885464559866,-0.042968777426290676],[-0.45047938942718446,0.017903674637843616],[-0.05868701107209876,0.018288465724335234],[0.23711234395326639,0.00023240270707062388],[-0.1325318102295996,-0.027073979029746564],[0.5504704234423481,-0.13094323798050628],[-0.5097921377100483,-0.028464163733319316],[-0.28977153033743397,-0.22274242197070332],[-0.04330132926357914,0.05618788553896049],[-0.0323107291702965,0.0066544696297042355],[0.04873560322806251,-0.13947089648480054],[-0.4522219719102937,-0.13369328723702784],[-0.056549661933019746,0.020768195422212997],[0.11480698622881508,0.03480677696172884],[0.05140433683344123,0.39888208458920194],[0.017963521801934664,-0.09803252697597324],[-0.5538282171215699,0.0912352955444525],[0.00547323071021134,-0.4106868417999474]],[[0.22528637198883192,0.25423565428096145],[-0.124024791516796,-0.059714781425073235],[0.7650660797053,-0.0022173236031844163],[-0.0015239367237801199,-0.35009756012055426],[-0.06617142641629135,0.03998188558459789],[0.11633025037623104,-0.1722845185375894],[-0.09115852598842891,-0.0070367140901521135],[-0.652884224954227,0.03950012409482796],[-0.10003106604620966,-0.20198162013677237],[0.11951195487641034,-0.060794080170805335],[-0.2659650721589533,0.08130445061133272],[0.2796442892268155,0.1276311327569893],[-0.5626428911009828,0.07075668645929716],[-0.63492400654763,0.2581049506804836],[0.16326406992253795,0.03223083545056912],[-0.01983224865153758,-0.021321321039089212],[0.1546636059004068,0.03980017106136222],[-0.2911856420960927,0.04657773887908438],[-0.25015302583356075,0.06660676594878412],[-0.02704207272987608,-0.09242501053639766],[-0.01245979535626074,-0.40559351216614437],[-0.010622545567726594,-0.40386351334607107],[-0.696594506558442,-0.023029909733508002],[-0.019730987237981765,0.24686055151939598]],[[0.09855159898266329,-0.06706642834798149],[-0.47001037000943885,0.025790927433106695],[0.39830004321407564,-0.03277730789669539],[-0.035679336299455536,0.5221236356855868],[-0.01957820729471159,-0.17390631734026873],[-0.006620007376345356,-0.13986229023351776],[-0.30222240248514787,-0.10602155355575339],[-0.4203818118406901,-0.011318393222953962],[-0.34505194460190003,0.17500046108479106],[-0.03423216543187034,-0.017387047607639552],[-0.49359312275591793,-0.11637922391202686],[0.11833133850065139,-0.19502721604683237],[-0.36106185485699654,-0.12488591959980858],[-0.5437637815502551,-0.2700093361342338],[0.12623609116022413,0.11781800035225475],[0.23900179139450517,0.18867328317952656],[0.33706534058282556,0.06518047573608825],[-0.2458021119874784,-0.03668928761394541],[-0.484036762978815,0.041660638689756654],[0.015380882432006259,0.15264963417309935],[-0.06129291557963203,-0.12119189584595855],[-0.019423988687973813,0.5453336569740589],[-0.3391130860832016,-0.0073497448762416505],[-0.00887795911156176,-0.0572331513271893]],[[-0.13335042592805404,0.03932015202389579],[-0.723378204485825,-0.047317892894893854],[0.102550015125703,-0.09141607373394811],[0.017126733171265836,-0.4189765305515303],[0.11837501854599805,-0.09781549100097892],[-0.13342452801181917,0.009084528931029533],[-0.5756550821625972,0.10318886960547796],[-0.13038273891821908,0.07754566377275147],[-0.6225392566663545,-0.14590588391466675],[-0.2747952406094845,-0.1513200876404363],[-0.5777059691321063,0.09555734412196606],[-0.03836379815591451,0.13912226947468506],[-0.1967257015134838,0.037421276094281364],[-0.2642111169021563,0.26798490637641154],[0.13004934194672554,0.12444295287033293],[0.6766782278246691,-0.23305354112467688],[0.6350640888669165,0.009533012608814423],[-0.04065604518310612,-0.024092760354192704],[-0.5365364279838472,0.012800267034114948],[0.026602685628086688,-0.05561662167278214],[-0.0015448051730819407,0.4497957214698131],[-0.012148474831238642,-0.4169411944703533],[0.01072929921435034,-0.12088727570265367],[0.0012902095056716955,0.04903246719252108]],[[-0.215000080081013,0.15561462213894234],[-0.4096076045211879,0.19975781536053383],[-0.01191487303046828,-0.074558297335911],[-0.000878038521732061,-0.06864244200663015],[0.622779418750391,0.2246192254140609],[-0.19214533833765546,0.007401310674718217],[-0.6631838365770795,-0.1264222605980863],[-0.10221669259224359,-0.04057635158742175],[-0.39782740005787215,0.07267190574853133],[-0.7705924026434128,0.02895909323447256],[-0.2690577499679996,0.031024318124466536],[-0.10128955903279781,-0.16736499539693162],[-0.10395550686440963,-0.08730567144127263],[-0.06769271116037344,0.0154377389494483],[0.6684566707055158,-0.09149177344453167],[0.6004910138273424,0.239733168088574],[0.45816792577429155,-0.08450329504456941],[0.20407233640404307,-0.11646236107671025],[-0.2816033996028055,-0.22706908263431733],[-0.17829141294794845,-0.06719701473004729],[0.0529366945952876,-0.5379062725134577],[0.003834827627785307,0.2976868046038461],[0.017502939989247953,0.1363476807965938],[0.00029750253197672715,-0.07109579994557663]],[[-0.6004984330348305,-0.23793670883730667],[-0.1506256225177196,-0.13528079603397306],[-0.24204174703330705,-0.00928081123749642],[0.020402834415720397,0.31007330409198164],[0.8152575830525914,-0.22162073285096218],[-0.5037438361475258,-0.24736142852565485],[-0.23437102323661654,0.13806978153190344],[0.07835218687416619,0.0978465556246997],[-0.21261624248567834,0.20698773508659118],[-0.7322954568103047,0.040041166410379324],[-0.1837833858867083,-0.07381146787873026],[-0.5247738244138894,0.13848980446661296],[0.24461580296749366,-0.06498838056032046],[0.2198706359717904,0.10784986938760044],[0.7639269523857106,0.09192136448185362],[0.24505978728145464,-0.13225127625636038],[0.18347573413016358,0.18877261151803046],[0.6976974337850026,0.15645218091540167],[-0.08784706354745923,0.10260112499514741],[-0.3748488061847286,0.019451803909586625],[0.0199138693388637,0.36590719377984704],[0.011080530220620262,-0.14914378106488613],[0.07370230313217666,-0.27610020762675813],[0.004216704456421237,0.1548688911878769]]],"a":[[0.0425914904500212,0.02498322001790224],[-0.19618282519743876,-0.004916207000479258],[0.03357580968769045,0.00612801119668366],[0.2198429509730355,-0.04377019422200791],[-0.08548594462149756,-0.024543541538725455],[-0.3240198862246983,-0.020233738013535185],[-0.0367598788796632,-0.016453731676860497],[0.14681033558775636,0.02843125509184531],[-0.05075265047048603,0.02307696508001897],[-0.18359714526591106,0.012284448703104214],[0.09050726545550204,0.02240125845287804],[0.3411752508082286,0.02598850862554702]],"b":[[-0.0265096927393514,0.012290705962605581],[0.020654568795984995,0.02415364358945197],[0.10207158690932787,-0.009151800813217413],[-0.0042291579932554405,-0.0013024992027952007],[0.002051526912331913,0.020467158724341593],[-0.029225536736438122,-0.009619423375622495],[0.010567850835141116,0.023813132611031376],[-0.06657809234199341,0.0006449105499406725],[0.01554904339213401,0.03081560466087396],[-0.022908887527728253,0.028145648029127952],[0.009679112331941355,-0.01175556976895168],[-0.022629004842840608,0.004689310120320087],[-0.10877654232334014,-0.020437309225879573],[-0.053298263070474944,0.02746621841217636],[-0.01029400033464961,-0.043865895092522644],[-0.025533957243179174,-0.013790298672240709],[-0.02884224445874567,-0.0036981575209362764],[0.041327978190082555,-0.02625605151342711],[0.007746518353708511,-0.028429119662975795],[-0.004119432733003846,0.017901851005762567],[0.0014567740806765291,-0.008477916751613803],[-0.0025148962529465764,0.00436034855537446],[-0.0869244238345962,-0.018895263841593832],[0.004272929279734934,0.006549900804766289]]}
