{"Name":"RbmSpin","Nhidden":40,"Nvisible":10,"UseHiddenBias":true,"UseVisibleBias":true,"W":[[[0.5031708452375623,0.055285723454298025],[0.1792589438736678,-0.01977203500704288],[0.3180375999976466,0.36197434253614535],[-0.6606130710551649,-0.17290467550499825],[0.4009330661284903,-0.01848033881153324],[-0.3122186887083801,-0.15050202320834707],[0.03173972746519569,0.29936904517120305],[-0.07542791204253296,0.15857523082603497],[-0.029833819553881816,-0.1467507405052503],[-0.6208214621591001,0.23450017752155838],[-0.09926848110343037,0.19522763266286122],[0.3280239575520016,-0.2265005664820724],[0.11410864276771628,-0.03993964074024677],[-0.028909046786657636,-0.07328110864123823],[0.15308133177725966,-0.12992943166884088],[-0.06629106902069484,-0.01933644861832074],[-0.3574306004379108,0.19948424197502326],[0.12828827604738127,-0.5682492057750017],[0.11644226253551403,0.2327424735895986],[-0.049800265408036413,-0.05348725479159471],[0.21973315189401293,-0.11129773044738295],[-0.570780193849855,-0.10859905984903714],[-0.1374437071586546,0.24267936301151638],[0.19330676010484704,0.09519467284719149],[-0.030627926358673865,0.40931217750896565],[-0.3817174624280824,-0.08310910590667667],[0.4666636873561475,0.07899304659488836],[-0.0017956635856824193,0.0049121028837656715],[0.2432699788232678,0.10293619056746386],[-0.015771753181264964,-0.047498477757302725],[-0.6475761337714578,-0.2323321251002856],[-0.6401840757058815,0.08213241564955151],[-0.002709453933037012,-0.4238467432760842],[-0.10413476578419971,-0.2955982129455384],[-0.2556299588746051,-0.10081526875823626],[-0.2274567217182516,-0.07468647296346151],[0.14458198502036917,-0.02342055693834055],[-0.03960953006794108,0.2687666448153418],[0.39613266231015826,-0.25463970251949053],[0.19630662053919298,0.1074818944062909]],[[0.17736482689390892,-0.08976812290900381],[-0.034722656946017366,0.0916456365540522],[0.3934183214756966,-0.38790854447612927],[-0.1531438252675866,0.189526985415237],[0.2288005286615753,-0.053562694706739765],[-0.2913346031096864,0.11369513399742899],[0.08981418840794349,-0.24445956100189306],[-0.4171006385090918,-0.011666603926147443],[-0.1064280705626406,0.1548309888360527],[-0.49734591955617075,-0.23642861770001916],[-0.30548212047664147,-0.0559719774241317],[0.504717580147567,0.1633701419132759],[0.06470037190525621,0.11736104624109703],[-0.46713054589179903,0.028392548486136152],[0.014854281550927516,0.19010657066758668],[-0.055650876436115986,0.3079692804464116],[-0.26362251039146206,-0.22932904909749754],[0.07706570600711335,0.3610424721413826],[0.32493588713866406,-0.0866684877904725],[0.13343582655139627,0.323269641873852],[0.10752085966893096,-0.010944580945240305],[-0.6591974242220499,0.23193062997714115],[-0.32951947646038365,-0.30472210263047705],[0.16667212363208422,0.09230418534052981],[-0.05303143876965247,-0.5695357168448792],[-0.07336769419651608,5.302094633797293e-07],[0.4657340483628981,-0.18000707155002516],[0.012190667320678765,-0.006933470936897419],[-0.14354561043549924,0.03585945068280902],[0.18127253547590444,-0.07744931809754872],[-0.621451213474462,0.26838558209830954],[-0.16346311011932577,-0.12401934502625188],[-0.005691056845061288,0.3122340821763761],[-0.1584048358038603,0.20827634668334397],[-0.4302126530893968,0.20543046392443787],[-0.42462559391649063,0.16613840934498067],[0.5094041443348072,0.1143962193880339],[0.039879521260138835,0.2690864910799198],[0.16781257822356827,0.5825224961962433],[0.6619866786912927,-0.07651312100887406]],[[0.1142213966658462,0.01440011666312753],[-0.2534506945246455,0.126035117834205],[0.07918545023847123,0.29003519456788557],[0.06569787077220131,-0.1504301290720206],[0.023090272416495253,-0.14279064427837462],[-0.12061573972456942,-0.06301965511280341],[0.16490633279091507,0.23603326686214318],[-0.6010731209106929,-0.023689748629188736],[-0.08219607416750288,-0.12436229110062344],[-0.1435185531918321,0.21920724902495653],[-0.6081075649999037,-0.12235709012738531],[0.3316048650657822,-0.11758537677563058],[-0.31835839834188695,0.1101430595057662],[-0.7203641912554877,-0.15874005904881747],[-0.059562136868932344,0.21971166974601572],[-0.039435082731076744,-0.42786239792390024],[-0.13634604302523098,0.24133023645647947],[0.021512396561057835,-0.2129761460761651],[0.30895440636293386,-0.23817566549630043],[0.5252037066813134,-0.3346966159355663],[-0.0018433155652661964,-0.36959145369479396],[-0.23222677723062984,-0.22093930993478675],[-0.21591948694875698,0.3150057091348956],[-0.1401583869643495,-0.08225934299535839],[-0.2983476202860035,0.4443031366091224],[-0.007700629459860648,0.19520141391015594],[0.16534536730586769,0.05014285023223622],[-0.2118008103691234,0.0007274404131455681],[-0.2860032465326766,0.05476849166625464],[0.6158684415372905,0.14751920166082957],[-0.14343323933023594,-0.2534631317629996],[0.021565958581275795,0.1421512948158319],[0.036153116136012534,-0.4093441538827922],[-0.3552296695344314,0.03950559334884844],[-0.305898105798763,-0.1685479823086927],[-0.4426880078362877,-0.138686461974478],[0.526955864305571,-0.0664892355193303],[0.1858902285714514,-0.026202305707821352],[0.008299610773375163,-0.3734399142819417],[0.6231317647851855,0.038023806432536306]],[[-0.12330467548369373,0.016319858123701944],[-0.5797458413411508,-0.03779153760740686],[-0.046863482244323136,-0.16080423337900338],[0.08176488766624805,0.06616871536010117],[-0.2663103003244867,-0.21027035868463925],[-0.02159493582359551,0.24225431115836976],[0.44877146565829706,-0.006094202033646723],[-0.2821019177447476,0.166234046505601],[0.11289131082300233,0.11676066446275594],[0.09444250600991436,-0.012772695940503568],[-0.2195420616817347,-0.004366379718079211],[0.0059013270033134784,0.08247877116360176],[-0.7329778421627038,-0.26503189732808524],[-0.38621779981535337,0.30236720647199977],[-0.35472557427210366,-0.1734923726067236],[0.14717834251189144,0.4670098448879697],[0.143260961795554,-0.43289613169342894],[-0.05305040199973479,0.1952479809371904],[0.19605751772947813,0.4376917608934701],[0.5339825561085612,0.2450076687158427],[-0.28418920857625496,0.26207257084737867],[0.17043912525781976,0.37668721112482495],[-0.034622059173420316,-0.10808290512035863],[-0.528136305482255,0.2190257629612675],[-0.26256031203777846,-0.13211035045913597],[0.09507427500420514,-0.31022339030692564],[0.01263568068150171,-0.03866525702063648],[-0.5770003601866347,-0.03450024375675192],[-0.6170190813543392,-0.006115705271268097],[0.6797011589567795,-0.1133577869356964],[0.13048964626899673,-0.1767538753792608],[0.075160243030473,0.13418657248106264],[0.09595634873206323,0.46464490902063593],[-0.17972311232906832,-0.0186252476794568],[-0.04749959762948755,0.28621690985809367],[-0.20613537149220815,-0.045319967920392557],[0.18758496908490171,-0.14899229679093015],[0.5802498918571085,-0.004943649743814112],[-0.1273538704346927,0.3986801488088809],[0.169199499542768,0.045437247966681346]],[[-0.6229573091162817,-0.04684906246200187],[-0.4939430101493517,0.04807732314055373],[-0.10302903792103656,0.1636463734446088],[0.46163276357888283,-0.06582024137398014],[-0.44799120919703433,0.38461086537859024],[0.12777548474032274,-0.03892991721462498],[0.3344370616607948,-0.2393777013376913],[-0.04848711470957726,-0.10252181737373707],[0.18246795651695727,-0.20998028206936334],[0.15793607411734709,0.16199720994323924],[-0.09548328131502158,0.20804730858021586],[-0.08693104146316866,0.2616697049990727],[-0.5139903678181037,0.3371855415477999],[0.06543547559904561,-0.09168188222000345],[-0.38763617767647207,0.140729461188782],[0.24622083272639247,-0.40421643915054606],[0.6546855192496361,0.24300378163411263],[-0.16504628583524203,-0.1491281239528389],[-0.028207812060973544,-0.3633876307704194],[0.16373904735788586,-0.019010060831610026],[-0.4964956117308547,-0.10491105098523267],[0.2595951199292093,0.04074291652058782],[0.04645436093033512,-0.16318622478227807],[-0.4079655582288485,-0.36156523273985364],[-0.10642792101489419,-0.11223629671138911],[0.36089631562609725,0.5141222971454932],[-0.10715594937781772,-0.00806699447144674],[-0.47976677021766095,0.0822454715352432],[-0.4453632120309043,-0.08116393408849337],[0.2678375077167653,0.014183315943168049],[0.30971042528179443,-0.03857605089206374],[0.4584753088533319,-0.2567453117550938],[0.09390460386812688,-0.3621822107836044],[-0.05507519152860986,0.030310346371519588],[-0.05988263570286955,-0.19242962188479046],[-0.20168005770174904,0.3346004962925545],[0.050823717537806484,0.38053269831108283],[0.4800885588092434,0.06582648399169055],[-0.1723064358382108,-0.556374438989293],[-0.0629842177661757,-0.0686181428207465]],[[-0.7300238017235652,0.015782224554128],[-0.12891302940800298,0.1455998004347306],[-0.26427129706056685,-0.00713043365544446],[0.5296456475175267,0.0180988473780057],[-0.3756304189032307,-0.2770854013774803],[0.3748621932154508,-0.09861168011558155],[0.07944183753431552,0.24990830871434636],[0.15992295268632678,-0.04059090482605329],[0.18284962495045068,0.26477300302046547],[0.4446056211535491,0.014803308886957422],[0.02038397654505867,0.07084038663097422],[-0.20952848220146944,-0.10902888297204831],[-0.09395845511528204,-0.17896894187410503],[0.35568302077314523,0.3192639735944661],[-0.20392008673107995,0.07132446504332544],[0.2239951599805369,0.006752371873092049],[0.5606039973795243,-0.11920090724400925],[-0.19308363335088063,0.2183946867146887],[-0.2901288979669776,0.5304288260511667],[-0.03718925100447874,-0.05020531879497111],[-0.31963259444176645,-0.06606073238829739],[0.3999351421240447,-0.2134355093868801],[0.10560272131644068,0.02771726794850523],[-0.11573312636887556,0.19018836719591237],[-0.007926245306214639,0.04395995632685017],[0.3874608109120452,-0.39390172512981714],[-0.4864545932452937,0.17444608876254067],[-0.2003787421233982,-0.15666828939598174],[-0.11011068238555607,-0.1284492775282719],[0.034609677505497795,0.1984304795625303],[0.5824913963953771,0.22657208381414726],[0.5765468485699099,0.28871904854718794],[0.040040767399762506,0.22673309508646247],[0.11274659048240658,0.1625720917155505],[0.06404301493346472,0.2940883504928264],[0.05904401909997116,-0.1385424051475002],[-0.1287852924873192,-0.5142011040164994],[0.07756509316457037,-0.17802516408249222],[-0.3203762937746554,0.23755887474072324],[-0.15275317674840275,0.1186647065587588]],[[-0.2168569485139144,-0.030225540682919584],[-0.02498010269566598,-0.1999101717161858],[-0.2633265637327862,-0.14337578381349078],[0.23927417903010265,-0.040881181656326274],[0.011038078424265987,0.11862360341803331],[0.32746312338612377,0.11803001347399464],[-0.06525380790135663,-0.410421406899011],[0.5106802233671158,0.05773678376583822],[0.08717068762189291,-0.29444105845970037],[0.4500746155714067,0.027030316798039092],[0.35440015184790025,0.06029933883284294],[-0.4031325995866065,-0.043641529473833936],[0.12388126975622255,-0.030998053369269345],[0.5674585722872265,-0.16367340938084687],[-0.04218565671362694,-0.16694001553176527],[0.018520284014589397,0.1867549053516632],[0.08198772962449324,-0.12353736818636663],[-0.052180521123850736,-0.15181681397797925],[-0.48677534489293633,-0.3548276564534244],[-0.18770551568367855,0.040160535773473977],[-0.01813389939855738,0.09694298321030465],[0.3446643866624031,0.18036463943791034],[0.1811930305845583,-0.00844953558020347],[0.14899579372054206,-0.15283135522281968],[0.10615184411176616,0.19160829762012083],[0.14931709109316726,0.23476170904016705],[-0.5422061362189381,-0.18014117161559115],[0.06185152501196119,0.01570518374803294],[-0.08549651326107223,0.05486199174666428],[-0.14280695862010928,-0.1969129476176517],[0.3609271664940905,-0.18291380267314794],[0.2577836595226639,-0.025710579241151863],[0.006136758187046603,-0.07706272651441409],[0.1025652164043672,-0.4233300521233969],[0.4901399926239691,-0.622659019639387],[0.5258553109847515,0.08381485247048232],[-0.4686039143514492,0.40946508443652246],[-0.15566408947841737,-0.16195044251095153],[-0.10826889966766001,-0.07945853687977908],[-0.5610558569179503,-0.16538383015895666]],[[0.05081589741384986,0.04507587788479511],[0.14207878469897012,-0.04157342540461092],[-0.16086911460785688,0.1148717705263527],[0.0721110881435695,-0.02558816403105162],[-0.031487681888632914,0.21209606523491906],[0.07166385905729084,0.011066107673878065],[-0.21820733397973696,0.40402368561667107],[0.5714274301161626,-0.21376675394824227],[-0.02293650430581239,0.21804342373080166],[0.17233731312560158,-0.12703192274361216],[0.564187960527632,-0.23627734073810147],[-0.29728733599743307,0.2170455439283943],[0.23798716781195556,-0.007937854419327985],[0.5111468787942706,0.052981710968112314],[0.1046285591370498,-0.11800382900825587],[-0.1009949559302277,-0.252627166757274],[-0.16323114534472966,0.2130824024610174],[0.05302414563021712,0.015695031028553453],[-0.20410405265757225,0.11078234002999822],[-0.3958588361283197,-0.25239331635775525],[0.07985339857544567,0.2411094526677585],[0.09902409899010828,-0.08385950158759788],[0.20632154053865695,0.027444623043376217],[0.11606774093179334,-0.029288892441445197],[0.22370053251353555,-0.27305586643019447],[0.024044906799649213,-0.257647961467488],[-0.16170390035680832,0.23151214788617341],[0.3211773291425649,0.11331515048820423],[0.0973451711274964,-0.109861987780339],[-0.5908945051861378,0.2779754198403704],[0.0725880565109402,0.2247225236230453],[0.10909741936935093,-0.15656446623316567],[-0.024579681555825215,0.11643284662355143],[0.35972226713333666,0.5103339580014206],[0.454670172329125,0.592174814868861],[0.6766012849882385,-0.005547845881662426],[-0.5689084606796151,-0.17255609049108803],[-0.1843852867814765,-0.1835387678582397],[-0.09922669208339818,-0.08959877751242812],[-0.5932825263739382,0.029519243519115262]],[[0.2328015336778724,0.07554769617695907],[0.5643044128955716,0.05340374870313744],[-0.0556800320779613,0.043431703746755215],[-0.08944456395635175,-0.0107223350367659],[0.01740573115635886,-0.07154264534952286],[-0.029286822217444292,-0.25553524431954183],[-0.46021437917908303,-0.1209177938018412],[0.23736174189657896,0.11486816524463384],[-0.14851641614202218,-0.19861390606844798],[0.09614366271824097,0.020249988749360383],[0.2677207097962543,0.5016794428961739],[-0.18996627984528353,-0.2196792529884945],[0.6116735239564859,-0.057073956438776184],[0.037088932313595994,-0.05396809138663003],[0.32984198676072596,-0.022372653349588937],[-0.1653165233382868,0.3336119408822283],[-0.12773973451494705,-0.03573770488470887],[0.047087899183958754,-0.3010954001778134],[0.02536478553708007,0.01719165450340481],[-0.47838124458160447,0.16811442341619387],[0.27991141430911265,-0.0809042787230491],[0.22113588783812652,-0.25837884133593425],[0.1518096972199823,0.08396777047511657],[0.20049072780698257,0.17759080162638682],[0.33363149848901685,0.5160431654455986],[-0.12859749294017284,0.005638832231525895],[-0.015078849214702893,-0.06631019124979824],[0.6183797573357797,-0.08990404364779764],[0.6179287905238583,0.10074014847225167],[-0.6992503987671729,-0.23140261480250088],[0.12300443047132896,0.22502021651197074],[-0.13856209830584476,0.03497450505514875],[-0.1171634414274682,-0.29197484202024976],[0.17320096912974547,-0.5957582664147794],[0.1580254271391559,-0.3740583649413437],[0.3309613646827866,0.0054548313166885385],[-0.273170485697874,0.02067045973262241],[-0.5994432042278806,0.2532404270689489],[-0.03473515517689174,0.10267545420310469],[-0.2889961175838424,0.06371758955159786]],[[0.6013193296729937,-0.05807096102606519],[0.6571905246887251,-0.18669759987574389],[0.13333370623384433,-0.28827885114819407],[-0.5408155460139691,0.1308117402879773],[0.4190618862999371,0.03401889147630089],[-0.15424325911478362,0.15731452366045415],[-0.3975810430925978,-0.20115115465432837],[-0.020275532787123376,-0.10170396733308741],[-0.14098665875950822,0.2101480305875332],[-0.1627130703190718,-0.3103030049732105],[0.10606818908603254,-0.6482124230133262],[0.06442530371516164,-0.047629288301492594],[0.4875256885280922,0.06330757054386804],[0.04818784300436138,-0.1419434722165611],[0.40203589643978993,0.02851533355133051],[-0.20705551525482926,-0.22787000736453109],[-0.38649332033950995,0.06653553134671797],[0.15429826274126057,0.5987495765864039],[0.03710424852466582,-0.29703717648725947],[-0.21349362209523035,-0.07371383260921294],[0.4109888863873826,0.13508946935514102],[-0.029315168149529017,0.07122162265586042],[0.021260673005624318,-0.08093515660913835],[0.38950984781337394,-0.18427459629121143],[0.07649138108580832,-0.5012325775151836],[-0.4404927407294245,0.11241207357780843],[0.1926496125589281,-0.06427925158916153],[0.479918231487562,0.04657338941519128],[0.7147738487718779,-0.055788844971814744],[-0.3370969405930971,0.029979400584288125],[-0.1636241302445286,-0.02345633162126245],[-0.5681513958202604,-0.12777732607061537],[-0.13582728847404663,0.3936574954210363],[0.17510092670920654,0.4055617877644783],[-0.02142088976610529,0.0737086612416154],[-0.07746024128540228,-0.18707339597405925],[0.030181427616461455,-0.028713782355191054],[-0.40747438496197075,-0.3156313192594644],[0.25573505527533136,0.03125495200231806],[-0.02708566394111153,-0.0977981414244931]]],"a":[[-0.04156424138112244,-0.010622606694202834],[-0.03464170540023814,-0.027459500201797757],[0.03499600031029539,0.011617422793894603],[-0.0633186519583513,-0.015082064434784617],[-0.03624724309966258,0.018259547209422303],[-0.056672868763749905,0.014430065978371267],[0.030237277235462844,-0.002539971079027626],[0.09244623677683357,0.002573572071189845],[-0.020216863173410485,-0.02079144246798806],[0.05347020968852914,0.00726359485653094]],"b":[[-0.004971126509406807,8.472716029662846e-05],[-0.026561887711077634,-0.010565472100899436],[-0.012469941571461711,-0.007209559404499234],[-0.015759962609086894,0.0046734577351887725],[-0.04987624623364414,-0.003871980385639096],[-0.010149473948498869,-0.027116994841847434],[0.028378620935317875,-0.004998818011571839],[-0.0181367442445057,-0.008955702866706125],[0.0005672518707154034,0.010835187831360399],[0.011800029326473446,-0.008728909407243156],[-0.0006639926549810306,-0.0017786816465391096],[0.019813954681755404,-0.012870134197979687],[-0.015608474998038352,-0.010682089768225388],[-0.014508465557778663,-0.03225059523496627],[-0.005582841532448241,-0.021128872549887105],[0.06366410359931825,-0.00047588236424241857],[0.019730634411137694,-0.002442150281896736],[-0.0028128424016337886,-0.08845009057595102],[0.006711463715567774,-0.021413400359533714],[0.012890396771913675,0.0018496413937896157],[-0.031496396215263525,-0.0011088211642334615],[-0.013133604202435605,-0.053400191946948165],[-0.013260148026685275,-0.010395047957149076],[-0.039521461091427734,0.05199641548785366],[-0.00034743793680475657,-4.249867636463059e-05],[-0.007312901203637925,-0.0368813841198788],[0.022281230657149185,-0.0013108219388239123],[-0.008813480458074317,-0.02355742916317826],[-0.03864363445056276,0.01972464698872044],[0.008892610942572361,-0.013811174149270564],[-0.013320535947666304,0.015520804346945843],[-0.029537543511055548,-0.003070471509678515],[0.014913029585847691,-0.01958622973596184],[-0.04032905446453875,0.017545100510421116],[-0.02001349191782446,0.02364881613147681],[0.011604053997317391,0.00038111873798046716],[-0.004744515407725718,-0.003110138370502118],[-0.020156845346876638,-0.028265225320661665],[-0.025735899491157663,-0.023037885392788452],[-0.019421488338831165,0.015061708562557894]]}
