{"Name":"RbmSpin","Nhidden":20,"Nvisible":4,"UseHiddenBias":true,"UseVisibleBias":true,"W":[[[-0.0003350773501218562,-0.0010309044766245593],[0.001671011716263636,0.010449035075094006],[-0.0008207280459985328,-0.008207229773722428],[0.006970403964786056,0.020195472964682885],[0.01238786976597048,-0.008016366709214089],[-0.006052063001950436,0.0023913039651786623],[0.006066119777749356,-0.01307747769296485],[-0.00354389674635948,0.053276576899789894],[0.006165285893837476,-0.02151587292146521],[-0.00030255530404564996,0.025395371764971246],[-0.0002799016957730227,0.0066692329115010844],[-0.00032479135146360545,0.008162961818437457],[-0.00123957722349026,0.011744499384082303],[0.005509183491650579,0.031257683809301114],[-0.006011891200026102,-0.019760808424954018],[0.002909403533615578,-0.0006175071196720627],[0.00359311504852591,0.018927287852749955],[-0.0013279744963976905,0.028381148571479633],[-0.0016415973426502908,0.006307513001551682],[-0.0013013144568957149,-0.03320278549771191]],[[0.0012174568699347458,0.007238854275399062],[0.004618521444648879,-0.0019096262834146214],[-0.011276775237473547,0.03576312902331144],[0.00331688158349286,-0.004000029247591387],[0.009830198611277943,-0.010492630478872136],[-0.0044502564278395915,-0.022392821483648545],[0.014110917185037295,-0.038543801587640175],[0.0009214090519959326,-0.024240761186002966],[0.0064541751771761665,-0.006213937393458775],[0.013433570037286131,-0.05295137429832446],[0.0036466445919377563,-0.005615727479314175],[-0.00555025355147091,0.009210247403237384],[0.0028231663526816055,0.008687813548870294],[0.0011121683044011566,-0.0016758886765788962],[-0.005534021039677722,0.013652547558816121],[-0.0029018232273551304,0.0030763348806731685],[0.0026788827670636973,-0.03601200919781456],[-0.003793211563483711,0.011429932571912561],[-0.006792230011152834,-0.005106712100549656],[-0.007337100753136005,0.01561464517408338]],[[0.00035560335289486764,0.005553251671104133],[-0.0015127689279484863,-0.013891097454339179],[-0.004045582523622371,-0.008195886592861865],[0.01356095966008049,0.0017363922460638566],[0.015287301088675003,0.05148761960360659],[-0.005676213481419189,0.028730112208030154],[0.008642226876547471,0.031297515895375244],[-0.00724967862055794,0.03141608253430546],[0.005076201772830051,-0.03656707094165555],[0.00501572917018071,-0.0036382185579217218],[0.0028975859426551526,-0.008343227956484204],[-0.008322168270420663,0.019612918511366925],[0.0014365985657117065,-0.020303801277307045],[-0.005513160332324191,-0.03889723721858038],[-0.003385607186937647,-0.022148795408178528],[-0.004718453514732532,-0.04572773923881583],[-0.003235067126606301,0.004359832181533595],[0.0027445812543039692,0.0014925244855069045],[-0.005777776625047332,-0.03201429356580793],[-0.009677085490726028,0.00593987127130404]],[[0.008083559850732955,-0.018564164503996873],[0.0011371233346293514,0.009601681833974281],[-0.0009986824946328077,-0.023548536793529518],[0.010867597569877381,-0.039834562827213864],[0.00869285699983082,-0.012530462010432068],[-0.004145419141387921,-0.02421761962013316],[0.0060443526340468795,0.009149157487629803],[0.0026245572808773795,0.011541756870030269],[-0.0002753746094038809,0.04179156539741647],[-0.006166709774360724,0.0005067185996317809],[0.0022875848097306203,0.006778172935780769],[-0.005670334243724837,-0.014175254483602783],[0.005973134202321324,-0.005915302481395182],[-0.0011751681517096723,-0.012014311015535054],[0.0029444736728382434,0.025487566694211213],[-0.0021944083525024644,0.009462138126148994],[0.0023318343128768946,-0.021378592735131624],[0.0035028106652961037,-0.007990633269887713],[-0.004080280993134304,0.01272596261994262],[-0.005270531846067484,0.036098993348179426]]],"a":[[0.0010037408739040107,-0.0029493173038176107],[-0.0018743027104508392,-0.0030969816793077107],[0.0023329871113544364,-0.003320081247928558],[0.0011560181820313752,-0.003923281634482124]],"b":[[-0.0011947425563675477,-0.011753895143232017],[-0.01652710068676668,0.003801671531074523],[0.0004608182898250873,-0.005438821336981938],[-0.004200017214222272,0.011817311742782582],[-0.005775861374173257,0.02168952481853134],[0.008684408302706944,0.01111283486314601],[0.026458462039121493,0.01799744736049103],[-0.015671357382296528,-0.0014691079537170369],[0.010164918201728948,0.009846700703610338],[0.007527583146887545,0.016650955868047542],[0.0008476372458067964,0.004966755287776158],[0.0031122975559255087,-0.008625828503996902],[0.013426294127549391,-0.002836484540352958],[0.018322415785394317,0.004429488995761273],[0.0023098804391744323,-0.0010734583097756114],[0.0007208341918513326,-0.001176719788179057],[-0.001699379921980864,0.005869005534445563],[-0.014946905103990979,0.018571460118894045],[-0.0006133817283546453,-0.006323808557917916],[-0.002862221728648376,0.014188974212661543]]}
