{"Name":"RbmSpin","Nhidden":20,"Nvisible":10,"UseHiddenBias":true,"UseVisibleBias":true,"W":[[[-0.00026320812769596574,5.30841225972662e-05],[-0.0016572678252246243,0.0437265209175304],[0.0024974096890897474,-0.0049656491339258434],[0.004521972421873648,0.010054539488411235],[-0.003016922375839483,-0.0026441744575648233],[0.011426186976558199,-0.005264332391181742],[-0.005871804953480696,0.013413587588871734],[0.0060370443648761155,0.027440039375835553],[-0.005740896853234639,-0.001967324988521432],[-8.481562189649965e-05,-0.0020708176095005177],[0.008394540629570317,0.007375477383380568],[-0.003432658421821048,0.0231053497588052],[-0.001243781087596578,0.003370431373213644],[-0.0014470598036885407,-0.011840212547541902],[0.005722653036044739,0.019193012910786535],[0.009327461857518463,0.0008215144281319367],[-0.014640393717847623,0.025087385144483207],[0.000906366235002558,-0.01079764671339393],[0.006393953410078401,0.0058346162326781865],[-0.0016925397934830265,-0.014249929120981534]],[[0.0041313138985245735,-0.026073696080305873],[0.002718730608137175,-0.03083950421671848],[0.0058848516615749935,-0.0033081736244939684],[0.01340392021368011,-0.05692523783081918],[0.006084310309166236,-0.01852796923404378],[0.0003069752131831652,0.011255870242430945],[0.0016470429166227753,0.01443675730836304],[0.0017743071840588536,-0.013334184808564215],[-0.0034109320786716315,-0.011309303449277622],[-0.003221083987374637,-0.0001223480845563127],[0.003406158363046256,-0.04492427392479183],[-0.004224552406693805,0.01843097933657944],[-0.006083941278242007,0.0031905674665106206],[-0.005496190931196681,0.022071806382464757],[-0.002081236213103837,0.015673113483036676],[-0.0011997676249444228,-0.0030059067092714654],[3.595945766974883e-06,-0.006034640766325638],[0.008111140465102806,0.005852469249809929],[0.005125666020246561,0.03156162851763999],[-0.010914681930664628,0.047540398501665665]],[[0.005359808817721854,0.030226579154298067],[-0.004514692826063689,0.017773787160676558],[6.790855812146399e-06,-0.042385407964206714],[0.005830291042099758,-0.009388900616827959],[0.00274806189333153,0.002281828952366899],[-0.007527237630077544,0.024407417984601283],[0.002569541225642084,-0.00512356251765026],[-0.007975479850126666,-0.030194169379794977],[0.000533471695323051,-0.020697048183199944],[-0.0061127833367838145,-0.020978225929578185],[-0.0007564983216109837,0.010717599069073387],[0.004709587972880694,0.004470403866270757],[-0.006258417526478085,-0.0367642189204768],[-0.010119720103151127,0.008872029724758753],[0.007289796832579189,-0.02069490964633178],[0.005831273378933682,-0.0006792178220503156],[-0.00441157980123938,-0.0005995097761190124],[0.003413157307457985,-0.015111729937995035],[0.002344018804065581,-0.008951021857059904],[-0.002551186892112435,-0.03571098145948362]],[[0.0038413901375047447,0.005795570092366379],[0.0003272351418852934,0.014652466096539047],[0.004141614901319729,0.04066561794891841],[-0.0032023467274034352,0.004570238924270374],[0.007997757261273154,-0.010330446090119828],[-0.007528936340815212,-0.005236621475713385],[0.005043033169481548,0.0042521578306254065],[-0.008398751212132032,-0.004678924789548532],[0.009012975930951845,0.020030490522314235],[-0.0038304293049162097,0.00045132877342176747],[-0.00957747141956792,-0.019409666044606852],[0.005288335420863182,0.001532958593368898],[-0.0020059430116613672,0.021914435106127228],[-0.0027010194701002333,0.009600925692644606],[-0.0041689536185132575,0.0076384790155260155],[-0.0012230401496453784,0.0046378918464599775],[0.001759404313911693,-0.02939286803606865],[-0.0065689060428129635,-0.018384783846700514],[0.004153585149601686,-0.019806265487760166],[-0.0005392815014012481,0.005686190424655926]],[[-0.0003809044300354173,-0.02034282341761458],[0.007351715225564889,-0.013978710979802998],[0.004897512598103391,0.005116067015966604],[-0.004433686254825321,-0.0028107371515679416],[0.013678216342379161,0.03475878122552499],[0.007308799669980768,0.01077870334904931],[0.004495117372346015,-0.0010802104976325201],[0.006272733072491174,0.005081326116272844],[0.010188207705252,0.014154527061048293],[0.003982253797444297,0.023902998591099383],[9.018275805591238e-05,0.010826501974356832],[-0.0015171811300322448,-0.0032839674499883314],[-0.007507884166643851,-0.0357986464296386],[0.0014110204139006085,0.0004020170539825298],[-0.012466375302138713,-0.0014147603312593662],[-0.009054306604733123,-0.02593879255132168],[0.003165340437273031,0.018992446032510737],[0.0069297831818087435,-0.00431402108374869],[0.004497826231349859,0.03503359701483774],[-0.00385416710745103,-0.008169391881855413]],[[0.0014292912964024855,-0.017835755316622633],[0.0022590524375032768,0.008931523786509413],[0.004276925084973719,-0.005804818517552517],[-0.0017059201132401435,0.006174534541186725],[0.0051518836308949,0.0015813896706374975],[0.007081430991896078,-0.012754483021666516],[0.0007510166876604611,-0.006776863574155402],[-0.004733797630928177,0.014271769259433366],[0.012026953192648623,-0.04051935408989539],[0.003446796975078155,-0.001275853854202698],[0.014223758071395736,-0.023736013144394944],[-0.005838373935429114,0.019213201561086555],[0.006459065542879001,-0.0024500421606207553],[0.014422832182252775,-0.02074166855305452],[0.006164515510772398,-0.014363649237407385],[-0.001283135098341382,0.022013849650313944],[-0.002636714326690955,-0.02231645987520882],[0.002053607658346458,0.020366259477510872],[0.004865450883021017,-0.024612761456965282],[0.0014464903592926023,0.0008508987689684652]],[[-0.003581823806173372,0.016538900851131567],[0.005011637416341795,-0.0015201575615008715],[0.008682503451818665,0.023300972621010815],[0.0011199398414346513,-0.009606781337601419],[0.0030057732555996354,-0.02409670944289438],[0.01084642338699626,0.007182748403070667],[0.0032339413540738047,0.015629247269361397],[-0.005839952505671296,-0.014213455113140094],[-0.0022412729667037434,-0.004684911192850108],[-0.0016563877968824965,-0.013213753341693165],[0.009351061743073924,0.016904608546706227],[6.399742345570026e-06,-0.01383821598863184],[0.007416570059825569,-0.0031122587269395707],[0.004632342538103856,-0.013384678138304868],[0.005745294411018705,0.017129000905504923],[-0.00265046859634207,-0.02896849704925004],[0.0017153959027667953,0.016234577421656106],[0.013233310521976098,0.009066424036149538],[-0.0010782179672259497,0.007888604593973754],[-0.00456263235136991,-0.0009432809482536472]],[[-0.0027218234696146314,0.0004984184292780341],[-0.0006891351512371249,-0.003776910160013701],[0.012138493892103239,-0.022421866878311273],[0.0009336194559115969,0.014264518347529523],[0.007182786790586188,-0.00821607020723554],[0.005350335767799657,-0.016648295787058964],[0.0019145890303636913,0.008108326175723607],[-0.00885590438843461,0.01656707465929542],[-0.010607703764226352,0.01599437607607351],[-0.005934869978683454,0.01919857468107367],[0.006087855821283122,-0.024076062375089725],[0.00022310572603020422,-0.010369574624072894],[0.006694083897936089,-0.016259448885560225],[-0.0015940026052322582,0.03328317326473626],[-0.004096979057356681,0.00765196192750972],[-0.006516973203250033,0.029376186236620205],[0.00550900090879759,-0.012189139708047662],[0.00016819388320790248,0.003018053977018839],[-0.0013626570708113006,0.012690671864692794],[0.0033294225511942815,-0.019750211464569744]],[[-0.0065855433007811935,-0.02896317452644844],[-0.0007397601617775602,0.033017193600270694],[0.0036574442940209627,0.01103073172051025],[-0.0004167252610032382,-0.02445948165839958],[0.003753719809533767,0.005873320030485724],[0.0035463459616211284,-0.03156735947243975],[-0.004140833369801422,-0.04905282810151977],[-0.009021125656699023,-0.006111006287954336],[-0.0016442857141508618,-0.018908631410461344],[-0.011312487376745242,-0.04451215091188529],[0.0017230743617327147,0.016885755711195008],[0.0006527787090520731,-0.021149704071255264],[-0.003936578691243419,0.007168404054582383],[-0.007946563607778151,-0.0028781159456677473],[0.00395731873382486,-0.009368351423122511],[0.0008632065770073937,-0.013020190301703675],[-0.002226496019035159,-0.010007230439032755],[-0.0006567325468499276,-0.03141043058712874],[0.006159980485349904,0.028647097611242473],[-0.0010746574293221357,0.010493039577532393]],[[-0.00948960323392363,0.009760288407649914],[0.00073247557780312,-0.011790175719647356],[0.0015957164724001878,-0.0001370207605621547],[0.001267701585285303,0.003356849537604073],[-0.005073608247193802,-0.010169666519225113],[0.01588127742248054,0.013698264688047862],[-0.0065409379711218844,0.01639257766874774],[-0.005492418508109182,-0.004073983717911848],[0.006416313773159013,-0.008513922462914658],[-0.01006767862847712,0.021888383705967136],[0.007182160001457647,0.0033177984626520567],[-0.0004779389069113724,-0.021914922325453896],[-0.0044801494311504375,-0.005892399922932793],[-0.007300870091178467,-0.0012462411054189977],[0.012799355284602416,-0.02861349051749477],[0.01252213012666281,-0.0025718372060171343],[-0.013709005947800511,-0.012508706990000269],[-0.0012430250612259274,0.008312404904452524],[0.0013591079706659318,-0.009691558858913603],[-0.0030343501519222676,0.014157290805606952]]],"a":[[-0.00104107065128015,0.0017814636401945617],[-0.003178976447632846,0.002237598776167752],[-0.0009606905641598465,0.001867027536018361],[-0.0006010268709323159,0.001867816115241832],[-0.0019246526469791781,0.0009789884764693929],[-0.0009061631115933465,0.002446291331806301],[-0.0016189872735007003,0.0006790689185900093],[-0.0004513901975117729,0.0009616369978781283],[-0.0018195174614743486,0.003749962748887967],[-0.0007968384044324464,0.000857352021505111]],"b":[[0.026267823766230426,0.018704197006595275],[-0.01514067290716716,-0.0011730159203466389],[0.00994898098837137,0.010022606147381239],[0.007442687743634247,0.016312803009614064],[0.0010556506687379513,0.005372863960711434],[0.003449979483575238,-0.00886279184795769],[0.013529735848985017,-0.0024856504826408555],[0.01825507017988943,0.004509640188253631],[0.0027690148742558684,-0.0004996277797699085],[0.0006810585575450532,-0.0006627256365263271],[-0.0014092654651177673,0.0052110136008072985],[-0.01461501147314099,0.018453233991187503],[-0.0004326396444757007,-0.006442584664423578],[-0.00285348284981865,0.01426704607929281],[-0.009181291272793586,-0.003906586685950383],[0.00029077194921459733,0.0056880530419272],[0.0056602898569856445,-0.004489011052057445],[0.009786357368166418,0.0035275708624845103],[0.014150523580486444,-0.0020648274858235138],[-0.005969747877045121,-0.0008735254138251613]]}
