{"Name":"RbmSpin","Nhidden":160,"Nvisible":40,"UseHiddenBias":true,"UseVisibleBias":true,"W":[[[0.025311475173083724,0.05106671906996794],[-0.003682639888083047,-0.017718310594998097],[-0.006240281174795994,-0.005367933235834945],[-0.01247482966460078,0.058334172058299015],[0.008281687736523071,0.07987924120570339],[-0.054534630313153996,-0.11120395826051338],[-0.02334369074043749,-0.09636001329222382],[0.023478012869719518,-0.014901818014231398],[-0.031220891278053116,-0.02273405922238382],[-0.003022592329540558,-0.04145001007811357],[-0.03009640759664656,-0.04071369972229248],[0.028878424151490143,0.016393019787444948],[0.0013234622528232492,-0.05925579380229029],[-0.01681351958418946,-0.007327664585634487],[0.014422862914638642,-0.002823406589173018],[0.004714489680839378,-0.06902376058712917],[-0.005315275384041117,-0.04664200294766213],[-0.0029549144231672255,0.02905664355797086],[-0.006812967071538209,0.030637296977137532],[-0.038249959345289575,-0.01714287294282311],[-0.025889709357526394,0.05237506938992482],[0.011072165013892982,-0.12743326126346338],[-0.019125457474583205,0.10951915670897783],[-0.010197875715920493,-0.06532776347351027],[-0.0022980300187061754,0.0766197427596725],[0.008445073481894912,-0.01128232765257197],[-0.00409579463896714,-0.014220063130537513],[-0.02972286046814343,-0.012963183543134691],[-0.018332395266054128,-0.17438808664438782],[0.010396004170699542,-0.026281072192803564],[-0.011027838059814447,-0.11084721507027327],[-0.005827233938472979,0.01529014180960813],[-0.0020127136692843187,0.03744841901054995],[-0.002764174762661833,0.009934137696309348],[-0.016830712693195013,0.0004012523559403046],[-0.0033054014619859863,0.08020322351983543],[-0.021749339840787352,-0.05274293392853319],[-0.07670673940088574,-0.03668320235601],[-0.016772505427280857,0.0019597572910945303],[0.03956907275439789,0.10868899577194123],[0.036053632032490755,0.054775383331976506],[-0.024017677691303627,-0.03059121229772581],[0.002930089060698828,-0.16722925620802226],[0.004706350243450259,0.043225622244178245],[-0.0026198747257737613,0.04244133782396543],[-0.03706094483070488,-0.024351730461961915],[0.06479212943021004,-0.02067939810318395],[0.006920101664078291,-0.0035053897543439703],[0.0029643419828369972,-0.019145567154947096],[-0.003520620737462693,-0.005085366426419249],[-0.05848144348762184,0.0376195526056023],[-0.05502516294339324,0.06105154588229168],[0.007188478154257858,-0.021808580668759774],[0.041127940865075846,-0.10571013414398776],[0.023888237101305408,0.05641067212669795],[0.014797929655574844,0.12974537387016583],[0.02773248020950627,-0.09904673406463585],[0.0017534460782334237,0.01437261028540647],[0.0067603865027316395,-0.08764737505773455],[0.012834604002388512,-0.09651470713609986],[0.006459514228176573,-0.17445497685227557],[-0.00038615659290776826,0.0666880014340345],[0.0025739953731026724,0.06638507589153998],[0.009061162479474775,-0.05469470185217837],[-0.007439382365428808,0.0344344775720804],[0.05773782064079096,-0.07862441297731733],[0.037390280148136584,0.06185390222310121],[0.0381676325533103,0.05810085604497747],[-0.0367984251540379,0.02058533916368808],[-0.017231654040600015,-0.06130558837225886],[-0.01683493325708879,-0.06056691644321405],[-0.0191790901202725,-0.005881916451470672],[-0.018794364113174783,0.06927749250752642],[0.011304140318856418,-0.004303345408347563],[-0.013378530305906708,0.04465639061546721],[0.0195607287311923,0.05786098433786007],[0.009677856421450828,-0.023361399501701276],[-0.0024942817899950595,0.070464798746702],[-0.04476576551424261,-0.007673685988152995],[0.008502685952443727,0.04698798014609226],[0.02563627681866461,0.14773666034790944],[0.033244093886566455,0.04121252763505005],[0.017080187584090595,0.03761814025902955],[-0.003400290567243177,0.14878303749761385],[0.05357938931396821,0.1427405359628117],[0.01021194975449499,-0.1625535392466872],[0.017532029208579894,-0.08824190691408118],[0.017238506202555504,0.030093819756914855],[0.0034483543322550193,0.07952349486324192],[-0.028613379990990315,0.03188229664341929],[-0.05700194771942442,0.07878790699887439],[0.01097159745934254,0.011741274336816944],[0.015955409601924826,-0.06935030262692436],[-0.002371309843647022,0.08467147359623983],[-0.004106578896835333,0.06551548675674355],[-0.003942795445503597,-0.050269044429419034],[-0.0020254161011188476,-0.016327250551077553],[-0.0037061401705223576,0.1668418596806913],[-0.025758148739239005,0.08694395728690371],[0.00036982586690140424,-0.034050311182475396],[0.006996695081050333,-0.028868563067474106],[-0.035165931490079315,-0.020468221507682936],[-0.0025526485156349256,0.047220191887703926],[0.03662751097575323,-0.04999120165589813],[0.015026372634942954,-0.0952853442077723],[-0.014330789263698029,-0.07613270756612799],[-0.02083746739587324,0.08315902461864712],[0.04223001917930976,0.023493317705244262],[0.003877798639809369,-0.11066124743650987],[-0.0038974288730264702,-0.03689407911404416],[0.020518852458177306,0.0309544547716355],[-0.0006001158472058172,-0.07828893948203432],[-0.030544701466072684,-0.0730477718559624],[0.06558587276082682,-0.05267717575425322],[0.019881088575473056,0.009709893130916192],[0.025276724192528924,0.019006084458189968],[-0.017678307386372258,0.06294137953361688],[-0.009594442132444767,-0.029189116311133367],[0.019668261286803664,-0.03087046643108413],[0.009812102658251472,-0.1932220930056025],[-0.06849836815532998,0.0034342760154440206],[0.035562297991074875,-0.019548976553879115],[-0.020015324565906514,0.05859591734132234],[-0.01565266135119528,-0.04328924068663746],[0.014543931178855359,-0.10478180600119599],[-0.0019037763035965733,-0.08669287470657967],[-0.03276406815536715,0.012214043131135676],[0.007143504963563301,0.02185195072333313],[0.000273563397536089,-0.09678781558552152],[-0.009151124435473449,0.010302742628296925],[0.011273469244542485,-0.005626699495329047],[0.01381238095641765,0.1525287584948773],[-0.009329432329666413,0.02638913520610336],[0.0274965181820258,-0.051137775641079186],[-0.0010709702991389977,0.061855823461494375],[0.012942957639183843,0.04004674286023311],[-0.07377814805876651,0.1592402551760698],[0.030894814738369313,0.06675937577368934],[-0.0005843093290761141,0.0799706887813458],[-0.011635773126222534,0.10022129993090594],[0.015681609665431997,-0.014659671001656393],[-0.006150473383173161,0.033682167247079904],[0.015284617563023002,-0.015362551684489849],[-0.08428237246291381,0.004496125166009097],[-0.009425253049853866,-0.12799236612946358],[-0.08796711263816556,0.09122883666847596],[0.016813857877802717,0.12216099217671475],[0.0025451528997778644,-0.03968060919975053],[-0.024066225570400907,0.04220327203998463],[-0.0768059658042671,-0.07719349451511524],[0.0017476924199788853,-0.09790878689307497],[-0.02092495790608822,-0.05967878007493785],[0.005916627988889871,-0.09972765899814395],[-0.011047201850769949,0.041420248333816675],[0.006910155543987251,-0.09318924534009985],[0.005761641313821857,0.04612353686238085],[-0.07717330467796775,0.014405261355911041],[0.0020185418534775816,0.06238527557328282],[-0.0022598471701391473,-0.04450291642539849],[0.003483980221402604,0.06873192404079892]],[[-0.04717660430643839,0.06459474051307428],[0.011111462793017255,-0.0220504495678892],[0.009082388082664773,-0.022765799592103272],[0.01451606526555989,0.1175333914476806],[0.010721812258681513,0.08622898668164124],[0.03495685449926384,-0.031151986774016868],[0.002746975549128788,-0.05478733905141762],[-0.015408218326233505,0.014926153670547487],[0.018045928499399434,-0.010300127751893125],[-0.000881539698781156,-0.048464177384149806],[0.016785992343027308,-0.06017495966210299],[-0.008355530462050885,0.041312415089945376],[0.00593195219903485,-0.059763960044849844],[-0.005532463202109164,0.006392788745167173],[-0.01497401389895793,0.0064029737032290646],[-0.017357584668468425,-0.11812100602377901],[-0.05916367688912298,-0.12089404661212007],[0.008101055647344584,0.01629876845767841],[0.019991904737022666,0.009401968203950822],[-0.005104522088581549,-0.0448272489992941],[-0.0031311315967859047,0.04632517487037573],[0.011486371338389471,-0.11157390004826306],[0.04012015813404642,0.04919182310607093],[0.008019850127968813,-0.025622136873020472],[0.0019674984205075648,0.07180589748630269],[-0.0027104845498296263,0.0067510666360762524],[-0.004206001898259723,0.0004243040944637933],[0.005152289150691732,0.0061556474923732145],[-0.002385160821445502,-0.11650360827587913],[-0.013232332433742494,-0.011188349804719853],[-0.018608756253026427,-0.09800611464574002],[0.007673096793626637,0.04273754658437611],[0.005377543491151497,0.01491885353462102],[-0.02503773174528834,0.008989411701505195],[0.01677852695419179,0.0660371342342161],[-0.007262315895670182,0.0445529938085564],[0.05106533117010131,-0.024020924902901156],[0.04490909486114264,-0.08546193874177314],[0.008029328115558874,0.015720642840782548],[-0.09788365761995256,0.08253872430839813],[-0.018683223301164873,0.11015064342837953],[0.003361557089763384,0.007489163772855438],[0.016097887264497113,-0.09302316625794857],[0.011748847948196495,0.08147685814515569],[0.022083239485190344,-0.017944298653589007],[0.02625618229637781,-0.033993983691279865],[-0.02849751955352315,-0.03004052344982787],[-0.002421438815965145,0.018026227423898224],[-0.015501194989869491,-0.05081716380677946],[0.010685279486984185,0.006908848980757125],[0.048088114628641605,0.07089696994310378],[0.04952516612951972,0.10136278540224053],[-0.0050235631775527876,-0.0010763355661279174],[-0.05298386693569872,-0.13648760307848665],[-0.004225697030114883,0.0467980342191133],[-0.02531208087175719,0.14153481436502438],[-0.016302348014290594,-0.08190219989882813],[-0.01303590060865361,0.05604279354933394],[-0.008847450964945198,-0.018486271874531446],[-0.010458256626985133,-0.06151872397594465],[-0.0007605895308914061,-0.1630802336239731],[0.008582931215012022,0.042031649504738144],[-0.012906748370559596,0.00842549316143807],[-0.030279100472066247,-0.06336549411144157],[0.006664059966750468,0.07288748550614418],[-0.017096751571768917,-0.07371449651951605],[-0.042599265792624,0.051533823796206926],[0.010463290779529824,0.011336074408786506],[0.046118952163208424,-0.018926104768139516],[0.01298372978993109,-0.03607060745727511],[0.005539156575731487,-0.051575130402024466],[0.014951509109011177,0.019995303733760548],[0.013638112403648515,0.16825496571787502],[0.0044361136781218965,-0.023829713502309488],[0.004494338697504744,0.020188805833361113],[-0.014879302126045827,0.07823272085452863],[0.01643058631557725,-0.059270398458405475],[-0.02586949021338977,0.01165335031139396],[0.023156533100024752,-0.012153368885363423],[-0.02361663412658607,0.061452972825275246],[0.018482481789599495,0.18039548672737762],[-0.06218706411582908,0.050324357542744204],[-0.01927199780619414,0.06647734707770801],[-0.01101384236784325,0.16032129886593802],[-0.0534221431390164,0.1355785224107404],[-0.019927473314145717,-0.17192126406050398],[0.008261325873873465,-0.057797714124824345],[-0.030390326028592,0.014502188622195768],[0.009331717057533643,0.059245980616796576],[0.00715320425560198,0.06902789206725056],[0.023793057935319818,0.008011941225204067],[-0.011446113836887812,0.017663345043672212],[0.006552889057021234,-0.03261139333369312],[0.011878188289118049,0.1073116621312251],[0.0034031981399329876,0.1031376108160175],[-0.023355175110629095,-0.03923021211580124],[0.02888305448343577,-0.019828205182669124],[-0.001579519939471073,0.15519922124187943],[0.05733709066766061,0.040966931426713205],[-0.01045854789321922,-0.05330818245716481],[0.0006468492951502978,-0.05307020254769952],[0.04593512757841225,-0.007851000515213749],[-0.010396485179345775,0.004685215887096336],[-0.028397527619849133,-0.07430950572765709],[0.024130023396170926,-0.0807311871784057],[0.0005576750572930354,-0.11137092498363571],[0.02153145138410443,0.050064369510208935],[-0.025940262619251146,0.041896752301633734],[0.016608141407511323,-0.11209248264699445],[-0.024786082799245424,0.03902449521327609],[-0.011706547089564204,0.11250601902705457],[-0.024047274477361293,-0.02775919770649957],[0.007176481788981733,-0.01673282662378083],[-0.057034190779019396,-0.043519705161103164],[-0.002028497984117919,0.04808913703426286],[-0.028826011695060237,0.01591636857240999],[0.007219152005918793,0.0935725708060969],[0.007317959729023915,-0.03160021169688913],[-0.0013740017769158207,-0.05417147495073054],[0.007860822488115154,-0.18770963023782147],[0.03549029180688193,0.033642650809976325],[-0.01576237773270194,-0.02814218478448416],[0.03143532482170111,0.07816077793354896],[0.0013774954205926899,-0.08155511558485949],[0.021014413750100894,-0.10128846902349425],[-0.03239318906886463,-0.07082650012474279],[0.04896208242542194,0.01558917624058202],[-0.014253476282947384,0.012565193903979649],[-0.0036052957934891022,-0.06925415629648962],[-0.003781153648565346,0.024511406102725106],[0.007554104621140926,0.03886467681046073],[-0.004686228143543531,0.14295206424352733],[0.023497644893505466,0.02147191294291956],[-0.03436119604166207,-0.05697694118480742],[-0.005137529111674161,0.0393327421657735],[-0.019033611319482228,0.05216883663471019],[0.03309535033917871,0.11137534641160456],[-0.04720230920964937,0.06421147674594392],[-0.005915832919991474,0.07495322196564552],[0.004315436009739022,0.11260072128031026],[-0.02266858915920378,-0.01905837673589475],[-0.0006203994827796076,0.020720257949217332],[-0.032717832742566504,-0.04302724255350438],[0.08660488477060883,0.012608840627169077],[0.020877871208003114,-0.1537845423145421],[0.04780582918664707,0.08611384963095493],[-0.026033181568269996,0.09052608085384403],[0.002031007810048133,-0.042071494100991626],[0.011772808600957588,0.005875921098886448],[0.05650505438041766,-0.1291518118928525],[-0.02575943048106019,-0.07426763877736652],[0.004561220458145132,-0.05344448783388827],[-0.011975978041578083,-0.08977248809703799],[0.03281241843359821,-0.001080986537335773],[-0.014143492544159605,-0.08610223424214876],[-0.018779155613937847,0.011523893759035935],[0.08900118758392483,-0.03690217156375217],[0.017620230542661586,0.04867687222478249],[-0.003634596386720213,-0.07077725802655593],[0.01246706400776299,0.1072661189201267]],[[0.04631517575661754,0.06463973761663586],[-0.022601040753955436,-0.01741256356392849],[-0.009891607999164182,-0.008960903524562119],[-0.008642914435173052,0.14469890309022843],[-0.012385072899211574,0.0381447143703689],[-8.578005609535125e-05,-0.005004705907981486],[0.04870526838370604,0.04029808772853858],[0.023733135717932598,0.012556400872156679],[-0.015489323413362028,-0.00706277514476816],[-0.0007949463768141673,-0.048145129491036526],[0.003383292030188636,-0.07610674995189057],[-0.012001307460379964,0.05723005726994084],[-0.042752921859786616,-0.05155992445513329],[0.005482780837732239,0.007015751079976704],[0.023646272210652474,0.013180281774987689],[0.016044932639836793,-0.1363677335713422],[0.07252105046674366,-0.15991158754135568],[-0.005277247929320271,0.016837063319668086],[-0.0382166832578406,-0.023041435357773206],[0.027747298379347637,-0.04870051854988829],[0.012408950728926477,0.003525420817633891],[0.0020504145539720193,-0.10788277366969326],[-0.04639125708375263,-0.05221010516829851],[-0.017379897664142618,0.0067692683439747655],[-0.03110966914793848,0.010488550911464563],[-0.02030452097175238,0.054556303372095924],[0.002165775980304893,0.013528221210198269],[0.009328646543446938,0.027306204731508212],[0.008699461344981268,-0.06530136716330137],[0.0208921542183812,0.019127677788320335],[0.019588574646491084,-0.06029729901515316],[-0.0011927461154408912,0.05060634609333632],[-0.011454096952490962,-0.01713469804866098],[0.043319769211921336,0.0050932984988742306],[0.02093377757234544,0.1139290833788108],[0.020598615141813704,-0.04621081514547742],[-0.04039958137237908,0.028316928734518087],[-0.0026719473503113217,-0.061288003745483925],[0.003572011804308086,0.02164630877167406],[0.09826681711899903,0.09520021589892298],[0.014178459422351755,0.11829705452410284],[0.025903405841867243,0.04880501397875145],[-0.00971569448731468,0.002349968300146931],[-0.04602854191899901,0.1253419276358914],[0.02458345588084545,-0.07906393696805683],[-0.030200743853142194,-0.046983957541773744],[0.002015614168572021,-0.009359610030017477],[-0.0010680885480779123,0.029751525002623107],[0.015068780364527629,-0.05193645151445142],[-0.010370782051422087,0.01788001921712992],[0.0019326232678952,0.07946765109982155],[-0.03841313899898991,0.12157920447392592],[-0.01329075955482997,0.05360065614363178],[0.024056428708299063,-0.12478552700327898],[-0.0005188280797271148,0.06314901143442192],[0.01614731438546017,0.1282979585149387],[0.0007683437838529601,-0.04102832857707797],[-0.002981247125979843,0.07933811690018808],[-0.0069542619594359775,0.009231338539061475],[0.008481682227293626,-0.06781652681573608],[0.006071672030189721,-0.09837846721382154],[-0.025116344269938105,0.06583024358200333],[0.024861090985815463,-0.06556269236272583],[0.03142609254961619,-0.06644794164827084],[0.0011165228010366428,0.09236088537363227],[-0.01269770855324698,-0.031472563420848296],[0.00958920823516818,0.03320924928523543],[-0.05687015699648129,-0.051287916978433164],[-0.02185818557892238,-0.02160677711319741],[-0.023153264247480914,-0.009337567387203106],[-0.0049645286173260325,-0.024827249164096746],[0.005414725590227444,0.0224913406755032],[-0.022471687912099404,0.19923318038123808],[-0.008649539882806024,-0.038959696550430856],[-0.0004711300529076309,0.021218148361868937],[-0.002863119160943842,0.07226229348158979],[-0.044933047073762736,-0.07746167774315753],[0.03709483989508,0.011437260232085049],[-0.00281783861295772,0.008232729890337806],[0.02942000340005511,0.0993621709631924],[-0.0761807212942254,0.22591446132886747],[0.07987054317574739,0.07551841475059828],[0.013251614631170461,0.10121245773135489],[-0.007885715563679589,0.10288827163369814],[0.042635227719290236,0.08303405969078273],[0.014905195474778967,-0.1531024209248914],[-0.01458861431040052,0.00020326105843278136],[0.05213660702688051,-0.0016574454318904533],[-0.006987061454728336,0.046738047177811125],[-0.0031372715482785125,0.1148009215691633],[0.013124853017095742,-0.010857632047014364],[0.02244086092760982,0.02294164431512494],[-0.01789783225519111,0.011523280461731518],[-0.021736252806709083,0.09993254992211725],[-0.02224969276329612,0.08326157931119321],[0.035874768153709796,-0.061497757293112056],[-0.03010811630479619,0.006389472435600567],[0.006383217321458029,0.13160889162119396],[-0.041393715903856584,-0.04264110862955281],[0.009542190386901088,-0.0839627411521573],[0.00799155912395134,-0.03359688752858763],[-0.032410893639254965,-0.023156014441658906],[-0.006278989589670271,-0.03500968611441276],[-0.0007934987635481899,-0.06343269523449149],[-0.03108176100458404,-0.07849050507900938],[0.011726804969790698,-0.09920067302088607],[-0.026927888008559542,0.03331772799352073],[0.00917221972654905,0.040027102859222216],[-0.026616347489135644,-0.06754560016316954],[0.032605224625225665,0.06355729893474318],[0.0026777319110229784,0.15840188606480812],[0.056518893895547276,-0.012005948460332509],[-0.011789694678246245,-0.04158273080642268],[0.024149868602998174,-0.03401389949813247],[0.00012043229187699079,0.031469211223797186],[0.036073766596362467,-0.0009699634036459204],[0.01446737064250299,0.12494507595649745],[0.01414103810398187,-0.017776051319507866],[-0.015279436811874146,-0.08010155288922559],[-0.027663325952727094,-0.13783700682020228],[0.007269463229884431,0.10092319641404982],[-0.006460509734941019,-0.04004018235531346],[-0.03022230613377982,0.06835491152915425],[-0.026535676701976096,-0.08604813873016008],[-0.007918600037344821,-0.07454252445362149],[0.02974121782087095,-0.02958710294729861],[-0.03869412599823465,-0.01958063828361756],[0.013222934797428762,0.019292418737341648],[0.0047571566392485545,-0.04370211973099624],[0.023263891174043837,0.03051296801002164],[-0.007361013969258704,0.08643531946057541],[0.01939174359522385,0.1570197853450489],[0.011996489198476738,-0.00403179436418616],[0.015150990485090434,-0.051187838673470126],[0.007540097708873998,0.017806377372052967],[0.019771615924306263,0.02807907464681972],[-0.004512390809515972,0.04466606535323624],[0.04224320992350705,0.028359074646093156],[0.010765713884861182,0.07804988509790685],[-0.006435240289068691,0.11369158824071926],[-0.004763798105481395,-0.04094310961413753],[0.0007586866105534154,-0.010123420744285424],[0.020048137688771693,-0.0755359452897945],[-0.061259084119225406,0.009304069672259618],[-0.04705302254109175,-0.13703979543498843],[-0.02127112185711311,0.03634905378759346],[0.01627407499594962,0.05317218993268952],[-0.011993280398423201,-0.03573844378726382],[0.014779095631480605,-0.027541447161974007],[-0.031707671057949645,-0.14787930261180662],[0.015483700934768984,-0.06051552059632446],[-0.009563493764959751,-0.0031099093308520976],[-0.0040983113664818565,-0.07026519049444467],[-0.03465559756707428,-0.015762871374065672],[0.01208677851604807,-0.06342189849245607],[0.015546941976431956,-0.05156707689814231],[-0.07401985781851679,-0.02279321816969101],[0.0015626551883902134,0.04285952413242904],[0.012649458359755797,-0.064782510327641],[-0.027145475657077103,0.14052597764833716]],[[-0.031249659785206624,0.031781208354169366],[0.004510149548530275,0.01583098379602391],[0.007422606912632239,-0.004971379053906929],[-0.003125720085637241,0.11537791752479234],[0.012635202731629953,-0.03963051274493191],[-0.019318387888769252,-0.021079881100142035],[-0.019313228165178747,0.15847052748268978],[-0.017925407407355674,-0.01742330674018635],[0.03353263730365879,-0.016812489445628718],[0.004303114678567606,-0.04512381223065397],[-0.015615569489249066,-0.09643299254406107],[0.025978389979040433,0.05700517332931532],[0.05870688570436434,-0.032433869070677614],[-0.011086476030095153,-0.024101781414376657],[-0.013912709689260632,-0.019972199191183204],[0.0060036130816921145,-0.11770287375987634],[-0.0426910292475704,-0.13291298560838546],[-0.017608971088602984,0.0015040677231338909],[0.009094769877979586,-0.0035498437508149853],[-0.030948466999343536,-0.022652879180638203],[-0.00014115115584083221,-0.0770638756407906],[-0.023632695437326368,-0.11252581639415589],[0.010613223608434898,-0.14658763532192245],[0.02452254000499407,0.011199425814343786],[0.01951026581700013,-0.05403364030009548],[-0.0054852232807782045,0.12186723742910187],[0.011527964455428226,-0.0025405896057254206],[0.0018848961762917274,0.01667132701588635],[-0.0037414674015610262,-0.04456321090041016],[-0.01588745592622255,0.03676722320206732],[-0.0027385645487599396,-0.02534084999943247],[-0.00852286187584495,0.02704492681033925],[0.021608158940999312,-0.045519078032065],[-0.026223083055011774,-0.01824945915668619],[-0.03967168351638936,0.11395202823253862],[0.020667667685945353,-0.12114982510196239],[0.011641182111149584,0.054841214764731555],[-0.03511194113380626,-0.05301881692651994],[0.006829265233852434,0.018499972365100037],[-0.054562520215070284,0.12872071806676563],[0.0034695131961731056,0.09997873885228871],[-0.05649713641938396,0.08110585555998104],[0.003264405233278885,0.07691995126108893],[0.06065338953761118,0.16417234844561923],[-0.0698147105761061,-0.12728061581834482],[0.022058439609033375,-0.0423575794531096],[-0.0016881530933729363,0.044497355752284716],[-0.0036939227463629906,-0.0042642230753217715],[-0.0052369411266631905,-0.043077509595436825],[-0.003332306900180181,0.01721855463034241],[-0.018973812301046066,0.07084389530130283],[0.004638696050149525,0.1186958813331092],[0.006918846952429725,0.08483829297800662],[0.002872542586778727,-0.08797028271389136],[0.016071207265395553,0.09228610115150672],[-0.014593400004176157,0.16465692617059355],[-0.0054966639569912195,0.015981458774039222],[-0.010481293768436024,0.04581229301002957],[0.004325177506054192,0.019022323238266213],[-0.009856955570816974,-0.0631387434725788],[0.010534946232495937,-0.0473715750354946],[0.017630323811452506,0.10978347156913733],[-0.008788086583353711,-0.10898869175034057],[-0.002698606839942521,-0.07242448900217702],[-0.018355009449264322,0.08655344469940027],[0.015529044117388448,-0.00562289480902357],[-0.007379102961479462,0.043942380273993366],[0.027009108156779368,-0.11549021131147949],[-0.012252679790706341,0.0012680974901144312],[0.012905672698730386,0.00632627969927822],[-0.012909253923057694,0.005461501513213369],[0.0053761785755759,0.008049447505238531],[0.02191523199737401,0.1413095084623428],[-0.0037781044674780706,-0.04427058896591121],[-0.0017860543621897166,0.029734951362522563],[-0.0008952084745612377,0.03294402068291703],[0.041497515007238736,-0.08290035215775217],[-0.02566634392884477,0.044540743087071906],[-0.010989495412909051,0.03529307707907855],[-0.03231805928119677,0.10524638472051197],[0.10357832327101801,0.21573378901268125],[-0.07009246371855554,0.05976273351017188],[-0.016540824860430237,0.11115373659266926],[-0.014536491395849309,0.024100444461185092],[-0.002483423085063585,0.06920135013024133],[0.005496556632378385,-0.14297961378729407],[-0.008022800196443018,0.041079706192439835],[-0.04191004407214781,0.01562858026946476],[0.021883146430895374,0.0572261683459636],[0.006010730013997455,0.10143918980859232],[-0.009457826725127518,-0.00037027283854408947],[-0.015363477030165999,0.007212645448765769],[0.005398977241717095,0.017674614787662565],[0.027567092729142734,0.08854487190433244],[0.030267108497338425,0.012349924639136145],[-0.05673499457341725,-0.05720621411734752],[0.013704109172842073,0.008226492926448207],[-0.016971115967364538,0.12540279333625115],[0.008161195364659297,-0.07256225024795593],[-0.007137169278716245,-0.09839568076571047],[0.0007977880097339295,-0.004487247798269912],[-0.0031374481868288546,-0.015314965358736898],[0.021308234381184534,-0.0377086287591677],[0.011232607479714269,-0.06719830120684574],[0.023352114957958008,-0.08592069236552383],[-0.008483784397365015,-0.05558306894406275],[0.009602983829394651,0.04455259000195086],[-0.010396145429506457,-0.0036044847739924025],[-0.0070297691697532695,-0.009975976793340008],[-0.0410059030639013,0.07106348020125451],[-0.023043944317645032,0.13135061349105856],[-0.03265694856766988,0.005396991554776553],[0.013331168889867037,-0.09195950040836684],[0.010521945350066373,-0.024992318146831952],[0.0029925892390356736,-0.04416069520671059],[-0.053491873389214205,-0.010279610210752991],[-0.01600697423065096,0.1304446132777923],[-0.008604758946426013,0.0033534781333217916],[0.009367853899640748,-0.053025460742560544],[0.005691187089660404,-0.0997080836581204],[-0.003169463978288644,0.14392603861777492],[0.0045731399285430544,-0.047132775169425975],[0.02921514442875643,0.03451405381714767],[0.01491952136333257,-0.05050729780444195],[0.019416016437646268,-0.03280307117577884],[-0.029133927602951228,-0.030366041219441114],[0.011612683875379181,-0.01800963411466049],[0.0025013886665827536,0.014436164203581731],[-0.0005969548350306181,-0.02403306811575919],[-0.07841806417883046,0.014752258166791694],[0.004801752066294061,0.1177952959760305],[-0.004685278668821107,0.13541210815988514],[-0.019991731534651277,-0.00024010897282233018],[-0.013184679194019328,-0.045241497767590816],[-0.006546145097846059,-0.007931470032369619],[-0.0037812680847260664,-0.01724341007427588],[-0.01678728754778205,0.029605223544315506],[-0.003956074199358753,-0.00784087527701151],[0.004505475717584876,0.06570467808911076],[-0.006449262401442147,0.07421011838060745],[0.02539582201155792,-0.05431642217013746],[-0.00612736994057946,-0.0455212605202648],[-0.0012274629421530113,-0.08930346661444782],[0.0371438386629481,-0.021630089538352788],[0.03134649584397588,-0.09801032247290088],[0.01129411299552137,-0.03374237853104325],[0.0008155679310871104,0.044931128142662626],[0.02572295872649355,-0.03781024487374349],[-0.01800524062672511,-0.006258445753266815],[0.006634202659293163,-0.10434932294820981],[0.009023595794820401,-0.06846340697225936],[0.007615231441371978,0.05399792246342151],[0.024438168324204698,-0.04636997042759601],[0.019963051306308894,-0.01929805925000644],[0.013192031103199848,-0.030226989730161226],[0.0005820289720883877,-0.10617838884861319],[0.06307241077464372,0.04151403231086467],[-0.017031219107217523,0.054383717547513116],[-0.018777450695952,-0.05874404871368532],[0.01705481556737593,0.1289429587927433]],[[0.01818307166609686,-0.01293903046702565],[0.013437893504851557,0.030792331106679952],[-0.00834886365039128,0.014967331246993822],[0.00925456837464941,0.04508677661844924],[0.003402099292998474,-0.0993633025386188],[0.007810268427631014,-0.02784052423548586],[-0.002479980730034212,0.21118571382439877],[0.01785615126513818,-0.023769703858618978],[-0.05157553973395582,-0.057151803784926035],[-0.005149321709229841,-0.036920970267670196],[0.015008542782133991,-0.09650368110596592],[-0.05261075307067376,0.022682232177149222],[-0.04705442086009795,-0.0006404191202179799],[-0.016713984371684833,-0.07258040349658006],[0.0048409245956161475,-0.07003676215914716],[-0.019633543681104846,-0.09451259550271497],[0.031330910375626776,-0.09888893410332285],[0.041341340846938295,-0.021560943670380042],[0.008889384962490116,0.026021944048206496],[0.005083150700310141,0.007222044810037464],[-0.03784825334837328,-0.11496523373385004],[0.04851821929589336,-0.0787232334808447],[-0.006435122016377734,-0.1391415593324566],[-0.019819597363490805,-0.009356799600541307],[-0.00879869046915632,-0.04769333555306031],[0.040132283194463964,0.1667902021812056],[-0.002749710277097089,-0.03379244053168426],[-0.0019939097524404974,-0.012434870893016772],[0.0026869368905299298,-0.02171932335225611],[0.0009407250209722112,-0.006722309239947708],[-0.004038812111472663,0.017975376963316123],[0.026340416376495188,-0.019365305805120518],[-0.01645887247214597,-0.04365391613187799],[0.010402396404492725,-0.030246034717710167],[0.04608844903334452,0.081159008049267],[-0.034752532957252176,-0.14741442565221857],[-0.005917235363866339,0.03004663131651526],[0.05187089883720596,-0.08578056146063343],[-0.002587196260962081,0.026552944295355835],[0.0027841029943524863,0.1332711239763993],[-0.020635441803935183,0.09045576487459493],[0.051069935670228696,0.08714753566524229],[0.005044546144324209,0.099088207726271],[-0.05648418449627671,0.14907311201232037],[0.0819470177231979,-0.19691813786829301],[-0.02121680491551662,-0.014177089534954597],[0.017090949823351295,0.07645077543516282],[0.014240175155852358,-0.03921015394019146],[-0.016223671071323133,-0.03694138437126571],[0.027311737126799896,0.018457447566442877],[0.025953496950989828,0.05847638751745523],[0.025556925570116455,0.12227140407183779],[0.0007478400559376371,0.08321267431914006],[-0.019010894187779702,-0.06671220621422992],[-0.005349649290378293,0.12838696202411626],[0.0004127419384226041,0.1865532557733026],[0.022571738609365583,0.0358266487134971],[0.006015546074364845,-0.025111863580876154],[-0.025531685315274118,-0.008621179917092575],[0.000871595001290348,-0.0557398596609685],[-0.012230010553118969,-0.00742998040466438],[-0.004954986658460122,0.11072024011754411],[-0.009289609717400091,-0.07470544629145219],[1.646736072782112e-05,-0.07644268401176536],[0.022676303754485927,0.061153002005885145],[-0.023091191498584376,-0.005164147459019299],[0.0050996653996559695,0.04479952099848139],[-0.0005905932687963243,-0.08961939964868272],[0.03085514379037681,-0.016546888883280143],[-0.007312027956810469,0.018178809744960247],[0.0076107784882834175,0.041106024699432246],[-0.01849055922646405,-0.02958171198289701],[-0.012548210742434337,0.06967052750879218],[-0.001250122328905146,-0.0222478995238647],[0.002101752057270548,0.02626531362553211],[0.00786118266084293,-0.044563668599731064],[-0.026023735922691773,-0.09339503680439686],[0.03830120186572796,0.09582915599502999],[0.03358080394515964,0.05288739555349564],[-0.001175724731176775,0.07425588850344617],[-0.08939471404125648,0.16013510719844756],[0.05146967503038551,0.032371550051028826],[0.012596823732805578,0.13147566808455988],[0.01764558129383071,-0.0146045178932586],[-0.01619647576159699,0.09989891667398904],[-0.02732630459229687,-0.11119019881908587],[0.018085034612216857,0.06361009194278351],[0.023471743197133653,0.024147938576569803],[-0.0006973748317444294,0.0906810256521929],[-0.038073643331218564,0.05636400700740488],[0.013685525299729348,0.016875994263511006],[-0.0037265404566720443,-0.0291515165339288],[0.010589124897384403,-0.005559259896407621],[-0.005128320560271123,0.10659156144585744],[-0.004590436519320676,-0.0374450300218152],[0.07019914577202636,0.00039958444335702934],[0.006321295118010519,-0.02154412977183357],[0.02436904008313952,0.1094372642011465],[0.00938344545205512,-0.08541430491837634],[0.012574457324468663,-0.0728802751719939],[-0.0012227200829621097,0.012493150787333948],[0.039626028794384434,-0.0013470979661348826],[-0.02092846818533196,-0.021708483934750184],[0.0005622115161777429,-0.10157316220010083],[-0.0072515434061596355,-0.08097521719845191],[-0.0064834955858342445,-0.013264286862200584],[0.006696368024933422,0.04682938350840247],[0.022569362334882343,-0.03652524217146209],[0.04033372723648708,0.06445367625139739],[0.015424089511996393,0.0705928448073098],[0.008925015298251151,0.06639225312847939],[0.025656184380799238,0.013178898886875241],[-0.02520594306532621,-0.09664483895074971],[-0.034351193812726805,0.0022506328931736624],[0.005506912727619749,-0.09034336586414098],[0.07857083850839322,-0.014056795309281464],[0.01779544432016729,0.10056127886565058],[0.009249223769320858,0.013878251732486782],[-0.0010334351999460427,-0.024003683460631524],[0.016318222072034008,-0.04958647697008224],[-0.0013679253382249256,0.11844171479299345],[-0.0016650753603727941,-0.06439497298148554],[-0.0061747976522738895,0.023164658426182302],[-0.004529205610267218,-0.04698896110467907],[-0.02827251262074694,0.0032511084560872413],[0.009731245184170898,-0.061337946384571226],[0.005824204128147708,0.03303426582891688],[-0.00795500758675418,-0.016003573478197388],[-0.003223235298796258,-0.04589690118935795],[0.11926537441035262,-0.034202264351664804],[-0.0020100925197986414,0.09935363878077023],[0.01084445162908906,0.08893908687764165],[0.01430666215388026,0.03646141946223875],[-0.0024010547163223236,-0.011798183487406442],[-0.008509080030445228,-0.015162361593251968],[-0.02601062271922761,-0.03656393186348129],[0.007645744014290631,0.08171658477544087],[-0.030584947223228652,-0.04242403829191519],[-0.022826221191001455,0.05601711013378336],[0.011280919676377902,0.008344991167613827],[-0.03882967184019446,-0.023303435132037368],[-0.007643854785734943,-0.023260223274804554],[0.008905634307398406,-0.09785806302411378],[-0.025877492519180114,-0.04456484192547698],[-0.007007756439948729,-0.0934412597664888],[-0.01474146764181311,-0.09867501953007825],[-0.017680483272751835,0.08352502829117173],[-0.010924439083911051,-0.0460319354515728],[0.014036114517578597,0.006508088363988055],[0.022594782587318476,-0.01639896436553432],[-0.015506187898615768,-0.08217274218983314],[-0.022156162926060992,0.0462392853997906],[-0.042117379706118584,-0.02323985379726942],[-0.005097563097868654,-0.0294933071332308],[-0.027770481767294485,0.03922342385058555],[-0.010883819355344894,-0.10011400676666407],[-0.07490744036218952,0.09085781517036427],[0.020672248349788827,0.07575861628481778],[-0.005999619277268411,-0.030232290800740795],[0.009297228435469172,0.0974595755932509]],[[-0.030591338340347555,-0.034035781851454616],[-0.02292012873363571,0.006919185504192904],[-0.008752966548786168,0.017788360531865315],[-0.02327497716734158,0.011149298996492717],[0.009492351615987497,-0.14399172380311134],[0.02001933944392548,-0.01165462571828031],[0.0025688822170945157,0.18338462126013833],[-0.009930666437515256,-0.007193462870906187],[0.024244938533417998,-0.07063091916585294],[-0.015422450385276953,-0.03356770240286479],[-0.046957168519607746,-0.07764437335502715],[0.024875451550259265,-0.02982262785360505],[0.011069876585383515,0.028633929819530758],[0.018205085613308882,-0.11875939649331584],[0.009153355362165473,-0.0820538734102516],[0.0032790835728416026,-0.057528144948467204],[-0.016963183632730736,-0.09950150242107508],[-0.06581916928309108,-0.035087511085133256],[-0.023621240144189717,0.03769115453550143],[0.04195255534157101,0.050887771794246285],[0.039618142382604075,-0.1290104730769433],[-0.03537043117020377,-0.032905101083731694],[-0.021781155363620037,-0.06276951212000224],[0.019546162914242892,-0.023163209487634832],[-0.01607240329920775,0.0008393184638935421],[-0.050930899078463585,0.15421525255054774],[0.005173119752211561,-0.05444898252372014],[0.010030011228910366,-0.025188503382780014],[0.0020995246914666723,0.026229390423306558],[-0.0030051107973589632,-0.047113214286200356],[-0.006137100199746725,0.05828124421412951],[-0.02532499481204838,-0.05410855781397433],[0.03269824023598016,-0.02508942582009971],[0.02053806258568927,-0.02035419362038784],[-0.031389627242314685,0.08236446011932418],[0.04424422173379161,-0.13807693492613782],[-0.01040606852709027,-0.006599926170144878],[-0.053203542129166614,-0.10827223575552111],[-0.0002094629740377977,0.03331756228684861],[0.01384610609088529,0.08323401249175452],[0.03930795116276994,0.07591289012196534],[-0.03895582967195883,0.06263797600545067],[-0.007777544348146593,0.07464114521246365],[0.04483670468850913,0.11258097296428726],[-0.02699612904420614,-0.17936123067983498],[0.01529512859582034,0.007271893442514183],[-0.024573284560909518,0.06987047428072544],[-0.029040063742100258,-0.06451644667295443],[0.03407450056704625,-0.010549631982391955],[-0.024445992709158336,0.035468027818802886],[-0.020553011432475912,0.05618919543605412],[-0.03980452313644268,0.13212037978913835],[-0.007235430386537889,0.06441839980120014],[0.01521466791028289,-0.034807167306382863],[0.01664676337120349,0.15570198235106764],[0.009954290542199743,0.2562457705155511],[-0.016838930058671885,0.03088220026489926],[0.0007554798745638898,-0.04049753408180305],[0.04317269874545609,-0.022552318453952253],[-0.004542720519741869,-0.034974861799465344],[0.021307896969009112,0.0066543987099898375],[-0.022362538107665007,0.06645083706091191],[0.041497406500967136,-0.03063401797868542],[0.010810322836007675,-0.07635446415991191],[-0.019486948153454888,0.0203919586078964],[0.003527914539799962,-0.03437137378481897],[-0.005157594760845518,0.02033281216626455],[-0.03227808902964423,-0.04357032046647521],[-0.03330814867744124,-0.06868639940724142],[0.000175856723823534,0.03454145976462937],[-0.005109118316330877,0.06483245541778555],[0.029068500191185707,-0.05885025725048001],[-0.01904016118553444,0.044810736990279494],[0.02360221511442228,0.0063525389424210635],[0.00030426062929899664,0.02328227515082443],[-0.01977004435927025,-0.1057571695623321],[0.002450908460858468,-0.10757387977709147],[-0.05608837785868905,0.1149264670774905],[-0.021194617445154246,0.03160019357328752],[0.06890958524276233,-0.012654261605813118],[0.021455622118557564,0.13375805352447187],[-0.028475495585151316,0.03428265786138398],[-0.01467138394778235,0.1346314210729622],[-0.03744391430254173,-0.020417514707248157],[0.016035463615539803,0.11522639616294619],[0.007996581515064643,-0.08375994626365146],[-0.019340277202337743,0.06591150726299003],[-0.008547393865574253,0.05652307406432831],[-0.015932884573468455,0.09173904928645046],[0.041232582836434786,0.01463922375037111],[0.013052176965084632,-0.00482962639818715],[0.015536903015273072,-0.0706600226096857],[-0.0242570909467758,-0.01913551927448463],[-0.02684208667239738,0.13835632663419953],[-0.0306388457266572,-0.032875300484762296],[-0.06909515596072636,0.06694431090854147],[-0.007263962823303487,-0.0709055507257429],[-0.02381672937420734,0.06314300088334186],[-0.017225845242831283,-0.07669304892405937],[-0.019000019173260555,-0.009133353434399133],[0.00938906096737676,-0.015752646146101883],[-0.02131690188784775,0.005722009982336706],[-0.005691346059304762,-0.044514010357235775],[-0.01996930273917699,-0.11318472093563946],[0.009337076316731354,-0.02633327219649056],[0.023566078163505498,-0.0040535848716921645],[-0.0012187914207809844,0.028428967254438706],[-0.03061826757579753,-0.08380222736835294],[-0.03366423899424669,0.09918356032731816],[0.007532550998395043,0.08087765850031849],[0.016895438507300412,0.027084831389282294],[-0.01657130045880371,0.012993788925036066],[-0.00512821906431075,-0.06326448041337066],[0.026164783203298854,0.03707993296518749],[-0.005996601841877293,-0.10695696259449747],[-0.049978795305849644,0.0018320705850143253],[-0.003956447067091414,0.05275421780672856],[0.007852307250403963,0.004466135670335908],[-0.021993003324597894,0.02517353968073511],[-0.02250873394984843,-0.0238014459439067],[0.03655041641687093,0.08026282106451382],[0.002663429726556008,-0.08266952175717349],[0.004707546769444615,0.039615739815596136],[-0.006902828559695371,-0.07683805325874869],[0.04199358501961828,0.0448354457908077],[-0.003938227780150204,-0.06274413646163057],[-0.010311456677964443,0.09686603349451672],[-0.006157342983534745,-0.0068932570565676],[0.012079754130148867,-0.04056674201817601],[-0.10917895101229592,-0.06910511315945582],[0.009073665834959723,0.07161554231516365],[-0.011746382495036371,0.01226717791350847],[0.030295225113662155,0.08219199032306916],[0.0005081900746940782,0.04193905970265265],[0.015197311102873052,-0.004297185317295487],[0.022638312677221155,-0.006433535119138357],[0.009865407475831091,0.16162867324780292],[0.02274154973800968,-0.08129202864354441],[0.01799357255958016,0.062235323880716675],[0.003149297555776054,-0.06064158135182705],[0.011182121771932167,0.017938023230282072],[0.03223379143119249,0.02754927702417434],[-0.03843383185671624,-0.07119726775026891],[0.017766751306516736,-0.04994094870849187],[-0.0013968116533279887,-0.09425261716437827],[0.019784867427096484,-0.1458487669315908],[-0.005177517934450976,0.12359470959516561],[-0.0021014679689858413,-0.05699426046897011],[-0.00858499380732455,-0.015550722787074343],[-0.03034287706984922,0.040352141013386994],[0.0030238754472025633,-0.07675341131633065],[4.970905350031371e-05,-0.012464036972332582],[0.016328664117000697,-0.01616181003409184],[0.020073737024668484,-0.03085813438853669],[0.016382183490597398,0.0954457944523662],[0.016527367152738472,-0.03544996616755294],[0.07363319887432328,0.08404177403319264],[0.0015587034174682887,0.08805953338705398],[0.011006893117631773,0.007962181598036376],[-0.020321078764184812,0.0729313805900944]],[[0.0426974307600506,-0.013774947662968155],[0.012858500300651377,-0.04361589574652519],[0.016641905592092478,0.0055993149390864685],[0.008435902606492482,-0.020069936661083036],[0.00017470594421723905,-0.1433108501774512],[-0.022384439154185358,0.011847580051702358],[-0.005742294421218103,0.11672792504545751],[0.006145432773874806,0.027078957703915447],[0.0004861397536638209,-0.056890854255300105],[0.03587048664659521,-0.05643780078025461],[0.07934926632668347,-0.08157566559885011],[0.0034801458478633147,-0.03244073495800077],[0.019679648008045014,0.07053353395077014],[-0.02357091990119898,-0.12695639803805972],[0.0071229344262062,-0.08179179773735892],[0.014232697841945122,-0.037001930195564726],[0.026553437614497494,-0.10444144812913586],[0.05798422872276723,-0.00976417536677215],[0.002784005280664858,0.023620167292908903],[-0.03787795770262867,0.06800030394313471],[-0.01931197598225709,-0.12091992386338797],[0.024311991268125673,-0.02514994760856329],[-0.016616877638567683,0.00576202656701099],[-0.02380627221798407,0.00632411199422591],[-0.001802355625588179,0.02113055873548049],[0.033937733869356015,0.10621617932899051],[0.010766272582764231,-0.05825814450806144],[0.005954640542969471,-0.006883345024499502],[-0.00868177947708478,0.07025133605363378],[0.024206760140417182,-0.07401314380875856],[0.004858971994947977,0.09603559544668473],[0.015292874829046569,-0.037144679287230205],[-0.0380645720366353,-0.02122278576252058],[-0.05343234988873358,0.021914679794372033],[0.02162510725136154,0.113316123974788],[-0.016505563579744566,-0.14245545827640407],[-0.0012269625062284759,-0.004765562589330352],[0.03497559567009775,-0.08565088231399055],[0.020940031908327023,0.031117599372301144],[-0.02797675556526151,0.016905342986808933],[-0.03182511100398876,0.06849034448075027],[-0.016518261839707983,0.005137418292528028],[0.009891775998295077,0.0612544181567551],[0.0032786213124341196,0.06656906836653484],[-0.016853508267406416,-0.13289273737927804],[-0.021797025369101438,0.010530040167635401],[0.018690943701172615,0.034436308395697134],[0.026316188713132183,-0.05811120310616121],[-0.018486181223282935,0.03712911640630009],[0.005300324166882807,0.04059766419987548],[0.023008524953997814,0.07882054450103818],[0.028335937082481874,0.13922011332111797],[-0.007200924891411537,0.06357556054545774],[-0.010626719158169505,-0.004464528925885694],[-0.00010437655524317447,0.16388124203865612],[0.005448942914901432,0.22417721550852932],[-0.0016775486880644369,0.009003849420838875],[0.0037441353892819795,0.009279862532431488],[-0.05071150807063157,-0.020686369827069378],[-0.011627559020666152,-0.014963370636689264],[-0.0168690311994423,-0.004382433634983079],[0.03104951770221679,-0.013039419817503615],[-0.06739423857288543,-0.03250069814841625],[-0.003363193484189871,-0.06052167132466864],[0.014386648311780763,-0.03299688181438588],[-0.003386834664773121,-0.053564930591393375],[-0.013597779281849428,-0.007509459647918],[0.030432131766325265,-0.03367877475441126],[0.002264254887191593,-0.10730672971571226],[0.001360715975596109,0.05301122487653427],[-0.004144891124804303,0.07402369655956458],[-0.018698592335063307,-0.05678395584891185],[0.013837497904534387,0.028578818072177853],[-0.045035760596159886,0.03498402600550263],[-0.004772566967415869,0.024010469898391305],[0.017833821364665544,-0.08847826239044464],[0.008396477112728359,-0.12821018173286666],[0.04994705343470084,0.10005773253866516],[0.028794405690974884,-0.0274405342185276],[-0.057354014100325465,-0.12108193851039457],[0.02244439943246382,0.07567292123938336],[0.02339835383931608,0.059399866843235345],[0.004538675627524068,0.13631427398774573],[0.04076171427530459,-0.009953504115585567],[-0.018555531643716334,0.08900754506397696],[0.027273655195680646,-0.02806909899626346],[6.532965235310122e-05,0.05729417359322945],[-0.002243196811257163,0.06958580337264827],[0.016907775261915076,0.07400296171718712],[-0.02369783463251284,0.0065590628732569],[-0.03266236919009877,-0.031123461670035744],[-0.010865214116082834,-0.08385100245499984],[0.012508224609798528,0.0020400300495338987],[0.05199625415497714,0.19984056282524806],[0.06437173927615344,-0.030902746976658953],[0.038377068568657864,0.050249555465536035],[-0.018522599827837584,-0.08700072667756036],[0.011487124991225662,-0.006382929896559986],[0.009225985507153424,-0.05454186462677828],[0.02395039556735188,0.07028473067193859],[-0.01594853067699977,-0.03998013574348349],[-0.011218465762466916,0.000308779822341091],[0.018086771864159086,-0.07906928543240217],[0.03930836090608129,-0.06954435692442455],[-0.051506521002328394,0.019132768871864412],[-0.016210484261730385,-0.024546500561296477],[-0.009743136630956297,0.013723791820645913],[0.00511522626748939,-0.11418024509227782],[0.03524666089790311,0.08076049028964963],[-0.03872339051769154,0.061627718880801055],[-0.02945192840746805,-0.011429613710370238],[0.024372116908167783,-0.023570535170488974],[0.007153869851503001,-0.014763087943491767],[-0.0029756766430277014,0.052338050879950956],[0.003205408748900894,-0.08767734363938909],[0.014653277843696461,0.008545551309305618],[0.008176483915412371,0.020358271064718957],[-0.003812378291101541,-0.009956635811250397],[0.009018166521618985,0.06621681950061985],[0.0015889446976605672,-0.026420598700153345],[-0.0340897325935314,0.09550025788971912],[-0.03520499867750263,-0.09747537692528252],[0.017575996360539595,0.032888791777444186],[0.009472092269317996,-0.14100048551733635],[-0.039412339766251456,0.053592782407181606],[-0.009484629698797027,-0.014120050845821635],[0.03354314840444359,0.09634492642694135],[0.01310923961259572,0.06162687440468532],[-0.00975870117151532,-0.0074831362487917386],[0.04932048342525221,-0.04117101626050547],[-0.00629275351700965,0.051833591600160364],[0.0148552870076351,-0.03999957621574106],[-0.04002681798065131,0.10307861953243855],[0.015151785969561299,0.09706252452551493],[-0.020986262305652294,0.030395655524303355],[-0.029468183145725604,0.03017745528638639],[-0.014843079906412515,0.16512699096038638],[-0.0074724519971761565,-0.12994735515206332],[-0.017724715456726048,0.07533437614905447],[-0.0516390698751655,-0.09694671355781094],[0.02851884758842686,0.04957657306064605],[-0.043576844980387074,0.10423830397216974],[0.05489311714910353,-0.007590907927430848],[-0.007000870563280764,-0.03021096280018296],[0.011494673760102162,-0.062417984649574355],[-0.000446820430495942,-0.15057115327023174],[0.007909341129494154,0.14832221875894613],[-0.006970107575438561,-0.05043592626360657],[0.014814981189463935,-0.0627397363799386],[0.03824962026908491,0.020849084112072272],[-0.002211928309916396,-0.06308030781306499],[-0.012140360718353409,-0.0612262016539068],[0.017207864394119806,-0.02589138242800148],[-0.012795910002342238,0.0029839670852544243],[-0.007732549462311628,0.06913769212462931],[-0.022516999176649285,0.034915938534551355],[-0.057115280494205396,0.05253388776997021],[-0.011940107622723684,0.08272343425678386],[-0.01265355970725978,0.02539670442557137],[0.020595393617574047,0.07047933900513785]],[[-0.07137008546471503,0.022800730359771187],[0.0015112661212630897,-0.054397886311709845],[-0.00566575298692568,-0.03118237638891517],[-0.005727896328175194,-0.03874933762345305],[0.0068286889016672065,-0.1101786812698227],[0.0019307780696173008,-0.0024680472466348433],[0.0023987817919559054,0.0799686708211122],[-0.010214257571560966,0.06005923967753653],[-0.014870316458984047,-0.01342309761849849],[-0.0570143020170662,-0.11694371550503774],[-0.10610417827140718,-0.08103449381267153],[-0.04124901334037531,-0.037345083340451314],[-0.02983892261219307,0.07715319115325525],[0.0007998569870146935,-0.08852059022257341],[-0.015104096288045718,-0.05434325317658768],[-0.030697873515439282,-0.0342949100546952],[-0.018564585767979706,-0.09458750690881725],[-0.043923681260477895,0.010933903426265167],[0.04581505921737029,0.02312489707469768],[0.02249469535146942,0.061452300595762684],[0.0028770756094426237,-0.10500582708880023],[-0.01443695466373566,-0.04621199175836409],[0.018063818812437765,0.07553513874651181],[0.04185849874921091,0.04102283876556477],[0.04691873125132566,0.044320784886539545],[-0.00871550795158407,0.08117150806111136],[0.0033425082350770907,-0.04704436899051894],[-0.04612073921432862,0.04159180499795997],[0.018086402849360694,0.05975671441776009],[-0.025335134667823042,-0.08092052844612803],[-0.0020548368553792423,0.10801539960762864],[-0.008826204669158065,-0.004563322565158264],[0.053481455475239144,-0.0380340553273035],[0.07439924743045868,0.10482782857410977],[-0.017471576536341238,0.11505228324464341],[0.00026970212509627196,-0.1316140051800413],[-0.005421346145288529,0.015140510197473256],[-0.030670348725748368,-0.030213683827337027],[-0.018459458343803185,0.009727805791913997],[0.0020948253765471396,-0.026140639515787708],[0.018660269909749776,0.06557398856489444],[0.022953153000511654,-0.06128293922365515],[-0.008709970901475989,0.07343004135455616],[-0.0053559352043828995,0.018553607030400255],[0.048885641700063646,-0.0952387422747464],[0.015560674218551868,0.006206284931774888],[-0.0024542089298701273,0.03867641689078437],[-0.019455019167680603,-0.03480323046591992],[-0.005027617449300907,0.08314731675329104],[0.0008651930998446125,0.02976996530355247],[-0.0032136156104480384,0.07660322940808902],[-0.005475877970528777,0.11622493390340678],[0.011853045264224043,0.05263896343171251],[-0.010644188455718231,0.02884729270437727],[0.0056164247737953655,0.13947800191427176],[-0.0075778660444255465,0.19392971708047033],[0.020548175880533537,-0.012781174442190202],[0.036987243804435584,0.07559325339106375],[0.024989110071909224,0.017108554100938114],[0.0243486965004243,0.02464102977940229],[0.014240631970563591,-0.024511871261576633],[-0.01424785172694995,-0.04674920064980023],[0.05999674875597926,-0.0824846558977136],[-0.005610352092044018,-0.03629578327074084],[-0.00302664801867591,-0.07384266373697784],[-0.017265315934246978,-0.04519729040218485],[0.015379519985547516,-0.020715884063636586],[-0.021427635966709442,-0.07996936643654964],[0.006571415388632916,-0.10130402247871316],[0.009756997204153696,0.07167752497177343],[0.00669971445390228,0.06560387314246544],[0.018905451646349825,-0.03003104859435345],[-0.013976513355143959,0.004226524821458432],[0.05190564409076013,0.03770106380710096],[0.007961545237718052,0.013972603666523281],[-0.0014070914917297072,-0.029183547648588687],[-0.02781104227395406,-0.14891961838724616],[-0.03924136296777732,0.05910956148597574],[0.02271710139048678,-0.06915168710295425],[0.007231906953976871,-0.16915258518660758],[-0.001871587646378164,0.019227508214660512],[-0.006902025746763325,0.06391425866320695],[-0.0023527284168418676,0.14257999653496953],[-0.036295889500580804,-0.00806154240126316],[0.023747935858974056,0.046471110252250585],[-0.026687780802436976,0.0497278941966772],[8.303920628509144e-05,0.038574703104322115],[0.006670636859422473,0.051579651481969135],[-0.007445834966332943,0.06792682359905686],[-0.00761944497153023,-0.006871746697646787],[0.05011643968724655,-0.01978622734365006],[0.004099453474353272,-0.06914567789452745],[0.012046676869470405,0.026175636145512157],[-0.039252487993568314,0.1988797628673432],[-0.06125798738654864,-0.061818656983709544],[-0.025649137586818013,-0.012995181619249325],[0.005533029856138952,-0.07717787769773443],[-0.002295439649681654,-0.08711008809564103],[-0.041770201787465204,-0.026179052966735852],[-0.02090255355757199,0.14175506825130527],[0.046593965694488655,-0.03642875818639595],[0.035569790150762434,0.002279738235940909],[-0.020711748654526654,-0.06231514754978196],[-0.023779303559928845,-0.029584032450814732],[0.07258537604424013,0.04488033395345183],[0.001341671931258351,-0.014700372394500758],[-0.016292947221065803,0.019885111858276724],[0.02728299072388889,-0.1625940203541016],[-0.009118799340847895,0.07064487785550469],[0.036719137463968786,0.018731212891839523],[0.01883176071208636,-0.02380846358438919],[-0.03133122267862205,-0.07114549380389898],[0.0018177870665910634,0.00623113295276167],[-0.02317212993235853,0.06053748469425156],[0.01159658204161555,-0.06391364581654325],[-0.010397541898565081,0.012693110309561897],[-0.012434408732536761,0.0349549475874483],[0.014651543928324252,-0.04155813766526353],[-0.003364537842895124,0.06492951682974064],[0.018195321604281115,-0.045786552600168944],[0.01587303221514918,0.10784079393935851],[0.05011326361514688,-0.06062835475758742],[-0.0013358010647220055,-0.00831718892578667],[-0.005642107347581938,-0.20743286186703572],[0.019563634801564363,0.01566520505609545],[0.01632732596159332,0.037798939457113045],[-0.04036460937316808,0.043848963648358004],[-0.0268584255710517,0.1256042062375339],[0.0013796875742856263,0.04644567457784816],[-0.002388749013087341,0.019648850772278233],[-0.00687537348475472,0.06503311761544997],[-0.01537040726212742,-0.06939769419552835],[0.03338852434047252,0.07197227396160319],[-0.025948968042071745,0.10830777271673243],[0.01731283389885983,0.03821249713053378],[0.021517023523388787,0.024017951162685534],[-0.0037950156749566345,0.10949601017044518],[0.0004374796856460074,-0.1498581125391599],[-0.010290274405030766,0.09759491250436136],[0.08459830526824211,-0.08999291316266465],[-0.0467213468292463,0.07488442489106456],[0.015075608762864241,0.14296271907882982],[0.020609507490579,0.013034159326689556],[0.0002070602377519624,-0.004528467779033861],[-0.0053590461954423655,-0.0117830724865229],[-0.010677305866808226,-0.11071386081260351],[-0.014008351443841946,0.13108480049370708],[-0.001713634582527999,-0.03638183365018932],[-0.008274974966618885,-0.09013679385762452],[-0.008404406924756353,-0.02120486277744214],[0.01205656231470983,-0.033395695613169095],[0.023135112966178126,-0.04736689437923842],[-0.028082228976807053,-0.02983315470823818],[0.00682141469288011,0.049690178766304126],[0.004408436638263659,-0.0012324435213512362],[0.00940327617445157,0.04966196513296096],[0.039018428087408054,0.032496113293378856],[0.028465576865950512,0.06329787085743292],[0.02289656059436938,0.0017952529872414845],[5.246279478846051e-05,0.06149907660414605]],[[0.051386167335340245,0.02965426883474721],[-0.002852254157597542,-0.03670129109500436],[0.0007622164740186223,-0.05036944776549408],[-0.004245876943265443,-0.04948211430713955],[-0.018964620777406592,-0.06762592762190224],[0.008580947725967118,-0.046079651035782425],[-0.004871027226979792,0.06416061706656086],[0.0027713661217461404,0.09556927055333142],[-0.003756834434883653,0.01736796654306184],[0.05863130972348492,-0.14802320867837293],[0.07199007724081147,-0.057237518897944366],[0.027932708889308374,-0.07520354308126122],[0.03043564033410874,0.040071285230639124],[0.020620010024052622,-0.020593150297582588],[-0.00549348441663287,-0.042306270772613744],[0.02614278326277987,-0.028045997808938673],[0.006617859204853379,-0.04459701936110082],[0.01761673769485625,0.014123291060588666],[-0.05347182467065542,0.02358345347223403],[-0.002959428224398796,0.02451883921658588],[-0.0014396120098097104,-0.061206124907040534],[0.0016720698787199377,-0.05434183377662455],[-0.006031342253568078,0.10202795629908823],[-0.050666582875359543,0.05580366587021615],[-0.050487698149998976,0.06364777268781496],[-0.001489309917435536,0.06641873434097835],[-0.005318958458998886,-0.050017057258664524],[0.04073249418421841,0.09352901311944169],[-0.009990165981217563,0.010869685014809071],[0.018176246523220883,-0.10773103935595002],[-0.013196100683284837,0.11685513581137136],[0.0025804550084354847,0.018333505273796766],[-0.058536530250383544,-0.05703596352003213],[-0.05178633978075298,0.1327995759745911],[0.0075947130027212975,0.08461686662048719],[0.021968153180185628,-0.07143922446348455],[0.00962655477286683,0.021571177349953435],[0.019047097885296693,-0.020074565849519676],[0.004803278076937189,0.0008407539081780137],[-0.004218136722532677,-0.03431748931630965],[-0.008741234525885348,0.054206164006782166],[-0.0010148544081607924,-0.11956674684602837],[0.0014674620442286733,0.0749667626410563],[0.012430429424842588,-0.032965471401172446],[-0.017327589148702152,-0.09452532683512237],[-0.014933343664333595,-0.01197996932919127],[-0.00733907330814118,0.08225316163113353],[0.026872621316225098,-0.009000591496880529],[0.03367544741262662,0.09224613457170291],[-0.008706691886064093,0.022639472104881896],[0.009915529221807242,0.054802774684456886],[0.002704437595110931,0.10027426938485502],[0.006430075375009798,0.03366557549343129],[0.002875289453328365,0.03193007380192264],[-0.0010437035860900617,0.1121690950507153],[-0.010883046293390942,0.023147823842932888],[-0.01242737573923705,-0.01773300956580677],[-0.06808287390107522,0.1690367535016883],[5.193712371488107e-05,0.03893186036724558],[-0.02718724917608076,0.07617501463242303],[0.00325103370562775,-0.03478213195217577],[0.00247667301592391,-0.013761695729921005],[-0.015561803384761416,-0.10735312480871848],[0.007818608884165017,-0.02406876397424673],[-0.008490804559343463,-0.05969246247585518],[0.023809844225898692,-0.026738872278787424],[-0.017423706672415065,-0.0074303840539813254],[0.013001616547571919,-0.13676298958738084],[-0.01294183111193293,-0.06283473091470991],[-0.0099086348599728,0.10945384968331556],[-0.0022198176925981705,0.06184925121061592],[0.01834286225588806,-0.01661462834744585],[-0.01253689533460089,-0.05175757977228377],[-0.020690621829152312,0.009237369401432268],[0.010496522208977583,0.017247120042084996],[0.010418391890259747,0.01138834071668625],[0.025672627271643524,-0.17707644183760304],[0.011254937840571038,0.03310885720451563],[-0.030145388414836705,-0.0942264801126124],[0.001289576960453079,-0.1435995239266969],[-0.011907038687563341,-0.006224180072747877],[0.006099131115273228,0.01297529686127119],[-0.025477889642399772,0.184655633834998],[0.02614100620266079,-0.010227796230218139],[-0.007009372068836299,0.03807201807788954],[-0.0076790226908213886,0.09154851668825759],[0.003483144786358047,0.00924390600248099],[-0.010754894386648629,-0.00213649991809181],[-0.0031765481510500717,0.07045240240809039],[0.025369578017816276,-0.055190845270238674],[-0.045877126596727553,0.005753196217411532],[0.012088051460923569,-0.06515659060591668],[-0.023810388960250083,0.02181919376916044],[0.01223555141841944,0.1624274026495145],[0.03530543791697734,-0.07331527015649322],[0.009750673267929626,-0.03959679618197242],[0.007873334392844331,-0.03171880792163553],[-0.0023230175174381593,-0.10614816024746422],[0.027142445584848438,0.007126040243950416],[0.010016016471730912,0.18395364123960006],[-0.057718478284929535,0.018099996297711904],[-0.043023029111479066,0.0143533120760148],[0.004332497898923696,0.007136945833421168],[-0.007623116306504615,-0.02889952505178884],[-0.03844780986079772,0.006987783286114286],[0.005810364393100103,0.013166440969100265],[0.012586400274242673,0.026810109588634615],[-0.04106604501915838,-0.1926854903129687],[0.013163296478572197,0.11959251961755567],[-0.016287700529427344,-0.030681592447537386],[-0.00035942188354843777,0.012416210634845748],[0.04104845142904684,-0.07564390312908113],[-0.025852873837065655,0.009599009949255539],[0.053106118296898076,0.059990553808171025],[-0.007498835462084889,-0.06279379292426303],[0.018304365112106775,0.0017199072705115061],[-0.0044166890347610375,0.09108219653422037],[-0.00497358621063339,-0.06480109365070012],[0.00579639983602616,0.025921511698346125],[-0.057299611997288676,-0.019935788010198095],[0.01659386531715484,0.1138631873919708],[-0.03632750755342104,-0.016244333925078507],[-0.002350131807469482,-0.07056694893097638],[0.004320957168238778,-0.20962205169301748],[0.0070487948844815615,-0.007026909905990217],[0.006089844849171127,0.05373399249133081],[0.023534555398780778,-0.002476304830700773],[0.026710237543817402,0.1688216331637608],[-0.0014867957224865658,0.06976907252024968],[0.02023969301187052,0.0762128056396161],[-0.005366344622783547,0.07383791366159978],[0.0104567613758545,-0.054516967482606815],[-0.012538895784586938,0.03748138935333635],[0.02111436366697237,0.06872884790168152],[0.015906458679416452,0.04244690861276928],[-0.026661789336358207,-0.01726309629517803],[0.022930499274555118,0.03801270448842445],[0.011086999811539213,-0.13323585358415996],[0.01128944860411962,0.09588365612967836],[-0.08208128758144505,-0.07828947106061927],[0.031128173456130896,0.06935788276131742],[0.0014218299253414353,0.1453438269557017],[-0.16080949274813797,-0.05306358306835809],[-0.004009006304803129,0.011888033484891132],[0.005052390256808152,0.014758899046787092],[0.014052030877364398,-0.0825810323667474],[-0.0011400702768716246,0.10589042148104866],[-0.0030755746142815607,-0.021431671897640656],[-0.005032313202416038,-0.08667515692566062],[-0.004062974321151579,-0.029806628231355194],[-0.018747991220998936,-0.003618472792142354],[-0.05125877743819206,-0.0025179429843795492],[0.03200689457590462,0.0034243060181482028],[0.017199895411922184,0.05935249050354289],[0.01327725848106664,-0.015227514660423621],[-0.011748653444554082,0.006978062103433454],[-0.03146994879551762,0.03632634847801803],[-0.014496512105053172,0.034979591033307715],[-0.014889791588229897,-0.0187687052210948],[0.0033928766645760743,0.04650792851101341]],[[-0.020787947858377145,-0.004963378415839068],[-0.0014309121468856832,-0.009594650872931773],[0.001206474885971226,-0.07076097818165401],[0.006729616650509829,-0.03707438833312842],[0.05032881663387422,-0.029846216617126966],[-0.04175514217617791,-0.030564664260088057],[0.0026477347229051083,0.05541730896856849],[0.012949901165592685,0.12257598796103245],[0.012173792310897394,0.05516927629191018],[-0.04787499018891143,-0.1101490033878944],[0.0039780805296517055,0.011298991377283055],[-0.000718708069839669,-0.13001814813094906],[-0.04476664681020991,-0.012686201707162812],[-0.03241261132886457,0.07053625716971625],[0.007628893702228512,-0.05107384071759073],[-0.015412259477768035,0.01099585534042102],[0.0037112738235536486,-0.013618502607094164],[-0.0041492911943051365,0.005561174074337547],[0.010609373989012153,0.00962594789700554],[-0.0023667230253910324,-0.003551014339530186],[0.006309422610748884,-0.01514094748464986],[0.011067681455984257,-0.032699424665768834],[-0.027618151093478188,0.07693351332279508],[0.030182996395633307,0.06795766020220585],[0.008548984496278913,0.046039656268146475],[-0.005406107978568743,0.060736769688192103],[0.013799678558888263,-0.04110436686329742],[-0.04098696436233849,0.0631725442936554],[0.003945147108790138,-0.02451134078627844],[0.0030481703839283967,-0.09625145424938245],[0.023532458811144866,0.11017783128211571],[0.007699261153511429,-0.0058615741415966385],[0.06823641917059863,-0.05384694114978368],[0.026482495376126472,0.09353385806570796],[0.00492128164830705,0.04786591761031988],[-0.0019138269022400027,0.0166026576337815],[-0.009055517184320716,0.0015968882581303087],[-0.024715457979474168,-0.06303066116300103],[0.0091045734199927,-0.003951008292726251],[-0.00475188791689762,-0.0368511990117896],[-0.018967400665894137,0.03266927644022279],[-0.015306290683031186,-0.1406767195515823],[0.0027853186111174905,0.05132838674623313],[-0.00022026678680811616,-0.07723005204522461],[-0.0027421806936789314,-0.08751244434268346],[0.004507778970390491,-0.031481053397998275],[-0.006392322137005943,0.11562188876942998],[-0.016622140196582123,0.0027925579046417675],[-0.03158408560154944,0.028657633920327497],[0.0016911886313697654,0.012918373909275978],[0.005632974219023653,-0.004756728879849563],[-0.025008668114627732,0.1001717982052335],[-0.024878257672545246,0.016829425953681844],[-0.00738400876361892,0.045338873076948165],[0.008378313671591218,0.06104147194680348],[0.005705073523729633,-0.007329765629156746],[-0.01430138281280374,-0.016369746914519395],[0.06890334252512526,0.1583816363006],[0.011054421000527729,0.06710777598112183],[0.000553792981710641,0.09935588437717532],[0.010875579573170356,-0.03522703078737627],[0.018033859800317992,0.017219052858193945],[-0.017614766805683902,-0.10910821959442607],[0.0006790232351757021,-0.021040184483058198],[0.024171687885547816,-0.023142225498157927],[-0.021518471137507517,-0.020346281612370204],[0.0077817415651332605,0.026065578455798436],[-0.02029441745263304,-0.14190169220844995],[0.011785488263184617,-0.02118294360908351],[-0.0036368906562056534,0.16722752600444207],[0.0015489290286507201,0.05908546189709543],[-0.03185136427550579,-0.01162435659973281],[0.008140149341072947,-0.10275664770996387],[-0.009351609866207852,-0.024774446819075393],[-0.03690064888926449,0.035942241122935405],[-0.008895883388177567,0.001985072684474299],[-0.02939910239135612,-0.1550170955017607],[-0.006949016422305567,0.007411878516512615],[0.02704832448588228,-0.10170665037034392],[-0.015457689770560395,-0.1300344868886552],[0.018092561985342936,-0.011864918531178098],[-0.005599360883389594,-0.0319312011601685],[0.023315360880778836,0.20499002558498702],[0.0032130717617535076,-0.052227177109318935],[0.01117241233726487,0.031092249422418547],[0.015384807743457482,0.08029844265332581],[-0.01821777930656022,-0.013037705087621702],[0.011336585286783009,-0.04858014852285393],[0.005287021213906444,0.022157338127826887],[-0.017903033927026107,-0.10340299210701932],[0.043535264096097266,0.009174267563602343],[-0.008964150192364897,-0.07517831199286946],[-0.004274185490676519,0.0004498422361893804],[0.028063777454729353,0.07276187287662708],[-0.01970213529211844,-0.054513605209375156],[-0.007062933161988248,-0.014376781443205786],[-0.011360233911738848,-0.0030168431915755336],[0.002769741084198573,-0.10229556503444767],[-0.003913535044000723,0.058938652077971845],[-0.0018858288216950095,0.1664762709114434],[0.05811566516263289,-0.001835061204045931],[0.007044090101887968,0.020911959561750314],[-0.031099053270536903,0.064858643687391],[-0.005762036167949855,-0.058651854887620744],[-0.01050993003711442,-0.05695175161688996],[0.012345663011952156,0.018549255134244],[-0.011432668616749924,0.012078467799564634],[0.024731613627038723,-0.16888004679684662],[0.006848335399906541,0.17884268453129754],[0.00814205400536183,-0.05362611940601366],[-0.008802114686940088,0.07821262079051315],[-0.02045005553910705,-0.06403258363244192],[0.025387357859582054,0.022996821035683238],[-0.04974265814698517,0.07086293552072534],[0.006416899159035247,-0.04752654868581441],[-0.01039325136486373,-0.0043853648154584],[0.011367054659887164,0.15499136339714845],[0.007814897873832946,-0.07146790797517144],[-0.027243458721012193,-0.011069564770088223],[0.04820013929420713,0.011969378304948266],[-0.01532547542686539,0.11313691266200789],[-0.006966519704738798,-0.0007345372209709838],[0.016546397256851007,-0.10573379413721208],[0.006330308698513432,-0.16170910784006043],[0.0017956758758600614,0.00558730924922614],[-0.027589566184846988,0.04213508608119654],[-0.003967781193275122,0.004197622703260211],[-0.009833530844043701,0.14848420347198918],[0.012996327212649593,0.05028469630386716],[-0.039347979633900354,0.10312532270897878],[0.008321791112687877,0.058943391437102505],[-0.019681349399481463,-0.02763058436526822],[0.02584126141208702,0.018197689080425697],[-0.003573662452270122,0.04452481915738635],[-0.02843959574943333,0.07739573780770095],[0.03810832301582309,-0.04464802920222349],[-0.016482322085717645,0.001937384625395833],[-0.01920213040119574,-0.07300453573015217],[-0.007957718899920481,0.09835141399926517],[0.045679461262847935,-0.09984880563507705],[-0.0034809450719757063,0.058690726329245047],[-0.03275715464035702,0.16594375742069925],[0.2412476247065942,-0.07142218596866537],[-0.0009393649583093167,0.019553403918896654],[0.005949504740365056,-0.002488414714399753],[-0.015017322423806297,-0.06837740086186517],[0.023238958301086257,0.06225061564054842],[-0.011321956120382323,-0.01686925418750208],[0.025657488606455378,-0.0631906064478768],[0.007037051994420076,-0.028204121434774916],[-0.02757729096092275,0.04725987198864753],[0.05096392821940973,0.03683004296753897],[-0.000874774098476778,0.02034881107434745],[-0.01707430829391895,0.02413117393868296],[-0.003091625923701017,0.027906811453378692],[-0.015009702169091478,-0.04334689051245],[0.019147328674580327,0.05388086606272251],[-0.005786759067705271,0.016380857126560556],[-0.004711251921933567,-0.027293024482377002],[-0.0057700432955157515,0.030516159141915522]],[[0.003564048293456951,-0.061417760907147],[-0.008453106520903943,0.024205912012599685],[-0.002325217403744951,-0.08079009059763827],[-0.020313089352140667,0.013370012678479993],[-0.036808227591652004,0.0015004815438153123],[0.04592614781449538,0.006331469751903159],[-0.0006229690772650916,0.0432647951578754],[-0.04094482273408771,0.11436867200219508],[-0.02078070460622304,0.07146321655943848],[0.02140208644143941,-0.0638074750550679],[-0.0038223922053756336,0.08731239844778946],[-0.019807856843487178,-0.17409303488642144],[0.04658799087942537,-0.048688892254266564],[0.01157298591304534,0.10764467697918101],[-0.005178944029456151,-0.07622205802048654],[0.01167750516272712,0.04004221366748255],[-0.014090470766396631,-0.010044299163699718],[-0.00726481639722875,-0.009493303848957135],[0.02703184304700607,0.009170687703959035],[0.006101249601558623,0.020386095885327044],[-0.019569151180320838,0.01809009034013061],[-0.01077322067538809,-0.016490479061494635],[0.029807026672727742,0.031756845803355124],[-0.02778039440211733,0.0650261829891828],[0.02544274295770105,0.007318752159857886],[-0.005920686974410579,0.04136501498705628],[-0.007441133146749652,-0.03335921532632493],[-0.0048538524880979315,-0.0047855520227054315],[-0.0005543259034588945,-0.02645252448617725],[-0.009711232210277646,-0.06306165302156477],[-0.03407864101625529,0.08507729876635958],[0.004651744477687404,-0.04782056238071445],[-0.09204280357286934,-0.00991781189015744],[-0.005244318533914307,0.042176266790193526],[-0.014531880703938592,0.02012475069043755],[-0.02288173098408964,0.07091296091121972],[0.00936524805249851,-0.020560974852187407],[0.03646092722947841,-0.12916724046868525],[0.009245719695413233,0.003107722267240042],[0.001214781997048526,-0.035811750960270276],[0.013312920436910014,0.008499257542302104],[-0.002922932778601514,-0.1485202756721206],[0.015600384328848024,0.018896474119792755],[-0.007596434546273164,-0.09916002594265165],[0.0004984036650231029,-0.07577446195976725],[-0.012562347496069463,-0.06820815036778184],[0.0170781192611487,0.11385816235655137],[0.021847555292178158,0.011525586010187936],[0.007030214921897043,-0.025279668967713647],[-0.01702068001279106,0.0164739912716794],[-0.0019715076816731957,-0.067166199161609],[0.03687469584217082,0.12836265486951481],[0.019742846180064118,0.016642728252004937],[0.006788806130285388,0.044518910129842035],[-0.008043093341293113,0.016455479950476835],[0.0006380976416877157,-0.11873361509395759],[0.0313924960177033,-0.01155473133048856],[-0.05037966317440065,0.07104298742107762],[-0.018140671713385882,0.06978146886350475],[0.009079217823537612,0.09027324235595983],[-0.005886173148660181,-0.02593885580263283],[-0.039082678743397714,0.03041156955121537],[0.03588551841403881,-0.12144267717546353],[0.0012624291777720315,-0.032823051565558266],[-0.01904614091933853,-0.00390087034772586],[0.007855690041408396,-0.024070160527704408],[-0.004930827373448372,0.04710323201378295],[0.025758972778883327,-0.1280270489593205],[-0.004987400038243701,0.0005146434831152603],[0.006516887980647961,0.2009864637853671],[-0.011001932465419506,0.05362265773899767],[0.05176905376980451,-0.019640755771755496],[-0.0017453453082305185,-0.12972006497350871],[-0.012406672534844437,-0.05259841959635249],[0.04582817970388481,0.05828148626529433],[-0.001913471957351447,-0.030089090861073392],[0.003926024893017756,-0.11203262974735743],[-0.0003003221856920248,-0.00040134266273219064],[-0.0068110518817802515,-0.08146466289917524],[0.014530980504250585,-0.11911071109179515],[-0.0020552356578057056,-0.0031047487269928336],[0.03119949135248484,-0.044680405769409605],[-0.0380192303319487,0.20761734465875623],[-0.01569858850332334,-0.11586566688008723],[0.017081790198993512,0.01838047615450174],[-0.02681290985468451,0.040489790617655334],[0.019348363189758955,-0.015434458308816906],[-0.015956222115344684,-0.09225522448395347],[0.020567389232485012,-0.009556039803772497],[-0.02390734221214841,-0.126565830951984],[-0.01761103035387793,-0.02107528197464014],[0.0026747929592487773,-0.08100063765345694],[0.02144127630867109,-0.003911114104742171],[0.0023954551939809545,-0.0002709091842017553],[0.0029740942386511974,-0.022147269874543348],[0.011300075880273975,0.0073294369678687165],[0.005373476302784726,0.0030617052158866884],[0.008815570358939451,-0.09108452901698706],[-0.020022079231451672,0.08444899637848811],[-0.022919707777081258,0.10567021519401655],[-0.010002156376542282,-0.06006058022364766],[0.020870903153109587,0.01038775464917195],[0.05790883869444747,0.0575104808914869],[0.026243069960537185,-0.08198556042471516],[0.019473149520273073,-0.046702798490291506],[-0.021810890048416888,-0.007752582853365511],[-0.020066383494668032,-0.01705319443198859],[-0.031156224425784237,-0.10169022589684135],[-0.04271853555128862,0.18814086184978937],[-0.00519164353536671,-0.06262695588722506],[-0.008728908197125783,0.11252917999928581],[0.0054774676106068825,-0.03955284921229783],[-0.02899889831704148,0.02145266135446002],[0.03517529641374504,0.08409809797032348],[0.015525804450815292,0.00046260350733386753],[-0.008406152643366986,0.012915754742383394],[-0.0002178607561241608,0.20349640350047724],[0.00571032380765841,-0.07120303744877508],[0.03874573057553699,-0.021427452729029885],[-0.022445940965659,0.03423131800040772],[0.009023478244782801,0.11138236085510068],[0.05148002382511944,0.015329770887830428],[-0.011172163980705183,-0.08374530628532567],[-0.009839630525027352,-0.10442229759575491],[-0.015245605292044691,0.02657261804254481],[0.015244923869457295,0.045448742455176216],[-0.025454952367633146,-0.006056417964432102],[-0.0013656529879269095,0.08979819461419596],[-0.01894793880450184,0.0021180395043292276],[0.03516623969018569,0.1363482617941299],[-0.021190610370751355,0.029589549707189258],[0.019524255525701393,-0.00888674265984397],[-0.027033859037436925,0.009847070178035287],[-0.009427815539559741,0.010775070245241335],[0.042688723153510515,0.16826197703311455],[-0.035583809318710066,-0.024034094247925734],[0.008229085534996423,0.00028638924462915044],[0.016366589158205175,-0.028568260366016576],[-0.01882057777362222,0.09656782286651935],[-0.018239189583461064,-0.12277603688676637],[-0.007963053504449258,0.050890823649763564],[0.03945707410744433,0.18940057336729701],[-0.17940217397348734,0.011199695184483596],[-0.002574077968759929,0.016145141806887052],[-0.023957293768742106,-0.033910385204653504],[0.00857551191957637,-0.08324129809615605],[-0.025552742715531148,0.04354988297869434],[0.015905841008950386,0.000366512955730171],[-0.029080851368017694,-0.035833177586180605],[0.001597079883714007,-0.008964387305376126],[0.07211062686100585,0.08629639564684943],[-0.012686025692161967,0.05416556101710763],[-0.022851781978939764,0.02752802620671059],[-0.021651539528445948,-0.02056700491135026],[0.006453866509605843,0.10328963671012062],[0.008531800502091303,-0.05801549410900108],[-0.023933239273615417,0.07702939632830433],[0.028266680194643682,-0.005342802839217965],[0.023062870891194957,-0.024672220206844408],[0.02346556478089908,0.044668267702994695]],[[-0.005623487893221169,-0.11621742878256294],[0.031714993319011495,0.0487790032412561],[0.008359560600488121,-0.08304081227111114],[0.009820301137690468,0.08725645192977127],[0.026938680852255224,-0.003476416757265611],[-0.025301556150142693,0.060008127308125686],[-0.004891725416380187,0.04793397372114969],[0.05771649933666731,0.1220472621291769],[0.010067383472608998,0.07869439236563282],[0.013905858886843113,-0.01809985212919448],[-0.027601097839672722,0.1269564546500772],[0.0097977269908806,-0.16215927527011226],[-0.03344344201719785,-0.05504806342501543],[-0.0038104862835988905,0.08425098577143544],[-0.011880012250325324,-0.0938001860798474],[-0.0038920271245845963,0.05684948517106035],[0.02334198875065986,-0.02670965722659186],[0.009047154921505922,-0.021487801596299382],[-0.05265175803006792,0.06628805369146794],[-0.004944227789692658,0.08112642418097644],[0.008179405281799257,0.040382345542773417],[0.0016817046801398507,-0.03248812246015787],[-0.018858355137729255,-0.01822148767731479],[0.008581219093388727,0.020928693249701723],[-0.03843725142938887,-0.080529476069362],[0.012088181039857768,0.011525715327400548],[0.0038042604302475852,-0.010438399542766789],[0.050511909504662986,-0.035475282101632886],[0.0037008615417199824,-0.012917637487417937],[0.013482109193686231,0.013715223636711894],[-0.0016983159190593728,0.05248678886183063],[-0.005649947014074444,-0.07363827004650642],[0.09663036226138744,0.038797199112398824],[-0.0026314478088162977,0.023382408429179075],[0.009907667680607767,0.006733804916354091],[0.028709024592563134,0.05063435168117264],[0.0016882736159174502,-0.028201043778467574],[-0.028515300031751258,-0.12050317291928375],[-0.015405071499313786,-0.010170596179824902],[0.006632050524725491,-0.004759572596291506],[-0.0058711640647723055,0.0014103397174109117],[0.0029507755062498646,-0.1641467204510273],[-0.009159630512649541,-0.002399107513035106],[0.01663378087812502,-0.11199424203429424],[0.029999500087124546,-0.056673316988565904],[0.021210267686932956,-0.10838882119988229],[-0.010917659091539342,0.07919446460415397],[-0.019379935577331826,-0.002667177835696568],[0.03687619347995806,-0.032492619436922165],[0.0649531856008529,0.01719333807198049],[-0.005639931231523145,-0.1382520774868678],[-0.030710885677484707,0.14076598489941422],[-0.008241740478942045,0.012804709154229607],[0.010544618483374606,0.035413178722578265],[-0.0035512013590196594,-0.042295321232843734],[-0.013317715597691559,-0.07783274173582054],[-0.020943595850458255,-0.02727684326803316],[-0.016402214411863264,-0.007537971786175445],[0.030217710969652194,0.062028788145728764],[-0.029754063254373107,0.06702688578281918],[0.013930813474009656,-0.0384741947606616],[0.02622116145919373,0.05900995640195081],[-0.019912644987140543,-0.11853886178904323],[0.0012631560271395758,-0.03601138150479095],[0.011062243401139902,-0.020399242955022878],[-0.00407471058606274,-0.019275989717020516],[0.0033646875471484137,0.018224747709513902],[-0.013270867769191627,-0.09531205824232544],[-0.007316503356661271,-0.0017019473191739827],[-0.009876755076727634,0.1810627968401879],[0.01782517405296675,0.04474620506605732],[-0.02720592441077753,-0.02313547283475982],[0.005573346078706007,-0.10801075702458202],[0.014199086362887619,-0.048502280502344994],[-0.050702797779157684,0.020440365545674546],[-0.0049767793400498925,-0.006091474860379896],[0.0038875547889492225,-0.041521793851038526],[-0.0010208768043411455,-0.032025965091000856],[0.005528052620417363,-0.04947752993928115],[-0.026521375212217285,-0.11924967101403379],[-0.001983031733151478,-0.01968207107691694],[-0.019427241073772136,-0.03711198893772423],[0.022910396541845547,0.15960786751654146],[0.003429448611018741,-0.16991057085515773],[-0.00928937891398097,-0.005200162051719876],[0.018184618122184058,0.030354799571983494],[0.007697763992521704,0.010406738985235054],[0.035193461925554594,-0.10498785025928613],[-0.008291637437702176,-0.045938136369753024],[0.02497321804350574,-0.1241366147610481],[0.007417795438184455,-0.06788191870394115],[-0.0009851553443841813,-0.05911465202530227],[-0.02067712007503176,-0.00994615313636159],[-0.024120468386562125,0.004449375712706012],[-0.00846272247800772,-0.008553763171821561],[-0.014571472882031358,0.02092985374189438],[0.016192653348750016,-0.031750528780226495],[-0.013979593253582012,-0.12207414641450012],[0.016487418753379363,0.08577842227295075],[0.021062978171622473,0.06806128052281729],[-0.08135495014663148,-0.1119998609723175],[-0.024054151135884726,-0.03868297269300032],[-0.05323044916878715,-0.020435798912147262],[-0.04388823401775591,-0.04814597769778027],[-0.025333290143394686,0.03436550917509866],[0.033213152267519176,-0.05318869066810471],[0.04147778028934079,-0.03744735513336781],[0.030387974682155507,-0.059940874973555935],[0.07288910389896268,0.16715360850878305],[0.001060789834949605,-0.062243488383876874],[0.00090870819663186,0.0808869577368866],[-0.0075202191925153985,0.025988747470195684],[0.03076225723861282,0.023480124814623703],[-0.012236543143763079,0.0638845166944781],[-0.003040506810794843,0.05692575954165936],[0.0194404646057265,0.03402944659816137],[-0.0003672978883170215,0.18134971150111304],[-0.000490808085608092,-0.09456453051467019],[-0.02012693137135165,-0.020344891733592954],[0.003839491931406228,0.007115517832016959],[-0.009556705696965201,0.10556515418121655],[-0.05607190257330623,0.06217563256671794],[0.0036138318833334247,-0.018875930201356358],[0.00019979514205629298,-0.0506401126081712],[0.017928533392571916,0.02177480429991566],[-0.01347967320209199,0.07363446047281165],[0.02002409294068364,-0.03981109428129013],[-0.00024295852627057775,0.025569312449787607],[0.007385644983156232,-0.036405504450954716],[0.001591929474277993,0.12465453859070472],[0.0014004484068675402,-0.003100042936984521],[-0.018980538565850275,-0.027471259421730163],[0.007128260890181602,0.027891285873224626],[0.006280918089979524,-0.011456658365860073],[-0.018511515616478333,0.24265432056056552],[0.033631065347453915,0.0414622426968576],[-0.015909349729558275,0.00595844241746222],[-0.01569081200945847,-0.017726673024148557],[0.038084711756237254,0.033964356892641004],[0.027791942343439683,-0.1420762852023747],[0.0146360092913834,0.029894967903445202],[-0.02963697443570535,0.1720653165080103],[0.03201426604054344,0.055726627024743854],[-0.006029752521317044,0.012501740257947189],[0.01712940416046925,-0.03180317221682799],[0.001820203101585484,-0.08528126980160487],[0.04277357163192905,-0.013638485486253689],[-0.0003101404118924136,0.008321698132669862],[0.02650754613698194,0.006178525094436511],[-0.012166490833529622,0.025428738205386187],[-0.09299133706464706,0.05293645833755918],[-0.0023158729067647176,0.054175012097930145],[0.013145017961595762,0.0020405585613397304],[0.02695996859584195,-0.05673099946770397],[-0.01352330227094478,0.12223463548897061],[-0.023207958561400604,-0.04371997120043368],[0.019078000791784545,0.07481375590643878],[-0.024240748630947367,-0.012801195881457006],[-0.03059118121790879,-0.02558283346249262],[-0.015503426270700147,0.06264239730657091]],[[0.02048613185845012,-0.12710835351803967],[-0.05068683285032301,0.0358002260278092],[-0.01336643978035748,-0.06938312901338949],[0.02203206001698105,0.11925191094958394],[0.00668585456392958,-0.0229476463415192],[0.020772385739302658,0.05789179393024062],[0.001583663843750267,0.06930635311877659],[-0.05192880002911502,0.13901173189587399],[-0.016847894203255737,0.07288564686157607],[-0.01972265736359747,0.0021719476889550506],[0.03540242995966677,0.09714468583183676],[-0.0060604790771212015,-0.08358991590735129],[0.017682628615994483,-0.01813840504070014],[-0.021768675483456196,0.07080337869030089],[-0.003911169881096253,-0.0712815488519584],[-0.002539239586023333,0.04176959199015632],[-0.018598910945535067,-0.03490204463078739],[-1.476617639493573e-05,-0.018533031154830164],[0.024865752566925945,0.12167840868490011],[-0.0077402635586655425,0.11279495321262731],[-0.009479481885197932,0.05409744888815474],[0.030175257488173467,-0.07309102819534341],[0.006573879510071025,-0.03369272231286686],[-0.016450250408043873,-0.04310023794473977],[0.011699097498669798,-0.11923104339948438],[-0.029079738732047705,-0.04603371843572095],[-0.005151292823390503,-0.004906408603769062],[-0.07868304541957126,-0.030674967100377707],[0.006839983831776592,-0.008263675666348757],[-0.01021494654956953,0.04714509935068298],[0.012924243243930867,0.018044162473058362],[0.005558691368917549,-0.09053846214711062],[-0.04832993173768973,0.036960561163049195],[-0.00629920595105616,0.043745529878450096],[-0.009202437518612624,0.006727509034816609],[-0.029836173889522713,-0.03601985298508541],[0.004428430145948462,-0.023700517036118696],[0.018228784009328418,-0.048414764999099746],[0.014572899094188475,-0.021419932746262173],[-0.012206440795101796,0.03887256029078662],[-0.003342099426621128,0.009088703096309806],[-0.02361193261195465,-0.1732397699374902],[0.008980164644140273,-0.018973243702132554],[-0.03356370132862323,-0.11405191734012754],[-0.02835243980711064,-0.028262050638151164],[-0.04387289664351507,-0.11067293570469382],[0.0012960895380618104,0.05664026167011157],[0.02188055493300593,-0.014998066666231694],[-0.05766993013760606,-0.03232830214408637],[-0.09378658529078725,0.020331212637840042],[0.004273257180979102,-0.19988383991255393],[0.00436484948126292,0.12674091336519422],[-0.012433725372438111,0.010701324955382691],[-0.04907966988458199,-0.02559470936333515],[0.006959998456338186,-0.06947153635279248],[0.020012402917734862,-0.07833566308344685],[0.0006495280902889521,-0.026791515176288135],[0.017144622141288465,-0.10184179738776286],[-0.029401980401830504,0.04433363631031162],[0.011668701446617254,0.03126192621619522],[0.015117950366485134,-0.0697827566116709],[-0.0520989573455954,0.06527260783759348],[0.01138246439137978,-0.09231369294010948],[0.011788622086085953,-0.019139140458637148],[0.004488042934043482,-0.05813238874738265],[0.006835020638025469,0.018133844043536722],[-0.01259076343551785,-0.02320928998985733],[0.0014287490112371536,-0.08252247692693479],[0.005437846771772141,-0.010002294020361043],[0.010220710405403927,0.14232558748476884],[-0.021824167896395203,0.04203732736256289],[0.00519241619137081,-0.033951789691277635],[-0.017049662668461276,-0.07701775977750344],[-0.013478200314498194,-0.035742817209061854],[0.03962991646084441,-0.06682262655461552],[0.009156517140864559,0.04628142496897262],[0.014008001222195922,-0.010646036031109569],[-0.0027647281581061464,-0.08942945527406142],[-0.013313231874950957,-0.03705864923677975],[0.03782597679674273,-0.13450603571407896],[-0.008444377961727692,-0.04412428431016912],[0.008905427241433835,-0.03855476633084704],[0.0007221232127987453,0.12856069165372197],[0.0070049536973309234,-0.17279102444912786],[-0.0012111172708010442,-0.029009899873375],[-0.017838641007916628,0.041878283928113075],[0.003737121613774239,0.027754809821466813],[-0.03887817090464919,-0.09331726194850887],[0.021665447007598863,-0.05081229933385263],[-0.00891887431779668,-0.14845817090105257],[-0.016548490398122527,-0.10637808976811872],[0.0018915451656613663,-0.01644280782698955],[-0.022729464598306513,-0.009416604556499725],[0.04308253503185555,0.05656391393933498],[0.0018978883764204984,-0.01984273946677416],[0.021432059190490967,0.03362679227232754],[-0.00480759734848559,-0.08866646959982043],[0.006659887379904148,-0.14428133176865027],[-0.010553386333930203,0.038308393225466066],[-0.012828067289713857,0.08513078607947662],[0.1557366569553605,-0.0985321722372306],[-0.00386868013176209,-0.0698619028462574],[0.023987619011303574,-0.05509788098533181],[0.0118099222677973,0.0016270780620425264],[-0.028725155604700563,0.08357510103569249],[-0.011560503559253508,-0.04978799655368237],[-0.031030437380962995,-0.023474970516678993],[-0.0551215085808829,-0.01296687915580982],[-0.08126244526695235,0.12466732722253485],[0.0037805842207456575,-0.04527084849744207],[-0.012453205207735992,0.02689090417418784],[0.024127693422770335,0.06158836974722999],[-0.053557369405662227,0.02704885422746562],[0.005562674491946391,0.0009797563490197543],[-0.010697425576429734,0.09104051934033275],[-0.01327928328459843,0.03760409044607888],[0.018696112498371116,0.12942061895827586],[0.0014432709313827103,-0.1014621986068293],[0.017389258584503547,-0.03931602446582328],[0.010372871487392023,-0.023744000616933072],[0.02521349900834281,0.11119394014254962],[0.03039390923152875,0.10015398154054644],[0.022491278411129988,0.013917254817646997],[0.007533398794439029,-0.0026226601568825796],[0.0030072988866094563,-0.019047414047291975],[-0.015709429471830415,0.05949337714775863],[-0.009810530631677517,-0.05866330807290115],[0.003537338475098811,-0.005585148286808032],[0.001062756942438201,-0.03618532247013401],[-0.01162181032853651,0.056433735031331894],[0.008551689031166536,-0.04048313782611738],[0.026036922770493718,-0.08292809577000461],[0.017121049920838734,0.019615931459207193],[0.002327179305092395,-0.042476598757155044],[0.023925083015965985,0.2091643898154655],[-0.044184555344708734,0.05715331865496071],[0.008024109384742881,-0.0327745104137389],[0.0016321642098896505,-0.047621659149890964],[0.011944306396449009,-0.04200582597157476],[-0.02891332353999137,-0.1432609028331686],[-0.011823503592844902,-0.015239855340500017],[0.04579271211506574,0.14233921613450895],[0.02957210812206189,0.04709000427871508],[0.008939949635610006,0.016166901937786013],[0.01309347691555696,-0.014414658956563915],[-0.003240355920584478,-0.07762215236372007],[-0.060464857849587335,-0.050288900667070646],[-0.0015171312004878307,0.02059885484395654],[-0.012342285398715404,0.020810451292165296],[0.003782596409674038,0.04165917451257653],[0.06023423295591435,-0.022782131742970887],[-0.0018779508726041213,0.06489844930514209],[0.010909892022763571,-0.019825654678973303],[-0.02097421400333616,-0.09120449563276643],[0.014923678192563202,0.09087417533066487],[0.014388980412003935,-0.01385736545852171],[-0.007779290805856738,0.05241192316407467],[0.001740386492051038,-0.016818509646773037],[0.017998856123365888,-0.026968150262981327],[0.016509724829225265,0.04169836510263896]],[[-0.012589744643159166,-0.10622611705655738],[0.03314548995696594,-0.0036299692592541444],[0.01804821143611259,-0.03405405159855907],[-0.04657175434703183,0.13425657935840313],[-0.0046040182860950475,-0.038317394922869466],[0.00909069297274819,0.056921001867357],[0.031922636482442104,0.10761475470155547],[0.038110972552885924,0.1268880969214765],[0.013312145674337457,0.0592377082970807],[0.015162078264551128,0.009044808552351529],[-0.03358888345299235,0.07207686965369071],[0.0031684321611208815,-0.010984961689083294],[-0.008278420984345534,0.015834331929323518],[0.00807551487742036,0.08917705630735473],[0.0363084111878507,-0.03959164231147391],[0.027726332983336488,-0.00014313965549740427],[0.014064934899425464,-0.03090048611688651],[-0.012998270540372659,-0.01229549836126225],[-0.004369287586492227,0.12209819671332192],[0.011275076737816725,0.08620838873714834],[0.0028855163704286776,0.05754503704542412],[-0.03235065395827149,-0.07422578164347045],[-0.012810825011802158,-0.02196007817647212],[0.028132121345872018,-0.1023233772288784],[-0.011061322258081735,-0.1073711742827713],[0.011034008846499585,-0.07278511596579823],[0.012299348614691003,-0.00363519425357114],[0.05892385387050754,-0.002179128817698122],[-0.02182059548323518,-0.02912556239552659],[0.021497336091712584,0.01784493942696917],[-0.03119335226765571,-0.02799001014991623],[0.006356065800536023,-0.09990356294126562],[0.019261034546293854,0.011447462555245563],[0.0030634140820101487,0.05756416246908345],[-0.005293367149155662,-0.0064349979721365904],[0.03367506498259386,-0.08937739104178077],[-0.00808240197303639,-0.027609069134420922],[0.013975334211181854,0.015372260662384653],[0.023374889589399993,-0.032282930397527075],[0.006249173421981725,0.06396589353439816],[0.008933375866981156,-0.0006815376424407675],[0.00817198251239462,-0.14186939998387377],[0.0008990746295289917,-0.03842547855055965],[0.035016177369149304,-0.11076595959529188],[0.010493311641388812,-0.006314628899843039],[0.03580227360768538,-0.07930515494589988],[0.019044411166459448,0.07189407413206181],[-0.023277965140328035,-0.017041953023337903],[0.04214101771184012,-0.014507287005649704],[0.06798960288147231,0.04700820607832661],[0.000433697520798858,-0.20304119561576747],[0.03267842558071786,0.057047762780807185],[0.019457094993750198,-0.0295687692263858],[0.030181384875367798,-0.08301713672960581],[-0.008467939043224133,-0.048598087093282734],[-0.00621077836266148,-0.06648802933649396],[0.02716292594371522,0.018820107882354976],[0.0026445219090663634,-0.12708286060602267],[0.01689935062686354,0.008014063424175103],[-0.009163062361828397,-0.0314301350849362],[-0.018556387220507356,-0.11196894662294496],[0.035587426751965974,0.03089057042657796],[-0.001955660705650416,-0.05950658807553676],[0.004362408553330777,0.014290369324327683],[-0.0025536709838154086,-0.06288241509692276],[-0.007323878621569756,0.07759365049392195],[0.03451171355504857,-0.0556395907675473],[0.01379586086891578,-0.08541687833003876],[0.0056149180861543545,-0.027178049145990445],[-0.017188971881190628,0.1155028965876068],[0.02219180423675047,0.01637490923239693],[0.015949739751498708,-0.040753366130684775],[0.015231826258881554,-0.04342822320554886],[-0.006323930299304066,-0.02280989126501777],[-0.02002962492660887,-0.14148703348906694],[-0.03371486106099953,0.0834836939402148],[-0.05032608807846357,-0.0431010244022179],[-0.013721509593366092,-0.145177251571373],[0.017841429579262862,-0.03547241859592635],[-0.026554638710798287,-0.1460351445455431],[0.009190280548127887,-0.029980115016543782],[-0.004094549590083297,-0.039329557900475744],[-0.007953320705327857,0.09695331434875054],[-0.02000507079968415,-0.14630702590246492],[0.021783250584507433,-0.03390476589934088],[0.011994242859078179,0.062369497096417384],[0.0006960478243608915,0.02054915899416514],[0.03399413886143668,-0.06578893810964517],[-0.012354558247649694,-0.04917662578504384],[-0.021353284208349668,-0.1641938488123557],[0.023327593383645345,-0.12988623864394194],[-0.006176483269898882,-0.003252284865521354],[0.07576803604825573,-0.010496194305272894],[-0.027511732628240814,0.06844010001180145],[-0.00398833867682011,-0.03583594335526088],[-0.01736795736482127,0.05796473430020925],[-0.01478522855808062,-0.16170022582213203],[0.0009694987056688073,-0.12188474179074756],[-0.00206489400485821,0.017857836537941527],[-0.008385537408579344,0.12611279011847104],[-0.14676142359774558,-0.04911931199037483],[0.028518528217156756,-0.08334887521769643],[0.015866904817810838,-0.00941551998602812],[0.04253151197135907,-0.00724078893435791],[0.03910230476065936,0.09681338623199724],[0.004508052236130602,0.0015038951735811515],[0.01148667608599966,-0.0073752800826593365],[0.04147587829644323,-0.010053934097605272],[0.048679794513227397,0.12375279677833945],[-0.022242748645185623,0.0032041932394071453],[0.005166484277710716,0.010555927569067699],[-0.050823029166362776,0.061135853036771534],[0.042513083538154785,0.034676822874507025],[-0.013213136233683488,-0.05895286119659331],[0.011095027881404755,0.07659007225594487],[-0.008043930813313315,0.025385739147423973],[-0.012072421965413487,0.07018624112182446],[0.011784207732701156,-0.06800655058796214],[-0.04181432328634335,-0.07710148267490094],[-0.002515286946888113,-0.03446095384679266],[-0.014554976650492523,0.1102697187896248],[-0.0330404765908056,0.09082166113106219],[-0.04024871446330552,-0.006964205066458078],[0.0016856911951362913,0.07456222112544363],[-0.013983338400621938,-0.05102772976390709],[0.0031697637796373242,0.019266304398404245],[0.011933806058375218,-0.03919343164484605],[0.004020913765478169,-0.041340347533186265],[-0.00785891545607389,0.005478280033503476],[0.002494027420997285,0.002117989019833954],[0.006402370494310673,-0.07924985544790947],[-0.013412253614412166,-0.16007236103600414],[-0.015197873790555736,0.004418808682084108],[6.265019534706882e-07,-0.06833158097041545],[-0.022288958854484984,0.10002244931518492],[0.026670471924074325,0.004603017420690747],[0.007578171548560172,-0.06554605237811566],[0.004867882491773026,-0.04749844761577295],[-0.069989042407495,-0.11415925463089978],[-0.00146820021823981,-0.15329264671069182],[-0.0019771736486280953,-0.06373040403852664],[-0.03879542683296198,0.1355433055610658],[-0.029126597592426123,0.034357871767990204],[0.0005026124163970347,0.019166623298395462],[-0.044064841179317374,0.015033161418538369],[0.00917357707054452,-0.059238802921065904],[0.03955409108925185,-0.12452142285606475],[0.004228730782957198,0.04645020826004292],[0.014844129872542808,-0.0028912835311462356],[0.004954976747261446,0.015766268980852444],[0.002430632866062832,-0.055202379306509355],[0.000181445114995016,0.05678706142233108],[-0.02054689606638129,-0.016210225898847304],[0.0005503467054211909,-0.10626653633028366],[-0.021106548050558175,0.05889142224600838],[0.026754014230583538,0.019634221826185367],[0.00870132848625063,0.02556711826490223],[0.018224836683879937,-0.030793483846597462],[-0.006633835040507926,-0.0063543782634510855],[-0.016250878465078195,0.007614167651575317]],[[-0.0009675364939563294,-0.09518578055714819],[-0.007560712973992881,-0.04032717974708357],[0.004560126129433677,-0.005266084514311753],[0.03934699173535966,0.11643626379059938],[0.011338277832299718,-0.030124177014369882],[-0.0257115303953874,0.048750479999606994],[-0.048818941664314344,0.12351097697876928],[-0.012332700401504812,0.07344240259401581],[-0.0041274680710498115,0.060567710074919116],[0.004349780518011554,0.005295432422381444],[0.00037573517799054774,0.058552711810386245],[-0.007646988268207148,0.04432568985341432],[-1.102398109446025e-05,0.02635027650106031],[0.0015243658170857855,0.06878345501944202],[-0.055210164631100726,-0.0016496851608979622],[-0.04847575894138552,-0.05462641376744267],[0.010118578642453647,-0.03150591044768337],[0.00593155879534828,0.019882900740165757],[0.011997399967204577,0.06516231557369496],[-0.0005912118708594215,0.030171945167183734],[0.012344262304990816,0.04852603070712016],[0.01557166745085822,-0.023001228884900003],[0.02134385911102458,-0.019473509519775233],[-0.01790941061264093,-0.10681090494068622],