{"Name":"RbmSpin","Nhidden":20,"Nvisible":6,"UseHiddenBias":true,"UseVisibleBias":true,"W":[[[0.002778430300777245,-0.024806834774055028],[0.0042926035151430895,0.01176082821760094],[0.008485723069313708,-0.034261844900992745],[-0.005991035594675987,-0.005572617258150091],[0.0035805429376240512,-0.007466319181441218],[-0.00234123704542924,0.07204507439989459],[0.005536140784944491,-0.02020001479669067],[0.0026344282758164373,0.038205082601387774],[0.0011590943412811915,0.019001650187290844],[0.003940579836794158,0.010523051611818744],[-0.0036339070359345748,0.010104445904419912],[0.00687846961655638,0.021202142507906467],[-0.001988317905208223,-0.011865228392847958],[0.002129619293119758,-0.00937874479891062],[0.004103684187468028,0.015431235182641502],[-0.00571653702473155,0.04859078362740126],[-0.0019802821586885804,0.022941432035029106],[0.002778825681075543,-0.03886001802164774],[0.002547586412556908,0.00749845290508967],[0.002427213233925439,-0.01529829307658445]],[[-0.0063366781063301306,0.03738187066738333],[0.005558802543870748,-0.015989914748096398],[0.007964196809782375,-0.013895195604029166],[-0.003732557821598771,-0.03351225339460251],[0.010059811937504519,-0.042149140106961656],[0.0010144560419384902,-0.03589940034669706],[0.0039008693456798063,0.005179543956605094],[0.0056733106723290145,-0.054951577335353705],[0.003415122953173555,-0.010614596233294873],[-0.003954954906731091,0.005226952373341219],[0.0022133077431126915,0.012845094736029235],[-0.000585590137302781,-0.0007624291897491086],[-0.0050389433988462795,0.01411951126442274],[-0.004847257769766804,0.01601691718070621],[0.0021888574483290117,-0.05165993210567566],[-0.0033849901985394766,0.001960219623028215],[-0.004130803942829612,-0.017359772989793614],[-0.0033401188756310212,0.026406930356890283],[0.0005920299508498321,0.024596928293519282],[-0.001726994021508677,-0.021528192482772598]],[[-0.0022510690915134727,-0.018924897694613817],[0.012938872519192452,0.007255686463306942],[0.013432071638843456,0.04106724277809621],[-0.006219077659963503,0.0380015963726311],[0.0048790632384239025,0.027064429976736304],[-0.0007952261161880175,0.02367024367532714],[0.005679700495294785,-0.05530719908946606],[0.003352224575219522,-0.006578111121037624],[0.003575479960135258,0.000955731559413011],[-0.005761242605772153,0.03852001371472786],[0.0018453512215074427,-0.01895032476642628],[-0.0074374589496553015,-0.036105213775561834],[5.823751508053131e-05,-0.03033336597788161],[-0.0045276819559508154,-0.04671787805571007],[0.0019801605550156306,0.010997678862569627],[0.0027974823354340785,-0.00010194721766914899],[-0.0013382536790334288,-0.046775659355876506],[-0.009090091421863428,-0.0059341109648464955],[0.007629063355637289,-0.030815726838683135],[-0.0009398749531023602,0.009789969242367073]],[[-0.004855275367562231,-0.024437798156826004],[0.0035723253321333364,-0.028124876991850407],[0.005270497233457996,-0.013339355806576456],[-0.004128802725192379,-0.03623139611169803],[0.005018383851112512,0.028923563246712546],[0.0033720206857358946,0.032036306381076636],[0.005882073872941898,0.04853361964933279],[-0.0030823396731219283,0.00631980051249935],[0.0064491125474963355,-0.012615271964560753],[-0.006488616024722239,-0.029496922356146597],[0.005945330140655387,-0.00627164414742905],[-0.007646047783589628,-0.0017753225271887035],[0.010382667471283346,0.02279062050458963],[-0.003578730371584597,-0.0044775883539758116],[-0.0021183600182156244,-0.03715544667301037],[0.004888198109941838,0.012515901605698114],[-0.004535819192418092,0.03866234683206167],[-0.0018747754798399095,0.041356882917108095],[-0.0030966230036469393,0.007711259346808202],[-0.0032005806522829782,0.027013153809809454]],[[0.0009315811010491994,-0.04016195468993203],[-0.001965785729102605,-0.012243291376494356],[0.004993945631931377,-0.008754092807830361],[-0.0011317537252984737,0.016040947390513448],[0.006310039581912348,-0.03691334980391236],[0.004433319900794809,-0.027336460593015355],[0.0018379502162317754,0.004388452012832885],[-0.004957129684287471,0.004612952302562733],[0.007597913281741805,0.040518723128659485],[0.007398730672228778,0.02746413894651039],[0.004776634676038566,0.004515639617394345],[0.0042142200834309786,0.0009044851804404931],[0.013273010327798181,0.005496731107546899],[0.0016364711585495721,0.027526442462529423],[0.0006657963355474359,0.0374678466786549],[-0.0013110173221088997,-0.010296477959281467],[-0.0023038823410971975,-0.04212980085751614],[-0.0008154101644022473,-0.008831392701411256],[-0.008431787671997046,0.007416898151994444],[-0.00507984358702329,-0.042367346472263215]],[[0.002652656458009772,0.05185594293494742],[0.004337342667148576,0.0012186838236473284],[0.015866247077753776,0.06866624963840737],[-0.004385791980288432,0.004545586928239937],[0.0016547740787775682,0.009209116237090649],[0.0016346687207528183,0.006182735831304533],[0.004270439329475598,0.006109838291818336],[-0.0023156511594505757,-0.021260751861034738],[0.00347374560385615,-0.0278170883416461],[-0.001986219289746883,-0.03793094781342787],[-0.0008609484582394064,0.002731744601496571],[0.00932763387424812,0.016205188115989068],[0.006616686845992205,-0.010411246060044111],[0.004819715967846867,0.008766654579005178],[0.006177669242684201,-0.0013866273755417256],[-0.006387055051941468,-0.02179057599889495],[0.0009808871321482918,0.0040602043140736226],[0.003067302552517633,0.009456674385134228],[-0.00030056718702777587,-0.01959013319622476],[0.0021090447128084234,0.033431944857923224]]],"a":[[-0.002391412171210774,-0.002642977818224416],[-0.005211407439527359,-0.0032140707692280223],[-0.001049288495547353,-0.003381369297241337],[-0.0013492068460098168,-0.004130647106797582],[-0.0032470433002858394,-0.0034090934432716292],[-0.0018100545358805304,-0.004977435279206663]],"b":[[0.004912771450552335,-0.006107788564048003],[-0.00404543679031748,0.011874913551519992],[0.00017443220623656694,0.015007713569522626],[0.008649613236326499,0.010563016628537782],[0.023091236099514047,0.01816314219007377],[-0.011931398465965765,-0.0006062052767670896],[0.008892975392095694,0.010496447748802375],[0.007861795933161124,0.015044494904423595],[0.001064561375349835,0.005378650386551838],[0.0023156549023099658,-0.007717282494786013],[0.013344820447458723,-0.002655518062554706],[0.018900918161408948,0.00403266775272741],[0.0021218406437328976,-0.0009581395126908086],[0.0009111977744611267,-0.0010472871393668285],[-0.0033711400109441227,0.004767432115704309],[-0.013950467214406341,0.01905088285889159],[0.0016296963623840242,-0.007031373910472597],[-0.002207688907019929,0.01348601157132519],[-0.009409812460572556,-0.002768502804498778],[-0.000619055203622992,0.004783998307288343]]}
