{"Name":"RbmSpin","Nhidden":24,"Nvisible":12,"UseHiddenBias":true,"UseVisibleBias":true,"W":[[[0.007617979911845861,-0.013256719348230443],[-0.0004788860363478583,-0.0023806711298506194],[-0.004702487768047419,-0.012805676154542894],[0.0009018457765758131,-0.015913598782789133],[0.01322108845508386,0.007156570435128741],[-0.00362277860352902,-0.0009308332957311018],[0.005104870876659173,-0.002343109533037297],[-0.004737257238074919,-0.0021879029421582497],[-0.002466817157410893,0.007132263888614491],[-0.003710191766475827,0.005643487074060594],[0.0010893182020433106,-0.0066462083996246795],[0.006495473158812149,-0.002047066012442362],[-0.001710164883035081,0.006305116422406611],[0.002722165834757909,0.0026698356899221612],[0.00041480541614013437,-0.009783666050891413],[0.010823571550382906,-0.00555664844493384],[0.000872747457713343,0.004986146415660805],[-0.0023479391187227186,-0.0030861951254662423],[0.0006158751628043391,-0.005220498464158108],[-0.0023103367074070362,-0.017372178874968114],[-0.0019682182979733976,-0.008653261212869707],[0.004209045689245009,-0.010333590634410202],[-0.010385712647143283,0.001534826562320504],[0.003330728894305735,0.0009958398446426905]],[[0.0021112642463191455,-0.009927865654128289],[-0.0056497975784806104,0.008385423526957819],[-0.0012739808266518408,-0.006805620620762523],[0.0043639534728476094,0.0018174531877589335],[-0.0018531165246161007,0.0041859260892318385],[0.005034871036174615,0.01034105788562424],[-0.0059325604504413074,0.0016385805619372252],[0.01311756218358068,-0.0011990762649086197],[0.00633704861699641,0.013247875579006883],[-0.0035709046216761643,0.0022420413618750926],[0.0008201533295816492,0.0033059400678188394],[0.00280255480128218,0.0031005086085604846],[-0.0026114208194650064,1.633408488719429e-05],[-0.0021827264709402155,-0.007405365327547087],[0.0023066946259946075,-0.007139848185985277],[-0.001606315721450674,-0.004112588929912017],[-0.003734131015203773,-0.006272664481598301],[-0.0005975514227543922,0.003129089091809476],[0.004505912457217064,0.0007597257662244467],[-0.0094219379958958,0.01016532378650567],[-0.0011131291888946753,0.012924179257068525],[-0.002818008026190061,-0.0004820445301080133],[-0.00599767962921127,-0.00659705487699269],[-0.01296689451520275,-0.004052048388051419]],[[0.016814534677047778,-0.004926362868700395],[0.003258129956487811,-0.013095649311129906],[0.0001403629106514837,0.00023423470596306388],[0.007728151270633088,-0.004031374484279895],[0.003627658793315936,0.0009049198550684237],[0.008306753254546018,0.008407005574492072],[-0.0002470874311904167,-0.00902792168611225],[0.003530934328649397,0.00588728731082451],[-0.000540164072633232,0.004444616371537041],[-0.00013257475953986405,0.005192269259601703],[-0.0006937183338176622,-0.0005862948246581666],[0.0029083165016783887,-0.002725519138977279],[-0.004577291351687825,-0.0011234793022226802],[-0.006885799436312052,-0.012519094454946656],[-0.0004614598559952504,-0.002237638068818001],[0.002117326395344556,-0.0011788344155306179],[0.00870267356693245,0.003346761260486977],[-0.0016790552803903193,-0.007784260826132185],[0.006211869024827352,-0.002556247135621502],[-0.0013544598081182387,-0.018600965964135626],[-0.0014623036084780601,-0.012848798788409234],[-0.0012489614271704995,-0.00670184715057737],[-0.00850461037081634,0.0014196988935770913],[0.007629328494224912,-0.008502995822949689]],[[0.002897566022889396,0.001070007932926561],[-0.005484817238278324,0.009998778800192351],[-0.003864425625949304,-0.005314597270817359],[0.005836991898667099,-0.005919927353593088],[-0.0007918647316408527,0.006600748033613076],[-0.0038177416712411004,0.010138455040068927],[0.005763714831365757,-0.0002830793532795522],[0.0032672801973352076,-0.0019909641469602972],[0.012475015593239134,0.00854604281832933],[0.002675687972505186,0.008681506451247299],[0.001695172506443958,-0.004948675874428204],[-0.00217582265018747,0.00045034759534259144],[0.0031277508034786424,-0.00815141936432718],[-0.01903207238550515,-0.009943514250394884],[0.00354818367893457,-0.008045286276820758],[-0.0024555584411485054,0.004535170671684741],[0.009266956538786687,0.003075927633025129],[0.002052707504327446,-0.003264112867157419],[-0.001223427179206391,-0.007890136755229574],[-0.004185924860527336,-0.0041633238211031915],[-0.01011304750082815,0.003257693963033129],[7.479302655245042e-05,0.0015338804289418324],[0.0014849184054087725,-0.003365236599625486],[-0.007387447203609105,0.0029126194637231675]],[[0.0024896673128485345,-0.004686234270704328],[0.004737664714448804,-0.007149529263035761],[-0.014733702141493563,0.0005630893157683287],[0.012260125511036772,-0.004273308076276695],[0.012225731261086097,0.002236999385966988],[0.005688383790650551,0.002357741945718466],[0.0034858044270640693,-0.003604580781652938],[-0.000749040361318009,0.0017767507549422195],[0.012176457926956699,0.0018059283602826996],[0.00559653839112972,-7.238398620734504e-05],[0.0005059759993904912,0.0028720314774929616],[-0.004448169114616543,0.005398399300223429],[-0.004870790842739072,0.0018576189803915346],[-0.00868430837964331,-0.01410533073787435],[-0.0023599976651553656,-0.0019301632010661008],[-0.0027001017793125133,0.004459336945046738],[0.0024708748555492734,-0.007799866393029922],[0.0024612394222568385,-0.004914249048344036],[-0.002061510206643799,0.0007062159923851366],[0.01529557738157665,-0.01331699374367078],[-0.0031980471455379618,-0.0027736069569474844],[0.006225940894551596,0.0014587024093236436],[-0.001267181310739102,-0.006125761616289324],[-0.009404099208276423,-0.007029998536161907]],[[-0.005895319214413567,0.004170671137815812],[-0.0034726890480123417,-0.0065745362021331095],[-0.011591731663840203,-0.00023713810185717853],[0.0014083900499512556,0.005234579723624025],[0.006526840360070094,0.00890382274874579],[-0.009820725359844731,-0.0012837743883694665],[0.005161166827670471,0.0029621125202191085],[0.0027337816362477977,-0.0048257022740261675],[0.012536494346942395,-0.003170972898259636],[-0.0024418645209733996,-0.00439983471255173],[0.0018021857926891626,0.0011947559864276171],[-0.004072879094730095,0.005323855419608838],[0.004428691939450101,0.0011105635236838274],[-0.0048956640374648785,-0.006361217578917599],[0.00030521459880740367,-0.002191281286703775],[-0.0032116406329729718,0.010247485625550716],[0.011164362943334555,0.004345741259579011],[0.0020823799229562627,-0.012439264410340253],[-0.003111034837946324,-0.004629098566140763],[-0.006845913613364367,-0.004093460110371093],[-0.005645058141711758,-0.0012406284843518361],[0.0004283370487306983,0.005229799024449647],[0.0019923141604496716,-0.008772918918396346],[-0.011353043789516591,0.003972061519458778]],[[0.002490690503726226,-0.006797536527305725],[-0.00032169513171900754,0.007723202140667606],[-0.007459646109675479,-0.006176893965595143],[0.009693388724938617,-0.00855093035075179],[-0.009297858108723507,-0.0096636378522452],[0.0022744171135244025,-0.005389012820190969],[-0.0033965269469759204,-0.0070889950460289956],[0.015063810606088367,0.010926026269239846],[0.007339205682655343,0.004843508479081481],[0.003760319549097165,0.00498645483895641],[0.002757424911528564,-0.0006448692495082948],[-0.001401325776493949,-0.0039860453543057554],[-0.002998393827210494,-0.004360560475234342],[0.004236905446724172,0.004743266321412037],[-0.0015739606512402901,-0.012736700145397063],[-0.0028203589209435205,-0.0018055739131316636],[-0.004612389252033064,-0.0030009738106494084],[-0.0007444218072629643,-0.0014229213718953684],[0.0013430567971481392,-0.0015057976371744704],[0.00456400943169704,-0.009257290387404736],[0.0008718070798196676,0.005990517541107732],[0.00599021260434947,0.00014576579953372564],[-0.0020463270656030626,-0.003330928923859007],[-0.014962268155963467,-0.005067697141989008]],[[-0.004249764295037427,0.0003856970740114124],[-0.006173266436483343,0.000753859456988755],[0.0034389164934590395,-0.002597569410720092],[-0.00648786393795369,-0.0005836315744898379],[-0.0015541557179017899,0.0018785739941128694],[-0.0027021185001429174,-0.005556954632112315],[0.002894178889581493,0.008618652497251633],[0.0047033177762915756,-0.005934718109223737],[0.008719512140945905,-0.0027626066945408284],[-0.0019358114931288858,-0.00596723569016061],[-0.0019065320937737074,0.004654946295615996],[0.005800562817397242,0.013058326564719185],[0.004456945089032736,0.013491338350027473],[0.0034278213516794275,-0.00804616747287568],[0.004262623414397135,-0.0037592516897585193],[-0.006595029964935337,0.006332674042850407],[0.010939410508144724,-0.004937655181195075],[0.0014407605237683353,-0.004753401033516137],[-0.002414654942186429,0.004080480925083662],[-0.001906673245677273,-0.003888017738596],[0.0048794037776865255,0.006938501776801277],[-0.02073032463906166,0.007654998518854638],[-0.003967507083815004,-0.011726518290046681],[0.004960003811095812,0.007882947264106075]],[[0.005251064364446362,-0.007187365249907063],[-0.0044442333710367436,-0.004677136406501089],[0.0012673926739409066,0.0022035460541398747],[0.0068660306134423685,0.0002612558623996779],[-0.0071900632676026,0.00035010686255398764],[-0.004295899756745198,-0.006834085535956267],[0.0013608815553470153,-0.002397200265237703],[0.009052922868794182,0.0031086906393636236],[0.004775185492604984,0.005244333298962646],[0.00012399854610995343,-0.0037716369181064703],[-0.0011082457101193035,-0.003547295054466138],[0.010431713741130444,0.0015414565542361865],[0.0021890891206743793,-0.002281500398614722],[-0.0058300142376222245,0.0025256897390232287],[0.004733744921807235,-0.004642021625262831],[-0.004333909905560864,-0.003925609959699139],[0.0120653430882986,0.005997983956997554],[-0.004923341306173633,-0.007893494376046063],[-0.003968467966029944,-0.0080883441401096],[-0.0013639698755607338,0.004107882554444836],[0.005168537007546714,0.008754549032707244],[-0.001907599687551123,-0.013713690790431901],[-0.003222079895822489,-0.008336974508017996],[-0.00019178246735898543,0.003226902763411035]],[[0.00412419989081623,-0.006401939618952157],[0.00024166782084479935,0.006667660422811238],[0.003972198762322623,-0.0038769249390706207],[0.00011003763152313967,-0.001769548133740171],[0.003936667926915738,-0.011853594565779123],[-0.0036199272431862283,-0.01967537299898374],[0.002457156718693926,0.0035149747763301544],[0.007475954907214809,0.00471225945766012],[0.006459263836966817,0.00802192084665672],[-0.007520999600395147,0.0012511326299636562],[0.002451294795355559,-0.0021805749131279624],[0.00042882356988827204,0.006309562305968007],[-0.0008936282983273199,0.001431284847138049],[-0.012335793983234474,-0.002496655412147209],[0.004612879317763153,-0.00820687812274056],[-0.00035938991563819276,-0.0016406571155851233],[0.011944916537519897,0.008773589208888929],[0.001351933964689475,-0.005358178592268885],[0.0006985037182031441,-0.010839236803346735],[-0.0006577697802490875,-0.0053194064133804154],[0.009287126715914664,0.012415600108482684],[-0.008759167030273305,0.00504642052832267],[-0.005626391477432557,-0.004024709343956036],[-0.0013449017932911141,0.0018969516331655487]],[[0.0015145114898283008,-0.01656619756903896],[0.0005898187948402595,0.0002719716891179812],[-0.003927446214040276,-0.0034802838297038965],[-0.00012029646928992917,-0.008999617660873649],[0.007369499134279742,0.006253151256453964],[-0.010165502155353433,-0.0010204894101301246],[0.010895303029172704,0.0007758495063591114],[-0.002029607892308284,-0.0006475411572946675],[0.0035659905536915074,0.012313678592809105],[-0.005655203879484974,-0.004438672176228796],[0.007504060615904343,0.0021824299211291483],[0.0022354390992887687,-0.009081707320026451],[0.00787166596997576,0.00329075163098366],[-0.009146029289480447,0.00367673838827508],[0.002755095506121126,-0.008484606886273156],[0.004120459141031836,-0.006903439309679836],[0.008474665037705794,-0.0008400856571355074],[0.003221865541977267,0.004888019944167655],[0.002539211224503249,0.0021463585423860247],[0.002163951128609934,0.0046435192457914415],[0.004003572795499541,0.006010149260406658],[0.001981935354279745,-0.020842247278293282],[-0.004368331765055451,-0.0063069700623803165],[0.0003797581019970367,9.650035549832459e-05]],[[0.0054595862619575015,-0.009850525868507244],[-0.0030632732872087143,-0.007878504346784183],[0.0028251539621880813,-0.0019146645972434955],[0.00034611834290491634,0.011303116107790764],[0.004273188505024821,-0.0047112772588559825],[-0.0009416965574417912,-0.00304898361837834],[0.00011011468112073156,-0.001359345360088332],[0.007668768968163176,0.003021773862306882],[0.004316853709703947,0.0067483510245344835],[-0.0021598506696528224,0.001811772378250894],[0.0019792431689593802,0.003851838154412821],[-0.00292469653716917,0.006173506532998739],[-0.010759727323987021,0.0005484613523483273],[-0.001994130265660854,0.0007527013113909744],[0.003723069328218763,-0.003132530866978912],[0.011700185861755454,-0.004869294542076649],[-0.008343078625952105,0.005777720270521602],[-0.001482697030903657,-0.008728568952474237],[-0.004161924550029932,-0.007494458530869287],[0.004282850160139283,0.008245161373384815],[0.0018408331515900713,0.006611977319010394],[-0.00044122819393298176,0.000701325909478581],[-0.008324412999409914,-0.003364856921279021],[-0.011255588269979955,-0.005703489061781782]]],"a":[[-0.0021864189894436883,0.004006406429103419],[0.0009671761450445694,0.0015776148761126136],[-0.00321922459296405,0.003223814485786445],[0.002514613216317271,0.0008128922126243324],[-0.0019093572935739342,0.0026006864418184],[0.000970834127170274,0.0011590757108719688],[0.001390837614041971,0.004102960125852781],[0.0003744659519086355,0.003253665583588467],[0.00040681252860018304,0.0020581789990541327],[-0.0009721950970850497,0.0053590817047845],[-0.0004605425081398457,0.0026197395532107405],[-0.00017222879935356898,0.002602138593576849]],"b":[[0.03722100323716052,0.011598206078301046],[0.03172987250429522,0.020261159472927642],[0.007133142718808288,0.0010670287277030266],[0.023433787606988683,-0.005755353747174381],[0.08761855315889801,-0.007114642008424206],[0.11049138974421643,0.006400282823314819],[-0.0007981770109078444,-0.0010080450173812845],[-0.0072992623638840175,-0.0017201412411523974],[-0.009346873395137399,0.007588431577269798],[-0.043841364886777735,0.020522691298232174],[0.009828226673171746,-0.005621107130468563],[-0.007345868452058159,0.013314042457158781],[-0.03813491751367143,-0.006867113337231075],[0.026949872447987053,0.004807489622632556],[0.016401755627641026,-0.007289548886094398],[0.04293087664030834,0.0045299577889738145],[0.07968736913112777,-0.0019384855543202611],[-0.020420763439892707,-0.0005636664490637588],[0.00408494028669037,-0.010719554135805623],[0.018294171429168258,0.0330671219243476],[0.06052043215775814,-0.005085292452901914],[-0.013894228252378597,0.008780327771196134],[-0.0056462671753678565,0.006173928100322504],[0.012305591760928469,0.006438523502436265]]}
