{"Name":"RbmSpin","Nhidden":40,"Nvisible":4,"UseHiddenBias":true,"UseVisibleBias":true,"W":[[[4.142254477959498e-05,-0.007240661354957616],[-0.0007515756018596997,0.05875738387920096],[0.014004244366905616,0.10937930870535433],[-3.202342941953829e-05,-0.11844104924442628],[0.011137641097885181,0.026067771442826012],[0.010075185920594025,0.06953342567450428],[-0.0017122557266545319,0.08285520285967285],[0.0007304438893234775,0.06614821075299636],[-0.0002630429842227723,0.12130064214630401],[0.005366167505220206,-0.06003778649101698],[0.003413162702563079,0.008811565610297743],[-0.0021677568713602464,-0.02771825812781638],[-0.0016000341093668842,0.06609710511193854],[-0.0013650488211941966,0.06903898231686872],[-0.0007145334439382276,-0.11416981228537541],[-0.008408989959536303,0.1017561042609557],[-0.01446844988370395,0.12395330883374052],[0.010926170729659554,-0.05374064930871307],[-0.002402588033770963,-0.022730298470240804],[-0.00027130571845185644,0.022156195023539653],[-0.003065067401249553,0.00308089055178163],[0.007671033716039713,-0.009701429937391006],[0.0001702080409230886,0.02224154229062853],[0.002475332416421463,-0.09395438756491656],[-0.0018877649237404213,0.006302215089757795],[-0.0017351701501219631,-0.04543826580130503],[-0.0030943930345184224,-0.11007852346828872],[-0.008281665479479212,0.013036768870608393],[-0.0011797431946094237,0.11303795688792857],[0.008628255451463689,-0.014110503938256046],[-0.006472283333615711,0.050942702043193816],[-0.0020873000010512934,-0.04500023803527858],[0.00028610101403533217,-0.002657473860303247],[-0.0002961615724724521,0.12744319519875155],[-0.004893510925664935,-0.04940339977783164],[0.008339905482813869,-0.036991228053254055],[-0.006120367657803669,-0.020395740999014682],[-0.0032915625598542043,0.05881068280955084],[-0.0033662921626267106,-0.04691711899672061],[0.002155939155626773,0.037102701022062784]],[[0.00031184436790335034,0.06931914630319558],[0.001701678108622315,-0.005919824649280891],[0.0074219160364409975,-0.03388462511545743],[-0.0011229830230962048,0.08231731152763617],[-0.0031570031779058648,-0.1365587536249256],[0.01189648346250851,-0.05763425409398359],[4.91898602124811e-05,-0.026765538521075327],[0.0008117237468502713,-0.02891400614784727],[0.009835369424875567,-0.0378404500116902],[0.002562779621306924,0.06413975846080616],[0.0020720020843702975,-0.0014623712157322724],[-0.0023946967091174913,0.01774814832843584],[-0.00013447497020718208,-0.02629868955090636],[-0.0009351201227869732,-0.06913729224019274],[0.0019273274846891089,0.03706973095509995],[-0.002575784207404976,-0.058985033668891705],[-0.013269238297343711,-0.08233751340412482],[0.009619191065597305,0.08472754466102929],[-0.003734494740917619,-0.03779119281045612],[-0.004543081071333231,0.03581541325502697],[-0.004205492299997819,-0.004071548297355016],[-0.0016561374680515335,0.06248350061154529],[-0.004357554722205275,-0.06042361813501595],[0.003971734590066568,0.0839733684656833],[-0.0006328760888055999,-0.010265422468838313],[0.0031736499095798487,0.13851309939362938],[0.003828472946854634,0.039758711721937484],[-0.012344899116595425,-0.00592818128355048],[-0.008542786643715623,-0.1147590592972142],[0.008432848609921611,0.03877082948279677],[-0.004222387426659152,-0.10834877445266866],[-0.001445106528148638,-0.03986301235387061],[0.0006466773452814996,-0.0041765865570481935],[0.002022140405505149,-0.0528572542026008],[-0.007774441868221738,-0.033077857192586914],[0.007245230002793805,0.0683724934225336],[-0.0072896350734328414,0.15595961646985534],[-0.0018993688401648208,-0.07246638016252879],[-0.0006936327416831696,0.05772800571954654],[0.00224609209273778,0.0030454125380663926]],[[0.00029634501863391217,-0.006144570190994053],[-6.232490336847842e-05,0.06053051530742701],[0.01536527322065767,0.06312502329081611],[-0.001384698243227295,-0.0005847474351478484],[0.008528495006507349,0.13435199697986477],[0.009913485780868909,0.047049195949562424],[-0.0007064436460232337,0.050126681663000695],[-0.0014810931741507684,0.0056932755052912995],[-0.001470812590767425,0.0402027102759823],[0.004677848704259992,-0.04038474645547644],[-0.001731821727889937,-0.03430827797472418],[-0.00343466644497095,-0.06628048663820614],[0.0007067538190594863,0.005552775402384977],[1.7511761231488925e-05,0.010696274462889434],[-0.0007471154164669721,-0.04868458470112512],[-0.006526999541788805,0.059897983686733804],[-0.013356470974943975,0.00984689427055524],[0.009228449138798682,-0.09052919913972202],[-0.005565933562597188,0.058423807126372046],[-0.009622510763004744,-0.02901840729121269],[-0.0030223999434162273,0.05329477481587218],[0.0013907854866445156,-0.1439816845576217],[-0.0025084393300148465,0.035337206630209415],[0.004949736846280244,-0.0036747609361648336],[0.0018106125268512014,-0.07773779070014496],[0.0015889627187653957,-0.07680153462459027],[-0.004829388756666503,-0.029091622510166542],[-0.006612277011602486,-0.15976048266828388],[0.0010916656946310223,0.04402554832977491],[0.004519323322722042,-0.09007510282829756],[-0.0049094753581910705,0.11834589958979433],[-0.0008282162291107973,0.0851169253850306],[0.0016856066886127936,0.02058600851145091],[0.0009727706224619554,-0.005017429987505123],[-0.008150956749707096,0.023160705640078685],[0.007962939304859246,-0.00509021992600363],[-0.0062525311038810405,-0.10642476634771493],[0.00037805257238585847,0.04196152543854803],[-0.0021667636790288075,-0.08210313938418523],[0.00020485136421446347,-0.056141919921329206]],[[0.0022058029865821634,-0.07933595526642631],[0.0022194069839758562,-0.08811967321760476],[0.010031062771416282,-0.11233241133525733],[-0.0004174500423197501,-0.0019547682420758667],[-0.003162257054896243,-0.0372600702537627],[0.009589858320168402,-0.05529346334723152],[0.0008949971738380692,-0.10022383776029911],[0.00045947848407816696,-0.08593640381243835],[0.01114871923748495,-0.10502423854531696],[0.006825696106415557,0.011448616331764257],[-0.0012551731707363114,-0.0012368472108605626],[-0.004721955183657358,0.09883711300340797],[-0.00011077228057344599,-0.03705579008755568],[0.00011397050608325346,-0.028790044664637988],[-0.0016489691449559662,0.11200400795486999],[0.0012073198583812908,-0.0855564197105766],[-0.012173167590227758,-0.035935879692251774],[0.005294016434042009,0.04797661404561905],[-0.0024793244985875274,-0.013029458503420617],[-0.007479296637164436,0.005513017243395559],[-0.0032919777739795594,-0.053091066076339295],[-0.003060884558276761,0.0865168316771892],[8.426880968937424e-05,-0.019442956056914654],[0.003338423555959037,0.0010118238919196421],[0.0007872614719522067,0.08490981260274909],[0.002443861822616822,-0.004172692876814134],[0.0018209598294563628,0.133412266379103],[-0.008870423195043846,0.16031032661041655],[-0.008539655430424327,-0.03421059859172563],[0.0046648889808697065,0.044912407266593436],[-0.0018751136785658126,-0.04942274884401206],[-0.0021193278574753653,-0.023927148902120506],[0.0016883554706870064,0.0191632994698145],[0.0026658153773441453,-0.07394601119762768],[-0.0076643061841434185,0.04853495035510924],[0.00851748926248688,-0.0014077908621866217],[-0.004347862582452796,-0.009663264869508878],[-0.0007986262752643409,-0.02238159193451024],[-0.005752795749900212,0.06239651499186691],[0.000217658723106184,-0.032200906743399864]]],"a":[[-0.004691490954469447,-0.005622070911988045],[-0.005753647994588086,-0.011668252652709085],[-0.0026145374141710977,0.002061582015847821],[-0.008123780071011222,-0.009802264268595888]],"b":[[-0.006462284115827718,0.009742604375586283],[-0.011205727718876804,-0.0012582113696279526],[-0.00019875634893842304,-0.001704223755779821],[0.010436770146353355,-0.0079312707557251],[-0.013265204635834407,0.010046622167575387],[-0.0014196939737946897,-0.0045227886013526255],[0.00012566698710519532,0.0020250649320586],[0.01842871687311455,0.004199354626066745],[-0.011798083880832594,-0.0029586658471868954],[0.005266512841857659,0.007217581270265254],[-0.0236882037484277,0.0014945255944929252],[-0.006869658234414755,-0.002546039337776723],[-0.001743893499661462,0.003989739944056526],[-0.023908395165158535,-0.01318293012123628],[-0.004194805026013227,0.006874913816615644],[0.02559203030435689,0.014689896738536887],[-0.018251353009994704,-0.0056940763710625975],[0.02145219304005036,-0.0021748428688073457],[0.006676769035693539,-0.001064545310360704],[-0.011758967149104847,-0.017579497844536426],[0.006931698803457415,-0.0006630006954983522],[0.008989826671944942,-0.02331262106563089],[-0.015591482884034552,-0.010533500392161502],[0.006904837655144987,-0.015950576498654712],[-0.013177968440658914,0.0012020086860631747],[-0.00519436390028069,-0.0044970773812086605],[-0.008018986888584548,0.004418035936552336],[0.005147405147378316,-0.021505225354307697],[-0.01756858174217209,-0.010595818598422228],[-0.00801342939425089,0.013354750448248288],[-0.002441753627493519,0.002207685826774079],[-0.0064497288742321164,-0.00723696363198775],[0.010742117469233602,-0.00532709182221581],[0.0046611564868319745,-0.007086465378545498],[-0.006473548856696873,-0.004591723813327254],[-0.01827640366248013,-0.009799916628482548],[0.009311889910543785,0.018290085336867126],[0.0004826748218459511,-0.008274826524751389],[-0.01041802665466041,0.0028520001334375357],[-0.003963837417629568,0.012077889981317164]]}
