{"Name":"RbmSpin","Nhidden":40,"Nvisible":10,"UseHiddenBias":true,"UseVisibleBias":true,"W":[[[0.09869878094571899,0.03774027416503268],[0.1507905871824965,0.012376631462946682],[0.10870040296089815,0.18677125954582224],[-0.19651594124833777,-0.07191159627179187],[0.15463260243295598,-0.009123594683585095],[-0.048506217987325684,-0.03468095258084285],[-0.015603207836162257,0.1557098643871601],[-0.025707543055405336,0.045798196719806644],[0.03052280734510476,-0.07863007397819115],[-0.19153697115779403,0.1131941380297793],[-0.04699694237108845,0.14391854337595464],[0.10970956249126866,-0.05826413639024659],[0.09464563469552185,-0.046004541261208766],[0.07326627680719956,0.01399755713902547],[0.04872516404247054,-0.1037489156986805],[0.03881607115608354,0.02040385967521994],[-0.019910146619536332,0.05572039227387821],[0.0034391019927275304,-0.26312965609356126],[-0.035778755006603366,0.13623979609036738],[-0.021192504067945796,-0.035907558321158176],[0.07464617012765132,-0.024717055499367913],[-0.16036266982486314,-0.02982490300613565],[-0.05370745300067959,0.1053346807243924],[0.15621431580446377,0.04282643914281709],[-0.01038281100558091,0.1967411860673075],[-0.07579072484202178,-0.05498012001786165],[0.11555671626414232,0.05621137274656636],[-0.00584261052972581,0.02020202989235356],[0.12822930692275997,0.007169380821836283],[0.002427592530142572,0.0066395386768285285],[-0.18272018652725253,-0.08984884715036007],[-0.17841303077692763,0.04907710842970171],[0.004136242970124748,-0.1238974395829624],[0.008043359950519791,-0.14987458263730527],[-0.10721637213375314,-0.018853433486843697],[-0.10637684802439651,0.0011820363604788417],[0.07648172284315172,0.0013589225683677912],[-0.05449571422999604,0.05444905187253057],[0.09044626780464697,-0.1642238657161182],[0.12316047779031854,0.026346692749165825]],[[0.05764130883908182,-0.0274668009802417],[0.006606461141679219,0.014622805767344212],[0.09482368536442558,-0.17689731937629302],[-0.061618736546963634,0.08595107642323045],[0.11321911377945733,0.029893893334894762],[-0.0344489268059869,0.018970868081498195],[0.02102968213787236,-0.13995863502181716],[-0.0802218384076313,-0.014767368163850225],[-0.023179515997871537,0.06140921347629766],[-0.16431963880173694,-0.09626225959099012],[-0.10004472820608466,0.010338062610567588],[0.17398351784521296,0.10140549361587428],[-0.01956834606193412,0.028077008352276424],[-0.061769711129151306,0.019039523834430958],[0.005682355747511894,0.07725451808430159],[-0.017286744995794016,0.12103778335090322],[-0.07886303420532084,-0.09524904528840382],[0.03202275075545872,0.14785681213012963],[-0.004089797163816069,-0.04633141279434675],[0.09020269653962526,0.14384352705601233],[0.08171558447304485,0.04330623053339826],[-0.24693064630573386,0.09201566209563294],[-0.11419808692046456,-0.1768590767574196],[0.13397058715226887,0.015021788837272718],[-0.026683885346678596,-0.2420432601250869],[-0.003342705259503738,0.015272383678435862],[0.10562381141335773,-0.06913581591709193],[-0.03787208308476191,-0.0067790993587228945],[-0.08332991740192722,-0.026100742478921867],[0.13197592636821423,-0.016869407665257675],[-0.21748677278333312,0.1437619175929027],[-0.04220271135351636,-0.0673465963047076],[0.04292887095329187,0.08948037437244616],[-0.06294281355454034,0.05632572745407795],[-0.06370764259697315,0.056788692758497655],[-0.06220436434927033,0.09399648967698493],[0.10606411224575037,0.0364556347041152],[0.014773230230758971,0.07156514932018905],[0.02269054775138041,0.23520722480888692],[0.2054760936145622,-0.038085430430629785]],[[0.03140399671759841,0.011236963095873565],[-0.10942387858432331,0.015300737448995369],[0.02776842118856122,0.12316883220889908],[0.03245550099339022,-0.07521250439213506],[-0.02024923558338313,-0.03523462720701891],[-0.03974247312796791,-0.0645643456476099],[0.016363760494039706,0.05052426200866456],[-0.1529967405033939,-0.0240528585817772],[-0.07249799475681894,-0.03729058891003034],[-0.0522555663317034,0.06626455274626732],[-0.10633336828627465,-0.07212752354028476],[0.13048217351109367,-0.09713507696925197],[-0.15393581635122325,0.06456727604557336],[-0.24575677268940224,-0.057292712890577795],[-0.030473104099842177,0.07742591136839129],[-0.06894879754772458,-0.21920734676149417],[-0.050514382621607054,0.1269905282487528],[0.05277279490054065,-0.03310516341382463],[0.08446445745697083,-0.08383818814367096],[0.1677541295599431,-0.1568247673639332],[0.046849042935111884,-0.12020451867776877],[-0.12219683871231843,-0.13544790702361123],[-0.06913561309392639,0.1491026431623961],[-0.03189857085568781,-0.07452408460488609],[-0.02876386072820248,0.20262299426803607],[0.025172360441556813,0.08586690829941512],[0.08831633678068848,0.0445434858176081],[-0.06437753158696845,-0.026472664254552223],[-0.19951281075226623,0.0049223601340352505],[0.19182590912565758,0.05441729155951479],[-0.0847301563187224,-0.08404147882325316],[0.016250040090483697,0.04142220590979831],[0.029989530129580527,-0.1459725190924147],[-0.08949809737791331,0.029536479825567803],[-0.02017667296373336,-0.08532420224601636],[-0.059390091615343546,-0.08408714570332367],[0.10082838731668628,-0.052060330961682194],[0.08908060622413022,-0.051096125896635564],[-0.04562010072966575,-0.21661292785140665],[0.17117321162154212,0.023228416786658945]],[[-0.053282889188987735,-0.00047033592977496037],[-0.13819535985483464,-0.027044167777398598],[-0.01766971865482798,-0.0791542634819436],[0.04512187765294446,0.024024304937067018],[-0.15821520552799545,-0.074631602161829],[-0.03968446109915443,0.10857817073879876],[0.01869675247607866,0.008109778582710812],[-0.15955730847011013,0.05794311490067834],[-0.025712124982968623,0.03898561244595529],[0.033943768195724144,-0.04531769255998412],[-0.05991784061391671,0.00869524807740306],[0.017177256851351488,-0.0015505410589058328],[-0.2128772243385127,-0.11338149521207853],[-0.24918048778675628,0.08660607234197133],[-0.05832671407577309,-0.11794063901455719],[-0.008136331013574617,0.2171470769278513],[0.11096588647567943,-0.12875213620463147],[0.02139290740767452,0.017385410462003564],[0.10480227689355529,0.19148287390767676],[0.13947901231706275,0.10161564639054496],[-0.04815703787185728,0.12192051147120336],[0.08053058664722731,0.1357812939405921],[0.019681720189262886,-0.021080564199034132],[-0.20410448670973746,0.11039656760138712],[-0.05548578382827778,-0.052386884634695145],[0.017229629751253053,-0.17162429297164672],[0.05366153114261263,-0.010257689275568187],[-0.13109809550852616,0.0013644456566676026],[-0.15439921613357516,0.012562921042776365],[0.15226488186657713,-0.049871927317351794],[0.07964863498122539,-0.04499032078395599],[-0.0012071436978822949,0.05337741142934971],[-0.01606011523990815,0.21025275842462127],[-0.03217086019861419,-0.045336789084447035],[-0.03175787551481985,0.08797070170795034],[-0.11733169528596803,-0.016658044653824058],[0.06590551645371795,-0.03603335431116548],[0.1512238176912363,-0.02132948307678548],[-0.03986888932206304,0.19099753036575065],[0.04673388789356091,0.007557030601406292]],[[-0.20100200421478245,-0.022783837510892767],[-0.11575716797541524,0.000651467037572688],[-0.017534823563934394,0.0484412801499925],[0.07249214019055786,-0.0206540109730595],[-0.16771530102627208,0.16657827712371612],[0.025706078446528134,-0.02698725589501871],[0.055134351598747085,-0.07355294035494926],[-0.050062953613867964,-0.04513450160118042],[0.07629955640815901,-0.0815034842217471],[0.06237484464162947,0.022448965373227676],[-0.029988221489014588,0.05820556613012027],[-0.05195794887514905,0.08298526024263937],[-0.12749325318972857,0.13602346771640406],[-0.021596864564355736,-0.08672716780449506],[-0.09263639221502712,0.06470148500320147],[0.09750772879692686,-0.153223060950355],[0.2347643712191847,0.11397471976419063],[-0.04736020007306059,-0.09421452301953312],[-0.010187010643155782,-0.23378682482433122],[0.03320484410640282,-0.032127033158840995],[-0.14821888080745474,-0.03833541169073956],[0.1463552287700146,0.0070022382259280255],[0.04356467824593503,-0.053641092681462645],[-0.17567410435459652,-0.13941205676839136],[-0.05190265352517392,-0.043088868310308774],[0.03849211287318165,0.21480950673093693],[-0.028171080325711195,-0.027695450070410885],[-0.15579137560828407,0.0413132641008896],[-0.050136925371644415,-0.010762746572418314],[0.06485860644521306,0.013629822327172894],[0.15552172625353314,0.024649769024522962],[0.05075909959591749,-0.12037782543590943],[-0.009858159681200318,-0.19487158025967374],[0.0223607809196712,0.0047107783375289975],[-0.06101668770931145,-0.0877161477593251],[-0.1376210094968901,0.1287150128284072],[0.013391291239222806,0.16488262769517045],[0.1244704574274768,0.0511391283074607],[-0.0005911900650192565,-0.19073490875404783],[-0.061279715910595126,-0.04890840718885019]],[[-0.24966841969005082,0.012996235172358176],[-0.0854296325940268,0.04204235994763285],[-0.0074576092179870325,0.015028147874160545],[0.13392288867519944,0.007627522730883056],[-0.06971013469281195,-0.15056011726818894],[0.101502826367971,-0.06805296861536071],[0.08868270218942867,0.13805341573813015],[0.10051810149817542,-0.005970171016780667],[0.12012028417692118,0.12227035856778842],[0.08661160106514303,-0.005421555905963951],[0.00043258482920820434,-0.06065063355394905],[-0.07347054989755517,-0.05599647455570575],[-0.00406230584834508,-0.06454741849221733],[0.18475276765489426,0.08893978617903005],[-0.0940966132599768,0.050616723906831584],[0.12132686030166931,0.014085527667202818],[0.16508676020107652,-0.05390732055774049],[-0.07179646793840158,0.10841870292546772],[-0.13651350459344022,0.217968071605076],[-0.05723336525155904,-0.011296768471115753],[-0.15601751426945823,-0.027012001653977123],[0.06558393510657431,-0.11597740498492586],[0.0076025922778575755,0.04209744255983315],[-0.011796952957173213,0.10897636313422943],[-0.0030196902858344284,0.027589026798820415],[0.08723669006277594,-0.1873553859164755],[-0.13360161813193194,0.07244485836174527],[-0.09967563236733627,-0.06672703079769317],[-0.028962617637017827,-0.032558294233428486],[0.013594038704099825,0.04278993398161132],[0.13742986591437956,0.09896359489409585],[0.16226569515738662,0.12018062886746703],[0.01553474950404628,0.05076076568977033],[0.040641436895896506,0.09764305543450527],[-0.00705569069345908,0.15265018616283602],[-0.019671521758906768,-0.10024448650867415],[-0.06576093557529158,-0.23721166688928735],[0.046955073680828,-0.019986559278232913],[-0.0007305603167399564,0.1542870543663528],[-0.11817877765037485,0.0728626064292038]],[[-0.11124022977571621,-0.0072923278475168305],[-0.06299515165161956,-0.07273063187187473],[-0.048710151910329826,-0.08066386523530895],[0.15763236905910563,-0.024880859150515543],[0.018731214036512744,0.030409960894667316],[0.09867247940923678,0.08493019195315456],[0.04045144822719568,-0.21549418931230502],[0.19094460317553594,0.04756789564179145],[0.043936801913681885,-0.1365233941993505],[0.12069619833140041,-0.0034805393738552275],[0.05901401203994049,0.04042937513942271],[-0.08731196736399459,-0.03765652060122743],[0.062351094007205767,0.0029743889523577214],[0.19912505886453233,-0.06499976391883408],[-0.03805935940173004,-0.05931815860534434],[0.008917317841693893,0.07911966985340692],[-0.028419287523567777,-0.043042713373283345],[-0.025970040731422155,-0.02972879768907133],[-0.12345157848922217,-0.1762405697468963],[-0.08936794206831043,0.04501368621856582],[-0.05671538933590026,0.024093182930691646],[0.005346004566241691,0.1057245854650107],[-0.00708962552695422,0.009455940644255246],[0.07748052718406959,-0.06476818040597936],[0.0525525402908919,0.10021732854387155],[0.09382304980716492,0.13918335712956043],[-0.18094819226436396,-0.09182540837059272],[0.029100591060878523,0.008217646632485833],[-0.07340790368549177,0.05381841056257005],[-0.039630563171342975,-0.10570115934562549],[0.08601818031563097,-0.1203453192947368],[0.19983208195019028,-0.044865705719848985],[0.018818263063821603,-0.001592130296126284],[0.029724319635296592,-0.19643673532884232],[0.10832359415706454,-0.23427593909556804],[0.18754462731677424,0.011470893045984244],[-0.12517622371156786,0.18246315591166012],[-0.044127380200920475,-0.017357723097065448],[-0.05071628168261891,-0.05128070092529481],[-0.15042588234079982,-0.04993565143583855]],[[0.06920585364581053,-0.006400410733666759],[0.010275554524654808,0.007752303838634112],[-0.09513822654035128,0.07832880305274838],[0.08896002525805725,-0.003738274228388942],[0.01496387839449564,0.07054313253707428],[0.02241667277666241,0.02551536947001307],[-0.052142627253593934,0.18950204798445125],[0.15830071265313775,-0.06538149834283598],[-0.05324424812313871,0.10675392052174817],[0.12056487036028735,-0.014023410521078035],[0.11048358833187506,-0.10230451932074369],[-0.10132774746369333,0.07867025010772585],[0.08395612437828387,0.019933061387913766],[0.07901635460785994,0.04510591490802233],[0.04629131130758289,-0.03326189705089747],[-0.09334719743903927,-0.1289307688336845],[-0.16018246074555073,0.1018633296428021],[0.030804703363585543,-0.010147157031472839],[0.00260222347119459,0.0893424756764501],[-0.09313958512177996,-0.09121546330986835],[0.041822897021632145,0.059359214188176745],[0.058396843407535946,-0.0067002758211182345],[0.04028871750538162,-0.009931350654653968],[0.03830828158804109,-0.018912592835328156],[0.0664326293526618,-0.19118610968409055],[0.015875821559984425,-0.08827654210453667],[-0.11356244586284696,0.0880399061901111],[0.1691570082067539,0.04501255943731967],[-0.012422657800919787,-0.04335611276599775],[-0.15141884499487912,0.10791703702651527],[0.049302204166106214,0.07188708372636825],[0.09439573069347545,-0.042412970915417514],[-0.0059167344473547824,0.04413409933648889],[0.02864714147833398,0.2586977736475432],[0.1710726604396013,0.23342180109509375],[0.26334630360022254,0.007519584737475104],[-0.1333238068532176,-0.09261027346192499],[-0.10816596574826016,-0.06265969091602247],[-0.06140163796928304,-0.05777272092485544],[-0.14809893925268725,0.011477060617326642]],[[0.1780870143661125,0.020115300593283817],[0.14790405676919072,0.03289800827476559],[-0.0578444067080539,0.00915600495069801],[-0.0650438273348325,-0.012911455635947887],[0.004994861275942085,-0.05968945412893371],[-0.05204768003669176,-0.12011102603530983],[-0.09674869228413016,-0.06234358929503693],[0.05709867456897235,0.0573733472374489],[-0.06407281561468614,-0.0771264979811188],[0.053561498048474654,0.04702211282471338],[0.11378975970763215,0.20930855469591406],[-0.07418798056564306,-0.059713010695337514],[0.12000449605111835,-0.01380814272787841],[-0.012815284870522912,-0.0025793167069639187],[0.08952372795199362,0.04673572232320505],[-0.07810145812819069,0.1387046214771351],[-0.13240696084595244,-0.0691811143533189],[0.022250522469740307,-0.07243292261020774],[0.08660736590861305,0.021077581294146466],[-0.09529283272801632,0.10484388709351558],[0.07263402253044306,-0.09511459086095828],[0.1298405507563079,-0.08919236170577538],[0.08403614489934101,-0.009458108998039384],[-0.015134176452031673,0.06957488319134424],[0.03998385239904493,0.19095146305330316],[-0.08923086641619711,0.02204319471178784],[0.0011060807506695245,-0.03770946595701221],[0.20972003014285115,-0.0539405854504615],[0.18805476423498127,0.01678459697487545],[-0.22421792115278755,-0.08982626662265776],[0.03252340805908238,0.05985963407934715],[-0.09839537590952112,0.042034769225832894],[-0.04800877647584151,-0.16506179591892858],[0.0611437371938469,-0.25815259924552714],[0.09282483654384865,-0.16264225609158953],[0.12332469996355765,0.026175329681800804],[-0.05550738084677706,0.019613154631502074],[-0.13317689793983817,0.13927785127783304],[-0.01200157057658194,0.06916703480618082],[-0.09821967760438599,0.033276741068169594]],[[0.16670768307978198,-0.020177250247438827],[0.22330186213429368,-0.046852657072926684],[0.04299797738272466,-0.13771734133929442],[-0.20129686628365978,0.02996535832683858],[0.08825815968484232,0.007431473858754739],[-0.061397686242542014,0.11216351852390291],[-0.06801012038478778,-0.08363752808106015],[-0.0033895964829973,-0.049901726487647596],[0.0023092860525519964,0.07206276671287348],[-0.07849981688153446,-0.09317230145534912],[0.044438634283887286,-0.2669037750323644],[0.004730977856966917,0.0077540213152041985],[0.13757119794536785,0.03421326890757965],[0.03733780212804698,-0.022372476454991373],[0.07978204740632991,0.037184447715412426],[0.00042314755012670896,-0.11895147877939018],[-0.034845891339,0.014318392615091905],[0.00035977171443680116,0.23496135178848748],[0.03118732241577889,-0.12717336499471024],[-0.08048205148761996,-0.07489928567507086],[0.06915418631897507,0.048209088155925936],[0.04671120293866613,0.052353870436489695],[0.04409421927862869,-0.0035817049093132816],[0.05568419656568029,-0.08509475701186571],[-0.001676544895935293,-0.17236095042729097],[-0.12454798829708869,0.04231566376409057],[0.08244782808516656,-0.026991597546174546],[0.10945486309116848,0.013282124887869487],[0.2716674208715509,-0.014693249990069452],[-0.14821086087642985,0.03834180975973786],[-0.05238049945882614,-0.022690944646480603],[-0.21501562777390154,-0.0397422172637627],[-0.04534319868898755,0.18605921917769783],[0.06481938993639196,0.22613523631889154],[-0.03495538336396836,0.05108953980834887],[-0.05920411454441613,-0.06791762990215526],[0.027161271571979003,-0.016166474129874084],[-0.10944042899058486,-0.15737320072015498],[0.06350597471286992,0.030146835592884415],[-0.005873673934118279,-0.04328780617470311]]],"a":[[0.00222888398986707,-0.008475938878743323],[-0.015005967850546179,-0.011299995101837382],[-0.011816508065985977,0.006267165812696534],[-0.00985401334446751,-0.011939950048068193],[-0.0058916644230926326,0.015230961645102665],[-0.005701537190668388,-9.619308890185286e-05],[-0.0007873214226547866,-0.001930118202585486],[0.01765786581149381,-0.00554544368481111],[-0.012955036017770481,0.0024362258940368977],[0.0006134487484232775,-0.006998096315277611]],"b":[[-0.001920936897042289,-0.0014250693155096216],[0.015092377195124585,0.0010198284943513036],[-0.008240339215928566,-0.004745448400059877],[0.0027314043195796186,0.006789292220599372],[-0.02112864866339829,0.0003677489343804536],[-0.008526701824691566,-0.0020160742396370954],[0.00041956143480271254,0.007633346154171925],[-0.01651883122581715,-0.00890657121584034],[-0.004140242411997725,0.007676308907958647],[0.023952110307471547,0.013174902969255517],[-0.019957289876503713,-0.00265939791918922],[0.01961434284392759,-0.005558607499006624],[-0.003309889879381035,-0.0030377988997519253],[-0.0045419890403275,-0.012578287906814046],[0.004296206599578805,-0.0012950389631239659],[0.00716290527207666,-0.02517918206268849],[-0.01226008597779797,-0.005358603567097994],[0.009734622466113181,-0.013663421889356776],[-0.00937503983554566,-5.773987505974991e-06],[-0.0059361357325781045,-0.00319841984464743],[-0.0062323653866495545,0.006305646372393224],[0.0009331752244688673,-0.02017722655721904],[-0.017537029214549953,-0.011960275599204755],[-0.0071931905495405,0.012548163026319517],[0.0019812371026325607,0.00041234674474634094],[-0.006890726656241334,-0.008577937316981648],[0.010596340188994238,-0.005064020144838387],[-0.002880094371375685,-0.00863304299177656],[-0.010105494619089238,-0.008249564361625505],[-0.010850188489886085,-0.00585620812608814],[0.004541932273064154,0.010054726860827791],[-0.004122941814993867,-0.010239684122365566],[-0.0061222656543925905,0.0005023371084937407],[-0.0034100532004080236,0.010421268289125641],[0.0036527562881381067,-0.003394224562148011],[0.008290936979345107,0.012440008101138414],[0.0027968662275165922,0.015571475804640461],[0.0045611540779849045,-0.02022718046259517],[0.009966191997003809,0.0024892868822458934],[0.009111241997053033,0.0061324385417566366]]}
