{"Name":"RbmSpin","Nhidden":40,"Nvisible":6,"UseHiddenBias":true,"UseVisibleBias":true,"W":[[[0.004689419065661196,0.026290955619010164],[0.0071754687597163,-0.0679730813696117],[0.014309950070348292,0.02524815147930593],[0.018982396865970246,0.032315486763290664],[-0.00730449542137771,0.0060733142847704],[0.01161775599855421,-0.013501365808532234],[0.01216979508960918,0.047842492459951286],[-0.003888079839525756,-0.03067002858478128],[0.018888211275070097,0.002623954479968294],[0.0030928441494219023,0.013526755015934094],[-0.0006125319539177617,0.03289389185330302],[0.0023651675334131744,0.019748982241626217],[0.014783610398239392,-0.04826477280270556],[-0.015353925008014212,0.04955629844121024],[-0.016154484603542317,0.05510714605104637],[0.019184113048643706,-0.0192074487425673],[0.01534707210694909,-0.018246345650927847],[0.025321447054381413,0.010147063291043593],[-0.003711943189617016,-0.014770323517540453],[0.015014357518871183,-0.0008354217258369944],[0.004625545441901421,-0.005802118316236775],[0.003928264771686934,-0.05524970243012357],[-0.022162495078484064,0.016072647215061905],[-0.010891772381150633,-0.01986360369409933],[-0.0055278253378710975,-0.012648878334039127],[-0.027555844486954358,0.032125162731812526],[-0.013465992081542883,0.05119774861504923],[0.024445619027455925,-0.01836910033740171],[-0.010422527347647696,0.030881331941253264],[-0.0013897361356257699,-0.020960541824339363],[-0.0004066694260718884,0.024395014388747284],[-0.0003817990272939977,0.041534565439677915],[0.007261139129784075,0.0009137782802690578],[-0.00042772954804911614,-0.004483734011682536],[-0.015950104742854233,-0.016510806357805597],[-0.010412395440857333,0.02497499298086274],[-0.0004714948936857649,-0.01592863682688984],[0.012172562587888123,-0.03670501235330538],[0.006125418025879478,-0.0011018845962409679],[-0.0020331052343997244,0.02023130111149967]],[[0.010859820974433835,-0.040974988777066845],[-0.0062885010612644485,0.017541243740161132],[0.0048171504744353244,-0.05389013568847732],[0.02960209871014097,-0.026254783557872967],[0.0120828250158349,-0.01081595767373253],[0.003492875077511147,-0.010097020642017816],[0.012585209986992068,-0.029593412576343313],[-0.00237108174231663,0.01829070351583767],[0.012942069979283497,0.013869746132495343],[-0.0010998783233526206,0.012850489320639473],[-0.0017936478313946486,-0.023825694237688527],[-0.0034801781054571023,-0.038766820433036],[0.004276308254941874,0.02459014230625267],[-0.013623652401433328,-0.04132916072398756],[-0.012443677031036831,-0.02149498098297439],[0.021926930355594395,0.0501744558391018],[0.0018432337521376877,-0.0012404351389977278],[-0.006004577141185458,-0.002052871733037444],[-0.0007250148443438946,0.011875904319056024],[-0.005694638913967636,0.016575332029975794],[-0.0227935803592364,-0.01720153748526752],[0.00765598030042402,0.01875537246594738],[-0.005851426054447502,-0.01739534917513753],[0.008674686415802121,0.04152743094536572],[0.005959893642153697,0.0310031795974259],[-0.0320602306594699,-0.005478804837277391],[-0.014301126819966039,-0.04903143374418379],[0.022291857059297787,0.016496026661920224],[-0.005234597386050971,-0.06221013978215281],[0.0015189987231704978,-0.005056982008937086],[0.006187485718939121,-0.003927559105052796],[0.008219918777452023,-0.009181183576027317],[-0.015483466960057,-0.022704625523669895],[0.009491039022248796,0.024798138573902093],[-0.022684045067570578,0.06049905648983298],[-0.0033058537557368525,-0.03934682714579422],[0.004775509721877342,0.009684058818426705],[-0.002971614876847217,0.007944823108302352],[-0.0010977110896933284,0.0051522001341481076],[0.0036436617456535986,0.025550407891027107]],[[0.015385270715173144,0.04899424141981701],[-0.00850843855542285,0.01865254760730725],[0.0013008499528188537,0.05321243239938465],[0.014337717432318075,-0.0027915905756225683],[0.012252117704682337,0.01771250647652924],[-0.008926838209229107,0.0024331054930803583],[-0.006146040814392493,0.01394142723367295],[0.00696777732194025,-0.024099793811124395],[-0.004108287598077925,-0.02478494281019324],[-0.005521302494020789,-0.023432949870312955],[-0.0008271466645006192,-0.01400533665133993],[-0.005624093897925204,0.00470051625084753],[-0.007101382915218315,-0.012149884754682122],[-0.006225503730543919,0.025099692741926444],[-0.015669174916531765,-0.01540026304827995],[0.014794880476007233,-0.04870417052366538],[-0.018685374028446517,0.036162249268240396],[-0.030303214230191264,-0.0053233793013456494],[0.0005776341814322248,0.02266974196274632],[-0.013548076505997701,-0.051549509271825424],[-0.016309881981983833,0.03870068064121182],[0.0074146760403815196,0.008734112452058025],[0.011450402456837323,-0.019671535757155464],[0.011389138008366093,-0.04969999803479984],[0.003080574269051523,-0.028584080049479703],[-0.0020850770946341953,-0.04088028973896976],[0.0006347209033123246,0.029227695634458508],[0.0016760617983319294,-0.03375433015823886],[-0.007418140243396147,0.06514252528875485],[0.0014411284145919893,0.03663460191349681],[0.00531728639051773,0.0010356844005439646],[0.0063866875438639845,-0.016746425710299488],[-0.023684215265401858,0.022248087733391105],[0.016606929237741822,-0.018645886814645525],[-0.007209958754384199,-0.030068149363131066],[0.004263143325338623,0.016651048648620104],[0.0019548656423322,-0.03946613978425592],[-0.009052437754937631,-0.0030639689140468194],[-0.000904922170639338,-0.035391118779719094],[0.006128366072119,-0.02896517410788457]],[[0.012769566660701238,-0.0034344241951633713],[-0.004715468980368687,-0.03701442553605608],[-0.012629106625416537,-0.03825471088907757],[-0.005297052697738479,0.007659620919441744],[-0.002193188361308349,-0.007816747068361055],[-0.011729873285858818,-0.02308403737031472],[-0.004224472513342322,-0.016398042936212907],[0.009397978679920156,0.0035474086947775356],[-0.019276705393918892,-0.019140976932629672],[-0.007865173010145911,0.03963851142674131],[0.0032366650789475565,0.025834913181296177],[-0.0027464300359650307,0.01497308275076433],[-0.00943349216544873,0.01688986783693402],[0.011240071609733891,-0.0162319159188825],[-0.0013645263162548446,-0.0021672423762526104],[-0.005386333801677483,-0.0004312435734929585],[-0.02256413454274825,-0.048866162795474635],[-0.023627182298539967,0.038972228951162494],[-0.007301338704046748,-0.04093369953187248],[-0.003680513816515451,0.04963526025140087],[-0.0002655373652806294,-0.036069983166247516],[-7.076952030802919e-05,-0.008640763005526722],[0.015382343516203482,0.058816654050074364],[0.014460256518721579,0.022557570947676228],[0.0036541589279865533,0.04810375552821863],[0.01635790121086919,0.05097619082320647],[0.007374298452646532,-0.0014548479242231795],[-0.01593138502404651,0.028045313730850188],[-0.0016993280625459764,-0.017849299908659768],[-0.003445692056558406,-0.057868107197717254],[-0.00045577157962239413,0.013814518600152254],[-0.001149530644448887,-0.006715308187434644],[-0.017088151500406244,-0.011185432297523532],[0.013477468643311612,0.009873397167190837],[0.013113450445301905,-0.008385419071382206],[0.005815796558560736,0.020179212349429324],[-0.002075052607817215,0.0437716959891844],[-0.00480623640246067,-0.010397047155585397],[-0.005369735716592334,0.04101439768843217],[-0.0018629192990374866,-0.012467950618069518]],[[0.007764816962619254,-0.026529891509946283],[0.006250344701976159,-0.01057052830731657],[-0.008099483416767637,0.021533759265398578],[-0.014137241943509495,-0.005362203423253609],[-0.02208488966049348,-0.00407627099550501],[-0.003937701732543598,-0.00598550263413653],[0.00015612597442035494,0.024053321086491785],[0.006554680857370742,-0.02109255361384199],[-0.014770843559016393,0.045584853063776874],[-0.003940956975708125,-0.007752941547018243],[0.007117156082657069,-0.023066625248796234],[0.006308416638916794,-0.038175778289255106],[0.0055892693836179395,-0.024962411688132204],[0.010960847722193924,0.014010278355145959],[-0.0010115460970949468,0.03797078641459214],[-0.008521649764457222,0.038583984340094475],[-0.01090387573039286,0.03983112001966987],[0.0005686411248845101,-0.045434810288953624],[-0.00949890458144085,0.037943959938473916],[0.011021491915279936,-0.037897354010473186],[0.027261723840638474,0.01362064703970399],[-0.0005908968775841224,-0.029414302348869183],[0.002867820886832289,-0.06253537484734878],[-0.001971428101401098,-0.011003752581235994],[-0.012012299257546205,-0.01861829130842605],[0.025934866718867414,-0.005668443392211823],[0.007198882507037769,-0.001822905251593878],[-0.0151428207716419,-0.02779704211940818],[-0.0025564643854705466,-0.014218423114665594],[-0.0050134226758596825,0.04173417532021982],[-0.005900740467757859,0.007848987688322569],[-0.007259351383486684,0.03683520790303798],[0.005076058565815719,-0.0050861536739225475],[0.0014330131838320966,0.005587630492037944],[0.022830728559030372,0.03514227484150244],[0.0022166121286535233,-0.037797551004582285],[-0.0063693616487147066,-0.0507837326654448],[0.010541538720411034,-0.021325560922036368],[0.007929633360420567,-0.038562504372930816],[-0.008054409889710554,0.06517588310309326]],[[0.0011017900116576398,0.028312234487754447],[0.007814149505423317,0.046128243891196824],[-0.001092929317344218,-0.020950621177610353],[-0.0027257971235782707,-0.026116290852247166],[-0.025165631152326964,0.00956590980334252],[0.009508160384403323,-0.0011416828039224705],[0.012987777364468586,-0.037972906528738096],[-0.005086149742190362,0.010069657776275056],[0.0002902601422738075,-0.049557866786780175],[0.0017655546101199068,0.00114273286382275],[0.004149081217739525,-0.015165935837268841],[0.007893994476863328,0.0072311970704195495],[0.020519181812082423,0.04825454098985303],[-0.0021326857695094835,-0.033506049475054235],[0.008961378609364834,-0.07387502950359871],[-0.0004935936751086055,-0.026430699987932852],[0.009890186043322226,0.003066675574158611],[0.025575042420335085,0.010299810572883632],[-0.011012998855187361,-0.0023677810177359913],[0.021902882513827264,-0.00702366486827038],[0.028933139700396324,0.008981704232955946],[-0.002036323770362174,0.05898794771788058],[-0.014737942064272331,0.01581477161062382],[-0.012390360090466911,0.003950307659349329],[-0.012011474038241154,0.018131266493177443],[0.005122716347720766,-0.025957921968187],[-0.004704782132250138,-0.018256479159517624],[0.004842350421938984,0.015946612598924822],[-0.006348060872165533,0.009470400605225622],[-0.0037079471574382773,-0.0075771385468861785],[-0.008422229238740387,-0.010668488746181967],[-0.0068180160096842305,-0.05258442199956602],[0.015596455722131069,-0.0014944867996889075],[-0.008230751410851812,-0.007439571049693683],[0.006887634785903114,-0.00765585069558347],[-0.007432124465413941,0.01551582868847214],[-0.00298927185771452,0.01876838587294644],[0.02229312097439361,0.03468531159614461],[0.011358309546534261,0.02409824764657295],[-0.008068727613190661,-0.06288470480478305]]],"a":[[-0.007676438382760344,0.0006701317436118638],[-0.004409480745219853,-0.007360929834877365],[-0.00676005724266431,-0.0020868017556401903],[-0.009467671125154899,-0.0009674282721552807],[-0.0039938784607642785,-0.003469882230962128],[-0.005610722068568625,-0.0026938810164342463]],"b":[[0.000213255733291045,-0.0023120564333512735],[0.010437128188424684,-0.007106216499492373],[-0.013625589191420508,0.008728537242065309],[-0.0009500845889967795,-0.004151079392317057],[0.00023184902393109572,0.0018876400294515199],[0.01822275126905299,0.00407529169691279],[-0.011808027792418551,-0.0033996229740456906],[0.005742653701451883,0.007377345898674593],[-0.023980212057743786,0.0010754646188730077],[-0.0069656261304931,-0.0027636331679323323],[-0.0011474703470294057,0.003958679190547601],[-0.02398801819594095,-0.01311183858358477],[-0.0038443421837724354,0.007758983284224105],[0.02507742800440441,0.013905929863458646],[-0.01790634877721289,-0.0048145983282589936],[0.022095372733950937,-0.0026392634151986617],[0.0048127624297365735,-0.0007853939777773617],[-0.010256928053875578,-0.01730182849535445],[0.006318649910058432,-0.000666235388195291],[0.008223230999911235,-0.022726151358332027],[-0.016452809908360046,-0.011805940227984828],[0.0070477497883173704,-0.015910143067100285],[-0.011200188390866696,0.0005920691059837629],[-0.004132430696631235,-0.003437394708162807],[-0.007285463314624649,0.005390078659737769],[0.0047751689101905295,-0.02296564952182499],[-0.019182428168273792,-0.01217126859404531],[-0.007860394297460261,0.013132141567805415],[-0.0023748271832615313,0.0009576522763533707],[-0.0076574052226803056,-0.007252819515136067],[0.010982618613485814,-0.0051161147925211335],[0.0037261753936116393,-0.007427464178918622],[-0.006491609365614203,-0.004633153532929731],[-0.01778702718632649,-0.009350477934358902],[0.009558776279054526,0.01610527042408366],[0.0005700826621735485,-0.008095252315872097],[-0.009712986669986693,0.0031563263895552788],[-0.004179333149584025,0.011527656716338566],[0.002716852685816245,-0.004941173550875348],[0.0052451173361301425,0.010088430728179259]]}
