{"Name":"RbmSpin","Nhidden":24,"Nvisible":12,"UseHiddenBias":true,"UseVisibleBias":true,"W":[[[-0.0017564673763193319,0.01256634101821028],[0.005223201683553219,0.01866532099588739],[-0.009459139491273746,-0.014000698801626715],[0.006727014952252064,-0.013549295995507667],[0.009135780942939346,0.007054680709998439],[0.00011860092953230201,0.018619277061553814],[0.0042222682145837374,-0.015306409423995396],[0.005409383302273286,-0.01203049523758947],[0.0066757826674067626,-0.010174777411072243],[0.008000043041672771,-0.010208521969382444],[-0.00405796693222832,0.02008117043539678],[-0.004634979055001415,-0.007548398371537671],[0.004294700353882518,-0.00012669019331104132],[0.001351188875145274,-0.008089427462802579],[0.007159591479707649,-0.011788631550751244],[-0.0027480286984989132,-0.0022735602222657757],[0.004858756920666032,-0.007755341576798353],[0.008629122542330395,-0.016112439701469982],[-0.0005339524551976166,-0.00163862616219831],[-0.0030166666565316813,0.009599860065734286],[0.002456732813956996,-0.001898181097308202],[0.004550350257240659,-0.00038177017831958666],[-0.004160923725423966,-0.0038543348010042547],[3.4158695904716997e-06,-0.010174345757771451]],[[-0.003540288365820611,-0.03845818672540592],[-0.004357044983911657,0.0016099725753488494],[-0.016864501419139647,-0.027242707589238923],[0.003308282454235642,0.011816291187561256],[-0.0034828851951878574,-0.0038776600911541665],[-0.013725636419011918,-0.024005496371751395],[0.003948302184337226,-0.002748882904389242],[0.01838433949117164,0.01497207549814974],[0.026605769204172694,0.05227661095557376],[0.001251088553695997,0.014371870350691419],[0.0073279491621247896,0.01923039484316795],[0.0033940347156714273,0.024449899315647915],[-0.006252457859756297,-0.03638061827231518],[0.0003133232891612412,0.0044626956441050775],[0.006829173084378136,-0.0030655739626824245],[-0.005980589067869987,0.010541077418509293],[-0.0013216072134442703,-0.0063748443905701745],[-0.011053927914481454,-0.022260824304160667],[0.0003546531413275918,-0.0036373028034887255],[-0.019501285532498393,-0.05527481611646025],[-0.007881400521515881,-0.010262702940794252],[0.007723412431605065,0.01375220931072981],[-0.011958869384886805,-0.028971275617381144],[-0.005641342668046228,0.017898301560202164]],[[0.009606855295844421,0.0007603487747403102],[-0.0005300303929451732,-0.00033513509187367736],[-0.011091529097005465,-0.0011348948450008395],[-0.0029736992745026105,-0.013300529257808261],[0.0023082634167077586,-0.000939916104631164],[-0.008661784083415528,-0.01427496562269219],[0.015581014951616444,0.00198340000067747],[0.01997083627403758,0.014312523922535467],[0.011191323334309647,0.009905132809172908],[-0.006698448049883286,-0.012522091714626763],[0.0028234184036222223,0.001289884380263538],[-0.00882331142814395,-0.008312549656830344],[0.014231927612319404,0.00909064409291026],[-0.003103820931967103,-0.007821485857179601],[0.004034418280463799,0.010374123346165168],[-0.006340578409954917,-0.004389795755425144],[-0.0056785229259628525,-0.011372703865815972],[-0.002005586682940327,-0.0011394603900205707],[-0.004395335359589322,-0.003935820413616901],[0.002582875588654809,0.020050742369267353],[-0.00597223649515114,-0.006464496815696913],[-0.00484937760628759,-0.003875135460871507],[0.007633683213482231,-0.005291103393233006],[-0.01797862512994289,-0.01763164694831858]],[[0.004379296947650097,0.0004134837440971767],[0.007365343498949762,-0.011939590864489107],[-0.00016594183243364522,-0.006017140230475598],[0.004718454584125719,-0.006992773930236154],[0.0033096952814672476,0.027271292012824855],[-0.004511409873838917,0.003050304333219478],[0.0029689943522466164,0.01928785124263985],[0.007228694948539517,-0.0068406030795172225],[0.0063406502096422694,-0.0032206548420866815],[0.0010837227255222376,0.013152513911879802],[0.007055447806788011,0.002483160089833246],[-0.0025161488341955995,0.02778744475164522],[-0.006476237154487895,0.015022373265899492],[-0.0054020413051499025,-0.006372712301600846],[0.004700056949595504,-0.02876977972722207],[-0.001319475298670479,0.007092119671723497],[-0.00480769934777767,0.007641426761242194],[-0.0006148300582347398,-0.03483471397557437],[-0.001515568904999381,7.594176135690565e-05],[0.005795793469209301,-0.006721525818382982],[-0.0028707358208255726,0.04753297510461711],[-0.0002163970372318073,0.010127625358086804],[-0.003416721526873751,0.023203560664513723],[-0.0020461745759711445,0.018535779247373905]],[[0.004243568716302418,0.002291768759351277],[0.00416301808543139,-0.001171237963112113],[0.0017563453322165358,0.012930146688485694],[0.0003754393976109389,-0.005118849475988697],[0.0009681772216198388,-0.0028390753534155624],[0.004389189322059986,0.026289191124880557],[0.005466586922196333,-0.01914192466247499],[0.0024799100331905936,0.015732117240978293],[0.012280517905259448,0.018638228774695453],[-0.002658072012483418,0.0035033402326129686],[0.003655366987142138,-0.0157510681448029],[0.006753535961645453,-0.008889946606628497],[-0.0016715927281097931,-0.005632693409068701],[-0.0012360973866166985,0.008099915028139155],[-0.007715629427797365,-0.011935702056784774],[0.006464136391362674,0.026652898211742954],[-0.004801031902586994,-0.016486932460646225],[0.009092565238218012,0.01706744993389852],[-0.0009978275600006443,0.0003331243319579398],[0.0036329415551137846,-0.005590085085827934],[0.0030434601986702526,0.007776099009346467],[-0.005505862894700742,-0.03049981926652269],[-0.002497241708976764,-0.02076160349425471],[-0.0028227828616384535,-0.01577985574121702]],[[0.009276297092545923,0.012048018273844245],[-0.0022683284438709712,0.0005885215058880951],[0.0002907666448497257,-0.007490671478711508],[0.008867566512826415,-0.005140320248801875],[-0.00264961309938413,-0.0074133197133877445],[0.00591087265002144,-0.022306716005001708],[0.0069379950860075715,0.0014620121095705993],[-0.004090801798929845,-0.009883747046019412],[0.006331606161134037,0.0023141345101834335],[-0.005186039621504703,-0.009632286611246987],[0.0019815912401552295,0.010995515981529903],[0.009423292948646935,5.704812742060247e-05],[0.0010251751845143584,0.00665016126363871],[-0.008769422131869575,0.007869576192550928],[-0.012508986562513178,-0.007998262121778961],[-0.004948132194766084,-0.010091133611739498],[0.0053498336930745205,0.01262163112097421],[0.010545797621788314,0.007465139117501122],[0.0013858091589891456,0.002206438794347091],[0.000624233614124878,-8.947202007513421e-05],[-0.0020878027106605284,0.00048427979167652685],[1.119260791973362e-05,0.010409115828857212],[-0.003925414382263586,-0.0007604536085195215],[-0.0034897486341890363,0.005303377921390585]],[[0.010529822326773559,-0.038689579032167076],[-0.007375696537848312,-0.0032912809622329185],[0.0025169111298477763,-0.004846282626606907],[0.006219279910325985,0.02963410221637496],[0.0011825123526201238,-0.001516182949986244],[0.00198694105556816,0.022051844544029392],[0.004294977634877991,0.0070128286536654755],[-0.0008640939996990604,-0.009616679391166127],[0.0006390545063958708,-0.002885277174547829],[-0.002244921354270362,-0.010870382457137303],[-0.003928050366452107,-0.00959689107622788],[0.0029269197488136327,-0.005556470540715494],[-0.004843344089990235,0.0006033064656961398],[-0.006739917765535158,-0.03603236715420805],[0.004097974263324082,0.009072500922419176],[0.0054630601124361034,-0.008593063814384093],[0.0017318978415553773,-0.01810634106922227],[-0.003740332608829633,-0.007286611465358585],[-0.001712839771726518,-0.02458055841938548],[-0.0033757112764348316,-0.0024124324593157182],[-0.00031543882052405395,0.009719783500555645],[0.008195565201816869,-0.009409172798990702],[-0.009538856178011278,0.004858012210304082],[-0.007989564418196602,-0.008832072891570529]],[[0.00725362749595122,0.003164632429642075],[0.0007268414452482095,-0.004513096570599117],[0.010129174731045779,0.0003326009943573521],[0.001047620249006432,-0.016400341248651553],[0.0004627308474790886,0.020923305903795694],[0.0007387367094306529,-0.004934501638471898],[-0.003907087220660763,0.01093041580386339],[-0.0024158149445290306,-0.0008314346963263412],[0.0034933666868073193,-0.013052704475370143],[0.002671291067167028,0.0017932380890776916],[-0.001174575334080438,-0.006812451040712934],[0.012063293616895879,0.018818053403404842],[-0.004190764269903605,0.012244456528630073],[-0.008977327034081741,0.01565073893989841],[0.003637268666278822,-0.01627458486464435],[-0.006107714107927372,0.003476805126435451],[0.005123001210584521,0.0037149013995111356],[-0.010196441210164922,0.0017816986315149412],[-0.004594281422788981,-0.007986812904781846],[0.001595350509910289,-0.006138225956388417],[0.0022245365711179937,-0.03454081376772779],[-0.0015139711899224107,-0.014895539038273481],[-0.00809325503085765,-0.015038432426745529],[-0.003366612993034208,0.010902954880364128]],[[0.0054634835064374275,-0.0020620402117493756],[0.0005064297725160931,0.012473990845563339],[0.0010899358464855503,0.00034861254975075386],[-0.0071232103500508195,-0.0116386451259348],[0.0008525688256328564,-0.021730645453214594],[-0.0018075283119103843,-0.0019095380584505744],[-0.005459665942239118,9.401300104556626e-05],[0.004893559087044168,-0.00828589525017553],[0.005774507180803032,0.016033548786152766],[0.002793670385321647,0.011245794916596339],[-0.007933070392791635,-0.021077995357309923],[-0.001228374059324123,-0.024325394831303214],[0.0032164478586689227,-0.0028242231908080996],[-0.011945946724135296,-0.030474450794580003],[0.0038813093119932337,-0.008815679511851443],[-0.0012451247980899136,0.012920114805879769],[0.011086219174336007,0.013158919984152072],[-0.002258424940893189,-0.01060715702719915],[0.0016450160944067116,0.011160747217087524],[-0.000783285803842866,0.006053116604792316],[0.001294496535070098,0.003994153860361347],[0.0002104351201910429,0.023341347759496343],[-0.0050273080150411,-0.002890560826831475],[-0.0008805451013754617,0.0009510400906065286]],[[0.00026381050505835013,-0.007441125040821369],[-0.004625905613681034,-0.008053349252596069],[-0.006689862874355733,-0.0006335422646145039],[0.0012984781139031986,-0.024026323347464764],[0.0011319877331040157,-0.018398929917723548],[-9.03594478236951e-05,0.0016652280444751308],[-0.0029577207388566257,0.0008195355927492603],[-0.005526996006965368,0.007340004651275142],[0.002885690491069443,-0.018877984548604926],[-0.007047114222188456,-0.009721592220420646],[0.002889456105983253,0.010964171583228972],[0.0028524117270791144,0.01434742541820512],[-0.00025456102070978766,-0.00025262305278248964],[-0.009539799970004174,0.010717941365681351],[-0.007552814836048886,0.007621968231062831],[0.006412513412467978,-0.026996696605482262],[0.009770253706685087,-0.005720939923473106],[0.0006679655300363234,0.010965724708991402],[-0.0018833057649053292,-0.007941655593087514],[0.0012879000393532746,-0.01987089129979756],[0.0018501605666640171,0.022549997166320043],[-0.006100200915373293,-0.01546256812357777],[0.0023342743315113673,-0.008439223162460683],[-0.006983226414676307,-0.004683819872838331]],[[0.0014002226196530932,0.0016115284176158452],[-0.014246549286722336,0.005045720863474338],[-0.007351060782688613,0.00379243931587362],[0.0057753192920819586,0.010108884819860716],[0.006457794682110194,0.019113694034672557],[-0.0047095363515371235,-0.013530604357782264],[-0.006410188338776294,-0.02578697365152387],[0.002405455896463099,-0.0049360813462690535],[-0.004187825319707397,0.010736019958409415],[-0.010087561247668846,0.010987540331175494],[-0.00037446641009813834,-0.004023726935057027],[-0.0020212566638821033,-0.0069983166776300355],[-0.0019577255364509713,0.005357674421093442],[-0.00835907986324121,-0.009294899790358],[0.006913969537894962,-0.011246183834651447],[0.009758474373266018,3.671678418485634e-05],[0.011490244975188104,-0.003326236088709203],[0.002636477572155061,0.007123562408728583],[0.0012218083514059365,-0.020817671883066734],[-0.0022941177967786964,-0.00012845659054941874],[0.0017113616236767385,-0.009475902169326906],[-0.0037254580378380826,0.007466227727511467],[-0.005949109341989108,0.016392060264436303],[0.001368808076940947,0.0013503608194202835]],[[-0.006494247591802553,-0.020179561238077258],[-0.004842656067666132,-0.01703496670395749],[-7.049373468417579e-05,0.0037536394733652667],[0.014666327043463611,0.013182268871376357],[0.010816603076184216,-0.00540493409378084],[0.002679949168335141,-0.003209269307956304],[0.0029715399027357057,0.012800072074831508],[0.011223955698067231,0.012715098133889699],[-0.002336396356633064,0.004722662324507458],[0.00315148388213592,0.00905947765148038],[0.008631232914021077,-0.00827414117222453],[-0.002109428161925829,-0.0003131692757725335],[-0.0034688427738174188,0.008382741731885359],[0.0018092950955917592,0.004775362405673733],[0.008790561888515744,0.0005359327240236487],[0.005270695952798143,-0.012793461354594938],[0.026411005508480367,0.04545908459090745],[-0.0008665041752156876,-0.0037899055045140305],[0.009999233195738397,0.01623115926830514],[0.011711374504941485,0.011672436213499915],[0.009098342704153396,0.00797168117401686],[-0.01577471232388989,-0.02087504888304231],[-0.005633259929860228,-0.017444050413769747],[-0.0027398072510361462,-0.007212479414569603]]],"a":[[0.0004685502197446397,0.002022488712166133],[-0.000707871769462069,0.0040087628561958424],[0.0006761439341683792,0.003241827196825667],[2.4356153250890343e-05,0.0017107637017507846],[-6.661681682047217e-05,0.001768490803947036],[-4.704364639209418e-05,0.0029472033979491513],[-0.0013230388438901595,0.002646533971324958],[0.0004515596138824291,0.0024533918420228556],[0.0005448146687668977,0.002676900270830835],[-0.0013253600177226313,0.003297989192647139],[0.0003015633008944273,0.003806118826034985],[-0.001292284493880341,0.0027957839446810548]],"b":[[0.008463486128061845,0.009248371113012264],[0.008001143232167421,0.01778570864368008],[0.0009921078087565336,0.005120362891504195],[0.003445009582074011,-0.00778518433467185],[0.013558916488565814,-0.0024578872966711397],[0.018043854690854882,0.0037089301447339085],[0.002018435447262312,-0.0009713016189298932],[-5.7436533244217185e-05,-0.00064012214713494],[-0.001041295922834978,0.0054221116223574055],[-0.01363385485856083,0.018714053642152333],[-0.0008968954052066176,-0.004907218228852649],[-0.0025991056932734347,0.013119638029552292],[-0.009183425627148285,-0.0034107107663309258],[0.0011287576348279543,0.0065252378116069714],[0.00507761638618192,-0.005078512805543008],[0.009664580865688907,0.004430437721425641],[0.012852649397258237,-0.0037153491522979036],[-0.006682019158253402,-0.0005618962548250467],[-0.0014281794927319877,-0.008279968927174097],[0.0016063171735446792,0.03466329873723293],[0.008556015926810235,-0.010443328803615912],[-0.003688068382417675,0.006989701580631915],[-0.003265997535958779,0.0037760512155909903],[0.004684444808876204,0.007580217878207646]]}
