{"Name":"RbmSpin","Nhidden":20,"Nvisible":10,"UseHiddenBias":true,"UseVisibleBias":true,"W":[[[-0.023505671177333966,-0.006144397058651681],[0.03697368643300703,0.19852393138211744],[-0.003978795578551297,-0.006402336291322489],[0.025503122589260265,-0.029232115539576085],[-0.10069548522963119,-0.060802989907403765],[0.016614905207787866,-0.036656767858235684],[-0.011138186099245303,0.0033357869562506055],[0.030219841726524557,-0.03795471754694037],[-0.02093115635422277,-0.02878347830538879],[-0.0005929083701312101,-0.023488200432249886],[0.048326408240757235,-0.024458810296092467],[-0.06028707162475408,0.024291075681773883],[-0.037394300263211874,-0.031068547539231516],[-0.04628735019564034,0.030754663636817232],[0.008568742892506514,0.01759456927721492],[0.038791524080768296,-0.02024429425655429],[-0.06392973457860726,0.005730099205082015],[0.08496024480860613,-0.04664252129406913],[0.0769741936610753,0.023301356796494546],[0.028515889110094117,-0.09561891856036517]],[[0.05465501095205959,0.023384088712678303],[-0.07611105934021437,-0.06157736995213023],[0.04587413827365837,0.006554516538226529],[0.048161704571786854,-0.08843493195607476],[-0.013445118854776294,-0.014288827963423237],[-0.06756882478082513,0.010466191283999919],[0.016975252276100982,0.012354162145704239],[0.030770557656955008,-0.04269181631275597],[-0.035409135919823156,-0.0031687902602250185],[-0.008160835513564477,0.018984067777720683],[-0.005365727123875364,-0.02065966377564188],[0.035061195872046716,-0.021208113501886304],[-0.022392823266591706,0.02866463240575794],[-0.04985581479447571,0.06228098811301593],[-0.016477170938604846,0.027663956324390386],[-0.008070691932979091,-0.020004286030735823],[-0.03042009493687473,-0.013699813428167555],[0.039504546299776566,0.050173306606190723],[0.05798317486744569,0.12364511650253623],[-0.07686233590802483,0.08388760970403757]],[[0.14296237625705072,0.1557175330411709],[0.012741971149344913,0.00014074230993203155],[0.023335100536924003,-0.052487748077766065],[0.027986560794251162,-0.0267587528856432],[0.0216030164880889,0.022646791528886673],[-0.11430930384325616,0.10243720954536552],[0.044168562089117416,-6.19862550057586e-05],[0.024670420520024806,-0.03954834749723161],[-0.015694391675481496,0.0011340679791437538],[-0.008718017309478061,0.016282401265843405],[-0.012979797139804293,0.0635752760198141],[0.04700979927527873,7.777793569020865e-05],[-0.03152021595563009,-0.03372868740780617],[-0.04723111865385967,0.035274055054433345],[-0.03315432847205547,0.030568735267929633],[-0.03789477498229995,0.0057220655499092945],[-0.009225207059563622,0.00845819182415795],[-0.02005404065936136,0.017844338084292966],[0.04617948656423972,0.0051597840441869516],[0.03614457133281625,-0.05118347775065212]],[[0.04449748919963735,0.0190750291504545],[0.02247847828770006,-0.013269845141676754],[-0.004183244362880343,0.09066921372664857],[-0.06387896713848755,0.007509285737485531],[0.028986817512094202,0.006085959798464599],[-0.05942418472575296,0.010583061802894176],[0.03637740614905143,0.02023791028862471],[0.02915764077256667,-0.029298487191282585],[0.07188554818781384,0.07521828518055926],[-0.007162618718833175,-0.01782504596304577],[-0.06334677496397348,0.0009682941948129585],[0.01936924826675294,0.0894792627109382],[-0.02800036318527462,-0.006028224989272685],[-0.019208239378074275,0.03064817842260631],[-0.03062978965721671,0.032830297799166096],[-0.015644679370154062,0.034885166010483186],[-0.0068146221165833075,-0.038263543346497626],[-0.03075818022076008,0.021219575988088154],[-0.01947171203123133,-0.019423070109296413],[0.01486534986111782,0.04144024033379165]],[[-0.01342806785705934,-0.03793605839672348],[0.028135226725874023,-0.004213388993033552],[-0.022806557407401843,-0.005691461405836039],[-0.11812888792653183,0.1015558018712621],[0.042312399645660866,0.038095202708627235],[0.016048199910778393,0.004831012611206322],[0.04646456927941974,0.007932534301940903],[0.027756727388096505,-0.0342171182965003],[0.13027688994051323,0.09452475227145422],[0.02820416840489841,0.023540288575333745],[0.017586002653872796,0.058457899659418756],[0.006790849286099315,-0.023181196284391917],[-0.02623040949304056,-0.05816571547546712],[-0.006968182817371452,-0.0001798892276134971],[-0.040803627998447244,0.03160213519211723],[-0.008433941792101244,-0.05045479973708753],[0.004233074752663852,0.029599724397046726],[-0.02275176563647135,-0.008096331031219416],[-0.017373852890717877,0.00860111423871665],[0.0014869546050829943,-0.015184945433300477]],[[-0.03214799900104931,-0.023165724746381004],[0.028374390595043944,0.003579002245019282],[0.026790749987450502,-0.004018470869828756],[-0.03620627087949879,0.022244950369813617],[0.0675280410050126,0.034957548734573025],[0.03982419288707767,-0.025246633917331028],[0.015998101786932877,-0.008347118120814434],[0.03149086667979444,-0.014193184919096094],[0.028339402209061663,-0.009695039009706653],[0.03676100336304416,0.051328650687903384],[0.05039073910652421,-0.016613496922102452],[-0.020419352332148328,0.011893985622244337],[0.03800901298440462,0.028950562113600947],[0.08117152044094741,-0.03513746108784538],[-0.03407640643978295,0.033827812489534606],[-0.03296937325571685,0.06635665903763452],[-0.013322971207952039,-0.08042719156056259],[-0.005231166933361947,-0.003880994369912019],[-0.02542387764119965,-0.04649734935034501],[-0.018778289675980657,0.004135578963727648]],[[-0.045690060570650004,-0.04187188666122647],[0.02682351631099781,-0.0009151931470569861],[0.02820225284488532,0.042002438615280295],[0.03096034508993368,-0.01626752179926939],[0.049027470481861755,0.03677390684430898],[0.04850752266987613,0.008696864647735456],[0.0005109075254901517,0.00557709566656249],[-0.035127771941324895,0.0262810761584938],[-0.03357977743389857,-0.02670628541981354],[0.05222465340626311,-0.0016310125638292674],[0.021166097251694525,0.005963301386471622],[0.008860652694654077,-0.0376012352209793],[0.11518715935673045,0.061471352290070926],[0.09049210173678313,-0.15190629160269306],[-0.03267596222066272,0.029070663370370894],[-0.02587075536963067,-0.031318718055819206],[0.014065370235974714,0.029115517253345862],[0.03922274515454527,-0.028229214924307165],[-0.0531893526352758,-0.0013886376568194778],[-0.025988805942007198,0.01139411963389444]],[[-0.05276049645075667,-0.05942781309844048],[0.012078052784300464,-0.01109413261086398],[-0.011421938461117961,-0.06067515718066089],[0.0518146899318575,0.01244716213570425],[0.02946798920142676,0.01572922549835345],[0.06554139841070537,-0.004758692979874855],[-0.042390063348326644,0.06960764738177287],[-0.13938278970034176,0.14536562543561618],[-0.06080030071527969,-0.08422720927771123],[-0.041474915279847493,0.008926238109608612],[-0.02695906386275345,-0.06317510612039547],[0.0068650610354998864,0.01740266986448922],[0.03981560335774326,0.018961539024305925],[0.03185433954788687,0.008621112411266599],[-0.01113192476268571,-0.01219551792041636],[0.02264299353649451,0.03250577387444554],[0.08162407881094827,0.029652322008496573],[0.021117237271685525,-0.02478371081570138],[-0.02231917951187927,-0.014389380036147073],[0.00406019184963529,0.003326447937780348]],[[-0.04123069635295999,-0.023657158154325397],[9.510272709868889e-05,-0.0051952184810610605],[-0.011124402656899172,0.010121778393958386],[0.022143854278878328,-0.02749960515797954],[-0.006554719802472192,0.010954809489206659],[0.04557760351608062,-0.050865023656616715],[0.0001425722998460429,-0.13560528620258686],[-0.051382308737486164,0.04097860485182905],[-0.02561450303651425,-0.03285350996511705],[-0.04277399977803743,-0.10408534865930037],[-0.021877054446610544,0.0068688550224101684],[-0.0340462660415662,-0.006210573914702685],[-0.01994573262502699,-0.03354342093494936],[-0.02026692100389473,0.022410779247832673],[0.1290966443404499,-0.019962158966562064],[0.015846634035144296,-0.018673774982592862],[0.036024984117767465,-0.004030082900135247],[-0.03154725531787024,-0.03808903530051627],[-0.01447250807107858,-0.011553494613164393],[0.02311708832584179,-0.004055934926937775]],[[-0.04161298721700888,-0.03631622107222565],[-0.08078937523022027,-0.049782494687403825],[-0.022908040274850838,-0.018982321021345994],[0.028962614892363566,-0.020334730531936643],[-0.07671843177753444,-0.11964134280366165],[0.0558800921671512,-0.023635308960003182],[-0.10400841649660013,0.035168442988285906],[0.015593470504516135,-0.023967149368208623],[-0.023939744281821922,-0.04186389531087981],[-0.04309801546355058,0.011236097222161318],[0.03318399229260536,-0.05704482351021477],[-0.013814613661578844,-0.0587471442364668],[-0.03847490660247777,-0.04014666653274371],[-0.029839566360369565,0.02137290086077848],[0.08014921287422966,-0.1781700857469968],[0.05821944571334059,-0.016108790887771236],[-0.03770633032187112,0.0011306295550810395],[-0.04811546916477475,0.027081586533128185],[0.003572341604963533,-0.008860831641795798],[-0.010008197805815407,0.02176330330130952]]],"a":[[-0.0013921113235738675,0.0022749490621583116],[-0.000836223100605244,0.0015520029528583766],[-0.0009986619560843901,0.002163341434231412],[0.0005461003959732099,0.0019178810504197389],[-0.0016816065701684307,0.0020513703280857077],[-0.001160979669876081,0.00203127053475504],[-0.0026061353147465824,0.0014251001688685364],[-0.002750449793829807,0.0014836559538489364],[-0.0008856099999388039,0.001769696569607275],[-0.00153363629664778,0.0007579385079274975]],"b":[[-0.003831558634247683,0.0012261409701817417],[0.002436268525333245,-0.0034181684935434284],[0.004599949593122813,0.005297249469242732],[-0.0008455750411911828,-0.002038904522569363],[0.0031439706986437733,-0.00045375375203741893],[-0.0025010668426483115,-0.004056145669570991],[0.0038265900119017677,-0.0044037235481662225],[-0.0023174315950279145,-0.005615007906224295],[-0.0028299406363656654,0.00011128489040891044],[0.0008301491817821505,7.812489741745389e-05],[-0.0012917349514559228,5.490371999564581e-05],[-0.005104480107619135,0.008715377370311929],[-0.003506467343667585,-0.0020237118524561062],[6.110022062583208e-05,0.003933002179196936],[0.0003826036045010479,0.005021263077603426],[-0.0009941928669949635,0.000887641459975908],[-0.0014975342006168571,-0.002286011706746599],[0.001508113470071184,-0.00025203996717183217],[-0.001028472171028217,-0.0028106215928681913],[-0.0016606318021854232,0.0007854615717530155]]}
