{"Name":"RbmSpin","Nhidden":40,"Nvisible":8,"UseHiddenBias":true,"UseVisibleBias":true,"W":[[[0.03924049349380686,0.14875836920527394],[0.09317970170263687,0.056668724940787195],[0.13370574306419603,0.08457448693577556],[0.09250177434496758,-0.06092652484149204],[0.07790995096380622,0.08705453361207825],[0.01656276712382601,-0.10532446622366404],[0.1707905533929002,-0.0774018686249727],[0.05147304590473396,0.04300097542081279],[-0.08993987309863494,-0.04570605497818474],[-0.03424550255941558,0.03648832349995214],[-0.0922366174205733,-0.1348450906286545],[-0.09905480758508069,0.12263365491285146],[-0.0572979448287893,0.03483462398107348],[0.09181143850066721,-0.12313802413366705],[0.07722921650678728,-0.08831264148254622],[0.0769444086048133,-0.006028196748275095],[0.03547902934197694,-0.03149906348919843],[0.010395927030432796,0.0014704118838778397],[-0.11375635336141203,-0.038074607842349395],[-0.012834906214062811,-0.06884327609847536],[-0.030184733154901906,0.03002514971363091],[-0.09045145052021264,-0.03728418002964533],[0.13913172087359887,-0.06365051779731969],[-0.16256917593700326,0.021430301757178152],[-0.07319163949717053,0.17418167528740178],[0.1615275695496568,0.005395485876702902],[0.02649845755383713,0.24558306669473293],[-0.04657634668404399,-0.09835257428015509],[-0.01667924517483268,0.029965392858148067],[0.06071131849160109,0.11473818824268743],[-0.06785307388704963,0.015485966880566342],[0.03852310954681587,-0.10486378210423297],[-0.15973006758340363,-0.0944057232536982],[-0.04902141848043102,0.15533304559693847],[-0.0037180593827732186,-0.02983203220501135],[0.01688024475022922,-0.14937954512540488],[0.009206053006330274,-0.050960723531476335],[0.1033789335252577,-0.03383697796146483],[0.03254872839958362,-0.007492782973527736],[-0.13819393133955282,-0.02222342497590161]],[[0.05040142331984597,-0.19468818991335982],[0.20331762259471825,-0.05696269063128325],[0.13055358879525408,-0.06917561092160655],[0.0268575479251531,-0.014588707487799757],[0.0310820586880685,-0.11639571223142421],[-0.04874534673122817,0.10984108698538628],[0.06862519622813237,0.0708195013353626],[-0.0191127772916909,0.05045765256934398],[-0.06787438857658445,-0.014734238986414199],[-0.09879926823630761,0.010455349925829475],[-0.0647556233716931,0.09910484376239338],[-0.1285234459603317,-0.13176650367030016],[-0.16892636848329715,-0.01615215770845211],[0.13788828773430292,0.12008940799741366],[-0.009152930994535789,0.023716830797012596],[-0.03237728370939368,0.027637386750943706],[0.04853283007525807,-0.05537334828774748],[-0.047199616441708774,0.12524916084456514],[-0.12852960095573385,0.0037123039478822607],[0.07479908222076968,0.03954662337454106],[0.039092980372082795,-0.010296051745450912],[0.03308860819627099,0.12587134650787818],[0.06546763815950904,0.10758038470329986],[-0.16657235232958925,0.02989267046104105],[-0.04068233538710074,-0.19307057578717252],[0.060991784180995795,0.011730418031552923],[-0.012144267870883298,-0.22464926024905338],[-0.030895129037686663,0.04611999959753261],[0.07581678995192666,-0.06376917855809389],[0.04323276580649628,-0.086721890660634],[-0.1191041380771742,-0.028130795299967398],[0.08265479682724147,0.02413865547555763],[-0.1751075372136171,0.09327919924179003],[-0.06189852592186106,-0.13279919337911347],[0.03536944124685504,0.09337185325005017],[-0.044761540493124155,0.015673891352313177],[-0.018559982252409374,-0.003785088191163546],[-0.001616048631774243,0.08109258867213207],[0.11150505698147985,0.0698553339695407],[-0.03056016615743388,0.050225749408874816]],[[0.003234907033559407,0.20040567708115714],[0.15662755294573574,0.024498765173370792],[0.05685321373927984,0.03775994737526644],[-0.057283385575098385,0.04886827298521975],[-0.037775933579146145,0.09378112934226743],[-0.06089909090589837,-0.09706081562766913],[-0.050351143727122606,-0.008687410968175494],[-0.09326579406705207,-0.09722193823593842],[-0.012271214752246289,0.03256277503521422],[-0.12870655241059742,-0.037416287242811284],[-0.033216112548465175,-0.05498994671968523],[-0.05719650831612485,0.099471114271999],[-0.15949477532647205,0.0016521414730428017],[0.080014305539561,-0.08762525436526646],[-0.09880682831126086,0.09182440997630407],[-0.1957586836903,-0.08391022354700185],[0.03901012903609284,0.12091594014911544],[-0.08962857348778415,-0.215458104277709],[-0.06540463209992928,0.08697205179377487],[0.11707430962556005,-0.019993507519030094],[0.11984061904514783,-0.06505436564326768],[0.1347827104009129,-0.13532932042619134],[-0.0021668062818771872,-0.12215243384079134],[-0.04741400148190657,-0.10533050245422644],[0.0063165932939434595,0.12541925217253008],[-0.05895949263234819,-0.07377990146447538],[-0.03300152340364951,0.15203462712724503],[-0.0016988304773483303,0.07369168021030853],[0.1268105883016161,0.05741977364007736],[-0.001851801902022324,0.028665736536358625],[-0.10499804606113224,0.023399412556409968],[0.10467083922130035,0.01751082941844108],[-0.05058575030114263,-0.028231851411072068],[-0.038197454806651474,0.044060976411326065],[0.028944670893889524,-0.16500508548613127],[-0.09581522344747932,0.05491239163631101],[-0.04791560708977825,-0.019557961395388547],[-0.07742733585132193,-0.028332255563483896],[0.10582071866704144,-0.07732338359774824],[0.06949459422978088,-0.0408668138801383]],[[-0.04336145397618275,-0.18780266336479456],[0.04254635818097697,0.009646779426095362],[-0.03459823034927089,0.02714454212439818],[-0.10144777057750728,-0.05023644152291551],[-0.0861659767186133,-0.04944049773202009],[-0.052127574670693004,0.04153248959655418],[-0.14320822413668702,-0.06302134930252878],[-0.11333655950760284,0.11206444852174256],[0.03251639380762577,0.00841155394439455],[-0.09748252377470304,0.045730465486990265],[0.004058316555332819,0.021326158603754145],[0.03740305903488435,-0.04696611464064215],[-0.04718311680809698,-0.01488750765311902],[-0.017321340111394804,-0.004900491042459325],[-0.1392539044545412,-0.13438815238098037],[-0.19900428330038222,0.09521682948332132],[0.00621511860760334,-0.12961533460255303],[-0.04170871783151564,0.20592790025448232],[0.05597738480467331,-0.12128601391359285],[0.07263364018610162,0.010026739017706256],[0.11298866428686494,0.13018958592214597],[0.12966908411707145,0.10065705298146213],[-0.061909052201312514,0.09836694106462257],[0.10438964700962819,0.08436837396444534],[0.07371338216360394,-0.025787170267409173],[-0.1736956420764741,0.10588927358576584],[-0.05184167125117292,-0.05101921597757932],[0.011013621450498669,-0.20217380906983135],[0.08857446695956418,-0.020715259012694578],[-0.06126748487822965,-0.004599228121228025],[-0.019993999037642502,-0.03411318221717344],[0.07395846623620941,-0.028134259672742825],[0.06986035345321272,-0.02710487503750915],[-0.021155208558020222,0.06364431053005924],[-0.005702751354531346,0.1776324633267675],[-0.06912060611636635,-0.0629713023075693],[-0.04902976299502889,0.0891334231187494],[-0.12566676451473177,-0.038125931082856],[0.03662213591376845,-0.011234388858706038],[0.13542694130859204,-0.004674308076238348]],[[-0.03677958261863558,0.1486675754627074],[-0.028390205276395037,-0.028125201396104627],[-0.15063255757715002,-0.04279448240344075],[-0.0775253542793878,0.00853563061632124],[-0.07643981529817377,0.0006940811310267882],[-0.03585586817133422,-0.006440964678628575],[-0.14771934283418833,0.07150867199554597],[-0.056723239662495144,-0.058501036820714045],[0.07140009019301569,-0.0771239848518282],[-0.009825584149651543,-0.027479079352197917],[0.08803483183817663,-0.028906833553532255],[0.09021896064531702,0.012538624909632602],[0.05496357405724512,0.06361091263547773],[-0.08310013548313351,0.054272238131321746],[-0.09768822477794448,0.1436371657806195],[-0.03160951506792337,-0.08752667390056325],[-0.03822528069162562,0.06513927859875637],[0.0400889091143628,-0.12585126289958884],[0.1685695787869832,0.10067536147296281],[-0.004869924788501603,-0.025039601074824464],[0.02071833154205888,-0.17303826867294678],[0.04701290782763856,-0.02536907440167088],[-0.13637385584484374,-0.054268786706707296],[0.1766915640680004,-0.013122847964443655],[0.09872277937520856,-0.038208588091330965],[-0.15871491020064415,-0.11761282391697404],[-0.04579401403158656,-0.016929318078576765],[0.0194548436047688,0.2534098511108791],[0.006847029622672626,-0.03898328131238298],[-0.0803914484836199,-0.001192539780128176],[0.08717035877895088,0.03904183178797028],[-0.013649130569140216,-0.025974354788414422],[0.14986914675952084,0.024247811327051953],[0.013749526665764672,-0.14059484713212295],[-0.010263156091045583,-0.1524223178434695],[0.008451772755288287,-0.001190716458275621],[-0.008043282551985826,-0.17290608374748753],[-0.10877795999930968,0.08600079286797827],[-0.015694407409107144,0.16574631770069084],[0.120948815747501,0.0316333806394042]],[[-0.01440136894212701,-0.10309651304869132],[-0.16908729781400061,0.004352850778837197],[-0.16831948041978645,0.039670886699797805],[-0.01816298752035345,0.042130561987789146],[-0.015450716075724825,0.036465779430653336],[0.01791775709399129,-0.014750931295368726],[-0.06619769836593402,-0.07684295094436012],[0.02397265517846054,-0.012031484843230444],[0.08640430200997837,0.1252874675842153],[0.12401351364907051,-0.022873300703221005],[0.12640648384934344,0.06145817578457982],[0.09852511107289734,-0.009459084589812953],[0.1435011869927021,-0.11603825178544476],[-0.10294555568010916,-0.053637676298413296],[0.0029493244398751126,-0.05735677607994476],[0.08600760246853617,0.06819837481524806],[-0.06794427940946837,0.02420209445815753],[0.06369549641447167,-0.014663732767390759],[0.13650376160222336,-0.05351289104555542],[-0.06298698539765295,0.05308301018727798],[-0.07562770450221634,0.15259410767487805],[-0.020151485338038753,-0.0653966353946385],[-0.12200327420090165,0.02009271838779121],[0.12318683209951255,-0.03061528805304371],[0.041908478994005474,0.059723865232424],[-0.0317215198553811,0.06871368423122547],[-0.003199855335846725,0.008344103855969641],[0.03515383747464335,-0.20584345473777188],[-0.07132991866285057,0.07583379621575835],[-0.038779934514471856,-0.021602582094536846],[0.1237489150401742,-0.052331695121483064],[-0.10421638744103387,0.11446970148472799],[0.1428681023078294,0.0030248526962734544],[0.06722111215395032,0.11115049949737266],[-0.005221786128024392,0.0656701426713981],[0.07919223676270479,0.14017735683302163],[0.04509171534826712,0.2270863067370959],[-0.023370157331030036,-0.11098924465051867],[-0.07763306894159012,-0.24205078879820238],[0.04077211030144778,-0.05886737880793041]],[[-0.00927210033517108,0.08408512682903524],[-0.2088474722166665,0.011761532490395311],[-0.057782840375195814,-0.0024405278047672056],[0.040742863770690044,-0.09907036019863331],[0.047328638977116505,-0.018930622414396855],[0.09517185167859614,-0.02609050771765066],[0.025730001863567928,-0.0014505559792337148],[0.08962277170549429,0.07718385661023097],[0.03718094482747338,-0.1490051802114897],[0.17954957805147354,0.04365271298809034],[0.05046873184462835,-0.09212902782499023],[0.05914959782693512,0.024632814631938223],[0.14846336053869466,0.10244794041502063],[-0.06564990126744644,0.009320325344674993],[0.10084420560316516,-0.0420347641902388],[0.1433318940796472,-0.02056471279470731],[-0.054269419045886974,-0.0897488745739797],[0.04381536960033723,0.09451030416889314],[0.01705891028725806,-0.02883791352370262],[-0.0928180849243223,-0.07533889569785683],[-0.11400093292913621,-0.09628482499115817],[-0.0947379090809284,0.056898988725821914],[-0.004980615011816945,0.02739237777906158],[0.01454077456835212,0.1122479563494905],[-0.04527109987844515,0.01257454754323969],[0.0753616592889649,-0.023064155857560557],[0.042077043900260236,0.0959626650114589],[0.028472976764989083,0.08393970383776152],[-0.12714651799230361,-0.0676484850346883],[0.021611137827493628,0.06131905858396882],[0.06373930475926821,0.03959217446272236],[-0.11131119958076072,-0.15642050452117448],[0.059724090305827586,-0.037453218680718665],[0.07487041061251308,-0.0280158805302955],[-0.020768024372962424,-0.011797275072503817],[0.09081664276483575,-0.21640897812410953],[0.060348480315428846,-0.21752493328443645],[0.09339390856098059,0.06074519435386007],[-0.10808741506189913,0.2353126265967897],[-0.06102227493938242,0.03466332982491957]],[[0.005508408041395578,-0.09201770141305152],[-0.08074835633507925,-0.03617783339531176],[0.060150432955695304,-0.062405327116368474],[0.0953501606961721,0.08110198651329205],[0.08848120701560917,-0.039371594322939185],[0.09702082333624595,0.04849823488855749],[0.14369353857430175,0.06325143920181701],[0.10401905316326353,-0.07075932261013612],[-0.046481526026602014,0.10840733196075075],[0.0874980432743061,-0.05533547614419887],[-0.06311633560559882,0.13639963998318488],[-0.007590610049309424,-0.0833090862519724],[0.0584150714927475,-0.09211443624210257],[0.00037338297882986114,0.06871587313319791],[0.1389593473283808,0.09573438184070505],[0.14322992452321068,0.020451166732871492],[-0.007405105248700869,0.09397315122686119],[0.031132769915787666,-0.108495606932527],[-0.05729543293955672,0.08763082433515917],[-0.08023510151557461,0.07739807752320364],[-0.08874058704439236,0.033276442163181104],[-0.1456909067447235,-0.028585470847093213],[0.11966696070729976,0.027993997814700727],[-0.061359873711132,-0.08053789079770374],[-0.08309479515419667,-0.10846484665074414],[0.165007430467403,-0.007878250831099455],[0.05773878739753334,-0.19492380922560218],[-0.01907606107111377,0.054647882861140085],[-0.10382956300119021,0.040834913056313454],[0.05895110803532299,-0.11188694014640911],[-0.011472909025955727,-0.029869205503467815],[-0.031995713254172484,0.15813283702969486],[-0.03792585825578324,0.08624913974721879],[0.018883416886929624,-0.09268822877940915],[-0.03074577820957566,-0.01597822429324806],[0.0595372043170778,0.22178358425870814],[0.037668008101262355,0.14762584354277192],[0.16035740939896553,-0.006898294160895206],[-0.06872472094326218,-0.15370330608142305],[-0.15544325873194884,-0.0037601662420780678]]],"a":[[-0.0016528493790294399,-0.01714747155357577],[-0.014421235357855486,-0.004998866144493622],[-0.006902574871377582,0.0062028404988526175],[-0.011098856226878276,-0.009671564189519885],[-0.0033775960106871266,0.013104774912889765],[-0.006496607208339302,0.002574056022966181],[0.0016678810610994787,-0.0031287108055863214],[0.016003571217150694,-0.012537827508429253]],"b":[[-0.011824061219293039,0.007612225110678272],[-0.003629802846875051,-0.004157930908741539],[0.0016043691756983426,0.003597300956913773],[0.017426388365192946,0.003132202132741236],[-0.012103226462894676,-0.004399329660247378],[0.005477806593610224,0.007791621316265502],[-0.023592447724792256,-0.005643847635105939],[-0.00692339633555503,-0.003685929857844337],[-0.0012323683273770581,0.0034576223591412216],[-0.02397921598750181,-0.011588792232722293],[-0.004224030354474663,0.006849620437145398],[0.02590318109150543,0.014495690555703334],[-0.018627624949937673,-0.004932008579896312],[0.018324220128616033,-0.0009886811691309735],[0.004847240102150502,-0.002501225148582889],[-0.01096005117789183,-0.01140753682458837],[0.0053593993764630725,-0.0015339614387131625],[0.00983793012064059,-0.022981362018126655],[-0.015148057809744703,-0.011084163233248024],[0.007967379692566763,-0.015592084009465742],[-0.011881963276658938,0.0008893311533032312],[-0.001101951271174997,-0.004702419653085451],[-0.0073350070894429,0.0018253267379896635],[0.0026501588111681866,-0.021382939155235533],[-0.016951670328298692,-0.009475076109125872],[-0.006117023938725083,0.008904426406540291],[-0.0012360707878222065,0.00020237835815861555],[-0.0056927011517974154,-0.007255953780500612],[0.011069850406720502,-0.006364716578864422],[0.0040927289818239185,-0.008071674048766256],[-0.005640874247565474,-0.005064171929745178],[-0.01834686510908481,-0.011768395900916696],[0.008438938954408346,0.016600359103438503],[0.002457781841652419,-0.009248719090194178],[-0.009541199128426745,0.0033440868229997795],[-0.002433851331139264,0.013122252053829],[0.0009314934933836525,-0.004889807278811104],[0.0045298436507289555,0.006602861736429922],[0.004933757630573859,0.02126709176370015],[-0.0015441878587190286,-0.022975643982110966]]}
