{"Name":"RbmSpin","Nhidden":20,"Nvisible":4,"UseHiddenBias":true,"UseVisibleBias":true,"W":[[[-0.001036350436911517,0.042753022792678244],[0.004048031270566086,0.020717108007031033],[-0.00447226419724648,-0.06517668729778549],[-0.015042223375431409,0.13824094587872884],[-0.030175093589663606,-0.039690329629472096],[-0.025943659668536123,0.004452753521363599],[-0.005888528049895131,-0.03940800865115646],[-0.08364283468650165,0.27769098395321584],[-0.04096156672982469,-0.059737711313935724],[0.0830848248809308,0.24570208691406373],[0.0023660665855395613,0.013278004981474597],[-0.008140366092475551,0.07148210646218466],[0.0029910892536491648,0.03981990318736605],[0.002296503321067688,0.1862913232271582],[0.010686264844278055,-0.10776107708019397],[0.026532257791463447,0.02168484716921922],[-0.000279850214524348,0.12144835732791773],[-0.0028213859519530863,0.11500520367814622],[-0.00029871737204397234,0.005979336801587437],[-0.005229970954652989,-0.24682304423180518]],[[0.004140428403999621,-0.019401004869213676],[0.0025314786167283014,0.003944268991391471],[0.004135356115477862,0.15753884243783817],[0.0447213969500753,-0.003236643993450574],[0.030403720532638887,-0.08657098300556244],[0.005346144299640019,-0.08892670313209282],[0.017099839404820762,-0.2625360669246853],[0.050662877467661654,-0.27216773721188975],[0.0680251766566081,-0.0511969065483852],[-0.07365361298582472,-0.2946824223668856],[0.0013165369846147804,-0.014999956213218956],[-0.0006549614801059118,-0.008749420747647481],[0.004089534649183171,0.014338839297411216],[0.004950110860186184,-0.04241153725975841],[-0.020974659784442188,0.010205680902928638],[-0.014462341737293962,0.06031570775113848],[-0.001635756805896315,-0.11807123776485885],[0.0018931101338961996,-0.028772035883171055],[-0.004381158853972292,0.010638297116339651],[0.028045068848509196,-0.005281854662158594]],[[0.0008303309651291965,0.08742949861453482],[-0.0004273831650391483,-0.06388622687566617],[-0.007264274493396749,-0.0751548125663758],[-0.020298408815609122,0.04068399710262915],[0.004791231458897709,0.24524037828997508],[-0.013507361812279309,0.15817978467201252],[-0.002873381061476445,0.2814061994461975],[-0.06568184651623503,0.031929987017266084],[-0.04018523918563506,-0.17859906615479737],[0.1047581130763608,0.056117397079819324],[0.0025341965210225704,-0.026003498918265037],[-0.00827509170431025,0.09408865383497461],[-1.4560365956947301e-05,-0.03667349707206196],[-0.015758963336675615,-0.044857997142192345],[0.009933635246751435,-0.06635094301413524],[0.003131025676442104,-0.2232207301985818],[-0.002511856641207307,0.01856247133001646],[-0.003285071339504084,0.03733863264621496],[-0.004865953788920596,-0.17537418615824613],[-0.042754701008999,0.025726979477049307]],[[0.005387133791223397,-0.11758447957211722],[-0.0002382391546618719,0.04347484304855851],[-0.00954058572656181,-0.021395866710479283],[0.025335078019201988,-0.19759102585196603],[0.04117836806388139,-0.0985309052498517],[0.013780925128578333,-0.0891948599918567],[0.026525686179931823,0.009363270232044951],[0.09141419470103138,0.03454042135952906],[0.03054191749329146,0.26702836815795533],[-0.10220929084240604,-0.03782456411864084],[0.0023351135573735932,0.027213900561492987],[-0.002797128140188291,-0.13401046630007246],[0.0019272583603489617,-0.02327203623846474],[0.008445372467439578,-0.12035154192659993],[-0.01163228606039054,0.16113684961129351],[-0.022106223291586125,0.10741340192655859],[0.009796228663488091,-0.05604307279173837],[0.005339553017279633,-0.09025882808217885],[-0.008746054957047923,0.1406690221954563],[-0.0036464294316822256,0.25082864371277036]]],"a":[[0.0009509101338738001,0.00030815825465385876],[-0.0030126390295638,-0.003741153475084521],[0.006962330062708753,0.005325981841213331],[-0.0022821577101801408,-0.015182648486320394]],"b":[[-0.0014866876502410298,-0.013954673620766788],[-0.016522915299392635,0.0033295266313834704],[0.00041241540695485194,-0.005835161826880803],[-0.01719037925815991,0.002172039108144535],[-0.01241904493894222,0.019550443424991515],[0.00475541798369727,0.006330927793953954],[-0.0006773332413608594,0.0020701491064287953],[0.0024526396308885046,0.0008961811853090662],[0.012214889300519529,-0.0030533363564478632],[-0.0009649809196788342,-0.0036027711456098513],[0.001079247742240745,0.004829051682731124],[0.0014495524788269588,-0.011923607163353113],[0.013179960863137809,-0.003110802809092196],[0.016418869943189703,0.01127248669585474],[0.013743833454476776,0.009632310999600194],[0.004124533527755426,0.0009105293005298985],[0.006392918326507268,-0.007014184312469083],[-0.01563293528289488,0.01692061539520927],[-0.003698576452810094,-0.004998315328759415],[0.003515460364520028,-0.0019145153986929798]]}
