{"Name":"RbmSpin","Nhidden":20,"Nvisible":8,"UseHiddenBias":true,"UseVisibleBias":true,"W":[[[0.007896203102095121,-0.007447804306626146],[-0.007745722857416758,-0.001817478868029801],[0.0011514244620861981,-0.00011766670663318481],[-0.0027334445008020355,0.03609932388952128],[0.005297740308245653,-0.005182179748781129],[0.0029761345255223557,0.015174788779242516],[-0.0011403204328202436,0.0044399096019455105],[0.007303364212100141,0.0005859434424956303],[-0.006319950037127921,0.008769152664999646],[0.00797401195617045,0.02087897193580934],[-0.01003115763362253,-0.015254814306899107],[0.0023016692136624247,-0.0015863982297857028],[0.00817977039621347,0.007729730238456753],[-0.005841322612652097,0.02210912038704119],[-0.003178678702557208,0.0016075887804474398],[0.002182473253869243,-0.02176178627934221],[0.006163515700680987,0.002130529744152807],[0.0038006212155184092,-0.004518283298702485],[-0.008826330127034647,0.019322538690547765],[-0.0019330454370153106,-0.005540378297879828]],[[0.005494863876495983,-0.003066955677318655],[0.0010405064798394374,-0.032516145177484516],[0.009306925940190275,-0.041006031735927505],[0.0012841949881152608,-0.025907563564366926],[0.0059020136296812666,0.0016527619762781443],[0.012200524945600106,-0.06720202070655501],[0.005336370455227787,-0.015136728233207799],[-0.0012080291208780578,0.006339565687414777],[0.002337348826832815,0.010842021109302758],[2.8684498518838045e-05,-0.0068143006059430316],[-0.00459521504674292,-0.0016435437179731244],[-0.0026783215316058015,0.0018153785899584541],[0.0029969246721440845,-0.031174411273831193],[-0.0051668632985060695,0.013036772074968925],[-0.005016012155506242,0.001025619212372487],[-0.0048463063172502294,0.018249784401061866],[-0.000806991248372586,0.010517099887148763],[-0.0022272122448539454,-0.008125751553528333],[-0.00025436889831970377,0.0022771816390886345],[0.00627336395968895,0.002595151705413955]],[[0.012397283267826402,0.028431917866387286],[-0.0064735421755167,0.02789274706700634],[0.005786612028328423,0.012847526684595663],[-0.004760047337811104,0.019318255924496697],[0.005714670869886782,-0.028590906730436943],[0.00438299178300321,-0.00431208847599121],[0.0023406590388946355,-0.00019319731948623067],[-0.013012136708822725,0.02908100018621251],[0.0030715042892848323,-0.015535387065831043],[-0.006237625519321415,-0.02671140321691903],[-0.0006965930763526234,-0.018691482325546457],[-0.00308674819271341,-0.029920757005382905],[-0.0023570402119259745,0.006976598399542516],[0.001445296430148344,0.002494035238675677],[-0.0021574133006682346,-0.030011377691491904],[-0.007568012034286981,0.0014972737804463776],[0.009927321931036293,-0.016438828935571238],[0.000603581975827822,0.0025654480774575535],[-0.0029810570467150676,-0.008727709913164912],[0.0071865706659653495,-0.025595265537895193]],[[0.0028099150819112496,-0.012218618957819618],[-0.008230131001910614,-0.030251653044119798],[0.008240342311529335,0.01725172829790203],[0.006576106732129639,0.027545243541854298],[0.009668521551221712,0.03287263025779496],[-0.0027519557956670105,0.0027036381807524186],[0.008066739393725203,-0.0005313226414317191],[-0.008494807359500058,-0.01888736233122451],[0.005538230010239767,-9.473839467613318e-05],[-0.0071302829574509214,-0.00016986174878778706],[0.014329213438118231,0.02105906067116173],[-0.0040877644831678155,1.422460588099959e-05],[-0.00837930976794312,-0.018097804630782418],[0.0044407910876538255,0.004908233511925784],[-0.0015546662432609866,0.018257819412441527],[-0.001240318966279582,0.017780659761403222],[-0.003819199960103783,-0.002694197044088168],[-0.004849528303210521,0.00347275482133551],[-0.0008217508139036331,-0.03240329538587091],[-0.006588665618074308,-0.020857991553706556]],[[0.005999772402653558,-0.00561432634703728],[0.0028613814748730485,0.0063142528757951155],[0.003226883187662524,-0.016303401691661196],[0.0060727761060099614,-0.012034657304761654],[0.0022988351312876213,0.005198915663928013],[-0.005366027207708022,0.003670705685795058],[0.008834924163649043,0.025267112489512866],[0.007383737428518234,0.012572024212632057],[0.005866695923919905,0.0008596523793278223],[0.004816014437166264,-0.0010410303859116187],[0.01355241723637319,0.006100251274804007],[0.0017291164962407383,0.019006660728462094],[0.0004392039522707107,0.01193033530596],[-0.002330291511034513,-0.008569784525126462],[-0.004725935993258678,-0.030842195201383107],[0.003107790320316479,0.003199495493532765],[-0.011937623139052625,0.008207912971311527],[-0.006560824233619711,-0.02296619213972941],[0.0009445632697835078,0.0190525611305067],[0.0037843790920757212,-0.005120535466623315]],[[0.012290784480196592,0.04294424635306281],[-0.0021466709860345507,0.0011579045158091055],[-0.00366672431238408,-0.013172076704234481],[0.003032264933820752,0.017501637806510855],[0.006478303664899193,-0.004270224417119528],[-0.0018793719017717518,-0.006263066383052184],[0.004710267486747861,-0.0032333137441235833],[0.0018023663761348127,-0.00791189761129026],[-0.0017121186500606014,0.00023075035734767605],[0.0011006918921083794,0.017115718426685023],[0.0061823805463085,-0.012838982815957967],[0.0032911662202624353,0.006150666879870684],[0.008987628174705574,0.0028231631171926597],[-0.0035524607920121506,0.011683989948225488],[0.008007496168925413,0.01841661954056483],[0.00737887223766006,0.003262773280658781],[0.0007058354880601467,-0.012455420873006197],[0.0048406908267406784,0.01998800868075886],[-0.008044297943449446,-0.021165752789928303],[0.00965571773360437,0.02715643692421668]],[[0.0009215215644014619,-0.01870241122370149],[0.004603736355766884,0.001059931754955452],[-0.004577383814696653,0.011483927145440916],[0.0020987467504044142,0.001752184661901689],[0.006946306466486784,0.016459286112893354],[0.0033520168779223136,-0.013818443620903315],[0.0086796017004332,-0.02227053473466457],[0.007745687154044469,-0.004937742970730132],[0.0011449598743350504,0.0034337854614406808],[-0.0017286469486253178,-0.005950635834771072],[-0.005759990720712527,-0.004666684540512342],[0.0037399190102638314,-0.020194950660351648],[0.006104472899259544,0.011608469038759771],[0.0049020273651108615,-0.016887393384910823],[0.006309540635785117,-0.009333789899212339],[0.009061765546959524,-0.020747067492974374],[0.002303954000861328,0.009091346068353434],[0.0032041119706134684,-0.021171201591033768],[-0.0013971042229537726,0.005579552211553354],[0.007688089842909218,-0.000787085759193464]],[[0.002647903869935425,0.011009854436118438],[-0.009576704793054617,0.025302426616683096],[-0.005874634350448544,0.0007661189354847684],[5.782238047999274e-05,-0.013915822672050746],[0.013178932920886115,-0.018129911558293816],[0.0004188863635060388,0.014014758172895334],[0.006136784490770067,-0.00573923832154739],[0.00660268197966906,-0.025298342281914656],[-0.0022363222746576844,0.008131370929581647],[-0.0033729326544573767,0.004698393358027399],[-0.008193505015635868,0.008429085180069368],[-0.003691523181045741,0.016160437992010807],[0.012580668477379523,-0.042769508139269365],[-0.001626633578099367,-0.014706527651085191],[0.009607158181456694,-0.02816060160493943],[-0.0018390323889959056,0.03653618728839232],[-0.0009860626056145795,0.015032471279929656],[-0.004954633735973974,0.029120946924231506],[0.0013958624821645705,-0.00791171553385927],[0.0008300030436548173,-0.0021958262898278654]]],"a":[[-0.0020157199588943017,-0.001954441536864691],[-0.004771512409520923,-0.0008367245450759146],[-0.0013576011757215677,-0.0013593682528944876],[-0.001620360265600823,-0.0019693323945959105],[-0.0028397257764409866,-0.002182224057295922],[-0.0009593861078001164,-0.0017446547891926322],[-0.0029627031921333363,-0.002837853313467845],[-0.0009688752527449835,-0.002250977658358728]],"b":[[-0.005251357355276868,0.019759503872290463],[0.007927521519939779,0.010112924037869274],[0.025630909290659493,0.0179694879122232],[-0.013634312822886808,-0.00024671583437065275],[0.010024220897238005,0.010425744636410912],[0.006601287721349299,0.01586621895720909],[0.0008384758047111364,0.005080037472972903],[0.0032510865911257758,-0.008147189934494148],[0.013260480404162093,-0.0025874531988295713],[0.018392909925354077,0.004090550839883076],[0.0025930512326766907,-0.0006941572577707278],[0.0005221236543889982,-0.0010518375461068207],[-0.001701966047101043,0.005375288068590466],[-0.014882331047490633,0.01872474063843778],[-7.623613726097874e-05,-0.0065804991874804635],[-0.0026030568327016805,0.013159131494338335],[-0.0096728516778465,-0.0032863847630663374],[0.0002384485903088971,0.005538276058495183],[0.0056227815825276245,-0.004155049018879401],[0.009842941117718565,0.00319157548728956]]}
