{"Name":"RbmSpin","Nhidden":24,"Nvisible":12,"UseHiddenBias":true,"UseVisibleBias":true,"W":[[[0.004954353039349003,-0.011354649066174444],[0.006210620779885163,0.0016277600219438597],[-0.005038421670161274,-0.0016657343196967104],[0.01475974932089104,-0.0038336595757781982],[0.007078157040017938,0.006629115046502666],[0.00845072844041044,0.00031774313377630784],[0.00040019141586545453,-0.0035924359932763827],[0.005891009942193357,-2.218508869711094e-05],[0.005275126017137378,0.0034809491472850597],[-0.005121619604591742,-0.007718768229151627],[0.0013349729119068534,-0.0002250673656289527],[-0.010430776282954907,0.0011271002960834648],[0.0018918911256622286,0.005758281376506856],[-0.0077535605732650306,0.0011438754221438328],[0.003929727769150545,0.001934011818104737],[0.005731570136107204,0.005711866749845958],[0.012378009031805155,0.0010700328182887912],[-0.003314559201087979,-0.002447207947668963],[-0.0024358603045393596,-0.00036450472771816945],[-0.007508858997027397,0.00010316123924283306],[-0.0019325754515199575,0.0009640819462558856],[-0.006157184581145806,0.0016380710961780977],[-0.005988932162164647,-0.0010297203805665497],[0.00524150325422696,0.0027023977643072603]],[[0.0005552217777457405,-0.0014594329795120774],[0.002013926129604712,0.001924659039302619],[-0.004227973808870205,-0.008165186297194585],[0.004025241410255549,0.009015360108365383],[-0.006015649885013047,0.005429758693761905],[-0.012267475185732787,0.007576746862639828],[0.0008587285686491959,-0.0024256092480280447],[0.005595016216521647,0.0021517104124573944],[0.0011543154950598821,0.007917877542634512],[-7.955045004205078e-05,0.0013378176448869059],[0.0023298568716029434,-0.0017213974903005998],[0.005546476864607379,0.00014664747344292134],[0.0035290119056895558,-0.006162548718334105],[-0.002395888390012842,-0.00980977405858648],[-0.000321755336393023,-0.013313255376581703],[0.007346942185722251,0.005478225629125257],[0.010139313135575256,-0.0010990172461372754],[0.002714942749206541,-0.005187707859600176],[-0.003405291577030275,-0.014024589120311752],[0.0029921503884016865,-0.0076898507002049095],[-0.0006403192451798762,0.004630397567862911],[0.002078141317590201,-0.006206841366110907],[-0.003643906906661086,-0.008863635831832658],[0.004535503807564865,-0.001713647927051181]],[[0.004654646541917762,0.00011805042061034752],[-0.0036552892777045867,-0.005574898458379043],[-0.004308306791416455,-0.0012116585818091493],[0.0004962367034826655,-0.010036417223898898],[-0.0012211214465973224,0.0017139243466125168],[0.006011062561941243,-0.006796151038182919],[0.00018500560506315607,-0.0007593067547845751],[0.002626445438963699,-0.0011063268464968],[-2.0745610642086557e-05,0.004329655005007377],[-0.0035757755110139983,0.00034814347154479147],[-0.0037297190023067965,0.0015698259440044657],[0.0068904190660756225,0.004746665020815683],[-0.0026333757599758525,0.0026175938904242422],[-0.00825929165861479,4.572949959165233e-05],[-0.0026381444972640405,0.006268919282879253],[0.009028159736324133,-0.003580392795636069],[0.009212433047006635,0.016127765427038372],[0.00431290959782814,-0.008449051087192462],[-0.001618002423296053,0.005887708448675363],[-0.0031490274976047174,0.002439007592225358],[0.005605619523528223,0.0024829819437192546],[0.008625775574246592,0.004626551327958142],[0.003425028368945578,-0.0016653316199878032],[0.002840426527932166,0.0038453897358057786]],[[0.004030351165180038,-0.00581083793849197],[-0.0005547363618711302,0.0032575848989027474],[-0.003018160186960767,-0.002604854484042304],[-0.0015290250732138333,-0.008599483187091828],[0.0014290373991869632,0.01580613700248034],[-0.014671221770646291,0.001427456802495349],[0.0028437632725237666,0.0013937986950732053],[0.00587433551620417,0.003582031061393318],[0.005563424990830863,0.00994707304034094],[-0.0019171587169566845,-0.008476304298259508],[-4.028607961307834e-05,-0.002902983482790645],[0.010001201911904737,-0.0056390651882172104],[-0.00257809454366448,0.0011478588470142017],[-0.0038506448758848753,0.002229655494788167],[-0.002309264177453019,-0.008701942917820733],[0.0006779917440056242,0.0005618831312181245],[-0.00016235986384570064,-0.013635146402324683],[0.004710652945629015,-0.003960829101004585],[-0.0032299257884739856,-0.004193034079222643],[0.0032507777974857908,-0.01618736745355078],[0.0037936345284148494,0.00457201851349891],[0.0010496122238676181,-0.0018367219831194994],[-0.005399814538610467,-0.0075172497646254855],[-0.007803737934679035,0.0079888782251285]],[[0.006475035682000487,-0.011778759623596466],[-6.994800885167809e-05,0.001802456179370395],[-0.004349798675965904,-0.0023343954050513162],[0.012836823559063999,-0.00229324969730311],[-0.007187991296950452,-0.012197045431732036],[-0.009427058898767965,-0.007477937631703416],[0.0038057725410471453,0.0036817248269054043],[0.009536940612745513,0.002968676078353478],[0.010102515207712905,0.005862016694494251],[-0.006194866041391807,2.0408028563795397e-05],[-0.002360888497379904,0.0018259376506208347],[0.0057131046204803165,0.007281999694072598],[-0.0006717821748541601,-0.000678567418304414],[-0.015229611010536766,-0.008015627453215593],[0.006947162525776648,-0.004616864467834468],[0.0016707938399127603,-0.000791317687327096],[0.002855880596469175,0.011228123980634752],[0.003693871079301589,-0.007834260143237865],[0.002334527305225704,0.003751609350427984],[0.0023540642111705068,0.0005658061819009538],[0.007387963783636428,0.010497845126279309],[0.004805458947014745,-0.004816878497782416],[-0.0025010958241013905,-0.007404912723509663],[-0.006010299240024106,-0.010895500517291375]],[[0.001971065220111175,0.0034748118413930997],[-0.005280303699703852,-0.006764820285592717],[-0.001866243240322999,-0.0018782140784509402],[0.0037404457237453447,-0.011794864517815465],[0.001655969474795481,0.0028231878361159608],[-0.007452718833235486,-0.005932524160102222],[0.0063380776773754016,0.0017805575493914285],[0.0074562814372284335,-0.0004482242741290545],[0.014595481677853928,0.008106153857882591],[0.004700063378733436,0.0016183771190250262],[0.005377053561887259,-0.0031759462564777165],[-0.0032461735769715415,0.001406957734859591],[0.0001952940349774627,-0.003036068488805406],[-0.0032526071296441646,-0.006945651545722324],[0.002179098870722325,-0.004668795398307991],[-0.01064971201974106,-0.010752862111596085],[-0.005252433257777478,0.003887539085443707],[-0.00376774562117896,-0.005731162333889419],[0.002150367627109067,0.002227816752044715],[-0.001645012463294457,-0.01124617461275354],[-0.003983714197599928,0.00660161056397846],[-0.007762724069857204,0.0020148073962912186],[-0.009929964955536313,-0.0024628410925682524],[-0.009426423537998581,0.0011216588257345799]],[[0.007175079751701582,-0.013725154322839534],[-0.004036631674130843,-0.0001558101591505521],[-0.003814874516492756,-0.0010955974727906016],[0.00046373046572610946,-0.0065533077760052605],[-0.0063158105334021235,-0.010074316546484713],[-0.00733925120211953,-0.0010658411637232165],[0.011974286713465074,0.002488375291761816],[0.011171284887079035,0.003210846682101006],[0.009516397460381581,0.003522817725908546],[0.009606204859627421,0.006892349295122035],[0.0032930214095345236,0.0025899821667577975],[-0.002741497657849186,0.004663775341289889],[0.0019276504715125726,0.006550320600908472],[-0.003264660230284557,-0.001958668428192112],[-0.007167163858134261,-0.0105530062076951],[-0.0030230364443516664,-0.004584871344855175],[0.0024603982752968902,-0.003909843988703577],[-0.006442987798873133,-0.0020709644100581803],[0.004687329290375989,-0.001035343451154966],[-0.01041667626372774,-0.002904265483451305],[0.004043116680671578,0.002341351839389931],[-0.003219070416170044,-0.005672464922647556],[-0.009864423484446853,-0.00598539992102022],[0.00386556550591031,-0.0015643692418986547]],[[-0.0029569861901708305,-0.0038662521177285384],[-0.004244745142660103,-0.0030420727999624685],[-0.00039482915950727064,-0.003848680557723787],[-0.0056666938539767665,-0.0039398786488858365],[0.009950439640313932,-0.003280551882400151],[0.0016296068536443154,-0.00022780888217218895],[0.002095367459579051,0.004447839496407117],[-0.0014134698903013922,0.0021301705191178193],[0.001381561419151688,0.007971069358951033],[0.0038417800791943736,-0.0007048696870845944],[0.00446045786544279,-0.0024128839131790022],[-0.005910683683790573,0.0021448959065473597],[0.000814387126248723,-0.005265378677257806],[0.0019195518583791926,-0.009976795531626807],[0.00011114906038889837,-0.00866825928955986],[-0.0018845354736020618,-0.00017996383622575184],[0.012847431941732653,0.006649084424080208],[-0.0055281892030438875,-0.009303746023186801],[0.005460455054338914,0.0027878684170806745],[-0.003292978381261207,-0.010136428573029647],[-0.004274663487492555,0.01288066349283828],[-0.009335921671711718,-0.0011589124691339216],[-0.0031340016928063353,-0.004924988750931026],[-0.01325160039468285,-0.005977288277187702]],[[0.0010648364447207181,-0.008575940166674244],[-0.0028108808240792267,0.00012294971614172916],[-0.0016372452770392798,-0.0033954386534351265],[-0.00558023072916647,0.0005926520710973129],[0.007431614743906156,0.00205062582841529],[-0.004206865759642853,-0.007940872093207606],[-0.002192030298951712,-0.007414129127540498],[-0.0026692672935532814,-0.002753351157685876],[0.001864868150783548,0.0004814653934956943],[0.0003790696732649765,0.010611078597382221],[-0.0019877656313290223,0.0023398963941648147],[0.0009087506039144348,0.0013051866341819162],[-0.005447939571246169,0.00645362712691237],[-0.007200987887717642,-0.0019760057161463318],[-0.007009083442080321,-0.009224490200891694],[-0.007156912603079597,-0.005158686736713049],[0.0017272820702550432,-0.003637995242422958],[0.00606457794223154,0.0027220851860286976],[-0.006125457813338706,-0.013029132180502893],[-0.007304059289360466,0.0014657421959102662],[-0.002347623403491454,-0.0093561505113958],[-0.005312484697133763,-0.00951546207118207],[-0.0004574824124886573,-0.004169504064717766],[-0.012170797653949234,-0.0037236418355617133]],[[-0.0014307413126029085,-0.008883690583876998],[-0.0045593341661236235,-0.0020918186491602105],[-0.0016944954667952455,-0.002787635473844783],[0.0005234622047580416,0.0006035331138580895],[0.0059227158720437925,-0.006879559313830958],[0.0041893745142119465,0.006753626892553718],[-0.003934946356427796,0.0016410958014670277],[-0.0007926711233277749,0.003626359145111531],[0.0047004435172656005,0.005514877130000789],[-0.007874312603676648,0.0009549826125187146],[0.002118587755180476,-0.0013386121226255173],[0.00715677220435244,6.954088303667036e-05],[-0.0034998663137467863,0.0055211185763933916],[-0.0025754600819769477,-0.007062396439357211],[0.009930790634377684,-0.005665247927160755],[0.0023923777810556657,0.0014129798579228482],[0.009059998115443661,-0.0035882836394974292],[0.002099972462661035,-0.002912099565326207],[-0.0012312117259472757,0.0011826458001483586],[0.009494602345539437,-0.006370738270327662],[-0.0033521458681191017,0.005183864285728676],[0.0032634679539280094,1.739160651380387e-05],[0.0005179867265296904,-0.0013565581687747866],[-0.00849836627113334,0.0015363188485074267]],[[0.0068388010237547,-0.010102475466245597],[-0.007673527004116853,0.005332544562626358],[-0.00272570843241558,-0.005470821938082284],[0.0046334201287077294,0.0013424839987027423],[0.013088020931324142,0.007701439176923397],[0.014872985506026103,-0.0032458296936128776],[0.0019199796677498457,-0.002882345899424289],[0.00421569457783263,0.001895063260930414],[0.01427593690523098,0.00485176762635942],[-0.001967239844510099,0.0005948444608821222],[0.0021110687453807075,0.004459766779000401],[0.0007254219246115769,0.0052459167705815705],[-0.007376237438111738,-0.0005930134116564458],[-0.00588375701224195,0.0039723136551094934],[0.004216254824015837,-0.009188817793414798],[-0.0064944661200250055,0.00851912130216818],[-0.004589495592512632,2.793186771603458e-06],[-0.0022871927716911194,-0.005867344485915284],[-0.001996256817238525,-0.012560307926655393],[0.001634036142651521,0.00462219833208762],[-0.0019456059547872048,-0.0001721233309499859],[-0.004124331036248695,-0.00891253501519188],[-0.0065651335820621996,-0.012617156418586361],[-0.012738556606527004,-0.0045449045289701236]],[[0.007294318028565323,-0.002010040827582819],[0.004399472408804561,-0.00439366468874062],[-0.002833338321188225,-0.005750281552320463],[0.01420371302500419,0.00407129979953442],[0.004678234145667398,0.0025195942276336047],[0.0025288691213203943,0.004116144717290969],[0.0033628207421298704,-0.006953626801291757],[0.011606827659077397,-0.002587886392691217],[0.007284721439893338,0.004429217144652992],[-0.006767452071120494,0.005680841495269447],[0.003989973273879059,-0.0015004947164605656],[0.0014669745218984925,0.0010160044892117354],[0.007501786713668631,-0.00017871405233382684],[-0.0028527288609017025,-0.008155768683467068],[0.01439812026268535,-0.005892123928412771],[0.007040064904225305,-0.0010539615033429445],[0.008535894141350846,0.00035757207837947653],[-0.0014203712672151234,-0.0005852497966112099],[0.004382735875473599,-0.011161774089382211],[0.011850384222248779,-0.003510840541553104],[0.000197789736570374,-0.003239668621165223],[-0.0009057639308518431,-0.0004795328666884968],[-0.006691261215788244,-0.0010001058678248743],[0.0008505764417847247,0.001852302821549551]]],"a":[[-0.0038043065480125406,0.002073066077955907],[0.0019500766989452587,5.8554744117599294e-05],[-0.0011038534858939055,0.0025002903802754948],[0.0019348666328478413,0.0004045423290878632],[0.001254460235520389,0.0044746944865828465],[0.0019872376433543305,0.0033297867960053124],[0.0020195477784726345,0.005716023130538003],[-0.0012762588673354463,0.0022406908846432858],[0.0014196566786293882,0.0058238084452111125],[-0.0016385634463267425,0.002538247898846932],[-0.0023136290526252837,0.0019250937765820058],[-0.002724461965044371,0.0022914557665248466]],"b":[[0.06366759984682129,0.007514533898837832],[0.02749593598608279,0.018441861729068854],[0.0016997030373587711,0.006198719341797223],[0.00863038327772393,-0.010754713585383404],[0.08944123729721956,-0.0006583309013021328],[0.14647306773450333,0.003920191531637469],[0.0017935962014940612,-0.0018131188619043704],[0.006534977818745521,0.0011919425852315012],[-0.0040570352349158945,0.009208866701884106],[-0.07312756172882386,0.02196188595989087],[-0.006178657161428352,-0.0069854102500841895],[-0.015765261415232178,0.017707754498552],[-0.0373404693776476,-0.008722925647136046],[0.009644384813787116,0.009862727121840534],[0.01481083582029352,-0.0013161996687220182],[0.040596971071973464,0.004414836984594873],[0.05185036111905609,-0.0057173841868739216],[-0.03473541874095961,-0.0027441392003009577],[0.0006126771564524752,-0.010448037872514235],[0.011473597589507414,0.03856636394757149],[0.030286628099109564,-0.016158680729817194],[-0.023247901106784433,0.006925622041235059],[-0.010989069576447985,0.004206163323875397],[0.01945733779815956,0.009891744763888878]]}
