{"Name":"RbmSpin","Nhidden":40,"Nvisible":4,"UseHiddenBias":true,"UseVisibleBias":true,"W":[[[-0.0004145335089982024,-0.006259418694759746],[3.4689627527653585e-05,0.012342713391230452],[0.009061300408520191,0.03274056472804547],[0.0013951400243186955,-0.0336007161406987],[0.007893006426054939,0.008189811221106206],[0.011225490230133734,0.01284772342756227],[-0.0022550398392281222,0.016737126118029903],[0.0036166611358641994,0.0038266536574439775],[0.00605888437383692,0.025657963560816035],[0.005142922471321995,-0.015243522558273248],[0.007736761677339882,-0.0017336731174199065],[-0.0013929702331927558,0.003420253556844021],[-0.004057510782531659,0.01705445773458239],[-0.002425567361754786,0.009894739141723017],[-0.0005418939920724208,-0.027706295969185182],[-0.007907786795870304,0.02471634537942324],[-0.014984699349469659,0.028504109281024422],[0.010771290761703052,-0.008427917705094407],[0.002892593968473726,-0.018576803197503197],[0.007648490094418665,0.013638485665187739],[-0.003723050554865941,-0.0026420469736362267],[0.010909286963377679,-0.0011304301512885882],[0.0026796863097354818,-0.0045665850267482145],[-0.0006172714998165878,-0.020536387398018056],[-0.005874298903445184,0.009123065327555012],[-0.0062140716927092,-0.001131245506222294],[0.002331316971779336,-0.02052113630215189],[-0.011639673185015008,0.009862221129315224],[-0.007202421137443727,0.028593992478104537],[0.01230470385370809,-0.0014025810011195348],[-0.006393851284852658,0.020122451133365065],[-0.0024204035346781986,-0.023034266998389424],[-0.0004997754714622977,0.004191154976292998],[-0.0010639794814175593,0.02656330287011832],[-0.0016329174205290747,-0.01629617102980473],[0.007904708360399072,-0.00153230284412095],[-0.009937908896993496,0.007891480606731097],[-0.006732503588813689,0.01194679129571866],[-0.0061996071095030865,-0.004769834266066354],[0.0032229551456548385,0.0039211222383747]],[[-0.0012557449515176447,0.016452881639946747],[0.000764882588571992,0.011235831354845776],[0.010077318723277547,-0.00100499411753081],[-0.002809810135518937,0.006419727845430985],[0.0041124126336164165,-0.030397231692663847],[0.014986509182781087,-0.005581729820157251],[-0.0002444375153589937,0.0021528032759433164],[0.001078110455324057,-0.0057505648282424535],[0.001541056434468522,0.0011700918434676979],[-0.0020644468974844892,0.005780542632542323],[0.00470570076862023,-0.0028676358392922],[-0.0010617814619906102,0.001607827861154824],[0.0007754034242485542,-0.0006405369051218033],[-0.0013698938760105892,-0.014868316114379014],[0.005177426913988381,0.0012051856999460524],[-0.010154825056832729,-0.007190885450723955],[-0.01410181324819856,-0.008959408635587782],[0.014433119034718745,0.012772690000051573],[-0.006540305830306549,-0.00818129266779761],[-0.0025740749588991883,0.020850241627295756],[-0.0034786832365364426,0.003530160543022532],[-0.000848361056572684,0.013093005048726711],[-0.008104112853945893,-0.013359576011575763],[0.005011171070982044,0.010501897032630967],[-0.0022277828354956056,-0.01054700616387685],[0.0028144344706899486,0.026843569034341413],[-0.000604108351347428,0.011325272968310015],[-0.017189315968250803,-0.006590595446637261],[-0.003267706363765082,-0.019614171391686825],[0.010844278206744443,0.0022957456234491327],[-0.006536219919836616,-0.02336875153992422],[0.00024343987690628405,-0.0124123111847029],[-0.0005716348889631987,0.0036337986208587456],[0.00094405777817625,-0.005367576253335037],[-0.00785626338273418,-0.012338027873587126],[0.00631141141660971,0.019089330831038236],[-0.011082858366850969,0.033263877169992385],[-0.0017991307126013546,-0.012866503571730161],[0.005014488571960957,0.004276811780781457],[0.004413413575324087,-0.0051414428947646204]],[[0.0004956966845603743,-0.004448712372464991],[0.0007938120145489068,0.0129714181684681],[0.012805655272774248,0.016203761401161695],[-0.0024911310092873688,0.004264383679329462],[0.0005175756352869284,0.025125850992161282],[0.009579966484027279,0.0022769825914590452],[0.00031121988937058657,0.005019251971062246],[-0.002967618347593646,-0.016214934113540046],[0.003567215215870152,0.0076211117750673955],[0.004447680975034655,-0.005045496136443767],[-0.0044900764973799835,-0.016834949023229077],[-0.003886984262368257,-0.006908310417007782],[0.0021006567499318447,-0.004827415035446974],[0.0009908224293882204,-0.008619764325131497],[0.0004945218314000436,-0.010274496120235878],[-0.001785106524507013,0.014212398499025615],[-0.01205653568681426,-0.005090794299639002],[0.007053877447479826,-0.020063293896425527],[-0.007589611567303343,0.013160671751912972],[-0.015054658295808283,-0.0033249470445102917],[-0.0035766551404522126,0.010633990496915827],[-0.005527036910241766,-0.03009219351117234],[-0.0043482940341509685,0.0021403511818034425],[0.006391248117960349,0.006190200902711731],[0.004818857643467611,-0.014758510552725949],[0.005923588647297779,-0.008231315663457096],[-0.0016342457172734504,0.006463769010060032],[-0.006148166157478975,-0.02616441788128338],[-0.0021864886456125754,0.004246407019456156],[0.0024796953217669708,-0.024112765124261453],[-0.002928214365414658,0.02925433650513154],[-0.0007529268662099194,0.018075728275725067],[0.0024402812085434445,0.0129612147882962],[0.0026262470019680095,-0.01362523530066794],[-0.01027191067531966,0.008204683425081455],[0.007762158231604164,0.009743219858005393],[-0.004379357188503225,-0.012425881490838668],[0.0025714670002711234,0.004444072695060065],[-0.0007911125643333752,-0.017936080705672777],[-0.0007464997599763117,-0.02927918208212814]],[[0.004029996693854491,-0.0291467910819045],[0.001513800356721434,-0.011301561594802216],[0.014878221990848605,-0.021652036466221034],[0.0009486463824247898,-0.015746648778075516],[0.0008238811766321263,-0.016317485976601116],[0.00568304758719771,-0.005888072016012614],[0.0007137451265893146,-0.017916673123736387],[-0.001206600297493452,-0.02487007841765923],[0.008083077063194777,-0.015810503314071796],[0.011906335388330563,-0.01032568209174832],[-0.005454216060273,-0.006759672811078035],[-0.006377339251554432,0.02446674556483006],[4.29230672632426e-05,-0.003291104918152249],[0.0006359521317107221,-0.004598738827285152],[-0.006313345273988069,0.022994948312944175],[0.0035432645268612555,-0.014625223859504032],[-0.012124278461736922,0.001072903662121518],[0.0028095401241959293,0.004152831859681773],[-0.002945017406737107,-0.0015297185443577778],[-0.01193595102966551,0.0033024379827762906],[-0.002806548486788537,-0.012309053072342665],[-0.00018909182020735503,0.013446836407455792],[0.003161203376753704,-0.006502015414572223],[0.003950079719601513,-0.008799666680802988],[0.00336045708173057,0.019391265912571547],[0.002947352875561587,-0.005380401773742007],[-0.0023673119180323524,0.036732926446367095],[-0.001132109491976175,0.030551223727796034],[-0.004513903427296964,-0.005132380777110474],[0.0006166389827575626,0.002717230484768439],[-0.001620974226927806,-0.014490957762264903],[-0.003550060091804279,-0.006302623998871657],[0.0029378696704987018,0.012129079178466033],[0.0028582395341120964,-0.011947991505097308],[-0.00872212424915434,0.00964391450307989],[0.010087286044340815,-0.0024169932638334283],[0.0013897280347773687,-0.009253632032268101],[0.00034866219824641594,0.0023998757320114017],[-0.010003253231363377,0.009533365521464932],[-0.002065327625317411,-0.017695210366081803]]],"a":[[-0.005384411943676703,-0.004605096465967725],[-0.0042621592446257395,-0.008096012888776098],[-0.00487584654403624,-0.006507019517776424],[-0.006661038701900063,-0.005822876944924505]],"b":[[-0.006149476691398299,0.009994229465881884],[-0.011055463495280134,-0.001225497115534641],[-0.00020349548735785786,-0.002723141667158764],[0.011519020504415193,-0.006899609185550597],[-0.013295003257501124,0.008325877896183234],[-0.001734371672710338,-0.004964584826975351],[0.00016862532626807781,0.0017893871493346572],[0.018380800754288086,0.004152919929150691],[-0.01262226280261339,-0.0038809269339747563],[0.00569665958513726,0.007821586445388105],[-0.023747191346759764,0.0015911740595058994],[-0.007364463809400105,-0.0027983200830918845],[-0.0019590444450908527,0.003621879923457363],[-0.02458116270502919,-0.013608532806029068],[-0.003916941169756271,0.0077245657403193085],[0.02495296862248372,0.013730429589016949],[-0.019666425612148142,-0.006670118092325734],[0.021861660904758565,-0.0016111434891839514],[0.006548475165880958,-0.0008465757403070276],[-0.011742517907249488,-0.017052233851264472],[0.007303003034444056,-0.0004038813471471952],[0.007812474805375475,-0.02297353312410022],[-0.01589158486791354,-0.010296679788283464],[0.007857125888302025,-0.015346140622227108],[-0.013809258570241182,0.000616426772044275],[-0.004423288753994168,-0.0039015908833515715],[-0.007940927880562153,0.005224200033559053],[0.003206460463374765,-0.02211090933012907],[-0.019071928734552407,-0.01239753119755218],[-0.00830129433349061,0.013231812915957427],[-0.002615854020716172,0.00025867897101524453],[-0.006247962904131904,-0.007216219653301595],[0.010673974725379023,-0.00537955692486576],[0.0037960042116740385,-0.007779942476233273],[-0.006571370558424522,-0.004371629267553659],[-0.017872663097532732,-0.009344530960583547],[0.010215600539946787,0.018946927470548554],[3.3948694492661514e-05,-0.008805953368760451],[-0.010443555208724867,0.0027219474700334997],[-0.003996728959503705,0.012013078111484244]]}
