{"Name":"RbmSpin","Nhidden":40,"Nvisible":8,"UseHiddenBias":true,"UseVisibleBias":true,"W":[[[0.029590410444940547,0.1395587936440247],[0.10849218734786217,0.03676922517121071],[0.12821662800349662,0.08550760109583985],[0.08698690158523534,-0.06080882356461334],[0.07291876561479074,0.0850327339630616],[0.017678544385507634,-0.09110599642942731],[0.1535192060812777,-0.0944696822460381],[0.05640830250104891,0.031334423551501685],[-0.08324812534714965,-0.047121093295454296],[-0.03442670334913987,0.026135472492762848],[-0.08236259968235506,-0.13136206698123515],[-0.0963860095945302,0.11264712103245414],[-0.06154176232206772,0.030501055854928658],[0.09926733380877668,-0.10525136420714279],[0.09161710010370512,-0.06039074292651431],[0.07677802693725871,-0.018717144583678826],[0.02677790812761218,-0.030291669572547603],[0.010977214841786034,-0.0023827890250650093],[-0.10925486749341691,-0.05129342840004536],[-0.012949405286351594,-0.05805512952825889],[-0.03730217507629322,0.013626369197936992],[-0.07784132186487103,-0.03341047896345963],[0.12641608717179287,-0.06763060140994881],[-0.13994444929592237,0.0326345695384183],[-0.05962873824665718,0.16492343402479467],[0.15688109320176907,0.008514667749422595],[0.02409745774546431,0.2016448390504589],[-0.04200766324189583,-0.10170621134454899],[-0.016321791802255393,0.023383293406952187],[0.06176567158096854,0.11645269492526797],[-0.07531666637309906,0.0143136007632267],[0.020819731459471136,-0.09219790377264085],[-0.1465876577988504,-0.09339019848388547],[-0.05471112081470754,0.14263257797900272],[-0.006111166570949711,-0.037498671380732096],[0.03162998822190486,-0.11640074669589608],[0.010025548510971878,-0.05279128914137012],[0.10484002606997365,-0.025927464516023464],[0.029660067994261564,0.013501863450739034],[-0.13557393782186122,-0.016117944893841496]],[[0.031418466966976345,-0.18125424820468547],[0.17621208315865639,-0.05680421299282863],[0.12557005078295763,-0.07215297764146945],[0.02399213077608397,-0.018687587705408376],[0.03174975421708072,-0.10507191925958796],[-0.04050712208878729,0.09999116845501875],[0.07914833334450051,0.03167690183512932],[-0.022455372838342428,0.0398413304510546],[-0.06528870724867109,-0.012703663957896846],[-0.09598510948933878,0.004613868569835219],[-0.06763719316611266,0.09969889815222674],[-0.11324367819091292,-0.13075138037858972],[-0.15936154671897249,-0.017663477809012916],[0.1218536429666974,0.1240307834481585],[-0.004639809491565612,0.015380160487969259],[-0.038384874807838906,0.012645060897879094],[0.04316105936608809,-0.05688206138634801],[-0.04182985495194663,0.10945082988131938],[-0.1152957440732835,-0.0007759621250529097],[0.07389004277978653,0.039008322159920165],[0.0436126331101264,-0.008166713608024402],[0.04631335780360564,0.08706028426675566],[0.06757844952676305,0.09045728849924645],[-0.1524834096472576,0.03770030023920049],[-0.05190292430054816,-0.16134544895245786],[0.06167696540227551,0.017257673216809884],[-0.00398971444175274,-0.18323586612850654],[-0.030627658403646563,0.0418845172433439],[0.07733062668636476,-0.05104734207353417],[0.04568614454769872,-0.08119276002185764],[-0.12118113216731256,-0.02759934423362281],[0.0787903475596034,0.027889193051793423],[-0.15956341669465493,0.09226961680619193],[-0.05097943395750611,-0.13174116558568189],[0.026111340561962845,0.0958771727400424],[-0.03420099623613462,0.02735289839615281],[-0.018063739401335224,0.005126509775976101],[0.0020464740503165183,0.05838577768099885],[0.12362633090842154,0.0643105657386028],[-0.032192231734101774,0.03998350448386021]],[[0.00774626381540484,0.17888492505266954],[0.14115621416658802,0.029594273649755205],[0.061338628311614914,0.026107951706588566],[-0.05977673471564466,0.04063965499669904],[-0.034394277205182906,0.08628690150746611],[-0.06372404000072933,-0.09827106961284304],[-0.04576273105643579,-0.014711496516706377],[-0.09699213095810669,-0.09214560708989146],[-0.009909752047739341,0.021476681538008385],[-0.11742924747144631,-0.041325668751387275],[-0.03695144072983949,-0.05734253167481889],[-0.06368635127736112,0.07870233558470713],[-0.1506381613736935,0.0026188508397088713],[0.08462086810155889,-0.06789155746987335],[-0.10222415857771842,0.06982271606958715],[-0.17612138522560983,-0.08203279752433627],[0.03454618912025092,0.11791864952889783],[-0.06256551104024423,-0.20527705875279045],[-0.05482462026872999,0.06778452564552956],[0.11150589260783594,-0.025338122136097655],[0.11134876771295718,-0.06970878471238641],[0.12523108795071713,-0.1306157125449861],[-0.005066160210279105,-0.09490110984978278],[-0.057445310647630275,-0.06966983281063537],[-0.0026011512565706245,0.10721131329781203],[-0.06236478811802098,-0.03691295863997298],[-0.022438944882388207,0.14578058852724632],[0.0009289539078303527,0.08476612592540803],[0.12158025253955837,0.057478090262254665],[-0.004721240186207845,0.029954600939976265],[-0.1050368163341156,0.024930038853129746],[0.10361518947844697,0.015099901307884024],[-0.06130968608768938,-0.01686449099220919],[-0.035647437657219685,0.03254138683325025],[0.023568897452673206,-0.16224084615381745],[-0.08542352229078286,0.06289034096872712],[-0.04473850200086363,-0.031062059487512162],[-0.08033739757712935,-0.023408045051708546],[0.11269634903817678,-0.09285197636959389],[0.0706393461772889,-0.03553113373496864]],[[-0.02607338451363435,-0.17450389908406105],[0.048717096409531126,0.0074136210377222355],[-0.04179674451615048,0.011970607665053803],[-0.09929470841908494,-0.05242242136975178],[-0.08200126167534699,-0.05322096495331198],[-0.060212618610536145,0.04606417985086883],[-0.13785090548623868,-0.06210005680664755],[-0.1081972853125803,0.120881819723953],[0.035622025361920065,0.009558997137974555],[-0.10139546576618842,0.03759932411187379],[0.007656185040458915,0.025863166873375226],[0.03202859582610223,-0.04519935179088649],[-0.04779403258175316,-0.023127825589291665],[-0.0151998434337445,-0.0020428351326351336],[-0.11459166388793056,-0.15795471107726916],[-0.18274154411780388,0.09689512307449022],[0.009002363925037324,-0.12335791964550952],[-0.04739486429656985,0.17562104650117413],[0.06880316231159989,-0.07987892878938478],[0.0762058869456217,0.010865455706911388],[0.09939428078680783,0.12405828188756308],[0.11411979024795656,0.10336194922092051],[-0.059946883022581256,0.09620816865156476],[0.10987423604248596,0.05531765252025164],[0.06943082136627327,-0.02692381252302754],[-0.15648376183720666,0.11876398888031697],[-0.055921542330223714,-0.04652321120816641],[0.018437334177944194,-0.1779276049721317],[0.0932941492452228,-0.01804097692989715],[-0.06423666502147905,-0.010187313085412427],[-0.019543578660710863,-0.028583517865752636],[0.07817697028476699,-0.01577951952576092],[0.07191696414679459,-0.010152857295822668],[-0.012283754903441794,0.05612702122867847],[0.0007161599048309417,0.17114762923002594],[-0.07861015753917258,-0.06296299056005583],[-0.04325259898301629,0.08971191644530392],[-0.1150809966432497,-0.04031974727401339],[0.03519536151879492,-0.03708034067211789],[0.12868584652832182,-0.009471869096582528]],[[-0.02308542467785043,0.1592244157257871],[-0.03583245776924101,-0.02070595460439835],[-0.14267768780381035,-0.04357115627053058],[-0.08054082086137514,0.007067596044868819],[-0.07773092828772817,0.01036310836181362],[-0.031072202871294443,-0.014767762100885205],[-0.132931782051878,0.0948442662933469],[-0.061472779153863344,-0.04314013047322923],[0.06347656048612885,-0.08123280116224199],[-0.008208413272471087,-0.017325783401158985],[0.08210903016270439,-0.035012330852370564],[0.09000643675099872,0.019289139124334897],[0.06760320230681253,0.05162104412147037],[-0.08820180082632152,0.0470237293676147],[-0.11169973656987423,0.11535770658239491],[-0.0372624853069275,-0.05370001921078674],[-0.029887180813980584,0.06430769560032978],[0.018497805706983755,-0.10794932044882909],[0.14293740331541988,0.10794811627341763],[-0.0034469206602521047,-0.031072343695316525],[0.017207752918245223,-0.13833540120627183],[0.04924775485159611,-0.014231702704780412],[-0.1174868921565704,-0.055542850663707136],[0.14807561374574646,-0.02486277675925002],[0.09032898549306001,-0.036885184087414494],[-0.14946054988929275,-0.12258624448220258],[-0.04619523838421685,-0.0010170023048652328],[0.019665618267078765,0.23787603480941746],[0.004723075325052737,-0.03552577590967796],[-0.07862890829181228,0.009361262857359717],[0.08587684906473798,0.03593909882428359],[-0.016806417086722893,-0.027147315529127417],[0.13814025485546463,0.028399909507011673],[0.02467092223351325,-0.1313055112674981],[-0.004460833095810883,-0.15287200007044244],[-0.0024173975164101845,-0.016320801500157453],[-0.005577164720113973,-0.1568220399633639],[-0.09843855521224254,0.08600624455507917],[-0.034401824597752304,0.11801186973444852],[0.11865706552644503,0.032153017923750214]],[[-0.020000616167533753,-0.1145582182520062],[-0.15723437840277898,-0.0018574064322496719],[-0.15752462233549575,0.04089814803630005],[-0.01500001662281778,0.04091705693381013],[-0.018790880419534525,0.029892667807364662],[0.026688483775524224,-0.008239530052346388],[-0.07740273028415229,-0.043878857254787476],[0.022460971143138903,-0.0025288048864617924],[0.07524610123299558,0.12296209070889544],[0.1214077299598158,-0.01335229126020987],[0.11421047280462739,0.06961138813640669],[0.09822910899043145,-0.012052411257621028],[0.1276624592113927,-0.11871069237514424],[-0.10115506829268199,-0.05929675428493046],[-0.006529528855714941,-0.04062030892266249],[0.08055132032971166,0.0674379205782976],[-0.058701872725792206,0.019926162677597357],[0.047126283170627864,0.003759716629736113],[0.12747815623052183,-0.04851890811083848],[-0.06202848152997693,0.0545757177867658],[-0.058819924270658554,0.13222698479726586],[-0.027775660277308937,-0.04090513600793875],[-0.11830420771305683,0.02209107526369015],[0.11529235594222745,-0.0380321434815848],[0.047901715625457905,0.04309741180717992],[-0.04040661596076244,0.039028314239406836],[-0.00027018074144921866,-0.006478742331629868],[0.029009266073537245,-0.1925644912834031],[-0.0742764887964158,0.062343236223212486],[-0.04071429715588315,-0.024301846204490794],[0.11580087019637227,-0.05659381175495093],[-0.09086976617143204,0.10273036554824384],[0.13665402245521457,0.003329651421829717],[0.060745219447133104,0.11557136937934598],[-0.003155447030651873,0.07705768634183681],[0.07163985390861677,0.11314701870114707],[0.03787218045775336,0.19663519991041997],[-0.023890934250198483,-0.08454708063715452],[-0.08161675334146211,-0.21169136928598334],[0.04171717917697346,-0.048363129291249786]],[[-0.0116822796435864,0.09352408795947138],[-0.19361887574393186,0.0163164767504122],[-0.06687587812976675,0.003547343962652304],[0.05584639100863741,-0.08437206817419846],[0.05369728725977199,-0.016631270039155377],[0.0956516425001656,-0.031787197043341764],[0.026655795795197564,0.01075851548235866],[0.09644964299973205,0.06950801768280124],[0.03684693860243805,-0.12835968375490878],[0.16624217646163422,0.03592967391589537],[0.057272743650830384,-0.07816398290565578],[0.06234821739644286,0.028438125187663976],[0.13365545839426257,0.09980951935373841],[-0.06947900794145417,-0.0016055978688017678],[0.11083405284997733,-0.02588453151512939],[0.1381219975207862,-0.022780869733273763],[-0.048521653726925955,-0.07990309887229213],[0.040551161711758,0.08910947267525043],[0.02150588547409135,-0.016423043481576957],[-0.09370851107259895,-0.07280628466641104],[-0.10095562311794985,-0.09196813915640441],[-0.11175462614311418,0.055053440679601044],[-0.010970590346487962,0.02191740773513062],[0.025781311807716725,0.0785826591301338],[-0.04302465450149237,0.013532915552503239],[0.08040641255022207,-0.03443575707262853],[0.04591700733736659,0.08217809649565305],[0.02209505408616876,0.07037467078403987],[-0.12341374874980972,-0.06525427336194228],[0.023730335465063604,0.05197797416824585],[0.07551037976449462,0.03725462522608988],[-0.09369538041437378,-0.1412928144324244],[0.06656567748393498,-0.03435221901425272],[0.06769373530605033,-0.028629292658635213],[-0.022299278880679244,-0.020815287691194877],[0.08413454357078479,-0.20521492128794255],[0.05913944693023911,-0.1913439681033546],[0.09585980267440458,0.05026995134685173],[-0.09038239421722566,0.22755712963285682],[-0.06984256264637509,0.026115410806964792]],[[0.006657289791774805,-0.09656417600292358],[-0.07929396538475972,-0.02506309519283803],[0.06367949552017806,-0.03997360366537935],[0.08881970603360409,0.08348101089037611],[0.08352095446909107,-0.042794160572406446],[0.08454263166365748,0.048320332860473283],[0.13598769465270122,0.05605588592679935],[0.10044780704208708,-0.07955789834761669],[-0.04181031265589609,0.10351914228228219],[0.091796736771308,-0.039051887219177954],[-0.058653522939162726,0.11412537865912105],[-0.016364963231981965,-0.06329815792836874],[0.06285537071875394,-0.06169520928090126],[0.009364357828445843,0.04812999491441237],[0.11231394976904674,0.11711016556255428],[0.1298230085786288,0.013726677293246255],[-0.014983790607042467,0.08627608514928387],[0.04522932917198763,-0.09964282718619272],[-0.06822575937169764,0.05843674421253032],[-0.07870647459174711,0.07366155408502925],[-0.09039907444772732,0.03967917722133345],[-0.12401882371058721,-0.03484993683018948],[0.1146129129500764,0.028755303178464094],[-0.06825693366150193,-0.05333765511379678],[-0.07208269026967382,-0.09724246968045179],[0.14954812337319084,-0.020235954236014046],[0.03913411265569134,-0.1779458429415946],[-0.02165199284230905,0.04273623836773873],[-0.10385244444311456,0.039601420235069865],[0.059334619444222976,-0.11334481101901023],[-0.004873493000925721,-0.02658618226682639],[-0.04139589412329988,0.12955721567388975],[-0.04684367888777088,0.0503659226804725],[0.00496372889837074,-0.07510570369370656],[-0.026475115739543108,-0.009016158667867593],[0.058428419174360174,0.20010588404301916],[0.03336045108845196,0.13965651381256494],[0.13527356604516327,-0.01080376362927846],[-0.07842010969720058,-0.10264811427153757],[-0.1406678747876879,-0.002637488307020896]]],"a":[[-0.00015010669499001161,-0.015448758249395483],[-0.010612206931679517,-0.005788045729606627],[-0.007177937505947389,0.004506481023564391],[-0.016818085477732687,-0.0060277903085330185],[-0.0065329055097884565,0.011372099111169643],[-0.005840488214649789,0.0005761002776765134],[0.0031404839614670955,-0.004210047787150563],[0.01771297959740201,-0.010582807104621504]],"b":[[-0.012898679100507963,0.008572065435722757],[-0.00855491628483201,-0.005635903597987855],[0.0026340408005041185,0.0034679384784194987],[0.01637219925033152,0.0014535541396815664],[-0.012870256650178631,-0.005069928811580486],[0.005596837918451408,0.009229168824737009],[-0.03006612228091906,-0.00578937877074593],[-0.007839685092282354,0.0010150131145018819],[-0.0024250623118185943,0.005120027730855711],[-0.02323681711260203,-0.012357963432080454],[-0.004484857545432928,0.0072082886326291],[0.026037434530291254,0.015141092266525885],[-0.014745024445719918,-0.008675139632089405],[0.018615438941987392,-0.001768312812099976],[0.0003357887172813811,-0.005865235199100929],[-0.015053866372520444,-0.011202688587577085],[0.007260598095252523,-0.00036009239332439693],[0.007972295958157906,-0.019599467760064767],[-0.01792232379302026,-0.008572903950033389],[0.00816365099393306,-0.015098227102470564],[-0.009814128836344728,0.0006234443266188017],[-0.00022203058883849976,0.002290996756846082],[-0.007083921526523215,0.0009404759487210304],[0.0033118702326217406,-0.022089083603654986],[-0.015617197481668173,-0.009791091573619053],[-0.011064974964865732,0.009860166184913203],[-0.003560843619937501,-0.0016392499907444335],[-0.007346753792423276,-0.007150078054000707],[0.01100013349687186,-0.008140613024854226],[0.003867567172506762,-0.007702048837133833],[-0.0048179423717001485,-0.005097128758618],[-0.017316455462781894,-0.008194611085311542],[0.00764996711225943,0.016979116273338975],[0.0026190358581300046,-0.01012807352401444],[-0.009296986260699297,0.004268538852005887],[-0.006802385240847013,0.011319949647673697],[0.00183737037745779,-0.0026637984558986524],[-6.506981571885909e-05,0.008747170684642383],[0.006412838194411418,0.013810501324331266],[0.0028860903522971238,-0.02201724445288925]]}
