{"Name":"RbmSpin","Nhidden":20,"Nvisible":8,"UseHiddenBias":true,"UseVisibleBias":true,"W":[[[0.008542007111908742,-0.008084069149180764],[-0.006917271637052212,-0.0026308082294083505],[0.001119698431322575,0.0009833847580874918],[-0.003212781470339394,0.036463048858307937],[0.00566630829829669,-0.005755185693213747],[0.002762660011159107,0.016555652571504122],[-0.0008151932565775627,0.00458895616100385],[0.00669845468084779,-0.00010985957538883537],[-0.006408820142638384,0.009268488723248477],[0.007704975225625332,0.021536349950939594],[-0.010296670711688967,-0.015085962634021833],[0.002553438757996778,-0.001734442233838736],[0.007903398391872977,0.00762624268491938],[-0.0056009245982779786,0.022363760639615357],[-0.0020432374181472805,0.0012539877311105094],[0.002163828771460669,-0.02295787526839299],[0.006043938346368338,0.0023244949957621445],[0.003722740681749873,-0.0056006266159877175],[-0.0087847830620836,0.020725994253625087],[-0.002165571191829909,-0.00582838072682634]],[[0.006050652718561956,-0.003774145115620876],[0.0008725180524188651,-0.03297480770487478],[0.00906098542359014,-0.04147451194110623],[0.0014816203110426139,-0.02693523356992879],[0.006092521484686712,0.0015086113157326973],[0.012029137552017224,-0.0675046708296773],[0.005195047136912008,-0.015228483125865087],[-0.0011905987919157022,0.007359958423055847],[0.0022859531650291955,0.010448032084392267],[-0.00013665274388035168,-0.007007656681801727],[-0.005163757142712807,-0.0013097098626973062],[-0.0028744976114549927,0.0014243212176823776],[0.0027013170983833596,-0.03316255361353583],[-0.00479314520102656,0.012914281545774932],[-0.005212967772895886,0.002055327724549332],[-0.0043696553579343055,0.01884071067962382],[-0.0008985921957206915,0.011452191151206104],[-0.0020549004227570686,-0.008892835490326842],[-0.0007140003660002791,0.0025349627941258376],[0.0065058036427970405,0.0034649255439208747]],[[0.012406016403750223,0.028953886878691017],[-0.007325705958195648,0.028061876236173983],[0.0058898279564242985,0.012396768045016063],[-0.005315612547525188,0.021884322933936908],[0.005604898913816549,-0.030243215681634128],[0.005027039674666913,-0.004423984259706628],[0.002259321783956465,-6.685786793000354e-05],[-0.013088128165549667,0.03006030463386133],[0.0030790984592865118,-0.01602920008146962],[-0.005941639612580541,-0.027850219375965764],[-0.0006349572810512579,-0.0190969391260521],[-0.003320281164963968,-0.031064702240390537],[-0.001719398929256954,0.007892013304345195],[0.0015810805181073694,0.0018952166685237775],[-0.002235288283085927,-0.030993616083906782],[-0.007739597074552883,0.0014993148120227805],[0.00977886203178136,-0.017242909910356763],[0.000459566369872799,0.002579535365425936],[-0.0032859569567954775,-0.008316527186106164],[0.006767039379965604,-0.02612247787280503]],[[0.002958417642319859,-0.013679139318290543],[-0.007883842563859196,-0.030678093763066846],[0.008232306340469809,0.01819048782750116],[0.005677080340965056,0.028744517099023478],[0.009303596883402685,0.034272427373917155],[-0.003211285524384883,0.0024130167950343726],[0.008026652870316313,-0.0014084669614262333],[-0.008612055920327643,-0.01983960500414141],[0.005641413563718156,7.416323452139735e-06],[-0.006816567008966065,0.00021445936800325064],[0.014111803200092723,0.02173116156488055],[-0.00370551322630054,0.0004946575026906539],[-0.007447785723913493,-0.018106985683126776],[0.004455322471778987,0.004836891443015761],[-0.0016726185024766738,0.018828712745665655],[-0.0014512992865441945,0.018428489447012853],[-0.003740912481107133,-0.0018621367521563556],[-0.004378212978808495,0.003703997369882316],[-0.0009448798420752889,-0.03285781725212372],[-0.006619763813002129,-0.02169808797576449]],[[0.0053533973830332815,-0.004694572312109159],[0.00250429987698132,0.007263491415035806],[0.0033587166433155452,-0.01697456968031241],[0.0063670721138090625,-0.01382515716463459],[0.0021242759276904662,0.005976727193692718],[-0.00582399685892689,0.0034554702450161926],[0.00906913685707103,0.026313151003522103],[0.007495655724876485,0.013126118347424134],[0.005909427703551549,0.0012623020062469904],[0.004999663738120029,-0.000839046829502102],[0.01366464387642355,0.0067287760326417215],[0.0019086538608319064,0.019933067123258867],[0.0007565191757943183,0.013110541438072462],[-0.002092664371018855,-0.008666990291634032],[-0.004813226181027139,-0.03149661918610381],[0.0031431855995699806,0.00230067143131693],[-0.01177187986861564,0.007577465741285227],[-0.006459291022774558,-0.0236558156655615],[0.0011396497082594413,0.019521441298161035],[0.004008902590219703,-0.004727292531147238]],[[0.011911747617506479,0.044672491442081005],[-0.0019153406560635693,0.0003306867135964029],[-0.003305579401885189,-0.014137875887397238],[0.0027081329632943833,0.019929716036067333],[0.006155865538484352,-0.005127960660424494],[-0.0014076574865994947,-0.006585703261054898],[0.005005237041603238,-0.004050136711233431],[0.001945465906588451,-0.008722503327476214],[-0.001625632300047081,0.0005973915990639245],[0.001025016938840733,0.0179400989597434],[0.006241787194214348,-0.013974152683716965],[0.003178074976238998,0.006347877820733205],[0.008376296451470807,0.001990204046573812],[-0.0035461037400953068,0.01249730325697002],[0.008160479005268912,0.020419237743029287],[0.007116286277282473,0.0038364181912954104],[0.0003886143344235336,-0.013327378044778281],[0.004661252309533056,0.021270673719810465],[-0.007892803549802988,-0.02122178151090018],[0.009084943276395937,0.028563147524074062]],[[0.0005483789342836539,-0.019321605460476326],[0.004571294794037566,0.0012261828874820717],[-0.005043186867528766,0.012234428792313958],[0.00349854574884854,-0.00041699754202375065],[0.007452687377614463,0.017817534801091457],[0.003313286894352542,-0.014762659002055145],[0.008252489914741196,-0.02280193847874673],[0.008181687681254535,-0.004894067761896429],[0.0010338981765074604,0.0035834600304846284],[-0.0020023765030035517,-0.0060224157536750535],[-0.005265441807199413,-0.00534057529102597],[0.0036148458621119745,-0.02059081084371234],[0.005711993722379917,0.013600999025938936],[0.0044794274410301016,-0.016826046658775174],[0.006130250170881554,-0.009590284905437143],[0.008881018886692918,-0.0215546573192789],[0.002630188814453926,0.009538993039486939],[0.0025760152647184968,-0.02067799344116664],[-0.0012141014773646602,0.005383184372545885],[0.008507001279984583,-0.001393083090956021]],[[0.0026876298341516032,0.011263055177970958],[-0.009573099411720971,0.02654345818567653],[-0.005719323073440825,0.0005320123108642772],[0.00042436259225174815,-0.015485614367643058],[0.013085170118603155,-0.01843856709289892],[0.0006440153281227566,0.014821149373123352],[0.005972333948604915,-0.0047435369223273495],[0.006692382845491549,-0.025437157401843102],[-0.0022249906626412527,0.007498716756074117],[-0.003382505330046681,0.004034282290447846],[-0.00786985760034478,0.008840291419137962],[-0.0038372079025634515,0.016635294554239288],[0.012269978405372804,-0.043923889147158536],[-0.002212449429889004,-0.014945971003776004],[0.008978097572398262,-0.029517063220107477],[-0.0015065361639820798,0.037624248259578844],[-0.0008794688140883813,0.01493019287778152],[-0.00467036273049188,0.029638794678713477],[0.0017123922454346597,-0.009746096720454582],[0.0008080581182779001,-0.0026042451459911842]]],"a":[[-0.00202071652949595,-0.002017535564701089],[-0.004814277810367108,-0.0008591193162727718],[-0.0013902366426779844,-0.0012916879810204011],[-0.0016371821607195428,-0.001979801853161791],[-0.0028233051870998936,-0.002205897472966299],[-0.0009479625904212764,-0.001681278720208336],[-0.002941758439375991,-0.002854793230190906],[-0.0009204447786987287,-0.0022454624092221095]],"b":[[-0.005211044194000967,0.019780260297224718],[0.007934390526028623,0.010223654960373297],[0.02570158558264236,0.017992687572639363],[-0.01350461790776569,-0.00020665373840611978],[0.010014621678443735,0.010399550376863043],[0.006453506443037228,0.015926219906744286],[0.000826797113681671,0.005085618227335383],[0.003253264730613252,-0.008138152031428324],[0.013265564648593173,-0.002586911591599565],[0.018459510421464664,0.004069343301067873],[0.002565496684066592,-0.0007022590951975439],[0.0005080630500623287,-0.001035524991362299],[-0.0017446155500373303,0.005454698201925798],[-0.014885343926508001,0.018765178017700064],[-0.0001189802858666727,-0.006616087069842682],[-0.0026324969140377446,0.013185147313233668],[-0.009675244570568547,-0.003276534328346329],[0.0002388867798329579,0.005538986654617758],[0.005658406060995971,-0.004158246745304753],[0.009894331946570616,0.003181414724349546]]}
