{"Name":"RbmSpin","Nhidden":48,"Nvisible":12,"UseHiddenBias":true,"UseVisibleBias":true,"W":[[[-0.1839758568835778,0.11370121549583823],[0.0003434317770637049,-0.18164187497436998],[0.04007334194305484,-0.07824918496798296],[0.030053678207625816,0.04910390116875419],[-0.007485201979013195,-0.06216131983824343],[0.08888443268132196,0.03225221281371004],[-0.025353641140104997,0.04125484072471769],[0.020102501938462452,-0.11685900203797857],[-0.11451885027950127,0.01235602579238326],[0.02594292303859641,0.0548718124596985],[0.007236071206316294,-0.00031559355476278413],[-0.06835463928846755,0.05566943338965143],[-0.1680302543687563,-0.09318467101301477],[0.16042422380304389,-0.03525242957834528],[-0.03340912670731963,0.014059523906129216],[-0.015318764143138828,-0.16599336899795736],[0.07820596428549752,0.02742784888165044],[0.09518229322353158,0.027974861459198266],[0.0995122060499867,-0.08621614164580903],[0.029022687560065024,-0.05270171816203628],[-0.05499049261469326,0.008108571701166963],[-0.1397446698104777,0.013374716130627164],[-0.10615172859327969,0.04221977875081123],[0.06320425297764594,-0.05245185606714727],[-0.06712344834386745,0.046060620375526974],[0.022117344876274515,0.01758459572255548],[0.012147625719484391,0.03881279122172485],[-0.02885513040852345,0.04715129504853853],[-0.0246456321941252,-0.06182480296499228],[0.182267956627752,0.061035525173646216],[-0.10837073483519383,-0.02788340824150082],[-0.026146497453639443,-0.048158193719269576],[-0.10350324950877182,0.005430278189539988],[-0.08833349386069239,0.06729081242126747],[0.06876316661962127,0.02044137829542077],[-0.07924203001998846,0.0796716901955712],[-0.1413726151166432,0.020830906937238335],[0.06999513009595411,0.07976821215311594],[-0.023037234373505466,-0.02237510555300718],[-0.15338787416059185,-0.03135937647768422],[-0.08358794972582718,0.05755260128188478],[0.2083454153130323,0.07015987195708172],[-0.14506148393880944,-0.1118939817319276],[0.006715878865142116,0.06841042994467579],[-0.12882698014352664,0.060999831766198734],[0.019754600316068738,0.01310252818404376],[0.0002881844401500363,-0.15680685391190743],[0.042819667281835304,-0.02242619492533763]],[[-0.10884335106462745,-0.13614456737065897],[0.007565934207180125,0.16594983349860007],[-0.07424166217237861,0.023248603181208933],[-0.042995344355091815,-0.058144434545488934],[-0.0337723345548461,0.022642340748856463],[0.13462835219975486,-0.04184835632959613],[-0.09326588416263425,-0.05889751804417101],[0.06008640965426879,0.08236802546760956],[-0.12284741975265401,0.010639690057877162],[-0.10881735385586824,-0.03578465973278616],[0.10246559678702828,0.0032814769586794142],[-0.094214654290208,0.08468458203142028],[-0.163395458089537,0.07892794089274828],[-0.029378406524402528,0.012923690578295411],[-0.03179032260241109,0.001383090292975798],[-0.0926200848397437,0.13047159903989713],[0.11120052531361004,-0.015839621035488857],[0.11932309604641866,0.025719854835913],[0.13623700722083093,0.11820300024587882],[-0.02931669356613304,-0.012442851236296815],[-0.0936269291758777,0.0576235287062497],[-0.0979698413658421,-0.009100006622377645],[-0.06731226473514262,-0.035611447311979315],[0.04176070243093027,-0.0018131139638484434],[0.015822000146503964,-0.049168648658756274],[0.042822955014290676,-0.09199526841974834],[-0.04683452890526518,-0.063328555753788],[-0.06327315298896433,-0.0012773141714539139],[0.10185661918453802,0.05328759300375171],[0.1563254885895162,-0.06880877948530595],[0.02203663504755424,0.0036721022337160803],[0.007683687569937234,0.1115713862985025],[-0.1092404603182851,-0.018604806912310215],[-0.06511391076827552,-0.0616711085052127],[0.01970067881573152,-0.0610424759960363],[-0.16210374210174094,-0.08767318241223625],[-0.039530585416166726,0.006370775107336937],[-0.06508655976332327,-0.04412201075580808],[-0.05966263273823887,0.005080747478487957],[-0.09657344027716745,0.039084024616427515],[-0.02398726372356553,-0.08901071836430441],[0.22083730653374026,-0.020358489888497765],[0.016586638166092127,0.05132165791408126],[0.0558807795206755,-0.08873066357925191],[-0.1461682710427471,-0.03307987420547957],[0.04537689879098785,-0.06650183408595176],[-0.10650240592917087,0.13140693682391438],[0.0340231296708612,0.06052566364858489]],[[0.041186469385562724,0.06306681599416325],[0.06396323988528205,-0.13209164593817072],[-0.1834271462087616,0.019382531911017867],[-0.05083899409904368,0.056208227957268785],[-0.056389704356063775,-0.03312602119130314],[0.08684758979804605,0.06154661616519107],[-0.09008905167242286,0.038028831416663224],[0.10406299897298792,-0.08659671236327039],[-0.05784731069376002,-0.09965415886402487],[-0.19556585866858875,0.023112296017564538],[0.1504448654253451,-0.017190733154990406],[-0.04087770471371521,-0.15029276987910703],[-0.06892772227782022,-0.019434472486057956],[-0.14444980134347815,0.01950028507420178],[0.030305983979861482,-0.020605881038407485],[-0.08311599347399513,-0.0445729552001632],[0.06119300310387027,0.009510310101518633],[0.08982024456192757,-0.08738669717008672],[0.05683761983115063,-0.10729379564561556],[-0.058492256087041075,0.07933268818426382],[-0.07146100691474372,-0.09216183139221365],[-0.0392778229000557,0.03949551344853768],[-0.04401878119602307,0.004341600497395035],[0.00926988105813463,0.030700010301550798],[0.03354714773055349,0.0627760580108415],[0.06736069703352471,0.1026246709262245],[-0.026529400271451033,0.023080099442180698],[0.02347962358856191,-0.020734559094848018],[0.17942903496005996,-0.025596090878230515],[0.06541909669348878,0.05325438742093216],[0.07951304670311266,0.021568062835889846],[0.04695319961452369,-0.09400967555529025],[-0.07740805361672043,0.047631565116964335],[-0.09763587049990087,0.02413020023649945],[-0.0696926454722807,0.023291021255864335],[-0.10410810128301892,0.0972849323261438],[0.09252137761125316,-0.0065226176330916855],[-0.1540236193688187,0.021725228681190322],[-0.04747146209890483,0.06752411439218822],[0.02905938678567581,-0.03949667268737738],[0.01800946565897273,0.06632840450546079],[0.07223770276641098,-0.03626905032230445],[0.07619366315058122,0.013764440407737891],[0.1389898437090936,0.0628438662435092],[-0.0817554095329734,-0.01666810471756449],[0.10119845383653613,0.10613932262513895],[-0.17326049487124676,-0.08808615227028199],[-0.00521761476247062,-0.08299112485258404]],[[0.146085639059261,0.00792534332357387],[0.08416832789587471,0.04431459133622855],[-0.16964406983396874,-0.02278096410376288],[0.08985358604324939,-0.04834909374140427],[-0.06167835502256167,0.043668255312103985],[0.04073199526686381,-0.051854003596296196],[-0.0012291212035576852,-0.01757164899972883],[0.08343231813166996,0.06987942121345996],[-0.0016141178812125023,0.1598758944023202],[-0.15652523106554977,-0.014632971180976402],[0.13852882528211838,0.019178726819726346],[0.05381931924836772,0.17713302360535185],[-0.000865874877971609,-0.038870040877600945],[-0.10490367162060078,-0.013822418528645096],[0.13677905607253796,0.05147803471075051],[0.017149048618054597,-0.015509134071574641],[-0.04930738219943158,-0.04716202549261183],[-0.004895412983990883,0.118297806840121],[-0.08886029937904556,0.07784806192425005],[-0.031427982326807095,-0.13286903431092903],[-0.044675538145410386,0.04808094245363793],[-0.008203398076431967,-0.09292573855123211],[-0.026391991746739302,0.008766524471684814],[0.04250789524602308,-0.017329545696785163],[0.053751285560465316,-0.10844670962304663],[0.050762850823176636,-0.05494570711332409],[0.029322925621674965,0.07591042934827832],[0.16742351637835773,0.03868466481132058],[0.13238617247937898,0.007657329863675607],[-0.05133007838772758,-0.03657903224862746],[0.07062959331161235,-0.008433191647551337],[0.07454739880533992,0.04704365809969171],[0.007789838858967709,-0.04562023741928284],[-0.12262982181073019,0.027055200550163905],[-0.11475514661376347,0.054578781636388705],[-0.026856087796081455,-0.09310811038559304],[0.1760072446131198,0.0054813749593188325],[-0.16938482103964508,-0.026834354884791946],[-0.058056291527499755,-0.09864376568974795],[0.15434196866365613,0.0187925489760313],[0.02477291009258753,-0.029678946843858838],[-0.06729117768255141,0.0807499225728134],[0.04754507895231832,0.029193847837862802],[0.12056151897539145,0.007418685179716428],[-0.03651619509232922,0.04651405329108912],[0.1427718352457916,-0.1267092104544083],[-0.1135996157700184,0.08913754427531353],[-0.03045357418664368,0.07373046224513753]],[[0.12191866687420053,0.003527913679371993],[0.040615465073253205,0.033180480144113456],[-0.04142512423422648,-0.01663240696854574],[0.21807814408669596,0.05631642936805607],[-0.03294992506715623,-0.038542033497988744],[0.042123535585274915,0.020927570457848998],[0.13882167467298007,-0.030469701447679232],[0.006790433005981554,-0.06829263875991778],[0.0032426454191060274,-0.16505962609030056],[-0.03732885563693502,-0.0025630696942700077],[0.05009798120875014,-0.03730683225564173],[0.0728624408979563,-0.1291882749629152],[0.017842026412294213,0.08332560624338743],[0.027495290154790627,-0.0027128552315765],[0.16521934266991406,-0.055490257052799107],[0.12565687856470253,0.04999942342498391],[-0.10645870343302255,0.12765575556101222],[-0.06335404135856616,-0.0788097852596144],[-0.17202842600776416,-0.05484794439047448],[-0.013184724103755366,0.13229136947040596],[-0.031125414612233417,0.038204377576190406],[0.014959525281065776,0.13296382717821628],[-0.0010400803552807892,-0.015369179460938921],[0.0942216043039688,0.026933251190589185],[0.075004193062971,0.10943587946056772],[-0.02830253278776637,-0.004714316028770122],[0.0005658334559868288,-0.13649205530951866],[0.21223340013958963,-0.06684137377959114],[-0.018056651496161334,0.0041808917815840604],[-0.12160826684774774,0.025886469733259157],[0.07471128068707755,-0.012409547564838912],[0.0786529868188889,0.01764245008488507],[0.09245812985228274,0.0724045272328753],[-0.044688447139776925,-0.07442304117172244],[-0.06790055075246658,-0.10036724560562385],[-0.012309795977758806,0.06779305700845928],[0.12323889746093185,0.003901459401115013],[-0.11646083162855962,0.017600176442992405],[-0.13039677036822048,0.07287713633052938],[0.20349563382618413,0.0046833591002347725],[0.07073900463675559,-0.043888178707851735],[-0.09818467200977582,-0.037656620895527536],[-0.034944222077882614,-0.09401409248207816],[0.02588303427756205,-0.09697741611507561],[0.00038411880089409206,-0.034367820010845145],[0.06294514265427227,0.10285643474610796],[-5.1563661389564485e-06,-0.09315518420014157],[0.019364536054472963,-0.03084463354541399]],[[0.040019677351265145,-0.06189772641466667],[-0.027095847775302245,-0.09928757198360663],[0.10536360974218757,0.040813495819184455],[0.18051451662885726,-0.05332781191558492],[-0.01380793373239293,-0.0011355072401689839],[0.06285131949428824,0.028778763638826633],[0.21053960346674483,0.04569388900984723],[-0.030001946929863764,0.01508369236760175],[-0.003630475153838013,0.05775119460639802],[0.03218460665054237,0.02122793738070325],[-0.027500010836896047,0.04632475980106711],[0.01447717702413531,0.06988342550688725],[0.007659800663594801,-0.08640909530069411],[0.053455339592589926,0.04051514472449005],[0.07828282605035043,0.06292006818396766],[0.16278409426245946,-0.08963675464903097],[-0.03324184459622279,-0.1968052845619687],[-0.050068171192748936,-0.009198598265538713],[-0.14593010490767916,0.04309862432977898],[-0.08538922313613535,-0.09902176259146975],[-0.04525521882953652,-0.10807307275389295],[0.035741860438127285,-0.11757914516671482],[0.049675003244221985,0.018562093731964265],[0.11583132627519516,-0.04009874619081921],[0.04452179374119078,-0.10631681112156699],[-0.11536037591313482,-0.013738933735028222],[-0.09337793267637035,0.1186856622992349],[0.10874891027190983,0.07733446921628599],[-0.14871360615931895,0.024704401401544607],[-0.13761399343052688,-0.026713622904889184],[0.10422773702156081,0.027725506508817544],[0.04983064910920694,-0.013467849981749611],[0.13478130317400727,-0.08806281301792732],[0.06333877894628824,0.06338808393254573],[0.006276170740972255,0.06852444367600362],[0.0026030130582193056,-0.005285287487186474],[0.008098316891010562,0.007901700059664781],[-0.025739397322188416,-0.029066173769051996],[-0.14152916187263465,-0.02566654259604641],[0.12756744015682497,-0.00011644905429641285],[0.17560343571128698,0.06093986929295711],[-0.07422469027828948,-0.009342859418737422],[-0.0548623706425223,0.1599075344226651],[-0.02772580488485362,0.1374954026725361],[0.04444258995202343,-0.006416400443777771],[-0.09962244549636837,-0.07111339016005154],[0.06552512108241788,0.09482311881311124],[0.10177288690869277,-0.008479496447498123]],[[-0.04971330832899477,0.15922452231401854],[-0.06876749881847612,0.09762983809887531],[0.19557672955779254,-0.03507047446841747],[0.01142571052530548,0.03877521041813418],[-0.030116457969131177,0.016953061057093724],[0.04558480452415139,-0.0626005802147202],[0.14263766416358423,-0.06780601338308556],[-0.015717338950167723,0.0001780969786777925],[0.034884493144001674,0.03131881066576923],[0.04386301393345825,-0.04226092912763673],[-0.038672973391715895,-0.026573376069877974],[-0.03764528981788323,-0.023984348518281406],[-0.001760644795417759,0.0790392441832848],[-0.05342862069533717,-0.04261497901537133],[0.023629812651406002,-0.02201859780742273],[0.12419334567385751,0.10047175715797241],[0.09675746358625613,0.20322164170454823],[-0.02999308880462719,0.09322678962495828],[-0.08501038208083822,-0.03495280085557065],[-0.14997826961239108,0.046631264658026986],[-0.05256093438997807,0.13432843689470725],[0.055492376030752244,0.04450029624994778],[0.15194935541438503,-0.017981176072958932],[0.04627548202574819,0.08187587422684832],[0.002274751517166581,0.05959818437894791],[-0.1504433412888749,0.03542184642787118],[-0.10837581896217335,-0.05154510993627579],[-0.10589910546848946,-0.09036270697294967],[-0.18082270635086295,-0.06341013837075206],[-0.10305337659351779,0.03511848552335272],[0.07765823247299698,-0.009255757909339713],[-0.0019893396859539366,-0.02605166057077521],[0.12860168232386138,0.09882402504227514],[0.11068386626146626,-0.06474456582598118],[0.007640753823516632,0.03409979532090537],[0.044301376970893674,-0.07060537729042653],[-0.01250310112334981,-0.018848619538941368],[0.04949477281593744,-0.0049061406414556636],[-0.018782691133133373,-0.011681649013000736],[-0.004226853789157898,-0.010845338550480614],[0.1593382854727884,-0.06477773647399815],[-0.0346209784723104,-0.015102815278241465],[0.039518643671095276,-0.1250194377284565],[-0.04390441575191275,-0.10164039403839997],[0.07962927699302548,0.005370405043883942],[-0.21386424108970536,0.028377663844272694],[0.05145819728097519,-0.016059518619274106],[0.13578630578362597,0.011367515459643644]],[[-0.03906920770181483,-0.1591975959628717],[-0.08026468094577668,-0.07982948109663579],[0.1651469125510808,0.017509760866079346],[-0.15764967179663597,-0.0036355529742058694],[-0.024207794350751696,0.059687460978725265],[-0.02901942195180902,0.03381022688914433],[-0.0038424593557113175,0.0606179484706302],[-0.025075366307400357,0.0050537246443322125],[0.11294967627571882,-0.05964133960129214],[0.037876312819213054,0.02957019522546192],[-0.004779709588413442,-0.035383955167169],[-0.011827861953168067,0.005339590527872496],[0.04460353721324814,-0.049596847016294326],[-0.12150963377070434,0.029155729700537928],[0.0212876325653242,-0.015059959597238019],[0.015792892817501934,-0.10461681029524533],[0.13222261858375675,-0.14348003894093164],[-0.046858836832230515,-0.14398024497550946],[-0.0414940287201199,0.012453097213048742],[-0.11602078595065637,0.0034520110629447753],[-0.033229187456844556,-0.1080783241075383],[0.09069096836690871,0.022173283700481133],[0.1929641625868316,0.02494432875247749],[-0.10737697664603084,-0.09644843744026081],[0.014272573316663038,-0.06849877622396713],[-0.09489747231947498,-0.06462585756650452],[-0.038484682591076,-0.021251388229733083],[-0.2509056819825432,0.06183292497919152],[-0.08846489187481775,0.10214353331583383],[-0.05612356073096721,-0.030033140207623956],[0.008457772700460092,-0.043645958628059395],[-0.05451906061130597,0.08573432338403575],[0.09434854394818673,-0.10408334092893474],[0.11495353344960368,0.03886509574137083],[-0.01452920080606643,-0.09991495137695862],[0.06185335309615881,0.12233420105613775],[0.02893445704270885,0.06786364292237665],[0.054877195214701406,0.0030493901114936714],[0.13059532103872978,-0.0288964893227781],[-0.07298579509711016,0.03723578252544054],[0.03069303431752944,0.023856538487211244],[-0.0055616912524521145,0.07208596063851665],[0.17076428821516035,0.03700341007439977],[-0.09149628805537902,0.0514351651653019],[0.084488383968526,0.029015999995579363],[-0.13809442649374626,-0.0236595452914933],[0.035030543628883595,-0.04491800260018707],[0.0823518196125598,0.04969031649487608]],[[0.020480561809347365,0.10189792875132553],[-0.05616943436411046,0.027430484978844292],[0.03093086367477524,-0.01159323579360994],[-0.22140393151921275,-0.03269605417185701],[0.0510942283098414,-0.15108862554633345],[-0.1290776385517733,-0.012613459588092343],[-0.10920672101947299,-0.07086412332518231],[-0.07118696561810353,-0.055068379908911856],[0.13930426037558405,0.022259418977308206],[0.03961276552459139,-0.012495587179039546],[-0.016122932317581613,0.08079433916186599],[0.04237924737378925,0.047110465061488395],[0.12291360596140316,0.048110547177604206],[-0.09350931951661247,-0.0028785607593827087],[-0.02860637053292722,0.054381013404911215],[-0.09585990496722241,0.07839954170906145],[0.0189252801439006,0.02685480349108436],[-0.07005200549714334,0.14743202570907307],[0.011752322057452138,0.024374542311750996],[0.013594658610146212,-0.027810850206347812],[0.03741470658064159,0.07384204398875872],[0.1252696636449621,-0.05606017653699458],[0.1184247468975837,-0.012143473357025517],[-0.20399340571875407,0.06813073893530722],[0.05093437573318876,0.07591149246204987],[-0.0015642677461711772,0.020897403677547808],[0.031099435156815698,0.034583339559678565],[-0.20176717912710423,-0.035491043226617155],[0.028895107301115403,-0.11768955182460603],[-0.042382936796775815,0.01445507435918065],[-0.017765771379163672,0.0803644430622455],[-0.06549441258557552,-0.06992300156327301],[0.05015846732025375,0.07863725318173208],[0.12820279029015094,-0.05894270107405395],[6.611084232120046e-06,0.08651508980850123],[0.047769954483905835,-0.1297126124143801],[0.03400845838804094,-0.08244123466480306],[0.0019909636123953316,0.02068325386011265],[0.16153198995755513,0.06539183393686455],[-0.05542139773414327,-0.06028671346989134],[-0.07720609149232258,0.0061660377542468985],[-0.033947068692474894,-0.14375727217106157],[0.18717470460843932,-0.0034414698343308912],[-0.1252103054644724,-0.009282726328305372],[0.09289712134890218,-0.0721152609863608],[-0.0066849008315402305,0.013911653740548952],[0.02435140247775475,0.08629576930587754],[-0.03499628583682026,-0.10729515281198945]],[[0.06727603520871173,-0.012444275970385476],[-0.00587540036313359,0.01700228045511154],[-0.060621910895908925,0.033709590657001784],[-0.15897399363159032,0.04722930582058163],[0.1070126655181374,0.19990958994944116],[-0.1881432799773725,-0.027784308371770837],[-0.12321031128168103,0.05771585227151952],[-0.0910972893634329,0.08361821377473136],[0.08658127254779022,0.012539440029962816],[0.08431793998713316,-0.006009142371974162],[-0.11341809574797551,-0.11335135102719103],[0.06870983173522936,-0.1000967737427046],[0.1646623974126835,0.0054723603688220995],[0.0023637611434632172,-0.009929673895015022],[-0.11748501322425148,-0.0524370868323931],[-0.12408684791955643,-0.0080066909893477],[-0.1344052482696894,0.02484996411880723],[-0.030250699190124384,-0.11483859139848476],[0.05409014725328636,-0.05080915656068613],[0.13923381780122882,0.03096688541094329],[0.13133705997042208,-0.07170085550472773],[0.10585692718077086,0.037449791556555014],[-0.021379062332935902,-0.012792390361465846],[-0.14988913058471187,-0.01485536773362208],[0.0114351532565188,-0.10978514328451582],[0.07765056324691122,0.07085820934173762],[0.0693668160550548,0.01905669777470142],[-0.020812630394485505,-0.01887959575320644],[0.06433477229230468,0.10148547711299441],[-0.0226136026855867,-0.013768847670204615],[-0.02820124328681401,-0.07342843581080478],[-0.042849130862014036,0.031923293294306244],[-0.029165654231291343,-0.029323062439370537],[0.10700728927339179,0.03151420677420367],[0.038536979683895994,-0.015914624969217493],[0.07163486689414869,0.07801283847459654],[-0.015395131599790658,0.09646563924888438],[0.012723195238179934,-0.05111985461613663],[0.10230651758359573,-0.08737600755587664],[-0.004892445732250282,0.04828746448408351],[-0.10174205908995462,-0.020796135382573265],[-0.1047797619704107,0.1126850024419723],[0.05998877856835385,0.014681190377350132],[-0.0764013034412853,0.024102240701976085],[0.10698915631940414,0.06484931039227744],[0.03924693077604609,0.003460872661663565],[0.04373720483215673,-0.05476503726371666],[-0.1644935660936131,0.11159608812763136]],[[0.02483652795591866,-0.011677612547053441],[0.029470564999604144,-0.08158762648519957],[-0.04711487366765126,-0.08582657129777137],[-0.021498279018277014,-0.014708810687602235],[0.0714088095861517,-0.20237945656504297],[-0.13748572818572047,0.02791186306209289],[-0.05151879186403038,-0.029841145811476375],[-0.05674417125601898,-0.12588085327894288],[-0.002853533743433068,-0.02903926020119101],[0.13131214904647154,0.031121715787800396],[-0.16847571650649265,0.08879065999859527],[0.05520485282454676,0.15532516327080834],[0.08453566000815108,-0.03883648126251205],[0.1381529527522852,-0.019469649295611256],[-0.14074905373363303,0.04065235477514611],[-0.037808902665519444,-0.07865879797225891],[-0.15559349858804378,-0.03605622854539072],[0.026567090839438035,0.07668601413015028],[0.050925437756625745,0.013979694277011347],[0.17573392384719538,-0.0490949694159727],[0.13857554232677682,0.06577099295331461],[0.008312082597440953,-0.0029580696412876482],[-0.12252579292572915,0.03739364676643993],[-0.029710192822619552,-0.05235393555184217],[-0.09955788072609634,0.09756593280301837],[0.0865643283629531,-0.10789483834067487],[0.07576126782998654,-0.036524017161341925],[0.08743344486666928,0.06550109558855041],[0.020485989810348357,-0.07529749380869818],[0.03532743444540797,0.03378952367219948],[-0.09212102194973311,0.013895437741881825],[-0.012805781925982541,0.024464581984297],[-0.08837482459491496,-0.01011892918224766],[0.0007412746964681928,-0.019619760193861736],[0.048531102242784466,-0.03785512074967942],[0.11383289924793541,-0.012329819112338027],[-0.11449307912940866,-0.024017297452056087],[0.12454273948432137,0.08609716745241289],[0.05603659964030093,0.05476135045798826],[-0.013672864909966649,-0.03178615803338578],[-0.09365853943871885,0.020524782558039703],[-0.09200943213350063,-0.029522034673192577],[-0.12979281641118398,-0.10809365748231767],[0.007851887252838882,-0.020533100144317556],[0.06990280051643319,-0.020777294681719453],[0.017915679927347158,-0.023849059065223128],[0.06238430090521851,-0.025673864468158513],[-0.15953160410290984,-0.07988165527238969]],[[-0.09589243008894272,-0.06267694964151946],[0.029079490711538425,0.14147524834707464],[0.01909764120155597,0.10654333429699736],[0.049505990676150115,-0.0027085130379101035],[0.013748433745586075,0.1468266674659259],[-0.02062432330329351,-0.034382029276585936],[0.012444039328334827,-0.012014097437508623],[-0.00346373917470365,0.1255057268399339],[-0.06312797171918029,-0.022693076610709538],[0.11466549471987526,-0.05632044519677828],[-0.10089739962295782,-0.05732532989570815],[0.003923273851595002,-0.12609061430396798],[-0.06717812214616309,0.09585535011025001],[0.22492229584245024,0.02073058677201702],[-0.06933100249241697,-0.027421608772067767],[0.03565335204109064,0.15168405772308588],[-0.05354314595349599,-0.006685051718280432],[0.06208103282407498,-0.05901597500533768],[0.04074311085719186,0.03680934770692791],[0.12114708223894721,0.047387793901718996],[0.04475155451050643,-0.06509796263291705],[-0.09977505661377145,-0.012074287662960308],[-0.13201263309734926,-0.05560958794667978],[0.041312460666391285,0.08344049392383848],[-0.14318042010976792,-0.07829828436168929],[0.04704556286625733,0.07219424478735077],[0.07198683915995507,0.02799932706124116],[0.06244222184567171,-0.07114449397890518],[-0.04106012355985984,0.056705744578035455],[0.10805267969768752,-0.06225328530286901],[-0.17061760484333102,0.02180391510650001],[-0.01843553691468753,-0.0022443762175718635],[-0.09304071668653542,0.024107923486005618],[-0.09249814980874736,-0.03863648047137634],[0.06175816877018164,0.028447089486337042],[0.05584835795160929,-0.05769354838983063],[-0.16398743542138197,0.022454896818305512],[0.16969930126088123,-0.09301327339199572],[0.02276834986723019,0.003261104323213142],[-0.11377125167171513,0.02057526065685335],[-0.1063386572179171,-0.03411536183909013],[0.03351022132209005,-0.05356634654116184],[-0.219302078177465,0.14844073391625986],[0.02393734408462038,-6.76477338283052e-05],[-0.029067720103387727,-0.048728593530759944],[0.012857680718429904,0.019969551256336242],[0.05742334911979951,0.13335872522344233],[-0.04456627816572571,0.034334303221736646]]],"a":[[0.005885147989092275,-0.006425439932993281],[-0.015521471195492282,-0.006910008402894929],[-0.008081600400253491,-0.005979856312888306],[-0.0005555619017823913,-0.004279753268427242],[-0.0097642092090706,0.00859479674859354],[-0.009217543664177777,8.877399434538074e-05],[-0.0036568354040645095,-0.00472106418802212],[0.002433997008740925,-0.010556199085720397],[-0.0067041536136947435,0.0035416275719566286],[-0.0018535483929566267,-0.003069050251349235],[0.0016283448109410102,0.010743696635712776],[0.022466650678109542,0.0025128038485181113]],"b":[[-0.0100027136587103,-0.005036050546624648],[0.0030024437098562866,0.0064873959415065905],[-0.017522360541086454,0.0064105395856533165],[-0.0018864455155799937,0.00036343475486176044],[8.190453980565728e-05,0.0043827357354985375],[-0.01787210370888203,-0.009017237923950353],[-0.0036116134243241375,0.007453573948425645],[0.022599464452685524,0.01451690167833257],[-0.01510052426707167,-0.005637087618460912],[0.014079945823580454,-0.00032419649105713393],[0.011171524188852986,0.0009453417147290272],[-0.007467403407399865,-0.016773521732413567],[0.0061325570095187585,-0.0024175107019019783],[0.01272100184059331,-0.020910464913267684],[-0.011566241719756157,-0.011306641540500487],[0.00679595086753412,-0.019640543377604527],[-0.008592383208645877,-0.0028073989431560233],[-0.004835708459778676,-0.004505980778290393],[-0.009079944804273958,0.005779432314590103],[-0.0024250117324169235,-0.018470447139566283],[-0.01750656664038879,-0.015037463214616409],[-0.006008353556716703,0.014475692225608775],[0.003663677851965492,-0.0016072157071468792],[-0.004209817071971352,-0.009635769693941768],[0.011053151473100223,-0.007137723940921943],[0.001024043655534794,-0.007338287208149104],[-0.005945912588002183,-0.004794037442823749],[-0.010584285493124995,-0.008248617725667429],[0.004285732990507382,0.017995297827530208],[-0.004209349242799844,-0.006274494732259807],[-0.011572595097189421,0.0021537858446520077],[-0.0037315148380275896,0.014477286600219423],[0.006845646685892543,-0.004578668752200581],[0.013466213579587952,0.014865847533242011],[0.004626711800551021,0.02029691691071694],[-0.0008981071369745199,-0.016578107815755992],[0.014133043807370392,0.0003907049776359435],[0.004976052594433997,0.006936091346945787],[-0.006416903837999403,0.00964875238869081],[0.014630218333656337,-0.0012987368432467994],[0.021160841799134505,0.016964586887018233],[0.002946727401388549,-0.005350370175609654],[0.004321379544288884,-0.005151960299781974],[-0.0016366811183441963,0.005736961975051764],[-0.0021370917967731963,0.013629074257283607],[-0.007223573255295264,0.002873696156716195],[-0.005634729613292141,-0.01906064956525247],[-0.0019917230349938177,0.013273305833153538]]}
