{"Name":"RbmSpin","Nhidden":20,"Nvisible":10,"UseHiddenBias":true,"UseVisibleBias":true,"W":[[[-0.0009439207022558176,0.0001236944340235528],[-0.0015603205575938901,0.0406992619509002],[0.0024552657116932355,-0.0031097154076378222],[0.0041627648272213125,0.010079434838306027],[-0.0029607990024847117,-0.0011972557038860876],[0.010878047271508403,-0.004814823524027282],[-0.005206965382335947,0.011678001206525797],[0.00564942116285802,0.025788727014416177],[-0.0038190857697891958,-0.0019350100638002448],[-0.0014482375388927304,-0.0029003531568308188],[0.007551463471737564,0.00705177136626534],[-0.003207141576920111,0.021066688500324074],[-0.0017051837622514263,0.0029526608283457234],[-0.0022793938231631615,-0.010567869357360675],[0.005680098413153248,0.018145015650837586],[0.008106592080116033,0.0008365193419159045],[-0.013063469693008464,0.023722052726440308],[0.0006216071578182129,-0.01122813814777777],[0.00594582948087202,0.004164930120484617],[-0.001304195755715362,-0.013406619768793357]],[[0.0037216872754615364,-0.02525403040686364],[0.0029912545396799713,-0.025889774227210675],[0.005450227288320066,-0.003886556505446022],[0.013692728734782935,-0.05937171171204046],[0.006033138895952554,-0.01774890605119758],[0.000639748621059095,0.01032841534253804],[0.0005296240367337186,0.014753316106490772],[0.000410688689630583,-0.011904670571512092],[-0.0028668104406646792,-0.010439779270503394],[-0.0036926147200712833,-8.601894221748704e-05],[0.004652327621620649,-0.04339929826673208],[-0.0042027002901468095,0.01842156972539065],[-0.005560607339683399,0.002908101374534719],[-0.005455743745787114,0.021576024063668306],[-0.0011447038873251532,0.014846980178634278],[-0.0006068574128760109,-0.0033382513435858026],[5.732131315312318e-05,-0.006456200111082184],[0.00740197237332495,0.006004935284149898],[0.0037566353835085044,0.028317028107233088],[-0.011503499952886862,0.04835541033596423]],[[0.003999364559793573,0.02910623448599366],[-0.0033833485206237585,0.015927200812067045],[0.0008116949855417245,-0.04158578292233335],[0.00587827082052388,-0.008731072887935306],[0.002582276514212776,0.0022768714500163113],[-0.005820599171936895,0.024015715876881307],[0.0026318668666265276,-0.006952905557264538],[-0.008060756403823224,-0.02753079393857514],[0.0005526638789864276,-0.02050024192856491],[-0.005437839102589229,-0.018094341631446645],[0.00033634793716301074,0.009083643278125313],[0.0036884418616939894,0.0048358275007716525],[-0.005883156815718895,-0.03535449218127403],[-0.008995747103649554,0.007072597790573245],[0.006086799163500192,-0.01754328637293767],[0.005332375782606773,-0.0007877593052844966],[-0.004744534777836071,-0.0008304653409244755],[0.002874626557197243,-0.013729736728295788],[0.0021649008264546703,-0.006724155392134781],[-0.0025172708808309414,-0.03593304688717307]],[[0.002351351057832315,0.005123786020250409],[-3.854800306840188e-05,0.012427833995860319],[0.003920167479110991,0.03828662278733634],[-0.0021578278923006736,0.005253171505028426],[0.007823206670266826,-0.01242127495548599],[-0.005764494690232946,-0.006430723684334589],[0.004760486075503792,0.005726751797071881],[-0.00762674663795645,-0.004418755618828894],[0.007897352687590552,0.01688423066021384],[-0.003908959173506642,-0.0003131368166331616],[-0.007555032984027172,-0.016671421593851644],[0.004312395386372779,0.0016853721939117598],[-0.0017308291756903144,0.021448693339602726],[-0.0019464430793724192,0.009815800367605425],[-0.0033057541204494023,0.0061842121894792445],[-0.0007855543754765809,0.0040268001436239475],[0.0012399450636590187,-0.028322699060798012],[-0.005468916290593376,-0.016493644942247733],[0.0033567621184823464,-0.017964399768657834],[-0.00034683373076189864,0.0031530275073876485]],[[-0.00024633145277831335,-0.017780341329819312],[0.00565775045801793,-0.011420511720438923],[0.004810310027074036,0.005439234124172993],[-0.004226266614811924,-0.003494700411554764],[0.013769920102887717,0.03573342522143328],[0.005817963505252126,0.009865952097087941],[0.004725929291856906,-0.000684168628244947],[0.0045902681426934445,0.005540144738822783],[0.010023314145180491,0.013244906481974862],[0.0027137669690092984,0.022555914709299203],[0.0013846013553962448,0.008629364061892386],[-0.0007216646674082334,-0.00423189841975496],[-0.0068029337089784035,-0.03462734388208752],[0.0009137377192367905,0.0012222064760628413],[-0.010484265483621823,-9.552191856913603e-05],[-0.007532370516786252,-0.024584008196292632],[0.0023733324180822716,0.017351963702587812],[0.006337546847784185,-0.0039397099689172065],[0.0047315996873636195,0.033972630568290814],[-0.003749676004831406,-0.005999508558704633]],[[0.0008039478800595195,-0.015467996855216477],[0.003229689998083488,0.008846980535594108],[0.0048100588901585,-0.005402867680145647],[-0.0021897795078186263,0.00534781616870861],[0.004939529835703456,0.0017707190383510684],[0.007148503457051642,-0.012637540339963317],[0.000742196771028866,-0.007301796959208789],[-0.0047223888733953405,0.013009641871873317],[0.011573118339876527,-0.03890456226558311],[0.0023856800757918397,-5.325124946989415e-05],[0.011977725756596613,-0.020268176551252508],[-0.00563875818411542,0.019630294033902113],[0.005345633683186525,-0.0003253627150939935],[0.013868490453242129,-0.0186490179072102],[0.005716976835171043,-0.012827578458789115],[-0.0009157376661071779,0.01958405042350315],[-0.0025024623033666118,-0.022525301752834737],[0.002618015278552158,0.020482579639470703],[0.004898733965828496,-0.02164951690906561],[-0.0003407871083342889,-0.00011506789020219111]],[[-0.0031534024242712696,0.014017351002034311],[0.003969575044585238,-0.0012239596251678235],[0.008059445332761888,0.020275136310942278],[0.0014369566271667036,-0.008587153311877774],[0.002899333945401746,-0.024929702970931566],[0.010383454251773384,0.0074791459967288015],[0.00239175463753513,0.014373177370335529],[-0.005514270045905634,-0.01494512322728699],[-0.0017644955223107437,-0.0028720640981650257],[-0.0030352757141990936,-0.013583011347304616],[0.008426545059899834,0.01415003235741613],[-7.411123663841283e-05,-0.014084473184373275],[0.006196667665472361,-0.0039774308466791605],[0.0030540296345712412,-0.01456386740092412],[0.005868710829261969,0.016531081061535443],[-0.002427291618743275,-0.028777088964583395],[0.0015523103577283759,0.016573353019168662],[0.012471833840495997,0.0058784365675485705],[-0.00020732670834907956,0.007714807601456081],[-0.0035310595507622704,-0.0009825596584706396]],[[-0.0020753918607628744,-0.001591002801448942],[0.0004246516768246032,-0.0035571741682609835],[0.011262354117734664,-0.019679505268392645],[-6.723533478684082e-05,0.013438898012155528],[0.007058894507609354,-0.008011002801523453],[0.0066820619258446705,-0.015058338753610996],[0.0013852270633205753,0.00935708706334672],[-0.00946475606184089,0.016422070825446305],[-0.009237203269833736,0.013892080486729692],[-0.006045885960500679,0.017161054373384575],[0.005476952343792592,-0.02179554845389789],[0.0013872370028635693,-0.007787960300542624],[0.006540536985460473,-0.016688553306562975],[-0.002024750652035965,0.03307603536985201],[-0.0027813825741830217,0.007068183951326047],[-0.006485615703919855,0.02931950749257894],[0.00379366510096888,-0.009581088345382629],[0.00036233535690395635,0.0027830187967122283],[0.00031818243760457527,0.010434569030705736],[0.0022096850795195635,-0.01745631124020647]],[[-0.006076377961785829,-0.02646106255611575],[-0.0016730756467042867,0.0296487371536677],[0.0042045548669463785,0.009860312002775342],[-0.0002259562056914128,-0.022631497803465527],[0.003623562607129914,0.0059511890954804655],[0.0035915756898741644,-0.031599312915986555],[-0.0034329735948248293,-0.04924895463586298],[-0.007476540798018606,-0.006076187530446161],[-0.0017667594538771242,-0.01712654907348535],[-0.009775590605244092,-0.04317991643018491],[0.0021538198659486825,0.015309100802676839],[0.0005058964881854319,-0.019853728730344265],[-0.0037446182345122793,0.006180473810874709],[-0.007458210970089064,-0.003070134762100851],[0.0026218103450185047,-0.008378538458171554],[0.0010692984457192523,-0.01167135933257772],[-0.0021418165396757506,-0.009553138675508275],[-0.000484507582866436,-0.032468391815186785],[0.005719928323469899,0.026626891910369276],[-0.00027024158752088405,0.009285067585360624]],[[-0.006642028589363394,0.007840759723491802],[0.0011823614537316877,-0.009262561783168212],[0.001995184201875364,0.0008935749860822086],[0.0010151107495275102,0.003926357846460954],[-0.00425708540694834,-0.01091377839432466],[0.013135340559429462,0.014703422423826171],[-0.0054264403036583765,0.018498681387545565],[-0.004018264304916822,-0.005130568249986086],[0.003940736325188745,-0.008664113046500834],[-0.006546529489034437,0.02176119651154946],[0.005720071580308692,0.0017922586578390395],[-0.0006600920136026787,-0.023485182662576504],[-0.003602484989659696,-0.007149923467394963],[-0.005815199911021157,-0.0017727388115668756],[0.010607100097204275,-0.031100140736596844],[0.010861541648333091,-0.0019434097373860774],[-0.012035743243802346,-0.013112623153819433],[-0.0003876179366031328,0.00930765079051887],[0.0017734684011066302,-0.006298177094315613],[-0.002093704755115383,0.013003631778123489]]],"a":[[-0.0010120875534078571,0.0017748871400539244],[-0.003030640511653383,0.0023503743801895293],[-0.0009579145764450583,0.0018186137588686794],[-0.0006139700382861023,0.0018008643673237976],[-0.0018283335624133432,0.001003205253845819],[-0.0008714909341141933,0.0023841046143155864],[-0.0017474241116944725,0.0008488665135654716],[-0.00041915799479874135,0.001106763766671808],[-0.0017977779903706672,0.0035892592584575262],[-0.0010205163563147348,0.0007502675094696746]],"b":[[0.025010178232412496,0.017860025909657913],[-0.013772458855509486,-0.0010046517357890116],[0.009114509164083578,0.009269763171302509],[0.007188441943491332,0.01580085111768157],[0.0008990114954683002,0.005351231317745342],[0.0033499319195666654,-0.008791778982883525],[0.013712045166325721,-0.0023553993316745327],[0.017491784565775336,0.003943365133834876],[0.002923495755755161,-0.000261915976601985],[0.0005154937319797565,-0.000657872867547559],[-0.001043417179236716,0.004706287503507681],[-0.014328864005244859,0.01771534849133088],[-0.0006308315733590945,-0.0062093438756409165],[-0.0029709141224157584,0.013841812095134525],[-0.00874212178292599,-0.0036186188002012634],[0.00019503503057013334,0.005631548398876251],[0.0053437919240190606,-0.0044123923405858115],[0.00957628693789986,0.0034688945337047546],[0.013127700354864935,-0.0018961651384816428],[-0.005692821014566494,-0.0010124561802404416]]}
