{"Name":"RbmSpin","Nhidden":40,"Nvisible":8,"UseHiddenBias":true,"UseVisibleBias":true,"W":[[[0.03749471139386367,0.15765802987906238],[0.0888941844469984,0.051436431351918305],[0.13814134172946987,0.08351177414376922],[0.08939715151386007,-0.054297999168604054],[0.07822985345192843,0.08934750330599023],[0.02472965898876582,-0.10194781699593437],[0.16584792485194103,-0.0746858545518186],[0.05223651809922859,0.03323849866569397],[-0.0844980464302586,-0.05022370464907759],[-0.025221993208421004,0.03376484203217399],[-0.09019433917225543,-0.13600396371053175],[-0.09853464941572719,0.12206890350401425],[-0.062038596475021315,0.041170257598963034],[0.0924180182122693,-0.1126510514760865],[0.08524521199755129,-0.07572122571982283],[0.07159176251842723,-0.007120493061559044],[0.034540459420295495,-0.024469701118190152],[-0.006865608360632586,-0.004507044037295189],[-0.13234143724094255,-0.03411335436198128],[-0.007862642714546212,-0.06923569044161797],[-0.031439751747193496,0.02451906090399395],[-0.08389764307239278,-0.04426958651194567],[0.14180670006064752,-0.0728621832753755],[-0.16850061739852623,0.025247574943114796],[-0.08239998680470573,0.17131019349873414],[0.1677010682159656,-0.006035001517418141],[0.02954539466207915,0.23562972215322323],[-0.040549284570760506,-0.07636459188324578],[-0.016178539810623335,0.028039569783894654],[0.06581238366204575,0.11455429215331542],[-0.07627442533445525,0.016097628993342886],[0.032178524332812104,-0.10277590941268704],[-0.16119123290056397,-0.09431851028525222],[-0.040803216509336826,0.1371417840244855],[0.00013349040662950868,-0.04467095695967969],[0.013992093951897499,-0.13919919432766373],[0.01047150440083968,-0.05614349433500553],[0.10950543950099148,-0.032125249048220963],[0.0295862335788306,0.010783770605120398],[-0.13707842942305742,-0.018477044978074064]],[[0.03638171707962534,-0.20476684211279264],[0.1998858083302656,-0.06092227689690019],[0.133022856926259,-0.06742268956884238],[0.02366835413282003,-0.015859292073896327],[0.02718659914513567,-0.1130650878175135],[-0.03796643481007606,0.10716090933217741],[0.07143208339141709,0.0606769242528169],[-0.022154104255200306,0.04934111135914149],[-0.06553237913018603,-0.01570442579923815],[-0.10682975747000716,0.009444870224633084],[-0.07380404951865562,0.10214946539595714],[-0.11838377069264915,-0.13735606547897466],[-0.1695830881115696,-0.020359544534441217],[0.1292510702531957,0.12413021537418753],[-0.010870209686405126,0.01965200557350574],[-0.04451167731476896,0.02930477858342344],[0.04972219512697951,-0.06072183594354378],[-0.0527340519470905,0.13786246896591806],[-0.12912722960888903,-0.007514949384077472],[0.07221234024852641,0.04336470270734058],[0.04891239656418468,-0.010558827115139259],[0.03028336296761982,0.11985328406638683],[0.07769275994185125,0.10804197276123771],[-0.15721575661390932,0.03733395584501827],[-0.0424178839548638,-0.1865863834432939],[0.061293869945058116,0.01482901490063361],[-0.012802073580924273,-0.22145055339513034],[-0.0347906106844196,0.03122796486597698],[0.07519413650555609,-0.06217806490626674],[0.040333269983278734,-0.08301409744223906],[-0.11883623829350778,-0.03099887601385918],[0.09031487851812492,0.02325632300476892],[-0.16726164961349757,0.09675954091718353],[-0.0666687855071022,-0.1283191248568209],[0.02719195272631865,0.10114972093746083],[-0.050036491489226204,0.019465867585509364],[-0.024166185409336904,0.001098716978425173],[0.005039569328825843,0.07379326186851734],[0.10819831239526269,0.07315815098118747],[-0.034066331323635,0.04842859730853469]],[[0.006172151205273743,0.20660381861417135],[0.17422250454719604,0.02916754238526973],[0.057566307457513254,0.03528068653678984],[-0.05447537155027667,0.04378100453752296],[-0.03811101689965823,0.09332516849513303],[-0.06538757580129878,-0.09931783872838643],[-0.05010164304565091,-0.013397167467675313],[-0.0919263946572207,-0.0939085645522451],[-0.016526265370162736,0.0291408815624679],[-0.13665749540190195,-0.03819710110499127],[-0.0358284975916277,-0.05589397515244722],[-0.06083415792810025,0.09902395550431656],[-0.1612968208124796,-0.0013291906358448872],[0.08604828283248687,-0.0894159703415275],[-0.10834844060354201,0.08612525842123091],[-0.17868339670974911,-0.0860178662841728],[0.04193072327255237,0.1206784139533147],[-0.07444638088329425,-0.22575557940031596],[-0.05435857153747593,0.08214986037598933],[0.107312531221454,-0.019964989468090524],[0.11511510739437403,-0.06683518227150145],[0.1205890589898356,-0.1378351166194931],[-0.004409193411917219,-0.11617045894856369],[-0.045956535531944384,-0.09774117102073059],[0.015149277152238558,0.12814755377449985],[-0.06549483537279575,-0.06792146750790182],[-0.03463253313590771,0.1693542547288079],[-0.012855455400451403,0.07761136143602743],[0.1222359200917163,0.05971341533519042],[-0.006349271252556543,0.0287422828532645],[-0.09748808749254706,0.025249053384909924],[0.10894040290339022,0.016846047550830683],[-0.05945084301414206,-0.03026954746649684],[-0.05490516986981485,0.051990728033295866],[0.02306732105457109,-0.1640640920608754],[-0.08944782931494916,0.05118702629970955],[-0.04805369194081714,-0.023669947774376945],[-0.08382837633697887,-0.030285526697351076],[0.10878673297953374,-0.08662452218809301],[0.07094530490316472,-0.04283543241447842]],[[-0.029113377279486933,-0.1917155613520348],[0.05154423282074925,0.010851386577677122],[-0.04448263161964472,0.020808438607736457],[-0.10067699157571221,-0.045919598981545975],[-0.08387419987260794,-0.0575177902532635],[-0.061602314561175806,0.045072264288851804],[-0.14487313376731153,-0.05192486705934415],[-0.11168642653359738,0.10729147799306649],[0.03721620305043986,0.012159692226398039],[-0.09635642050201883,0.04462607842193888],[0.018368066346244896,0.027573041809374185],[0.029724435345183212,-0.05242192300884411],[-0.051962493335003315,-0.01906427784801141],[-0.006778781508826797,-0.0015293896194363847],[-0.1439792031839935,-0.13184182086597568],[-0.18892044892810908,0.10021194332175364],[0.006958677466054722,-0.12324732010976022],[-0.04061810316357729,0.19777228502491362],[0.06336313957789153,-0.11241138065038137],[0.0745154451573013,0.01189366591324102],[0.10687155061800788,0.13578350461790972],[0.13121792895980766,0.10189664826859851],[-0.07781447889890253,0.10684281748744019],[0.1007240062051002,0.08241937030242608],[0.07705933376247039,-0.03889012215436948],[-0.17062433299379953,0.10552739583042799],[-0.05472467717319202,-0.06892500176363839],[0.010104264310185908,-0.18531830897303683],[0.09254670819969435,-0.018050137085894164],[-0.05962939973771555,-0.016937991913309757],[-0.016213246761593324,-0.03313036051210937],[0.0703729119288153,-0.018297264394759455],[0.06708488723511058,-0.024655246816951814],[-0.026238720311501165,0.05180847612303842],[0.0009806001461364654,0.17222197551320123],[-0.06658027966481675,-0.051208084845454235],[-0.04501807368915172,0.09496768858322385],[-0.13340730319408647,-0.03519661041925117],[0.043803567867760934,-0.032440540021308174],[0.1397450260778438,-0.00292073545529322]],[[-0.03463985927783034,0.1589827633868379],[-0.04798750018188472,-0.025991601608409732],[-0.15064371759766126,-0.040129186886909175],[-0.08243197793732425,0.0010638761906285443],[-0.07567638803590157,0.008124029402919931],[-0.028308196595607862,-0.013408192485176332],[-0.1519294378308493,0.07412296012020787],[-0.05545254478981672,-0.04845665458255837],[0.07453623899085618,-0.0816109117579301],[0.0033595750183375967,-0.027437946873550726],[0.09045419469770377,-0.04105977459138843],[0.09279805592329769,0.022414578054714432],[0.05949038777066624,0.0638993497357353],[-0.08242312903743439,0.0488395703079915],[-0.0987313318039472,0.13308473030885165],[-0.04803462034950611,-0.08485745679053984],[-0.04018341117774251,0.061450465703286286],[0.027304675293125982,-0.12217531863477213],[0.15804030995554627,0.10606188854892552],[0.0003823187040673676,-0.03312589781474823],[0.024231948230194405,-0.17011508611599574],[0.06187883265869535,-0.01985974640103317],[-0.1371139182587713,-0.060716327209116294],[0.17219820105734016,-0.015277374643656545],[0.09119091343523036,-0.027976138306834448],[-0.1563334814280564,-0.11889529474803931],[-0.04043097313961669,-0.0033222056407655096],[0.027473789427578752,0.23816713344330082],[0.008000350908708627,-0.037987773150168144],[-0.07496519384878154,0.015140051962169094],[0.07865090007677242,0.03795253875331838],[-0.019007084451381346,-0.029150757694332667],[0.15634482000033686,0.02299772737539601],[0.02464141381306641,-0.12901170917042623],[-0.007277261792171685,-0.15228753237829518],[0.003971213351075135,-0.01417056572195128],[-0.006556357833595688,-0.1726400962256117],[-0.10609769617651525,0.09399971969202008],[-0.02070679687157264,0.1599461245274767],[0.12363263734724474,0.03553624478671788]],[[-0.025522909192637545,-0.11045578427427118],[-0.18108136252226348,0.0009652733164745533],[-0.15866473214608165,0.03712839569536551],[-0.018029719493777567,0.04191837692327987],[-0.016509852779899956,0.03263785192500859],[0.02811706252617731,-0.01211961189010562],[-0.07164957210821112,-0.07084261521691289],[0.023793743305265156,-0.00973601845950238],[0.07770645554709689,0.12404464505925171],[0.12539033195359495,-0.020761080897973256],[0.11031688637195773,0.06812325880219751],[0.10183371633309413,-0.014467033851908125],[0.1479766841153845,-0.12433203769051247],[-0.10707083752859926,-0.05235931490157495],[0.003962541143189608,-0.055346050236018504],[0.07542131419661044,0.06799364555584064],[-0.0656639345119144,0.026888410820124276],[0.06347980122182431,-0.01450049707330751],[0.13731782998694672,-0.05200566096966486],[-0.06425290474719263,0.05634625175365394],[-0.06703682231034894,0.1469376365262619],[-0.022118509330843257,-0.05743471251015256],[-0.11072744664649654,0.019916105519131172],[0.1309773571985544,-0.03773336661801771],[0.03961199300597707,0.05207743227928361],[-0.04330245164455674,0.06563576255828171],[0.001556670325886193,0.004870306196444045],[0.035553330115881666,-0.20583207364587633],[-0.07637314347232094,0.07265182348716041],[-0.03965533751390429,-0.024077482257513324],[0.11455699508781288,-0.05485646454712058],[-0.09622447553792111,0.11334923757697228],[0.1496243162932655,0.012094868224858675],[0.07100847473646126,0.1126207189777028],[-0.011200009851624343,0.06794239113182504],[0.07852295409833951,0.139814973992403],[0.04304111000687174,0.22341438762430166],[-0.018318506326390538,-0.10525013996652649],[-0.08874039159450271,-0.24726554049677568],[0.0386100655853385,-0.05513874351386877]],[[-0.01013982614822991,0.08767916783531136],[-0.20215894933971468,0.012476188223363584],[-0.06210442380257443,0.001390266370021637],[0.04844564164646527,-0.0934155376280821],[0.04838914923101326,-0.020009444028756835],[0.08533046454319947,-0.025254994530274584],[0.03831911568871174,-0.0014350888317246696],[0.08839125684339168,0.06967615704967213],[0.031007869796756297,-0.1425168971234439],[0.16661021107724036,0.04453396874581298],[0.047142027657311306,-0.08900722799474217],[0.06131712045804796,0.02575485913813575],[0.15208706844710815,0.1048341838651486],[-0.07350381048861171,0.003331243457182628],[0.10868462801069155,-0.03386479344778915],[0.1513194744408664,-0.029105023254241323],[-0.05375210528855129,-0.08556652576868982],[0.05767290539370175,0.08834853146564138],[0.03346527881783544,-0.025195682841490232],[-0.09475122013335308,-0.07127951590974138],[-0.11479100069592471,-0.10228541110543349],[-0.10480147414518413,0.056571237117584564],[-0.002910563733349204,0.025593337837670073],[0.024738151246027337,0.09759541868074624],[-0.03867194078999607,0.010767798697260939],[0.07951976072671815,-0.025798463958850573],[0.03996596084773282,0.09550518297971972],[0.02582800869033705,0.09056545198315195],[-0.1252468035407845,-0.06856261359506172],[0.01714458899563211,0.05357244604473094],[0.07296539613918776,0.04074113990682906],[-0.10478335693724947,-0.15680228122988263],[0.06277455641276185,-0.04047858782880501],[0.07337313712602415,-0.030548454981520538],[-0.023559401973558543,-0.014562106274878599],[0.09305756587596223,-0.2159214696978377],[0.0581706738516741,-0.21835576133439094],[0.09514564652666603,0.056995204224334295],[-0.10108723982362906,0.24040056669751933],[-0.06971415123821297,0.03056009712622482]],[[0.013938118235912633,-0.09967391113800775],[-0.07472101431942038,-0.03232001596260781],[0.057094868885742625,-0.05823377000887636],[0.09513576204858169,0.07854358825247866],[0.08933526973293392,-0.038985134214272514],[0.08413265446352276,0.050019406936365515],[0.14431754381492584,0.055661185467905515],[0.10344710741106226,-0.063252856861157],[-0.04297534807051582,0.11281038997822947],[0.09170725237735307,-0.052750922089610214],[-0.05081061364952747,0.13153709484862977],[-0.014989393353955906,-0.07724185428776019],[0.0577678460356482,-0.08146547537554025],[0.0031296694767988533,0.06275109596606675],[0.13911700946638234,0.09073235022694981],[0.15258165605443733,0.023064422721332068],[-0.012159581642426679,0.08298193594287041],[0.03679832676032355,-0.09435577603617949],[-0.06323570382640742,0.08030839450725903],[-0.07679383854394024,0.0728406429725045],[-0.09777679043778469,0.04396607898091774],[-0.13962999816954588,-0.027459300294022663],[0.11030885714659223,0.03070941723223434],[-0.07607139187678127,-0.07351163422616287],[-0.08110034189650088,-0.1024821749063426],[0.16703728127364315,0.0020517840980039466],[0.0518551881524338,-0.19725884610006691],[-0.014915129863645325,0.035382342303565115],[-0.10111499887734607,0.039311451983582255],[0.05952462009457143,-0.10925969884033868],[-0.006124880932231622,-0.027980152419733482],[-0.04315701977012805,0.15243372692094692],[-0.04895237494082674,0.07747509050940374],[0.02404472507439678,-0.08559173593500079],[-0.021442134114469297,-0.004089875560906534],[0.061701504484885844,0.2126281287802785],[0.040876642495602133,0.15043928973209938],[0.15223321183452496,-0.012274787178770454],[-0.06348339092566889,-0.13884838214771317],[-0.1506512915096836,-0.009022614968851175]]],"a":[[0.0009275936840229115,-0.017605268627337065],[-0.014712849657731968,-0.005259544653107902],[-0.010605367215090505,0.00653634801479549],[-0.012940385735675096,-0.008915389348144835],[-0.004053474792032311,0.013664302532325789],[-0.008038480857991253,0.0016156866879876268],[0.006301578924416391,-0.002283760334038011],[0.016843118874160987,-0.013355143039377768]],"b":[[-0.012171712159181447,0.008332223614893169],[-0.0016580750965972547,-0.003485287480151667],[-0.0003951194711839588,0.0027540930184628797],[0.01779200314116431,0.0027004366922954524],[-0.011505424162306495,-0.006041980673181952],[0.0051395365683400895,0.007898848885414951],[-0.022641564018205176,-0.002116606862791663],[-0.007546324845599916,-0.003659516079013399],[-0.002172470597091393,0.003789075810780998],[-0.025489208281061167,-0.013049952130746986],[-0.004121511693839467,0.00756745169423491],[0.02618334644697792,0.014868826804404229],[-0.019416890717102734,-0.008916572305000517],[0.019016667035336117,-0.002650141229368373],[0.0012384855211484702,-0.0003996798449125704],[-0.017375433896188473,-0.012378977442479868],[0.006125777904745886,-0.0001020116687130863],[0.008658415134903827,-0.02595426290702625],[-0.014766391798055696,-0.011562248340303307],[0.008568966910540689,-0.014926650945464477],[-0.008408047087133342,-2.9564171927557006e-06],[2.230085846542408e-05,-0.002872392551298844],[-0.007773458079022696,0.004446872722612531],[0.004236817535283982,-0.018431051507673667],[-0.01730358369676397,-0.013305931510242609],[-0.0047868479764978525,0.0077335654167134445],[-0.003363515119166732,-0.0018677421238551888],[-0.007268477406329528,-0.006770363823578571],[0.011369630591181451,-0.005179799192313715],[0.004489539520421384,-0.008746229222073505],[-0.004871475230176621,-0.00546918887084667],[-0.01714630069473409,-0.008496744464618016],[0.010947193277204396,0.017511384442667303],[0.0003971546956715494,-0.007730955706604709],[-0.009183423897899544,0.003228986833340355],[-0.0043418690429064336,0.01615988524968975],[0.00027792988004403493,-0.003272537395012072],[0.0038652438397753573,0.009713589100144606],[0.0060831886779559195,0.012577726079025561],[-0.0018750174737993295,-0.02135740988719899]]}
