{"Name":"RbmSpin","Nhidden":20,"Nvisible":8,"UseHiddenBias":true,"UseVisibleBias":true,"W":[[[0.007687149479363326,-0.008242829029825151],[-0.006981688447605687,-0.0024796431493055654],[0.0012984927887591902,0.001262101387033335],[-0.0030663326754414846,0.037279653329337296],[0.005746133939784352,-0.0054028619109854955],[0.0031220227327388374,0.01740618915686418],[-0.0008264064670957946,0.005388780946456637],[0.00692976449055578,0.0003480484791932938],[-0.006141487472463233,0.009037966741290704],[0.0075411126300789135,0.02229960016312032],[-0.010027775119107981,-0.015430690216316835],[0.0023521835290908435,-0.0022048011440049513],[0.008215745417769853,0.008039821455817988],[-0.006041651098717556,0.023722079285941982],[-0.0028803927701556414,0.0015739858190962032],[0.002329599924407109,-0.023708469104088765],[0.005982783763485958,0.0019309376882235506],[0.003140424708679655,-0.0053643518463783795],[-0.008458482736810815,0.020556451151899788],[-0.0013525909158732187,-0.0058161145900294175]],[[0.005413986678969941,-0.0029583597427041836],[0.0004519488437219354,-0.03436899357292769],[0.008750486754165312,-0.04291071744182569],[0.0010571747025841982,-0.027217237516091956],[0.006075259377646777,0.003142595623178231],[0.011767224395598713,-0.06956594792365053],[0.005070319526357695,-0.015630680599653047],[-0.001419788385247174,0.007095260305913873],[0.002282955149876148,0.010484179663332347],[-7.403478561430038e-05,-0.006918002865421049],[-0.005139431875718499,-0.0013717957702904199],[-0.002700027480636744,0.0020392990996409978],[0.0025039015817725475,-0.03403675765333092],[-0.005174930304614203,0.01326494189161591],[-0.004596995620848135,0.001078816262331494],[-0.004582974073281731,0.017986585492510497],[-0.0005428376374630729,0.011648664645382209],[-0.0020765432719749683,-0.009807117958119251],[-0.0002726455719378285,0.0012876109181022442],[0.005962386826418352,0.005698737961019709]],[[0.01229946669657686,0.028210972140647748],[-0.006411842394163753,0.02843789535704009],[0.005736235705874981,0.013025484881022844],[-0.0040670033328734844,0.019537075137264975],[0.006073928043802154,-0.031253919528431096],[0.004386781273788457,-0.003331424032814705],[0.002616701929716475,-0.0004627666621207858],[-0.012677534833622701,0.030252766559570002],[0.0030949567891221928,-0.015744399036197305],[-0.0061308811710916586,-0.027653075669661246],[-0.00023462131169497348,-0.02001825327776833],[-0.0030657866150826983,-0.03120297293709868],[-0.002436602475539337,0.00892917569165046],[0.0014274097981512247,0.0014565922096370465],[-0.002275097142974494,-0.03050015921534846],[-0.007078271982620786,0.0019098655819131812],[0.00965916924104491,-0.01794531952625551],[0.00011282878984789832,0.0027324662605257683],[-0.0028799982179493967,-0.007900494571040138],[0.006947407155826608,-0.026770727580142005]],[[0.0027092200172206243,-0.012776117092851006],[-0.007846874583244418,-0.03177983462799009],[0.008121373337954034,0.018346618503390998],[0.0059417932155037285,0.028645910755335693],[0.009555756212480728,0.034786474927119844],[-0.00300758528758555,0.0025282695352379435],[0.00805301603065004,-0.0016360602694262885],[-0.009023469081220141,-0.02054276402401801],[0.005593635444892973,-0.0003942204355336507],[-0.00709680820116754,0.0008308229186503847],[0.014304125847460464,0.022970898091220316],[-0.003613346756512183,0.00012193416297485776],[-0.00707625883683608,-0.017699419635379004],[0.004282407349111636,0.0058537806756646],[-0.0016851528943873494,0.01972078228118784],[-0.00161002075980823,0.01727831343282203],[-0.0036611676106493847,-0.0017213631953550976],[-0.004505921124845585,0.004246715281861703],[-0.0010892430250382518,-0.034777782385326486],[-0.006512860201558806,-0.021567238735481296]],[[0.005702030960736314,-0.005603709321047537],[0.002358995197540206,0.00726365113726139],[0.0033289314159109873,-0.017245547987005772],[0.00564913399538975,-0.012884136581968516],[0.0019275428496981243,0.004996873071175054],[-0.005143799139030184,0.00331629266805134],[0.008607467683797766,0.027054172518478064],[0.007345393591474969,0.013613560566948455],[0.005557559918370652,0.0018084176703243293],[0.004242291769430101,-0.0012582529473171582],[0.01310115290976163,0.006217336095275443],[0.0011728379213282734,0.02037228151905736],[0.0007377943117207452,0.013918190161649092],[-0.0019234138930645569,-0.009882975604081103],[-0.004155383250183913,-0.03207085656201686],[0.0034215078576436226,0.0032647530264854107],[-0.011446052597419184,0.008559165599520037],[-0.005801014268728052,-0.024182148948604598],[0.00053916700367902,0.02221216009782882],[0.003570350716661086,-0.005628982758982801]],[[0.012230368395063751,0.04623481399250879],[-0.0019845932320072387,0.001727052325961446],[-0.0032743320181907558,-0.013146379553011683],[0.0033615884536624652,0.018982856708825813],[0.006535652130143003,-0.006166763047982377],[-0.0015859754726329453,-0.006671998112999164],[0.004927331502113151,-0.004046281011796742],[0.0021085271770308485,-0.008824903937868372],[-0.001428812219953746,0.00071233447034694],[0.0011903646731753871,0.018845647268882146],[0.006053533702446295,-0.014397115105999577],[0.003235047823905835,0.007014086632074711],[0.008149487774844375,0.0026174950280469923],[-0.003137259002612421,0.013506924669612622],[0.007737701502087631,0.01992180543286952],[0.006867976532464393,0.0037726682463686666],[0.00019718917625736752,-0.014049586012251414],[0.0046268113620443665,0.022334443844701752],[-0.007588368398175774,-0.022675707386080837],[0.009345943059875962,0.02901194658052786]],[[0.001258056413867855,-0.020430570895089276],[0.004034277538996196,0.002048092814295926],[-0.004922262637294168,0.012911860031099636],[0.0023307735349532947,0.0012953366493756759],[0.006793053486982649,0.018253357254914063],[0.0035151853476544934,-0.015150716303146572],[0.008615311778506756,-0.02382581368195296],[0.008056059706830274,-0.004470027695512789],[0.0008411351009660987,0.003696036437431181],[-0.0015604294219581326,-0.006796611999530868],[-0.005093560249805443,-0.004938659307999387],[0.0036657947679184727,-0.021547193423019657],[0.006541636812150475,0.013269152368237608],[0.0045270653863212496,-0.017464028148416067],[0.006071713798227768,-0.009096194412297053],[0.009054314313674837,-0.022471294638400457],[0.0019890327930992147,0.010253469838578277],[0.003103004230694743,-0.022352593914407658],[-0.0013733981524896833,0.005838605964334626],[0.007759781631041777,-0.001389793968327409]],[[0.0031579690037171807,0.010901702091426182],[-0.009287370426691158,0.02629376545627934],[-0.005445479894912108,-0.0004932955957367362],[0.0004212921585682841,-0.015280856198973413],[0.01277799850205736,-0.01834538483272534],[0.00027934573987543887,0.015437606644641081],[0.005901284312581513,-0.004238664142987762],[0.0068039112954641065,-0.02592875192063102],[-0.002109594748044959,0.007036291930498484],[-0.002661700788743824,0.002655725059466896],[-0.008175874175607951,0.009461168911024866],[-0.0035291896381150923,0.016852628991038163],[0.011916614006221092,-0.046011085360663576],[-0.0016890851439666068,-0.01638886938026046],[0.009075094969149959,-0.029668497057023166],[-0.002164900160486632,0.03998489819556805],[-0.0006273669608605225,0.01471494406038854],[-0.004742782954675865,0.030758317201210195],[0.0011384857982945026,-0.008517483740844805],[0.001175995010417027,-0.0038833211840800736]]],"a":[[-0.0019891800047118708,-0.0020096167872354436],[-0.004832861649028575,-0.0007983722308893919],[-0.0013855294634965499,-0.001342043998651564],[-0.001593476900066027,-0.0019703137521956474],[-0.0028488131044220786,-0.002197881560275313],[-0.0008774182112717165,-0.0017392814464599247],[-0.002991977754323378,-0.002867721583282757],[-0.0009766270515367602,-0.0022103451887526323]],"b":[[-0.005127761249799748,0.01954694602028996],[0.007841337438589079,0.00998924991638512],[0.025486324002892625,0.017931596522684334],[-0.013302524636420121,-0.00013118773814957502],[0.010054605884627482,0.010539570106061947],[0.00630513871778286,0.015858200035093997],[0.0008177644927096458,0.005053504792274469],[0.0032219542429779693,-0.008082810636394457],[0.013262018340840197,-0.002604445371261429],[0.01843625755707033,0.004026145708040789],[0.002565947200267921,-0.0006782207825899085],[0.0005132106164517278,-0.0010240865702280896],[-0.0018580441228171801,0.0054296532629382966],[-0.014813070151484552,0.018701773377758014],[-1.2226390335885392e-05,-0.0065604648238696],[-0.0025242709234085964,0.013003789012285171],[-0.009672044316863646,-0.003250130573007719],[0.00025477673210013314,0.005408713873909619],[0.005634159244849272,-0.004088556347922202],[0.009951614167005712,0.003162819032262813]]}
