{"Name":"RbmSpin","Nhidden":40,"Nvisible":8,"UseHiddenBias":true,"UseVisibleBias":true,"W":[[[0.03908350213645939,0.15451519060731636],[0.08615856190803348,0.06043470761207227],[0.13683636302937516,0.09247182107199677],[0.0872589384844177,-0.0639507328184949],[0.07645362164092179,0.09297537173314767],[0.023416006809029322,-0.10729053393059905],[0.1695756494293036,-0.08843948769268292],[0.05358973137909443,0.047100719390927186],[-0.0806426738160663,-0.04954864790579417],[-0.020812265720273008,0.035564720827317486],[-0.08625654338109749,-0.14586452586558624],[-0.09852049921008169,0.13346132684930026],[-0.06461914910257233,0.040566006971633976],[0.0928497518397113,-0.12811012972460986],[0.09263665164561563,-0.09754649048872172],[0.0666389303650947,-0.003949407680589375],[0.029727697171975844,-0.03540828201661069],[0.004897404069701053,0.00597194744451752],[-0.1298060412139421,-0.04244931130218881],[-0.005977090834385624,-0.07451672053548707],[-0.02725677430463151,0.031037853986001708],[-0.08120363709721568,-0.038488932735394527],[0.13817611015230766,-0.07005110712350474],[-0.17338498116159357,0.02869046729757716],[-0.08471739584816286,0.1904597648519909],[0.17370962696944023,0.0125701335399018],[0.029068194645730277,0.2695376361296162],[-0.03087661259431651,-0.11639017882149816],[-0.013398061828595806,0.02975251858876948],[0.06176414649610779,0.12644400759023744],[-0.0749217964069849,0.01479439348145245],[0.03174755160539517,-0.1067020718367072],[-0.1624537027131187,-0.10372123681098579],[-0.03594511893903841,0.16139590674897458],[-0.0007444793559207992,-0.029480338624072913],[0.01681371132682913,-0.15355993449424352],[0.006792276394074278,-0.047766536574878796],[0.11048602560651692,-0.03259155594420064],[0.03448627726918476,-0.0027729571548883248],[-0.13759413624084313,-0.01943051366793631]],[[0.04014475316449032,-0.20611298048169394],[0.2027019048279934,-0.06291334934295784],[0.14338778155036908,-0.07416998512710049],[0.02346288614023481,-0.015092166962272335],[0.027684580680791236,-0.11773907060769138],[-0.03759937500702501,0.10889362900241878],[0.07062095920455536,0.0687067854833498],[-0.020201573119930077,0.049082747152831264],[-0.06811017451934746,-0.014951056589969869],[-0.10409859154637804,0.006995329880174674],[-0.07713015229704291,0.1079166281970009],[-0.12493493323447316,-0.14000510929920398],[-0.17038124359235005,-0.022046625131442562],[0.13244039321309897,0.12790895225188892],[-0.0026166392042288487,0.02432257250885935],[-0.04651367743667322,0.0298275335318017],[0.04636373120429288,-0.051757125729459376],[-0.04339425923855244,0.13324223171687674],[-0.13578564427671808,0.005404044332625995],[0.07129599111397737,0.04588010284138686],[0.05002154621760134,-0.01712064497652542],[0.03405217923268765,0.13426989355360586],[0.08431357120892928,0.10916396292516366],[-0.16615638455142095,0.026652880665288023],[-0.04796566406718694,-0.19677945981260986],[0.05852328833889702,0.014210332610461463],[-0.007185236631273395,-0.23804056274247223],[-0.02909694296685413,0.04343553664306686],[0.07551095055259996,-0.06456440312666836],[0.039488555385479934,-0.08698811871233063],[-0.1208298180394979,-0.029820568009766506],[0.09093127415275079,0.027646372723889322],[-0.18032921834466173,0.1078612742751517],[-0.057507028147253315,-0.13642291966435896],[0.027760056673776113,0.09377729530382102],[-0.04714971038043983,0.024585354350686307],[-0.02515842113366185,-0.002139560537238296],[0.004929385868831781,0.08182527312103349],[0.10520527612849782,0.07486660003352663],[-0.0328264729996845,0.05232282360390125]],[[0.006333090793233365,0.21912523285610214],[0.18113027779122146,0.026227322308601822],[0.05802240078905995,0.03744853153047581],[-0.052340066108732784,0.04545280528029146],[-0.03765705368348349,0.09385912293893783],[-0.06758980496887092,-0.09448587222100029],[-0.04454720186562599,-0.01576708902589242],[-0.09381140282643581,-0.09656972743679525],[-0.015558541242372638,0.02904669954219493],[-0.14727464115030237,-0.03728159020350204],[-0.034811152287284486,-0.05495888174566382],[-0.06008158230949515,0.10178601957210895],[-0.16554844312093162,0.0008053962962651101],[0.08001366188848018,-0.09022400519833508],[-0.09947417605599475,0.09934971630641555],[-0.19232692848015465,-0.09257539581613229],[0.040046981526016406,0.12010748912096739],[-0.07476044931394601,-0.23334822179733686],[-0.049953490808157905,0.0932228077997325],[0.11052761686428934,-0.01808897252674013],[0.12351056996326973,-0.07622664825741249],[0.12758293582199362,-0.14092189440079989],[0.00014805204586034978,-0.12379186852409829],[-0.04311471223458065,-0.11986768982884533],[0.01317201551941872,0.12930703318935113],[-0.06254778428089827,-0.07404672061914055],[-0.03229031618293442,0.17016868318676295],[-0.007268468614162172,0.0849498514758895],[0.13031951915990364,0.055094764961618435],[-0.0076769424509737704,0.026637876490796256],[-0.09712222299052736,0.025991105927977834],[0.11438488145965038,0.01524613130766365],[-0.05941732913420511,-0.032337765166404624],[-0.04478314771222987,0.044358636875914015],[0.022498413307780633,-0.1668009533091354],[-0.08801105575386534,0.052616570094755934],[-0.0495617545110213,-0.03079481374503597],[-0.08259702450752729,-0.030373873892945498],[0.11275901441366956,-0.0805495064945344],[0.06787825348562296,-0.04658055008365679]],[[-0.03085148115844701,-0.20052325429959136],[0.056458467886476744,0.010243282754482183],[-0.04302088162621638,0.024084488175720564],[-0.09734611411247189,-0.05341780560762597],[-0.08241564599980739,-0.05033660248243748],[-0.057187562005891215,0.04058184705731372],[-0.1537528281799616,-0.07295350265055571],[-0.10917248828649403,0.11847261478464187],[0.036933493256334576,0.013231035732372835],[-0.09632733305853705,0.047535577855026934],[0.02206671905953375,0.024558098337648618],[0.028628350078691207,-0.053140589863710744],[-0.05522768463797495,-0.016017213978842103],[-0.010410951147165117,-0.0024334587796406167],[-0.1409749211363376,-0.14896937104811744],[-0.19189293274134453,0.10657515738383935],[0.004731886469665182,-0.13531976665092965],[-0.04138263153410307,0.22825182265096636],[0.060395166610973564,-0.12630764804853048],[0.0729466045271173,0.0082220411201245],[0.10717820826497394,0.1455388840342816],[0.13510319737055626,0.10568314402656032],[-0.08067252049516048,0.1061903882662258],[0.09765926168330694,0.09133669126230737],[0.0730369944560267,-0.018251357702807076],[-0.1826656743027414,0.11914634790890431],[-0.04744298063350566,-0.04903319488099235],[0.01828992875768906,-0.22252701905001152],[0.09048052015608701,-0.019545618184764475],[-0.05907065705484086,-0.005497124254140079],[-0.01777483877956897,-0.03515332379087208],[0.06906115219819381,-0.023991672492335168],[0.061751075198325456,-0.02897268000027063],[-0.015279398274760327,0.06612917551804211],[0.0005733291781892995,0.18787195581348706],[-0.06199366740410316,-0.06468881935769757],[-0.045162605831615805,0.09839459152408367],[-0.1345342698190687,-0.04472598130885169],[0.050434451604649815,-0.011340988179442266],[0.14270006653068198,-0.0069125996613900705]],[[-0.03710013685529736,0.15663922521828436],[-0.052818084444590394,-0.030505027748307316],[-0.14943903136744005,-0.047873103159124186],[-0.08153939571245067,0.014406221871534544],[-0.07285322066983907,0.00551493685749758],[-0.027183422527657996,-0.008830928786045668],[-0.16087465799048858,0.09030934421176488],[-0.05773469436162147,-0.06192072559222381],[0.07423747695034645,-0.0763565004030445],[0.00391576495035543,-0.028228472222100284],[0.08815895206145197,-0.03019523576618416],[0.09211115478332636,0.013350568998359881],[0.05921959738360439,0.07457588605297735],[-0.08257297427546896,0.06152145091511098],[-0.10588251780771349,0.15646966519491307],[-0.04707917913571977,-0.09438796963340991],[-0.03604421808379593,0.07243445816455357],[0.015423022543360688,-0.13807724996108275],[0.15564075527829532,0.11634733471442311],[0.0014793266667574205,-0.031221535655916392],[0.02051164534179104,-0.18337037455124627],[0.06214310367143073,-0.03128720253816991],[-0.13727037459990507,-0.06238401791763808],[0.17725094476724057,-0.017582363204493197],[0.0909871728380305,-0.04513767450757733],[-0.1658056542953109,-0.13328652014889097],[-0.03773174959097157,-0.03259237046480983],[0.019919290006327323,0.27868292586531956],[0.006633569169788363,-0.03853225251038327],[-0.07085492619169774,0.0015972712081059402],[0.07620211590723479,0.038775459688683844],[-0.0154511262312207,-0.028610527045754477],[0.15858167455558,0.029353263040148785],[0.022218232961846475,-0.14987613712960943],[-0.00528136091883767,-0.16371676432937665],[-0.0037751617159469527,-0.0013311154532515816],[-0.0038904315699389044,-0.17729138643126882],[-0.11141350519032597,0.09645751563761029],[-0.023177865653431648,0.18330030418966753],[0.12659494366968688,0.0355280470495505]],[[-0.02580565826028235,-0.1105809097474524],[-0.18325593852565536,0.004476129606662772],[-0.16651586147393144,0.044038950343567106],[-0.017615070309846964,0.04065108346470395],[-0.016264712515076874,0.033508993503365885],[0.026901986371470406,-0.013763000865753838],[-0.06737130192591516,-0.07926850853977123],[0.022246166073392908,-0.010335669378939493],[0.07973351650839534,0.11997402474389432],[0.11993744013950901,-0.021137745676438113],[0.11028518708086336,0.06115523719404687],[0.10714672989664902,-0.011989629272553726],[0.15232616549257055,-0.12692871314735418],[-0.10888348167382178,-0.05421655066043113],[-0.00270100905999109,-0.06388469589403084],[0.0766064587172563,0.07110420830310676],[-0.06180756102735349,0.019961494322716128],[0.05444865386030905,-0.008678020449672497],[0.14191236320884387,-0.06479512841616603],[-0.06422638451236308,0.055624232345439846],[-0.06835753752696068,0.15889041708369203],[-0.028245022532035483,-0.06550526449429335],[-0.11099013990831705,0.020721074999478988],[0.1428158530387418,-0.030375166916546632],[0.04431823078017164,0.05680461124342174],[-0.038076574180756426,0.0702890127469142],[-0.006098023679262786,0.011601844381818141],[0.029685250817353223,-0.21508719527336756],[-0.07635519059936234,0.0759465680657837],[-0.038290461691124995,-0.02154762939354391],[0.11726401178209535,-0.05502973540053082],[-0.09448461210623452,0.11102618227453229],[0.16222842813664085,0.004535639340500383],[0.05926157666990759,0.1161584812959096],[-0.012695247970974856,0.0712307974573035],[0.07162161080420405,0.13657765423816415],[0.04314646730574168,0.2305440759773473],[-0.01565389607981662,-0.1158686872786889],[-0.08889200066657156,-0.26114112228109054],[0.03527370466125151,-0.058247062886166455]],[[-0.011943195858709697,0.08631164923684334],[-0.203757124433859,0.011228700853460467],[-0.06381067663023918,0.0012790794072569957],[0.04555626439096498,-0.09638294119771777],[0.04551954349684784,-0.01919816153830159],[0.08598977710094027,-0.02670705860472911],[0.03495139411712855,-0.0021975726471964354],[0.08950024552699727,0.07298493933482753],[0.027766231978468208,-0.1481122570913466],[0.17100501291439338,0.048814629292434755],[0.04419816506352602,-0.0958424212242474],[0.062307351593837615,0.029003711563195936],[0.15718063545025404,0.10736913157695718],[-0.06898796740980345,-0.0011791031586444014],[0.09755434882363467,-0.043190338447387795],[0.16627671873798006,-0.022857509308137347],[-0.05148391969017205,-0.08641906129843939],[0.058969275947795434,0.08886268008522029],[0.03318509439489743,-0.03355344107387998],[-0.09889351300675232,-0.07303030346858011],[-0.12412333358652301,-0.10018883196808508],[-0.11250787749000024,0.05532695783159627],[-0.005325739386573372,0.028362386454477254],[0.02564835557043365,0.11837524927883436],[-0.031091181235264442,0.01254357336754294],[0.07640260208716036,-0.024690073986070867],[0.031515764852271054,0.10874598018724163],[0.0179463289285427,0.08844634264299253],[-0.1327188875101211,-0.06841813077660987],[0.016584109355766014,0.05624248573090667],[0.07328717242832275,0.042753792428804144],[-0.11010285382429424,-0.16455314174996294],[0.06509358157210676,-0.04385749473158703],[0.06075669122003283,-0.020055514948234477],[-0.02368912224983685,-0.013822353014333965],[0.0933307072235396,-0.22831488873506212],[0.0613200948128064,-0.22391026998698735],[0.09420282862636263,0.05775445899714872],[-0.1101963350196198,0.24448053532931746],[-0.06625657214754684,0.031495309307544274]],[[0.01470985205504511,-0.09506247255153197],[-0.07802016122769291,-0.033528838657228666],[0.05446977556204666,-0.06494586735373788],[0.0935954060125232,0.08414795402136271],[0.08850230102258902,-0.04472749358927361],[0.08229771298151,0.051806044275912275],[0.1527608682059738,0.07778550757443832],[0.10223317103811122,-0.07462174764315763],[-0.04342460073173138,0.11481637146835043],[0.09565631731540489,-0.05903974129448039],[-0.05086750015880031,0.1406490202800343],[-0.01372521492926539,-0.08469087897380215],[0.05949110976213359,-0.09497060352469777],[0.006622049776243558,0.06982924312146373],[0.13653846813494078,0.10626939612900088],[0.15905467388176373,0.019737334011358416],[-0.01014157490538026,0.09439463756661372],[0.036390547979817264,-0.11353611941488599],[-0.06246458706968651,0.0894104572185628],[-0.07639052162632187,0.07797032559231451],[-0.09739768675401159,0.04285111907030684],[-0.14340332011942358,-0.027613994127181827],[0.10845375718251132,0.033143862324552784],[-0.07982492282626856,-0.07889729529138419],[-0.07931880853318385,-0.12257833119037395],[0.18025704838638598,-0.014798782396941608],[0.050497304178437785,-0.22598515663856864],[-0.022749862309872453,0.06392901604747246],[-0.10140878909569903,0.04320422483469147],[0.060271836533855004,-0.11816896609995305],[-0.004868211411633349,-0.029236616780171466],[-0.04745148626778028,0.16879784914053128],[-0.04648202979822469,0.08674433468278339],[0.015730050773688685,-0.10159694648188361],[-0.02052703206234415,-0.017420114949841813],[0.06434429719294696,0.23671186142164313],[0.041279996415701736,0.15207468302264363],[0.15485244065206222,-0.002821276856354103],[-0.06426179047036654,-0.16773323748514302],[-0.15434695654016736,-0.00204508577093425]]],"a":[[0.0015206983354005025,-0.018154499842886366],[-0.014963484239936792,-0.0046916097753757924],[-0.007501937194300345,0.007987600384562569],[-0.009077447506254532,-0.010226540517777088],[-0.00736440565180167,0.014171463387348683],[-0.009275513999838473,0.0017377318633340995],[0.004129030993118024,-0.0023112232000626043],[0.01625479248769735,-0.014115691066039958]],"b":[[-0.012450235057651268,0.0077489723825222515],[-0.0052536518000550776,-0.0032070412893385617],[-0.0009717923716415848,0.004688416090215325],[0.017546559654117576,0.004572702214518683],[-0.011944264439582184,-0.0058092924812893475],[0.005663241082548353,0.007676049764568961],[-0.024119895915029988,0.002229190187215082],[-0.007427276642801668,-0.004134245044492993],[-0.0014079381125876396,0.0036146670983649943],[-0.02281037926312028,-0.010546840681327566],[-0.004602036585538957,0.006669148141630322],[0.026413696934865553,0.015765374447020565],[-0.016817539861928382,-0.006324925240166416],[0.019923422152685864,-0.003750521226868159],[0.0001982106216864245,0.00054601358830861],[-0.00842927721655396,-0.010730721906895033],[0.008249350255459871,-0.0010342307235307925],[0.0036601083320667487,-0.02299598270213109],[-0.015561784293825136,-0.013930905674862435],[0.007185461136948681,-0.015871299292603423],[-0.011730687526449497,0.002074357012176854],[-0.00420054245326677,-0.0038475160549980947],[-0.008582040085270632,0.0026971983743562023],[0.005210710876213557,-0.01810342489792284],[-0.014981692036997339,-0.014250002673453986],[-0.006256265268213701,0.002274710400100596],[-0.005290284039880901,-0.003078913030219462],[-0.01080214226490839,-0.005025925585179384],[0.009119376448959535,-0.005978370303623402],[0.004620937470274304,-0.009523998556826365],[-0.0048401565956355886,-0.005331161242136087],[-0.017032721525175085,-0.01228663115226278],[0.01197481842407335,0.015859863564561077],[-0.004803483679048944,-0.007352905163389488],[-0.009257753807282157,0.0030907707870640386],[-0.005865588230593633,0.011345208626471896],[0.0013549748568094991,-0.003907483546482817],[0.00404394250317022,0.010523228365184665],[0.002886659347828145,0.01842807442327482],[-0.0013942421096134396,-0.02063621198308795]]}
