{"Name":"RbmSpin","Nhidden":24,"Nvisible":12,"UseHiddenBias":true,"UseVisibleBias":true,"W":[[[-0.0014245057100879545,0.01723509175175674],[0.00455607994421646,0.02488780071043092],[-0.013075639041707176,-0.014580904940524981],[0.006132183421533425,-0.017329562946390476],[0.008616264532651421,0.007919533075148071],[0.0009103042549478895,0.020779588332531802],[0.003485942259596276,-0.017823581309884543],[0.008330212955464574,-0.016184064611911467],[0.0083137141785681,-0.015658061446795993],[0.008203906168147496,-0.016550322737471444],[-0.0024818869767409646,0.023450416480492522],[-0.005167254869560105,-0.008573560016158924],[0.005365797275996818,6.696620377734388e-05],[0.0019533634234851103,-0.010161703502064572],[0.008143857199935985,-0.009419157920341816],[-0.0019494623702575613,0.0030375852833068595],[0.006128590629603564,-0.010723409468146473],[0.006467799772137212,-0.016929601109711805],[0.0005449564121833453,-0.0012155259174118044],[-0.0022087695995924414,0.012098277981686145],[0.0034709486031849115,0.00039903996194203217],[0.0035806835642938533,-0.0012498546408632506],[-0.003841283940818081,-0.0037069364553850943],[0.00033000505101607176,-0.01393547076998424]],[[-0.001976678298214551,-0.041830842879038564],[-0.002682538082093793,-0.0013718947652043225],[-0.016957251010672948,-0.0290122558520104],[0.002874156371693323,0.01466166631977097],[-0.00010565022884687107,0.00029842397404940046],[-0.01146792466365695,-0.02712791436752621],[0.0053379978038730624,0.001305815240683467],[0.017853713954265462,0.015913425660669372],[0.022676913750741802,0.05322445236909585],[0.0018016340485644353,0.019973790300797243],[0.006407923084626067,0.017582344339362586],[0.003983925295973905,0.03031828990979154],[-0.004093767215044931,-0.042458570921257585],[0.00012244574078301135,0.008160348207607207],[0.006033373792335047,-0.006100517309919731],[-0.00522761615929607,0.013263472656961825],[-0.0017623020639260612,-0.004843634303648236],[-0.008032398510265302,-0.02041489241174945],[-0.0012419910926073773,-0.006928237597244949],[-0.018870050973808124,-0.06938114901292357],[-0.004792383893722435,-0.007814791431949696],[0.004951156660522434,0.011242719181610397],[-0.009050492280488402,-0.030171562777271607],[-0.0035382338569819962,0.029430267459074292]],[[0.0076254083656053405,0.002462501487398077],[0.0007079892596677435,0.0009051789490117016],[-0.010702273516401515,1.363535659437315e-06],[-0.0025927599162760785,-0.017080903692884123],[0.0015464673816772024,-0.0031508925146002485],[-0.011611087036639673,-0.01829584435480136],[0.01536219534328467,0.0012895786532279565],[0.022083088401696344,0.01993688616626836],[0.014975029495950103,0.013008069413270134],[-0.006120710593152449,-0.017711724471400007],[0.0045575210515637595,0.0001367359514516938],[-0.008731846046664955,-0.010845982367566712],[0.010962747354611146,0.012393577440411939],[-0.004320831996348801,-0.012153743541407863],[0.0027055203534666716,0.014386996545786438],[-0.007582503858314553,-0.007542881045335442],[-0.007113355819733603,-0.013331070696933473],[-0.0020698921819659118,0.005043280247389986],[-0.003996009195101469,-0.00268573138880206],[0.004973241731889944,0.026964129702038448],[-0.006999810374092173,-0.010982218729391357],[-0.004750733655288834,-0.0041398244210693125],[0.006489244160739952,-0.005519971249226157],[-0.017532013245230516,-0.023984205534849885]],[[0.004761774407463778,-0.0016304057041861553],[0.007255680922848952,-0.011150345110050244],[0.0004000698836364336,-0.008275384322770972],[0.004476293719591214,-0.003134801870870007],[0.001539103676893205,0.02768102538752474],[-0.004953121171152404,0.007777449451541251],[0.004328269141802964,0.019515703172902674],[0.00954558464527858,-0.015558641253864209],[0.008391926986991673,-0.0057197027198481465],[-0.00039794838943142875,0.016748716146504035],[0.007100663528732718,0.0028885057628603543],[-0.003189962587309291,0.02642775344347916],[-0.00681435338806262,0.022130792021101957],[-0.0057891147570435,-0.005580330359891108],[0.005111143694752309,-0.0342724956791859],[-0.0016000315236029392,0.0009655930285976761],[-0.004861919727213799,0.011666782022440118],[0.0018940827383903422,-0.04380079236438813],[-0.0011048106165109021,-0.003699784880083844],[0.005297677722603004,-0.0051392420288847405],[-0.005477459496030469,0.05086865553584184],[0.00011480840465841016,0.011342166695201245],[-0.0056152274253796625,0.03207057220922185],[-0.004329978063761366,0.02235603326917627]],[[0.005327811386287178,-0.00040404705124622996],[0.003898349689919642,-0.003672526588484414],[0.0031301699450766176,0.016079263977321734],[0.0025204181163381257,-0.004677201382143585],[-0.00010915446161354244,-0.0035566030006228084],[0.004949020195986646,0.032536622076091405],[0.006539625280655131,-0.02241230290384637],[0.0029879827030019823,0.022224564068870314],[0.011042575813195038,0.017975414527446547],[-0.002171045712467203,0.0067548049268763115],[0.004515072757380876,-0.019311765495591316],[0.006539109818696363,-0.012556056877594418],[-0.003069184921261159,-0.01320772691010378],[-0.0019931912084460027,0.007283801267131575],[-0.009774802342137075,-0.018052588525410265],[0.003967148290089735,0.031284710547887735],[-0.0034539565093898955,-0.020120688850249036],[0.006957876570119325,0.020474936604149358],[8.53098109074083e-05,0.003569519662239832],[0.003097240784237687,-0.006625389300467331],[0.0011086184840446722,0.001750818773441432],[-0.005454546020963992,-0.038887924917879284],[-0.0033680287398801198,-0.025476335925782023],[-0.004509116099224344,-0.02110152604278353]],[[0.009362066718877111,0.017258874213689046],[-0.0017012638793438557,0.0025108026544217745],[0.0037023910668664652,-0.008548782171446587],[0.008312125621374303,-0.009645574142183746],[-0.002903820676391015,-0.008820215936980869],[0.005421898563751243,-0.03256495751570033],[0.007809498981642563,-0.00166683642310722],[-0.004885076313949039,-0.012831730811751034],[0.005699498806493218,0.0025980383127698413],[-0.0052920352480837944,-0.01216180854546053],[0.0018113506876259455,0.017069237222389493],[0.01036083675287884,0.0010963336179795776],[-0.0004202213406262689,0.008751741261999617],[-0.008637827623313728,0.011874976913732134],[-0.012879552532180153,-0.004728969841771117],[-0.004230426485625388,-0.011690786544315119],[0.0026150786532561274,0.01837720879878347],[0.00879043249947741,0.009943525878628389],[-0.0009822196543899375,0.003569083973430918],[0.00038986256349296083,0.00042925662835635234],[-0.0018756956064723124,0.0009186760422431849],[-0.0009170952783300386,0.018614895132801193],[-0.004865024922808433,0.0015801929588022607],[-0.004313087060587113,0.013461814420663113]],[[0.008345829424565052,-0.04605206113999703],[-0.005773430412094312,-0.005431247856555881],[0.004768853037102961,-0.0034668561440948506],[0.00814507425636591,0.04244345660383288],[-0.00013472507481429756,-0.003596438531335406],[0.003835432625693639,0.02679855774395001],[0.005430879336278975,0.007414669582239125],[-0.0032814948487227087,-0.013359620999864248],[0.0011628941600268655,-0.0012421866760114362],[-0.0028653825349746614,-0.013921904402062061],[-0.0028542131175698458,-0.009857587945644328],[0.004303735775107882,-0.004796279963638443],[-0.005387234360370483,-0.002791674688562647],[-0.009399966776475172,-0.041743612886084906],[0.0025435758143160215,0.01457969070354617],[0.0010049034230718065,-0.01271534029331022],[0.0011435271005634008,-0.020336862627703366],[-0.0044313558067656,-0.013532199098463097],[-0.0044141646987609735,-0.028764360741727828],[-0.002521796333598866,0.0010842612801516079],[0.0005339661248729402,0.011202699614417807],[0.006363578443418952,-0.011669150096299794],[-0.009521359259677563,0.0012326168990972176],[-0.009388441711600753,-0.017837365564589078]],[[0.0071942351967087806,0.007569528537918978],[0.0004023395476622487,-0.006083606618061393],[0.009749069194927042,-0.0023477584048636193],[0.0023097752902853552,-0.02470586049162953],[0.0004237227035943328,0.031924477893457634],[0.0010575588327225818,-0.007127855634286999],[-0.004147702781129419,0.013485556446105934],[-0.00456496948283005,0.004784210612929903],[0.0029566724344360015,-0.02023340870911604],[0.0019206637193672983,0.003356186897771456],[-0.0010124291769426678,-0.004443985542457733],[0.011424085917031836,0.02268805637560748],[-0.004490942668817416,0.01795599697655678],[-0.008233370970871035,0.0192177171921254],[0.0027559370552677166,-0.02044524139853269],[-0.004345719946561816,0.002314572236040146],[0.004761035061870333,0.002996630573306322],[-0.008973511513028795,0.0042606417347953035],[-0.00469934945884434,-0.00556981608618504],[0.001127341014292936,-0.004963934341613889],[0.001802577693780181,-0.0410772230773692],[-0.0007957913638990436,-0.018557959488632987],[-0.00722385608329354,-0.017716349163759016],[-0.0037764258288366724,0.012532025331795104]],[[0.00508279227670936,-0.00296875540947036],[-0.0006811079459606113,0.016120921089790224],[0.0012071006192258462,-6.857860451172786e-05],[-0.005548566420008622,-0.009191151317146368],[0.0006105003340386656,-0.030982497337336937],[-0.00285559978319379,-0.003669757449382422],[-0.006440247321259791,-0.0021053149976637303],[0.0034703169816832865,-0.01393590947773266],[0.004655658281582814,0.02415929423716238],[0.0020187624439274377,0.014914726770026306],[-0.005877174339048823,-0.024573595029792325],[-0.0011528680057559175,-0.031547266094070915],[0.001461906350226663,-0.00809617876550201],[-0.009577940624004645,-0.034470396887178324],[0.002907630531588224,-0.01155944770531802],[0.0005124592328628737,0.020435582357736907],[0.010441954698755165,0.014664125135119638],[-0.0032894748508136263,-0.01725484229699494],[0.001026184048006559,0.01645458481119665],[-0.0019876426769823248,0.007856037067866136],[0.0012803181371383256,0.006557381547707783],[0.0013269379606294577,0.031291438535843014],[-0.005165207643008821,-0.0015985430514361728],[-0.002092681732186894,-0.0027453676748293724]],[[0.0016321904096672055,-0.009671585065565856],[-0.005229657023698233,-0.008680894327105167],[-0.007237513420990379,-0.0015940811059802374],[0.0012340599989353429,-0.029967273380340817],[0.004149271554244965,-0.02308967517409638],[-0.0008392540694336662,0.00604086925902529],[-0.004477537567502382,0.0048173001136683925],[-0.004957230903930949,0.008146976193124935],[0.0027959688796660013,-0.021551299090104274],[-0.0059224318789658555,-0.012284222073303281],[0.0010541394426157589,0.016114217326624585],[0.0019133639362031664,0.020988398029203558],[0.0007011325427656987,0.0014844252152584126],[-0.009447497184738696,0.017963834010849722],[-0.004940794866228742,0.010984036987845358],[0.007867092957759699,-0.03507802613602772],[0.010812297063255559,-0.01048887527035917],[-0.0009191219014043411,0.010792769589163679],[-0.00029430239397695943,-0.00934603640540377],[0.0025629164759335492,-0.022074759937716713],[0.0007996042314265593,0.03365432765210431],[-0.004959036850145566,-0.021753293015108168],[0.0014984132119527649,-0.012165913413198472],[-0.005452599806370692,-0.008864381738734866]],[[-0.00010703797423658954,0.005796163424380046],[-0.013299010362877714,0.008847115561782578],[-0.008747496065003635,0.006800102609389182],[0.00336573512220246,0.012450176993157288],[0.006711935151546996,0.02545562918723891],[-0.0032408394959208345,-0.011649872572357788],[-0.007330935462438731,-0.032580118044548245],[0.0013099248744036225,-0.004656583024420041],[-0.004299782038492785,0.012579888089366154],[-0.008829234366318937,0.011576412006600494],[-0.000367420944005451,-0.004280001758795638],[-0.0011868817610550053,-0.010441847804901129],[-0.0015470803805187493,0.004291674791757458],[-0.007103605158547019,-0.012463259917161946],[0.0083404043214667,-0.013237266787875223],[0.01078315847025523,0.0046982694401828335],[0.012443578507846468,-0.007473044703083674],[0.002282463897107888,0.008147378766181405],[0.003104912566116716,-0.03038864912673952],[-0.0011427181972253377,-0.001850987648105462],[0.0044826121850569285,-0.018240561797231974],[-0.003615270533947003,0.011365448782758967],[-0.006406651426793479,0.023666936520414638],[0.001483875278444062,0.005061136585353595]],[[-0.005197905031070611,-0.02173883299635855],[-0.007714808499193502,-0.024836434322674267],[-0.0021468762391953357,0.004805372609390741],[0.011678377303243793,0.014751497771606996],[0.010149701192311657,-0.007840458038448512],[0.0011116470943054112,-0.005992131223032616],[0.001759031993265519,0.02016546830688206],[0.011206375014302668,0.018167370877445937],[-0.00267702407849859,0.00727444135977846],[0.0026829654909042975,0.010464245691821451],[0.004042787185948636,-0.015266497723814781],[-0.0030162537092673263,0.0007577868037754658],[0.0009839263272605296,0.011613487026030683],[0.0018278912828177973,0.0055632557176622304],[0.011320599613209619,0.0055750885244811605],[0.005480235636172189,-0.013390730877141177],[0.028057824045910996,0.05306546387202532],[0.002158980200779514,0.0016422568933369267],[0.010944892975637907,0.024473916890160773],[0.007542099703978143,0.01275374951610974],[0.008218180555445124,0.010150068724284016],[-0.01283971571741922,-0.017901189513278713],[-0.003163527329735367,-0.021192111156423638],[0.0005524909737452014,-0.0037453658472191343]]],"a":[[0.0004462801085157798,0.001811726737114251],[-0.001090427433439888,0.003914020488856191],[0.0007929404267408964,0.003230256720318946],[0.0001649856089299455,0.0018272379091138998],[-9.799158125989379e-05,0.0018453172882636696],[5.363642300359453e-05,0.002944330166507363],[-0.0014979309613837456,0.002547795978616948],[0.0005373408561782725,0.0025367788802854304],[0.0006849268323884134,0.0027481079005194963],[-0.0015553382803496641,0.0032782072149904165],[0.0005622598405408143,0.0036384224755971546],[-0.0012959095373241715,0.003054052956190675]],"b":[[0.008285768495970123,0.008856253196312027],[0.007953806632584121,0.01792305066940905],[0.0011867950739975306,0.004977602634555469],[0.003504877524481376,-0.0070895383174918915],[0.012159819461568903,-0.0021641002994854416],[0.01680394598051667,0.0032764065014774385],[0.0023726614785519315,-0.0007976073940393963],[-0.00013809912084333532,-0.0007213723858904923],[-0.0011125073568823828,0.0053398994492640005],[-0.013407049917170786,0.018363987617601652],[-0.0009143066182874381,-0.004864786799492183],[-0.002593822089709841,0.0125868707103856],[-0.008910028798471354,-0.003079673673845915],[0.0012026124611033064,0.00630042001020998],[0.0050420700214914745,-0.005254734819003251],[0.009492959475982714,0.004059317204645073],[0.011511583835311602,-0.003586010324832083],[-0.0062627975999342824,-0.00037096705102759983],[-0.0015513084909611953,-0.008344914907429207],[0.0021402427214010093,0.03322915474156851],[0.007465379926526441,-0.009530993488934237],[-0.0030080869846702495,0.006420763755133687],[-0.0030816778092977943,0.0036895549125411254],[0.00453801891820986,0.0072485367235276725]]}
