{"Name":"RbmSpin","Nhidden":24,"Nvisible":12,"UseHiddenBias":true,"UseVisibleBias":true,"W":[[[-0.4782296898159008,0.17974929286362332],[0.13703520363578203,0.2268275878900083],[-0.7184233173814822,-0.012906690570728761],[0.11087730616698994,-0.3526285812405048],[0.6013953406466278,0.14687006197092992],[-0.42407059402294606,0.1363987367282788],[-0.08861245428931395,-0.010409473374094943],[0.22976236271988315,-0.06541949261900372],[0.07711125391038663,-0.13944237768281145],[-0.27645806144199925,-0.15777148859205462],[-0.08696297822082069,0.0967881770892768],[-0.6341430778743864,-0.0850062461843757],[0.8107030661733022,0.06216668549767093],[0.3705814838903162,0.05436066002318143],[0.6342349076428302,-0.0076358793441211594],[0.05481601404380462,0.004670796087579478],[0.17141561823782375,-0.15512069702929404],[0.7194659577500347,-0.0397879077725513],[0.20352090538058695,-0.1067840798645171],[-0.4454914959734923,0.21952155820705657],[0.058359788060317754,0.005182900034210884],[-0.013870835725836403,0.16587079164625151],[0.2151655189691207,0.1860551052830997],[0.0032410041427696737,-0.3482675985221251]],[[-0.10513683474785124,-0.26634958145951365],[0.3569065995115585,-0.040254465513936216],[-0.8171157621718594,0.011270870674331896],[0.32120582804252085,0.3230351467465236],[0.07797681256711766,-0.002356292837372719],[-0.14700169491477694,-0.002469461752563946],[0.023103746858341927,0.13066380258672183],[0.9469497962885305,0.02048379517780042],[0.3878593165166739,0.18501775693586217],[0.017344029067788296,0.21103379852528373],[0.2351095766848061,-0.08246267239386854],[-0.1696359876183319,0.09559195033926174],[0.8219238089602398,-0.10031254860834785],[0.863290640243155,-0.007653959892414544],[0.21635839050395253,-0.06968264922964443],[-0.23470994717466787,-0.02463417760059601],[-0.028617936731848516,-0.0001865318612354459],[0.060828465839246004,-0.11070764287328277],[0.6259531224947913,-0.054532340872518625],[-0.19928707000290985,-0.31155274550002204],[-0.18375873058981562,0.11380064140981933],[0.010398897718930456,-0.19757566400856902],[0.7040103758364574,-0.064061458171942],[-0.06476287804618092,0.4173338958752807]],[[-0.08538710642422295,0.03536152432761935],[0.719318706318052,0.0032817036788579264],[-0.2944022987564111,0.10598582260866855],[0.3088031379342355,-0.18981959048100755],[-0.060703671800930725,-0.08201028986798696],[-0.24592507765628951,0.002269899542471179],[0.10196930611998802,0.05795237606516708],[0.9101685669656759,-0.010339123449787817],[0.635108897336658,-0.01987619966101313],[-0.04610425720445985,-0.07664425052213923],[0.8077089178706229,-0.033723467080695985],[-0.1379372096430161,-0.02950174829207405],[0.3385779429816347,0.04418960434948209],[0.5870262334592345,-0.06254781310133782],[-0.034289433025374315,0.042387715461720946],[-0.2468773959498071,-0.006008755466856952],[-0.15372115638106226,-0.03767610642027217],[-0.1309743346064693,0.2677296398317523],[0.7137688864139823,0.11748303415743691],[-0.11132058013558786,0.34507179558280643],[-0.23655450785455504,-0.07721734958564422],[0.037321410532512894,0.020762069429350008],[0.6171245648023845,-0.11899596488504359],[-0.01953944438456882,-0.4955250240389489]],[[0.01982960838167619,-0.0391736402619078],[0.7591717236019969,0.004849220890981046],[-0.1198476120215861,0.05554122859188475],[0.17730046347647635,0.0045875790549342555],[-0.20660140423896522,0.08200070412568937],[-0.039752758515162995,0.06981521177259235],[0.72634884882794,0.026064807447385905],[0.380310704476091,-0.08513006566967896],[0.8019477634732379,-0.022882687412203433],[0.08929498764500714,0.0980996274891389],[0.9150398554402926,0.0693519675241334],[0.07965540011546436,0.13198651113814927],[0.056549488721091626,0.12946110726623472],[0.1124516736960378,-0.06507374600591813],[-0.3581117811496877,-0.1112387743318145],[-0.7268068529628742,-0.13578879873302302],[-0.8487046781410407,0.004265888105737495],[-0.20103072571706468,-0.2733936623688438],[0.34937462601194574,-0.1265081026248228],[0.28663412913131725,-0.13833597729496833],[-0.6053874023748418,0.1902887811852459],[-0.018364744965067657,0.25949004933174213],[0.3801438479559863,0.2109436314133862],[0.06945305504768375,0.28763779545847296]],[[0.33193129987483516,-0.16078126499104267],[0.17322390005552127,-0.1396251049847232],[0.1466267845109648,0.1258906902350532],[0.03495801294684939,0.13852101336295167],[-0.47112648147091674,-0.02764075293836998],[0.42608321621462625,0.23119947399555676],[0.7463753472990146,-0.04522084734531712],[-0.10283323385631041,0.045872239587727605],[0.2055762586591108,0.004705081079565438],[0.5676630852764776,0.05272610921313056],[0.30914033808669766,-0.07545838844086716],[0.482667353141592,-0.047044898804346966],[-0.23384815601491155,-0.07373082454950436],[-0.056260922574679316,-0.11193281556522552],[-0.8745217663726712,-0.02257956407487925],[-0.4254703487997318,0.1795338235178436],[-0.6562762005599869,-0.14661610905706893],[-0.28714730890046614,0.15254483301985894],[0.07033021919455958,0.023167213790440618],[0.7149809625839065,-0.015089550144540713],[-0.30919693347243327,-0.24544706865676644],[-0.07056603851039812,-0.5376935459982737],[0.03502609340361986,-0.07198597271574621],[0.005581739575681834,-0.4606477923744743]],[[0.7366500404379251,0.15908761056631643],[0.08517023362812208,-0.07531251579478371],[0.21403255780021133,0.11095076024334738],[0.03484963866259949,-0.27896456302668754],[-0.7135137656110453,-0.0335917133365662],[0.8176918718875744,-0.2795551173353109],[0.3118671544097218,-0.010415320918513818],[-0.25566634997005316,-0.06930902450524008],[0.010517354888646552,-0.0697515086540238],[0.7630434629505339,-0.04742973462814578],[0.045972194553503924,0.034073006941817655],[0.780924842914021,0.08763708574880044],[-0.25300454836135056,0.14926345734576396],[0.0003873506098827622,-0.030893474856766193],[-0.7501656733972544,0.0009085290507709339],[-0.014713457215662933,-0.07701662009926585],[-0.15042131734944625,0.19455814664554083],[-0.4449079204617839,0.08743066398007367],[-0.002588399728317345,0.08645343882789225],[0.6347579556610279,0.08347514216794885],[0.02206525330120251,-0.046054166784497495],[0.07278377516098089,0.41370288440858033],[-0.2108575411716132,0.07881778401097642],[-0.021476735060017724,0.5450014806789395]],[[0.727480130693389,-0.23568594174027685],[0.004844043251982353,-0.07118213895197406],[0.7188819423660606,-0.032390574492622705],[-0.022795973488245136,0.3421732371138185],[-0.5658932085151096,-0.03854072925111527],[0.6366582854106758,0.22174785439532868],[0.2208875832377175,-0.11015113049022904],[-0.22983883417189277,0.0056715988720072354],[-0.08534642677142659,0.04595728246567545],[0.6162244993297725,0.049744754713073776],[-0.1380863132747159,-0.044514126540315134],[0.6764986543199978,-0.09209211835603984],[-0.6167932538204652,-0.003933655696895179],[-0.025790763880960226,-0.1797908580784489],[-0.35664167460549134,-0.011968274820609645],[-0.14124226946606566,0.042242743353131315],[-0.09699616351069182,-0.09212810797475242],[-0.5620884199217063,-0.11463046713367787],[-0.17263434354124782,-0.04594387184899001],[0.2876609345062318,-0.027460601633688863],[-0.026006431144174367,0.14280667875103722],[0.10288698957591115,-0.07915419776650824],[-0.46240258116777966,0.07924570016594863],[-0.026144529024060077,-0.28075157759464026]],[[0.2877613680992325,0.25622261874894553],[-0.2614020272613427,-0.053696116576565985],[0.9040115009938322,-0.009533618603115265],[-0.3322556883488935,-0.2832397792544757],[-0.1964855382108949,0.10964277602098806],[0.1282585124672973,-0.10445540699405453],[-0.10478326910490433,-0.033430129661077404],[-0.7483170793458268,0.029105561202950228],[-0.24723953455978612,-0.21355772443342194],[0.2920373965558691,-0.03698030854473068],[-0.4478753836009126,0.10646573700881973],[0.16683908758188032,0.07438760524483734],[-0.6281420605919237,0.08376811594330427],[-0.7300071901953895,0.22288245057369474],[0.026070741963976223,-0.041875707766553985],[-0.1179140478714632,-0.03353658670843078],[0.0630784066248338,0.06414092757694045],[-0.2850764253602624,0.09720837689791094],[-0.7077653807079822,0.0079360824114243],[-0.05135034036328278,-0.13137640707932854],[0.050619035611655476,-0.2902733642970775],[-0.06443870882601886,-0.4033472344152627],[-0.8507552383356559,-0.038798854339299256],[0.03103005886095426,0.32909142651551293]],[[-0.04201719753450486,-0.03532099120546496],[-0.7357326166167169,0.019204571249742047],[0.34672209964858697,-0.0633936316603126],[-0.44950423961703295,0.33369246234817757],[-0.047218725520636044,-0.08497878526791683],[-0.10571244534974147,-0.12240379205464447],[-0.36809441559873307,-0.14238490862973274],[-0.6977573647880287,-0.005880796874926665],[-0.5443318675735584,0.1855348360642111],[0.0039908764011660994,0.027445804186017015],[-0.8126567001952142,-0.09883086973149507],[-0.03473781069880879,-0.18142173155506588],[-0.31739878859499654,-0.1505053878405781],[-0.8691033480296327,-0.22364356916937933],[0.03807882045120059,0.03135763340958665],[0.08554093191625332,0.1488728135444392],[0.2279405031416714,0.10343266435874905],[-0.1555061404861966,-0.07879083895729111],[-0.8279526788597991,0.01875243332899469],[-0.08199426595632495,0.1080897407298364],[0.07272478815834743,0.03480282002082052],[-0.08876109284801974,0.6778016904781106],[-0.5031236151091796,-0.024541072487868472],[0.010666037971466718,-0.22307750919152985]],[[-0.23998026583765994,0.013851549163473807],[-0.8402637745347381,-0.01584015584993473],[0.05972610493193024,-0.1441545982965673],[-0.25949453982961923,-0.2696861067917659],[0.1612706645628749,-0.02331870542763524],[-0.17799961937274264,0.008443682913240684],[-0.8590945903374145,0.10824698417259254],[-0.271431227562377,0.09365611952314688],[-0.6520117254422438,-0.10846837736976828],[-0.3876617319910863,-0.11586290159582292],[-0.6158249655579755,0.09716066796145398],[-0.10575885929516421,0.1115821225417928],[-0.16828890894755397,0.06427620250057842],[-0.381659135844884,0.24902948102347328],[0.04978600891824472,0.101564373470419],[0.7934475193478903,-0.18315603561986543],[0.7874775419393475,0.011800111306549602],[0.01047435610541523,0.0033387538173384503],[-0.3301193159328144,0.06595342204341874],[-0.11866285608591867,-0.09433379506749093],[0.5416683155879493,0.2779097084015916],[0.005156952695179849,-0.4783376494401454],[-0.015222154267587572,-0.1256273901803067],[-0.06817657966568626,-0.06840873723333414]],[[-0.430243680403218,0.12277742609427114],[-0.33013884856320685,0.18578464062582822],[-0.16892203719329382,-0.1036288605829565],[0.006394594305051265,0.09118552165357645],[0.5462813193468858,0.15896358934293153],[-0.34158154793458395,0.038142554527574285],[-0.6482944313180115,-0.14181254606793478],[-0.11982664043967435,-0.052279291439047124],[-0.32578803381748694,0.03637759612621865],[-0.8536385586617745,-0.031096464229716417],[-0.10012317929705795,-0.00859248786552686],[-0.3458699290647923,-0.18359775848948762],[-0.0274924106398505,-0.10776986415182954],[-0.09599835093007564,0.02195386817968235],[0.5220506653369436,-0.04938739574553044],[0.7142660742564002,0.258112241390903],[0.6097762250170237,-0.050582257573766144],[0.4442925634303351,-0.10160054485848946],[-0.0001940180480538993,-0.1602240677313861],[-0.3812918352532025,-0.0513366451845641],[0.4887274912733436,-0.35490704702654763],[0.02485216233512701,0.3481454608588032],[0.04037301439520959,0.11354199827011638],[-0.0020510384856742957,-0.014766146181930975]],[[-0.6820316915514196,-0.10371297293676132],[-0.08839451986795653,-0.051992357286202766],[-0.3071993582740881,-0.083839896961419],[0.1125683326343387,0.10971812897924502],[0.9051122743302599,-0.19279755354958195],[-0.544330112866524,-0.21162888199241528],[-0.0340158090962705,0.16230232405169245],[0.01757772766463985,0.10621536359381857],[-0.1877092099495341,0.18280126220872034],[-0.8007065847797733,0.0378939544966652],[-0.09454502930503707,-0.06074952088564785],[-0.7424224733621313,0.14099485172445553],[0.2108665457109353,-0.08473838240441618],[0.16448268370427255,0.08680066308478702],[0.9094176863691243,0.06586012151396298],[0.26434301754246115,-0.17770942301127163],[0.1342615093541996,0.11756469640442523],[0.8325058132426968,0.059031258849539754],[0.07727978602500142,0.13371580157604912],[-0.5363761358965509,-0.03552226487654813],[0.12929081008763932,0.28649433936385577],[-0.014393791529768657,-0.2199671822890095],[0.0002847130098275584,-0.2835909109682635],[0.029613102966057306,0.3030073805018539]]],"a":[[0.10360201853468448,0.0038163148633065494],[0.2330584676199661,0.014930468531277368],[-0.1637496183884022,0.0015043237794458084],[-0.161744335620631,-0.029645994148088845],[0.05941086516278679,-0.013478438849263532],[0.050196424433126746,-0.005006650650789944],[-0.11041752262083356,-0.011165804763160512],[-0.18930908439719846,0.007312569161319031],[0.16887562023680658,0.034637281844116685],[0.16194135088928768,0.012609639282324803],[-0.06537887148687138,0.0037705394257886494],[-0.088780542060151,0.014092006240096539]],"b":[[-0.010291096151607228,0.0004540392644336877],[-0.1038017738860612,0.02964046292820214],[-0.10639374372460332,-0.013415876876558309],[0.009664911899066778,-0.03401602782520548],[0.025347250581525965,0.00523430450403049],[-0.009080184685136968,0.011777302079306884],[0.09034352234934351,-0.0036777653950178825],[0.005559926329666163,0.005031773916332748],[-0.07904018635786796,0.008683542807342728],[-0.06269128190475735,0.014610041752447237],[-0.13016859919925614,-0.013700358478617666],[0.0037660522525204037,-0.0008946112453781417],[0.14712440990723002,-0.005178741962585975],[0.006564503865375424,0.01214969066613207],[0.07034526716852081,-3.2258395998797e-05],[-0.06692836136169958,0.006531154549487759],[-0.0787643154374797,-0.005646063820864243],[0.0035638129391572645,0.004870871490971494],[-0.016273014874667938,0.006417543204731858],[-0.036767955892823216,0.024647038607627753],[-0.017177807445355815,-0.0018027062642439024],[-0.0292843191781527,-0.013685861443769825],[0.04638807800878479,0.0037439609749607837],[-0.007391072422108939,-0.004688778791384798]]}
