{"Name":"RbmSpin","Nhidden":20,"Nvisible":4,"UseHiddenBias":true,"UseVisibleBias":true,"W":[[[0.00778189631181374,-0.003215974955879202],[0.006833416963392069,0.002034485946603241],[-0.00019709962047210951,-0.0023078865127457403],[0.006467171582350454,-0.004272268853733432],[0.01298374790373723,0.004924167855009953],[-0.008332817359039263,-0.004105536371730173],[-0.01719962427503313,-0.004715837772225013],[0.009688306259297307,0.01760710841209123],[-0.0057508850749312685,-0.003985456560636772],[-0.0065407867765237375,-0.006413502600130061],[-0.0023181445032213034,0.001091017271140807],[-0.002808540476675656,0.004360831344157376],[-0.007346055987539851,-0.0015625428401476295],[-0.014575648477540738,-0.003054189927076843],[-0.005280740185563189,-0.0006833794264538085],[-0.004731356299473818,-0.008767626626032855],[0.0038024380717105503,-0.007496432053969526],[0.006185359957554974,0.00835995260631081],[-0.006068406194412198,-0.005352026898624924],[-0.004341673636301062,0.00852365709235314]],[[0.0019738600452928693,-0.0034552530814574104],[-0.002305261657783634,-0.002369601600011393],[-0.004856195619665881,-0.002846150328844879],[0.0070808460106034764,-0.0057481177621500675],[0.013868175570255437,0.007050872099035482],[-0.0016949085742866687,-0.0012733580434509096],[0.023600128299865665,0.016208491846142366],[-0.007011073787397907,0.009533766210281873],[0.0060160181164487445,-0.002087893509051654],[0.004010001153092102,-0.004365748392192822],[0.0021690676418961137,0.0012216944130627977],[-0.003262387269285307,0.006274141035368581],[0.004260694551773193,0.003461986334748937],[0.0031051653534263247,-0.000562716830384919],[-0.002010256916600098,0.0008295981008061094],[-0.0013106412730160616,-0.005872393368235829],[0.001832270420344232,-0.010638197512593699],[-0.006767354745572881,0.003383540966971131],[-0.005500921599654804,-0.003144874697082781],[-0.004436422801266509,0.0041402772378208875]],[[0.0005704860376687317,0.0039438102151579885],[-0.0010146562687323685,0.005905633039132729],[-0.004534717494536008,0.0042073022151007935],[0.010054371401860716,-0.007107143331034979],[0.006767822465239149,0.0023585909044043724],[-0.004590405763587378,-0.007862211276693808],[0.011470931932815662,-0.03566931864803985],[-0.000539301617037094,0.034671398739644234],[0.008841837310997136,-0.014921676457416084],[0.007417507811648907,-0.016246391162536886],[0.003655143061571508,-0.00464644960719427],[-0.006697383904812354,0.006921440783402089],[0.0053326584332216015,-0.011319583049969807],[0.007602025433647251,-0.017672413204465557],[-0.002851170000773457,-0.003614702512908168],[-0.002790970487344397,-0.013435495896010133],[0.0016698908781049245,-0.00502908457172442],[4.641123778892191e-05,0.016166768752118872],[-0.005018325594163896,-0.0068415488230057055],[-0.005890109289556574,0.008006245477881358]],[[-0.0010046996713348908,-0.004075545211939239],[0.0024003885307167616,-0.0013205242144100444],[-0.007553755567052821,-0.003241789510312081],[0.011113453783422898,-0.004775196917140028],[0.01257848052652297,0.0061145295466388935],[-0.005705820355685021,-0.0022479192386977457],[0.016992180515728535,0.013002058676522852],[-0.009385539888906785,0.010181381756105555],[0.008313317881924447,-0.0015102893320591906],[0.007093311940844234,-0.0036618603367834773],[0.0050458474483043095,0.0018221883344741831],[-0.007099235766304834,0.0052544600865113466],[0.0067460248997677046,0.003633348729618412],[0.003801481002482847,-4.0433139466311476e-05],[-0.00184487865086599,0.0006989942584505664],[0.0019276864988605636,-0.005731257461386595],[-0.0019358343682986654,-0.010939767760375342],[0.0016617894099470627,0.005402710033610552],[-0.0017042315837534569,-0.0027490796261498245],[-0.0089178268197016,0.003780544487799539]]],"a":[[0.0073454814230115685,-0.0012588253389734577],[-0.001155178581886013,-0.00807959422359368],[-0.003002715519416029,0.004038825754767664],[-0.000569143864873784,-0.007990068057727652]],"b":[[-0.01641102177956093,-0.020621769695424945],[-0.029942611970736673,0.004569678198794715],[-0.01398169827302871,-0.015839426995402257],[0.00025984629310650797,0.017172587018998587],[-0.0029535333097996663,0.018903766924767085],[0.016478285993889955,0.007457102051988835],[0.12696867270754406,0.02808380673906413],[-0.06006104907933515,-0.018236983140651943],[0.036661117009733735,0.021351535913213714],[0.03332211632705689,0.026607807956857243],[0.013840764163959024,0.014326202917983729],[0.00021346091569143604,-0.013970968751715553],[0.04384795389947015,0.011584198864855523],[0.054240157586463826,0.017783800247375043],[0.011493715859818952,0.003639972210346154],[0.016876789120405914,0.009483408490151295],[-0.01566814710938874,-0.004447704771165216],[-0.03803065494809562,0.012451691101638672],[0.010329774911740782,0.0029364748410886147],[-0.016197228769299698,0.003401640028186964]]}
