{"Name":"RbmSpin","Nhidden":40,"Nvisible":8,"UseHiddenBias":true,"UseVisibleBias":true,"W":[[[0.005187628063100793,0.01741619286573655],[0.011612683941366135,0.0138632173337873],[0.006406476720868394,0.019515430208931085],[0.0051974878982617625,-0.01174568708538509],[0.0015766063479005915,0.030143291741299014],[0.004090277109930209,-0.027602764372235727],[0.015942143303749094,-0.017831333462390925],[0.00027530377428317156,0.012293845002497106],[-0.009153214817968065,0.0034619115505142295],[-0.005210275157340505,0.009727204190671827],[-0.005051321368907852,-0.026038917807860707],[-0.00988866018227763,0.02933327097481473],[-0.013361218686552141,0.029514712656073167],[0.010809114147912415,-0.013210768899452472],[0.0038488620501979853,-0.022227091450847915],[0.0054464236469798566,-0.0047507386124888695],[-0.0006110173819556565,-0.002550098537308059],[0.002540024121305638,-0.0013576591796937581],[-0.006828233847325395,-0.009475617007885795],[0.0007121820575365254,-0.024403932411666482],[-0.007867325332299972,0.007648317088479084],[-0.011196589698526353,-0.012577893580845783],[0.01265722336699861,-0.026760963199884674],[-0.020973340579610877,0.019240360604913485],[-0.0074211648988707695,0.04132450851150354],[0.018105547410532667,-0.0002496098994795236],[-3.462793564660064e-05,0.03252986920033757],[0.00011440446014155554,-0.030318651148353817],[-0.00639834060420448,0.01627806942450083],[-0.0024784254896295372,0.04047037268935969],[-0.005490579358101763,-0.007331560766681676],[0.008887265374116231,-0.02069241004543248],[-0.016885748338053456,-0.0030537734009116924],[-0.006836039540025883,0.03014359321821396],[-0.0033250663660712885,-0.012695601803030527],[0.00544677578988324,-0.019442071747685828],[-0.0009939198353961496,0.015590168054337484],[0.01157814232365686,-0.00037648324237878235],[0.0024810915578943513,0.014045148819907349],[-0.012465143305904886,0.006106230299196166]],[[0.003895287123458979,-0.045051449417556046],[0.02250585473960197,-0.021977694222193984],[0.005456532444206585,0.0029254674110872126],[0.0025231189985305724,-0.005306084339026052],[0.008310597411561692,-0.018999490646183184],[0.0002257974011934933,0.018616813534998625],[0.006688042474310044,0.0037763315264884366],[-0.002029849631218769,0.006903749530746114],[-0.0022663129700675817,-0.02145880658407795],[-0.0025165144447428117,-0.011637426664236058],[0.00105448957380577,0.010817578973257837],[-0.008530497621169227,-0.02565440949515221],[-0.01546059434347405,-0.026650208759837705],[0.013191433351262605,0.023177538924302698],[-0.0019403601682237547,0.0025276821794474103],[-0.004872233918712165,0.012356163264255022],[-0.005080243607268406,-2.3339127644615758e-05],[0.0005523795394310791,0.0202317294887918],[-0.010594862003696899,-0.012072524102365109],[0.006540449231002366,0.02402855043608377],[-0.0034770846059253946,-0.023327031765763343],[0.006131257865104855,0.03925370262209488],[0.004365460144027831,0.021057235076434342],[-0.018825844279571572,-0.0035872237247888262],[-0.009475253177472808,-0.04140895002772269],[0.013139629730760162,0.010543824737569915],[-0.005178082334234168,-0.033136337020599524],[-0.0020027565914293895,-0.0009316523519372627],[-0.00018033382469237163,-0.014696408434685001],[0.003189246249732203,-0.01252529567504558],[-0.010623409672154237,-0.01652934716150415],[0.007093281878879875,0.006243691841774537],[-0.016243653559122995,0.041617299690815374],[-0.00437774933215006,-0.02555801953950825],[0.0026904394490025766,0.006999754577509084],[0.0009316068983566334,4.15461756630135e-05],[0.0005993252283993162,-0.01148524479044914],[0.0016094260117469588,0.018142783796501014],[0.014425013656470153,0.018877263144707824],[-0.0031183905522835253,0.012680893676734016]],[[-0.0035209864614392443,0.042138959749605936],[0.01003741576014598,0.0006846431807596164],[-0.0009264447351019365,0.009042597446743801],[-0.004604907061416388,0.0010089312569531068],[-0.0025984797488185106,0.010939758127154517],[0.003493746955219147,-0.015392655529560921],[-0.0021659678790667096,-0.017866037536731775],[-0.0005896735141563904,-0.01959980730958203],[0.0001752754013797272,-0.0037013832455454285],[-0.0014096351050103132,-0.009846815508734737],[0.0012559980844396915,-0.015029704590401604],[-0.007466891017195565,0.024640620157669706],[-0.013914782213387052,-0.009521639893098557],[0.015508789447160512,-0.040919658245340065],[-0.01346246966158555,0.025410270495583823],[-0.01672969411056486,-0.001510410477897996],[-0.003985936448305673,0.0203404447568858],[0.0003535949347684548,-0.045448152444529724],[-0.007492362299856291,0.03329438378331877],[0.004139898073009867,0.00583890789448318],[0.006618925655700593,-0.018548058708437242],[0.007976114883877677,-0.03606811659183743],[-0.0024136657221046688,-0.00970414660027666],[0.0007386006041355079,-0.03513519246143244],[-0.000862013591280219,0.02132250725179991],[0.005299869113553224,-0.035072575521842675],[-0.01007100765484868,0.05183142816162129],[-0.002640674902139021,0.02618291209788426],[0.0025228969890788706,0.0041083252348211126],[0.005073899335319182,-0.02261165080152817],[-0.011786424100502145,0.01401710962604468],[0.00666294443051635,0.008608240200304887],[-0.0017783269123916052,-0.015469019952885514],[0.0011287749758045397,0.0029494481386948697],[0.0022852167760354395,-0.032630868591309335],[-0.0008112769847124847,-0.0011465888909887977],[0.0037915490401699654,-0.029982818187324827],[0.00209957377349117,-0.01798817261959639],[0.01700906496533139,-0.04731617335676223],[0.007330612059224978,-0.03661919138189359]],[[-0.004500582685419485,-0.027182416202274347],[0.007009450423783771,0.00943820911460588],[-0.004781899326099391,-0.005272404096758115],[-0.0039128984499088556,-0.018806499701519642],[0.00272925746399032,-0.013985717112521914],[0.0035283229383034605,0.0029535116463502483],[-0.010766045970305296,-0.001781875707191949],[-0.006560009675204065,0.03309124231553644],[0.002815334665606811,0.009526782915155298],[-0.0015572671034234005,0.018710374890379522],[-0.002563970447263186,0.008766144656714518],[0.005973315211736886,-0.012555538442492452],[-0.004589536830507925,0.006293545570707236],[-0.00019710245301660258,-0.0041441923762979655],[-0.012447293876746224,-0.018365117881620232],[-0.01873125323311246,0.021953942336892428],[-0.007022349828695763,-0.03428686320997051],[-0.0019061098501318976,0.035675871631989695],[0.005054885578354333,-0.019683003104106297],[0.0025684019600899703,-0.013643460519028754],[0.008426866486162431,0.05036449066086082],[0.010170026989745073,0.008154424478015617],[-0.0027458419953053227,0.048325368953347506],[0.009681489650876412,0.050694904396565585],[0.00133051967604521,-0.005766134950680793],[-0.009691101228235298,0.01734118073392132],[-0.00316680737265007,-0.010680930410073322],[-0.000813006691659045,-0.02846282010131357],[0.00012180704553548628,0.002044032256220522],[-0.000595723164596112,-0.007146193512731283],[-0.008937630608358824,-0.003516691507560944],[0.00819685341243226,-0.0030050779522892315],[0.0062821114798305,-0.024500846282697237],[-0.0007933798560805767,0.007444334481384126],[-0.0026795612442091013,0.027885481102925515],[-0.00021253120249160027,-0.01276653869610902],[-0.0032769123399772047,0.02281225616211124],[-0.004120887952764409,-0.004613740847124886],[0.0075808088295237,-0.01471806969973826],[0.003981211326434367,-0.004858828695283755]],[[-0.002246265003545087,0.021093140334760323],[-0.004018731299917508,-0.009798548014682915],[-0.013620426902161501,-0.010971177217653266],[-0.003456100204642685,-0.0012626243513976906],[-0.0009107674893368237,0.015318309171594062],[0.0009768129782294682,-0.018448516786865397],[-0.011394148937541008,0.026927756032296524],[-0.0033304964882370403,-0.0007141588593411945],[0.0017000919814922932,-0.007937804931526725],[0.0027234359902266474,-0.011164582467801684],[0.006181377968417321,0.0012279900090802626],[0.003506128111344855,0.0031863914816056605],[0.0005825563094162596,0.028739475019946295],[-0.0003067443400348168,0.02315649003689326],[-0.008488641832939531,0.040657443548181814],[-0.002118144503188954,-0.04066815420759342],[-0.006110257805019877,0.015887766609476797],[0.007303699675976189,-0.03419310346379553],[0.016346730226488894,0.027292402030590756],[0.00109964803327555,-0.01851666369050792],[-0.00294761476692854,-0.04191166689684164],[0.0007904869352383241,-0.007393871663967721],[-0.01080453472139564,-0.015421671224198921],[0.012552881207102939,0.0008831776605003538],[0.004546115898997058,-0.005172726783427377],[-0.008610807789066494,-0.01863021601009265],[-0.002736619275406129,-0.01500938395879544],[0.0009337313881140711,0.033045141514092546],[-0.0027828954264341585,0.002474180444102218],[-0.003959402944830962,0.022670705161614464],[0.0008597567333534215,-0.004691950388767064],[0.0007525271810733591,-0.008622809153027981],[0.011892627530424919,0.022863470903621366],[0.0006163224846541767,-0.023385988209748795],[-0.003373511388794501,-0.03413620666528341],[0.004687629717725693,0.008278459685008677],[0.0004177752891049857,-0.007221149797894142],[-0.0067806780129731885,0.03463236663826737],[0.0015310399553744231,0.0546275810815805],[0.00358031339819612,0.02574555370668941]],[[-0.0025984675201526607,-0.023256776135035965],[-0.013686889576698462,-0.018227014672117306],[-0.013083376651987803,0.019179434744338263],[-0.0006742471704846276,0.005687579370005455],[0.0033018960519189664,0.00467031968544695],[-0.00028426727467794835,-0.01547194564593017],[-0.008065520746339651,-0.039600509208093895],[-0.0006726775850576135,-0.0014579624641193813],[0.006028258254945362,0.005282870146826765],[0.009632499297213768,-0.009697806329728945],[0.009884302334902142,0.01860459912900947],[0.003965709973947499,-0.007720672254663076],[0.0069512178168943785,-0.05485023654565847],[-0.00025515812402952554,-0.009939106918907632],[-0.006447873995040927,-0.022002561290482874],[0.01073821140988868,0.022170827310634286],[-0.006595909818766081,0.012693170175364173],[0.005393654007776794,-0.0067583383288857],[0.0105115707429705,-0.012271886504600073],[-0.00017406733469163554,0.025372103324375204],[-0.007468163440197183,0.018652761625357724],[-0.002123466911922512,-0.003785267211854704],[-0.011890286979358037,-0.01348998624962028],[0.005820908607492434,-0.03007038727363863],[0.003344055164391754,0.012784486576297155],[0.00038919091303154504,0.02274084393274356],[0.0004309016372017643,0.00775834135830052],[-0.00032435683179710465,-0.0378716077738827],[-0.005121454979281304,0.014259663422803364],[-0.0008066390908962929,-0.0006896743877212458],[-0.0007429556120288216,-0.01956868382259661],[-0.0028271253356596682,0.005278189623731897],[0.012923001540166347,0.023566124264210387],[0.006393471980059895,0.026430587579949344],[0.0008389548181565432,0.0066757506657014135],[0.010707928339960785,0.027813435748608346],[0.0077774747715755625,0.037093695062779326],[-0.00038001245633363147,-0.03898039222414888],[-0.005585465698780216,-0.043330445958463075],[0.00021539361531259607,-6.157753655258749e-05]],[[-0.00208249227764584,0.022882957307337685],[-0.02047127156047547,0.011887658098355815],[-0.007258705482445387,0.0060239537696506916],[0.002472308875615922,-0.024790295018956986],[0.009711534032273232,-0.023378242559595152],[0.006424674143016048,-0.004864474978008804],[-0.0014213501361687044,-0.004939337473096185],[-0.000683786844624851,0.0172617030588753],[0.007634838342325134,-0.03845611017205893],[0.014262551769046014,0.012990182437512422],[0.007679129428600527,-0.018808285722636688],[0.004906186892817813,-0.00446419676868993],[0.007269249695987039,0.00019204958009741945],[-0.0005044384546367609,-0.008596578945147204],[0.005601046202704057,-0.006511433297315814],[0.007242897961658296,-0.004857935039285448],[-0.005613963183357216,-0.02169739510753118],[-0.003594867756782715,0.01902055731953433],[0.004869614072538474,-0.004690980249673915],[-0.000423860408998595,-0.004397824407121754],[-0.005384363217147095,-0.019525240613220644],[-0.005757511984226416,0.02140634491436017],[-0.0036291739511429013,0.012968157495766188],[-0.0015613458720643446,0.021866597714668614],[-0.0050590285714437345,-0.0006185062271182538],[0.009103406047722211,-0.018809919191334033],[0.001637728408207044,0.02211480436548592],[0.0004742474130688283,0.026577558710016602],[-0.004141776937942926,-0.02296837763126645],[0.003671254817209255,-0.011670109223869544],[-0.0073236547880718185,0.013098406181386206],[-0.0004039243866997695,-0.03615288558868643],[0.008093557499904926,-0.031081982340020714],[0.009012229284056332,-0.01175463589517156],[-0.0033060544218296802,0.0029888451353300375],[0.01570246681877157,-0.046593618234766515],[0.013604755973892005,-0.05917983617358302],[0.003080741934184489,0.008037614421425957],[-0.010927066460218718,0.03514002467985273],[-0.003768104721878378,-0.002161786748736428]],[[0.00043660477813390404,-0.003728927664298172],[-0.004390608645880652,-0.00020754343172856983],[-0.0022622862342569364,-0.0281093873772849],[0.003488085898681534,0.01102909792110847],[0.006848769903453226,-0.010851131591949188],[0.010589954502291317,0.010414158058769269],[0.012545728886334047,0.029490482542174325],[0.00024034538732963214,-0.0035854606625010544],[0.00400045752631271,0.04138220981737082],[0.0060769085982056645,-0.005858422089629055],[-0.002796330432843464,0.027878514759886817],[0.000466065299984481,-0.01899004607939855],[0.004964095886358058,-0.010364432512732849],[0.0028245886366598406,0.013572675190752021],[0.00841693662156097,0.03333126195798506],[0.009787856655257467,0.008780256217320998],[-0.0035872992613835064,0.0076301579201395],[-5.081035796101753e-05,-0.024481834748808384],[0.0012562736550328665,0.03488634037930032],[-0.0037006224189067394,-0.0034385109140750527],[-0.0038146031638567938,0.028058203030578353],[-0.012468759221298743,-0.017526615850042043],[0.011293536057935804,0.024380687153089838],[-0.006539935052498212,-0.005559463654050729],[-0.007981866590517311,-0.016097024911713515],[0.0120611445238783,-0.008469799126348385],[-0.0005485285141311171,-0.04100493253768221],[0.00010732378040717363,0.017218398583357965],[-0.004956272257458051,0.01143818713594077],[-0.0018785493297369439,-0.029778351689999483],[-0.004718690104695921,-0.002402774614742971],[0.010272958431802351,0.047202183395481725],[-0.005311089768314978,0.005664061747203796],[-0.0006917714441255635,-0.026178637559059147],[-0.005235861020458259,-0.003447630073991108],[0.008728131915672037,0.046412058025264415],[0.006845573754317819,0.03148371291868769],[0.013185679536028696,0.010801896551806148],[-0.010157459199580122,-0.03821570075367021],[-0.01433306140009904,-0.014700925429241342]]],"a":[[-0.004489591996736691,-0.003671185619388222],[-0.0023883303010941398,-0.0068366309462526646],[-0.0032397247663229598,-0.0022334534098561037],[-0.00646855862924335,-0.0008784710051167706],[-0.0012238815799055212,-0.0033594352499277326],[-0.003017623747520946,-0.004275748461432218],[-0.00399716873541604,-0.0026148597973660644],[-0.0014533870196778993,-0.001732984277556941]],"b":[[-0.013434392471370096,0.008353178534902455],[-0.0011534941474570294,-0.004442730459080575],[-8.561283807716137e-05,0.0020188193468852747],[0.01820026500723086,0.004178943618642191],[-0.012531400028697667,-0.0038465433338801995],[0.005575564090111413,0.007902280544162043],[-0.02412474232074704,0.0019110738090503234],[-0.007235937047898818,-0.0028044565118159714],[-0.0014808556070336062,0.004108618766252972],[-0.024379694596149113,-0.013465115697765907],[-0.0035781440483933983,0.007508137940324469],[0.024853913534432226,0.013688217084675056],[-0.020022586641625522,-0.0063072248350639],[0.021837902852226084,-0.0016291541746186328],[0.005976541873392,-0.0009488409671252713],[-0.011330154778880417,-0.017175386935730112],[0.006759087068647453,-0.00045864760317584116],[0.008415308886024693,-0.023314121141823307],[-0.015832831818104458,-0.010771108559082391],[0.007902751306866978,-0.01538511155800307],[-0.012706984286911815,0.0009288693094249716],[-0.003872723747299983,-0.0037010695611064902],[-0.007872016206363427,0.005834150180691615],[0.0038064336146707515,-0.022344397479456643],[-0.01895823031651417,-0.012559043116430895],[-0.008388974629404298,0.013231049835676585],[-0.00279016718309625,0.0003578863046525415],[-0.006877138447237915,-0.00691145395788506],[0.010983893857669545,-0.005318355118666487],[0.003775002515763736,-0.007935971731686687],[-0.006449431668960634,-0.004634575666965039],[-0.017794496147999335,-0.009040126726249357],[0.010061848356301382,0.017974172734398115],[0.0002053991030147193,-0.00890735475684633],[-0.009929894197781378,0.0029565049627829636],[-0.004199857401391331,0.01205351578064433],[0.002238134071765521,-0.004413560524053331],[0.005358551576240215,0.010599520745839374],[0.004174786729012169,0.01865656448787521],[-0.00012774733800867958,-0.024489086568242762]]}
