{"Name":"RbmSpin","Nhidden":20,"Nvisible":8,"UseHiddenBias":true,"UseVisibleBias":true,"W":[[[-0.0010626055004521436,0.011224819369001673],[-0.0006347207532861956,0.0029482447351951487],[-0.002605812845066611,-0.012585365430682297],[-0.01241577336682284,0.012756328301739018],[0.012945683782938231,-0.002657605659012024],[0.0037408740822567317,-0.008476438053382336],[-0.0052449671196577955,-0.0010750133615866078],[0.00033660223579280854,0.0018743577291266827],[0.006268223954403927,-0.0038347408477086573],[0.0007777535041364504,0.007561074443613424],[0.0043201108812750254,-0.006754546615294838],[-0.003988765735068679,0.0006398767490794109],[0.01033255507312838,-0.004329944624075384],[0.007121730817858179,0.013261240677635875],[0.0032336289872099883,-0.00890328365070005],[-0.005622098569869685,0.007532888326528724],[0.00025488807850991427,0.014308229038014708],[-0.005606002634445185,0.0032979681308830523],[-0.010840830573201163,-0.0008556452735015399],[0.008769687432420407,-0.005769673726353081]],[[0.004051988333280286,0.011288625434194375],[-0.0007951934695756577,0.0019858742808546532],[0.017567932851513264,0.005973003839341578],[0.008310817352271809,0.011537412127868282],[0.004562093757471975,-0.0021788103548188243],[0.0033146444359445923,-0.004052973077325779],[0.0112892997846945,0.002315523352852976],[0.006068777633323917,-0.010017355813218394],[0.0021358759683169,-0.0028607157691282357],[-0.014790837772305006,0.006408445230071741],[0.0007498792220442668,-0.0037471920762807555],[0.0028678738927735356,0.0003550467390234422],[-0.0006495264624066261,-0.008213514980192646],[-0.005731901013873565,-0.00046484974679071416],[0.001547009275802284,-0.008070227239018677],[0.005119095541777365,0.01566860479947036],[-0.0037712542415398306,0.005610687373284389],[0.0030346494055552183,0.001519674430998055],[0.001001260096887233,0.0032870271545980293],[0.001621692801625236,-0.0021506803126844576]],[[-0.0004527456475158353,0.005255337739506973],[-0.005252969887526895,-0.007496069772596544],[0.006784288591879999,-0.01996174770265153],[0.008044013598860445,0.003455999410866071],[0.003289659929456773,0.0026801825694004683],[0.0003908275872560637,-0.010239027838671226],[0.004086783567430053,-0.0018570557576965759],[0.01010444425773387,0.00798014295980422],[0.0010204928707672084,0.0024828593662477097],[-0.004961463606287075,0.0027640631324723757],[0.0008892278227499535,-0.0056046922801327535],[0.006338535869234924,-0.003744362248090547],[0.003958202477912683,-0.00422130551271554],[-0.010906606363992185,0.005800031315493176],[-0.0006755121049021133,-0.005192099830558166],[0.00769704608724417,-0.016265032354674337],[-0.007120003085074105,0.0006279546850078777],[0.002664139089267204,-0.0005326308400725177],[-0.0035735646585517197,-0.004048574071711516],[0.0006149292247462917,-0.004025781747471195]],[[0.013390557518551227,0.004052851968845533],[-0.0006863185777405429,-0.0058988722467406204],[0.0012846549539420838,-0.014871488464645241],[0.000220455557159052,0.019528534197914754],[0.007095872148191313,-0.007868786509995389],[-0.004447107075310722,-0.010925560879923394],[0.014233093512421923,-0.0031225173903693232],[0.0025073851153060572,-0.0012337541868257845],[7.709714835395448e-05,-0.00018132104503923593],[0.0020769620120800244,-0.004174169132860148],[-0.0034483813221621363,0.00043386759298377374],[-0.002265458961369019,0.001204764326277176],[-0.0037642225665816135,-0.009921523868541799],[-0.0024287013988940846,-0.0014880435755236128],[0.0008669397984919112,-0.013773969690777705],[-0.0071010593049994075,0.01862844201682299],[0.005764464849362614,-0.0002253809584328581],[0.0047218462908605215,-0.004206608421007812],[0.005221859026317107,-0.008520654859704628],[-0.0004875588327217287,-0.012991924281614265]],[[-0.00042854220919199236,-0.005086152709229132],[-0.007834737210866027,0.0027174752309927514],[0.00861442382037204,0.012474838886506193],[0.008248681974433738,-0.009669365469497544],[0.003621735250936252,0.009385247581697159],[0.0004973952133791226,-0.0003413749871389038],[-0.0028151985369551987,-0.007342349098088772],[0.0171111921088599,0.0018745002063006505],[-0.0011066690321521614,0.008518532743218395],[0.0075139269381625335,-0.003829215965097379],[-0.00012396296497829088,-0.0007565299051961859],[0.0030677732872192195,-0.0013620620971664635],[0.008415870258041776,0.0015011053717935959],[0.010278148337082434,-0.000377637225351573],[-0.0022004064480273195,0.0002617993891511376],[-0.00036865017372741254,-0.00841821465733094],[0.0022025468747570607,-0.006715252364878837],[-0.003661105093445246,0.0017592330189931688],[-0.011111913815409512,-0.0032820064874313545],[0.002595937170207149,0.00777848736619928]],[[0.017062485444227678,-0.0020917572193227558],[-0.0075481033703005155,-0.010002853970711106],[-0.003981242658122903,-0.006410963126963359],[0.0037077250531634288,0.004125967149401119],[0.007638637966873803,0.0011133889795767456],[0.00532687486044277,-0.00721072551743391],[0.011523417329416438,-0.004836594539771302],[-0.013060778331798202,0.002986620981799075],[-0.0023350102428987382,0.006254854726304717],[0.002471049432052461,-0.0014262558974893393],[-0.00010040806855634524,0.000964029215562749],[-0.006179332659339542,-0.004685797291747561],[0.0009468976635547432,-0.008032700891683313],[0.0022179308932706397,-0.0005181622208726786],[0.0020720939158543695,-0.006567742401766683],[-0.0023855819320916585,-0.006288891523196364],[0.0024617566488918147,-0.008584498752100855],[-0.005839833625269148,-0.007739646151415184],[0.0015881387301763961,-0.00915059107699473],[0.0054774873883260845,-0.0033784324200998596]],[[0.009032760984788496,0.007310041618436915],[-0.007069586366571799,0.00587846525642462],[-0.00655333269586696,0.009216480430560612],[-0.004503345683102183,0.007041495974400394],[0.009952739979511484,0.0013575473764606393],[0.0037169925702450085,-0.002044547047298043],[0.0009543362154439848,0.0009034428079607356],[-0.003527401181357026,-0.004863010857174648],[-0.0020686479309127374,0.0010052674704760975],[0.0193996368029641,-0.007011504191628065],[-0.0015487437797040851,-0.0033710252669607354],[-0.001477708544523002,0.0013003207976275246],[0.009532675638474968,-0.0036377603007034676],[0.0003457632341061891,0.0016968510974037032],[0.0024891010034362357,-0.005379691005049008],[-0.004668704057464687,0.009705506296997983],[0.0014878006753164066,0.003489538996374565],[-0.002811453123015383,0.004516295693987447],[-0.0018544640189936282,0.0020121441912949404],[0.009630254293250113,-0.00044855277601526643]],[[0.008864348721825906,0.003382135941630871],[0.0041544821324144944,0.007009722227196714],[-0.007517466566382657,-0.0020846342064989912],[1.584556638369733e-05,0.0015822305904134018],[0.006378901727215867,-0.0018207924270458673],[0.0007926979161935221,-0.012741080966642514],[0.008938261543834468,-0.0023827489163031875],[-0.011417357876595702,-0.007058312686217795],[0.003698985226888216,0.005251870797122194],[-0.017037112606693144,0.0017134143091067002],[0.004049827937067421,0.0013289787544648016],[-0.0008454035970319857,-0.002262524074340236],[-0.00022013349002011733,-0.014117783137852925],[-0.008625821414951291,-0.003840984722279724],[-4.136583694907539e-05,-0.011415103022480895],[0.01356718406112483,0.017454017328559737],[0.00027055036727289877,0.0048796350809608025],[0.0013545671615332684,-0.00024855594157695163],[-0.00041496808765237574,-0.0034183395276761253],[-0.0013260161950444027,-0.009358936377456014]]],"a":[[-0.002597446553882321,0.00159464791205483],[-0.0034451390147327756,-0.002929473844136033],[-0.004106639563760764,0.0005963223139663801],[-0.0025190906264496715,0.002523905249170567],[-0.0023068269831233324,-0.008014484462073694],[-0.0007748899861096273,-0.002545958847283845],[-0.0019747067664830408,-0.003497223096205532],[0.00022885535568736197,-0.00286331177324323]],"b":[[-0.019259883499663538,0.02382402192710005],[0.039790200193253696,0.016507888122329707],[0.17115753296092814,0.019004813239045213],[-0.0809265791156039,0.0038315655097614595],[0.0357890516520916,0.012318481756775423],[0.017118619161147913,0.020608029420692342],[-0.008186817139433276,0.008689997364755512],[0.03372592888570292,-0.008202150581498978],[0.047915963457615354,-0.004076532990462197],[0.08284545479697426,0.006584210794697859],[-0.0034351735551783995,-0.0008884695732918086],[0.0025917358695511793,0.00200702893509071],[0.0005016914621133468,0.011932400765177441],[-0.08954540206127005,0.0199468804084439],[-0.010274602964860373,-0.009746238650946353],[-0.02489377724682499,0.01359899552050361],[-0.05202494845150055,-0.004311908122262215],[-0.004829559727589874,0.00825181462589293],[0.019157000522901563,-0.00735577087416559],[0.030403020120485673,0.006971096875396732]]}
