{"Name":"RbmSpin","Nhidden":20,"Nvisible":4,"UseHiddenBias":true,"UseVisibleBias":true,"W":[[[-0.0005442970560362096,-0.0014020133845966472],[0.0015904805906138246,0.009611013239763022],[-0.0005183745570159167,-0.007682552258464383],[0.006836085706001241,0.018233777728636307],[0.012618815230580213,-0.007155313662399866],[-0.006023328229456683,0.0016481850172854972],[0.006055054325399774,-0.012137342365450172],[-0.0034543934387616503,0.050196198647135454],[0.0061739658163946515,-0.020087243399904847],[-0.0007958701946099529,0.022641315279098902],[-0.0004700894394658293,0.006304195459897831],[2.692261325474828e-05,0.007404695064422412],[-0.0015927246840021217,0.010730465907729456],[0.005694093162652473,0.028168865193394895],[-0.006265620309153577,-0.017914282398207994],[0.003077386216227727,-0.0011223147925057526],[0.0038339942085568648,0.016303801496080943],[-0.0014417461440549147,0.026918460089424796],[-0.0015034825504378286,0.005681677585781411],[-0.0010486432626813894,-0.03016462491238851]],[[0.0012191659051787283,0.007064567887644417],[0.004703024360293706,-0.0015871206504276228],[-0.011374254161667662,0.032839278215169576],[0.0032098540907518373,-0.003783197565766948],[0.00987580224538064,-0.009365892233157952],[-0.004375654010661574,-0.020682390551098884],[0.014277373929639618,-0.03533134918525651],[0.0007493870520200242,-0.020389364819472906],[0.006398377486669006,-0.0065044264893473975],[0.014023767495095742,-0.04915379595811289],[0.0036673950183813936,-0.0051235308236651],[-0.005480347195118194,0.009085872818484884],[0.0028468068442305,0.00825785480893744],[0.0011924872890570967,-0.001816808599340731],[-0.00588694258098548,0.012517479298531135],[-0.0030814148265998157,0.001977268914010658],[0.0026164936025731824,-0.033506892603473316],[-0.003996494063841462,0.011436933389518011],[-0.007097183989974352,-0.005153820518804349],[-0.007450485363081184,0.014572368618566174]],[[0.00020411908712131459,0.004594998824416377],[-0.0015708507838123656,-0.012795090427925907],[-0.004006314517633801,-0.007424778999425337],[0.013768016295266756,0.000600823182656209],[0.015230577770748474,0.048191915179009226],[-0.005893581922172414,0.026144206873735847],[0.008312729108730545,0.028384271946745435],[-0.007575738962982796,0.030454355673039425],[0.00531562293176032,-0.033780282131606706],[0.005307448801903943,-0.0043495054212895415],[0.002984017218818778,-0.007961246471360614],[-0.008589031239641165,0.018752582527873318],[0.001511308593250674,-0.01946570699390938],[-0.005508588599223699,-0.03674178234319592],[-0.00322611845542249,-0.020546150426304748],[-0.0046770371026317505,-0.0426116261942189],[-0.0035679862645496044,0.0034503051026660196],[0.0029253258945721857,0.0015554930566850408],[-0.005717013003509514,-0.0297366079684201],[-0.00990313242535514,0.006733415096784733]],[[0.008442554787176917,-0.017060516361582356],[0.001191233400498192,0.009021191009904913],[-0.0012428250654098855,-0.02192047109408235],[0.010901886686217006,-0.03695413020958416],[0.008473031219044908,-0.011222548878362845],[-0.004031387890306485,-0.02259902627049529],[0.006218459109610943,0.007909813706361055],[0.003033136315680258,0.011732465617420976],[-0.000467678000384188,0.037866636161695943],[-0.006555311973329234,0.00017448360866038958],[0.0023705908508161603,0.00626903224661132],[-0.005825091595575415,-0.012432277161341578],[0.006227931143745328,-0.005309404548507149],[-0.0014449685404679985,-0.010940027352251344],[0.003391635591758393,0.023173463945876435],[-0.002224215847970701,0.007949898721048156],[0.0024862634552797543,-0.020350695893936295],[0.0036391201730428535,-0.006597914176616529],[-0.003974205428063083,0.0111212208565798],[-0.0051837714957074935,0.033309565492892386]]],"a":[[0.0009823502311246083,-0.0029790345420648745],[-0.0017059022423158547,-0.0031420596307092943],[0.002194411271171931,-0.0033253892438169725],[0.0011475841968569028,-0.0038431784489455826]],"b":[[-0.001176633977120395,-0.011717280446739019],[-0.016531333638829818,0.003824373323549494],[0.0004589754149866052,-0.005466626142833276],[-0.004156967061601364,0.011772692733381183],[-0.005747693161350349,0.021657675877365435],[0.00872311646541907,0.011111599479419096],[0.026474549043855537,0.01802240776905545],[-0.015647183690406553,-0.0014487459582640974],[0.010124913434524046,0.009852762949397525],[0.007531117056790776,0.016637496486591553],[0.0008429773446975141,0.004975499122159749],[0.0031379073181181743,-0.008626215588078398],[0.01343237245240181,-0.0028113869883778218],[0.018337286784510534,0.004451526185371593],[0.0022687085660476544,-0.001044008880658416],[0.0006935134958425869,-0.001180696564932178],[-0.0016658553552479124,0.005873850282880612],[-0.014924674718107728,0.018548947604426134],[-0.0006287764338840265,-0.006334189529308998],[-0.0029039078298824573,0.014192601373109688]]}
