{"Name":"RbmSpin","Nhidden":20,"Nvisible":4,"UseHiddenBias":true,"UseVisibleBias":true,"W":[[[0.0016629961386945412,0.03357988568027136],[0.0033111508967960186,0.024133134373498673],[-0.008535031543843429,-0.07160856127653185],[0.0007294224752272904,0.12449271791126663],[-0.018520459638300884,-0.024666529604891293],[-0.03613394097203002,0.012682538994445302],[0.03499229032773535,-0.03803071757508428],[-0.021537051691643692,0.25902265507575817],[-0.08464413900247376,-0.1049502007799444],[0.04049324182066939,0.1895537991468235],[0.0023155335862819824,0.015510585616711486],[-0.004582706628040057,0.061022373942949903],[0.0033545724131999995,0.037142520971956854],[0.009176757995999337,0.1678680643315335],[0.0067844419715395584,-0.10030134912999218],[0.019706012653600346,0.011228667810423979],[-0.001426605216344649,0.11372410807975712],[0.0012578926175840473,0.10587201975332917],[-0.003644575621609788,0.009132889036174291],[0.01998372916435725,-0.2534422024259505]],[[0.005011351412166882,-0.01807029330156473],[0.0008227478490997451,-0.0008780731181253737],[-0.006088456931947111,0.15206289653492386],[0.024396366366967664,-0.014458655117172049],[0.03677990842546932,-0.07639547422020687],[0.02282890768256536,-0.09286183246575257],[0.008991506756711664,-0.28014082867949236],[0.007804357205941711,-0.2548596788221919],[0.13274441120400512,0.010611268711914647],[-0.023841436119843493,-0.2255689696268435],[0.0013822982951492116,-0.016647431978766936],[-0.0004951286963028045,-0.010371412238745664],[0.0011767103363917448,0.01335186005348988],[0.002568837186731776,-0.04982637799562105],[-0.02091514157270612,0.017395972267547726],[-0.021757195051211087,0.05410457644908691],[0.006500705884943153,-0.12316384007822243],[0.0004001299314755063,-0.031959583732858766],[-0.008784325392857336,0.004346506192716832],[-0.07525508988407728,0.010126821541872572]],[[-0.0017449925241779084,0.0741490074063764],[0.0018306998148590742,-0.05503096492107506],[0.0011297387463758417,-0.06328736976642406],[-0.0070856036705798115,0.030248146740207343],[-0.003873252686952817,0.21302866212611646],[-0.030749657464493017,0.14512733066362135],[0.0023961427203992107,0.2857737723462376],[-0.028308044918591565,-0.0008472090032595602],[-0.07341143396320485,-0.20542156984171014],[0.04569700677667372,-0.004750234263200745],[0.0028670474967922273,-0.02411931117262065],[-0.010719758667655455,0.08492711772721902],[0.0024189865949053664,-0.03697297135776507],[-0.01659729959894224,-0.04138049340762141],[0.013270813815889381,-0.05960132176341849],[0.011547724933481763,-0.19711379933194212],[-0.01412589268687177,0.022334554499528897],[-0.003511898471306182,0.028590852626711606],[0.0004750830553857373,-0.1623229246440121],[0.06443746874416122,0.017731602479606846]],[[0.004392187696757257,-0.09646156281920139],[-5.0710993161420184e-05,0.0360258968370165],[-0.00364801857231258,-0.02135548962876936],[0.01667565760662161,-0.1621849363983601],[0.031812030365538625,-0.09151849789592918],[0.023730738701360422,-0.08043706212288815],[-0.01151632333146513,0.021223168010739146],[0.03479313037024954,0.06867788786781419],[0.04273144999611322,0.2772551860505779],[-0.0503687783484391,0.010077902251577883],[0.0019870342703270727,0.024744607946159698],[-0.00406995342508165,-0.11276720618198459],[0.0020430525527272954,-0.019308200493431207],[0.004784727728228956,-0.09799094602968389],[-0.011127159968526028,0.13973720904575854],[-0.016401824096845586,0.09797378172076453],[0.014420557020133467,-0.04699830439972616],[0.0029800817819652693,-0.06919031628817032],[-0.006338067012903396,0.1307559993702578],[-0.03275214057126649,0.25003450270032707]]],"a":[[0.005452085524367922,-0.002339127640928505],[-0.005681954438868607,-0.0036479433325465344],[0.007801022559594344,0.00034151748613003467],[-0.004952710188255847,-0.007644108378192792]],"b":[[-0.002429568259602222,-0.013131906191959744],[-0.01593089727990267,0.003160249891254948],[0.002093339338015485,-0.0067144775177673055],[-0.011037254054135059,0.011460254176572865],[-0.0076498885943747765,0.019796882132266956],[0.004442878235791146,0.010204636932714506],[0.0011304674042137265,0.0013621028721152806],[0.0016271166585970249,0.0012390519887059408],[0.0016379758789710809,-0.002882788354004364],[0.0010483336369665008,0.000989536089029745],[0.0014539206959673391,0.004705844957587146],[0.001222879924206407,-0.010275919207623415],[0.013000173628683649,-0.0033962441851600592],[0.015082937533348693,0.009704278446723003],[0.011268662272174853,0.0005441165078764058],[0.001767375476221412,0.0007075048912061923],[0.0010422303432741128,0.0029391070059187376],[-0.016664707205157784,0.01841838957352349],[-0.00193436329681803,-0.005420403598042187],[-0.0001671507836973548,0.0004805238472204079]]}
