{"Name":"RbmSpin","Nhidden":20,"Nvisible":6,"UseHiddenBias":true,"UseVisibleBias":true,"W":[[[0.00019307348247028552,-0.016468653903997144],[0.008162819935840728,0.0020693118784977033],[0.012936559922034706,0.0025884067288652083],[-0.0008998364680096477,-0.009099820003386798],[0.0021237578607573287,-0.013880242289347618],[0.002172694534962542,0.03894868749793712],[7.735824550349994e-05,-0.0040067793164561384],[0.00019058590438156023,0.011904112310358343],[0.004663753766609539,0.008909039955415983],[0.0011401205187646793,-0.003906642071806866],[-0.0011937445832026468,0.003304633276640511],[-0.0016762578241261098,0.009857007662843628],[0.00039985257049980714,-0.005198909587718884],[-0.0022546966661483345,-0.003994968620332967],[0.005413779470870677,-8.654626208183188e-05],[-0.0006052489701471489,0.026617760630983235],[-0.005668198458310622,0.00834515365414792],[-0.00289196943679739,-0.010066542632830668],[-6.70822480235837e-05,0.007048978253923346],[-0.001681575304383543,-0.007870720825301365]],[[-0.0004834092851106627,0.006656026052151912],[0.0032373340849056026,-0.00955006957769625],[0.008704155893097205,-0.0026882755341352763],[-0.005137303827723096,-0.009777634712203128],[0.008426705841380151,-0.004800441356808301],[0.0009885218300721508,-0.00701635061182013],[0.006137462215621632,-0.00014065653405665777],[-0.00022294803461563744,-0.018714608668048496],[0.0027271468080914897,-0.003241737923232281],[-0.0023213586398339483,0.0025577238205900204],[0.0025841692620645444,0.011381045203291912],[0.0014996833482396094,0.006392908504983616],[0.004783657007532265,0.004172025459621027],[-0.001007854120323968,0.006324409997967298],[0.0001943260571773478,-0.008138723630266366],[-0.00271686052314913,-0.00523135614624805],[-0.0006387527764801382,-0.006068333776788002],[-0.0003337306384617509,0.008085777106181673],[-0.0014183533773900248,0.0009439557893515629],[0.0008723204644817649,-0.0022491187942916342]],[[-0.006190774982584072,4.4450796744788224e-05],[0.006419406609514487,0.0009185790765475236],[0.0090801107823494,0.027312874835678628],[-0.004368677684066154,0.013998207947826328],[0.0006102876947776878,0.0019063646878687988],[0.005239416262841498,0.02342235942337679],[0.003132909316078283,-0.015457281163648485],[0.00261328962569703,-0.005444043362253985],[0.007853484650363847,-0.0025517225691941495],[0.00043381241007471637,0.010969691098707483],[-0.000457745988144093,-0.019320888947081827],[-0.0024785509389240908,-0.02274746473088783],[0.0032295976588046236,-0.015994251674472017],[-0.0018935183771363032,-0.01827015766730015],[0.003589951003188435,-0.0006511781621892759],[0.003595711790426932,0.006413979107835558],[-0.004062305461188445,-0.022738093254133403],[-0.003234269091362558,0.00782548481917609],[0.002813471329693843,-0.00810221143692869],[-0.004731343179300383,0.0071695564749896835]],[[0.0004700742954874158,-0.008447651162790486],[0.0014533442028829137,-0.017377845078673782],[0.0074205079905951205,-0.002267800469570512],[-0.005905362124773534,-0.012506492852681255],[0.009413664362642918,0.01264961352279346],[-0.003028089291207363,0.015816470471995057],[0.00751390014425991,0.013370857025126895],[-0.002685184886124726,-0.0019870931871043083],[0.002174459652559929,-0.0017753783165151752],[-0.0019792834127452855,-0.007099783798736009],[0.0035688676458572174,0.008198879090726805],[0.0011593825928688552,0.00718774062266705],[0.006485831548795378,0.008028976353903757],[0.00019892741748384936,-0.0004609640352387342],[-0.0010980921077822867,-0.016879319209122695],[-0.005314968539144354,0.004101774333274576],[-0.0015622748012214754,0.0070256799279866675],[0.0015356879174229458,0.008712953245207463],[-0.0016039301064128676,-0.0039157260350767935],[0.0009345973521900346,0.005057674444547469]],[[-0.0025813094732507307,-0.011958044226073121],[0.005624294173969661,-0.005024427623350983],[0.011531668309789033,0.002083859081965233],[-0.0025916887208166615,-0.0012219138704783377],[0.005569034725088944,-0.025887698288134704],[0.004641291212182775,-0.005278867211141849],[0.003833051631737585,-0.0033938692881920495],[0.002396311282476695,-0.009888401788009609],[0.005002099080043537,0.016138178548087065],[-0.0009581735421305766,0.012757082454990942],[-0.0005288149994363677,-0.001475123322138566],[-0.0006568955787670007,-0.00817832462334544],[0.002503386838895406,0.002931129939466812],[-0.002346906494850531,0.009018608099510076],[0.003046641470689649,0.004538044679097106],[3.071850904679159e-05,0.006204042681045382],[-0.0026891947659526357,-0.023818255279525812],[-0.002176024949185958,0.0023714979666162343],[-0.0006505159383135592,0.010878907411773135],[-0.0007368603493447408,-0.020562410444873565]],[[0.0015119912574183833,0.01108020073086781],[0.003836961841271958,-0.007158433287209937],[0.006339678563217798,0.012453938654271126],[-0.006686150681628333,0.001879517417857009],[0.005359165140707969,0.008680704091852277],[-0.002695832361246896,0.004806199777543927],[0.006412492491368608,-0.0016680306983409671],[-0.0009872108853083512,-0.0095225702059185],[0.0032495247300160027,-0.008049231358699956],[-0.003166839652078509,-0.0009717850269216455],[0.006313036950001215,0.002886410644045817],[0.006903865104395734,0.007156982875575405],[0.005901015231572546,-0.004141948045015043],[0.002936184563188982,-0.0008811247609613619],[0.0018512018566848101,-0.005087522845798447],[-0.004103271418976853,-0.007228296926608542],[0.0013125720812334658,-0.0033474012937094195],[-0.00217396150976,0.006665795466876539],[-0.00013388780318119783,-0.010036225320538777],[-0.0010681742508269712,0.009496255023408836]]],"a":[[-0.0012890718284873795,-0.0017591032898692707],[-0.004130924973315066,-0.005515239387748305],[-6.841549127318929e-05,-0.0013276141961845417],[-0.003768884202497916,-0.005655463024159528],[-0.002372177675358922,-0.002293182302748493],[-0.003428938617523308,-0.005204991513252739]],"b":[[0.012501628898755198,-0.008511344102637248],[-0.014678052543626361,0.014502747761769411],[-0.01252569662148791,0.02303244140084851],[-0.0016376010659469623,0.015214662947517487],[0.04166673850849466,0.013781325094130041],[-0.03297486006474219,0.004209103369853449],[0.023157401936248916,0.004026941410774942],[-0.0019709319537992206,0.018799607386752612],[-0.010231051751748163,0.008014929450121737],[-0.007205161578590694,-0.0033090600558079715],[0.026515415273613306,-0.007675544061702616],[0.031019510924401104,-0.0010920220166504154],[0.012605465665309918,-0.005156193841517839],[0.008397538942960522,-0.0053269692290252935],[-0.012760237122966844,0.009148098703366761],[-0.030574213946424005,0.02049892560550554],[0.012417080764698895,-0.010826961104718914],[0.006950048835221425,0.009901646016153091],[-0.013098801358474153,-0.003484994144366036],[0.010438662046066083,0.0035287095173348985]]}
