{"Name":"RbmSpin","Nhidden":40,"Nvisible":8,"UseHiddenBias":true,"UseVisibleBias":true,"W":[[[0.035727209816199056,0.1496980583503037],[0.09765915706545716,0.04259582289911486],[0.13158000029126232,0.08386133891555732],[0.08788981176512016,-0.057606413147263655],[0.0751129726436957,0.08754479609444137],[0.021253157787817445,-0.09675422228055357],[0.1596794517692768,-0.08636496467596876],[0.05284105739409319,0.03027592119578464],[-0.08395236980387046,-0.04917288943476323],[-0.0287195861608242,0.0300939192278842],[-0.08478985351759398,-0.13497255765820046],[-0.09787838177000213,0.11768637630913298],[-0.06262912342883058,0.03685452237780346],[0.09536715821995288,-0.10867473812344731],[0.08596045000504779,-0.0655213240217066],[0.07398171910162288,-0.015277210957189508],[0.03186962529322563,-0.028708324172054617],[-0.0003689887931189312,-0.004267567662296159],[-0.11890267570776614,-0.04340098649704592],[-0.009835218407790962,-0.06377192900613705],[-0.03420177549952275,0.019354481925692266],[-0.08190937743343926,-0.04137191893422726],[0.132583939248572,-0.07081474198079649],[-0.15375074058835211,0.030752887601464347],[-0.07123673240357022,0.16902411767143763],[0.16259257898123677,-7.107160749707707e-05],[0.02648029286031975,0.2173456702779241],[-0.04108227634282903,-0.09062222311861678],[-0.017980433701512314,0.02564180533472714],[0.06259864619367017,0.11619800801558405],[-0.07461390333896832,0.015660040410463663],[0.030017451679624954,-0.09793113217264646],[-0.15328537120787825,-0.09391321394263324],[-0.045085365564537204,0.13864568412667602],[-0.00221281240363165,-0.04028184731768032],[0.019543923857788886,-0.12644320726258132],[0.01094213114759699,-0.053916125286649526],[0.1073100899120527,-0.031216031498232155],[0.028675020972690472,0.011859067886405571],[-0.13618992323806936,-0.018205990895833614]],[[0.036180769734821226,-0.1949483103844702],[0.18452297355760874,-0.05633072684840049],[0.1291962683566796,-0.0683050316901136],[0.024324584934080663,-0.015836862991533907],[0.02828221203432366,-0.108358305334811],[-0.03846327244985563,0.1022349667715754],[0.07729693434565153,0.04572630513340219],[-0.023643622485023233,0.043304013002839765],[-0.06731346000994332,-0.012593796553806673],[-0.10093530597656834,0.00584133069710269],[-0.06926902063766117,0.10169352691300475],[-0.11682884162889404,-0.13420153866918302],[-0.16202929304147765,-0.02077849212461617],[0.12605416297055488,0.12251875712420277],[-0.0121825224066767,0.019833523398823008],[-0.04442620863197277,0.02015053867248455],[0.047005083409523994,-0.05654374256269268],[-0.047289059812079086,0.12196660404002074],[-0.12548586385018928,-0.005267978074137809],[0.07297174423876102,0.04172030182701176],[0.04564340067425658,-0.008633587360594205],[0.039508454000907106,0.10108861859252487],[0.07413174612080708,0.10120953845270124],[-0.16044941368294927,0.038252239692547006],[-0.04933664950127464,-0.17195431751913118],[0.06302503413007407,0.018488551381630365],[-0.005708199681684241,-0.19957939586873422],[-0.03125009635863199,0.03717316401740415],[0.07488218697330262,-0.05488329055461491],[0.0423979079495169,-0.08298874081595332],[-0.11919150987602664,-0.029905399622645237],[0.0846727463125565,0.028062125752895996],[-0.165171434919038,0.09139436907607909],[-0.05684871930709357,-0.12750375103930342],[0.02826621606945597,0.09782375417490564],[-0.0428999789069221,0.030191468212137206],[-0.020873291651839886,0.005729683333499999],[0.002932597530136428,0.06451952907180736],[0.10964365999176202,0.06497585293473554],[-0.03263058492434441,0.04346742103487169]],[[0.006015425457246499,0.1905296190696487],[0.1556080780503391,0.02624107735938715],[0.05957110031127851,0.03010470551609887],[-0.05725161903859628,0.041787397742239135],[-0.0387969291160334,0.09015206583390761],[-0.0638297208828086,-0.09818786320760242],[-0.049200919017528565,-0.015838504122942982],[-0.09441585076297161,-0.0918298941345112],[-0.013929488405233557,0.024220868479560956],[-0.12625056887767142,-0.03934558921950394],[-0.03680989309930153,-0.05671124449188851],[-0.06026859122579579,0.08907075011879453],[-0.15354310289274448,0.004016209627268027],[0.08361721433061994,-0.07731384657495541],[-0.10796892996545564,0.07561930772095131],[-0.1807788724455854,-0.08242090014328497],[0.036476924932178356,0.11801911604473812],[-0.06616003975472602,-0.2117633357838278],[-0.058584573616164974,0.07476916118448114],[0.10859800660315534,-0.023601003870809097],[0.11447663436494371,-0.06922837433132574],[0.12652542495035698,-0.13359504505461817],[-0.004069264211648817,-0.10561458208604738],[-0.05376121275515168,-0.08287787151966512],[0.008433015035280513,0.11787869879670326],[-0.06346864301364112,-0.04881350216113273],[-0.02930182249342554,0.1536601671020005],[-0.0047731224657629225,0.07965146064332723],[0.12160165433952715,0.05731034300491952],[-0.005705475912070375,0.029729437166337434],[-0.10077879732041131,0.026077243284216803],[0.10372591524336638,0.01511005331316587],[-0.05912192208662698,-0.02226173256157382],[-0.043601960208592645,0.03953674557875119],[0.02447003257072039,-0.16249627945257508],[-0.08556404043730693,0.05463430448295246],[-0.04668929384865763,-0.02851019789507293],[-0.08282314516672841,-0.027723744605907],[0.10486236040681962,-0.08333383413856277],[0.07132352664986047,-0.03990731181824824]],[[-0.029858180080772144,-0.18018501267597034],[0.05531529394072423,0.007367494945358216],[-0.04416252710164914,0.01565351200119427],[-0.09772155870869577,-0.04913656160050588],[-0.08255438169690735,-0.0552863197902895],[-0.06093656533990776,0.04542082089457223],[-0.1413596442289203,-0.053587040161391486],[-0.10843989976895377,0.11456204413770339],[0.03630982372364415,0.007769086564611195],[-0.10152992788786644,0.04181773499211744],[0.012579695699656423,0.024458983715274652],[0.03245036910523827,-0.04891113179466445],[-0.051599100095199586,-0.018492066402700902],[-0.012191164501388116,-0.001201496177297647],[-0.1230253643507541,-0.1430645305753816],[-0.1854227100490824,0.0968671472285296],[0.008371991913657777,-0.12248205942446898],[-0.044366480058550845,0.18052394069275826],[0.0653132659851054,-0.0923414257446729],[0.07602713988995982,0.009321312417788935],[0.10311651514396644,0.12560006084691666],[0.12083941375503138,0.10359352284405252],[-0.06903411989274265,0.09957805892188372],[0.107956376908319,0.06744538674897799],[0.0753354790548152,-0.03301802655225921],[-0.16075230613000493,0.10849057008551924],[-0.056302379853833504,-0.05657380446289491],[0.01599868802026795,-0.1771911357091366],[0.09567867011290239,-0.019858323188376655],[-0.060940331674055194,-0.01183569472430469],[-0.018708982139137985,-0.029502569376903712],[0.07523279231854009,-0.019745395256904212],[0.07411480679220572,-0.015938011459812315],[-0.01997740166181934,0.05397294918980439],[-0.0006651969569362009,0.1674931958232038],[-0.07163508886052868,-0.05792680540547854],[-0.0440119174451284,0.0868337359604188],[-0.12132350708505929,-0.035194711466961175],[0.041362654448623186,-0.026347354153909666],[0.13167667949399012,-0.005141504433570244]],[[-0.026908761620963725,0.15486970691959775],[-0.0430750836373999,-0.022845043399487567],[-0.1466195267334229,-0.04046408791077483],[-0.07972782172731539,0.003710369813489427],[-0.07496365644051417,0.009171788331473803],[-0.02971093243926108,-0.013646354902841867],[-0.1398549415949858,0.08063907704534787],[-0.056697869212815784,-0.04379808186340191],[0.06976149822385147,-0.07953308339088581],[-0.0020907883663184115,-0.022279156541292384],[0.08548292561838917,-0.03612605758786964],[0.09133859166063667,0.02022794581424195],[0.06487064558206804,0.052010933713458066],[-0.08636575912517687,0.04719821568176859],[-0.10267394925887784,0.11693662085343119],[-0.042071193002784904,-0.06086721568317051],[-0.03618156098372216,0.06285941722509193],[0.024116258125427177,-0.11215142031407364],[0.15022586526224385,0.10359475924015842],[-0.002725515790986895,-0.029499794975320726],[0.02206281668234743,-0.14351129776936675],[0.055756817644751246,-0.015069769351755597],[-0.1256578483149592,-0.055232181290977726],[0.1590582228415809,-0.021169386294481504],[0.09087520316449504,-0.03103175373713297],[-0.1508380668921667,-0.11503413591540163],[-0.04454485233772465,-0.0009419217942876234],[0.021728565337452377,0.2318877742081791],[0.007152306502910535,-0.03454520967643889],[-0.07529128906675674,0.011548219986010959],[0.0832431352695566,0.03523400113247236],[-0.02093893579437769,-0.024725407619455703],[0.14672669029317176,0.02488182750997724],[0.022981591997819604,-0.12685854083267245],[-0.005339535730205362,-0.14737081183552417],[0.003669231871865993,-0.013437212359350336],[-0.006163991231947383,-0.15775351827733317],[-0.1014849232748395,0.08628477983285765],[-0.02728556776308024,0.13313913850061534],[0.11962280881548026,0.0318514485977709]],[[-0.02297926855684751,-0.10897970518812698],[-0.16626595177749087,-0.0017089589182865085],[-0.15911294949472785,0.0357978399543291],[-0.017211915725542884,0.04221153359156873],[-0.017243864471440398,0.030700269776688327],[0.02582051587967533,-0.009248946304316904],[-0.07576382826313856,-0.05442993457502278],[0.02351880336946716,-0.006528150663108012],[0.07897753180424406,0.12438829126840682],[0.12226712648648984,-0.017505269941173313],[0.11287203106003638,0.07042431403427098],[0.09910097945819335,-0.015339840453911395],[0.13600828940900087,-0.11875403044806417],[-0.10369325036098162,-0.05192742550703136],[0.0008309576088867595,-0.04728136972417695],[0.080505094626704,0.0663269541779022],[-0.06253023799889541,0.023828659597352454],[0.05637982622334706,-0.003962343216731239],[0.1348640542078274,-0.04572794751525419],[-0.062716312553055,0.05521871430004151],[-0.0627183122013152,0.13623200477860126],[-0.025106529468892864,-0.049921086781965156],[-0.1167353835105165,0.019342110284242563],[0.12538576292052395,-0.0418917585398392],[0.04464983004969034,0.0450665354279344],[-0.04357211377898772,0.04892144303524188],[-0.0019064157061449895,-0.0029724012468941587],[0.03030267319450414,-0.19146604882040605],[-0.07387477411264501,0.0669981117287683],[-0.04048283009528864,-0.02624660365379737],[0.1154462682242948,-0.054828059464537414],[-0.0934876700270411,0.10850622931095794],[0.14242600936149827,0.011517914165764144],[0.06332852266143384,0.1080976996568905],[-0.007673825599846445,0.07040403322368766],[0.07581521148131844,0.12489984907283626],[0.03992882214577614,0.20705303492845883],[-0.022497826790148338,-0.09312573309498885],[-0.07645117415313668,-0.22739941492821883],[0.04122712609241542,-0.051692590361981955]],[[-0.011841629916841971,0.09393408491864948],[-0.1961217924280201,0.01904324348553784],[-0.06313283686508994,0.00465065899733721],[0.05114336605047176,-0.09049057748311778],[0.05224665621641328,-0.018116756159702388],[0.08974589051246293,-0.030238393520391614],[0.032670957342911415,0.00651345736432519],[0.09219279809619038,0.07064367650007174],[0.03315743060858593,-0.13681730018834137],[0.16512596651229453,0.041326374641665435],[0.05013760393430728,-0.0872431897997903],[0.060197228539843065,0.030257421528504913],[0.14168673941195353,0.10165001913534666],[-0.06874173670676362,-0.003258134891244491],[0.11129074747092045,-0.030335957914102832],[0.14701421866634068,-0.027518125560386145],[-0.04939718282664859,-0.08516907429792785],[0.04683478497038392,0.09150860537875319],[0.029997293617729643,-0.024148650240446132],[-0.0936099102332573,-0.07365850739527179],[-0.10920596212232155,-0.09680023354775942],[-0.10981194525316824,0.0567982390354615],[-0.006585850527347151,0.023324420022420966],[0.02640702884799933,0.09238986594690246],[-0.04322831897380939,0.013337646463454478],[0.07762313832380068,-0.03284778884803903],[0.043782658258874965,0.09350862886935365],[0.023328440534861473,0.07611226845558365],[-0.12431077727979714,-0.06710692497382502],[0.020565935762469383,0.05568862783256416],[0.07287125659259287,0.03870637850798201],[-0.09774803586312153,-0.15197743662801472],[0.06291558609581027,-0.040182084161704205],[0.06724252012538089,-0.02395590112385186],[-0.02432044175222717,-0.016774093928976486],[0.08633300644082492,-0.21451687302020558],[0.05825062007274557,-0.20742523889574593],[0.0955329317770891,0.055758885147312184],[-0.09371446736395463,0.23278879778461756],[-0.06926320614773585,0.0307337609161091]],[[0.008235161183649656,-0.10060676017135646],[-0.07904477098929232,-0.028699982136437478],[0.0626103410686907,-0.048965020894573504],[0.08958800123511536,0.08117553212690562],[0.08688640480340651,-0.041950441936463134],[0.08516624568538377,0.050624118477076006],[0.1378948706417028,0.055517080705705976],[0.10129373879312854,-0.0724363775632668],[-0.04207623775725319,0.10983849275187647],[0.09413478811464002,-0.04672663539836653],[-0.05455981391668052,0.12589414428224846],[-0.015179997470032002,-0.07101456327922219],[0.05967593268996567,-0.07315383076299885],[0.007023857384460013,0.05575506723480742],[0.12284881623683665,0.10663418452309449],[0.14196201564296265,0.016212763056951737],[-0.01422162107407159,0.0861898510693736],[0.04144526341370054,-0.09916541286000051],[-0.06430374977427922,0.06980218287149553],[-0.07794790455446747,0.07511007641523904],[-0.09508667942684551,0.03839871987884872],[-0.13228069933755274,-0.0300598532335495],[0.11219949728748961,0.02956205908123044],[-0.06995261020611092,-0.06456859037316869],[-0.07707046251577813,-0.10293474111206838],[0.15518725710186673,-0.009740336315182391],[0.047833675912109665,-0.19004408371787157],[-0.01840395989515551,0.039894019853528154],[-0.1040852028300893,0.039381160177277476],[0.059073097225086336,-0.11337345124636226],[-0.007031054922460561,-0.02836712732547096],[-0.042839482883087115,0.14156008562185793],[-0.049631884856697894,0.06410626600323893],[0.0164126705096009,-0.08184420334153976],[-0.02462987959549795,-0.0071584263391896935],[0.05991846584612531,0.2051951583446837],[0.03738254269354189,0.1470994093810876],[0.14262576825453496,-0.009647100911136937],[-0.07073545893370747,-0.12657262592826757],[-0.14434359632259267,-0.0049748651482053406]]],"a":[[-0.000965120650355461,-0.01625716394354998],[-0.012685404280338134,-0.0058732597712256585],[-0.006690060063432013,0.005831461643918826],[-0.012966200393798219,-0.007056130546705183],[-0.006813082014793464,0.012620086240993806],[-0.007648106177365505,0.0008405828175711228],[0.0035699810979194445,-0.0034043244838526335],[0.017919725706245008,-0.012304020724047009]],"b":[[-0.012783229886565281,0.006266282336623361],[-0.009230737426237149,-0.0038741117802944527],[0.0022905669364355636,0.004356833531478571],[0.017435717394548658,0.002519872124293286],[-0.01257182723048666,-0.006382162570464582],[0.005477473684738694,0.008721051190969869],[-0.02843350229975962,-0.00021568972754097798],[-0.006991348173991825,-9.972793537360043e-06],[-0.002272126435415413,0.004291522225996017],[-0.021537705055292275,-0.010572070686777414],[-0.005201377151512876,0.007328289470934892],[0.025685826442485595,0.015107126186006712],[-0.013947996763650848,-0.00820575990570535],[0.02007725659621389,-0.0034183264304924414],[-0.00035754041532104486,-0.0027454467988703435],[-0.012090399541116197,-0.010100248281778253],[0.00822708641746362,-0.0013171986469404935],[0.006260445347149483,-0.018628768889722213],[-0.01813246745183335,-0.013013825876767346],[0.007445411198034521,-0.01594324554071026],[-0.010238420818741179,0.0016751193653197934],[-0.002110556780089312,0.000774794604377604],[-0.00864612336708494,0.0033194621211155764],[0.0022344132989931464,-0.016741358884445594],[-0.01438765351149778,-0.013356886292680005],[-0.00992233578245681,0.005566523147351367],[-0.006101342348698405,-0.003231476012680305],[-0.009082837135843413,-0.008246646329841213],[0.009330589809072903,-0.007856571812018098],[0.004403580715615656,-0.008927505695920735],[-0.004523477505131047,-0.005758147817600291],[-0.017902191865168546,-0.01061432673070187],[0.007051266507835691,0.015546576293381065],[-0.00227451393734572,-0.007124940734496125],[-0.008549472852588107,0.004541395905637315],[-0.006160152450006484,0.010073031496866672],[0.0013409811189076515,-0.004318496562304521],[0.0018956592790268444,0.0106938340015437],[0.0027193457745196526,0.015869833759501926],[0.001218558307596231,-0.02041743294201621]]}
