{"Name":"RbmSpin","Nhidden":20,"Nvisible":4,"UseHiddenBias":true,"UseVisibleBias":true,"W":[[[0.0015433781683577453,0.008602181959258598],[0.0027734710144970984,0.06102150707902729],[-0.0032397617577223825,-0.0835573468209706],[0.008762829587070963,0.1547323978469766],[0.007389256099829205,-0.06016673782150693],[-0.007844453756587209,0.05816602489656331],[0.0062764967972493485,-0.05880236491518205],[-0.004513257771152374,0.19621990328228975],[0.0008713110837174272,-0.15125938798774935],[0.005054222183404707,0.1844504161470429],[0.002121839496135834,0.032556843668716064],[-0.004286025867954856,0.049507060142892474],[0.002823960275306179,0.058826201030683575],[0.0039026267340369148,0.2296032245345335],[-0.00320647738998369,-0.16641915723259088],[0.0020803722119603326,0.03196856852997595],[0.0020309001491127044,0.17062789844069254],[0.00014660414765758288,0.1097252660478115],[-0.003258534400127727,0.09376163978635514],[-0.0020347536889758953,-0.2851809056460459]],[[0.001415815468895318,0.017545435423754682],[0.003048396760705507,-0.025914758828122563],[-0.006800462346886773,0.22627800968968956],[0.007657870904788374,-0.04632057161949063],[0.010298921454569256,-0.08341054929347293],[-0.0039050767504368155,-0.17552608772527825],[0.013957010196259381,-0.26493099203183795],[0.0016855856161487645,-0.2775589533765393],[0.008591088208175945,0.008057034801634833],[0.004366730878464193,-0.27279214418927317],[0.0028953679214770373,-0.03808558844375988],[-0.005412592605642685,0.015200652474826484],[0.0019301840378772373,0.02650085685874525],[-0.0010587299215071046,-0.03202298254470595],[-0.0033040749366045146,0.07961854326248666],[-0.0003996341258458265,0.06713756166935621],[0.0019785774956177864,-0.19881430660311258],[5.145186700917674e-05,-0.020707365328554318],[-0.0005060025189430224,-0.07064913940517008],[-0.006323933153833865,0.06532573843859227]],[[0.0028391995399546935,0.07712444243554137],[-0.0005844335101244742,-0.08046340045615608],[-0.00409328831054237,-0.013901810174777053],[0.008813879132673251,0.07445755494727178],[0.01593173283533592,0.2616129818658539],[-0.004951707931370207,0.2178089649260622],[0.01006563598005452,0.24943546569463929],[-0.0005368857212201178,0.12775144411847386],[0.00080431900694814,-0.15971089034496963],[0.002975571555287842,0.02252661199666107],[0.0016966141009920972,-0.03670236087333865],[-0.005377482110667374,0.08826141846256619],[0.001074274920184868,-0.060235608188074836],[-0.004361279753570222,-0.17054670111823964],[-0.003247309253032069,-0.11999306581518589],[-0.005475768518561648,-0.24098782658478315],[0.000744607333826385,0.09447843694889375],[-0.000321222934543718,0.007097773921272376],[-0.005753805538304687,-0.2052862698478129],[-0.007022940856334826,-0.03253458023005758]],[[0.0035231495462329865,-0.11007502285267323],[0.0006764533025152289,0.04960664537656579],[-0.0030082558865757846,-0.13300737683074393],[0.00948126315370421,-0.20477210803881551],[0.012578316076019851,-0.09758753434578643],[-0.003622713614202887,-0.11593792702792094],[0.00456447349981751,0.06312328535478064],[-0.0038830511578203998,0.025581261093898345],[0.007153569935598402,0.28040792767192046],[-0.00041649048809625416,0.03512761355392588],[0.0018380921299455098,0.04171955605986639],[-0.0047914468328150465,-0.13015825783084614],[0.003164902663856076,-0.030878240527103317],[0.0014504062530584139,-0.048363293972980774],[-0.002229184174182932,0.2040241902051835],[-0.0031102511285274266,0.10807492303378495],[0.000614680023303353,-0.10039551068513598],[0.0012493727795955293,-0.06280270228151792],[-0.008773542514609404,0.16408623942176528],[-0.00820440484768061,0.27684047173336596]]],"a":[[-0.0003993161077976223,-0.00646168774486792],[-0.00944193877496734,0.013241069698667783],[0.018996345606832023,0.008157808779661067],[-0.006536647267230281,-0.028226852598998965]],"b":[[-0.003065194228416437,-0.012946248860257924],[-0.016310951780041952,0.003579840699791426],[-0.0075014563573781775,-0.00415654213805908],[-0.011157991057191351,0.012513305006318063],[-0.008169193086797208,0.02883003382167788],[0.0011189887849383203,0.02137763211632684],[0.012023440693176532,0.004675622535893909],[0.00822834563047302,-0.011444521611457023],[0.037915286103986,-0.00043325269247875583],[0.022837482849427465,0.006069945768963624],[0.0008589031618528848,0.004953798473282612],[-3.818872944432792e-05,-0.009569588728099024],[0.012854212442384497,-0.0027823103208576266],[0.014680958164321196,0.006174080319532242],[0.011897749664290002,-0.0029053675820333133],[0.00430978791629933,-0.00659380631276602],[0.0020368240952788365,0.0008482704427758684],[-0.016544757860543186,0.017777199379514032],[0.010769355775687163,-0.011345513620531376],[-0.005781927180708029,0.007392645935590614]]}
