{"Name":"RbmSpin","Nhidden":20,"Nvisible":6,"UseHiddenBias":true,"UseVisibleBias":true,"W":[[[0.125254736428389,-0.2804866386347357],[-0.0018862118415666378,0.0247485022564107],[-0.02430603807219387,-0.2664709138152453],[-0.05031962326081645,0.0732287833969935],[-0.013117967599878476,0.004433671519694427],[-0.15700904181894856,0.33556272138598503],[-0.008691539346746983,-0.09778676991193998],[0.3252133897947539,0.2352486764723247],[-0.21768874488430082,0.1616940440609759],[0.10188345292997862,0.025406664226917196],[-0.2956575837211295,0.008244211054734715],[0.35028064679825666,0.03309434867115679],[-0.359069038834075,-0.024033947290788386],[0.10902251957630744,-0.015530890312942414],[0.2864773494788708,0.19683859623287173],[-0.2676925015581548,0.24782936193330007],[0.08319282366120018,0.12696726316995893],[0.038860131038030245,0.046064603908851726],[0.06900650871304899,0.00924476139727343],[0.08389178614061338,-0.031035931748074844]],[[-0.10756775563757043,0.0977821453219065],[0.32968991726516894,-0.07959182259854547],[0.014225047258237842,-0.02600123438446506],[-0.10610519565739737,-0.22563608527009477],[0.22834123513503624,-0.17167441042659742],[-0.13396199652490698,-0.36929905397606],[0.04931818991698919,0.25912621376178163],[0.28765175615104815,-0.2753059661557349],[-0.2077103831594766,-0.13182764002558248],[-0.23726255666813906,-0.08602229941315291],[-0.059755687564395886,0.041045636253764436],[0.025641115978270276,-0.06980486388393302],[-0.3593634179630872,0.021846531127231148],[-0.0972034831730004,0.15438473802188418],[0.029069710160323017,-0.03715283208132474],[-0.026777165348989947,-0.022548017555651632],[0.0015413307953508102,-0.08182782181476765],[-0.37031038088758467,0.10390998044634424],[0.2802025822235916,0.17847263521153728],[0.04645441429236993,-0.10417170556804377]],[[-0.14857539175247578,-0.061620497109634464],[0.3054466913648859,0.07882140372332311],[0.0333888729486043,0.2822799570745436],[-0.06621096428268343,0.2814253659640333],[0.22180680846528966,0.16776399458345423],[0.0037121323514266434,0.04867884921010855],[0.049928078675468904,-0.34416510847741083],[-0.0022231085013583985,-0.009345550888533683],[0.007319146111526788,0.024453018605454357],[-0.22330440691421682,0.2421041664707511],[0.21915969989805797,-0.02226185964649342],[-0.3124691138866211,-0.09289328206224828],[-0.0016293405019836213,-0.011565840101523301],[-0.17420885020285132,-0.20187990480956175],[-0.2976622076689316,0.20817363563345181],[0.22952230813897043,-0.09367331113645343],[-0.049219636181463314,-0.12023367516599255],[-0.30042528802928414,-0.17246151528768033],[0.22745213021786162,-0.10782872336505063],[-0.01431469888790855,0.06189044380299325]],[[-0.057287839008866075,0.06392705804388539],[-0.023338434904157584,-0.0595428499021878],[0.04387615805041487,-0.17384473399291728],[0.06433210547917953,-0.24785857888718046],[-0.0036088594714517473,0.005289686689059807],[0.12711666024072982,0.17102869679554264],[0.013426512700447597,0.2441861252605037],[-0.2800711546914501,-0.07560994881574569],[0.2272037777055821,-0.18433690492552207],[-0.09994843479990412,-0.05217707289387068],[0.2766279198138148,-0.03740842958062911],[-0.3180510003391452,0.14589868122010682],[0.3829876954694146,0.08852196854142798],[-0.09810785359050583,0.06744515470174839],[-0.24813177586532814,-0.23882885972783902],[0.24954908185330443,0.12200014521873817],[-0.06328089144378657,0.3598261288634944],[-0.008398146753220207,-0.018529818605933893],[-0.10783269407396634,-0.03350758155875909],[-0.0767553449743108,0.2195534500570902]],[[0.07074823056984594,-0.19092736952691175],[-0.28940586328912066,-0.025605350415854142],[-0.011163952987898742,-0.17144029675241587],[0.08041432548981595,0.12869180491790633],[-0.19914966284054114,-0.18642872621181428],[0.1387363994133388,-0.17472864351573028],[-0.02564859526805398,-0.09591495768637931],[-0.27793432235785986,0.1212196770328283],[0.20242185845087268,0.2581727027707459],[0.23107304648140442,0.11890580461259181],[0.09198427820253643,0.02667139649515634],[-0.06463834871078264,0.0321748351590019],[0.3585968238400262,-0.09373571251607528],[0.06964808919411228,0.08178339733286667],[-0.03914363171035456,-0.011827152523924286],[0.05712034789281984,-0.04621504198547324],[-0.05448661957256957,-0.29606951587925856],[0.32573752358825886,-0.14060424662994708],[-0.26482294754149893,0.04621416021768431],[-0.07310042785391348,-0.34169679430310707]],[[0.1103476646951046,0.35223163019239406],[-0.29177193774682536,0.025047232324968513],[-7.405736081291363e-06,0.39496022516757445],[0.05230033272488458,-0.026579426194724247],[-0.20276893806309867,0.15928408421442738],[0.028723848525963987,0.0594559294480444],[-0.05122547263353563,0.023258737077876998],[-0.05133171738863226,-0.029859492546114856],[0.014124814463478205,-0.11872607215021037],[0.22070717665292616,-0.2339109765264093],[-0.22207285834174353,-0.011315998631047918],[0.3239879268637057,-0.04880086879224691],[0.0017806188458053894,0.008764022685513026],[0.1864817145181523,-0.09446669192035037],[0.2823883633562493,-0.1435086329635973],[-0.25083599012989316,-0.17651523279417802],[0.06894483855934885,-0.029263629195457403],[0.30526189333565323,0.2052159621395936],[-0.20506587768266354,-0.09577757324018131],[0.027413236015967256,0.18650177363762344]]],"a":[[-0.019039408284845363,0.00982935553913692],[-0.007377713968952823,0.005597186300531366],[0.03127232775806173,0.0020365948669633788],[-0.00915808090598819,-0.03236848714108269],[0.002865392510739554,-0.008824353127254773],[-0.013620929897474113,0.0019741098477359317]],"b":[[0.008743372388780857,-0.017045919738510888],[-0.005900053967287918,0.008771635289601927],[-0.011746905424649377,0.027497818361764532],[0.003701855143900004,0.017242266874903166],[0.018142804020150314,0.012903508688840673],[-0.008439003558538336,-0.004838206053158016],[0.012211575616975846,0.006116462640757434],[0.0034385517553200853,-0.00043094352345618404],[-0.004983267001657957,-0.005302724572685222],[0.010337219136600174,0.015694817435795178],[0.011899530735433508,-0.004930195227197288],[0.017435666499994406,0.007237536192081532],[0.0028436004678046196,0.010423211404560758],[0.0033806211136949193,0.0005988893059636596],[-0.0014564416580840386,0.0002385612221651564],[-0.01245121478548432,0.014006477575910663],[0.015929670318178407,-0.012598819986987302],[-0.005562299469037688,0.0009598154127249648],[-0.008933315479223805,-0.007682073154935212],[0.0059583819177986205,0.010909740194072572]]}
