{"Name":"RbmSpin","Nhidden":20,"Nvisible":4,"UseHiddenBias":true,"UseVisibleBias":true,"W":[[[0.002639351464165834,0.0007328588714972346],[0.0030412707987547945,0.015293646974745478],[-0.0032182606258381475,-0.011164495491849152],[0.005627967981501278,0.0319546746931742],[0.008616907170491385,-0.013412520051890872],[-0.006165220148176186,0.0058257978286468965],[0.007478930070768603,-0.017303226548651927],[-0.0031770246683916854,0.07045221430205147],[0.004819441485194243,-0.029261115745473697],[0.0018250853632984718,0.04093357226419861],[0.0011704707855912499,0.008836719208035275],[-0.002157063298864775,0.012865489380298231],[0.0021856267766566318,0.01776797524595968],[0.004433885660150787,0.05063903488715142],[-0.0036422063630883964,-0.030411901890558837],[0.0014427142621871347,0.0029516503482192574],[0.0023119430860238433,0.03404527741369921],[-0.0015066124725591507,0.03745931124929686],[-0.00342585883101318,0.010271503928389618],[-0.0028188331730458174,-0.05119266607353639]],[[-0.0006516509782534008,0.009184968056573808],[0.002497188473832266,-0.00329394545404005],[-0.010222548400002035,0.05322975726060555],[0.007748637202871954,-0.0054993728367657944],[0.012400783255105487,-0.017638908313819434],[-0.004490385641462348,-0.03172261088383217],[0.01304420312994662,-0.055954802414579174],[0.0019699491700138094,-0.047531897842189585],[0.007308776292007075,-0.006490944970963442],[0.009967472681712868,-0.0737235072653322],[0.003441585910414463,-0.008516099718081887],[-0.006944419953189197,0.010529498770291544],[0.001055193674506853,0.011777500624084232],[-3.106659620448852e-05,-0.0018677066798578866],[-0.004331638922266786,0.018267739490026014],[-0.002152862319909754,0.008938730752398672],[0.0031052386206847347,-0.05073739575390664],[-0.0007836637633795919,0.01032982910689005],[-0.003863281938722969,-0.005932078733513284],[-0.0076903604142603,0.020725001882557867]],[[0.002959472027567971,0.011395025521472592],[0.0002598175548942464,-0.0199758370405058],[-0.005126081202317923,-0.013537500469217558],[0.009127181185261355,0.007304430050899717],[0.013823045720129965,0.0710681974363914],[-0.004411856997070506,0.04412049834279718],[0.01045285118485608,0.04790913882871009],[-0.004991393960811973,0.03708534135087188],[0.0031216410569286568,-0.05196939555635898],[0.005029628526644717,0.0007936723240637958],[0.002345454615235415,-0.010738961483600306],[-0.005781360641481687,0.02525044737065038],[0.002132352163487839,-0.025438017245785385],[-0.004612356454315424,-0.05063593419578437],[-0.0035789777973875836,-0.030895438264878734],[-0.004830358758891297,-0.06415327983301097],[-0.0009826226756187268,0.009596586288709585],[-2.2335624847533705e-05,0.00047907240536384664],[-0.00719126251563888,-0.04535930618805579],[-0.006784341258791033,0.002696555284740763]],[[0.004374370209960304,-0.028115815483661943],[0.00011561074011205236,0.012226128691114769],[0.0014251219264308597,-0.03271628543634146],[0.012212056408602194,-0.05566245877136667],[0.011357490320027315,-0.01956860866559253],[-0.005256489265888092,-0.03371271021818487],[0.0038876320878096417,0.014174284236921037],[-0.0010491395748542965,0.011987997307388452],[0.0021704294003098644,0.06521614041363322],[-0.004842152442595597,0.0013087601854265476],[0.0015944023373093755,0.009906792405130423],[-0.004984703523544395,-0.025834562271801063],[0.0036201492825730544,-0.009894249450008127],[0.00014256070238701714,-0.019465147112902245],[-0.00043422267106042365,0.04027011108530645],[-0.001364774744360633,0.01845612538072706],[0.000934205970770351,-0.027007949847164932],[0.0034388177205049173,-0.01495524040253931],[-0.0038114816866097515,0.022932350948316266],[-0.006292497700728039,0.052221833202092824]]],"a":[[0.0010989077146709729,-0.0026960219280566526],[-0.002836130326094388,-0.0030576857642574057],[0.00307846526908003,-0.003200979777136009],[0.0012772007991815224,-0.004334974396087414]],"b":[[-0.001309469521263659,-0.011893676125829668],[-0.016509030358687293,0.0037083481322177296],[0.0004813020973036811,-0.005307943542305706],[-0.00435885279424512,0.011948976718812135],[-0.005908957729233212,0.021804229816013047],[0.0084770691053776,0.011079905833848953],[0.026371231566417942,0.017903036244559356],[-0.015851037132995224,-0.0016155937619851718],[0.010423004648498695,0.00988669091121173],[0.007411252178847751,0.016670363410204794],[0.0008722037023960771,0.0049311455092695185],[0.0029637565029680605,-0.008628997499740212],[0.013392507926005881,-0.002936695296155313],[0.018228153955837986,0.004377310613323217],[0.002513518133066571,-0.0011178873780771455],[0.0008852204982860889,-0.0011593716104246212],[-0.0018858670893668584,0.005787027720372804],[-0.015019000870783377,0.01865359087236353],[-0.00048588462163414483,-0.006290305842653384],[-0.002661714730180803,0.014205131967775429]]}
