{"Name":"RbmSpin","Nhidden":20,"Nvisible":6,"UseHiddenBias":true,"UseVisibleBias":true,"W":[[[0.19573940691119485,-0.23368852035473595],[0.03303280626544347,0.040313057896917984],[-0.20084255270804105,-0.05578584778442349],[-0.04890214477729519,0.017573301533375444],[-0.0682652391993085,0.016315794398673894],[-0.15903798690398224,0.11083742385435043],[-0.06553810845035556,-0.03261449357731134],[0.0042310099727010785,-0.12587381792984875],[-0.18493634430694653,0.017546712976050306],[0.03040374725310966,-0.05683187362034387],[-0.21791200737476885,0.04755444857471356],[0.3566368238569261,-0.3668623399906474],[0.061532798925503125,0.057220719127210065],[0.10854614291065409,-0.024797432128124488],[0.2555000382712463,0.48184474868228816],[-0.15576064325358824,0.2318376646912779],[-0.10094325951392727,0.067282487013464],[0.07737418669035093,0.10166540604550439],[-0.03630359498849665,0.08329485653077653],[0.0869830943337444,-0.1554786014447928]],[[-0.0775195913058405,0.08554318546622218],[0.2453240060953203,-0.011759941605446616],[0.07081692420536248,0.025589991551270327],[-0.1455185522183609,-0.07426213438474707],[0.24723407482106788,-0.01160527800293503],[-0.03509779331901576,-0.14999611796138548],[0.11954110710156254,0.08770528525526043],[0.2484010540489155,-0.4839862166495443],[-0.29216305266345405,-0.02217474412350825],[0.08056469172128151,0.10278154125412552],[-0.14855780011442793,0.018257246283970907],[0.14926242848811241,-0.10683125446233782],[-0.29883406482350666,0.20767336415126111],[-0.10625249488557104,0.04164198354701632],[0.06738694847960003,0.09217836138274282],[-0.23595167716452006,-0.07113407956336121],[0.060174216620294034,-0.06793527354379546],[0.047929293112938164,-0.20255166535664287],[0.1802413047564459,0.45455178833199167],[-0.1433220711223589,0.026238442942522793]],[[-0.2312904486982879,0.11554157836323557],[0.227913660153397,0.018524504247463023],[0.1649255645357289,0.043707462268373895],[-0.15119310274787426,0.059944950074931634],[0.14341481140558218,0.03807480384940885],[-0.1569209211202309,0.07926820196645809],[0.09426202744092668,-0.1282773936724683],[0.19081720315972808,-0.039234888978003764],[0.10124226818497994,0.019300532708353548],[-0.19048400703418253,0.5047194979612539],[0.18265500675742558,-0.017411199417218335],[-0.13257643648446474,0.1646124111229552],[-0.23469615534091262,0.10737491558449207],[-0.1422233096328054,-0.0727728573703786],[-0.03234711873480626,-0.20342086136893364],[0.13850823688563624,0.046032696208138386],[-0.034671141022714645,-0.13092861380241452],[-0.1827442083200975,-0.36841140721359905],[0.13050848724958947,0.2165847382251423],[0.012556300905581437,-0.009616796008491756]],[[-0.07712646716385582,-0.0222478881430191],[-0.018048900413603033,-0.04606091668576526],[0.013987273494310023,-0.010838163212994563],[0.04834769345419104,-0.0719545057367905],[0.01677320642884661,-0.009609763539751607],[0.01682509327347759,0.007710431158980206],[0.14277695870323415,0.12259281055554468],[0.003024447652431055,0.10768337952913383],[0.17069671137381418,-0.09008751199465716],[-0.12665539579335905,0.166661455928791],[0.25547589411759647,-0.05101324248067898],[-0.17306644685276765,0.3238352663862194],[0.4239186685774944,-0.0311085382715459],[-0.16394684579437233,0.04669594171242672],[-0.12288310506161502,-0.45103155631445907],[0.3431533187710826,-0.05794746252433798],[-0.20791065684174714,0.16480664668043016],[-0.2228767100386496,-0.08196126804616709],[-0.07793450219139633,-0.2537815649047883],[-0.08080052818993232,0.23342078957887824]],[[0.15180818391885068,-0.2748635513441156],[-0.21723105530162184,-0.013487550351385491],[-0.06728794031497339,-0.07305300114571708],[0.16274113518692748,0.06033189989567716],[-0.10017284939264617,-0.06947569137243878],[0.2586284957716121,-0.018883227575426084],[-0.05458086616742228,-0.09697322281121555],[-0.3667991628096423,0.42914343750563805],[0.16385143349937573,0.13411539317782786],[-0.03390405495232872,-0.18448476507479175],[0.05519601823479336,-0.004928528288413362],[-0.08783808719380864,0.10872946187158121],[0.19534318715933754,-0.305304293437661],[0.07505145177510474,0.010436909374677283],[-0.06954012207005379,-0.11035283178020397],[0.10948394463791022,-0.009858472869791964],[0.19208196089686147,-0.15680063878989323],[0.044716531380748326,0.19703933424885375],[-0.1342754944603831,-0.4482356274350659],[-0.19458366259459114,-0.1877931226923396]],[[0.0313085616323661,0.31062152429931805],[-0.24225635595054956,-0.023652038113670337],[0.07441341224869516,0.10986256162056508],[0.10893595159539536,-0.00836164745551073],[-0.2074813884381887,0.014968435035267685],[0.08292111448574385,0.041761787904914964],[-0.20935394458337983,0.036271254274623035],[-0.07836970901762798,0.07861550162164917],[0.06697945259991468,-0.049271234408203635],[0.23322329648753057,-0.5185395699722121],[-0.11657134333348156,0.012516231273111082],[-0.10766705511030866,-0.12381469461593596],[-0.12396109364181931,-0.04605914470797149],[0.22445719194920727,-0.009468742121973303],[-0.08511883313354712,0.16447689396820644],[-0.20854709902846483,-0.10805244226164423],[0.07796072567931309,0.08297414242018886],[0.22632663946655882,0.3778145662932829],[-0.06329649850938676,-0.05559651208555306],[0.31275583140037294,0.08427052350270411]]],"a":[[-0.007315130970514654,0.005459525112601207],[-0.0009307021767362165,-0.003902656278282722],[0.005352058067045065,-0.003916050659951219],[-0.011273589492830255,-0.01608906758856279],[-0.001148667830438496,-0.0021860072349234264],[0.00025761961501405027,-0.0011213370648479632]],"b":[[-0.005100327763971836,-0.004723778025529963],[-0.00781700534307137,0.008437093622319671],[-0.0027274499149555686,0.02054736184831162],[0.007914241372070478,0.011625476242710603],[0.0208804424941715,0.009813750910476905],[-0.00851297738755142,-0.0017393608383560596],[0.008174929539374813,0.011374786092266503],[0.0025317702037910214,-0.006428400676720762],[0.00017728274003749256,-0.006150619471224724],[0.01082418886063434,0.009759601923952864],[0.011103577813760998,-0.002208827086804627],[0.004592475348016243,-0.0005897396472593136],[-0.00044675802127385367,0.00070333024321012],[0.002614664881379561,0.005203970057187106],[-0.005190316372928866,-0.005923895305391049],[0.0021077594571997666,0.016470156528385987],[0.01826049942996226,-0.008441664197333868],[0.0039372284870077,-0.0035317571699800287],[0.00011347310170806417,0.001693953932885799],[-0.0024410146172647207,-0.002688642428513739]]}
