{"Name":"RbmSpin","Nhidden":40,"Nvisible":10,"UseHiddenBias":true,"UseVisibleBias":true,"W":[[[0.06524498917376531,0.03728437797359734],[0.14836290731032925,0.0023744531681827294],[0.11272660529681655,0.16018604307884288],[-0.18166044345355248,-0.056348214704845974],[0.15756951097277522,-0.017725326339313993],[-0.06029735387927932,-0.02415411941826071],[-0.018731753790619723,0.12371291565398645],[-0.020194861957816324,0.03535280513635156],[0.011399213278913009,-0.07583357516418325],[-0.1819270913862411,0.09615200900924517],[-0.037433581775263375,0.10217290895089945],[0.10996579768169024,-0.043739967427020236],[0.09892717172648624,-0.03345521243763505],[0.08278979521959316,0.01123610286612085],[0.0469393094155817,-0.09965037128278226],[0.04027550495035003,0.02415726109715155],[-0.003552034557927943,0.049209834271726795],[0.007853037377371343,-0.2230374085234028],[-0.042698764410274155,0.13056735360272753],[-0.020442946309002754,-0.03355299610087624],[0.07192652909616491,-0.01915852016591376],[-0.16060251525803226,-0.02619871318253994],[-0.05225874865471046,0.09238078388187021],[0.16113327467873434,0.04052187219041006],[-0.006178061967993404,0.16247923360298214],[-0.08498069468218489,-0.050553890348651265],[0.1120455030735316,0.049532772328378535],[-0.0023500796316921545,0.015259910829053995],[0.134527806519315,0.005300540383941919],[-0.005886931653027767,0.005741994096771665],[-0.15706294505983062,-0.0876579054930263],[-0.1621257033524168,0.04158124527945357],[0.01161190220535891,-0.11122515429288717],[0.020207057441383545,-0.1100776967475735],[-0.11242157465214393,-0.02232832514368699],[-0.11847095077393525,0.0005387857023514685],[0.09266165779638363,-0.0051640585122081925],[-0.06669140693730054,0.049030873894858884],[0.10140379187486108,-0.13502660740668063],[0.11755416200365362,0.021781304922462056]],[[0.0415973509138994,-0.030182107950609542],[0.001086094049860145,0.006098872807401684],[0.09588868581079658,-0.1533548571141122],[-0.05293805582517108,0.0735141243775808],[0.1187293125860503,0.020781458998247952],[-0.04678066440368511,0.015315910919168344],[0.008888901649883285,-0.11399639762608789],[-0.06472550309665558,-0.011035335087193494],[-0.03923231029257602,0.06236021473308891],[-0.15274556545259874,-0.07814090327813482],[-0.10255689569770386,0.007706129484600963],[0.1627019541963873,0.09074813062099253],[-0.020132923429367202,0.02515306587304548],[-0.049636801625441394,0.014319866628647725],[0.010264726331383105,0.07121671242118642],[-0.006752409916051278,0.10706851724636014],[-0.0677784307095431,-0.08513542743702418],[0.052794705120886465,0.13220284072779012],[0.0018589992776381153,-0.032907101262626845],[0.08374045801560179,0.10616709991777898],[0.07982764443674893,0.0407837743580569],[-0.24266106059547954,0.07304587525267553],[-0.1134561114840619,-0.1610027783736761],[0.13802629884081336,0.012935640314967007],[-0.013796754131921937,-0.1895648824421955],[-0.001229257805673238,0.012063855401278502],[0.09602847188069843,-0.062223150083637324],[-0.04103987811845067,-0.0041331294759285155],[-0.10226244300014933,-0.024924997971315827],[0.13515894237711132,-0.014329153732777725],[-0.21257589004765154,0.12423773811397086],[-0.026442929163289365,-0.061547455988470466],[0.04982056607680061,0.07456225138627572],[-0.07523416486908245,0.048473121638487826],[-0.06078145664092426,0.05026176285757865],[-0.046493667288782944,0.08830975266262822],[0.11324173061701796,0.022769460851678955],[0.009169761510047222,0.05704224351360054],[0.02143708269091191,0.1854932745991783],[0.17632032693953703,-0.028928035579790495]],[[0.03563571052662199,0.006574934224681227],[-0.1093605126847057,0.009428404155777231],[0.03447842126700782,0.10713710424579487],[0.02405046040156009,-0.06995839246194756],[-0.019365831894456266,-0.03214862055973199],[-0.043137971220359346,-0.0607503625173723],[0.017988578525685653,0.04334922604698008],[-0.13320001517174165,-0.02303872049520808],[-0.07304705309567636,-0.03444719133971577],[-0.0507952318541314,0.05453912257466505],[-0.11672283151727121,-0.07025297176364904],[0.12883680307003137,-0.07922948272417027],[-0.1593489610634074,0.044730336431548834],[-0.22911799161179067,-0.055170480751716086],[-0.03256934992291736,0.061614454008326776],[-0.05597255996528782,-0.1813348776072364],[-0.053128161596700155,0.10664839395743375],[0.06693121833070641,-0.02535890545750582],[0.0863810589293456,-0.07988885943648552],[0.15559490558866695,-0.1266717345332915],[0.052370334420364734,-0.09805342292876064],[-0.12164665696669089,-0.09939507276839882],[-0.07801478320358818,0.13057704387840588],[-0.03666734622839053,-0.049497200126522256],[-0.03134360779200064,0.16511872107450432],[0.03645658610617719,0.07585712235199409],[0.08260919810385466,0.043112167865027584],[-0.06400094872642546,-0.02152322121666022],[-0.20855594663783275,0.005292543307956386],[0.18117401109750922,0.04845419906615361],[-0.08986045350392424,-0.05560927883706847],[0.009148035492724624,0.03894474730616738],[0.04204669544810795,-0.13037259527795994],[-0.11802714513584135,0.02510713050485463],[-0.014443932733940894,-0.07681135308137564],[-0.028609879570188478,-0.08958379075013381],[0.0918549910775073,-0.06141880291080524],[0.08525707608204712,-0.040337318138076096],[-0.042931518208362114,-0.1704576168308937],[0.14882675500148534,0.02761664363359979]],[[-0.050827548530921286,-0.0019244120463356856],[-0.12295995279646735,-0.018878552849190648],[-0.0007492066253872303,-0.07575464163608943],[0.039305564610353116,0.022414872245454076],[-0.16186361742809136,-0.05797188828806928],[-0.034800239878903204,0.10373247254862261],[0.03268632595955077,0.00816164437823535],[-0.1601490409141978,0.04992293588403291],[-0.01972874745181407,0.02787315362265593],[0.03207675190579576,-0.03958505309486306],[-0.07479908262150634,0.009584566339856097],[0.010409924933012397,-0.006225454531676046],[-0.1875792912166617,-0.09280821409397723],[-0.2576124358531688,0.06400183231782808],[-0.06367064246816102,-0.11051213315901803],[-0.008360599342265858,0.17136477598589878],[0.10597326608419398,-0.08807862687220626],[0.019373697437373487,0.007830624105518104],[0.10854649824151061,0.15419860226052962],[0.13933039185331145,0.08054407115745069],[-0.04747378101579963,0.10152024401305998],[0.08339205120511455,0.10853974179171738],[0.012100132864134456,-0.014450337959819398],[-0.2056790959777028,0.08932252515493626],[-0.07262701137258995,-0.031776408066324896],[0.02626175910565203,-0.14658765789120617],[0.048801738036108516,-0.00874077444213564],[-0.11732885345418452,0.013069510629624847],[-0.12944178618995567,0.020281131024627513],[0.12387561875092262,-0.053047791499236295],[0.08806371337000833,-0.031835671363443126],[0.001331254594426571,0.05016720253337575],[-0.00501087259482402,0.17070893600559037],[-0.056050726770364344,-0.04510298631413496],[-0.03430514727746124,0.0733164656123988],[-0.103109976361066,-0.01668306079389263],[0.04716672035914677,-0.03617661032782116],[0.14701096251479448,-0.017403576347926553],[-0.020568967413376334,0.15827119710475093],[0.037398013203269916,0.006304681278254554]],[[-0.17537101639667793,-0.023877763472895854],[-0.1003318230688359,0.0038009123704232308],[-0.013656286500188372,0.04108406694472316],[0.052417629290114294,-0.02143379500634309],[-0.1648210902506522,0.14429038977020922],[0.03493494323964689,-0.02709397397956427],[0.0609987260831032,-0.06925747425223003],[-0.055273240462218085,-0.034424121775521566],[0.07757114289706546,-0.0654594410663957],[0.06119158950176638,0.016110684560258253],[-0.029831789267409908,0.0435765456979522],[-0.05621279813463147,0.0702598587040208],[-0.11671336596480389,0.09916367753213035],[-0.02266998238838477,-0.06206232244310323],[-0.09333531511502274,0.0569802404034725],[0.10191346991542888,-0.12212284899555481],[0.22800048605409018,0.09190320627876994],[-0.05211703675528546,-0.06506889624490172],[-0.006712203661264321,-0.16239084256608766],[0.03644325294825392,-0.02587437482318052],[-0.14701661356969506,-0.028314748830006783],[0.14450466144294774,0.007504324608297194],[0.03938847647823466,-0.05087746103499025],[-0.19145028771027245,-0.11645225464540467],[-0.07283549091884026,-0.03930314605097867],[0.03700897749662692,0.1711312311142551],[-0.03302677415550475,-0.020942498236548878],[-0.14234114043216672,0.03982987065209105],[-0.02577766670000609,-0.0102612549636964],[0.05311808678245126,0.009655112237604048],[0.15013743658158013,0.03311091878018785],[0.02722309656137969,-0.10041905680596079],[-0.015011966498039118,-0.14881991209257328],[0.02336450171958778,0.009067317030237108],[-0.05578585308031556,-0.08114046920443743],[-0.14260368769661472,0.10920511002429546],[0.007675817086770378,0.129413539830353],[0.12703054025390267,0.0390688236739071],[-0.0020551811682522235,-0.15333739667635432],[-0.07229893412826316,-0.03983975945503857]],[[-0.2248797001161,0.005916691364117539],[-0.07390002024007107,0.04403890192948466],[-0.016010990144356252,0.012150204017869646],[0.11982574975224954,0.003181747513047181],[-0.07257554712933259,-0.11980849638193154],[0.10792889907132669,-0.07097525419620704],[0.07898905453192974,0.11587824338851029],[0.09850741848816445,-0.0016939966415368808],[0.1255481603060527,0.11570492701350166],[0.0810529110109934,-0.007128244167859852],[0.013914916700512958,-0.048671365592933995],[-0.07209696288530743,-0.053643780917442166],[-0.012962548278094604,-0.05009335045720696],[0.18745604568389343,0.07811968357777693],[-0.09433412207493412,0.05731420889161644],[0.12394881295642628,0.008074170035971457],[0.16406026770569174,-0.041231648799912604],[-0.0920640362838284,0.09983892261661148],[-0.14007353666997371,0.15803069632490674],[-0.05443376928050727,-0.006678585847697601],[-0.15524054589837893,-0.03386107399051909],[0.0536892468172801,-0.11602226150708171],[0.009106855212337728,0.038635148598549676],[-0.016164785911914174,0.0887126776281978],[-0.015978288091865484,0.016325293096533536],[0.085265123156787,-0.1464289938240837],[-0.13212292383503368,0.0594440641423756],[-0.10769659373861774,-0.05514876235189152],[-0.02331378994038252,-0.03424227260588686],[0.014921093009079085,0.03548838573672816],[0.11521954121298911,0.10397654166844435],[0.1415731667707005,0.11092937242073785],[0.0059401196109412375,0.03621388533714893],[0.05640309615328948,0.08718506071834838],[-0.009259905260836657,0.11785426771088346],[-0.03627868365463049,-0.0757401676262531],[-0.0653454345349621,-0.18312693272339167],[0.053369766349187706,-0.01652450593142162],[-0.013932248830643812,0.1271780479738912],[-0.11414544164229361,0.05808507541314917]],[[-0.1082926054162794,0.002835659330424254],[-0.061565919563638966,-0.05334453473337211],[-0.056782728317994614,-0.07565406437295527],[0.1671871011569247,-0.03241937423787069],[0.012782020979842398,0.026554191938759686],[0.10674573896858482,0.07706903540639623],[0.03769932540407649,-0.1656455804669964],[0.17991348016804817,0.04400915465872805],[0.060340609048357925,-0.1293764994705492],[0.11415901548135815,-0.00962150107912454],[0.0672741372660184,0.04401703108869141],[-0.07832268808036014,-0.03426616649821308],[0.06980015005919234,0.002988354887730158],[0.1945829802641671,-0.05884576585090793],[-0.03857960409742645,-0.05367825797403738],[0.009474732838462082,0.06522200264094355],[-0.04203490019166203,-0.027832600566964107],[-0.04429307698212381,-0.04135732984272286],[-0.12857030500836536,-0.14794978717507543],[-0.09306772034880799,0.05092159796107362],[-0.06296159153416075,0.013495743504480283],[-0.011765815806036682,0.11403386593355853],[-0.00039825079798108296,0.008454523432242523],[0.07498924670774922,-0.05947670565187953],[0.06037328616321692,0.08327072914826815],[0.1024961151358981,0.11756191968724129],[-0.1686267491966965,-0.07595412806248746],[0.03423798713922879,0.009221884300673607],[-0.06706238059899053,0.056381135248288174],[-0.03856339102617304,-0.08579192060990078],[0.07655326771778997,-0.11485941199699988],[0.2093768247148348,-0.047626285363715375],[0.010054958530349904,0.002578689626034312],[0.04168311919581401,-0.17007112944287733],[0.10757990347366986,-0.16957198214897093],[0.18359090768208433,0.007782508505924332],[-0.09226849790484344,0.1616306642994268],[-0.05314047034905573,-0.0126205436272163],[-0.061075646612263765,-0.048015596002235976],[-0.11370784887732488,-0.04931887403788202]],[[0.08296357331143323,-0.0035801615785219826],[0.0072396727367861295,0.006392394952371778],[-0.10560618525093106,0.07494292964355924],[0.10013778509894829,0.005651622674302697],[0.015502239628045119,0.06487532359725916],[0.02658151034692892,0.027740405366550917],[-0.045762122976977855,0.14646927492720752],[0.14045745954633382,-0.05877807329506872],[-0.040938101907067134,0.09471973283280931],[0.11811849388645371,-0.012092444342045448],[0.10778213697488818,-0.08307796115688516],[-0.09141976931481842,0.06665210174248921],[0.07888663511507214,0.02271323757295243],[0.06603944687199442,0.04435720680083062],[0.04851329924925197,-0.028056561756682],[-0.11070210248825597,-0.11607936990612323],[-0.17431880357535548,0.07691700996003846],[0.024684663002171352,-0.007938771808400106],[-0.0036199309289522423,0.07909804342210223],[-0.08763171367796087,-0.08249319685782548],[0.04288257755545016,0.05568521111407832],[0.0615748748680249,-0.015125929708870361],[0.04794612075508515,-0.007649597298819954],[0.04046369800216696,-0.02154323373020778],[0.07636643368100975,-0.1631961508179764],[0.01879924206104482,-0.07432648136514],[-0.10706467546293422,0.06870271751053755],[0.1721421673818581,0.03465971899282205],[-0.022712511417861597,-0.04423429271269819],[-0.12320162578816865,0.0951369344607225],[0.042923986961135946,0.05680521918655186],[0.10542299991470305,-0.02809423228086058],[-0.015605325783458586,0.049440457116052966],[0.026176105753322895,0.21011357716368953],[0.16674154786146894,0.18416744419318548],[0.25341103662858355,0.009429540272933227],[-0.1353216587172795,-0.06661188555953032],[-0.10990382554102798,-0.05764631315815062],[-0.07079608497989855,-0.05012248421495497],[-0.11970145062388317,0.011280964876412388]],[[0.18026160652510015,0.020073203493419733],[0.13473821046771367,0.022139627712825283],[-0.06633402073106444,0.0058086895784508685],[-0.06481658170299093,-0.009581007978805229],[-0.0036206597602149947,-0.0670659714427235],[-0.050282241260438246,-0.10812095856796138],[-0.09338351345120609,-0.05570923263601164],[0.0499829719947642,0.047768180438589845],[-0.05793922365964091,-0.0716126385559221],[0.05116757371543846,0.043612371646351004],[0.1063169175609715,0.16371860030612284],[-0.07200660079287499,-0.05592507793042476],[0.10439850168524821,-0.011123428958836773],[-0.02856618534343182,0.003332029275239702],[0.09140619721477135,0.04598477744277538],[-0.08993315985357324,0.13211351239528205],[-0.12654413339960968,-0.08048781188313747],[0.025451248123307492,-0.05913051415700711],[0.0894363548635913,0.014951374034506379],[-0.08524644557316367,0.09589232874048714],[0.07372421995549149,-0.09104357640403297],[0.13675972067394007,-0.08393450567870991],[0.08631931968360262,-0.0024502666672493985],[-0.01121251208092928,0.06640079259624333],[0.05390343235967568,0.15677956899551332],[-0.09678950136757793,0.018368667920836433],[0.003698904621789159,-0.034219295799943206],[0.19293490549913764,-0.0562731765971111],[0.17501805937524287,0.009831759419338504],[-0.1976697818297927,-0.07709838664317409],[0.03011850519155941,0.04642845825401704],[-0.10252394055142532,0.027329371579845562],[-0.055599745684980294,-0.14128258974986438],[0.06733334933097636,-0.2045601329561236],[0.09945426854430976,-0.12208309101004775],[0.1188492456106181,0.025469644578203495],[-0.07217402636893307,0.02385004608811346],[-0.1163280405706321,0.11982551924886653],[-0.015405816373748292,0.05746072141006901],[-0.09176710130365529,0.018695482180956072]],[[0.1402187347337222,-0.015622611560860922],[0.20376867488112227,-0.04303362245821151],[0.0459812554964237,-0.11008393603660396],[-0.19739977891297622,0.023237979345607743],[0.09657361506978032,0.013836281006845601],[-0.06842200928309407,0.10299841443185495],[-0.07151947257073736,-0.06605013277764582],[-0.0003925572322606168,-0.044608398517520034],[-0.009491652702679957,0.06647914982893438],[-0.08115765933894142,-0.07259403226172466],[0.050933550602925655,-0.1998645847726133],[0.005971633716739012,0.005869103972213518],[0.12531623265408828,0.04077840731897021],[0.03911426780490861,-0.019570735794098734],[0.08177792487101311,0.03843612903700629],[-0.0027210925730549963,-0.11827725926589697],[-0.02500270181777187,0.020822703858613317],[0.009301424490700995,0.18788349603243776],[0.03509482961661717,-0.12496904113473806],[-0.08035401141858305,-0.06520833915526841],[0.06967430767599815,0.05045101822614386],[0.06002969096858017,0.05328747288143976],[0.04440428300132992,-0.0021782495655603045],[0.06961112664504364,-0.0868397434501406],[0.0031698544982240494,-0.14307703299045474],[-0.1383709695256454,0.04016890025718115],[0.08808627478597278,-0.021087679242386897],[0.09821759789735984,0.0005100849834817722],[0.2553601018370744,-0.015637767635298155],[-0.14945725687545006,0.03725729926759731],[-0.040390757821837604,-0.03739151969418546],[-0.21471404700593272,-0.03991810045806924],[-0.042025659222684156,0.14748778379310065],[0.08491320205980613,0.17311408312708526],[-0.0404430840693295,0.039444223067857755],[-0.06786835877070355,-0.05857628301290311],[0.02257265527284113,-0.01447402527893513],[-0.09867756516713169,-0.13380680533532419],[0.06963714862769511,0.0277370158115647],[-0.0040114763455033975,-0.031146230210214225]]],"a":[[-0.00041053513717476434,-0.007762144294915839],[-0.014761190640315041,-0.011739659010091096],[-0.01347600603283424,0.004666034303852031],[-0.010493983230257976,-0.007284671636427965],[-0.0043700413345616135,0.011966703877152495],[-0.0007907354166524684,0.0020533046135603333],[-0.0020358608457620208,-0.0035627219212743468],[0.01643081016495616,-0.004979768423466735],[-0.013362919208879404,-0.0006369450778019773],[0.0017586119160707828,-0.005071514398975705]],"b":[[0.004863807455104091,-0.00016991296332545815],[0.015218378114933203,0.0028795989068250284],[-0.009076733512895027,-0.00334028651269807],[-0.0020046013701947095,0.003639851941523434],[-0.020065440969737235,-0.0007608469973336786],[-0.006748674683899685,-0.00286750957506562],[0.001786427660202491,0.003240573521552356],[-0.01712409568945553,-0.010603849464013784],[-0.0014485823002775137,0.0064280082397469894],[0.02241547646097742,0.012802583943509955],[-0.017758126018401533,-0.005112886333051884],[0.01968970268349723,-0.002322937412190615],[-0.0030891856566218523,-0.0024627184239557655],[0.0025836853731281122,-0.011422990572871291],[0.0028895287113303017,0.0011631769807667774],[0.010805632650382573,-0.021975672116435217],[-0.010661472914320298,-0.007927967919068767],[0.0036240699138813167,-0.01868720996698254],[-0.013343556677787744,-0.0031482853004411314],[-0.005000953372120461,-0.0009287787656387545],[-0.0068936111423386,0.003840932672034456],[0.0024100948048953333,-0.018938855007457615],[-0.017948465486750897,-0.01261106351477684],[-0.009480820212026179,0.011928683746207067],[-0.006687879214493794,-0.001068686689092267],[-0.008968244525997907,-0.003972609136852179],[0.012300483141413115,-0.004518094789115245],[-0.00046929928619757183,-0.012726918663588745],[-0.015079223810546645,-0.007696839339792898],[-0.01206915001832669,-0.008638148865821193],[0.003377927601223183,0.006790100100069513],[-0.009180579532931074,-0.010348453018103446],[-0.008242900057705217,0.0031413075793020927],[-0.007926380637514727,0.01051358708214717],[0.0024459169425233448,0.0006502779298562787],[0.005151598999560384,0.015574089804269354],[0.008065441205669112,0.013887840793301902],[0.00012755597819789403,-0.019939964953126964],[0.010242013812238005,-0.001090494542009653],[0.012477483849579104,0.007705822704118447]]}
