{"Name":"RbmSpin","Nhidden":20,"Nvisible":10,"UseHiddenBias":true,"UseVisibleBias":true,"W":[[[-0.05182572744408474,0.048940331110485784],[-0.18213222942252105,0.3522494130999282],[-0.10180756416436515,-0.002986276581084181],[0.4497098783480413,0.084784882298964],[-0.5668699731768383,0.014814001153037416],[0.1816110565946224,0.049238720482712994],[-0.3402558305014376,-0.07407266756194947],[0.2317530526405417,0.07555177179591178],[-0.15513604050624316,0.05331389460294855],[-0.32963680333459117,-0.12278874168100598],[0.0450372767430948,0.1251185301137382],[-0.5168765217549943,0.10890082579762153],[-0.12018406009599114,-0.04486264970915409],[-0.05521510078791161,0.03372849848640851],[0.5129859623463545,0.12427739882116005],[0.25876743476513847,-0.11316700059243062],[-0.5492311726503704,0.038450555934118016],[-0.22013433083466563,-0.21398207313578826],[0.4758170057494777,-0.03326272116066944],[-0.13541985070058385,-0.2362999222844172]],[[0.27806473570303003,0.03388985333360239],[-0.1314194165871476,-0.2818240757952021],[0.07415318318430572,0.20745381093109327],[0.28203436277540167,-0.10286394652207746],[-0.48744406618456093,-0.045100010146161856],[-0.243660220202945,0.09520863716445192],[0.013684697071032296,-0.028099083972166265],[0.521459974106319,-0.07248016145412828],[-0.10112864629012988,0.018474758924860654],[-0.0822656998550711,0.09189021867451232],[-0.46407588220561996,-0.15092976776102052],[-0.08745716717244324,-0.02933422045458748],[-0.5146502407885869,-0.04067911255378991],[-0.6331928449883786,0.1311424832304906],[0.20035587838716332,-0.041402797293952937],[-0.024055244225211884,-0.013737251727240723],[-0.6496190459231851,-0.10106185444883269],[0.14489964286264662,0.03671089698061433],[0.6674019855822325,0.16882715358715944],[-0.48138349220030147,0.32149100143108666]],[[0.6243672871151068,0.18903622465039197],[-0.02935783631084491,0.0571790605149139],[0.18877378463058986,-0.30224816167981855],[0.009970157476459116,0.06561668309717357],[-0.11411554291861783,0.0018459827088980064],[-0.6837564814980949,0.05777696523419644],[0.3178731811526839,0.014080372136269205],[0.5713472025540638,-0.10618957406047891],[0.10108714386260166,-0.051017466687375716],[-0.020306769858581517,-0.05537448293583758],[-0.6353627517081454,0.19490282435927064],[0.16620398382280685,-0.0320184686865021],[-0.4075099813469379,-0.1408340652240276],[-0.5966118009391452,-0.03385266317739423],[-0.08820257162662848,-0.14148364433788033],[-0.18466411636726943,-0.19440926400630215],[-0.09712837455154401,0.14411377365069367],[0.21118407951211154,-0.08221196759902308],[0.2024549354038705,0.05387772683755059],[-0.35453184644400376,-0.32275221489748845]],[[0.43839081912404226,-0.013384762675369324],[0.2505277446002219,-0.014759610038236417],[0.15925246918153005,0.26879154551423057],[-0.45172509872306194,0.030722428260518832],[0.08425137509658978,-0.12462433793568907],[-0.5784261927307778,0.010358139732010007],[0.5846460541899476,0.0028506219993116506],[0.034785812341303304,-0.047030818016488236],[0.7016124893610357,0.03766426662409577],[0.19993338554456755,0.03551131422353241],[-0.14934732493050218,-0.26881537106019143],[0.4329915246626982,0.11478224624916455],[-0.12122659178753145,0.18825779269929463],[-0.12455215840419315,0.05745722350429768],[-0.37318171575793785,-0.02212202572628003],[-0.3509630096038695,0.2747444817127649],[0.13952428842924722,-0.03859946560644397],[0.3593411892348917,-0.011238652555406957],[-0.11554874905780062,-0.015039484870841084],[0.042663894774249776,0.1454109922010871]],[[0.237624233933235,-0.0752596913221886],[0.4199397385169107,-0.0997846102912303],[0.11802235753170452,-0.16184640352518345],[-0.6395425881710123,-0.0643891651333665],[0.05881323405939628,0.08880823809228268],[-0.09689734656165024,-0.0074358752591114794],[0.40369138158044787,0.04852035438686911],[0.08444373448814345,-0.03544197278185669],[0.6325056255056851,-0.01871187258556789],[0.5177193012051486,0.06277701859077527],[-0.005712761516285135,-0.000923082611188989],[0.4683981867528183,-0.12946522521389967],[-0.13074271974348056,-0.0562488885053438],[-0.010963767948530427,0.06165593786766502],[-0.5368967268487133,0.05213814076154941],[-0.37646315271467296,-0.2950757811097347],[0.0811305630425592,0.3665253848082254],[0.3943547736584677,-0.0965995099585527],[-0.13170867200964312,0.31699488745728804],[0.011209564227931871,-0.24119693261081404]],[[0.11663901584266607,-0.06750166456769748],[0.439044355352888,0.07617593537156206],[0.12257339494774541,-0.12702353126221116],[-0.438248464432092,0.028795591220340533],[0.5499013543806792,-0.002024222128039112],[-0.059423714167983706,-0.1764351192863589],[0.19881280674262317,-0.0605000970305139],[0.060750138870466146,0.056651177120350525],[0.2965937058207699,-0.054846439819064334],[0.5962842133574643,-0.06809223755862018],[0.18714337905591397,-0.24191956790847177],[0.2418481720325329,0.19118701815919856],[0.16011823413060916,0.15844599833185116],[0.2761793717484829,0.03346317193965117],[-0.45532611544000234,-0.03434913932275382],[-0.19388134401892027,0.32841510054775236],[0.4422519131469067,-0.22736900936620183],[0.32735171466480156,0.20226687204879612],[-0.36817106158231133,-0.27353285064966304],[0.09269004381470325,0.10743351590778369]],[[-0.1888651663488799,-0.0558877932255274],[0.07204059114205914,0.004233763415688616],[-0.007898787506775386,0.31111532623469995],[0.059701694636654846,-0.0751784709507846],[0.6172593049586838,-0.03198456971152856],[0.1725748256250619,-0.07030707678022756],[-0.05697523166173087,0.042308285374205605],[-0.45751922701635067,-0.002530801797035107],[-0.2438342595410978,-0.03579666873584517],[0.18793279181819889,-0.04147080800277946],[0.5727435312411253,0.2521509358778959],[0.10853865209926532,-0.18522752090135364],[0.6980659440114012,0.01505394546929918],[0.6018543295880284,-0.18507110950968617],[-0.14544673377601022,0.07251374793060159],[-0.04129258164794108,-0.1971332185768631],[0.48648606286184887,0.16410606107172282],[0.16573711464933982,-0.07427393135181194],[-0.5412546426637752,0.05909061268914924],[0.38380269318186677,0.0177577633557655]],[[-0.6833202693950354,-0.1508948424313506],[-0.16469128904127042,-0.07664638759271823],[-0.12365340240648402,-0.26376311374384925],[0.12009581726115486,0.10030202146613064],[0.24238762522384938,0.07127470055338789],[0.5284289082135137,0.038417503752061995],[-0.1954043555167638,0.128668968458261],[-0.7629893553758887,0.12684889796185939],[-0.4505331273470642,0.06673191589096705],[-0.1615259462551412,0.14122140111834433],[0.5135729506207961,-0.14822028022290717],[0.012566334098070522,0.042851627485827326],[0.5357368041420927,0.0730003863626116],[0.49270357669729237,0.027094342709734383],[0.04244039804808966,0.059180501189740296],[0.12053444572390123,0.2691588358583335],[0.2105467497901434,-0.12809553430521514],[-0.07233405729623028,0.17940191544587664],[-0.18009726934930725,-0.1689248773484073],[0.32715900103638296,-0.11241589539551199]],[[-0.546980775263094,-0.0337180406505877],[-0.3265051713708265,0.32545123551756305],[-0.18498681642298884,0.16559528691950934],[0.24597127966188065,-0.14028639811720922],[-0.13888790987839716,0.05846652595018538],[0.5010866255730527,-0.18058191747331068],[-0.4371127405855489,-0.26339479982819974],[-0.31536285225443084,0.04891877406384268],[-0.5362540249611678,-0.04773116635578001],[-0.45988933832594986,-0.25934011155467795],[-0.0719893373676889,0.15750678789425543],[-0.25532242591313925,0.07339773959062645],[-0.023939174576903078,-0.05358290011661768],[-0.023951950817615055,-0.0822043284791881],[0.33419978877178486,0.11683876883750748],[0.3631122982818201,-0.18984833021762398],[-0.01598999672065684,-0.11046191086734307],[-0.6321669987675923,-0.1394066572587211],[-0.03632309279453051,0.01804344811233338],[0.026293681891940476,0.09554781876772935]],[[-0.23235525548505429,0.09443777749457187],[-0.3366464964365531,-0.28607869127842417],[-0.19664935607405015,-0.09399803038003293],[0.37935172737038547,0.007725916624093722],[-0.20378342289106538,-0.06096602460844018],[0.32515414057482,0.17961193495271488],[-0.4858592570094803,0.1998372351886444],[-0.004901825484843639,-0.05354280751805574],[-0.23038003498403592,-0.02450232397692226],[-0.4830366195552674,0.19893456514590194],[0.04811574207573181,0.03501071697709999],[-0.5755012358573404,-0.1588775133693865],[-0.08661518963704992,-0.1631836837998572],[0.05761111437389063,-0.01927452074338486],[0.5279372255136336,-0.19276054377294302],[0.4355216504698818,0.11371742863325446],[-0.07344243972902856,-0.14034214786287116],[-0.651886232081772,0.16593010685999585],[0.05988827463813514,-0.0674792864795337],[0.06406872617058083,0.22492789672806232]]],"a":[[-0.0668938215265881,0.008269030598727715],[0.008854391129069519,0.003575477664195688],[-0.02512269810578136,-0.00015341500285330075],[-0.032833040523858645,-0.023807843611303676],[0.026992897460537155,-0.010525634238050856],[0.07386969046868211,0.005250332603025683],[-0.023972866749124393,-0.012746131842746061],[0.034612468416896594,0.015069429561963877],[0.019309039927712383,0.02789405339859649],[-0.02811537412705688,0.004601907431206713]],"b":[[-0.04127198248204941,-0.015227477519599124],[-0.009286509479005072,0.005506340527901595],[0.003442146979523924,0.022480935929854735],[-0.001620096195055259,0.014793762866534697],[-0.006772714064131932,-0.0017561246644964073],[0.09262640112410615,-0.024061408799244025],[0.011043124322771122,-0.0061838775427573165],[-0.00445702320667311,-0.002157808531594708],[-0.0025129328335468056,-0.0009158365961511075],[0.007578926637837551,0.00422634185146713],[-0.00650789990767613,-0.004370383662810066],[-0.002158437194850664,0.012315246303249762],[-0.03347338381777389,0.013521760748281294],[-0.03932614314763262,0.014270218875280077],[-0.0062815855460601755,0.006709389279246916],[0.011643484417849022,0.01826272034210098],[-0.0047869126862311725,-0.00465758446956639],[-0.0022268721300671454,0.013512801195824266],[0.020135917180340683,-0.010019623642956053],[-0.027640424770407155,-0.020798775263939622]]}
