{"Name":"RbmSpin","Nhidden":24,"Nvisible":12,"UseHiddenBias":true,"UseVisibleBias":true,"W":[[[-0.5540582736494338,0.20951866725621016],[0.10549644525908086,0.1440952083427372],[-0.7904434849155344,0.01803380400079521],[0.08689964965040682,-0.30954841687783746],[0.6120516085760891,0.1331812331681125],[-0.5012870930421489,0.16017944456156666],[-0.11205630852529888,-0.047342197057966384],[0.1563010759622026,-0.11367203913048912],[-0.04933805584521963,-0.15352729155243064],[-0.3498557957078385,-0.16404028285389424],[-0.01578378642322615,0.0979357625852042],[-0.7013159364486196,-0.04127356028007643],[0.8739660413964375,0.05452756238654437],[0.36766058565968307,0.051948587535253485],[0.7040753463333708,-0.018460227927522967],[0.02470418458834923,-0.00675564935625142],[0.19052364505067923,-0.11888946257414411],[0.8273872807671062,-0.0643781369520354],[0.11449877811498328,-0.10064495195432017],[-0.2737942647135951,0.2900657195378728],[0.10736687207537222,-0.07188923503488874],[0.014004003542797789,0.36300192120856023],[0.5220359605451167,0.1453040924317971],[0.003972987306887683,-0.23351299987805763]],[[-0.31256196613655185,-0.1985108571171313],[0.3581448871683097,-0.07680403827256697],[-0.5202671626763403,-0.003950288384601522],[0.1896777602045845,0.2314343096921249],[0.2274492760407928,0.011037916927905992],[-0.3790635309638405,-0.06504797111720369],[0.13173514016673502,0.0753168388792572],[0.6296163568510446,0.023235734216745737],[0.29961001115153824,0.12727076341565213],[-0.16906426378794576,0.1823241041803823],[0.20357302711599232,-0.02749582987850318],[-0.4587287624649238,0.07318338098048878],[0.5852803326249454,-0.05855382218131396],[0.5640483137568667,-0.003837883241288902],[0.36877380123462505,-0.04657181045749697],[-0.3557947476692309,-0.01889323392569086],[-0.13085527949437564,0.032442382782801656],[0.24890437110561453,-0.11099527517273275],[0.34395312129879885,-0.03901886012503044],[-0.13262173622563334,-0.4279619919711293],[-0.20810910511517206,0.04271021788105404],[0.07857659316839607,-0.06116920692797402],[0.33028768026674693,-0.04929534127447986],[-0.07766263311553963,0.23762848008333212]],[[0.03915450224590973,0.06457237751521037],[0.6569887168983293,0.004064272612290901],[-0.09678320463865424,0.04473252377277061],[0.33124697608429854,-0.18751340898520874],[-0.21114378495023398,-0.04208639607435508],[-0.16564054860595334,-0.057828735339131715],[0.5506830051602318,-0.016285991918835913],[0.8606567316130234,0.012556367088901895],[0.6616171143901703,-0.015306461708843314],[0.09311747318490887,-0.12796970377305664],[0.7185005707454596,-0.04652055181208106],[-0.12718900206443967,-0.061920823614173975],[0.03698779274687698,0.00890417815334511],[0.5049192682137841,-0.1303896550398671],[-0.14010619709402886,0.05847860337919413],[-0.7162235204656733,0.028750166953309706],[-0.6140930170309652,-0.011431501593948084],[-0.18796490476565095,0.20430728293966882],[0.631124964585859,0.11376702826729337],[0.10611744663394652,0.4588669774837176],[-0.5791492176059113,-0.1753767755119793],[0.005049707113020969,-0.15589242773772477],[0.14466202504204592,-0.07743929079537878],[-0.025277819723554137,-0.5413544898289451]],[[-0.09899101190931854,0.024683194598525075],[0.5638374019511382,0.015870991171642295],[-0.12750165355722237,-0.00591635175826164],[0.2959550056187756,-0.028705146609570294],[-0.11415367520461103,0.06261004598887976],[-0.19485958527056474,0.01737958573799932],[0.6470817206397632,0.018007550037587108],[0.6130865143521349,-0.03295753264786188],[0.6410784854813506,-0.03873562902654732],[-0.0026699496270076333,0.09595022002614907],[0.744290909100735,0.054439750486552474],[-0.11987405445761669,0.1070937690019081],[-0.02030634295693873,0.04971675571525111],[0.3164401601505104,-0.025634894354901572],[-0.22766787710524866,-0.08766962826585019],[-0.5856297012409705,-0.1136595619941764],[-0.7376755457986162,0.023959744604982],[-0.03388872840787096,-0.2982835465342319],[0.5228795277105608,-0.10232993184566556],[0.2638757177140489,-0.3430223851609656],[-0.504071568629606,0.24500843045455786],[-0.015584334056000184,0.3626759450528863],[0.27061680214025025,0.11224221914505299],[0.0010292314860144472,0.5840921953748291]],[[0.23291403409847986,-0.16516293273605492],[0.325734336281455,-0.035988070643868095],[0.2161039407137035,0.02324532864914765],[0.2096876320034789,0.1555652352899649],[-0.4158910296044347,-0.009198049045341893],[0.32201750619106,0.1342961330043666],[0.6334668414572275,-0.032362488601819235],[0.0903367958333607,0.10294562109691403],[0.41628068132613333,0.04364282614651435],[0.41389152234469795,0.017508957265781513],[0.4092792794500095,-0.044987972503486524],[0.3468241464651408,-0.08599353752385683],[-0.369813475722904,-0.10157414555000907],[0.10078613832089754,-0.0737424072086322],[-0.7313651027414254,0.007642782143849493],[-0.25073815397904425,0.13200970393668707],[-0.5369469981209158,-0.09040959194423354],[-0.16692422994839087,0.1577260560049013],[0.29490556345881574,0.024064735728512192],[0.591583676989527,-0.001497403494001002],[-0.32350608991271296,-0.119384047004635],[-0.013949630990461186,-0.29373737770994596],[-0.14240986470969536,-0.09523855145218413],[0.05506904436743776,-0.39691787822717317]],[[0.6165939646881953,0.15949642606461448],[-0.04616484998442458,-0.0024105799637658405],[0.5138206001553624,0.05854790367359627],[-0.0027575213349680145,-0.28887152073098626],[-0.6280818350927994,-0.06267822859334965],[0.739548787044482,-0.2140934307313589],[0.2728258622239743,0.017304339640205592],[-0.34642077988441156,-0.03213581887672762],[0.019933864627739765,-0.02906415661262308],[0.6458317693443797,-0.015505286268528358],[-0.12340749430477678,0.011635653725978608],[0.6766323647382951,0.08508736639172677],[-0.5822892202048752,0.06974460828907184],[-0.14719999499074965,-0.004471443437125948],[-0.6991865116265479,-0.02172885739224298],[0.03799246835956683,-0.04645555666977887],[-0.11047484617736375,0.16264738610137114],[-0.301653502218113,0.03763464096277518],[-0.06280175784469968,0.06657296040593984],[0.2987322756806998,0.22017934267348507],[-0.002671680957246396,-0.012775301124831783],[-0.008953836125652532,0.3783077525875775],[-0.5712475313845884,-0.008629650266046814],[0.0011064350996682776,0.5856903413543749]],[[0.8094966842456482,-0.21284014682137314],[0.0041771628006512015,0.014313320825961345],[0.7803995745886793,-0.0368160344066291],[0.008144096610849935,0.3219588223158926],[-0.6049811368983748,-0.03680745175299161],[0.7291159580007496,0.2027729719955319],[0.2847475070095021,-0.051535769084538136],[-0.20224863017918532,0.047387425678753196],[-0.0011753263719312514,0.07395642833062821],[0.6959696895878232,0.07221571259787403],[-0.20523839210269548,-0.03826733838966663],[0.7535740040690383,-0.1034629540295404],[-0.6832952947711822,-0.0466694333709223],[-0.0646613647581491,-0.14493526926422218],[-0.462461545660717,-0.018300852369442205],[-0.16245494965232807,0.05216561881699651],[-0.15216986927193893,-0.10386264216356927],[-0.6398539063469042,-0.09727321752978746],[-0.09593076913377241,-0.05779835382082442],[0.19871965811386316,-0.08196516758423435],[-0.11865158284366432,0.16316621338689558],[0.0008863689646195108,-0.15333805148191781],[-0.7884183370351823,0.06411360465250139],[-0.006665147045983622,-0.4024420066542055]],[[0.4271528259832169,0.17694930676856596],[-0.26828193389324534,-0.016656241029724243],[0.6122368618716286,-0.0019077315382902797],[-0.2523177325327015,-0.27740147535380805],[-0.2960451891230137,0.10595525720598553],[0.2592851314428386,-0.08375226559170328],[-0.2203791027515592,0.007929109051699907],[-0.47312492943059664,0.0064779881332969165],[-0.2265802670244148,-0.16712466507274393],[0.39082891027660976,-0.03179293570448786],[-0.5674249546220418,0.08641302796722711],[0.3319004627754638,0.09338991199873696],[-0.35896298123269965,0.08008914921376742],[-0.43265070994878424,0.2130626850554655],[-0.12049462561926484,-0.05858891336013666],[0.020501347787572812,-0.01697650150371887],[0.15913984197804393,0.024371958549167873],[-0.507054624483263,0.13284220361872268],[-0.511076161045792,-0.002709579631558956],[-0.07937400537085232,-0.10024497421198726],[0.10267567188255275,-0.17570060453092248],[-0.009282861807710666,-0.15925492370265884],[-0.5740463044918062,-0.04044940397054277],[-0.034562226758211294,0.12999221092791505]],[[-0.021296026791682646,-0.07227458682760653],[-0.6214664454021704,0.014513051232961547],[0.24109866027184185,-0.005710656827679765],[-0.4893498602468292,0.35847877062800193],[-0.00025544737255364707,-0.11065759963095866],[-0.06676145483466338,-0.04228987107802504],[-0.6890417166050581,-0.09744402019134234],[-0.6288032037419874,-0.0382897751345009],[-0.44447823238884626,0.18619676009814493],[0.021528566708743424,0.07408429075107431],[-0.6769861049892861,-0.10555232173405399],[0.04281539726280219,-0.13540301887571463],[-0.13110182964878475,-0.10364332013548684],[-0.7888507652044219,-0.25688164571255884],[0.07545242300169991,-0.0014167447462557453],[0.3525469235940537,0.16005162973906714],[0.5462529051596163,0.041342434736941824],[-0.2345547905140262,-0.07242459401385086],[-0.7099708066995393,0.007069966174014304],[-0.21295677553895573,0.05371722198828751],[0.3554261157879101,-0.05676244562578204],[-0.01943597577539066,0.440031819733658],[-0.07465512067257034,0.02222002324246346],[0.006966731888960288,-0.23384903873812876]],[[-0.11841303875910464,-0.032158139033520626],[-0.7237781571295386,-0.023386451214121095],[0.10002621725453198,-0.07283018099833694],[-0.44780413060739266,-0.19786417177802898],[0.11889914376138114,-0.03217197212071495],[-0.055700343746320165,0.055431562616671655],[-0.8323375273832205,0.1266458524173586],[-0.5419144398315912,0.06810911103091309],[-0.572436481008426,-0.1046439798240127],[-0.2761457346565844,-0.07583643872650822],[-0.4298367386616072,0.0793960695280815],[0.07883917070056558,0.11428728401816884],[-0.1398658422883314,0.10740211946978642],[-0.5992984986221084,0.2604767126944116],[0.00771214523022775,0.0811609002710446],[0.7336980572300144,-0.21385227130583662],[0.7407813018527349,-0.020401584099560693],[-0.16879657110502777,0.05610035633323712],[-0.5205741980489356,0.03891918966988957],[-0.2305763489337776,-0.07836381884220853],[0.5005692591033081,0.231527019543155],[-0.013749972852593245,-0.5179423006147496],[0.06297862645488642,-0.06627819238002935],[-0.001544461720557107,0.23006702415460528]],[[-0.3761806452755594,0.12407479296758596],[-0.39574901600841755,0.09362429085329611],[-0.2852272581052915,-0.019862493224302148],[-0.06240748350720686,0.05720674725291958],[0.5139389319889649,0.15179175052456367],[-0.24997392740707686,0.079445497092899],[-0.5422398898918827,-0.13681676892320274],[-0.21959166732784688,-0.09912896497239924],[-0.4862326391016365,0.013495898169748272],[-0.7311488063577486,-0.03584623382850718],[-0.1053071976245331,-0.013374201901968724],[-0.22262719171489445,-0.1123286786384808],[0.17398653303195227,-0.048651969058863494],[-0.17378200411769149,-0.021561713492986526],[0.4288809341416717,-0.06370070329628194],[0.6797645953240999,0.19896954338476286],[0.5212337050638316,-0.049827389033857535],[0.31696055170106796,-0.08838742419798828],[-0.1431100734005911,-0.14373321405554007],[-0.2752459000485896,0.0005378617785729549],[0.47938265780009676,-0.24306165981522598],[-0.016511986794373244,0.2784374177481948],[0.28418942933860153,0.16588125232753023],[0.011314428026023756,-0.21084298515687777]],[[-0.6031850675675433,-0.15232247346574682],[0.020800075217897958,-0.13919088453754097],[-0.6793724865098477,-0.03777432177264753],[0.17593248094195713,0.13383472362131016],[0.8287067539640968,-0.1587341976137431],[-0.4543628634611362,-0.19898816740556338],[-0.09682851449231206,0.1279894835882542],[0.12120460376450708,0.06811876691621978],[-0.18258510856576463,0.13025444730352737],[-0.7472542381625291,0.020066496844422795],[0.065237215500146,-0.05411402448619836],[-0.5847706083445623,0.09085648562671562],[0.609067012601661,0.0008428267202915839],[0.29198922568747177,0.08945781268176684],[0.8186541025414501,0.09686557961444826],[0.2263127337901593,-0.1597718674207909],[0.18349650843009122,0.1235108891156007],[0.8482749351292457,0.0915041169736546],[0.13507521970697192,0.15530997438071795],[-0.25620034208544723,-0.03916113229091557],[0.19329014505968767,0.20992506019864127],[-0.01804309877312982,-0.5114230959208225],[0.48577363282696556,-0.23142816626562684],[0.013687224087256124,0.24207674048136973]]],"a":[[-0.0642618414970254,0.014072228618718563],[-0.04846668114723918,0.0019351794163567108],[-0.09625644504104061,0.0007009449472658195],[-0.020794971938083363,-0.021660259158800686],[-0.09108871922807764,-0.017671826628502085],[0.006829692711878827,-0.004323420969942934],[0.020726532994294118,-0.0075464857016038],[0.06190830190475096,0.01981233356653776],[0.08746551089457455,0.015280672554288315],[0.04403408890592776,0.00832833222706304],[0.08626736843122154,0.02010898857079721],[0.011341935311381402,0.004339567274194616]],"b":[[-0.016926340030855094,-0.013640536290485625],[0.08238950174282599,0.00771405553420722],[-0.002347577277053704,-0.006866531902365136],[0.1073245197697721,0.005134106550090238],[0.05774138336435249,0.016643247535366824],[0.006455311467814493,0.0023153150338108626],[0.08309405047414052,0.0007422388281063181],[0.11027760500189686,-0.018389582154764095],[0.049990129042295287,-0.00809703482875422],[-0.06787941953456655,0.021164002435050254],[0.09955187345677897,-0.0033017101007595724],[-0.010179580123363296,0.006936422178956973],[0.006896530473100076,-0.002573644243429352],[0.11732632059199986,0.008092269082148787],[0.05168245919441824,-0.0077280569329021935],[-0.07394262190880961,-0.005438554900647932],[-0.05484720250087465,-0.004619591689154323],[0.006557271302784346,-0.0063501732090748084],[0.08598614654232344,-0.005730692165040654],[-0.00434139329975395,0.04225816452228406],[-0.06096445547373895,-0.01806450602650902],[0.03425060721885697,-0.02557013436774067],[0.012039376234942065,0.007573553856828938],[-0.008915889982905477,0.002997164927711386]]}
