{"Name":"RbmSpin","Nhidden":20,"Nvisible":4,"UseHiddenBias":true,"UseVisibleBias":true,"W":[[[-0.00260762327048601,0.04699150880994099],[0.004806762723833828,0.017188343490144708],[-0.005497952387813185,-0.0605226165816895],[-0.003349143227437169,0.13038163868306715],[-0.023714913571336742,-0.03452396360315681],[-0.04389085334157447,0.013389256416315299],[0.018685843950257772,-0.037855076810975295],[-0.04360563158122894,0.24925388660770248],[-0.07971239555229456,-0.11869166730958458],[0.03583284932034697,0.17633981011351496],[0.0029022787258595638,0.011897470921766186],[-0.01002463427107775,0.07373957534678527],[0.0029001640481645776,0.03954209879765001],[0.0025870220149998217,0.1910421103833332],[0.0013097220756467154,-0.10183627779137971],[0.033024217134263074,0.015505999853775343],[-0.0119669326753197,0.1293197538770415],[-0.0031370991398441085,0.11803260755140955],[0.0071977919722863186,-0.0021844458435045233],[-0.0014377837461725911,-0.20990561145766665]],[[0.006183091356778903,-0.025409614767464003],[0.0009109736674879121,0.00847016475174749],[0.003326953760419087,0.1644746450258978],[0.025946812768639606,-0.009624454032254268],[0.029696540284019052,-0.09109006331135908],[0.02049603256678113,-0.09475843203412308],[0.004064640340375845,-0.25184967091177374],[0.016790547966502135,-0.2505557065638084],[0.1371910874332444,0.014386121781203638],[-0.0316595246520031,-0.22347349417237214],[0.0007875829506816222,-0.013374483143954837],[0.0016933286103159473,-0.013830868921214141],[0.003089840610104913,0.015737062469400293],[0.003357520287843455,-0.037587500576809596],[-0.008055655343596863,0.016572869651388093],[-0.022122971948333674,0.0678782056751531],[0.011465909253457012,-0.13061492639937344],[0.002566255477005711,-0.03276385060778879],[-0.01250745611121201,0.022472294689343232],[-0.001742844636501934,0.011076866356992796]],[[-0.005502195937675727,0.0736723021034379],[0.0020397183421867193,-0.05516367828322702],[-0.0013658903916522656,-0.08552564011033174],[-0.013490968977218661,0.026267659198131777],[-0.0054137914992348785,0.22268591390979361],[-0.034380501170909294,0.14887342687511118],[-9.119448439034733e-05,0.25131142538947976],[-0.03182926810108112,0.0013769402936593888],[-0.08374453453393874,-0.21165563611052424],[0.03905566793032574,-0.006917205547883868],[0.003231666054219004,-0.020560089004000276],[-0.01611980920219334,0.07964158485756716],[0.0006775444733551044,-0.03688124806375119],[-0.018853615559977208,-0.050979487112976715],[0.006661821236956323,-0.055602179606749076],[0.016778951473674267,-0.20452487275484807],[-0.024940591179844193,0.014878757129212772],[-0.009176648206160104,0.029943602480403893],[0.005004562453360124,-0.14994271635201215],[-0.004483779749118923,0.03014122919791799]],[[0.011248270574823574,-0.10205715918003319],[-0.0018435671659151188,0.03375516321264926],[-0.013604879282680804,-0.0226149124706792],[0.025609142214252967,-0.16892757071300255],[0.04563039125230676,-0.07662372659018918],[0.03745136989310526,-0.08299327618787684],[0.012204326667137869,0.0272187164356689],[0.05139674268176376,0.0719185347805682],[0.04368613088742835,0.2934558657797425],[-0.03124895846960913,0.02336338711509744],[0.0016303859177903156,0.021525551637672467],[0.004583567445875187,-0.11673941803369946],[0.0023257727655998043,-0.024184704029048577],[0.012842096569151848,-0.12380487579494065],[-0.011902933722809343,0.13809609816663554],[-0.03458547822057841,0.0873338938742546],[0.03081037960356709,-0.04768706650554281],[0.010873697728717173,-0.08189938706501339],[-0.017986783286419273,0.11156733746131008],[-0.015921624415031706,0.1931382401986105]]],"a":[[0.00014918432873448978,-0.004432462206654487],[-0.001093734719158788,-0.0025117740593872447],[0.0026361815215079753,0.001963160059561762],[0.0009268123257573449,-0.008308585659056492]],"b":[[-0.0032600170245971377,-0.013693397583899435],[-0.016266588273253706,0.0028852045973221433],[-0.0019042854070381123,-0.006672643624014669],[-0.014197951050994844,0.006930536886085258],[-0.008400890153070337,0.014766619902131411],[0.003808817482581748,0.005806219096576703],[0.001051806606329728,-0.0015370752111890078],[0.000802886963311884,0.00010036035856954804],[0.0006894705965705579,-0.0014904692393810268],[0.007033303146925462,-0.0030173187743785636],[0.0011706107919635192,0.004679446797832491],[-0.0009743734258889067,-0.012614551853443626],[0.013124824758268655,-0.003176861200890886],[0.01764871467545859,0.012337340316270349],[0.012102710985375359,0.003957810100979371],[0.004256187774930911,0.004747959318096733],[-0.0002156028949184462,0.0007346231763016936],[-0.017315883206915735,0.017073634120428564],[0.0011476968826019333,-0.00478191836268237],[-0.003502159222671345,0.011397903852753632]]}
