{"Name":"RbmSpin","Nhidden":20,"Nvisible":4,"UseHiddenBias":true,"UseVisibleBias":true,"W":[[[0.0016460608723139166,0.005558413930033071],[0.00279415165911759,0.062379082098024834],[-0.0032685476794585863,-0.08078501146844927],[0.008615654168597017,0.15094004436765876],[0.0075658094804253225,-0.06438176369713852],[-0.007123602892579235,0.061954994492238465],[0.006737063543166388,-0.06419320519245827],[-0.006443209906532921,0.1958691131544686],[0.00199047736595385,-0.17080823767269035],[0.005345765989295227,0.1899876760821202],[0.0021006478475637798,0.03345945762349581],[-0.004184125909570016,0.04580948874649502],[0.002697114336581175,0.060602016347528875],[0.0027794933530827623,0.2352555405895707],[-0.003099411513033836,-0.17112660702224003],[0.0017206310543675025,0.03544642687816708],[0.0022434314157994783,0.1773541467482007],[0.0003202269701425555,0.10959179556407636],[-0.003610770752562902,0.09566528608615431],[-0.0023056735863283503,-0.27982506861630657]],[[0.0015247008640779586,0.020544017089416233],[0.0028355123387362414,-0.026676760646379125],[-0.005814343954779152,0.231073670266007],[0.007834916712306104,-0.04627842910566974],[0.009393773632687329,-0.07413719808410249],[-0.0047868391624571955,-0.1731542931507715],[0.01364685812084612,-0.2538491978708856],[0.002284219054741268,-0.29880133733355785],[0.007571883807280599,0.026641213285645508],[0.0033131177252776903,-0.2722046191462763],[0.0027379082071951454,-0.03978119490866378],[-0.005341338563390541,0.021768536239557865],[0.0021103588752588503,0.027549529893910626],[-0.0024377851998855908,-0.019830718551790163],[-0.003353590513222563,0.08142661070621586],[-8.406853436974955e-06,0.06050918043046194],[0.0014624896611752476,-0.20795834497622676],[3.51741555676077e-05,-0.01924512878804875],[-0.0006678582959885025,-0.0743530432207463],[-0.0060711988687588555,0.07437800416283903]],[[0.0027997436274001686,0.0765883017013971],[-0.0004195238066634894,-0.08000394620796174],[-0.004622531133822487,-0.014117459757086608],[0.008762424840279908,0.07523153422369665],[0.015506892940367183,0.2599665093074824],[-0.004908818680935542,0.21830395898735783],[0.009170719757606622,0.23742924178224423],[-0.0009410112478373629,0.16987208697909992],[-0.0003099233751134754,-0.17047913905496284],[0.003675423304094561,0.026852091715399373],[0.0017923781251003457,-0.03741577666429568],[-0.005365302656363596,0.08878557143574198],[0.0010716589503313233,-0.06208947943449381],[-0.0029325939372457813,-0.17659394047451582],[-0.00322764694116285,-0.12593717342832153],[-0.005201806281950385,-0.24050398011167134],[0.0008263451574588,0.10299223779519646],[-0.00026045290621078766,0.0026830533500068806],[-0.005097894755449087,-0.20510401481134127],[-0.006971432871826557,-0.03994439239911211]],[[0.0033510373596486696,-0.10949369575496518],[0.0007037473764029986,0.04855161792762995],[-0.003436345533667004,-0.14035972317727402],[0.009502847057053869,-0.20179587634974486],[0.013731750412274361,-0.10099938712115228],[-0.0035046913166252255,-0.12259368525939783],[0.005308975051761709,0.0694385553834985],[-0.0021476069344151263,0.005053792318112148],[0.008167850436318857,0.29214084758284536],[-0.000354272889607048,0.024677348857114083],[0.0019209794686912102,0.0432259643609472],[-0.00497678028775587,-0.1335527231723558],[0.003114189735052986,-0.03184885763269501],[0.0025239090960665284,-0.06016063466465677],[-0.002306396786383902,0.2128676801642413],[-0.003415699479954709,0.11074159945137697],[0.0008364987674267371,-0.10649152146583407],[0.0010312576402192394,-0.059716747767023855],[-0.00891536116798427,0.1657042419010691],[-0.008237727219911449,0.2698421811484341]]],"a":[[-0.005834460604177388,-0.0048393150618845785],[-0.005362698846648037,0.015567679271972723],[0.01508648755367656,0.007733848698889213],[-0.0012708846460146154,-0.03175187477451514]],"b":[[-0.0027779730085201702,-0.01238321123243153],[-0.01640038027255474,0.0036239655897224153],[-0.0046316570775553284,-0.005098870615439683],[-0.010010724498696005,0.01188285724387486],[-0.00906438956760889,0.02904164386257822],[0.0008728231470415121,0.022003257090861716],[0.016531745532403067,0.006364349333091104],[0.010529382056613421,-0.015676553744327124],[0.04041195694499771,0.0036286478270774842],[0.023083428531790278,0.004543290436476168],[0.0007218609033330016,0.004958628870844804],[0.0002430207705055798,-0.008820613999126944],[0.013019881441578002,-0.00257878312926469],[0.011276112458453506,0.012041312172093496],[0.012076551894332826,-0.0008134634685658471],[0.005592287384104512,-0.007002581613083112],[0.0035549578557868004,-0.00206265029088984],[-0.01610422983561109,0.018469182064956666],[0.012928801481713447,-0.010416270219297185],[-0.004957513931576628,0.015713994891522115]]}
