{"Name":"RbmSpin","Nhidden":20,"Nvisible":8,"UseHiddenBias":true,"UseVisibleBias":true,"W":[[[0.0028764778369386535,-0.0011279475847660037],[-0.005742445897416954,0.0007895708003679504],[0.004264517207276056,0.0019523098833516366],[-0.004100147898510492,0.01879217210339742],[0.009497154011995298,0.009518789216166324],[0.007420623563079336,0.0024837742190433024],[0.004351501284140934,0.004893151508306208],[0.0031076773701759065,-0.00022807156112229516],[-0.0025940660899718138,-0.0006640809997533873],[-0.0009138772796084401,0.003206437117777273],[-0.011807542756502084,-0.007263364388624796],[-0.0014722415411572642,-0.0032004368693995112],[0.006392549939108082,0.0007774871905062685],[-0.00591914067141031,0.0035518835733283644],[-0.003302269597645691,-0.0025938219360788486],[-0.0009213054111154352,-0.00515659606271496],[0.004169902490141104,-0.002268595314174957],[-0.00042222317728228455,-0.005385948658263188],[-0.0019367684468711037,-0.0004998119923024845],[-0.0003489779022710993,-0.002980071105716896]],[[0.009390695924810202,0.0054147200852155],[-0.006946280161451468,-0.011473245267242034],[0.006368098419120929,-0.021826636942013186],[-7.603589812056326e-05,-0.012575043554014263],[0.005650300185764343,-0.004567220708196505],[0.011869467090795557,-0.030792807366377233],[0.00452366463880686,-0.01357697462673295],[-0.003168054408570568,-0.0005039893356029103],[-0.0009744712936237855,0.010565944660243208],[0.002674651778476156,0.0008325173125542181],[-0.004716735832556064,0.004142280396765907],[0.0003340876855848496,0.00446326691881322],[-0.0013012840616713692,-0.0030218854308367476],[0.0009839562617931681,-0.0030707549518878535],[-0.002672819189852298,-0.0001646360386743418],[0.0008533872818599726,0.01022304419419881],[0.002640513342785387,0.006154659438814116],[0.004741558817523326,-0.00384809925976566],[-0.00833995053472441,0.002732907193350457],[0.0034771760130222562,-0.002692647598862691]],[[0.0019756430776381242,0.010190036393954322],[-0.007032195528002337,0.01723309006921259],[0.005338119139897577,0.006524990241023679],[0.00026591219757474355,0.014016631508347999],[0.010752325097916305,-0.0056527933020943475],[0.0035189749226597093,-0.00596637718309642],[0.005573104266130329,0.002682696147489724],[-0.0008802517070005812,0.010250822578884999],[0.001898765377493911,-0.009462994162890082],[0.0011521423540074988,-0.010966663064074926],[0.0017672825147322167,-0.015211236605822196],[-0.0012537110951491345,-0.013020905161205515],[0.0037313661082020756,-0.006571299516569583],[-0.005454064170080366,0.0007954289681192599],[-0.0031758803094909037,-0.021391303416721547],[-0.004811785657758627,0.001773291192472496],[0.0006437449417075027,-0.003879940882708716],[-0.006716473549068297,0.0035880033905716126],[0.001201050396972824,-0.003853632144559011],[0.00040933389548114107,-0.006435619354485187]],[[0.010923526796239268,-0.004114778566582847],[-0.0023786703138937684,-0.015236744164884523],[0.0022487719101397193,0.004933777456369949],[0.0020187220252019023,0.016201611592677974],[0.00237512001628967,0.009929754944125499],[-0.0005480776946006231,-0.0024802103029114312],[0.006243718548332093,-0.010598808532015348],[-0.0034843749340356792,-0.012747501058011059],[0.0039516590725311475,0.009966106305290745],[0.0007980338892406649,0.0066682011975182425],[0.012757591648697473,0.009346170643440687],[0.0009400782554629126,-0.0016900145130432226],[-0.0038375392784086955,-0.010093006779924455],[0.0014184875546785795,0.003925214504937145],[-0.0040141242935384115,0.010023462724239922],[0.0004432732454724567,0.008435356151102807],[-0.0016546475055343635,0.00030878468995151334],[-0.001611006641950072,0.00021990331322542132],[-0.0026706594550328934,-0.012798483371743809],[0.005381093391633871,-0.007203251551660585]],[[0.005988892493657266,-0.00449889043409353],[0.0028992596313862965,0.008736513966157981],[0.0031456949045815755,-0.009565592661116291],[0.0066848062161213575,-0.003566472957927225],[0.006324497541814667,0.0027649743276812835],[-0.003628029747693194,-0.0010246183277083554],[0.008275169094260197,0.009088470472225836],[0.002540293743494135,0.004490211389766925],[0.0018697084209196844,0.0005975730308464477],[-0.0034511016787926257,-0.0021461530015809828],[0.009158092033162299,-0.0039135363374773295],[-0.0026530286170222835,0.007114659957260729],[0.002744603218240863,-0.0005476630462974687],[-0.0013467785090694876,-0.006359226152654771],[-0.001517245229320869,-0.017947459743437224],[-0.0012088594553933112,0.005767383183224932],[-0.003983718422587907,0.008866148862534813],[-0.0054443496459865666,-0.007618409189060892],[0.00124031057257335,0.01060120455853575],[0.003194782390679602,-0.00626919067834758]],[[0.008488046441469211,0.024646396505552653],[-0.00026062808141664746,-0.004136504527701776],[-0.003921512320783662,-0.01035349276458373],[0.0029928812852662483,0.016752180662575628],[0.004377259830699619,-0.0065113095616046255],[-0.004113012569127028,-0.00798330536093281],[0.005566499332756805,-0.0016073591133572295],[0.0014177481599038392,-0.002316124250435202],[0.0035107844806526387,-0.0016815651849641222],[-0.0014747272372401016,0.008325611327510637],[0.007523670323309612,-0.012073182500111617],[0.0022871551091592206,-0.0022856533173147165],[0.0034872322379614477,-0.004594490052001886],[0.0027289580946309837,0.020226224269150658],[0.0067857757437377875,0.003801123395316506],[0.0059738641262851,-0.0059725729188147185],[-0.0010379386706721619,-0.006735099891446265],[0.0009448237443706686,0.009026314512342308],[-0.0030049648544083316,-0.011673593822659315],[0.006477770154017587,0.01188453243219154]],[[0.006031783092128403,-0.008276359752613855],[0.005353151334401749,-0.004135259148956153],[-0.0014305141024819655,0.004601482065694146],[0.003468705230729653,0.00752596623461407],[0.00614158887241964,0.009171174173777356],[0.002093161220391428,-0.013153072094274972],[0.00881645836814202,-0.00629532788310911],[0.007482637146094538,0.001314479356567092],[-0.002608315590488852,0.0033451890936933544],[-0.005125253367723592,-0.0033242885634105416],[-0.00551917197418633,-0.0014565470410970944],[2.0140337738821807e-05,-0.00902665058981479],[0.008272139003177638,-0.0015683334596465082],[0.0004612651109118769,-0.010263561891095728],[0.0035286587902956454,-0.009797775389602926],[0.005943569461516413,-0.002160368684187176],[0.0004880217433273148,-0.0001003718934223702],[0.003035701696945361,-0.012404298774808215],[-0.0024724274120160425,0.003953105256732282],[0.00423824362345234,-0.013578063743184522]],[[0.00478318198263439,0.013102725496398916],[-0.011559338487060256,0.005364564013660606],[-0.002419729705482535,-0.004516713053759381],[0.0003735768940834848,-0.006788443306565926],[0.010367078985695386,-0.014642997533591953],[-0.003279907195098954,0.002884888048441525],[-0.00038508923594216763,-0.001983160875809797],[0.0011071885912034016,-0.008716638786452003],[0.002636283585253088,0.003970434699026786],[0.0017900462457497608,-0.000589810398104488],[-0.004375636228923754,0.008922305252072146],[-0.0006849665827208967,0.009090996475366861],[0.009063251425492797,-0.02535423684920093],[-0.000602140580845702,0.00526323727981731],[0.011659392676730775,-0.020969907046241777],[-3.4911938874338834e-05,0.02510778317789648],[0.0002848722483282793,0.011045328088682407],[-0.0006712237735096128,0.014788264586547892],[-0.004001073566921584,-0.012438335628480733],[0.004066991716792728,-0.0030711826754295066]]],"a":[[-0.0025328347745928975,-0.002335825368773634],[-0.003221067537162961,-0.0017954933810033677],[-0.002161109122617509,-0.001815037070814682],[-0.00206589736256743,-0.002100290247260799],[-0.0027068877081951608,-0.0024767090244181586],[-0.0009477734762048393,-0.001001573642411382],[-0.0030875480340470446,-0.0027703318975117086],[-0.0007727661234746789,-0.000840315915545273]],"b":[[-0.012366993708576392,0.025260687968488453],[0.013174078353059396,0.010762013129385793],[0.031033185604633452,0.015714427373554933],[-0.015314099542250546,-0.0015459066400586522],[0.014282631985985205,0.0029313666106797944],[0.008831812359938363,0.01731311804996881],[0.0033848147758666247,0.004308498703296923],[0.007563614472861983,-0.009710425826017798],[0.012182404900008046,-0.0017723055562729724],[0.0170318139090334,0.005641251214836296],[-0.0005991248412561137,0.001126943598956362],[-0.00238346890301236,0.0015690768509142884],[0.0031962652299083044,-0.0008157987994039528],[-0.018902815796932912,0.022019662496634392],[-0.0038702647378693806,-0.005466562679985898],[-0.007771773607139679,0.016043710251064786],[-0.009852699682578183,-0.0034869692035944936],[-0.004775580091149844,0.012398938001053456],[0.01090399211574099,-0.009049084799273296],[0.0071282243165475025,0.0071984069011349055]]}
