{"Name":"RbmSpin","Nhidden":40,"Nvisible":6,"UseHiddenBias":true,"UseVisibleBias":true,"W":[[[-0.0163520189088476,0.06002233137022296],[0.010567565614624727,-0.23192476764307232],[0.07298153615184624,0.1562919652567874],[0.11242063291679681,0.1014029982852754],[-0.018388225891705648,0.004823830023436454],[0.07873899523830043,-0.02272396087778569],[0.0970160759483142,0.16207187747928353],[-0.06115589365587884,-0.08029543346827528],[0.1309812623740208,0.03509280815737152],[0.05140119973959055,0.039497277429907426],[0.011178727763088194,0.10256111183433209],[0.03436846588131784,0.07138693333033934],[0.09758405032277538,-0.1558977422902816],[-0.09579726021998505,0.1623818371649205],[-0.0054922019019333895,0.25492239595484784],[0.07652777022076694,-0.06776250332240816],[0.12477917197806923,-0.046473148854417695],[0.2038935377545381,0.036530453722195176],[-0.022407517502596428,-0.0632599371552388],[0.0933177672179306,0.022407759888068726],[-0.0012128367602206875,-0.015706807871113514],[-0.005988593381639538,-0.20776173441826726],[-0.12489998365520734,0.04786100937330658],[-0.07389840617831295,-0.07304309505873037],[-0.012244383712965866,-0.029750456017274197],[-0.16098343567937887,0.08658148873713997],[-0.07867892676505953,0.16456497441192763],[0.16572887894254357,-0.0403287219873182],[-0.01985623437488678,0.13942166548857088],[-0.022375603860935588,-0.07115111857010079],[0.007853242531599617,0.058123863219942125],[0.013157265876799912,0.12934841403973452],[0.06876111385545654,0.01944376240769039],[-0.04660747349739912,-0.0167557652056842],[-0.12442936806894157,-0.10525301725083097],[-0.042639515632513246,0.07288832067543405],[0.02955500002561807,-0.030875323604504026],[0.05480138654199875,-0.09868850938829904],[0.05064817215241552,-0.003946491309561435],[-0.005959722177626344,0.0739992805125402]],[[0.046310976368976846,-0.16182938739666716],[-0.047878476293927434,0.09235110180277074],[0.07788910813550719,-0.2445035856055148],[0.16175780480989496,-0.08982190726818384],[0.1209172716797937,-0.04358685992188244],[0.020052218476599642,-0.019071422111204207],[0.04648903340494331,-0.11000267086319761],[-0.02971620413136368,0.0656364407521629],[0.10080741601525085,0.04191808697696784],[0.013317148619820416,0.023847173874769662],[-0.010905167060106365,-0.06735278121091264],[-0.015179948032698301,-0.11004941424709078],[-0.009236568849291856,0.09229942016342],[-0.098831502555065,-0.14930400284175563],[-0.08014766730054795,-0.09513447836660133],[0.11510953279549645,0.17690152087885858],[0.028406213023647243,-0.006913401502888394],[0.003378877794073572,-0.029817548688784234],[0.018147487075565075,0.034211221173909824],[-0.06450301091885202,0.06298492005863715],[-0.19012609524968974,-0.05501287890012869],[0.03610749766765505,0.08150747735907926],[-0.021568258398560927,-0.05170337395846877],[0.033976578985334745,0.13724369655979404],[0.05688775888059601,0.08731430930791625],[-0.1977287084736155,0.010095260411956053],[-0.06596455407878689,-0.17349257328319576],[0.14811379300225705,0.04222139785279776],[-0.0019131910966384556,-0.2912609976479081],[0.007476658832913573,-0.006023544622810701],[0.05230588759050279,-0.023170935321994934],[0.06166929073394875,-0.032551994549532545],[-0.07451689219317556,-0.05735312409064559],[0.03513121595169557,0.06213700682284683],[-0.17205156834707033,0.19218875374590233],[0.0024002960297312614,-0.12249802929148942],[0.049931987800386504,0.050394511517662444],[-0.05817439124302952,0.034435582863662065],[-0.010856556062324574,0.02295270167017892],[0.04080566572143404,0.10235075832790903]],[[0.06901588385323074,0.15556640520641074],[-0.05518317352549137,0.0674575472380463],[0.003340243353730848,0.22868829422785855],[0.06560506830059193,0.002497559849312198],[0.12992774883311778,0.05540678848094476],[-0.057124000767222335,0.024073313132327467],[-0.05000250763996984,0.04503526279213132],[0.03334306779923868,-0.05547168779311598],[-0.03230675792976148,-0.05315572115269909],[-0.03845453726020533,-0.07960322345712534],[-0.02029389196937783,-0.04187368149591656],[-0.04712594137820372,0.024143202025138793],[-0.09569831221782703,-0.05335106076715303],[-0.009431080407099003,0.0857296068207615],[-0.08257202404947869,-0.03344374281563265],[0.05097468063178705,-0.14247106232439463],[-0.10293298011575756,0.1255783961658762],[-0.20182086348865103,-0.06726470450555866],[0.03528090970845357,0.07491932424019454],[-0.1402286946269163,-0.200027714653407],[-0.18417029678790764,0.10996724431826241],[0.04588064316640248,0.029936668584980827],[0.10092312009399033,-0.10035806314029232],[0.10120707097207435,-0.16250243086306687],[0.06467011960144116,-0.1190590760223583],[-0.05430360144921144,-0.10371931058068742],[0.009574567988624253,0.09939711623005461],[-0.017752081808996196,-0.07904065944535546],[0.009321191735147812,0.2774853403139961],[0.026843995779030388,0.14630249357098013],[0.04377195260543281,-0.004987491412957698],[0.04786357978037354,-0.031766791510941556],[-0.13791503865400329,0.05646870808135572],[0.0842778016921928,-0.061760976241715955],[-0.056172230512905194,-0.09435724103584203],[0.04151432100481515,0.053462621152050825],[0.023322818938727397,-0.1427206427432809],[-0.10150862627285044,0.003953449554680059],[-0.054930705431614754,-0.10289139000450948],[0.044346562388759975,-0.09975059902078055]],[[0.033539694736675965,-0.011986974891514396],[-0.008247801459582203,-0.12228750817688025],[-0.07804803632210555,-0.1820618793579429],[-0.10162122200906575,0.03946757189103807],[0.0068009617972862235,-0.018800518777181068],[-0.07964262170892109,-0.039436205205454856],[-0.09028001151746011,-0.029309694555943885],[0.06677114666250723,0.017455314648901613],[-0.13594779330169718,-0.05523317445989482],[-0.05701738030703706,0.10821340211717256],[-0.007797279444173487,0.10048316786956062],[-0.03364571909899074,0.07186266938564054],[-0.08910693710212841,0.05805659382356488],[0.0927906724462804,-0.05734550652966924],[-0.009646178116192564,-0.008991986842740026],[-0.06527166994090346,-0.005254825033112747],[-0.13469541740624832,-0.1752011483087699],[-0.20871607023556618,0.14055502913372497],[0.012067249061254805,-0.14253940755906525],[-0.08698802323410378,0.1918414329040091],[0.01120398930361902,-0.08925817165381805],[0.012082908803186913,-0.025848789240933527],[0.1225220877270697,0.2308912919812638],[0.0769784663975972,0.09161847637338255],[0.006341649759531615,0.12776306783659375],[0.16111778138432417,0.12432924286543184],[0.07388234939602728,-0.010438821986981043],[-0.1616906827747485,0.11689406258644147],[0.008248207030450299,-0.09471157283959929],[0.019082839556001166,-0.22533556530623566],[-0.009888461970731248,0.029173268944560116],[-0.014896728470104134,-0.014311120906750473],[-0.07811947875429158,-0.02622424257505547],[0.058034490799352606,0.02309438904743863],[0.12641845720321238,-0.04031386130545717],[0.039688186819481434,0.0669821063350187],[-0.03278571899968997,0.18948882591313676],[-0.04517003148795427,-0.012290567870990407],[-0.04623185817765847,0.1539194868859445],[0.002352205123738047,-0.07680375393578535]],[[-0.02734871919841421,-0.08576528567008482],[0.0478449700329831,-0.020332899900712905],[-0.07561167101869232,0.10310052839719173],[-0.14726387380266168,-0.018573142072681792],[-0.13036809022295257,-0.012332726020108422],[-0.020505562098125263,-0.0009478995276462201],[-0.03758672862535282,0.06769858113280909],[0.03411834859614003,-0.033339809111915426],[-0.10522036654279102,0.12665176352358698],[-0.01780520580132274,-0.04650361150926176],[0.014936093738263125,-0.06901919432446732],[0.017224362984108756,-0.11225615954926774],[0.01801207754904909,-0.09963178110620494],[0.09268343235394509,0.06815536626522137],[0.06545969238366943,0.20360176749604225],[-0.10107419653556866,0.11215405058732768],[-0.03709790236677752,0.10888125795573607],[-0.005215535344945034,-0.09942324618779771],[-0.029123226906155878,0.12113550155738051],[0.07458528338202758,-0.10404688874227783],[0.1964043303883435,0.051637968049189235],[-0.028881952055853793,-0.10460583727312116],[0.019003829828050104,-0.20679560763509197],[-0.02860834702631508,-0.02319186210103115],[-0.06173189132208578,-0.0835407985938202],[0.1911490177850254,-0.04259708329857382],[0.058880387694571046,-0.004812567039782442],[-0.1398107773113043,-0.0996609815881806],[-0.00837555992402839,-0.04837773823974132],[-0.011998592340372224,0.16174059113151043],[-0.05271020817796471,0.008210016875717872],[-0.061645443032779405,0.12283884475543232],[0.06360352155160029,-0.010973797736749455],[-0.023708484013378314,0.021207499640367642],[0.1692264842873495,0.11690189305638064],[-0.004292273442363614,-0.11777092564341723],[-0.050845383977644126,-0.18644184666731278],[0.06611762805082982,-0.055303122817174755],[0.017736319723283853,-0.13901384727882907],[-0.04497152936287363,0.26185473387963043]],[[-0.05259513246137535,0.07665103842603775],[0.05462447000145317,0.18150052670552902],[-0.0019447491622119927,-0.07461644752945608],[-0.05013628897195257,-0.055522841411024],[-0.14130292807052963,0.025132241041834136],[0.05850534909220589,0.006729670823920259],[0.061892533517280496,-0.1336204772462609],[-0.03178533973544523,0.042060568949384806],[0.0356509442305934,-0.12667899589869525],[0.03498986296546877,-0.009478421245656262],[0.024151092901837562,-0.0421334096130901],[0.049075656254312046,0.024623948646606487],[0.1070791850656367,0.16288205206417403],[0.003450890804350381,-0.1120181574591202],[0.07471634862938771,-0.3408135388713837],[-0.03476177053257625,-0.07958230343473305],[0.09646802248788791,0.004835145821132719],[0.20001021045023434,0.026028058017973584],[-0.045637467429724424,-0.010048900104053517],[0.14883218089141262,-0.004254867050059897],[0.18935231838229222,0.000602039003728883],[-0.042899573255512906,0.21994487983962885],[-0.10903209193267246,0.07120655647540022],[-0.10038484278050745,0.01734317033190793],[-0.0707802250009839,0.05465990541582003],[0.04646327846925653,-0.06957370451689378],[-0.014957823406138403,-0.06535835016203399],[0.027592552461585176,0.040482382958261454],[-0.02110353166732142,0.028659697954437693],[-0.02962596885435691,-0.018626848547506222],[-0.04501305118157496,-0.03485056507873622],[-0.047150055631836274,-0.18041491795855408],[0.1298645938862784,0.001329861632259648],[-0.07477758180423065,-0.018232179706143763],[0.053995930663782055,-0.03614542136672],[-0.04552583642860584,0.04711261128941066],[-0.024353509431121002,0.08620010698826555],[0.11211096765945272,0.09903171301759503],[0.0616756197518077,0.0641888777570385],[-0.046820315911997715,-0.2550106571886307]]],"a":[[0.002292494318171609,-0.005585318487775939],[-0.009519769273205404,-0.01164395198746201],[-0.008207450363645709,0.005029667663623472],[-0.010528060566447017,-0.009769632699318747],[-0.0025175054157733105,0.007276896097958936],[-0.009437956724231027,-0.0012164519534829431]],"b":[[0.00029071013612164533,-0.002809975641674385],[0.009664794646810993,-0.006900690513101709],[-0.010199409272205251,0.007311467992591559],[0.00023938938125901747,-0.0054922671904989746],[-0.0015363050661642641,0.0024124236108087034],[0.018109107605416546,0.004254768061259802],[-0.010467768897318644,-0.0041168595922393475],[0.005148831246570233,0.0076026068012259454],[-0.02108720424492977,6.429023844646737e-05],[-0.0066653133869011005,-0.0027866871703314164],[-0.0007587001187692714,0.004143593411033979],[-0.022835618297458244,-0.013431969631247386],[-0.004837049335767526,0.008955245169004568],[0.023647439714722492,0.015171702071779718],[-0.013647003846247488,-0.005403244654871857],[0.020442627541990974,-0.002490230744920804],[0.004936424307211537,-0.00019534757990399392],[-0.014361015017261442,-0.013170182182786795],[0.005839125085357649,-0.0008694887780529696],[0.008242466868968172,-0.023149261081797178],[-0.009387921317341485,-0.013048769769813716],[0.005680579561650144,-0.016015441927633062],[-0.010553805290144883,-0.0008467916116413836],[-0.004707412824638261,-0.0046520726074348925],[-0.008012449044396002,0.005329817959191302],[-0.00019763624163933807,-0.021047786320356466],[-0.018192142027954356,-0.012455846788319812],[-0.003758984481752803,0.012042160412701541],[-0.0013969450844964328,0.00033850676643071515],[-0.007494638487776992,-0.007886394217712693],[0.010965989850953583,-0.005398428090290266],[0.003863051875346809,-0.008457157876267867],[-0.005879945270340522,-0.0038281868719994665],[-0.017855106932721937,-0.009948239439336532],[0.006040415204075436,0.020371437281361402],[0.0008533235476805353,-0.008670974888893613],[-0.009620218819654582,0.003493053472948779],[-0.004314491270600649,0.01251920272444028],[0.0026464326321405593,-0.0047376852385631095],[0.004391016996264015,0.010454376531306112]]}
