{"Name":"RbmSpin","Nhidden":40,"Nvisible":6,"UseHiddenBias":true,"UseVisibleBias":true,"W":[[[0.007620193696981904,0.02976628672033812],[0.002705037264151257,-0.04064434027928963],[0.009210163468367923,0.012188535992881016],[0.012125951380868291,0.015014152911643472],[-0.004576058716774976,0.012656193833046865],[0.0034344894836133297,-0.0027982474565782195],[0.008490646830709223,0.028683029971336628],[0.0035548833508780493,-0.014876930205743006],[0.008376631319911097,-0.0018201552446397502],[-0.000885135676191054,0.005376373329818625],[-0.0019021961688073462,0.01962761770899229],[-0.0003750242938229222,0.01117773183938211],[0.005142735768909264,-0.03247692414381171],[-0.008407915705263844,0.031048737058799448],[-0.013022628112867559,0.0385936288768319],[0.011247097438537685,-0.010009450149756138],[0.005918974726441632,-0.01843540067088335],[0.011980788005551168,0.00977179314358518],[-0.004132884405975627,-0.003732107435618629],[0.010842267880283004,-0.0022910923373893146],[0.0035914110541555595,-0.004405700511560966],[0.001230343589801806,-0.027049120046246575],[-0.01066368317809188,0.0106957900243509],[-0.006021285745430572,-0.004331832998017089],[0.0002408467375435036,-0.018696407682568826],[-0.01564911840874905,0.018756098393645455],[-0.009043150530260228,0.032439097947227685],[0.013281501599473968,-0.007508652603695339],[-0.006611613043621827,0.02264045376688387],[-0.0016667161133441266,-0.02174548258634561],[0.00033034417937857357,0.009893899037158586],[-0.0012638122186801413,0.02967960272114518],[0.0006969198835427391,-0.011837090712984197],[0.006153238891615459,-0.0006600671753793568],[-0.010891153270478073,0.0046834498018410746],[-0.006161909241918232,0.014880013787934115],[-0.004339656548115875,-0.008372868569861974],[0.00388894939767437,-0.008272726711659673],[-0.00158765412419502,0.012136104445054158],[-0.0031548196606867667,0.019607711768053905]],[[0.00811073623976762,-0.0083108589806645],[-0.001620514726273142,0.012848789833937144],[0.0009143016156116087,-0.03881888771010517],[0.013244631476213105,-0.01005531088586848],[-0.001597353480140279,0.0030772580493274317],[0.00027778945939382405,-0.0043830763781833775],[0.005729921369989646,-0.010011594863981139],[0.0005888075909633683,0.010461232034078265],[0.003163098994748573,0.004584375029519804],[-0.0025677810515548276,0.0007599458426526717],[0.001735555270526718,-0.009461170600025368],[-0.002019039959787426,-0.025875563084214046],[0.003968004781009369,6.956746891961057e-05],[-0.006153941290877587,-0.017323358570551894],[-0.008518099337942746,-0.018787985560595088],[0.013404597705187028,0.026193849303722132],[-0.004932084575650042,-0.009220746942561633],[-0.002606724887445119,0.013623707151795441],[-0.0037767042525109684,0.010307508958595323],[0.0007232104819730385,0.013486915873798145],[-0.0069549564561575536,-0.016749860384526815],[0.00489948525423283,0.013548095905322152],[-0.004632337961447598,-0.016582766279090517],[0.006412075218806001,0.031727248509605836],[-0.0002600175945937261,0.015427553598050498],[-0.014117382997325968,-0.011843615842422932],[-0.006498689239985403,-0.026953342846942643],[0.007744799592757246,0.00480878166930392],[-0.007978917007373687,-0.03677147207083352],[-0.0002342276779351885,-0.008340110883059146],[0.0007790232755050932,1.0251772146637148e-06],[0.0016546218357410404,-0.007758670465378001],[-0.008240362445986943,-0.01669488798382398],[0.008334109673388714,0.024929738689277323],[-0.005420219127519051,0.0448304352828424],[-0.003018322123850915,-0.023200701344366557],[0.0026718236222941045,0.0030967930000331614],[0.0014745522541239305,-0.002243203233268378],[0.0002341877930550309,-0.010470922637101364],[0.0029506871091857954,0.022154092106124526]],[[0.008214002852618429,0.025170963998083905],[-0.003517343262708931,0.013207745003647214],[-0.004388737066635799,0.035913817956714805],[0.006012224439152064,-0.0013339111792971656],[-0.0029224330189327415,0.0027437623270427014],[-0.0018041516449168035,-0.010442256499512177],[-0.00010045669422639648,0.006243566672501964],[0.002606460296680378,-0.01183221487844054],[-0.00015992285869359014,-0.023141529080805006],[-0.001112948054262043,-0.010686490077388599],[0.0011692484814019772,-0.006521527479719145],[0.00037597377827723285,-0.007055834074434697],[0.003670348748298937,-0.010047219585350669],[-0.004858018883443417,0.019368644352141653],[-0.008008120270902825,-0.0063120904339747435],[0.012323278807962416,-0.03586178442117908],[-0.008475513641679481,0.016443301802578622],[-0.015803931626617803,0.013003216641038349],[-0.0035735696852468996,0.010269188816937598],[-0.0011242320289017206,-0.027863188035741244],[-0.0005376460708794614,0.017954185057956196],[0.003181521773143208,0.0054107473044779815],[0.0032416653134725946,-0.01863781419458982],[0.004524510855484752,-0.022593545428251312],[-0.003763731300748374,0.000380769519885912],[0.0020229933914391236,-0.029474902165070208],[-0.001040560839609275,0.013843140984395761],[0.004103873431609999,-0.030805511712241464],[-0.009645694888543726,0.04518249728096937],[-0.001807567164842163,0.022946210172574286],[-0.00027883245060699596,0.006224412656940966],[0.0047378160407742995,-0.025890097217190964],[-0.010538947845260882,0.018875548453676536],[0.005348902437991994,0.004297634632166776],[0.002363119583998503,-0.018288590529228124],[-0.0001453208993603789,0.005336419507473982],[-4.502518325743036e-05,-0.020437609087873322],[0.005240169839968343,-0.02056391842965724],[0.008221374922344038,-0.04131869763779047],[0.003426362398048928,-0.020767380473857927]],[[0.010705118028284031,-0.013867974710815962],[-0.0026421811249691673,-0.027573949854839394],[-0.0015007958580281928,-0.02304631983416281],[0.005624371544266134,0.0015036164261509504],[-0.0025830462487660424,-0.01400330489000581],[-0.0020035550018537803,-0.0257377221664213],[0.00440278469097098,-0.016639907866138583],[0.004259608811066072,-0.004822424004658557],[-0.004949965658193437,-0.01100505580204627],[-0.0043311705423447425,0.030177101581891606],[0.0011795102270603832,0.0052076195784403955],[-0.0014090689926399252,0.0026062683506726243],[-0.0038558095901473194,0.017685654563304506],[0.003005817467890097,-0.015096049047018795],[-0.004970894264516765,-0.0010058967805713255],[0.0025297140706795076,0.0015081077368748208],[-0.008719529633087593,-0.019214700016052823],[-0.010709007995596742,0.01931735688382079],[-0.005640080986771203,-0.021424381590915115],[0.00043963554743825316,0.03068171095269886],[0.0010956075122650502,-0.018096165360167532],[-2.481955365160219e-05,-0.012668058016822885],[0.005158271750874374,0.04192168233218555],[0.00425944482743332,-0.0012306281068830418],[0.000763496731699794,0.04267998671511021],[0.003521211882636727,0.041871644871606606],[-0.0005983108281983625,-0.0006023881655169721],[-0.001648192685109245,0.012227621195707729],[-0.002919093721297253,-0.014516695633908285],[-0.0019957033791401044,-0.025162445461882597],[1.8088783509007284e-05,0.01487791736651352],[0.0005327268299954722,-0.01066567207334732],[-0.008313541445634395,0.006167159258023392],[0.008446522217193511,0.0018645947869671054],[0.0012379995938769307,-0.015496958471657994],[-0.0005445395549557576,0.010195200844705606],[-0.0035515806468784297,0.02023780534263984],[-3.307705208256711e-05,-0.02014337256099313],[-0.003102794509108239,0.015412162866484579],[-0.0010903594830848104,-0.014446934069546643]],[[0.011149880927962975,-0.021730176039844642],[0.0026259210789600714,-0.01290445467455018],[-0.004463443680992612,0.015857735786012732],[0.0015140760224663342,-0.007437566531018228],[-0.009032101047070978,-0.004685166310079547],[-0.0023869642108204302,-0.010401323540193474],[0.0021600256497297317,0.008499200790918931],[0.003614290482167988,-0.01943795967207566],[-0.009582238952098813,0.027171740489140183],[-0.003725247345649335,0.007060705188651101],[0.004867906410830342,-0.018010362937954088],[0.002739059009609141,-0.018112708893076562],[0.004485862226514968,-0.001038178187142979],[0.003138287389825895,-0.0017534269817870067],[-0.002650728091965348,0.023766526588030596],[-0.000637478497854979,0.026317502374567904],[-0.009432372012112033,0.03493929876786671],[0.0006829123382295132,-0.047391205990969826],[-0.006485793925196666,0.018388652089313933],[0.005778601816104747,-0.03401059437319853],[0.009942730914616511,0.012042100042756756],[0.0037528770246320637,-0.018901830347031474],[0.0013683238073542484,-0.03930290039496142],[0.0024961439350508156,-0.014915877891114688],[-0.005652952884569466,-0.0023808768239241365],[0.00788449864679356,-0.000782692758307204],[0.0017067899274094299,-0.00270971812802918],[-0.004540921543049986,-0.010314486489292765],[-0.0020866035354709742,-0.012602147226301317],[-0.002930502657175843,0.027776864854834903],[-0.001098129070606079,0.007202859824640063],[-0.004352604899099174,0.023971190935241533],[-0.0022524099951724864,-0.0032596322860490687],[0.005933078486154959,-0.00811780461591434],[0.006940087612792584,0.013613970291786376],[0.0017344701683539394,-0.01693650564792368],[-0.0004663586197582909,-0.032267429474746395],[0.004130593339417109,-0.008106443022271616],[0.003257367580099542,-0.009024711524782637],[-0.005751361822443772,0.03659279070496968]],[[0.006770752644631312,0.021629886057308246],[0.004176635140899741,0.021830209996775728],[-0.0011650573402488572,-0.015196006802416602],[0.002240866380637159,-0.018240741467874442],[-0.011702269363304213,0.010854011817711926],[0.00250677014742099,0.0023861222750450966],[0.006845473240582157,-0.014901415965816026],[-0.003048924996557487,-0.003446309296017852],[-0.0028828980000595635,-0.02719460824453146],[-0.0009466293736836287,0.0032849613441810217],[0.0042195517085190535,-0.008176963210228406],[0.005404977068209865,0.006971285453037134],[0.01522235283362944,0.03016458177160115],[-0.0018590765557042407,-0.01864540339122501],[-0.0005115602769005198,-0.056113766135188474],[0.002637137114490448,-0.014163347492691844],[0.0005676327369088032,0.00619534833572116],[0.007986121095563209,-0.0017168263375167746],[-0.008063532737502306,0.0006089413148142498],[0.008356019014600306,-0.011099109675197316],[0.014314262322435208,0.01148483410166236],[0.0032615228560798635,0.032832830051667206],[-0.0075235360694925766,0.013007821608223573],[-0.0024003687214730765,-0.001187408843083513],[-0.00818461348379839,-2.4073399676422083e-05],[0.002052129521604635,-0.013410638881078884],[-0.0017900776601186348,-0.006157011621145147],[0.003240622115654302,0.012159728316864517],[-0.004437196100969422,0.007283758912945409],[-0.001961953895282229,-0.008569028440285056],[-0.003431133319915295,-0.005701956835936413],[-0.002310838332329302,-0.016193920031081804],[0.0003261615403777759,-0.01055992900998745],[-0.0018658825781112927,-0.012624121960008401],[0.0027578708327554526,0.003678799467849197],[-0.0007191999977238776,0.009902277369184306],[0.0005559917319932443,0.0037889401937756355],[0.01347574546934603,0.030468209317322952],[0.011018510293713982,0.028475402208398046],[-0.006627642759585201,-0.036500517460860506]]],"a":[[-0.006997961140207789,-0.0008439790917618192],[-0.0053112070370323105,-0.005873531208710223],[-0.0068903501204712805,-0.0020067022598432922],[-0.008641705461089057,-0.0010046992330905178],[-0.004395124980050536,-0.002980020540048988],[-0.005681899286281105,-0.003199859033002469]],"b":[[-7.212374269931738e-05,-0.00267474578455707],[0.011245705403472937,-0.006991659456306521],[-0.013512456518633394,0.008492166560354309],[-0.0015170896891269444,-0.004603653231005995],[0.00011491844331020689,0.0019778209355689213],[0.01833168528370818,0.0040399714541979204],[-0.012355616804056333,-0.003645910738813526],[0.005766818847868704,0.007882443484781617],[-0.023914324669792073,0.001501006229604694],[-0.007257374887866642,-0.002818377032154121],[-0.0016097577260183566,0.003761429705217209],[-0.024369165793881258,-0.013482741044655073],[-0.0039006574866634193,0.0075205724533263145],[0.025100725666270605,0.013713812603028478],[-0.01925206182004117,-0.006410323107088664],[0.021771907359029914,-0.001628635245822541],[0.006085648799994961,-0.0009046708653784591],[-0.011007260207333239,-0.017397636739044386],[0.006987712748029316,-0.0004044108133600253],[0.008174980472027126,-0.023328333908795365],[-0.016123717921776793,-0.010842441008921141],[0.007764817938267276,-0.015418331348305088],[-0.013197192774096216,0.0006076063650010929],[-0.004200782557302729,-0.0037021740104541266],[-0.007795316023714358,0.005289590970327169],[0.0035279918728877125,-0.022778581557244586],[-0.019082433115097313,-0.012464444729773158],[-0.00822949505296965,0.013313638512245093],[-0.002642624972213767,0.00029533765708392016],[-0.006659755926963391,-0.007413107338852843],[0.010810271816784827,-0.005137889101437915],[0.003782261760247775,-0.007856563630293967],[-0.006508776446251694,-0.0044629507078760506],[-0.01777022742424315,-0.009189251177161562],[0.010322258617329341,0.018301719325115207],[0.00023630510085775782,-0.008558845736273631],[-0.01016923663812129,0.002801862398348207],[-0.004195410065526383,0.011599463282211394],[0.0023028378081688798,-0.005268822425186896],[0.005809427298669695,0.010254725680375736]]}
