{"Name":"RbmSpin","Nhidden":40,"Nvisible":10,"UseHiddenBias":true,"UseVisibleBias":true,"W":[[[0.01855914253957566,0.011773617621015907],[0.024465943207043407,-0.007970817842039336],[0.008723765292961429,0.039683271575104026],[-0.018559426931745407,-0.02348385170715812],[0.01662541869434105,-0.0037091839268433976],[-0.002428959438592786,0.002228814114592956],[-0.008699390798497552,0.03344601343092407],[-0.007787566169621451,0.015985271350194764],[0.004927534326647912,-0.014558731553806627],[-0.026375442690043743,0.025025113730674047],[-0.018762554765061584,0.0305929139879758],[0.019671464687363787,-0.008455808167309835],[0.0073530240594447595,-0.0167153494935803],[0.006007814616359183,0.004900146099923847],[0.0032209824508724373,-0.027043181073146575],[0.004886216145973056,0.0014511826062704612],[-0.013691236964311656,0.01860689801487755],[-0.001665004856551248,-0.04594830698098756],[-0.005398362187292028,0.03058597079961793],[-0.00814181783743631,-0.005129370977541852],[0.007030682528732099,-0.0028026884164457835],[-0.031890735662066606,0.001217005458214307],[-0.004989540123594024,0.02133344174876601],[0.026212068329209408,0.006463901953454689],[0.0003130469287956606,0.0344092271106386],[-0.011237675520400297,-0.019085130305410446],[0.0098705064468937,0.01668599222259907],[6.332788390686828e-05,0.010077617973500817],[0.02110353995432572,-0.010572068604991873],[0.000851943148530414,-0.0045482788085220716],[-0.023885612325417173,-0.01753401027040252],[-0.021518435124624657,0.012102546327478265],[-0.001082023286808427,-0.020960535774757982],[0.0010838304247669309,-0.023976035902088515],[-0.016546248910587407,0.004811056933355089],[-0.0100783019455308,0.006670965903602204],[0.01650916736864159,0.006921731701459443],[-0.010621933505243776,0.014360310990001453],[0.008362172909693462,-0.02815816486717392],[0.026994439477936234,0.005446375722753871]],[[0.007088078915720582,-0.0010545703639120124],[0.008143203205322327,0.0030111386086738167],[0.018165987787716963,-0.029907657456903165],[-0.010693742548511478,0.02024083179317799],[0.013017711755397085,0.0009543086822167116],[-0.0036326709917041265,0.0012839420751532557],[0.004978288999878798,-0.0292328923685182],[-0.004560848271862257,-0.01070005542597102],[0.002045911935934864,0.008254678109502684],[-0.017380628072303533,-0.01856637876044019],[-0.018236541096473408,-0.001199529670343408],[0.018821146670928022,0.01858858777255221],[-0.003684208837685554,0.009714654175816273],[-0.011342277701142272,0.006645300209503547],[-0.006126678177968401,0.014865607196201882],[-0.0003703857979145712,0.021012436651686218],[-0.011865086304990636,-0.021103172576367797],[0.0027784333525940506,0.024767670718620165],[0.004382022340353683,-0.009719134745253787],[0.007393195483939807,0.034358871481276775],[0.002243808334268452,0.014932210374171856],[-0.03350572575446523,0.01961440437392313],[-0.007409168178803695,-0.03407895737063061],[0.021763141028931118,-0.0007392503812492999],[-0.002796368650553603,-0.041129238089263526],[-0.002855963048488664,-0.0010855831231253662],[0.008815447800486457,-0.015736907878587492],[-0.00010453332957774321,-0.004535484219251842],[-0.007988770906625545,-0.008048047725023433],[0.013837840564229606,-0.005166331111356608],[-0.03900841648308858,0.05044983522879645],[-0.007227713004994153,-0.023290350671898385],[0.004175476004506118,0.004369433759365021],[-0.0051741207456944575,0.011795296215134875],[-0.007643524080414097,0.004248617163777416],[-0.012265189103157374,0.02452015362187798],[0.024614988451816165,0.001957134809921959],[-2.7902441725217244e-05,0.014413818363134923],[0.0007233446484384984,0.04471079409143237],[0.03148855500770427,-0.006977754887548097]],[[-0.0013697667438391228,0.005225704324938917],[-0.009711278116093867,0.0021255390218231206],[-0.0021461532608663685,0.02169549190855914],[0.002330081297239697,-0.02201410335883646],[-0.005295716781548354,-0.013806155715297539],[-0.004076886707735812,-0.01602425597430304],[0.0028689137186019343,0.0047839546899011934],[-0.010648327200635905,-0.005900445857580914],[-0.002293434692436821,-0.012484941477910164],[-0.010678418519804127,0.022731228379781202],[-0.020002511561303945,-0.015588144457451677],[0.019631449617310233,-0.0373703317351293],[-0.023983501835852333,0.02500898803626422],[-0.030381020247858232,-0.004600932499000801],[-0.0055246521572743235,0.020616988738594435],[-0.0011679782210928568,-0.048987087476490276],[-0.006973376451815239,0.03730497036739647],[0.005786857395371869,-0.00030986685081574474],[0.014223110300799337,-0.02296492337108722],[0.016346974118069818,-0.04118125662334906],[-0.0013568584681710296,-0.0251276330498222],[-0.004836402107262458,-0.03836664389862631],[-0.001065845721820026,0.029653342299269813],[0.0019966164484070217,-0.028274388720978205],[-0.012170513155478091,0.05159377871377043],[-0.002877391060923901,0.027130542926571518],[0.008140423487581813,0.0075295115011720344],[-0.000665110561184395,-0.015485754727267547],[-0.018738777645298247,0.009451767267694441],[0.0169153922672868,0.010110560925574072],[-0.007062939640993222,-0.014692391479609749],[-0.0012205298791843908,0.007712697165889117],[0.0030973656631094566,-0.034167698525808955],[-0.008008905468224196,0.005297311633085058],[5.669729817418848e-05,-0.028981643466207255],[-0.00520803443473255,-0.02607978040074993],[0.025280622551750155,-0.03544519882085206],[0.01179842484471735,-0.03140414843109496],[-0.00400702873889017,-0.04034317962853449],[0.01375009125059624,0.009363005737482681]],[[-0.01623179418586018,-0.0009632677051201652],[-0.01698163888081283,-0.01020021058068351],[0.0021273313372460593,-0.018161436248867516],[0.012223263363033945,0.002687177772333413],[-0.018127678719607552,-0.007748323991486059],[-0.00876291422003535,0.02573198426202295],[0.007301288357907456,0.00035353677664106466],[-0.016245688040889508,0.01856081927868284],[-0.008527884803352198,0.004894092304460016],[0.007707000517394679,-0.013857338606226396],[-0.017002857776151972,0.0010994638642907533],[-0.00048117941766137704,-0.004636325663937481],[-0.02922170886836067,-0.02097301114689487],[-0.039730327835112704,0.022876689931464293],[-0.008264296934188854,-0.023114270766548085],[-0.002518492607889806,0.03831429033170427],[0.015417837604861862,-0.026165108410009973],[0.004330963191731899,-0.0015139416590022883],[0.015050825624946446,0.03847623072832187],[0.020554834078558792,0.016707781405656305],[-0.0014805345578393235,0.029767596639739328],[0.015004285009840074,0.0337008151482678],[0.0005168494626445871,-0.0016659094827832597],[-0.019454243350077005,0.019387437946550942],[-0.01201280240638097,-0.006697151584382076],[0.0004091240853311576,-0.028702286985207496],[0.0008511439191187983,-0.002219332083740104],[-0.013123709960794087,-0.005551956057314419],[-0.026444286079810683,-0.002285582088185804],[0.03369181617123858,-0.007152396656472325],[0.014788499099619578,-0.01280111013411529],[0.0004699709218917729,0.0092917779584653],[-0.004291154556541698,0.029208811593288683],[-0.006306276812864448,-0.012674096657989518],[-0.01241995022057256,0.014479847587436895],[-0.01339499862315346,-0.0075181665129945546],[0.01794670432541086,-0.011933807867584374],[0.01199644627859514,-0.0025764243651704073],[-0.010962612190365218,0.027792840972797012],[0.008874401689806724,0.0020972848948291106]],[[-0.031995568451102095,-0.013429790274215958],[-0.01564818645332977,0.0012208592275769821],[-0.0011865949952176,0.013432838531246319],[0.007226720380801497,-0.012702964252585009],[-0.016575985058661827,0.03281025066778506],[-0.002216040340726365,-0.0024062352868284252],[0.008110408308802287,-0.008663421051576931],[-0.0030678362624721673,-0.01196179902396458],[0.008773553769714565,-0.007270802762041152],[0.0071473924075723325,0.0032183579541036557],[-0.0045509553088416265,0.015107375597013546],[-0.0017729308276327241,0.020316211886203025],[-0.019236220107507845,0.0389137266918224],[-0.0072640539454317905,-0.028138621684245753],[-0.010004629100806725,0.01474148525679267],[0.015466655241220715,-0.025290362578282724],[0.03642078069072988,0.028495932360467612],[-0.0021222130670166765,-0.01666741239666721],[-0.006236641479800149,-0.04197048643562676],[0.004937770502784987,-0.005378897201467462],[-0.020417938056548544,-0.015925763680667167],[0.02148068136820094,-0.001449740863327298],[0.005998177731908701,-0.006675509870453037],[-0.017736689525028722,-0.023561051102028007],[-0.00930169071271182,-0.01604023213456022],[0.005813409066232185,0.03748246433098215],[-0.006250686522334011,-0.0033922232803958717],[-0.015878666368098628,0.01566431964944611],[-0.00942855181833981,-0.004233093021853995],[0.0167370452287193,-0.0003971836396564576],[0.02364239625965974,0.017727505909264894],[0.0037500421662550742,-0.028804156314275166],[-0.006087405468877089,-0.03297146498351588],[0.003274433965985883,0.008772157345534033],[-0.003948242972261984,-0.01755212343380001],[-0.013865270552790198,0.032187769238363584],[0.008454414226584538,0.04763708896477982],[0.013657772212251878,0.017934997363427754],[-0.006493367302431997,-0.030243288578121353],[-0.013653979526864476,-0.014626722375884419]],[[-0.036342203599075355,0.0035105657238422563],[-0.011227084547812325,0.015498093127947078],[0.0012358758627835985,0.0036107128578708367],[0.009530914786332391,-0.006670093826216902],[-0.010215956744196505,-0.03453303056737385],[0.005885335086228825,-0.011180906249199074],[0.013280769184422624,0.01753651054487954],[0.02052757569886764,0.0008153318249689633],[0.019836979061601,0.01952043904105379],[0.006455055783470461,-0.002013430880281905],[0.00723766729445911,-0.02144162291251628],[-0.006156327333784661,-0.017917401854160367],[-0.0100525451257492,-0.0139419045787851],[0.022401236281187398,0.02455515625457617],[-0.011275321289730569,0.01745223725805],[0.014764276599716571,0.0007922285125775393],[0.027096650816946635,-0.008511546745090375],[-0.0029802886386732555,0.019627175561804995],[-0.02085047279287287,0.02996592938820212],[-0.0026534496226097493,-0.0005950104959195677],[-0.02205843185818367,-0.015579421528371022],[0.007766956688420501,-0.024957192213861577],[-0.0008946671690246528,0.009918375730697083],[0.005361582245779506,0.02242192688314953],[0.0009510618064041532,0.00652188592168752],[0.00998069805509281,-0.03182921525465723],[-0.016710775788838127,0.012225129148832494],[-0.015582608826461248,-0.014108149414870838],[-0.00919795405900373,-0.015085192504814576],[0.004841204508461678,0.013373184174936022],[0.023099255345872483,0.028908728345861712],[0.01919506122273113,0.02612967933355139],[0.0022184867501360726,0.001938274667018363],[0.013200870191056676,0.02359480490609657],[0.003461993625587455,0.029459777697540386],[-0.005003858501662379,-0.034405003087070736],[-0.011320202808277143,-0.04921168265098591],[0.005237368139038125,0.0022762303402924684],[-0.0031558959899015177,0.029732793531611998],[-0.027978520289928567,0.015398738629810558]],[[-0.018220595303234374,0.0039023454047368315],[-0.008626072680457137,-0.01916721133162282],[0.003653646058525738,-0.016974311894256213],[0.020807704064904186,-0.010247412432541956],[0.0006219604747304141,-0.0018641541022954792],[0.005082376564126512,0.01953113701876689],[0.006962820347778386,-0.04020173680741207],[0.030058465920311406,0.010700397585267316],[0.011229121124036602,-0.02486576948769214],[0.012430669553189994,-0.001138057106015378],[0.01673900773942348,0.001182881509737289],[-0.004511647018252432,-0.011950414855590325],[0.01051561826290088,0.001225899549351062],[0.028157180133698705,-0.011851037236251315],[-0.008577795553905723,-0.01128942526317525],[-0.0003045122453957558,0.012879346306867821],[0.006421852745412204,-0.01081654562627846],[0.001032438091903569,-0.0015587170497666186],[-0.01933061058640803,-0.026714773808970783],[-0.010133442018831356,0.014404623111532958],[-0.0076204104608330655,0.0035477552335052343],[-0.004153113785406558,0.027177453851432862],[-0.010424086268797027,0.007072863755790422],[0.016136022819831227,-0.021038272896118523],[0.007129474862274574,0.018367070635279568],[0.011748085512883828,0.02423914651715185],[-0.018873713524843235,-0.020184951054364582],[0.0038088000261086493,0.0006980329000979133],[-0.017459847393388954,0.012949092137596199],[-0.01124971512121572,-0.03058495019679676],[0.016836506410221063,-0.028193306702180107],[0.02523897335694749,-0.00722716234085801],[-0.0012635303930729697,0.0027369418735940037],[0.018578503099692025,-0.03446727776227657],[0.024359505719209498,-0.04596353651027275],[0.021423773361545793,0.0030099326386322438],[-0.024765182928684015,0.03874119931850346],[-0.005524382153302355,-0.005919242617422272],[-0.00691491838601111,-0.008707328999704668],[-0.029838217412752537,-0.012043446467651223]],[[0.011702447775605824,0.00034336625271370083],[0.003515488709910781,0.0011161700164470526],[-0.0055935846556930836,0.010255998693529316],[0.01543228989571514,-0.001926002367575827],[0.005767891044552336,0.016593362883619185],[-0.0013784904083045098,0.007121228253603643],[-0.0028478888245921973,0.04108422864949753],[0.01692072554890192,-0.01329554475806393],[-0.007223035339908439,0.01544085410691118],[0.01541930539662688,-0.0036708542765382067],[0.026742699783567324,-0.007004014153878329],[-0.002049446498328799,0.017208376585575433],[0.013536124938462351,0.01091741326674013],[0.015781232997597257,0.015948540745269683],[0.0008703269052232501,-0.003043509893808368],[-0.013861022254987457,-0.03125290924897916],[-0.015632202740324046,0.021527756575590425],[0.0010673722846912433,-0.00791180636537987],[0.0006900358965721624,0.021169732550461142],[-0.01812394684894471,-0.020551480424054143],[0.011420335607299657,0.02307060440372317],[0.006672347515680972,0.003209222085056394],[0.0005662928774353343,-0.0012247146173984425],[0.0018897491070315523,-0.008781183819005806],[0.005785921202425636,-0.031593337874722946],[-0.0010175656603477966,-0.015409848906493278],[-0.008784795613571594,0.02353493048050661],[0.019912403694360044,0.007697477245366844],[-0.0021082069038693536,-0.01347403227138381],[-0.013987024687971701,0.0330102223681307],[0.009581499592106326,0.013518743937695034],[0.008218147080586916,-0.015879335664463333],[-0.004280357549597965,0.0024696680060623576],[0.0178082864929637,0.04225200078634371],[0.03121684685728739,0.04847234146691183],[0.04211390297165817,0.018242675017177537],[-0.031909384681721685,-0.02483760343744309],[-0.021409358825020357,-0.016904413710738735],[-0.01628010706690633,-0.01732489502560702],[-0.02293132575982421,-0.0016526747367696124]],[[0.03137657888417212,-0.004507030865425383],[0.02286099313201648,0.005033502072385975],[-0.003787892965905005,-0.005831467950141932],[-0.01264476240377654,-0.0062937917372236],[-0.007624542901456853,-0.015412096225939628],[-0.008314283677831779,-0.020580522821600885],[-0.012049012734676639,-0.018616464611764243],[0.007446672222735725,0.013555924927189133],[-0.0019514666806898626,-0.006541623363723321],[0.007252860586809882,0.005450317233105827],[0.012499963065197406,0.03994582124259474],[-0.001672257148608863,-0.012923802548197812],[0.014692811932009452,-0.00411174975176868],[-0.003884708425444458,-0.0073394560389405256],[0.0010869797961815656,0.020183685818971717],[-0.018219977570275287,0.022110249501938097],[-0.020757498544018524,-0.015684378436036997],[0.005020825433535578,-0.006888077475452692],[0.012354817989455993,0.0032003588504563828],[-0.009036770622773421,0.024018324328246757],[0.007908105598803762,-0.025273111648353712],[0.021148608556319386,-0.026828096199686402],[0.010706360664261822,-0.0004208985730667408],[-0.014170355443144014,0.017891178254168593],[0.005724426286724661,0.030726797857395478],[-0.010441620911976092,0.012027114089415066],[0.003307034674974752,-0.010247787831342168],[0.028092593342880043,-0.024906858581379254],[0.02347330506028091,0.003073783630517109],[-0.03968024474155278,-0.013641987872993498],[-0.0010272201622238077,0.014780441929526105],[-0.013831801220592613,0.015594884481226628],[-0.002104946918386063,-0.030674023310889986],[0.02170819765656867,-0.04485848434076925],[0.024263982683559043,-0.029695936534177014],[0.01843826957754885,0.006002162753890497],[-0.015715913907328596,0.0016335102411252098],[-0.016705331236883277,0.033978537091385666],[-0.006418244236737446,0.019480882654717115],[-0.021083576557620956,0.010752868399985113]],[[0.0219847748926048,-0.007303130341557615],[0.030285963516304647,-0.011650205264816383],[0.008743169839573527,-0.03134190166665969],[-0.019543611488532953,-0.0013302281171932956],[0.0007168510101952884,0.0023323645951661316],[-0.007686854164695037,0.0300563846010182],[-0.012052147194936526,-0.03357724261662328],[0.0022829379170815935,-0.014285469595068684],[0.007664757719387609,0.008019637517471024],[-0.010837007493024442,-0.025926948101395373],[0.00021356085134550037,-0.07378624642538124],[0.006347021658532128,-0.002359826409236344],[0.020672206870088024,0.01800820691975659],[0.002634063148490458,-0.0032783691556816535],[0.0010075074651350146,0.016279580759931973],[0.0024958172328241887,-0.020843490980497148],[-0.0107628668570836,-0.0009197727572113138],[0.004666460673692402,0.042267339946064096],[0.004758275144118806,-0.03328846588636015],[-0.007210945434950345,-0.023607714145729444],[0.0020443224546572375,0.00489510056910565],[0.005587295520390181,0.022417569880694366],[0.002132920580171519,0.007526775270761917],[0.0010517253043574363,-0.019685927837344113],[-0.00256876373458382,-0.02910287500597427],[-0.014603720836300524,0.01248747001447852],[0.010064382972314725,-0.010570165245499868],[0.016252667914912165,0.0059234459778281755],[0.032568993038179804,-0.0039901033242967865],[-0.02848949249326402,0.00646383319764503],[-0.013837563493930085,-0.014959348146386144],[-0.024804957543311718,-0.004283772052612048],[-0.0041612381568942435,0.02734234454656194],[0.01460357607463941,0.04751266849892323],[0.003533706164513241,0.013830541948820465],[-0.009744306944362105,-0.0224786696095753],[0.000968742085460029,-0.004770976502043697],[-0.011304305167597697,-0.03953126723069862],[0.01085921596003677,0.00224010161691574],[-0.0011548636520291684,-0.013226421895099103]]],"a":[[-0.005427683576485789,-0.0010259953929969276],[-0.0034674449218938938,-0.006424522983427743],[-0.004384836576035654,-0.001590605533404114],[-0.0068172672250453705,-0.0012795440146379856],[-0.002238768798489268,-0.0012785878345129545],[-0.0026863928386717424,-0.0016541729141100981],[-0.003913361427305547,-0.0013693281327126611],[-0.002159966002272766,-0.0015644797568616243],[-0.00572515767200102,-0.0030501817626589845],[-0.004690970727199546,-0.003113963643065911]],"b":[[-0.0003091400286479116,0.0022328465235938325],[0.018106548519956953,0.004199065939949761],[-0.012045628264921936,-0.003601811908262957],[0.005449478216578352,0.007600691013777303],[-0.024033273338348846,0.0019528267435007611],[-0.007005262345806643,-0.0024471745456572107],[-0.0008630031729142934,0.004344451138190894],[-0.02427854287619132,-0.013567193057936733],[-0.0035069956845174832,0.0078028264187946],[0.02473191694382361,0.013458588604324067],[-0.019348577130793077,-0.006343131850160429],[0.02199265519465684,-0.0014935596037340447],[0.005598102042643751,-0.001234667835297294],[-0.011006145306778292,-0.017063539943310915],[0.006236658396533734,-0.0007366067734337156],[0.008229196453966345,-0.023407459223358674],[-0.014793984124721292,-0.010077884154897866],[0.007436540229552768,-0.015474913400528617],[-0.012814279169815508,0.0009661006356808009],[-0.00400895472886866,-0.003671789613948685],[-0.0074836576030746695,0.006138572179581491],[0.003431493685553975,-0.021845230075588643],[-0.0191654022814014,-0.012526621853926874],[-0.00822492642347963,0.013281719536711463],[-0.00278896314906934,0.00023588205761201103],[-0.007076018047754693,-0.0073716824042146445],[0.011046720960230846,-0.0051128767561256635],[0.0037740678818746773,-0.007617574034556762],[-0.0064099352450747785,-0.004433900999486982],[-0.017680263951456256,-0.008880502712586174],[0.009198731823409224,0.016965922540335906],[0.00010725149474320563,-0.009048968846732374],[-0.009773248442291216,0.0032233808420827578],[-0.0037848691710292842,0.012061801447174832],[0.00342000673232849,-0.004374341138481763],[0.005834838993499377,0.010216330244276829],[0.0038225592445742334,0.019298525766988005],[-0.00021000331393598566,-0.02451620501584608],[0.011738404779395136,0.001101136037166343],[0.014577959532067954,0.007406186421583006]]}
