{"Name":"RbmSpin","Nhidden":20,"Nvisible":8,"UseHiddenBias":true,"UseVisibleBias":true,"W":[[[0.0059957774893940625,0.00931140708290397],[-0.0075635432137583876,-0.014232798207370093],[-0.004479818126991236,-0.01795078406857372],[-0.003766328592009066,0.02275198408624249],[0.0094223536539341,0.0007046330159708369],[0.003748053580198007,-0.009547444683980345],[0.0026822623080408506,-0.003038354760377499],[0.003004637583703413,-0.007379200251019027],[0.001100557524007422,0.003596616788036436],[0.0038656875603641466,0.012631241241064215],[-0.008653105795887888,0.0011747152231401433],[-0.0012583089640922154,-6.57380072907409e-05],[0.005413688431868846,-0.006238972387590773],[-0.00400578084632593,0.01353305503575861],[0.0029986338609961694,0.00765446031823173],[0.001709249798110696,-0.011902628804241139],[0.000368189737217453,-0.01048523407427482],[0.0018399712882321863,-0.003965916819626587],[-0.0043165377459443615,-0.001651828416993329],[0.003422761896963453,0.0002991806977200803]],[[0.009667009393956524,-0.009155198131104759],[-0.004983758532714461,0.0002353231834914048],[-0.00018466545464685628,0.014634921721569097],[-0.004387178760891189,-0.003346986821753895],[0.00880850487199381,0.0009994957583050145],[0.01175857692693464,-0.012065996247918721],[0.005082427649239352,-0.0034528656638040446],[-0.003169654478160853,0.0033829997700638896],[0.0025155875370217115,0.0029928690075357355],[0.006629720327517905,-0.006830869765870651],[-0.0021887615839548706,0.0013567679334880124],[-0.0005413097822891427,0.003495780720903745],[0.0009418366199334962,-0.0016882983818235374],[-0.0034787980098004998,-0.009119492068235575],[-0.003671823968624583,-0.009477745046650256],[-0.002608462712780537,0.017404815460119263],[-0.0005637589826422373,0.011758607625537203],[0.0004323689476744908,-0.0021924606491082986],[-0.0042911984617961816,0.0015918153044995683],[0.005626962309879488,-0.008543496053916286]],[[0.006790826379412737,0.011707801323690868],[-0.013494388551716209,0.016736245821563935],[0.0009219567859087814,-0.029753728246021648],[0.005454805434858585,0.0060951886451649125],[0.004508904837596653,0.0021297280083881764],[0.007930668587432346,0.000899888655461158],[0.005612622867870967,-0.00035624352237447664],[-0.00581475168665142,8.912511440674039e-05],[-0.0029350851595725718,0.004248493603270273],[-0.004012648673761382,0.005493684382271513],[0.003610420186532952,-0.005859434793979811],[0.0016863702059533798,-0.006865366784389807],[0.0008112646832088164,-0.009933246283427179],[0.0005091214414844232,0.004869669279386903],[-0.004181594819304751,-0.009655769049177301],[-0.0037210928497294,0.004289091671723308],[0.005122282032899015,-0.0043552779919333925],[-0.0038922955980229624,0.005405340050117701],[-0.003414512062571995,-0.007540095259492537],[6.945078969126505e-05,0.002233963057121069]],[[0.008620455982504091,0.008868535173650275],[0.005286487590595912,-0.011295855047689969],[0.0039209290189726785,0.02383682451407279],[-0.0033792904475890796,0.013138626195835622],[0.006834904334455839,-0.003936373613252386],[0.0044366360656048365,-0.007841851443161017],[0.008198976539114033,-0.0024890572679397106],[-0.0012550479703119666,-0.0034487724290288126],[0.004848939223635501,-0.00377783649549893],[0.0020846338248458485,-0.005968254757808801],[0.007804942419760293,-0.005256910863179308],[0.0006011587642381151,-0.0016022225525583961],[0.0008138299227509031,-0.007879559528228192],[-0.00277032466349941,0.006427336575246599],[-0.004998366593360118,-0.009082872540732059],[0.0005876410589190779,-3.5214754392109117e-05],[-0.0017719327775899936,0.003833378736602958],[-0.0014150270903181528,-0.0013297351501374373],[-0.0005207027110886494,-0.005309829295091464],[0.0064865684429573625,-0.0076165164051653815]],[[0.006294523627031894,-0.0016085104539611227],[-0.0039110848811441164,-0.00606837514811826],[0.0026911823052028954,-0.024400878615744453],[0.009774120330264419,-0.009766096246000338],[0.0029146125596052137,0.0003195672632174014],[-0.00230652081367508,-0.016407981308079723],[0.008201497409899172,-0.002964923313485177],[-0.00277141545286995,0.0006193213290575867],[-0.000463590110063734,0.007624741162496095],[-0.006966308115911399,0.0038735258989804474],[0.01240407157998491,0.0019765201805364754],[0.0021920440178838986,0.006028767762989241],[0.0017915702660104382,-0.002039824041852262],[0.0036568040859481406,-0.008961451710478336],[-0.0007594009070157337,-0.009098783921394616],[-0.0021041096886034996,0.009468074737033937],[0.0010120770934374758,0.00402417235659216],[-0.00553703883172324,-0.004030128593646787],[0.00036751059834484506,0.0048704341202417505],[0.0017017566519021221,-0.005239498592360131]],[[0.0042290462385430536,0.001391547935134936],[0.005070669506437388,0.012262189200988054],[0.007822307107663788,0.01914312283190293],[0.005178827318032329,0.016735103739386567],[0.005664510317621571,0.0067473853444935126],[-0.006964638897690211,0.005886796207427303],[0.0070263514052725795,-0.0018854618017997598],[0.004762738920554551,-0.002565121332168646],[0.0019585934325499796,0.004914814289198177],[-0.005299677688165645,0.008134092899396213],[0.0064906661667993755,0.0008917432687445438],[-0.000338022257348819,-0.006206401389159775],[0.004924946361032292,-0.008311213531944656],[0.0009610415692319842,0.006926265142849168],[0.003822172187423454,0.001164816977029749],[0.004117205638278754,0.0029238932181474206],[-0.0014016502345601386,-0.004711529396664995],[-0.0016469867980347108,0.0028878922402834476],[2.437472274371727e-06,-0.006910262821370306],[0.00362621223490631,0.003206245671101923]],[[0.0071309295614809375,0.0024738539243663506],[0.0057610366327162646,-0.009119992144484182],[-0.005853099705991349,-0.02797522376362599],[-0.00291493318845495,0.01403699604536283],[0.0093319091647037,-0.006836498832312725],[-0.0030417695784544277,-0.008733840700545828],[0.005159863237856134,-0.002468491489002462],[0.006575535352183668,-0.0013907235923856472],[0.004822455442421426,-0.009515431688634316],[0.0041650575018936644,-0.02027241737933221],[-0.0028251364305401654,-0.00459356708500845],[-0.0021191946026786522,-0.0012547484253233776],[0.005838590754499495,-0.007242141686665599],[-0.002086812450597573,0.004384450972728822],[0.00510768102304879,-0.014916570444780557],[0.004060490239324893,0.008610536319129622],[-0.004940838554411188,0.015046421851302427],[0.0022907454955864133,-0.001956337727683057],[-0.0018822572376283836,-0.006562161849166791],[0.006827000942571158,-0.014282035759942231]],[[0.001729678973193055,0.012346465288385115],[-0.011832566053869288,0.008625248082233921],[0.008754653522148373,0.014215869851388752],[0.005668397958136199,-0.009286213361133035],[0.007999624802683881,-0.00011756538854671382],[-0.002227806279942901,-0.008221298847018886],[0.0010010248793348412,-0.0007419150842198906],[0.006790821692818042,0.0022355597246693465],[-0.004157109927233576,0.006552340775089282],[-0.005016550032673587,0.004944849409490342],[-0.011855546814961024,-0.007196944444595689],[-0.002705223829769899,-0.002084808424507879],[0.008016591552799249,-0.007640172102438919],[-0.000514708035832429,-0.003991387627541695],[0.008974187807752384,-0.015627853743727105],[0.004196310168472618,0.007258752385658644],[0.003726381853144678,-0.0017196260089311723],[0.0017850700576481134,0.003547076570589985],[-0.005929223152017607,-0.0024647117337535983],[-0.0008642999860616332,-0.0004033368900545331]]],"a":[[-0.0013194045749900804,0.0076142270692519335],[-0.0035286096412769684,-0.01137249905334052],[0.0030850508995094216,0.007159841347717315],[-0.006192982218432723,-0.011855200698374703],[-0.0002459121139414622,0.007795828616226895],[-0.003407753373033299,-0.01670103699283064],[-0.005111576595004506,0.018253116389431494],[-0.0007746965216907768,-0.01602985322583718]],"b":[[0.02972835958181373,0.030291198246801595],[0.1402068197485112,0.03643119417164109],[0.5497123202595532,0.04187279664828226],[-0.11986127884163464,-0.02171935703206893],[0.05470422012570878,0.018619472178781647],[0.028691038683004558,0.021672889937763572],[0.009580074850211819,0.008400698936600517],[0.03926848987348752,0.0024227463563959066],[0.0909678620839447,0.016342113653070457],[0.12205716525703239,0.02666582113247888],[-0.015600524886459273,-0.007407208805223929],[-0.02333226164821589,-0.006674242229821943],[-0.004540025901577395,0.003839216783945254],[-0.059600466495788,0.007481237144342229],[0.0019346148019860445,-0.006359660591183091],[0.02205867187663266,0.019023737334674252],[-0.08760009006919069,-0.022429545092247587],[0.04703251379330146,0.018922005748910408],[0.011759327682365654,-0.0021540461947601283],[0.0853044053399838,0.0214215921641488]]}
