{"Name":"RbmSpin","Nhidden":20,"Nvisible":10,"UseHiddenBias":true,"UseVisibleBias":true,"W":[[[0.0028800228668519143,0.020615796836983346],[-0.0037723372438504283,0.0148049442488362],[0.005668890140967675,-0.006018985524223717],[0.0038977507614794886,-0.004706484049372779],[0.004551215278427905,-0.0033200629876571366],[0.009703233570023614,-0.001954622941849468],[0.005967627943251578,-0.012618164140974103],[-0.004057928701647501,-0.0003399450334546938],[0.0014255585197223174,-0.011168863323504764],[-0.0048828891730581525,-0.005293083982344998],[0.0026760937386537892,-0.0011960340502238315],[0.0022337471405343918,0.006044918133552507],[-0.006379693971639722,-0.011115412976395268],[-0.0022997816125986284,0.009180548604381776],[-0.0041833699402342795,0.011814695129664427],[-0.0011801976329292717,0.002358641841347605],[-0.005838293703625368,-0.011707082191511588],[0.003650711917557163,-0.012896364305129034],[0.0025170669128666756,0.019319049337365078],[-0.00195611213725344,-0.0010463498531008844]],[[0.003853277362763664,-0.01801886457775004],[0.004755232886633769,0.006443275726374919],[-3.8032594704097075e-05,0.003007340037592499],[0.0072150346126518515,-0.008990246837464182],[0.005344930943790568,-0.000953351952288175],[0.011053569634088337,-0.004734498436814356],[-0.0032790134932853755,0.0016041620343507086],[-0.01008266353771665,0.004309110049919152],[0.00731358665072382,-0.0052003150536906444],[-0.0009819705895781682,-0.00039762947867893084],[0.004100276390877016,-0.010274653100759428],[0.013900533162541064,-0.007958295053335982],[-0.006282732287959508,-0.0022860305324404594],[0.0079172366755394,-0.009705382995265773],[-0.00015315890252403513,-0.003998225379353568],[0.0012266012107159075,0.0003861161206716443],[-0.011185123490413985,0.005049134982765901],[-0.0029043922081817856,-0.0017719775015411685],[-0.005836596405376431,-0.0025403703064902352],[-0.005221536553237526,-0.007788470662526592]],[[0.0086729827736992,0.013020696024471857],[0.005984963088230408,-0.0011568253000413438],[0.00627736524122099,-0.0006830990470885979],[0.002977132831620901,-0.0027995417351491044],[0.0027363063226697533,-0.001374685268068854],[0.010567419835033894,-0.002844858483957051],[-0.004842879433363865,0.007647848154619857],[-0.0004433177107490524,-0.0030787668317024284],[0.010331392034217401,-0.006646349179379022],[0.0022254451965693523,-0.0026706676332179003],[0.0005613567790469921,-0.0020622262416985135],[0.0007033703677221306,0.002185777743232841],[-0.0003715769017666416,-0.00691348983287406],[-0.006187826497652359,0.011152248152035653],[0.0015894241944952483,-0.003980129048497395],[0.006110476868462731,-0.006501013292199136],[-0.0039144538426882595,-0.002895185081687613],[-0.003817831177055199,0.003789324342325073],[-0.008737207987697983,0.011168279609490036],[-0.013827684708748055,0.007520780439894273]],[[-0.008072515260969335,-0.01865429722825858],[-0.005654094570681224,0.017905411626770736],[0.004971035430587043,-0.0005890327960958069],[0.00484091888869148,-0.016302341679414724],[0.005601952866074582,-0.007229634687328927],[4.8928710245210575e-05,0.00401796938373388],[0.0015912680378833916,-0.006374789552717826],[-0.002855876616599547,-0.005850953995889294],[0.016028095915814437,-0.007913891996386811],[0.002475686704663156,-0.002506981487203002],[-0.004086819502865046,-0.0014848620382702728],[0.0006775185974282174,-0.002130500806842148],[-0.002396962541660764,-0.00336843189967355],[-0.002489724839913175,-0.0012911576410312095],[0.005748634755511007,0.0027166738291257812],[-0.0024261055416609535,0.0017040447825259616],[0.0013009491019538985,-0.006696403495489909],[0.004134821294375646,-0.01285159241350075],[0.004748497182226217,3.346141404573396e-05],[-0.005908272834610879,0.0016256943684866457]],[[0.011220394895967836,0.005890210827341269],[0.002520139793792648,-0.006167238758489697],[0.0034996698425280408,0.005339707870438337],[-0.008883332347341968,-0.0037163517762526938],[0.00269625560314001,-0.001511018031241167],[-0.002177012614056813,0.005661617720285183],[-0.003529895868070982,0.006634518339558274],[-0.006222359048965726,0.008930570140383768],[0.011732279764843465,-0.006466280439209663],[-3.1746417671629085e-05,0.0021334660439382277],[-0.0019682467727321767,-0.007639378438046389],[-0.005784759143968213,-0.006719026959559513],[0.0016302790556347597,-0.009456665865700951],[-0.004469166449296814,-0.00282201514966445],[0.009709469706369383,-0.007008878395809275],[-0.0013276661953233763,0.0028913897306102696],[9.354653152633392e-05,-0.003440073325990365],[-0.00209902542151912,0.0025297119724336675],[0.010865061474186179,0.009627481596963961],[0.0013721924155117552,-0.009088849730756994]],[[-0.004654008499731955,-0.015057007241591817],[-0.0038643963762673562,0.012682970531347268],[0.007540521712266316,-0.009076154593795693],[-0.011419708714424884,-0.0006648774925446482],[0.002873957530333483,0.0030634694000609922],[0.005460529866134458,-0.01598593869013416],[0.0013945806036205935,-0.0034962478799428027],[-0.0049311402613647255,-0.009882265021273748],[0.0033039183304789986,0.00016499950547492297],[0.003588723199498472,-0.0033339052117206747],[0.003651319860605891,-0.008036749758960961],[-0.011953261514252689,0.013032771713994406],[0.005269780818212059,-0.004456415891045958],[-0.003269813942237001,0.01188827573086923],[0.0020908201094331147,0.0027131238704905434],[0.0033256507343271363,-0.008635037698454908],[0.00010978464312314971,0.0016014383152834636],[0.006066854296533503,-0.003767680443903045],[0.007135613293205154,-0.0017711670081602799],[0.00048090334270428983,0.0033400690680033926]],[[-0.0011889692258415796,0.008332243088657388],[-0.0034764151120365407,0.006298166828265383],[0.0032204180515079976,0.008087537236361093],[-0.00111642090792033,-0.01143459266954569],[0.007638824885562602,-0.010628599813652804],[0.0019727119325949906,0.009361624923154366],[-0.0012009880893414267,0.0071683582581647445],[-0.0031010373543158697,0.001020344487024447],[-0.009660098684203127,-0.005686916120391751],[6.748703279040665e-05,-0.00285046246437531],[0.010779016465189077,-0.00034112993380427107],[-0.005025779808362229,-0.00953453831801523],[0.005069359491075261,-0.003284692254101311],[0.008560570888269926,-0.005977615841724371],[0.0014555378126741656,-0.004482951431449297],[0.005545021075539088,-0.0018295748418403785],[-0.0014446402830013767,-0.0026991847797946944],[0.011959480086767432,-0.004325147303369345],[0.010207887067148662,0.0008044356059402001],[-0.0004048281683961517,0.0038213680071533056]],[[-0.0076528240316511105,-0.020845510380025592],[0.008935005810393658,-0.002551562140071375],[0.004007921783365374,-0.0031349625163249427],[-0.00013213527658686823,-0.0037537314111943487],[0.004127004508274703,-0.00019378452028882113],[0.0006540888755161133,0.0015937608473382],[-0.004717508119022216,-0.0035218742608764207],[-0.002907889260919521,-0.0005063294655321551],[-0.009822366287806987,-0.004785084113192201],[-0.006065268133566455,0.003757885583011805],[0.011275692152978084,-0.005436595260802538],[-0.0040644075562971185,0.0036208040807795094],[0.006363491231378938,-0.01229555445749367],[0.00048707130345950096,0.010894180168288374],[0.0042757027183169816,0.005918788129487525],[0.004111248324365302,0.0018105687047398227],[0.000700814151727474,-0.009637689176434833],[0.004079538701650523,-0.0018408721854831875],[0.0017036099788193034,0.019576655014207755],[-0.0007172284661424207,-0.003857034813506911]],[[-0.0055706815736992,0.011833617435709702],[-0.0011759987679739216,0.01109046469654891],[0.0074150879872680936,-0.0011752345789392406],[0.014209380845558214,-0.009016939776688652],[0.004072547112357416,-2.0339252095755806e-05],[0.002927607053547404,-0.006394432926809433],[0.006752329381431008,0.001113662952533651],[0.0034651705573115364,-0.001015598701058586],[-0.009939742405720983,-0.009409108627091383],[-0.014791639513799484,-0.004289224940512717],[0.007569965449956019,-0.00612970096103884],[0.0005194143476227079,-0.001591888491444678],[-0.00612541560917833,-0.002328479653938623],[-0.005686791832004471,-0.0007342561494356776],[0.00023843378959686025,-0.006606388156525667],[-0.0034412945692216933,-0.0018955852143518902],[-0.0004248125055178366,0.0014471466297970386],[0.0071678226135596206,-0.0030001552827196745],[0.008924787100437221,-0.0024813549993465828],[-0.0007036964133912248,-0.0005958180107112132]],[[-0.007748781525462843,-0.017459493069208118],[0.006547890934691431,-0.003153574535697831],[0.005216385306209148,0.005333336339429524],[0.005730145510084633,-0.0033853503285874195],[0.0018689836191003245,-0.007321708959507773],[0.006480524556495172,0.0071312911241923765],[0.004965184498682572,0.012041715246018684],[-0.0050963031957081285,-0.0028316803144932744],[-0.006179792917721666,0.0006907072296864127],[-0.016395313565084717,-0.0012812604087507767],[0.00556616744672725,-0.0035169445579140536],[0.004183127177316462,-0.00075351338565304],[-0.007723504976470827,-0.009128003682070882],[-0.008701005171634323,0.0015542109501449327],[-0.0019061046259084052,-0.004256301460385058],[-0.005327353611408982,-0.00762454961113749],[-0.0048692229071815646,-0.003756248869090543],[-0.0018910845016740056,0.0007317525968624345],[0.0009299953005263324,0.004858137910350373],[0.0034386792763236892,0.0059726343903507405]]],"a":[[-0.003458841321561915,-0.005904201668266081],[-0.0007287033713366193,0.007764397658464303],[-0.000950647040498357,-0.007361081140814185],[-0.00048086393782261795,0.012944176169765087],[-0.0035149566108790414,-0.006349431811719422],[-0.0015884301050989235,0.011361382494627611],[-0.0036903950525122306,-0.004209027762304813],[0.0022668463291278546,0.007513016111376772],[-0.002971148736590869,-0.003550933373173075],[0.0018178262176690267,0.005218909884806491]],"b":[[0.41931185578361685,0.035959337478159235],[-0.11156945367320965,-0.013639778905209782],[0.04600415845722924,0.016311015237005552],[0.053591200369318075,0.026364594175029555],[0.001873726274293639,0.006760085219199703],[0.013858844845162227,-0.007048392178619947],[0.08463822247203313,0.011250028341192481],[0.10023185125824921,0.017765523408076266],[-0.03124625564043613,-0.007126662015852383],[-0.008461812031359985,-0.0033668804051012807],[0.016426947541032775,0.00975979227970381],[-0.0615602114842555,0.011104109834256484],[-0.013977927216558344,-0.00943126112282621],[0.02097403502255148,0.020840478584775262],[-0.055772118449711784,-0.011138534283066456],[-0.0018762496879178763,0.004525147364413732],[0.007809839606075483,-0.005423685332503996],[0.0827395223533203,0.014620476745997051],[0.11381438098757476,0.015128255215221287],[0.005711037274471199,0.0021605927053968592]]}
