{"Name":"RbmSpin","Nhidden":48,"Nvisible":12,"UseHiddenBias":true,"UseVisibleBias":true,"W":[[[-0.01174798367911339,0.025946739674486553],[-0.0012647229691826252,-0.032165423161836564],[0.0023920467103773105,-0.01957042296121283],[-0.0005080310158108018,0.01429374377428467],[-0.0006021300791083754,-0.00632219137770146],[0.01113232746613336,0.01031346879720047],[0.0025327846631157383,0.011940398893726613],[-0.0012170121091828814,-0.029365704539825555],[-0.007567831456050183,0.0028953021171721455],[0.0018517652297204354,0.01971056328304618],[0.00012006337932723093,-0.005154590507725753],[0.0004743803964878484,0.007456377629515098],[-0.014588554009802874,-0.003268758403867921],[0.017310339097132893,-0.004340375648649649],[0.0018321443187968509,0.018759579771394835],[-0.003029531280225746,-0.03068920126568343],[0.004811461459998582,0.008142909301957827],[0.01595833348413747,0.019567841817777588],[0.004042609713770285,-0.021533390686376917],[0.006885517152907687,-0.01273828518298812],[-0.012688257564888289,0.003532864135020462],[-0.00461478637697854,0.0020748514186579477],[-0.009964286864252204,0.003453026881099236],[0.0011255005808651635,-0.01229085668777383],[-0.0009240846346624051,0.009153451543025005],[0.00029833501589429233,0.013976961692081213],[-0.00015716874450241448,0.011507466397137758],[-0.003120850325052084,0.001042260840457363],[0.0011262281289190366,-0.01718284626060762],[0.018437180722622844,0.014400283818408908],[-0.006436154951010406,-0.009265369189000698],[-0.0004020207862641303,-0.00860077501099813],[-0.01551631202525673,0.0031994793284373753],[-0.009849438963736475,0.016263144890244264],[0.0008711533584098518,-0.007969900797827053],[-0.009200647872407519,0.007748957419980453],[-0.011572552818088994,0.007262638792995483],[-0.0005907409065645681,0.005289923265225182],[0.0013636356239643136,-0.006814286892612731],[-0.012970388789446625,-0.01078491348324731],[-0.017671650500305558,0.004712975843833904],[0.02748838232672507,0.02424542805547811],[-0.017124034107920363,-0.02213911060169927],[0.0037416472076462442,0.023666874550082803],[-0.0038068661057760337,0.006182878804787824],[0.002439828712275961,0.009058094924931575],[-0.0058083050249972895,-0.028565778834196663],[0.004625172944116775,0.009431258661207533]],[[-0.004541653965698779,-0.04033613188818791],[0.006420811575799399,0.050992181973548094],[-0.007794648079154262,0.011936356353539962],[-0.007335249569528626,-0.011671984730697065],[-0.0037004665624435023,-0.020530950498905045],[0.011478334235224994,-0.004473844220723872],[-0.0031056223303382244,-0.0002651787645230562],[0.0022456476836068997,0.0027211869363102845],[-0.005133874511858167,0.00380666396028562],[-0.00970749128251241,-0.0021006734736477573],[0.005460928097035482,0.00488113348320173],[-0.002657142032710135,0.02574592371205497],[-0.011119362985877622,0.04055875717424734],[0.0004473849007434733,0.0011728300220102553],[0.0025619896070148635,-1.5729769516738346e-05],[-0.000122504819973261,0.031071729182618323],[0.0020183772920255795,-0.01787846190853023],[0.010363790776169725,0.010220164057809138],[0.004192140841284261,0.024727141611882403],[-0.0004961659582967127,-0.01798246975489261],[-0.00799540657947603,0.010057556273853276],[0.003034571736133887,-0.0011641731383749832],[-0.0055536382335466886,-0.018673851787600834],[0.001322934044644916,-0.008319306305347097],[0.0030595241888632186,-0.016650340801288382],[0.002784164355240272,-0.01631903625937122],[-0.0042032339323720466,-0.033234233636411065],[-0.004480548670614435,-0.006452405336782904],[0.0064387657331025465,0.01715110339007284],[0.010403456798612083,-0.008878262359565509],[0.004901587737008016,-0.0015978379616665725],[0.0023506072699170035,0.03349461669878381],[-0.010621770220650023,-0.0073055713567768575],[-0.005106038229073758,-0.024068070836811926],[0.002314916732876926,-0.005981560052079836],[-0.011730574959936306,-0.01287420039640085],[-0.004413898884678963,0.01654670758679046],[-0.011033558300806172,-0.015625704649152146],[-0.004974704547454328,-0.0005951576820756232],[-0.002330905588692777,0.0020285165128015523],[-0.0003697239600480565,-0.028063437974787987],[0.017081771527418972,-0.005361118415116],[0.001046607265286378,0.005086538556343842],[0.0024314176879181052,-0.03613135428919136],[-0.004216293059268679,-0.0036319260329753995],[0.0011541390554866684,-0.019784648431969597],[-0.007926297356471228,0.03449293273433153],[-0.0020913366982957603,0.021401158502366395]],[[-1.1112867370019743e-05,0.012718902682281548],[0.008584152278694763,-0.026776249631098075],[-0.020279839846154522,0.005661985188908562],[-0.0054034759987432205,0.00812019465303148],[-0.007873017519514814,-0.005216161976131385],[0.01359333783536778,0.008939652411406932],[-0.007606534178123334,-0.007317661487636216],[0.005001454760777585,-0.017387313793071697],[-0.006504708693586102,-0.02693151701735083],[-0.021218287502885305,0.0039354219424236015],[0.014493690163749757,-0.010064831319510784],[0.003631681243370677,-0.0204175875806301],[-0.005794530905320003,-0.007664210299761424],[-0.010123752172457796,0.0008971513096079682],[0.0002224193108328559,-0.012795374118523752],[-0.0029855040874582285,-0.005187342875837258],[0.0013587704491994114,-0.004609062327340571],[0.020768574492430757,-0.022896797481480595],[-0.00403774604217967,-0.022117520892024404],[-0.006990342384106674,0.021241712125396387],[-0.008868395818342733,-0.01951208777103074],[0.0021954501296113332,0.00857876229007295],[-0.0095051908572061,-0.0009842458696985097],[-0.0010935961590677616,0.010121676157618102],[-0.0026251843012416883,0.0021920009080314638],[0.004907798494148075,0.015781586773325702],[-0.0096629040552193,0.0023864728705164187],[0.0017494919434516173,-0.001746835183898143],[0.013462128038837317,-0.006999027130714243],[0.008146222968370474,0.015564567241590927],[0.00891584520890626,0.004468416974615006],[0.004476910330224274,-0.014148124589801206],[-0.009668495491040107,0.014787163275443724],[-0.015590288490513242,-0.0009982304280030645],[-0.006880443688936525,0.023411068095172297],[-0.005449402988198599,0.021979573720198774],[0.0060979747089008,0.0003019048227528792],[-0.01934900590083453,0.013081472648733973],[-0.006193451215231395,0.005591257289699217],[0.007947648992228655,-0.010662029931756077],[0.005291307331742136,0.022296830942669994],[0.010996367827063893,-0.013445115319716438],[0.0030430036871374106,0.002530054463984678],[0.012991846203495081,0.008580596562549152],[0.0023447916767711263,-0.004915179072886007],[0.005249527877405639,0.01421852637847857],[-0.016151448429903466,-0.004087198560066995],[-0.003397102158299664,-0.020443752711033096]],[[0.0046920256904810845,0.011633027251809935],[0.007678368517180556,-0.01071226217820391],[-0.014613937732988757,-0.018288112555146497],[0.0024517338574241185,0.00016122014147712126],[-0.003866603059381502,0.02730116131373555],[0.0049720914121377914,-0.03398064030785623],[-0.0002689277581931787,-0.020813300808808916],[0.00582344471521164,0.00456621720168779],[-1.466511359235596e-05,0.026389878586997942],[-0.015195348716833455,-0.013923962811608102],[0.010004396730972705,0.0010544527642921075],[0.005851621341552431,0.03701648946259386],[-0.006567441689248257,-0.012980164020005933],[-0.002793198475835277,-0.002300853321030357],[0.011246163754489433,0.012602401359210263],[0.005276845489829558,-0.01014793970341507],[-0.003516942265648187,0.005028145793541269],[0.007689298126498995,0.03328946223386363],[-0.012458237776408216,0.024812378414443927],[-0.0075101938204909955,-0.03417584690637702],[-0.006298736519554041,0.018366860936126977],[0.003424011137094181,-0.02571305859801975],[-0.0020300373102175554,0.013618610844646191],[0.0003201695992179091,0.0007525235492376914],[-0.0001721837107983695,-0.029648897610526158],[0.0025174505886858076,-0.01927361099385668],[0.0032817024751341443,0.02345521896138115],[0.011070788775265893,0.014344252546126809],[0.008331439968346337,-0.005430563034052662],[-0.0029422958809654553,-0.01924775235401022],[0.004004092093956713,-0.003168755957876764],[0.005445336491974104,0.0119890294012537],[-0.0009006200365566371,-0.009679267655998572],[-0.012493728225588363,0.009374162299521666],[-0.006223290361806171,-0.004866066178734171],[-0.00651169481829942,-0.025830984934888127],[0.007681949205674147,0.005559405618373377],[-0.015283705984495391,-0.010093393870547496],[-0.002681564091769151,-0.03414744406420743],[0.013067045218400923,0.016149637655129973],[0.004329688115224475,-0.009890382719419324],[0.0025606523883056286,0.016511375555143277],[0.00449005430067148,0.004599744005435931],[0.009979249927328692,0.014919942542065745],[0.000178715803107471,0.009953089499021166],[0.004705344761180459,-0.02786316500811608],[-0.012003835814340585,0.012584284090820826],[-0.0061335689534985725,0.015288665322663783]],[[0.005880917876432706,-0.006265197760915178],[0.006916485691065734,0.004243031181488609],[-0.0016736741791111022,-0.011728236861906665],[0.010865572929005385,0.014013551656152697],[-0.0017683709281338018,-0.00688290555188627],[0.00940267567018892,0.006892102843227136],[0.009343679658922866,0.008937647507059185],[-0.0005984987181324217,-0.019533603334499335],[0.003390342943625913,-0.03851348770702008],[-0.004946401102599527,0.006868085341713691],[0.007347210137683942,-0.011728227327422236],[0.009325664799948561,-0.020132019451809518],[-0.0020463636291903026,0.029578195499001203],[0.011624453443974204,-0.00027422741530676423],[0.015702175423490245,0.0008568704426631143],[0.015574695348449198,0.0058274918465258535],[-0.011190731373337546,0.016230661051677225],[0.0016948700053481815,-0.011749251242945397],[-0.025642654531570212,-0.01385299028169427],[-0.005878243167446977,0.019499151467033644],[-0.00855391565764101,0.010969564774873155],[0.004745803767575803,0.027349509361627725],[-0.002492390162104924,0.004790169321813779],[0.0024556862821074957,-0.001590421148223318],[0.0029841407706717826,0.01825469265482158],[-7.707576392447799e-05,0.0009585783550126979],[0.003541792882315113,-0.022415746453738204],[0.010505965137523639,-0.014130951807856099],[0.0026068409753382776,0.006891560521088253],[-0.00602913094186456,-0.005748114092261546],[0.002092018650566066,-0.0038786955843709003],[0.0046700373173899365,0.013405458166622398],[0.013767793123144106,0.01872447182415501],[-0.0064613602043668925,-0.02191002192433911],[-0.002848398924354393,-0.04056503621126433],[-0.0036045389500213364,0.005912611266793131],[0.011047096525787057,0.008292461867148044],[-0.01686851472440153,-0.0027714127375364174],[-0.00702790585614729,0.019971360733065446],[0.014325947366020683,0.0033171164967187193],[0.008631317080451345,-0.014739519362160456],[-0.004289206353843875,-0.015417234406023734],[-0.002194650121018415,-0.012262590563813123],[-0.0005492553488970874,-0.012004369613130058],[0.003486471124180865,-0.01864571093564711],[0.005531607991475239,0.02284798670088037],[-0.0028285728662399714,-0.023741559680365495],[-0.0006214639282268789,-0.0017299768133668984]],[[-0.0015293458809567714,-0.012531832688186147],[-0.0003928015538347483,-0.009301093778013613],[0.009385330148601717,0.016883530616753222],[0.00814887607657137,-0.013282201858532627],[-0.002142364987927275,-0.012509348819165808],[0.005753582138658328,0.013348061930284129],[0.014592703221623848,0.017754734574038335],[-0.0049521118576109574,0.0018331030864987023],[0.002552462343040963,0.0178747858242518],[0.00426971334591355,0.015327004450860346],[-0.0041761256399064,0.0008465017661290593],[0.005888521280441477,0.010888630989373945],[-0.00018543466520224602,-0.006499366551649897],[0.012515172126668285,0.005018191203919206],[0.010467663035543768,0.022344966985019258],[0.013094636516613389,-0.012972198128388323],[-0.010855163558205462,-0.04492176658229696],[0.004024744188330085,-0.007854401206495842],[-0.02340729445657052,0.003344846059463249],[-0.011719654032644503,-0.023208540060981667],[-0.008459110342450884,-0.026672828460050826],[0.0059992261471198865,-0.017908498730546896],[0.006863792340953871,-0.0032823504672201457],[0.001441700670857467,-0.009962625615228562],[0.0031119368711499647,-0.014741137323311733],[-0.0029135934560261044,0.013664187794321662],[-0.00857988597088089,0.021278738293951136],[0.005697446586213825,0.013723393443443173],[-0.011464675897791952,-0.0003602154663343747],[-0.01119677251918927,-3.5578411737988414e-05],[0.006467191811892716,-0.000377746250388357],[0.002500110222549369,-0.004887315700379547],[0.01915070708157952,-0.02210749080859383],[0.009683935963778197,0.006101488341897657],[0.006137974107948777,0.032541294346366594],[0.0011155740569378499,-7.785829816200446e-05],[-0.0014890416409161571,0.010648041643563274],[-0.010856832871572797,-0.001264921669102595],[-0.0141919328195875,0.00417255280570229],[0.015648542435672222,-0.006805283645135752],[0.023415597370022682,0.012243236812161919],[-0.010175278649746275,0.0002641940980511586],[0.0049238183433462585,0.035906852036818454],[-0.003465204920007522,0.02163920025337953],[0.00462609196623382,-0.00636243987207258],[-0.009834742610094833,-0.013888979383897646],[0.003455914719676887,0.02970095435085488],[-0.0014555412771347393,-0.011953618429554464]],[[-0.007814751078059099,0.03628797106106064],[-0.0023752672969159735,0.015058865439738705],[0.01722408192133773,-0.012726060194995552],[-0.0009041572461836702,0.011651615496922575],[-0.003730810982551555,0.0026786048776925877],[0.007616781791630232,-0.02204112551404665],[0.013256612502698046,-0.026393374436087427],[-0.003433293518124692,0.0037733010980725086],[0.001674164591449265,0.007792069836789248],[0.007174931416213146,-0.017781154987770335],[-0.0057046423987259206,-0.011436581040989007],[0.00020606233255972617,0.011386813751854253],[0.001749586741541076,0.0051254812604621825],[0.007866117897845137,-0.017449663397720493],[-0.000503600588172615,-0.0034237006039436785],[0.009447670138870354,0.024721301192138646],[0.0035493484058545842,0.03177999411738159],[0.008201190447693246,0.009140830072500624],[-0.013905596295346646,-0.01746108529430338],[-0.017701411425754356,0.015862346845074548],[-0.008641808369634003,0.019127097103461967],[0.004372119388339501,0.010102349087281236],[0.010685662437304294,-0.008719794651851184],[0.0032728674515860607,0.020124294021925594],[-0.005651127391724729,0.007141078719011951],[-0.01017779242132359,0.0007977494864045214],[-0.006776294325085875,-0.0028391394132622374],[-0.009690294065814231,-0.018119966231988235],[-0.007068008755135135,-0.020914664595282316],[-0.011956736950031915,0.015320366129564979],[0.011001281509532702,-0.006599009240622771],[0.005263552229149221,-0.0046322640992027125],[0.013168566423903162,0.030842431734501095],[0.016497191745887606,-0.028012758643690207],[-0.004661459451413376,0.02522714200092031],[0.005842479915157172,-0.004732484046142279],[-0.008016772882911145,0.013963141288822634],[7.339856907339678e-05,0.0053941613792330865],[-0.0016017534106206816,-0.0060598674305890835],[-0.0010402923940701424,0.004866943572872211],[0.019621297653375773,-0.018827138270345052],[-0.011142771734080025,0.01092123705964426],[0.005318415684720484,-0.03371004382228269],[0.003812773958503957,-0.02352813258682668],[0.01121557772075007,0.005420683854708896],[-0.021995838010842213,0.0019523686840511069],[-0.004456469442390918,0.006086332436646561],[0.006672653120951149,-0.0017326066308163744]],[[-0.002941200615858932,-0.03223087519893239],[-0.005402897932411438,-0.022724242270399195],[0.011871640000460775,0.004175053160977966],[-0.02300553446411318,0.0011566845327468122],[0.001119961100003333,0.014516108176912412],[-0.007923133631677529,0.010491677692629887],[-0.0013804665863709673,-0.0024084849040630824],[-5.628879610280163e-05,-0.00759532783635769],[0.008205805856806248,-0.028115467225775324],[0.007420202908797438,-0.00023883576888184872],[-0.005697310851547101,0.00028281907142486794],[0.008433976242024552,0.0105365717884188],[0.00052303289752448,-0.014690637165997614],[-0.0032293197733251986,0.008072799156843908],[0.006714945524451176,-0.001550993559469152],[0.008363934462039785,-0.01959942044616703],[0.005713908991259734,-0.022107642703724506],[-0.0010693301180767188,-0.03506667895940815],[-0.013792653596514798,0.007424655847308267],[-0.004692581702987464,0.0104425943615037],[-0.00878419779121967,-0.019517606997297387],[0.010065287229839022,0.003894069517976927],[0.012958881126795265,0.0054556718164851005],[-0.012916150597046339,-0.022347433814533274],[0.0002145161572842176,-0.023509515014987825],[-0.006200660389896085,-0.033345048875941134],[-0.0018566677449127179,0.002250035047959268],[-0.01580504761423742,0.015619013502998226],[-0.0009164670268480614,0.024046257586370013],[-0.007826852800809784,-0.01369988363593601],[-0.0016260081178279878,-0.0061951008209643645],[0.0030732929506352607,0.021758964575731767],[0.012980382148280182,-0.018611881008209093],[0.011566950428891677,0.0063127699056169245],[-0.00684424854870489,-0.04295399901009184],[0.00982925168299512,0.04151508658019188],[0.0028152654311857355,0.022993407827625323],[0.0010820799351269695,-0.0025307053382063608],[0.00767805398541478,-0.00558374034030529],[-0.004469611011813463,0.002156545857636106],[0.001878823557766889,0.003896701003634922],[-0.004265350851298766,0.009760407672118117],[0.015858985474742713,0.012801245367631497],[-0.0047246374462165215,0.018681907641459727],[0.009534971973356418,0.011883316017198902],[-0.006641588032753357,-0.0011134519291731788],[-0.0017399501866821306,-0.003607094107056245],[0.0060195286133952995,0.02408764773468388]],[[-0.0005007875355000867,0.021568202025598435],[-0.005087640051172961,-0.004392616575819049],[0.00288214578592489,-0.003663428381594982],[-0.020255213565578627,-0.013412025688133778],[0.0027237958099517534,-0.02442891365542068],[-0.017925587197430634,0.0022616746553878186],[-0.00892546628459804,-0.010649318856223932],[-0.00660940908995898,-0.024480156266178842],[0.008768765105938782,-0.0013897886114834252],[0.005165377560545069,0.00570724198793739],[-0.0005280479256123176,0.021408508632295445],[0.005702716861033855,0.0019392864590701343],[0.0029187508210696345,0.0201828598597268],[0.00010929021280015681,0.00899537026206657],[0.004834987062881467,0.008192691342572526],[-0.006826421955121884,0.011081942156853814],[-9.881734930900772e-05,0.000735561921601185],[0.0007157510683165122,0.040194697833716826],[-0.004885027744825669,0.0070334341917761296],[0.0053606165879793695,-0.01320153212638636],[-0.006237351938364557,0.013661376569455388],[0.007468042234461434,-0.021385165332649326],[0.00852150760746654,-0.002239905362949594],[-0.0153966906911933,0.014265137858991474],[0.0026027018273347426,-0.0027506060237397945],[-6.306594241637293e-05,0.013644577674677956],[0.00306969154948565,0.01643438887125104],[-0.019461210155760654,-0.009203496489716691],[0.0006529730865663837,-0.011159146562862245],[-0.002466857683272646,0.001113341307926191],[-0.000483434958204478,0.011361168783242706],[-0.0016669864712837844,-0.008736198830048383],[0.007724843082577158,0.02166808985832892],[0.013638837197876615,-0.0145748229870275],[-0.001659601833126628,-8.665165016481933e-05],[0.006909480087385834,-0.03633931632384593],[0.0059990563221823355,-0.02137426887576858],[-0.0010824396623210822,0.00017912607955902334],[0.01167971096101662,0.019858748532590936],[-0.007125144054859251,-0.03393959022371176],[-0.015959190108896383,-0.006598196578945176],[-0.0021579208515328523,-0.043092139980567906],[0.01757609112555605,0.006391284538647464],[-0.007878973518075406,0.012110907513211481],[0.006519279004638467,-0.018538913427634952],[0.002323054388781391,0.009683257310257726],[-0.0004320221881455982,0.009924914765672782],[-0.0032101319644079244,-0.011494521632524356]],[[0.00557877483276249,0.002706366601550976],[-0.0026161052019021596,0.012398459793626025],[-0.003956986552201152,0.008199304723538326],[-0.022596062480452313,0.017580208546903054],[0.0071787727307116595,0.03317613093929589],[-0.022603679220630727,-0.008593236870394674],[-0.012693130438669669,0.022170867965769846],[-0.005826670502182993,0.010678317818315845],[0.006559581481876321,0.006537786595615746],[0.011208505912771847,0.011406228476023883],[-0.01875389663348259,-0.039139542776564416],[0.010332825401578294,-0.017526617497626285],[0.012448628583949455,0.007806318030606162],[0.0036438534957951387,-0.005636283119883795],[-0.009277399782561285,-0.01582453068051854],[-0.007230468703435915,-0.0032578553532087375],[-0.008598658484929807,0.004228782433621522],[0.005778641605743452,-0.018727205516987786],[0.003025934236306806,-0.01786490182178181],[0.01450320509869409,-0.012346181112502751],[0.00027774395429532316,-0.013787681514235397],[0.011996454948437837,0.004845491246086791],[-0.0033424607597798686,-0.0023485534859487367],[-0.010848307631005189,-0.0007692731267817476],[0.002711422875760274,-0.02611600835204441],[0.006921410175273353,0.02363240640336387],[0.0001459588221467556,-0.004046987890118039],[-0.003499625981553971,-0.009442770540588173],[0.007358008416041632,0.03301870912492215],[-0.000562517940994427,0.008084364737672312],[0.003498056846888571,-0.020167295312805554],[0.001888588566970489,0.01258541216318125],[-0.0036679731105338283,-0.011300393252587127],[0.016379810833435923,0.0025666529836389034],[0.0031538986880197055,0.017663601989201177],[0.007205642870918459,0.011814726819773882],[-0.008731932686764894,0.030788254224236068],[0.0022276640406538708,-0.007458295970754688],[0.0052351455426333585,-0.018529950787571792],[-0.004926955136007118,0.010722944167011346],[-0.01166727797214208,-0.006150166154811189],[-0.0084376089694562,0.030429962736042593],[0.0063028867915510284,-0.0010716536750225046],[-0.004902620182838599,-0.007489730018893408],[0.012870806103360439,0.011255788228059763],[0.0004564081428256102,-0.0065330463586504945],[0.00040400099988507606,-0.013065968899568459],[-0.010190094432017266,0.01275277128092079]],[[0.0032919368423875153,-0.006811433692757702],[0.002345029236183587,-0.02348249117504547],[-0.011624685641380483,-0.013144373629951444],[-0.01392728245082818,-0.0016593802526299584],[0.0032327214583927916,-0.04534983471555192],[-0.014324019005671177,0.0037667689833308588],[-0.0010754683330181545,-0.017945455118040233],[-0.003735836018492893,-0.01939367455049276],[-0.0005214510773340088,-0.015286834979868158],[0.013820758016224413,-0.00027530740314689377],[-0.018949829368163792,0.015833853996912787],[0.005688852323425952,0.04197663196514228],[0.007328903962388876,-0.014992681268837628],[0.007293745179786358,-0.005064958946752874],[-0.009532700678495917,0.004736971497626915],[-0.0009362677049596735,-0.011652355060649634],[-0.013666118929935437,-0.007854121045605506],[0.011554717524545198,-0.0026345060714350775],[0.0052946950924719375,0.006201277891662133],[0.01310437441836823,-0.012132858486278783],[0.003737331853682281,0.006567435493610507],[0.006100430231631048,0.005706143919988728],[-0.008475579399178063,0.011139388852195337],[-0.002916287735868965,-0.005640136108976699],[-0.004283446963162995,0.019041632540309],[0.0035804743481649922,-0.040835854245395424],[0.0005512212457138807,-0.006201079907159615],[0.0059107734559890775,0.02236610990058265],[0.008953400176858835,-0.01478647094646081],[0.003366444724226103,0.0036146278038093438],[-0.00021723584237663392,0.011460111449675339],[0.006489436332295105,0.016357900393632514],[-0.008623708030821542,0.0014229715787965633],[0.005517676030625242,-0.012271351117718305],[-0.0016562502915341804,0.005493824087007216],[0.009139789185167752,0.0018267492534041376],[-0.00996332582398599,0.001395996732099941],[0.009534853944752505,0.03341508678741493],[0.0045442869409867874,0.02107476331516245],[-0.005420861265961275,0.0034919259168169204],[-0.011582728118602243,0.004732781098512802],[-0.007332480175203182,-0.008406960627128942],[-0.009087908241203849,-0.0280840783428314],[0.004711512933197456,-0.010835575253953985],[0.011131237241437436,-0.0014363540132160697],[-0.00022699722949475655,-0.02047214713238569],[-0.00021231105615498222,0.0042880821724864595],[-0.012616062714590738,-0.02837475272859043]],[[-0.0060473960431981985,-0.007380726416673536],[0.0022281799894916434,-0.0005936032371221603],[-0.00409716087816991,0.02331888367248962],[-0.0014597643237272769,0.007111177387217259],[-0.007715056852201479,0.044822712920194005],[-0.003871073914201423,-0.01278004475069384],[0.0020568357949798796,-0.019163761120664955],[-0.005453582446129645,0.023172969116865304],[-0.0008859229316960697,-0.024406378215111404],[0.011694180707591883,-0.03879745864918286],[-0.004709933793810162,-0.015860705127451503],[0.005576832702466436,-0.02337759924145476],[-0.01260826400612771,0.021243646906001067],[0.014970323884358257,0.007054890440491264],[-0.00013502229182519007,-0.00204245849296351],[0.0017920305638604887,0.024835715334635265],[-0.0035704026599885376,0.004717073511665107],[0.011820920034823832,-0.01737669501206994],[-0.0016515595093432418,0.011932683870134651],[0.010057114508436504,0.024860735596650075],[-0.0023337539773728676,-0.021945702661052984],[-0.003433995799805863,0.002879723040695547],[-0.005485326765696241,-0.015487447631246034],[-0.0033539266031731973,0.03138578715290004],[-0.009326690803981899,-0.01153255702188974],[0.002178867164139574,0.008983551874613693],[-0.002705832609199901,0.020412087174874718],[0.011371347635238305,-0.022225241976462348],[-0.0038565484516281156,0.0020721965840023305],[0.015294700084296012,-0.02510520212241086],[-0.011959318339195436,0.017933280797119124],[0.0013392974251825297,-0.0040617676309867914],[-0.01038840642358096,0.009582378831820395],[-0.009755709057970324,-0.00457702006948612],[0.002631838348981008,-0.0011105358366005668],[0.009678706314590986,-0.022254079491986618],[-0.013927013256051831,0.00306293463670904],[0.01477487046123925,-0.037753715282787856],[0.00047301286207977164,-0.004681508290043089],[-0.013172519711228696,0.014225919190819671],[-0.013281885246977836,-0.010512528372221702],[0.013984616959149288,-0.01630476800626531],[-0.016344446118693963,0.04180193372803213],[-0.0010655874146319488,0.02486357466778626],[0.002514088535444903,-0.016568981136823348],[0.000640463307874384,0.007880192246577818],[-0.005470072523451447,0.031547580638430765],[-0.0007426303881276611,0.0020938187864401802]]],"a":[[-0.0016610000525034184,0.0007247278863729377],[-0.0016893166041349343,-0.002118634265638107],[-0.0020266904517683465,-0.003351102729922498],[-0.0016041189283974469,7.951598897559776e-05],[-0.0018702575347527585,-0.0012282599034864772],[-0.001731730802882221,-0.0020585825433803097],[-0.003117557698919391,-0.0014046762509086893],[-0.0018747694416661983,-0.0026121048242857595],[-0.0035804637970215363,-2.9887890722617744e-05],[0.00034219650172477437,-0.0031451389394843918],[-0.0031076735378854398,-0.0003342912717335595],[-0.0010194009464239843,-0.0009812378989554036]],"b":[[-0.011882292471509272,-0.004274403577578526],[0.005733048306398488,0.007279574939943975],[-0.02457612099952553,0.0018892665229223865],[-0.0073467271563674805,-0.0022905152225356413],[-0.0016316713334727584,0.004344719484260208],[-0.024617051369493825,-0.013520842067994655],[-0.004174745592627488,0.00762855456019238],[0.02484065516624676,0.01409713769997027],[-0.019153377547360323,-0.007299579795029974],[0.02097450945041377,-0.0021518595532424682],[0.007258169551532049,-0.0015878159261924654],[-0.010972730161745757,-0.018153136915134937],[0.007211566603404827,-0.0007427228082904048],[0.007449652304065735,-0.023505022233640288],[-0.015322243937005429,-0.011265949774818994],[0.006940039845511039,-0.014608460260823655],[-0.014170659018530426,0.0013597662501943558],[-0.0036676157526724113,-0.003906222505408839],[-0.007487827341504661,0.005366104200765725],[0.0018194567613029505,-0.02195565871499209],[-0.019260754019019305,-0.012983387795786198],[-0.008477639724933544,0.013242807904263429],[-0.002441234522773665,4.256355192799001e-05],[-0.006458278507161303,-0.006443621707195813],[0.011070111918566923,-0.0054024552226649815],[0.003379998935281073,-0.007942338815049117],[-0.0063537712345464875,-0.004084106701588738],[-0.017585545787783576,-0.009120596785730968],[0.010453929682810535,0.018958085098584296],[-0.00038802766903505624,-0.00873726917559246],[-0.01034315381239222,0.0031901245127082135],[-0.00409548725775362,0.011840712189331701],[0.0014452214115428029,-0.005495773666687758],[0.0068979262985724024,0.010251345306339298],[0.004995312156883937,0.021027229343221036],[-0.0010607950767061428,-0.023755087703972406],[0.012495459028207792,0.0017587769772495858],[0.013359731230010453,0.007119075636052149],[-0.0018972512369725284,0.010459447035674791],[0.01101019107965964,-0.0010743642624844612],[0.021281833459199043,0.019091244572969946],[0.0031884373636292223,-0.009417734554101454],[0.013244382764496264,-0.003263789526159201],[-0.0005136210158518228,0.0051853906161535325],[-0.00578831128471057,0.010694627985114166],[-0.0022708139157866618,0.0043910610144761875],[-0.002615125238287239,-0.018888253946980082],[-0.005103250248289121,0.017109389167658598]]}
