{"Name":"RbmSpin","Nhidden":20,"Nvisible":10,"UseHiddenBias":true,"UseVisibleBias":true,"W":[[[-0.00093294873091132,0.00023789926901885146],[-0.0014632337354700316,0.03902359313896494],[0.002463014300881661,-0.003479899592510739],[0.004259631764714077,0.008547455772289131],[-0.002900036638163489,-0.001319609279979847],[0.011240239624069798,-0.003900169691599426],[-0.005619162630304235,0.011344276783832171],[0.00544169318351806,0.024685908723674235],[-0.0038308848962806306,-0.0022379158389979037],[-0.001520646066766544,-0.001958403115310884],[0.0075135164920925495,0.007404799147091937],[-0.003038491168102405,0.01982183227790471],[-0.0013705994406964152,0.002468784437943929],[-0.00203459397037905,-0.009520581745274873],[0.005577418964297708,0.016051970971610825],[0.008083681358829684,0.0007771412937788026],[-0.013593437621530133,0.022405630367483845],[0.0004411016090334036,-0.01032351440668806],[0.006173307683779684,0.004243948833819704],[-0.0012146644121147385,-0.012288761472185812]],[[0.0036279853753269226,-0.023148498674311065],[0.002763270778529752,-0.024007999919567036],[0.005641109310477871,-0.004406183849801767],[0.013688078380636227,-0.0576940433552848],[0.00613088940666184,-0.01775059470086714],[0.0007459282465438108,0.01060606835389804],[0.0006043783724499522,0.015469306749285613],[0.00032170034987893275,-0.010442754950605511],[-0.002831107711547159,-0.010307067890283381],[-0.0037022331205592354,-0.0004793254758313903],[0.0046674366327180035,-0.0405651305306691],[-0.0046338047801587675,0.01835181476685156],[-0.005923266291494815,0.0027131894141889648],[-0.005698290384959133,0.021815735431025912],[-0.001337718903792096,0.01405798072176724],[-0.0008172668534296195,-0.0017901061037097475],[0.0002653147035029609,-0.006372614789988801],[0.007561449163113976,0.003923286815852119],[0.003940316168357303,0.027816053288545927],[-0.011876008133563692,0.04805741446219444]],[[0.004003446050958182,0.027241967570210662],[-0.003409947467517675,0.014869917121953204],[0.0005208218348463209,-0.03927510309336151],[0.005598776421274994,-0.009395607424903302],[0.0028054682768927797,0.0028159003260811275],[-0.005690396551068735,0.02380722986236607],[0.0027187114274645754,-0.008170908664358795],[-0.00846012732391262,-0.02723449977641777],[0.0005313241971623473,-0.02005899258823985],[-0.005445559117374609,-0.0170622322387387],[0.0003023958289306992,0.007805232922556582],[0.0040193102402733254,0.005915469860594894],[-0.005858684496511728,-0.033903587465229076],[-0.008937163655096796,0.007274402939403577],[0.006451370041903462,-0.017401781812469087],[0.005343283034346592,-0.001401615573246451],[-0.0043476825944068626,-0.0022015880078264474],[0.0031089399182823454,-0.013327655124463315],[0.0017909938829933712,-0.006285497316174693],[-0.0024875322272158284,-0.03541214327436525]],[[0.0025052839031083026,0.005398996650018608],[-7.521579043810298e-05,0.013114785963721719],[0.004044981755178692,0.03621515178526375],[-0.002054749737882565,0.0055089172511387265],[0.007397572649098743,-0.010470262096133463],[-0.00538032961282855,-0.005219884403075425],[0.00447235448945491,0.005197187004207971],[-0.008023421118688187,-0.004571984842014111],[0.007948049241229842,0.01609883076746144],[-0.004175150296423133,1.1046700194110643e-05],[-0.008485216811231863,-0.016541534948627947],[0.00445763645776637,0.0018308510643371327],[-0.0015922439024253056,0.020354965599939275],[-0.002694013228659653,0.010226178179866267],[-0.0032780691565818497,0.004922160813228453],[-0.0008449044351116695,0.003492222815936926],[0.001105069072858372,-0.027355117678790234],[-0.006438604377299869,-0.017233341380571195],[0.0035098414368276796,-0.016488465486162826],[-0.00048339498108418687,0.002977888479004389]],[[-0.00016259592180966904,-0.017089129754761817],[0.005871967196945488,-0.0126108388939582],[0.005117380850333545,0.0061157464705832035],[-0.004260862381145366,-0.004181607847844997],[0.013531194382113093,0.03345935981261009],[0.005657835845434847,0.008181135535820921],[0.005011953322889759,-0.001064309478279065],[0.005144691705186218,0.005186327115852973],[0.009903537989705117,0.012687507412340012],[0.002938287482725016,0.022256155559530515],[0.0012346718060183691,0.00767489326980222],[-0.0014761203036021471,-0.0037964389448889198],[-0.007006502391507296,-0.03353457768263757],[0.0012393539742030515,0.0012129335032001723],[-0.011326807364894336,0.0013313893792927273],[-0.007942527923013025,-0.02331104571408208],[0.002773144721712974,0.016029409320722665],[0.006769526249960917,-0.0032655938100540046],[0.0046704628849555145,0.03149290575745738],[-0.003429243072438117,-0.00628256110828806]],[[0.000925347157233498,-0.016387699445232426],[0.003006777239830528,0.00832226516498775],[0.004240915837164086,-0.00411945988804074],[-0.0022491918140798077,0.005128684814945953],[0.004927446051863238,0.001959523214196847],[0.007030563114942263,-0.011081533748093035],[0.0006221206072186248,-0.006518406919137645],[-0.004787578169528573,0.013082492495146748],[0.011350418976566433,-0.03663267897854641],[0.0027231818762860492,-0.0007614274077984884],[0.012524725525449055,-0.019813132559578197],[-0.005575484726646878,0.017812222308106543],[0.005503935841644261,-0.001346488137486968],[0.01371956256941019,-0.018468330524621535],[0.005856928676699274,-0.012024893118312199],[-0.0008564948434811902,0.018481811856245013],[-0.0029519223543666906,-0.020361506806505027],[0.0027367137922524798,0.0189501349717697],[0.004975245500016034,-0.02092611450567705],[-0.00019292162945102348,0.0004853791907138181]],[[-0.003273547771863352,0.012404468495148754],[0.004270526840033919,-0.0005309065552619844],[0.007742338143109471,0.018419430135104886],[0.0018580260135168964,-0.006587633393774019],[0.002962943561028339,-0.02315575394143485],[0.010579395689477156,0.008941902128835316],[0.002442284279174957,0.013587741747802458],[-0.005519181541859785,-0.01448004675713669],[-0.0017879576552688786,-0.002831316691451385],[-0.0029310204492536238,-0.012718324591633298],[0.008454700062496618,0.011894556205795244],[-1.5224863793625063e-05,-0.01129820744552405],[0.00649590351147077,-0.0029128949243547226],[0.003374195229680482,-0.013259521836692741],[0.005856343366097465,0.015215104595321879],[-0.002096890946749919,-0.027455397974066615],[0.001323268346784096,0.014880821325648814],[0.012835844597834803,0.00647347917430814],[3.22843029609788e-05,0.00759777145455677],[-0.0033948657002447298,-0.0014395145167414433]],[[-0.0023100246524820033,-0.0007373439143908275],[4.666430807497871e-05,-0.0026183051292506215],[0.011709165681995166,-0.01924607298302501],[0.00018777483705337012,0.013311721430084772],[0.007401463762338816,-0.008552619109030823],[0.00664315237590546,-0.015084971313298189],[0.001396313624204972,0.008531198466114213],[-0.008813025905375308,0.015033332556782917],[-0.009326564836795361,0.01282944887163556],[-0.005745583727571676,0.016000573178846376],[0.005561124569762717,-0.021303061035923745],[0.001357230885097501,-0.008404787700398233],[0.006472460853607544,-0.015578302489168675],[-0.0014641178022501422,0.03013463742646279],[-0.0032112711078648108,0.007184661619306474],[-0.006262765981496819,0.026983750319369303],[0.003993280737389124,-0.009982026727321035],[-0.0003242100580179247,0.004339639219793312],[6.854822271815084e-05,0.011211846079043413],[0.002373106283099259,-0.016985645506352662]],[[-0.005737838599062945,-0.02657661278010349],[-0.0016400616593671294,0.029206126823452708],[0.004229449543960408,0.010273736482129049],[-0.00038574216612016147,-0.02225437086100689],[0.003556533834709235,0.004252217810844943],[0.003046169805387092,-0.03266603715314216],[-0.0031179361086711766,-0.04544310341847413],[-0.007410652699816706,-0.005927376042452342],[-0.0018711480581645775,-0.016630796400937203],[-0.009884928494159508,-0.04255737719830329],[0.0023502009271039004,0.015094706971450881],[0.00027617814279791967,-0.022398924524708607],[-0.004009390806695522,0.0036870769865717606],[-0.0075273070341902075,-0.003043627070602771],[0.002760000831215208,-0.007605735573373002],[0.000967382773355389,-0.010797147591817803],[-0.0019142234994754005,-0.007915562517730313],[2.6897514000817657e-05,-0.030530222032379994],[0.005998553585280046,0.026187269417673],[-0.00036931274467810667,0.008923176830719597]],[[-0.006906209028568226,0.008313344300732583],[0.0014292427323110298,-0.008572604791199546],[0.0020700856432695996,0.0005931069610123303],[0.0006770248858451567,0.002846025858141179],[-0.004301496616811332,-0.010727878108355208],[0.01281904288175994,0.012268172947427648],[-0.005430311922095991,0.017266206879742074],[-0.004127443610076707,-0.004576913208907239],[0.00444716367374021,-0.0093381207806655],[-0.00704783334613976,0.020537450609190894],[0.006001266975096573,0.0022303962165828614],[1.8272886652910893e-05,-0.02163732300556626],[-0.0036585885697665477,-0.006581342785501733],[-0.006116857175826988,-0.0022327904741679875],[0.011517194270649877,-0.0289004505096251],[0.01104288447961657,-0.0023146128064956547],[-0.012124263816566026,-0.011861591477846427],[-0.00037076280714733325,0.007590786048408011],[0.0012991602484529316,-0.006255109348715645],[-0.002372747629548576,0.011868790118586358]]],"a":[[-0.0010303220490064098,0.0017579162055263063],[-0.0029662181378788764,0.0023134058561726394],[-0.0009544111023038413,0.0018680411860298389],[-0.0005869182503204481,0.0018213816293948019],[-0.001843969562477738,0.0010328670610749051],[-0.0009322175692281432,0.0023456515425908904],[-0.0016960695112961336,0.0009299659505663885],[-0.00048168099171121836,0.0010710215993738313],[-0.0018462164936375325,0.0034713143495160898],[-0.0009612899616359985,0.0008156411825127745]],"b":[[0.025105205321354702,0.017918388456605438],[-0.013947279369558327,-0.0010413440246997629],[0.009155096153483398,0.009450538276425464],[0.007247193466459902,0.015829470062734018],[0.0009616938257925378,0.005338576238381598],[0.0032854557537504185,-0.008759209216723856],[0.013712633189443083,-0.0023768594632662897],[0.01759806943929789,0.004037117865666176],[0.0029143202930900346,-0.0003111815051261737],[0.0006217825461624787,-0.000652675788286249],[-0.00105537818997868,0.004743683534603786],[-0.014377281620933388,0.01768671997548818],[-0.0006339756040014094,-0.006152646380653409],[-0.0028723350978588367,0.013861595117272392],[-0.008858182786480054,-0.003625201553851574],[0.00022955667102916283,0.005692609526944949],[0.00541551255275196,-0.004469055639266785],[0.00961224299238608,0.0034863839626683214],[0.013273891099236103,-0.0019940931017551635],[-0.005695799836627183,-0.0009704080421455537]]}
