{"Name":"RbmSpin","Nhidden":24,"Nvisible":12,"UseHiddenBias":true,"UseVisibleBias":true,"W":[[[-0.0017513773271647453,0.010270232907780223],[0.005003019495192899,0.01718062676000403],[-0.009056415805645176,-0.01401370432557851],[0.006091038991935778,-0.012829672804748723],[0.009024617506786115,0.006524914291486337],[0.0004542307293109376,0.017664348923284886],[0.0029209257697770524,-0.014516050994226046],[0.004815602717272562,-0.010387420437419706],[0.005672742563464331,-0.008442195516518333],[0.007541646373538883,-0.009205197990933526],[-0.0036533559495317406,0.019160260882830255],[-0.0046713507208256625,-0.006915578381961291],[0.003913326148913701,0.00035607530865166],[0.00018366350062398222,-0.007879301351037158],[0.0061025783469000104,-0.013464116855905785],[-0.0028082543237768244,-0.0034346639217991424],[0.00554781188836278,-0.006497301427839297],[0.007739854410639801,-0.01414813391340868],[-0.0009240338790713349,-0.0019603283274765237],[-0.003587371355764685,0.008958013908285186],[0.0016783255023237959,-0.002918014357467653],[0.003570593638017954,-0.0007353968906349753],[-0.0035007410409336396,-0.002583004932032647],[-0.0003852226014656074,-0.009217260084153777]],[[-0.004377222602231909,-0.038125298456673576],[-0.004166369689275645,0.0028912126610898324],[-0.01678297581919849,-0.025884506294360517],[0.003330604229209669,0.009877728153622554],[-0.0038470894370396416,-0.0042507745742120595],[-0.01375958448705737,-0.022139176325917123],[0.003344439737870718,-0.003621739757573251],[0.017697935595373193,0.014697723550420783],[0.027871010639830194,0.053137164124128444],[0.0007631150217078579,0.0133363948210851],[0.007893477704219965,0.01952564137992249],[0.0034766404257502493,0.023241722259053674],[-0.006441636878403257,-0.03420496310127332],[0.00011845158657574195,0.004084017668110462],[0.007044846071257108,-0.003113587924134557],[-0.005181071108678422,0.010124271339107298],[-0.001443187193126894,-0.007683979764688892],[-0.010570185487549552,-0.020599957998723883],[0.000153502226862531,-0.0034952532178272387],[-0.019029635899438922,-0.05074021851691232],[-0.00848403111201542,-0.010297537631509797],[0.008038402836447548,0.013643620959648097],[-0.012081734897547687,-0.027837513764964048],[-0.005937303046711355,0.016432579280920658]],[[0.009986336053816217,0.0007061713227749176],[-0.0015901656893445649,-0.000545874986301262],[-0.010113468061957762,-0.00039340905370330623],[-0.00302975887098796,-0.011956165221990655],[0.0028093675898432876,-0.0006943733621123353],[-0.0075587741698040735,-0.012843908217332294],[0.014454975464132458,0.0012312346787784502],[0.020014747983991374,0.012891462454937525],[0.011094467728858104,0.008649357034953675],[-0.007007360419858429,-0.010830182416391831],[0.00215765736542542,0.0006678301722761547],[-0.009450729342207302,-0.00756324106548901],[0.014504077054992119,0.008449969757438171],[-0.0019763964787666588,-0.007595022331562486],[0.00428203159701363,0.009764148225373514],[-0.005500791273492602,-0.004482446839344438],[-0.006223657798115887,-0.009958012469802331],[-0.0022360898312888226,-0.003129015454588653],[-0.004131811992207572,-0.004538930942617393],[0.0025561379511602994,0.01689121143935656],[-0.005586740734575463,-0.005976320655929685],[-0.004782725423309715,-0.0037576156328214517],[0.007082065096989546,-0.005417516856265954],[-0.01760529684973017,-0.0158145616955524]],[[0.004771612386111091,0.0009232405111014201],[0.0072717358297855125,-0.012282297259698002],[-0.0003497695981531711,-0.005171835508398771],[0.004104773509772819,-0.006325645102286756],[0.00284436783670235,0.027948568938110353],[-0.005020292965753628,0.0025248800236666023],[0.002354759550165202,0.01961538592714868],[0.006528249135536164,-0.005150499872488736],[0.005636645507172523,-0.0023705563351950395],[0.0011977315185171169,0.012747703476812209],[0.006722674731749318,0.0018851439007977044],[-0.00176663856649176,0.026848005406034058],[-0.006405044721430254,0.014241149372471321],[-0.0056498121791902995,-0.00498926279368699],[0.004911842670876557,-0.02803848781464688],[-0.0014674200827825233,0.007687175695865051],[-0.0037438410846462153,0.005923771309168263],[-0.0007129229602068491,-0.03390942790858349],[-0.0013326494999562175,-0.00028473295276282333],[0.005534696224901391,-0.007259753748301874],[-0.0014614066933487273,0.043710210716765396],[0.00028310867676735544,0.008645959997838534],[-0.0030919935542139763,0.020734169019746493],[-0.001562103219664141,0.01653379629696566]],[[0.004127331276964766,0.001870230286289712],[0.004002896155794451,0.00016599865118057882],[0.0015340379205153185,0.012405705143484817],[0.0003152070226563535,-0.006185838174214678],[0.0006266540386586064,-0.00415402345966704],[0.004000942649785339,0.02325372481949734],[0.005704679845786563,-0.017149913890577354],[0.001811816366710899,0.012482664503406099],[0.011569606453415107,0.01714256669302741],[-0.0028674862139195286,0.0019350294208913391],[0.003575162011763886,-0.014531007048995266],[0.007146600351593205,-0.006821388309148759],[-0.0017424331562117938,-0.0044577013437368425],[-0.002190763136251342,0.006666610038256989],[-0.007465879680210265,-0.009913149079336037],[0.0066976117646218095,0.02500823410293247],[-0.004094161599719479,-0.014759753779117204],[0.008994387020615684,0.017469014829897808],[-0.0013321981811165976,-0.0010130393385215178],[0.003483782870308919,-0.004479262443719055],[0.003219168321742334,0.008890041683736756],[-0.005087132555550638,-0.027068591246657905],[-0.001965032537704387,-0.018807458797517086],[-0.0024966591794484253,-0.013917316996829899]],[[0.009512447722120438,0.010343818508415727],[-0.0019338198599196828,0.00021269931746317375],[0.00048496841727077133,-0.006160905128900141],[0.009210872599030182,-0.004413556068447701],[-0.0025875894343931538,-0.0056153494898507645],[0.006138086610290917,-0.019400970741061518],[0.007555636757860415,0.0028141535920098307],[-0.003439059441322525,-0.006890665312059464],[0.006310700978837014,0.0011119857678135745],[-0.004750700333125089,-0.006778575495825484],[0.002388942211915476,0.010249696490505717],[0.009104127672132504,-0.0008261143115604028],[0.0012387702945246598,0.005352101829184714],[-0.00841818081415836,0.006707296154962117],[-0.011378108205063565,-0.007208950423715926],[-0.005102625163875734,-0.008441410166214844],[0.005272077377418703,0.010657059495892017],[0.01166483606955502,0.004940849219421377],[0.0016496262835814254,0.0019827967283725947],[0.000686639751686247,-0.00016913395276718296],[-0.002381660071121848,0.0001837723892938871],[0.0009672291285337924,0.008767924275468556],[-0.003944799277504227,-0.0009343728206809151],[-0.0032284943363363496,0.0030780815267051438]],[[0.009704036551790168,-0.03377179448241079],[-0.0082507200788261,-0.004057998108273119],[0.002060803427883419,-0.004794783425858825],[0.0061978287150728836,0.027221351920549877],[0.0015389358764013943,-0.000698889622896375],[0.0020369557839079655,0.0200733038881409],[0.003957537073481439,0.006448491430400084],[-0.00046280764209953,-0.008118731263537111],[0.00013394776915577099,-0.0035340996049001805],[-0.0029830678692480727,-0.009469913462893312],[-0.003861414629559667,-0.009924358529770876],[0.0032709931334824255,-0.00531119561346867],[-0.004416208063751283,0.000643279670978734],[-0.0068742726309515435,-0.03286635984499753],[0.003879469626781206,0.008210237726199663],[0.0051176235393565325,-0.007727408088119511],[0.00196396852389707,-0.016368172414168703],[-0.0037147399313105446,-0.006383682596114805],[-0.0017932335341022127,-0.02205302777151165],[-0.0034709391121137937,-0.0035515372082526335],[-0.0005744528272004648,0.0087969546624584],[0.007043326105608006,-0.007056512735619207],[-0.009310191793935102,0.0033712447095407463],[-0.00773298454229679,-0.007835506435438535]],[[0.0074879521749484845,0.0024118227448819253],[0.0009438533670585992,-0.003324622558420803],[0.010111928964143004,0.0019377210109316656],[0.0002698050174860494,-0.013356449688590379],[0.0007114484428810616,0.0176381589176003],[-0.00020832743056902522,-0.004400149717489032],[-0.0030655878922092976,0.009184389921648505],[-0.0018815626805489044,-0.0025530413760434397],[0.00357168273765791,-0.010182381721600768],[0.002639205712844839,0.0012447129174518487],[-0.000929957142911962,-0.006054726539313211],[0.012307369023946649,0.016399330925900606],[-0.004236520682493632,0.010555648557456908],[-0.008480130594273005,0.01474051652893288],[0.003753920670641841,-0.012958042888615627],[-0.006017776902285387,0.005098446960507045],[0.004792602667297781,0.00464293843005089],[-0.010522932791494598,0.0017867714390208437],[-0.004476508642629412,-0.008286096781854397],[0.0019640733930203335,-0.005413816664545518],[0.0019032115898407938,-0.030493826608867125],[-0.0020500432187968843,-0.013075681665952337],[-0.008578529280473549,-0.014631754464434517],[-0.0030691404709259676,0.010508502171158566]],[[0.006088601857244974,-0.001165679640553409],[0.0005737412298851248,0.010563450191158365],[0.0006227074579829217,-0.0017363840451923088],[-0.005803319957954617,-0.011794964320311723],[0.001716440468028984,-0.01938515625498082],[-0.0014254411290060855,-0.0020167074915726966],[-0.004529360922541257,-0.0005447768834509103],[0.004648740330985487,-0.007686386530639813],[0.005609663161112515,0.014041877067239176],[0.0030504837236713564,0.009838842329842093],[-0.008619362885363087,-0.02124351274463961],[-0.000641767840993784,-0.021939126910829925],[0.0033291110673491307,-0.0014184933655849784],[-0.011946060374715878,-0.02946300338325987],[0.00420267335254382,-0.009816782750279538],[-0.0021214128417117416,0.009142624226235933],[0.010251781228045554,0.011738355280088257],[-0.0017999921275439366,-0.01028147489931441],[0.002045041275908087,0.010711902147775053],[-0.0003001469448834228,0.0050902148738249196],[0.0015835273816782864,0.004629287708417009],[0.0007509537982454509,0.021500242935697144],[-0.0061165316976870086,-0.0037768487125610936],[-0.0009257087591308324,0.0019052734360732538]],[[0.0010687423292217479,-0.006799588525157098],[-0.0042112163180903954,-0.00862280407044609],[-0.006327326757601532,-0.0014089850577434114],[0.0022600941347088806,-0.021940248943586493],[0.0011708046840793293,-0.01737623695993723],[0.0003376330071198019,0.0010203024152697444],[-0.0023053566049094994,0.00011578285260549827],[-0.005087800460089744,0.006410409520649989],[0.0032078566381866505,-0.017455955199169263],[-0.006427551188344857,-0.009809569769307957],[0.0027418445051979766,0.00963168849958072],[0.0020390467246437136,0.013193221989077441],[-0.0002668770668902765,0.00030565372328234],[-0.008633782147777498,0.009278290845580255],[-0.007152295338275462,0.004476223699358285],[0.0062995985529869375,-0.027584126906314666],[0.009044130221892379,-0.004765706367422525],[0.000760295117928976,0.009029592933821148],[-0.001835732130966272,-0.007988388952592481],[0.0011186261819888374,-0.019946238257336095],[0.002210134268006008,0.020166609788537005],[-0.0050213357500076185,-0.01560528130448461],[0.0021531118525812106,-0.007720855411009175],[-0.006952458990117819,-0.004622213296523156]],[[0.0017678487340544032,-0.0003026008930019077],[-0.014055256347859174,0.00443436095342103],[-0.007089195573610135,0.0019775680138020015],[0.006407200668365578,0.00910131750397368],[0.006789151444281094,0.01680976242365034],[-0.005319047554256285,-0.013854730272564461],[-0.006096711368090763,-0.023237083890354115],[0.0026813558699103385,-0.005573687618568965],[-0.0033280052641046025,0.010277477365890056],[-0.009481075299870759,0.009043266664133335],[-0.0006041777032819492,-0.0037179687825892116],[-0.002556553613064385,-0.005829167275317846],[-0.001507079347640948,0.005650653915588569],[-0.008183113627153989,-0.009281033122626476],[0.005826602957602669,-0.01013513843683285],[0.009235676386873505,0.0003384330631706944],[0.011194245219229414,-0.0023742821266863967],[0.002325946270573727,0.0078336916390166],[0.0004789604189605819,-0.018388517141836473],[-0.002848208821933863,0.0008628638519005831],[0.0008000085349485652,-0.006960482704981658],[-0.0038725870705802997,0.005259468162650527],[-0.004930036579130927,0.014282245476473061],[0.0012365008590823734,0.001096990149689394]],[[-0.007760327984601557,-0.02033492511416684],[-0.0038490749353480382,-0.014569882173876218],[-0.001004690118764943,0.0030350198570751026],[0.013552526825983032,0.011176611210810468],[0.00969650706906325,-0.004504291863193283],[0.0026416543034415933,-0.002376163557870193],[0.003361079596745851,0.011066064850250142],[0.011771210204944463,0.012525055781107828],[-0.00165627224292554,0.0040396999913448585],[0.0033542021216033113,0.009106390015836064],[0.009084842964562495,-0.006140664093519467],[-0.0021777467316864466,-0.0009608436563839828],[-0.004316759072798968,0.006661135327010776],[0.0014507510433361336,0.004088137806647156],[0.008259210565724888,-9.22258841601733e-05],[0.00552807911931766,-0.010147108811441869],[0.026650582190263103,0.0428977083160772],[-0.0010925748461507857,-0.004235764858106453],[0.010472446357396978,0.014782579744282043],[0.012151747976290051,0.010907906624963987],[0.009645392484354535,0.007656177825587795],[-0.01683481455184558,-0.020820664620048918],[-0.005948587969630889,-0.01567573805124091],[-0.003907334964829913,-0.0075207704599426885]]],"a":[[0.00044656715896951483,0.002139673546532144],[-0.0005301403182011593,0.003994713320254628],[0.0005875725531032035,0.0032101750831862222],[1.340575668172158e-05,0.0017262824786351933],[-1.7255295880621524e-05,0.0018191521578798241],[-3.774029296858472e-05,0.0029029299216051414],[-0.0012705493602076427,0.0026995935295496013],[0.0004262846425999985,0.002348616033905313],[0.0004385864370701179,0.002701411215914025],[-0.0013457443739804773,0.003301246356619852],[0.00023072273095370885,0.0037821858730879756],[-0.0012369373356007193,0.002750275199207032]],"b":[[0.008437308889497038,0.009318822128426553],[0.008014350396526487,0.017711595198289028],[0.0008898871915930905,0.005201750382491076],[0.0034388901199338337,-0.007936062815310214],[0.013767701275693666,-0.002478418045092256],[0.01839457044521959,0.003696971801626437],[0.0019099682671904054,-0.0010213332122736534],[-7.775054638416498e-05,-0.0005897732458116102],[-0.0009818602937472372,0.005433914106281717],[-0.013692977564966352,0.018751403440328395],[-0.0008950864751695435,-0.004853807802868889],[-0.002571349297965588,0.013182173452897086],[-0.009199398982379682,-0.00349855891749446],[0.001095273099297203,0.006604362042768929],[0.004988676527859732,-0.005047560324183041],[0.009639893378344925,0.004478376781536615],[0.013111000561904203,-0.003758337343309452],[-0.006697717457838442,-0.0006235439524584354],[-0.0014176086553397162,-0.00822611037174456],[0.0014783700345322533,0.03480478442775149],[0.008702478359099033,-0.01056090719064415],[-0.003855534247164412,0.007026782346969841],[-0.0033314302775104437,0.0037926846275922917],[0.004673704057909344,0.007593777642914209]]}
