{"Name":"RbmSpin","Nhidden":20,"Nvisible":10,"UseHiddenBias":true,"UseVisibleBias":true,"W":[[[-0.00393602139123021,0.0031664143808246854],[0.001945059928944962,0.009437827983892267],[0.010940685511478684,0.00700782993564253],[0.0004533489605553316,-0.0017521174356516871],[0.007483620105011031,0.006066907463044224],[0.004565731422036379,-0.00026046929534496587],[0.008290494390276128,0.0016712456796711007],[-0.009828854050043299,0.013960858951934961],[0.0026958968752405416,-0.016503838945108602],[-0.006643691017371989,-0.009072027661168089],[0.007726595669541833,-0.010132822257343067],[-0.004709779425238422,-0.0070464336956276566],[0.0035672738167500805,-0.007054126168186497],[-0.0049334680810178624,-0.01439337681036122],[-0.009716891194038783,-0.010325816427254737],[0.004944775986288246,8.034915945434422e-05],[-0.0010332439619762934,-0.006070456457015584],[0.007859778573644059,-3.115156737814456e-05],[0.0006300185024176298,0.006351938698946874],[-0.008723103836194042,0.006967655040024037]],[[-0.011964353783603781,-0.005646739210155892],[0.004968602583507543,0.01132527884625105],[0.006021143800779583,-0.002322310954238099],[0.007503248903533178,-0.016861043405324107],[0.0035538702178360107,-0.004787827326167589],[0.005244362503186714,-0.003547904161660448],[-0.0015703210916447217,0.010122137640040638],[-0.007083458227139335,-0.018006474899088572],[-0.0017623723091875357,0.0003972833774437885],[-0.006592966309883828,0.0022880714817263034],[0.004754944491119999,-0.005743142053032271],[0.005733940821552114,0.0065565753009801525],[0.004616914136037813,0.0025338974030316088],[-0.006053394996111286,0.012255644400884967],[0.001825691476025479,0.00045274682641078395],[-0.002421526140862565,0.006735238429698269],[-0.003859469409766195,0.0007569702060299336],[0.00014146059911672188,-0.005718606921700681],[0.0027005200466379796,0.0028627127423197507],[0.001263644852679372,0.0035393924833479013]],[[-0.005238581232450582,-0.0014951374105125776],[-9.253544721191077e-05,0.0011347654287913664],[0.004198410678485739,0.005973103972631599],[-0.0008669039203718244,-0.005076086707837064],[0.002901671446283449,0.0009401662972433793],[0.001422331222668265,5.6565184520650236e-05],[-0.00037964063865660166,0.006142162455998506],[0.00448112063984942,0.01653674870047375],[0.002148660488223042,-0.012672801530556315],[-0.007007623105368062,0.008122734737649729],[-0.000995545507776566,-0.008496167057597098],[-0.008871036332027456,6.140712269882406e-05],[-0.004864416571240803,-0.00989033022643695],[-0.001616702410498398,-0.0022034660406580107],[0.0009528762653807183,-0.01624299724257889],[-0.003954000848518465,-0.008429497308675534],[-0.0010946585394534455,0.004027745715033927],[0.005652062249180529,0.0052996749741229905],[0.004165163822172726,0.010307185360408897],[-0.004788180602809444,-0.003673358698178153]],[[-0.0024747748682468077,-0.008956301714207021],[0.00453616104091672,0.013882648523243618],[-0.002259371483918089,-0.008087427902706935],[-0.0019763604214302283,-0.004249223754612894],[-0.0030830026686623126,-0.0012657489366346853],[0.0026870677927298965,0.005560872264572593],[-0.0001558658465217322,-0.020095560348133305],[-0.006629627964962232,-0.01350242952622153],[0.006619649025014418,-0.014136718730297532],[-0.007395052613645857,-0.004961954331120076],[-2.0222756683089746e-05,-0.0009773235552606872],[-0.00501414267935003,0.0019255885318634211],[0.0020539457834369045,-0.009993363328657925],[0.00521235809639907,-0.004768426707126472],[0.00914906586393937,0.006476820058917473],[-0.00318616916756568,-0.001393260389360569],[0.00033526831459654814,-0.01257935113762652],[-0.0027228505884644098,-0.010173306076682032],[0.005507907598872596,-0.0006098955975188634],[-0.0029884995914383873,0.008589533174428943]],[[0.0006576614040785609,0.010514811222727263],[0.004687420789290511,-0.002337911180427963],[0.0017612754031490388,0.001467543771898134],[-0.0004764826409961846,-0.018047357908786907],[0.0037791062384596786,5.4524154407449956e-05],[0.0003990708215046585,-0.006145752316333666],[-0.0022893611954748383,0.01536868904311178],[0.003913863281365003,0.0014470461582647412],[-0.002195532935169468,0.0070689062465288735],[-0.0018562686140402582,-0.005050898322672677],[-0.004388062478254581,-0.004595394082683632],[-0.0015908886292634343,-0.01397314105669414],[-0.0024236291684050166,-0.014369017687255898],[-0.0024196882783979537,0.00999486170422003],[0.0014468016313531947,0.002340416423591512],[-0.000984273535042593,0.007592411320563316],[-0.00030009977477649065,-0.0018510841655005681],[0.0036288804167016494,-0.0011824984894268976],[0.004270509998485232,0.00812190264061309],[0.0012397954544659806,-0.009784624163854788]],[[-0.0025582202593878466,-0.009590066924793066],[-0.0013532177500103857,0.0069945593145331175],[0.003212958283873678,-0.005788624880199492],[-0.001032399787162631,0.0029023568957799164],[0.005550910242045925,-0.007243578649346585],[0.0024102338392116714,-0.006087408860122575],[0.0021392023173814768,-0.007506782254135945],[-0.004043038987623544,0.004112066143290958],[0.0044757605702134586,-0.01370017691741891],[-0.0028197173024297898,0.01409193201446207],[0.00421183740189024,-0.011569637195643512],[0.0011237741126337224,0.024816929287126695],[-0.00594002566766243,-0.0069649336788465835],[0.0006813201366065126,0.0059366989331570965],[0.006837796238314796,0.009169498461590844],[0.0003217892532906036,-0.0076776318865187975],[-0.0026822946989271896,-0.002490523166627512],[0.00024712782428881904,-0.007984936337734965],[0.004945776823454782,0.009923674949687135],[-0.003814396265101866,0.011008770111841749]],[[-0.0016471799649444528,-0.004474242855628402],[0.006615297804551959,0.005848787216286272],[-0.0006706684962721793,-0.002751944646131832],[0.0012277821823167383,-0.004679977573846038],[0.0032706071752134774,-0.01278090655321266],[-0.0028274256760620464,0.007834444524592081],[-0.0068536515773368134,-0.004405390139102225],[-0.004446901400253931,-0.016744248516736837],[-0.00489352810240939,0.002552037289513796],[0.00018865174887062325,-0.010505928242159075],[-0.0038681276210976324,0.0056499381702920775],[-0.0058087467399895384,-0.013298092815595394],[-0.007714613476953299,-0.0010631227689024674],[-0.0008968584482548069,0.009127683261801326],[-0.001017841175095159,0.00033177717028594],[0.0040004587377719565,-0.004658877833103004],[-0.004528102850535154,-0.005268431799777413],[0.006836737337965197,-0.004430247064567153],[9.263253152878761e-05,0.001689847281727024],[-0.0003088362621314098,-0.009959668742127876]],[[0.002632809139229814,0.001677352281300748],[-0.01018182589827312,-0.0036361087203179757],[0.007777187253147848,0.003579435790795091],[-0.0007658591043218747,-0.011308584266041324],[0.00703784250046,0.005543996686334998],[0.011222803783937517,0.005851080407543775],[0.002122300966648243,0.003426572495668817],[0.004376697180312653,0.011042562430659111],[0.004653823940881987,-0.00023955704209165356],[0.003985150212370081,-0.00904053052722678],[0.008854278409263196,-0.0004307761192139674],[0.010039368826356386,0.006271889701337213],[-0.0074356423988613295,-0.01164494509059959],[0.002927003688463124,-0.0030056867234538797],[0.012272616014736473,0.016840194507692294],[0.0001752155595141922,-0.0032359716043020743],[-0.0045248581963458125,-0.007524595111453814],[5.438984915525583e-05,-0.013114597778819286],[0.005341342892188255,0.010359752990467833],[0.0047340512013528445,0.008271255193073318]],[[0.010945779582624816,-0.00921799164870711],[-0.0019922952818982216,0.01967333166627111],[0.004427121548895009,-0.003649937593673147],[0.004147215242811641,-0.0008388071523713261],[0.003636350787067339,-0.011014430153358335],[0.013909411725232806,-0.013721568669414522],[-0.00505574390585287,-0.0011842377391350994],[-0.010035099077801528,-0.007444495497962446],[0.0005750991425113707,-0.011676711944047565],[-0.00022351527383648526,-0.0034206501271422983],[0.01382181345689862,-0.01595167824121674],[-0.0068341928773647895,-0.010657658807388233],[-0.002694814568982422,0.0009225665135520131],[-0.0024060178295855447,0.003254360458323231],[-0.006040428628720373,-0.015129936045534306],[0.0001338969974473464,0.0008694125299095424],[-0.0026621287733240703,-0.00046356153284168443],[0.005104873215361377,0.0053903095314630015],[0.00183378106068995,0.0017575121207188738],[-0.01202896750703928,-0.005343627170671177]],[[0.005321779155861915,-0.006320706404520147],[0.0016673226731164998,-0.0061271461546801706],[0.012370520401596516,0.005662784933336171],[0.009105176788878781,-0.004859616447521825],[0.007381002626015896,-0.005002819054377581],[0.007658013985178298,0.006312053440787603],[0.006853292042969196,0.006660352316750052],[-0.006938046524380775,-0.0006471486306919749],[0.0022153742250272694,0.0024904760783498615],[-0.006426452983903568,0.0008173869977975189],[0.010027310943533686,0.006128728050179709],[0.011321205692974925,0.001539445088006422],[0.009888032423505883,-0.007109802013431947],[-0.006633783355671551,0.007940743351811866],[0.003155703125834899,-0.0010822966463741495],[0.00758621382054203,-0.0072171718957534745],[-0.005121864413588587,-0.0012708595423734492],[-0.00045556387493554066,-0.0014576407933029048],[0.0029710606398929366,0.007829976986996027],[0.001966908308977307,-0.00971130402459848]]],"a":[[-0.002056322989944586,-0.002049462401550001],[0.002406607684164381,0.006113279136896039],[-0.002210298865962732,-0.0038073329977944305],[0.00015505122287912468,0.009450715548944258],[-0.001796833249460392,-0.004299541553549748],[-0.000524859940730837,0.005746149014586931],[-0.0001884020429740172,0.003886964794222127],[-0.0028094829162728452,-3.2507302771270057e-05],[-0.004649829792313742,0.002989735468115617],[-0.0016249427388859798,-0.0005707931443258606]],"b":[[0.21595955790499763,0.019899276213797758],[-0.07818212591438226,-0.008435519646269088],[0.05861511231701869,0.010833973311337678],[0.05464367939485463,0.01709655703562646],[-0.007701380441818777,0.005151760021659131],[0.010483028261915769,-0.010005353596104966],[0.06811783551522457,-0.002343757601875589],[0.15121508458677413,0.0035219149573242734],[0.02452582501847362,-0.00023780231990871238],[0.0205747205605478,0.0044413160066579084],[-0.006206708323454176,0.008995050630107552],[-0.06670079358542906,0.018263453680597497],[-0.007999331968362689,-0.0071965459919524286],[0.001323525564899438,0.01086940803723408],[-0.04029211497602868,-0.0019427509154559149],[0.009362200087992545,0.004810372799805627],[0.03085027294858062,-0.0038156704647449575],[0.057750066296676415,0.005303644809232779],[0.05104688482330865,-0.005348359768307008],[-0.06324735686984681,-0.007740529470457506]]}
