{"Name":"RbmSpin","Nhidden":48,"Nvisible":12,"UseHiddenBias":true,"UseVisibleBias":true,"W":[[[-0.15332513505623277,0.19397903871808692],[-0.00013500532897532357,-0.25169988761146767],[-0.0003519149429918368,-0.08794066936477947],[0.02374682452390767,0.051273184043254205],[-0.02354583183214537,-0.06846314945344062],[0.08556698716285188,0.028399814776547825],[-0.033165337998990144,0.049171978897297054],[0.02394614010696099,-0.14583558264123805],[-0.10123931228360555,0.034392506192740875],[0.02125818928862855,0.06638364223469184],[-0.003265050892548888,-0.002731541775118577],[-0.0603721232926291,0.08783477091250337],[-0.17128308772166306,-0.12545478909141908],[0.16324480732619942,-0.04752253795502899],[-0.03976953916465915,0.017063261914782978],[-0.010552166402262106,-0.21137005746607346],[0.06791340365437518,0.03331357184689692],[0.07771256299388854,0.03949422437187195],[0.11582085957869667,-0.10298360923135766],[0.02649521110832377,-0.07883895142394312],[-0.05533397580651583,0.010943785155163801],[-0.1391912802212028,0.015989803855886723],[-0.1562405879819739,0.05639866333049249],[0.07716249768804725,-0.0663157432317389],[-0.06759404390531916,0.043509580652394624],[0.02801438127353125,0.02123837512694271],[-0.005206884632935289,0.054687842453751544],[-0.026112134856038603,0.04801571190019179],[0.005195068937115911,-0.06835839452451786],[0.24365982846108897,0.08730816579397582],[-0.09820739609247067,-0.0441112913040568],[-0.014912234537893875,-0.059814493625813585],[-0.14786016532234694,0.012177809337040909],[-0.07893957229172785,0.09206290144959733],[0.05681672514379158,0.0321611157778165],[-0.08208150407373764,0.11729734545918677],[-0.1394227840222606,0.025630485629715746],[0.08213700719833307,0.08458500520357837],[-0.026838159684636365,-0.03384606355162068],[-0.13457628290265733,-0.03863861889903942],[-0.08506763803515156,0.07017132406398005],[0.21466255924790617,0.10719878578592494],[-0.16868320403732848,-0.16728896583512914],[0.005508171585534789,0.0848908045031945],[-0.13176219315746032,0.09228524033636475],[0.015629989437355257,0.01289020172405897],[-0.004272424141500639,-0.20633587523679722],[0.044984157891745695,-0.017922095260517423]],[[-0.1025598220858905,-0.20704541844393365],[0.013484172651998486,0.2605678493027791],[-0.0979145879413357,0.029747057376967423],[-0.05552850261460011,-0.060509082794746004],[-0.030049788656604917,0.01740643655331126],[0.12480358886732705,-0.0504093106644551],[-0.08459244924990372,-0.06681678123094734],[0.0673180704787272,0.1164313565630463],[-0.10209323556899819,0.017767833087547247],[-0.12091520574279592,-0.048862674663816455],[0.10039676475026842,0.009213827969851823],[-0.06054852743360334,0.12756174242372387],[-0.19216456045154776,0.10569612382010375],[-0.016330431996981993,0.009620012062057152],[-0.014917927989858675,0.002692959842452793],[-0.0780280865103819,0.16258409458417702],[0.09696869278199985,-0.01953705764072977],[0.0953030426405962,0.030672275380484927],[0.10494606332755266,0.1444563235538246],[-0.046246944960249545,-0.023357815742196635],[-0.08722795860055446,0.07674505822599835],[-0.10683134905075649,-0.006486716731989272],[-0.09145098027654698,-0.0443582834328499],[0.03337044757726877,-0.006603889486088957],[0.0075739168914840714,-0.049589074378549154],[0.036327260286760435,-0.12502892161461826],[-0.036138599829178636,-0.09132905043049226],[-0.03642915628585686,0.0013297651199268604],[0.10640691925006597,0.07404070232639066],[0.17343127040466627,-0.09304646889388983],[0.004189147850546098,0.008959993037037912],[0.006459427499094912,0.1556874238552141],[-0.10140490771637015,-0.017144117911845183],[-0.11497160584318587,-0.07652034861520537],[0.004422168938475579,-0.08900355825025409],[-0.15121844590025557,-0.12867887315899018],[-0.02162609623130537,0.005507306400527135],[-0.03846268901953307,-0.05806308693923945],[-0.02987965581638637,0.001319910903986848],[-0.09217426440097917,0.04369619662555241],[-0.036996324816694105,-0.09437622259215067],[0.24342256768005002,-0.029921085235768433],[0.005066942801089172,0.06645997228945731],[0.07274844452214904,-0.12487471035548518],[-0.16398283089830648,-0.044789340393984134],[0.06598167395328257,-0.08510690733365969],[-0.10432953003703345,0.19327991835434102],[0.051109988912432326,0.06677079118547093]],[[0.022445912452753455,0.0958532500180841],[0.03838575822347321,-0.20640306296579503],[-0.16958509989623385,0.019248852785958486],[-0.021607236327670944,0.07096532484818281],[-0.023840521317710348,-0.04887047252089948],[0.12734942230926777,0.07798740685864232],[-0.09181428640667126,0.0369009093639225],[0.09465104570364884,-0.12277757823104439],[-0.05372540487207712,-0.15317938154625363],[-0.2376355966524577,0.03230400501538878],[0.175081578024688,-0.02518208286260645],[-0.006707329772436146,-0.2500269606106033],[-0.09234142803352777,-0.039407550793912643],[-0.12245512184298477,0.02412321101111286],[0.043777753814424454,-0.03146928840620693],[-0.09611952439845305,-0.05290417058216894],[0.034572604768446286,0.0004009900273771994],[0.0706508496809714,-0.13216685808134304],[0.036751318017088724,-0.1199518725117125],[-0.052336336208761595,0.09060783155304239],[-0.07258145808145622,-0.12855615807997736],[-0.03344330112710806,0.051900989143765335],[-0.03692313403807321,0.001973150808186416],[0.015619203011707715,0.039995693469979714],[0.051445300182090994,0.08068148917661393],[0.05954262552678152,0.13458856901113025],[-0.012047929499912029,0.032659159345275836],[0.06467632416361607,-0.03332044965762976],[0.163383858396886,-0.036573553305487],[0.05470876967558917,0.068733170066917],[0.059054952839517616,0.026000857510595804],[0.0402550285130867,-0.13883925500827002],[-0.058844649038864376,0.060780406500180385],[-0.12236210262723624,0.034661874484837346],[-0.06295450124384395,0.04316068796964465],[-0.1214654049842452,0.13041851021903006],[0.0995402810123904,-0.005567579967634658],[-0.15484614900293237,0.028729091522441654],[-0.05433214034125491,0.08824338056848947],[0.027315094556293846,-0.04906725175911854],[-0.015434934627979468,0.07553780902769798],[0.10012905015914204,-0.05272118884182378],[0.08704125223792847,0.006793618021565602],[0.13822478577083996,0.10172470331684595],[-0.09948610435134322,-0.02658231949852236],[0.11442871520513463,0.14236416518769368],[-0.15915543865347684,-0.13429122347379585],[0.004957634580863322,-0.11746937734046047]],[[0.10565511214094564,0.020566385947978102],[0.05205971695328104,0.05531424536263487],[-0.15636437738429695,-0.027184606316413815],[0.13390208843177018,-0.056826851948055514],[-0.022371410715712158,0.08847213924533283],[0.09919220245006918,-0.07186332179033837],[-0.0021108115037377965,-0.02719345815336548],[0.06588456679597839,0.09717988106331947],[-0.016851998991492943,0.22533384010290333],[-0.20088516628003833,-0.01784811187008966],[0.1708988990688664,0.015384520435311204],[0.05298033329287228,0.2804230427551866],[0.014841329773143024,-0.046595539209587596],[-0.08190699068016136,-0.02414777733794265],[0.14465994933758355,0.07322432648512425],[-0.00332345864740497,-0.02306166917745989],[-0.06901456156135743,-0.04685005037764288],[0.0182558533923809,0.17445198981704935],[-0.08448411060123831,0.1026461163239115],[-0.030827445695975536,-0.1763231201455089],[-0.0439745275080631,0.07221550721939947],[0.007730069011973241,-0.1179203285873687],[-0.03587541975743077,0.014471956369093856],[0.04893163290735155,-0.027304819371960387],[0.07850785725288573,-0.14785445849084405],[0.05801464364583787,-0.07047448586422492],[0.02105840135495565,0.10400086746463603],[0.167716221250838,0.043976778943197896],[0.12321187580344341,-0.006198637305764771],[-0.0486702388741079,-0.04001148059865443],[0.0804585490415804,-0.01816140157302721],[0.05866000464702949,0.06280055400167775],[-0.0018936525823225533,-0.04897339728011071],[-0.09680906091835724,0.041554657201630076],[-0.08534772737715922,0.0761663248367553],[-0.03513020665945845,-0.13083068559230734],[0.16411537636521858,0.014665652840031594],[-0.21497463457801558,-0.026410385208275645],[-0.10241814654354088,-0.13667798762248035],[0.17622606940611554,0.024469389537583708],[0.020724450451379807,-0.03062080216588632],[-0.05422330581478543,0.10219560819558972],[0.0533310233140118,0.02021174270474798],[0.1186091140195538,0.00848549959392973],[-0.023161057402619954,0.06794510487423128],[0.1321555226597099,-0.16588439356164433],[-0.10024167207419332,0.12776001458482913],[-0.028368764360689865,0.10072815979849413]],[[0.0796024023864023,-0.015421762545339342],[0.021316358514987192,0.05502956013608015],[-0.04603753479652469,-0.018824873072674213],[0.2223456408237357,0.07811816993054262],[-0.017748267429133196,-0.06377058885583911],[0.04558886139601607,0.036683458829503995],[0.14642940817702751,-0.040915813466477165],[0.0029735393609106302,-0.07875824545341431],[-0.005571692173269938,-0.21081805454689048],[-0.03942096300857543,-0.0008174007460921194],[0.05972531026682515,-0.05245320733966605],[0.06226370112047629,-0.18216053925033257],[0.04510810498028844,0.09676536125221],[0.012149010268045544,-0.0031993637705431555],[0.19407834758515052,-0.07785314619037378],[0.12879270652412894,0.10784796995739196],[-0.10851896805597665,0.16902708655729812],[-0.016376156155627795,-0.11495692603638373],[-0.1806018650036254,-0.08117419557833276],[-0.06661559212987177,0.17103178532185578],[-0.02667024809533166,0.03440058964708433],[0.019820866174077738,0.1627251857523151],[-0.022630846439538953,-0.01646168398364172],[0.09307906314851991,0.026382075906657983],[0.0809467080196835,0.15675294864163633],[-0.011953897187110868,-0.00025327081160597724],[-0.011055184517656063,-0.19055131669015524],[0.18820812294640565,-0.07167670199746828],[-0.005101363438069003,0.020617914171328907],[-0.10558832090848885,0.023589115986844687],[0.10765159198861853,-0.01136181238826546],[0.05694241064035592,0.03335800085438275],[0.07595229286149462,0.09924286617923761],[-0.042430288737852186,-0.0817583744650507],[-0.04793797459302711,-0.15275009528949604],[0.017986430724673153,0.0765543420597579],[0.1404551904257144,0.012902817112646249],[-0.1494816849962077,0.0235777775841952],[-0.12995085295926853,0.09861004104082952],[0.2511363296507351,0.012233914585744276],[0.12985103696628428,-0.06487571697001905],[-0.09876800009075852,-0.04275820622608151],[-0.025645737641306808,-0.118835903092689],[0.04396078129483134,-0.11962224542715909],[0.024443198028539875,-0.04868516546358934],[0.05248849547314801,0.13118952273138534],[0.0064920070568958346,-0.12750413889230924],[0.012335480948638405,-0.028035056291563783]],[[0.008419405760219649,-0.09640807956864261],[-0.03411372200051535,-0.1497055086323103],[0.10060969912151034,0.0606291844932494],[0.1713701199883915,-0.07074166953132133],[-0.013783268516475706,-0.0071803556848247805],[0.05057265193016998,0.03239614735342449],[0.2268500479743703,0.05808541016019654],[-0.020064826803122455,0.013371879041051853],[-0.01021274820854822,0.07672470744501989],[0.0527295685276782,0.02941437343105983],[-0.022562282372034777,0.04918691292163887],[0.011443441934920444,0.08176902899723036],[0.009939840965987204,-0.0869236738798301],[0.018155017446801883,0.04669725672815002],[0.11150297196943032,0.08273085770327712],[0.1870469868656655,-0.13060583050192306],[-0.03552496265371009,-0.2851406400067922],[-0.015319714467651417,-0.013409685568552071],[-0.18849370138380672,0.07263264878775395],[-0.1110121251432255,-0.12804610312327197],[-0.036913800619759685,-0.13601535052407948],[0.026275776723935055,-0.13928943705672583],[0.060474845788287865,0.035167474297914315],[0.10755889685854576,-0.05259009387900617],[0.03283691271885546,-0.1367959518022742],[-0.10455949937619878,-0.002436830477960406],[-0.06713234653683636,0.1743575416444925],[0.0919355597587981,0.08568565260071778],[-0.13269075454422735,0.022529042107318487],[-0.14656825646892943,-0.03404704285813754],[0.10839499481406051,0.034601002002345345],[0.030174418587224975,-0.030091052524676108],[0.1612146104441724,-0.12763214332117548],[0.03330941195004175,0.07169915634602211],[0.009142420167765923,0.10009629936654385],[0.032547727639352445,-0.005637008120927257],[0.04548409047693628,-0.004241611238416701],[-0.019697882050779904,-0.015381272247738255],[-0.11328970189378333,-0.023535841818786415],[0.15003934600880336,-0.021243123789043677],[0.21981013264398117,0.07720278060893937],[-0.06069832246420087,-0.0164838138341371],[-0.019883396629367604,0.20205171994508647],[-0.016591764093200168,0.16527984358213416],[0.0488715429018619,-0.003184416473247022],[-0.0886173640336979,-0.08519034001762839],[0.06369963567504666,0.11614016570804746],[0.08611027261607702,-0.032664113286099326]],[[-0.02758245224547189,0.21145308391246667],[-0.0683446321125834,0.14369736360826674],[0.21495935267860308,-0.061170776256458156],[0.02038505505372722,0.0495115110483843],[-0.032308484655734146,0.020788252183034296],[0.05464448625165865,-0.06273695263423548],[0.1479192099208111,-0.08797013051204901],[-0.009175220239956582,0.010280523545975797],[0.03759230564102372,0.04361859772747993],[0.05089713110069641,-0.04505909453034894],[-0.01755787470588018,-0.02878564048824766],[-0.04023340120309558,-0.031032454091125934],[0.0001288345635287556,0.08875551382689699],[-0.0598557770523033,-0.058291085246185835],[0.027614666001244577,-0.02821159877113064],[0.11496422128871468,0.15539678840011661],[0.07973754191974304,0.2785874110754675],[-0.019272423865057165,0.13788639765303493],[-0.08939545858541857,-0.06437848348384981],[-0.12895620195023422,0.06029946679514931],[-0.05044038873912654,0.15656172645844646],[0.05668448006649671,0.0491823444295832],[0.20221360045053455,-0.028692435521208433],[0.037667730430812646,0.11338907430123525],[-0.009035088689671945,0.07383267055704384],[-0.14609920238094865,0.05699574209416801],[-0.08317502772859078,-0.05962276259723874],[-0.09964668484098226,-0.10779634040122875],[-0.1863882314622035,-0.09074400656944706],[-0.15447899805032653,0.046511637412432735],[0.0665934168054488,-0.012402303777342309],[-0.014711491046417027,-0.031942663144951734],[0.18673390588611527,0.14505504739042843],[0.10552738698530738,-0.09134602957300769],[0.022976923948983,0.04556460053713009],[0.03930538665088661,-0.09880632131093853],[-0.009694381877970741,-0.008732961751093081],[0.04181318152666024,0.0024624756570652963],[-0.0260052208247794,-0.017189920905811347],[-0.011932314232975364,0.002179996074273419],[0.157440969778938,-0.08812926167500508],[-0.03841810067900832,-0.012099921458565121],[0.0726231622959524,-0.16517455587192542],[-0.05261749379582119,-0.12666155427303186],[0.07587359621551168,0.0010323244811683975],[-0.19643221000348682,0.035747354950803285],[0.04219063806745273,-0.030020532428414896],[0.12222646917694721,0.02105969960719528]],[[-0.02244395156398041,-0.22880192659673093],[-0.06015374562809208,-0.11266205676602312],[0.19286645627666113,0.02969458558723601],[-0.14743386786552445,-0.0034268505915391687],[-0.03265981966407043,0.07751083965252946],[-0.03198776320778613,0.04223197398510592],[-0.0027027643240416883,0.08313627783359276],[-0.02058479581548154,-0.0027280708749714074],[0.10645898567872224,-0.08329129453337701],[0.04397562591684896,0.030940652830619784],[0.003268189531553169,-0.04570724366089502],[-0.03724052651790704,0.018747500849122987],[0.06978226983026516,-0.054444350331926177],[-0.1188213167606984,0.0373764876542472],[-0.0017971197102779593,-0.018627738564340555],[0.005201595334708919,-0.1572848719901239],[0.11741987426114961,-0.17602099265362722],[-0.04121726533429579,-0.2055209209641261],[-0.0029528362380032962,0.013306556091723246],[-0.09296090538643546,0.008956333133153393],[-0.027109039112861378,-0.1269961017034613],[0.09156057346686942,0.033169321255432066],[0.2159678158698717,0.042497364030715086],[-0.10878095646331287,-0.14323294362093625],[0.00702768152669727,-0.07530922418488777],[-0.08743878578049488,-0.10037206882069642],[-0.037877832642716415,-0.03621758279641522],[-0.25214173687321567,0.08892396055605788],[-0.11187997566535841,0.1384502828990003],[-0.07498721446763752,-0.03976296835426317],[0.026039368679470966,-0.052014601020754746],[-0.053403382239232675,0.11710561955544627],[0.09265532606897829,-0.14574942802716395],[0.17369554242838636,0.05410251995229105],[0.005530859057770499,-0.13993396846159387],[0.05346468332553947,0.1726297177809432],[0.016371829522333712,0.07000769831529571],[0.021665561142649312,0.007634933108748675],[0.09979332925589293,-0.03309671309246646],[-0.07725206257704331,0.041482956883355446],[0.04081274284503683,0.027981979417038644],[-0.043894617098046575,0.08568374161832132],[0.15208659744202163,0.053375495918824546],[-0.10419589488800494,0.04955844301407049],[0.09797188778457568,0.04192498679606787],[-0.15318911767354526,-0.04085278777842451],[0.02540093132964299,-0.05616899744384901],[0.06450757592563525,0.0689226916881564]],[[0.03212169740199296,0.1276438388367573],[-0.021639415600870453,0.04469074725009093],[0.0482789947572876,-0.016476577259084427],[-0.23863974760915338,-0.05170509664020187],[0.02278034667155434,-0.23313894176073258],[-0.16876562473337578,-0.011526979317192945],[-0.10553653890251243,-0.07524049446281579],[-0.058419239956488185,-0.06686334973238164],[0.11826682618584572,0.027063005647484758],[0.07835842146222986,-0.015596446520512751],[-0.04690733913416607,0.12142411465803023],[0.008303860107092623,0.03738437790560154],[0.13459353038398064,0.06432927558679656],[-0.1093720192846398,0.004356095141423397],[-0.04077921025492825,0.06611118381056043],[-0.08044106294253311,0.09206824348028851],[0.037562516858530945,0.022742694862750452],[-0.050312135854039305,0.20414583902519604],[0.02882622767791471,0.024545433022266465],[0.007101247809591486,-0.017940955857723432],[0.04277549312440262,0.0962699550811817],[0.10947051061362949,-0.0739626429705807],[0.11142797052077158,-0.022420989804654366],[-0.20514290211246372,0.10837261840211186],[0.032317736990356054,0.08824532104499833],[0.003509706127623021,0.03910928143097689],[0.024250486176563734,0.05372505599488053],[-0.22960925430523704,-0.04995853382413277],[0.011747294212966372,-0.1550010444207709],[-0.043521026073250785,0.014668482474871231],[0.005458161806799467,0.09810300860021239],[-0.05520951631572643,-0.10380553841474717],[0.021930688307498464,0.08424659404755977],[0.15617131656297453,-0.08366710922847502],[-0.003651974340103923,0.11543598380568862],[0.06564141062756845,-0.1821638563579754],[0.04020828957446683,-0.09881940006662915],[-0.00368239718872322,0.016315006586927725],[0.17053881766825407,0.0989944053140352],[-0.0528557888704757,-0.06493921303530426],[-0.05035635748642312,0.004318199896968698],[-0.06442428769549007,-0.17539904458486655],[0.15716264213112244,0.022327928706110747],[-0.1234899605818099,-0.006967005240954944],[0.1019019096492253,-0.10206564842524794],[-0.02607623089383304,0.02848567563851309],[0.025919672079813466,0.11833136843361443],[-0.04599807685904095,-0.14512347628368485]],[[0.07952908477942768,0.0011818202878497621],[0.02000125960299794,0.028868238228845225],[-0.05935186840981855,0.036317174119997755],[-0.19847755622154148,0.06464561331242431],[0.081415301540377,0.34460740266224493],[-0.23371098374643162,-0.03183924104872742],[-0.11132962798433212,0.07135454105140156],[-0.08214419075272418,0.11508758992570858],[0.07609768986881046,0.020379537181614643],[0.1267976236146962,-0.009750499077132935],[-0.1556441436484189,-0.14829837854535352],[0.058731582696818496,-0.1300887822340495],[0.14321526149391714,-0.0056467424105414],[-0.0024911569895651967,-0.02002064199073234],[-0.1218634602401776,-0.06968209875850928],[-0.09075822915646992,-0.013466121221170467],[-0.08589949227963772,0.06181727336698086],[-0.036363244255503975,-0.14762303208620398],[0.035912528674944585,-0.06444541487995956],[0.13205060171613484,0.04110879904625065],[0.1236832963604595,-0.09103170869629121],[0.08497493174677101,0.04645563724556065],[-0.016761539329652526,-0.013238199119730305],[-0.15929176309379092,-0.019260159812916653],[-0.009186228629220776,-0.1333716346001394],[0.06327308335091426,0.07643535342482613],[0.06684293850854531,0.01167090050043912],[-0.04953905995466109,-0.02277537253937156],[0.06023878175342938,0.12275904633408347],[-0.03441146466833395,-0.00868202926545894],[-0.041871029457017636,-0.09280139194309354],[-0.024315599820136757,0.03873295950587798],[-0.034928451699149085,-0.0389684206244322],[0.07791633244774979,0.038564200231354095],[0.009694769788313188,-0.01988351772370458],[0.07452447542884919,0.12006759721448201],[-0.024435003905364083,0.1168417536850838],[0.06651702901770602,-0.06863541769150573],[0.15234544574348377,-0.12415031945591155],[-0.032893539571092346,0.05532629962798707],[-0.09797994823664248,-0.02470637773169891],[-0.1152821251502263,0.1354213161454029],[0.041712128999975166,0.0132857261791356],[-0.07088457570683811,0.02475455531365229],[0.09513910327203391,0.08736292551652143],[0.04268085537242324,-0.000928966245781125],[0.04039378463532727,-0.08108185350122978],[-0.14665494213472902,0.15989832581694946]],[[0.03471790327067997,-0.016878091687128723],[0.036496067681195,-0.10314361553258782],[-0.05504112103172719,-0.08672714696792888],[-0.043132412398001564,-0.03543542654192111],[0.06762036696549077,-0.33227843522879386],[-0.1447887333760282,0.02625738194044636],[-0.06085832943543153,-0.02911541225049201],[-0.06448214188739396,-0.15896734595047396],[0.010092720819464858,-0.028596411362428124],[0.13216724253499643,0.03312943049063543],[-0.17642860085341994,0.11826572364385378],[0.0629051903238311,0.22528726583244668],[0.06928723701232178,-0.043051193670999174],[0.14473600226417593,-0.014928741648397624],[-0.16714928838938548,0.05380590085963886],[-0.04037675441806895,-0.11559754697482628],[-0.12616163752767637,-0.06258268590886634],[-0.012927453766255221,0.09497455534308687],[0.05087412399806477,0.020847194863304754],[0.2062580842015148,-0.06578400232652402],[0.12292541805240763,0.09759649988859201],[0.013480319428415028,-0.0025881084877146894],[-0.10357953038469493,0.03753455546804556],[-0.03621822370752744,-0.07200951044636039],[-0.09193825573458675,0.12847612219729976],[0.06368108710015194,-0.14395192022123354],[0.07090905930769463,-0.060033507956518045],[0.09607881224451598,0.0820832642934996],[0.021595469318324713,-0.07754804505804103],[0.013436912609617718,0.03400552181988536],[-0.12881376347645157,0.025561021078400546],[0.006337285739537531,0.03827298987731241],[-0.06964801043512858,-0.01821411768192047],[-0.012746544922463465,-0.018625710492190695],[0.02507871064394626,-0.05176851116255875],[0.08692756100961452,-0.006394517403442219],[-0.1426438768343379,-0.04075963045241299],[0.15944943887709032,0.10508963085350975],[0.061480015336697176,0.07180417237059734],[-0.07817886080261309,-0.03221631726978844],[-0.1394454697125188,0.03762502598229165],[-0.09413996228234038,-0.03372886786729929],[-0.1195014551162292,-0.12481142788167035],[-0.0033364734257860743,-0.029292335310200538],[0.057968691191162935,-0.018937767719154883],[0.027415199741689322,-0.030262128526185036],[0.056322991006430796,-0.03136940698244553],[-0.1435715368923476,-0.0966761337418544]],[[-0.07227073366453765,-0.0808171272283112],[0.01967677932610034,0.1879906840003509],[0.00764631322640856,0.11374227400532909],[0.059141005962993334,-0.0018060214762605528],[0.007347807737959313,0.20617128484114525],[-0.011163457724012048,-0.04143586263896962],[-0.022361520334556583,-0.015549913785717446],[-0.018715102887381187,0.15256825768174664],[-0.04829146755725247,-0.03874187223133822],[0.10421103573103287,-0.06440072420663527],[-0.10809894813821237,-0.05939421334220619],[0.006929791635840304,-0.20020609150320287],[-0.05904838168099082,0.11037700592213322],[0.23258238711959917,0.0420819558974349],[-0.10122337826209699,-0.037943925751724075],[-0.003987113569158257,0.19042503837119454],[-0.04309998018890329,-0.0022655275851649354],[0.027367586626549,-0.07184039832927054],[0.0895714604688995,0.04714583195291847],[0.15197264191384965,0.08440755953496779],[0.03602133027543273,-0.08128695478932221],[-0.07917898205964154,-0.019916043765366813],[-0.13444126126101516,-0.07615085398263827],[0.059458272966763086,0.1149070637028311],[-0.12120097173776244,-0.09774399459588147],[0.04144490958111251,0.09581622640153241],[0.04622129963269037,0.03564007338372637],[0.07511122347246706,-0.07871437232744495],[-0.030094858169767594,0.06237358655604846],[0.13565557894110972,-0.0738833455214724],[-0.16879007314996344,0.03160008746490414],[-0.0008481897881813633,-0.016939609393664016],[-0.11650198025303593,0.02640128374151839],[-0.06433297600439482,-0.046521794877958766],[0.050565688001449983,0.04155781937593373],[0.032721950735505184,-0.07576746921990224],[-0.19282611030548913,0.012006095658233856],[0.16219128767360003,-0.12004213778762887],[-0.007141195965395087,0.0037816634379538023],[-0.1253212202038697,0.021483503503753613],[-0.15072308456860017,-0.03702758159403417],[0.03594571763126142,-0.07728205527503783],[-0.2215011317136924,0.20345482460773093],[0.007147034385976168,0.0071978432515440866],[-0.02737887124894714,-0.0717096721180869],[-0.002664320884055419,0.03353359123185317],[0.054410035886380596,0.1668180419860005],[-0.0447788376416672,0.029836675450311437]]],"a":[[-0.0012343693355501438,-0.00934958803282581],[-0.020894095107101125,-0.006338632411472975],[-0.01214722920263877,-0.0021762948440890123],[-0.003357724542172721,-0.007897477810202735],[-0.009683847836211795,0.010991491904500803],[-0.011193108397343235,-0.0013144256718231055],[0.0014094374660571347,-0.0015789451079141138],[0.021993542692989306,-0.014245815055040988],[-0.014046034513584407,0.00483754666190402],[-9.407815133434778e-05,-0.003707024680352234],[-0.00010509882536162334,0.012619076243626967],[0.026411822457625383,0.0017004161605204352]],"b":[[-0.008079755900860476,-0.003368408136806538],[0.005879493960837716,0.007140609100915651],[-0.020024603929021303,0.0019451117057880894],[0.003980334404960677,-0.0008284303953284096],[-0.006324714202254488,0.0012284949701063903],[-0.01294475262413484,-0.012624409437705856],[-0.0054173573552541935,0.006823990783347988],[0.024516553984360256,0.013091534346747064],[-0.019204926448962108,-0.005984665409863046],[0.013701259065959405,-0.0016190677914738132],[0.016755921291277013,0.002311132242111469],[-0.00896378958859457,-0.019933027986746857],[0.006683516436540612,-0.00042916925791885676],[0.00700487828162023,-0.022610882279006535],[-0.013202648592813424,-0.010887334365905799],[0.005134887936052327,-0.015681240491670537],[-0.011373870594330161,-0.0001113843533617312],[-0.0020579931555587154,-0.0028463505558341488],[-0.0033467785388460614,0.00796123087694714],[0.0028528480190761255,-0.015867869012052567],[-0.019969578216979228,-0.01226765599858844],[-0.008362213021462372,0.013839959275332572],[-0.002266439528786113,2.4603204186537823e-05],[-0.002005572733208106,-0.0070510721280469596],[0.009242866802841969,-0.00516593884485392],[0.0022959464839013796,-0.007030970119172987],[-0.0056524193675884975,-0.004690687986151204],[-0.013107030762831408,-0.006935471649383892],[0.006042842388108536,0.017319680979221656],[0.0007895796781460846,-0.006952655091158773],[-0.013103521328277426,0.002635654133890874],[-0.003768984115428436,0.012711969859274024],[-2.096775445872783e-05,-0.005344422677332561],[0.0054249369817914745,0.013606118714327965],[0.004665788922746326,0.02211523683116741],[-0.0028872227204166686,-0.023435802228865724],[0.009737969970309672,0.00012338220217582586],[0.0052474657119451545,0.006692401891236493],[-0.008942499336429953,0.0094209838251111],[0.009171263333660687,-0.0006845132812189007],[0.016721867112799785,0.013998676577849062],[0.0008796444204566878,-0.011218344839154383],[0.007214557271419761,-0.006835881929412725],[8.746615899767349e-05,0.004683531619603115],[-0.004533151465458351,0.012555642245023833],[-0.004170916645483069,0.003263046711780168],[-0.004539498267617052,-0.020202588359988897],[-0.004538640121815835,0.014732717287145907]]}
