{"Name":"RbmSpin","Nhidden":48,"Nvisible":12,"UseHiddenBias":true,"UseVisibleBias":true,"W":[[[-0.010035073578351449,0.02398200205749585],[-0.001108715204561548,-0.02962149567331044],[0.0023665482225593204,-0.017952679499771935],[1.4989024723761783e-05,0.014146715831626135],[-0.0008131610287374733,-0.006676952417741705],[0.010483327356274337,0.01092363385270347],[0.002996791046844365,0.010950944866879577],[-0.0016455982900888833,-0.027635441084793645],[-0.006025806108866292,0.0021925036611728055],[0.0014936530702253257,0.017356890955466296],[0.00014624887346426768,-0.005417333248903301],[0.001419745370593785,0.007551588157748717],[-0.012414475654329864,-0.0008777171544348051],[0.016207260108974136,-0.004118813153870702],[0.0027302969578797544,0.019247459416213624],[-0.0033707380052392186,-0.02910187544276404],[0.0038965933083223176,0.007375530253481583],[0.015496149213520577,0.01919343734773888],[0.001812250997590637,-0.020234755278491983],[0.00542740432052049,-0.010730475682526101],[-0.012328315980004218,0.0029547457088588275],[-0.0036163448783645157,0.0027372192006975475],[-0.009024869882652997,0.0011342379375809662],[0.0002719068509701384,-0.011606456676096203],[-6.890183365516263e-05,0.009975524143069845],[0.0001030254020704275,0.013829908157482588],[0.0004707427370424312,0.010927098477324211],[-0.0030962917870539833,0.0007667617264261133],[0.0011452989470917563,-0.01786941718266401],[0.016177176190172473,0.013225591900045111],[-0.005453352220202027,-0.00822620635115559],[-0.0002360031110648915,-0.008687274732832857],[-0.01363024640863753,0.0023231656700976578],[-0.008174342627210129,0.014805473403731298],[0.0002820444828102558,-0.008066773084071234],[-0.008125560816055732,0.0068218976234398045],[-0.009261806877005467,0.006952151696122898],[-0.001926172997642255,0.0028342016966572017],[0.0017277464919631435,-0.0064602121551529485],[-0.011065487906311173,-0.009859234865557858],[-0.016475890924522577,0.003583561573473168],[0.025323848969033776,0.02392863811563349],[-0.015904085370697468,-0.020940471079820354],[0.0037931117978917037,0.02368143002511885],[-0.0022798456029815557,0.0051654839700929316],[0.0020167078303755977,0.008996982696241074],[-0.006074265717631405,-0.02590472291630722],[0.004325641859724608,0.01031082336604208]],[[-0.0041364046245605645,-0.03859013360833692],[0.00659510603617355,0.04891922889374429],[-0.006684018685649863,0.012228154994291762],[-0.007721969075131446,-0.010965443583196845],[-0.0034277286784465985,-0.020878172889257952],[0.009384235312542013,-0.003380671486710756],[-0.002401890878536203,-0.0012421565365641528],[0.001611074056658766,0.00044449447155751713],[-0.0035330331244300553,0.003564658699056705],[-0.007922768222042142,-0.0022079969614271426],[0.0039247651419060045,0.00489948424025887],[-0.0012432597259368972,0.024894184979830834],[-0.008918207115087439,0.040258833393717414],[0.0008880468433956464,0.0010126215920086108],[0.003301427584726684,-0.0005452690246462728],[0.0011310694929154827,0.02893820979944998],[0.0008621548017229898,-0.017126774990880434],[0.009750454230318078,0.011188575012952345],[0.002843746029568374,0.023082514051464904],[-0.0010552282338989446,-0.016829940066153504],[-0.0068271170706486325,0.009178381803853282],[0.00396707158883657,-0.0008428135372902526],[-0.004238099891436511,-0.019377438467571773],[0.00048157417803155735,-0.00890931438302569],[0.00348210136140354,-0.01576860349431979],[0.0021131421956736996,-0.014419279345218012],[-0.004412053490813081,-0.03334687854462568],[-0.0041650349757032315,-0.00700294279310999],[0.005329949645433824,0.01497002149455176],[0.007893126546122411,-0.007396265987713285],[0.0047571499854443915,-0.0012258126401849465],[0.0027976723338415054,0.030943982573267147],[-0.008345623447662901,-0.006691976552766785],[-0.003299666268955287,-0.021803823447161218],[0.0021131073497297997,-0.004821313762821827],[-0.010678170661187337,-0.010933446785018851],[-0.003991561365057491,0.01591693499946075],[-0.01074703675263908,-0.016294358438433257],[-0.0050656777122111895,-0.0021709078253988805],[-0.0010338386791037735,0.0007734651662254085],[0.0002090031253934151,-0.026242601566714686],[0.01434723570229021,-0.004393879188951321],[0.0019253414366979336,0.004834111883747621],[0.0008007976858264301,-0.034683216858531776],[-0.00310582741484742,-0.0023738559920571055],[0.00015921082427572573,-0.018545216221882953],[-0.00645739360114875,0.03303577707732815],[-0.002016385667889254,0.022910661499863542]],[[-8.21316803289833e-05,0.011958705926265663],[0.007769774210264352,-0.024900515340558413],[-0.018293245821026264,0.005334405361407743],[-0.005104247829789445,0.007045127847743788],[-0.007072749981553776,-0.004602056056323394],[0.011452617954749347,0.007546663398470132],[-0.006413873684406329,-0.007986901281251077],[0.003973690654825029,-0.017701408487235774],[-0.005596616974328254,-0.025676208507576206],[-0.018154288885710607,0.004122982970297763],[0.012323709896704378,-0.009876539705119787],[0.004307978231865615,-0.018613629159435912],[-0.0043814711878949536,-0.007259938616920223],[-0.00804090603588662,0.0011841252660023767],[-0.0004182072906889821,-0.012991414785532734],[-0.0022060048009557246,-0.00415043716929532],[0.0006909710034638413,-0.004954410828460277],[0.020357532240899055,-0.020714039312610285],[-0.004771032571221081,-0.020372804356369012],[-0.006125060119808543,0.019983573365846937],[-0.008187715263331133,-0.017049442204885665],[0.0024182462875963037,0.007170139201057756],[-0.008899235360464993,-0.00041382793059503383],[-0.0010083072944832904,0.008886446840359205],[-0.003438513721971025,0.0005172736140304489],[0.004156996397841813,0.014166000179898375],[-0.009760414938226223,0.0006984525022328824],[0.001065890076707656,-0.0005813267114320432],[0.011501444272861707,-0.006404283490371592],[0.007091900287963875,0.014731219569295757],[0.008558015144585108,0.0033302706018931293],[0.004346839110879184,-0.012539411589859885],[-0.0077088104360916445,0.014656232300724062],[-0.013508707193959526,-0.0010348570766368166],[-0.006689545393633665,0.02288160203613553],[-0.003356960306763852,0.020908531636926093],[0.004938607475788135,-0.0002103027970288046],[-0.016918651936431973,0.012065094650862942],[-0.00560602122769302,0.0026734460784434326],[0.006934228705238525,-0.01028617647775569],[0.0047381204595644474,0.022011904205314875],[0.008814376622348515,-0.013132389419640995],[0.0021161956451932872,0.002790251198803933],[0.011899829053688523,0.006354981986638087],[0.0038616052972521965,-0.0044557742685666975],[0.003889420093637099,0.012936455373984374],[-0.014510548485975263,-0.002728581264340408],[-0.0031537277996158547,-0.01815895693230315]],[[0.003013991447578472,0.01087592951117099],[0.006635008185647074,-0.011040897627346575],[-0.012105084260108801,-0.018438833635612936],[0.000622632290062609,0.0006286334838292878],[-0.0039544326117472595,0.026970505607256563],[0.003802893039313747,-0.034081408304655204],[-0.0004948771829346992,-0.019858159469739203],[0.005067804613555776,0.00250679362510528],[-0.0003467955500175943,0.023160810331534627],[-0.01242649174519794,-0.013404330447539903],[0.0075358889826251906,0.000739607014355063],[0.00449283989660358,0.03320835021067314],[-0.006068971333169912,-0.013899011545101328],[-0.0017474197766328833,-0.0024150309285273426],[0.009709265388205891,0.011231681796749193],[0.005157189797208013,-0.01106059697699726],[-0.0025464836454191456,0.005772650849004519],[0.006869211409824819,0.031584569863112116],[-0.011253778405922262,0.02529088504536843],[-0.005723101343826804,-0.033327034335753555],[-0.006503953080141439,0.01888317766857777],[0.003966182946125722,-0.02543328259742017],[-0.001379886605421999,0.016142973007079675],[4.00181187494602e-05,0.00021057715533489746],[-0.00014202501593040817,-0.02894630315244402],[0.0023589831293935057,-0.019216982021387028],[0.0028493857134892562,0.02160127664321447],[0.008972018735680121,0.013791631508737382],[0.007124069356715025,-0.0047633771353703235],[-0.0022659819328066416,-0.018781093977884154],[0.0031603314098097705,-0.003885483244788093],[0.004825098834821322,0.012229870840196772],[-0.0014853929075976163,-0.00858790929845153],[-0.010694803154968463,0.009227944645075344],[-0.005355231224479107,-0.004544517517073529],[-0.00516510240627879,-0.02507770544133773],[0.005485018858268268,0.004761506693001536],[-0.01216942446040256,-0.009322864655491394],[-0.000840711999757899,-0.03377605874127088],[0.010329845843508392,0.015578029424855599],[0.002813205479860855,-0.009522077152928566],[0.0024690969332905347,0.015708707398884754],[0.004204795071721266,0.005367408380503278],[0.008518823861293818,0.013344353041412836],[0.0001924661147878501,0.007663366757403162],[0.003726582387709855,-0.02668850681031368],[-0.01110849145700976,0.010940594961255202],[-0.00573027900553502,0.013224464993774256]],[[0.005104978446197981,-0.006349811382546825],[0.006044676099191912,0.0038663132711497373],[-0.0010183469588705332,-0.013142394702606391],[0.00767704692952653,0.013067775657514987],[-0.0008021635506988934,-0.006229278367007346],[0.008203477040459992,0.005078865456620236],[0.008120871120280596,0.010315876668731738],[-0.0002805592597910952,-0.018186833048567146],[0.003712943503017713,-0.037057235313237506],[-0.0036954670522544083,0.0068926421891338146],[0.006250859979728143,-0.01143428182227305],[0.008870708638106966,-0.019707197293043727],[-0.002807806936356367,0.02752890917682039],[0.01107304059375095,-0.0018173273727358403],[0.013916221204789933,0.002729516758187607],[0.014014100378821793,0.004656611616918004],[-0.009974625117654495,0.015106397105720034],[0.0021540259562956043,-0.011372045085450073],[-0.022846792945580213,-0.011923972890115191],[-0.004479185782836842,0.016983025897492246],[-0.008738367277139926,0.01147142360715368],[0.004352863005388782,0.02572073928206466],[-0.0026932047957481894,0.0065575389824792125],[0.0017639221278022673,-0.0023540726501212186],[0.002254378577429283,0.016845324596231514],[-1.2540292824638178e-05,0.0012144981155862526],[0.0036403425135076604,-0.020620844853907562],[0.007425474922704063,-0.01292471904889451],[0.002930300835528556,0.007017390105250323],[-0.004093756384581968,-0.006448435339662],[0.0015937417636492882,-0.004320188309529334],[0.0040691520644689175,0.013989136809650748],[0.012094699742133648,0.017725093840361347],[-0.005388586825941068,-0.021357946575559852],[-0.0022664358263966232,-0.038935357773664324],[-0.0031202058178315434,0.0048675821411784635],[0.009556511666094065,0.008433334574362114],[-0.014977076450208843,-0.0021515317406132555],[-0.005585314759999122,0.019529204198828906],[0.010969831072302554,0.00395758511429758],[0.006211136879501152,-0.0150184868366672],[-0.0025033941097558233,-0.014714656005056208],[-0.0018448727279693094,-0.009651406237124086],[-0.0006444794634559093,-0.010033934317949094],[0.0038651916570265525,-0.019644034139141484],[0.004922613832917219,0.0215537324897253],[-0.002388058288018334,-0.022914832844251772],[-0.00039260037919519743,-0.004145330886154749]],[[-0.0016318292467491096,-0.012004042002944065],[-0.0005800089812104119,-0.008917774913640134],[0.007486994448777955,0.016255107120352344],[0.005302772036112852,-0.013241793949726799],[-0.0018358367683053974,-0.012861660159154116],[0.0039954667875397865,0.012062443693297797],[0.011655143907077864,0.017532038599472798],[-0.004530625911208753,0.0025140977585202695],[0.0023571355422600036,0.01723990988793397],[0.003798271389499418,0.014878907160185447],[-0.004556936280869804,-7.350681783733987e-05],[0.005481743550263157,0.010956159657527812],[-0.0005585135275592015,-0.0050904569929767374],[0.01091420280184489,0.0031088133561558203],[0.009162145987167827,0.023190276194044273],[0.010663794957555563,-0.010431862079515838],[-0.009963957165603951,-0.04277297746080798],[0.004453756640730066,-0.008004198116795763],[-0.020513744317774973,0.0018833187927342811],[-0.009450935507249084,-0.022648513371178753],[-0.008117587254803493,-0.02596632730858585],[0.00605886236332069,-0.015813215637586007],[0.006152594730597203,-0.0037252874057845135],[0.0002545560152637789,-0.009518201124076652],[0.0031177202084971206,-0.013100516123915865],[-0.001800769516513769,0.013938087095692242],[-0.008007949615706509,0.020269131331394935],[0.004940799290847555,0.012279473280453859],[-0.010061653210403294,-0.0016088687576882562],[-0.009429781597199614,0.000191009406358883],[0.005756327184502011,-0.0012289823519606553],[0.001964663171542796,-0.004629940419046819],[0.016137151709359848,-0.02053694737608846],[0.008963543316786076,0.005236731485960461],[0.006157620594394418,0.03139309354897353],[0.001148306744142221,0.0001916568842874549],[-0.002091392031114477,0.011959411852104113],[-0.009823148374209901,-0.0003444762213977463],[-0.012612284412510359,0.005143110924506464],[0.013928430441657185,-0.005819296744598992],[0.020416203149552198,0.010962790418143064],[-0.008405573565443945,0.0008547690957454824],[0.005631753167527779,0.034441323826522624],[-0.00299152963418619,0.020831254627960573],[0.004136337772533673,-0.006636751512516044],[-0.008582653916390027,-0.012798646638818727],[0.002774735979260606,0.029278690266007712],[-0.0024452625253586478,-0.011875528090481816]],[[-0.007333357097250066,0.03478085971552818],[-0.0019794977769429507,0.013744071071078478],[0.014609501525915624,-0.01160441826006774],[-0.0007881507413343233,0.010722596219105788],[-0.0034111995391093524,0.0022236313219162734],[0.007501408388579663,-0.02033398435620227],[0.012094899085968336,-0.025177468968393523],[-0.003281933865137531,0.004096954747163315],[0.0005588917836344669,0.0077236641595842545],[0.006268319307286067,-0.016924263295602072],[-0.00544164429565379,-0.010912320574350792],[0.0005749421875891362,0.011749578405037632],[0.0013269799211167465,0.003876499658346599],[0.00802952847843901,-0.01702976190180299],[-0.0016408569082815728,-0.002217350553402418],[0.007342338000625532,0.025018853456249355],[0.0026203708663433017,0.0298542818954138],[0.009390720377870632,0.00830142268950672],[-0.011793565632188863,-0.01805429938899304],[-0.01602419700289153,0.015409858692874706],[-0.008341394565695928,0.01705716145151116],[0.0037639623484597698,0.0092919449037797],[0.008529294303898758,-0.008841717405096755],[0.0031344634167808604,0.019255757197519943],[-0.005612824969336081,0.005808069349815376],[-0.009054873340849501,-0.00016141988928590115],[-0.006218326242136893,-0.002028141461166562],[-0.008007895113730193,-0.017701185539296258],[-0.004913114634050994,-0.020776009695581493],[-0.010007482348518051,0.014961516822059548],[0.010877288190402422,-0.007321481152841645],[0.0055665004365595865,-0.004727419202696931],[0.010432334932688301,0.030651992673834567],[0.014684714712212275,-0.027553450379877643],[-0.00448805438276368,0.024037735016729404],[0.004715638473689649,-0.002700605622955753],[-0.008549848427547422,0.015460789533003663],[-0.00038352283453682904,0.005788594400490523],[-0.001337968585287925,-0.0060056380854250375],[-0.001378315460008245,0.004670610521574802],[0.017230116700349567,-0.01753183992550898],[-0.009457191644652143,0.010903482123737837],[0.003888554701636102,-0.0329644130480429],[0.004812561275786715,-0.021579553682089747],[0.010712336292017358,0.006026068958814512],[-0.020302647147531196,0.0017994256676072207],[-0.005311081967452457,0.00766038115873022],[0.004956473373083072,-0.0005529355340998835]],[[-0.0023108410497205464,-0.029034553491441108],[-0.003924985869159386,-0.021064739569349435],[0.009567374281445008,0.004041838967265027],[-0.021579401374903467,1.441576157856243e-05],[0.001163607499182,0.01394728555872086],[-0.006936204189470343,0.011001027984568654],[-0.001556504474556008,-0.004566780396665217],[0.0005325219544561956,-0.007765026356046613],[0.0075988295632540065,-0.026305361512165386],[0.006419642665923211,-0.00032085884972063905],[-0.0049813382612929015,0.0013640072490691357],[0.008986884984006214,0.011131925241359066],[-0.0004499610466153405,-0.01404000981675668],[-0.0023923717744518437,0.008584166343605851],[0.006782360042009528,-0.0023011624650372863],[0.008660238347057236,-0.01758505355026518],[0.0037096136290151404,-0.021689517499988202],[-0.0013264845442474207,-0.0328623376634134],[-0.013044266558619557,0.006379695169257928],[-0.0033887521410849676,0.012462832145343307],[-0.008358133196710874,-0.01847963599540903],[0.009547892923599697,0.0026505633327396604],[0.01075188553400479,0.0034036240175112135],[-0.012173359795643539,-0.021040092179174866],[-0.0002484589961666886,-0.024150277924600932],[-0.005507589590325148,-0.03240200166983515],[-0.0011012697399691823,0.003648304773196805],[-0.012194773801810714,0.014632526253456601],[0.0008420408064872841,0.0237280138489069],[-0.0068357282529409695,-0.012170394078816751],[-0.002000361787722881,-0.006559127032810732],[0.003698712741042113,0.0199333482300068],[0.010971990253081274,-0.017403391427663152],[0.009262337832285672,0.004289457817472101],[-0.006924881188319225,-0.04223565832052912],[0.009256629518395228,0.041503989520570835],[0.002768086794675586,0.022583328663706777],[0.0001216710418220697,-0.0024463514728018804],[0.006316542947266705,-0.005041290179451148],[-0.003683203630813952,-0.0006781958862551637],[0.0017661037623615495,0.003250643978028342],[-0.003458975153935538,0.008562390856524611],[0.014504516450142613,0.011337931980752506],[-0.003788139001711766,0.01823377626051661],[0.0090724936497819,0.013198711081466917],[-0.00502089937977142,0.00046571386160257046],[-0.002016763520755818,-0.002662652794649398],[0.005393786497951967,0.025441073432270932]],[[-0.0012997600963960366,0.021166933047045283],[-0.004599308598858163,-0.005297933690395456],[0.0018490789947009114,-0.0034001942342142713],[-0.017185215669903567,-0.01391436278358127],[0.002065622576961352,-0.022056808180282727],[-0.01527184098907345,0.0017530330544987638],[-0.007448817654386424,-0.011473752248639127],[-0.006290441883585951,-0.02443128103066431],[0.007021955360269314,-0.001358828574804877],[0.0038258285302181973,0.006587692567931208],[0.0011475248667049479,0.0205569913822158],[0.0048952837190898,0.0015822025452208114],[0.0012586490663601831,0.01961248915399822],[0.001788295534558664,0.009551148127994798],[0.005667091939922223,0.005963457180279756],[-0.006023080132239012,0.00952944615312234],[-0.0007452279569538417,0.0006914494188469088],[0.0019853223781162764,0.03843674691196145],[-0.005124841183804718,0.006628725999427052],[0.004535283702218698,-0.012834683342174441],[-0.006928163681310025,0.012395030779403838],[0.0059477015316775576,-0.021155421305828943],[0.0072823507924674865,-0.001494387940988358],[-0.013438545442172918,0.012882272204472415],[0.0020243800832563026,-0.004527806826461578],[-8.423719895872527e-05,0.01333384953032922],[0.0029063519805204705,0.016343172719326036],[-0.01735689456534024,-0.008911421028025158],[0.0004883458526115047,-0.007661233960653366],[-0.0016382347737523802,0.0012291088582873063],[-0.0005010106120983493,0.010126033356767946],[-0.0015099666636840326,-0.007816880811355061],[0.006861616372113378,0.02029459380531544],[0.0110499608625454,-0.013837992346945611],[-0.0017475482752941306,-0.0012795273520990829],[0.0052771188906495575,-0.034866826576710704],[0.005915509585746174,-0.019999533674465254],[-0.0020668446521474827,0.0001969088974879377],[0.010236015198869743,0.019328431536447876],[-0.0058749447227809115,-0.03378803983987628],[-0.015185140420552726,-0.006709925821329887],[-0.0011795099272019077,-0.04246839209502017],[0.015502029479785451,0.006826121508525514],[-0.0064970510269757795,0.011009492664695862],[0.004972778792974238,-0.016890058469953267],[0.0029116441889630307,0.009920010487779301],[-0.0005835846130317353,0.008200606106974165],[-0.003347109690435711,-0.009988541321267702]],[[0.004970050366269795,0.002485661886400334],[-0.002415020398660424,0.011193450576807328],[-0.003109810283343524,0.007563541731114969],[-0.02049061654703011,0.017530164472214088],[0.006188215188547095,0.03105871068675798],[-0.019774213916844214,-0.008623667279795732],[-0.011666324335450432,0.021594385016816712],[-0.005270331256503773,0.008959498159006393],[0.005534146399623801,0.005884685955682893],[0.009305891396325558,0.01202189375570036],[-0.016982597603659094,-0.03701004830060283],[0.010150409070306735,-0.016818901711393434],[0.01075446043951203,0.0073382562621020254],[0.0037461878735472807,-0.004411078976341149],[-0.008071595619948663,-0.015646152991184253],[-0.005430642142981385,-0.003548682341672356],[-0.007313952923639228,0.003974675748153322],[0.0058159759141224576,-0.017992052027545658],[0.0019484308959988239,-0.01730016742226797],[0.012647240553246486,-0.014053863320388193],[-0.000598510059154391,-0.012860571164244751],[0.011599844210527637,0.0041114535826397075],[-0.0033752332115398777,-0.0005640640379245983],[-0.009451122619347963,-0.00017364575660610334],[0.002985091406676368,-0.02506866437318543],[0.00621061241920773,0.022559188521223187],[-0.000494852373020199,-0.004176953862821974],[-0.002771092725441965,-0.008366843953042227],[0.006401883729406656,0.03254770830754525],[-0.00038922898604369107,0.00756713419304086],[0.004126072225717198,-0.018615943629095785],[0.0021187000181162427,0.01299430478455194],[-0.0029859661693128117,-0.010484613134660087],[0.015121444780532779,0.0020400754157529595],[0.0031445495088810384,0.01766131086562454],[0.005742636088617155,0.00928559271487123],[-0.009041458923966583,0.028713752963459144],[0.0009381815466582169,-0.006267432359151353],[0.00361842320821903,-0.01684445728213388],[-0.004155792697993713,0.010357074919492434],[-0.009223656549122524,-0.005252905428875099],[-0.0070486270099949224,0.02767244688185091],[0.00561568666878787,-0.0009793232232558438],[-0.004252418253467214,-0.008609257997166856],[0.011811964201805329,0.009482477571347838],[-5.3265553208027706e-05,-0.00697687108379083],[-0.00032873377536239045,-0.013534783973414384],[-0.008806998046152977,0.0101589610291262]],[[0.00339168762094487,-0.0072152001788803296],[0.0027333194088810004,-0.022966809685810136],[-0.010992326268226818,-0.011654962989790426],[-0.013125094661292122,0.0003058709691489882],[0.0026041773675422,-0.04261810001783451],[-0.011758995432096174,0.003676608352738254],[3.693616699648221e-06,-0.016292567736651407],[-0.0031363163468083985,-0.01658572022675852],[-0.0005805350982787342,-0.01508650284965353],[0.011921569990986333,-0.0007126751788560303],[-0.017209040716943704,0.014025026201392805],[0.004730254104099384,0.04055429056011589],[0.006629766422216839,-0.014207321889683296],[0.005720464903485085,-0.004058807793570366],[-0.008083690428853731,0.004003592485232704],[-3.5066196284157445e-05,-0.010756430994677352],[-0.012427574833359677,-0.007137851516706996],[0.011320781507965689,-0.004657475860634157],[0.003358288512409413,0.005730028967824564],[0.010395227304236594,-0.012264301420269753],[0.002753549375213012,0.004632747816112468],[0.006138232722276501,0.006370343634482165],[-0.007009955125754477,0.009990513962635094],[-0.002462375223366929,-0.0030381217754961104],[-0.003751828966184043,0.01810637682749273],[0.00273710165075722,-0.03932720866277012],[0.00020770678695772215,-0.004803077027882689],[0.0045863957390633306,0.021120055375218643],[0.008896470933707882,-0.013390364604528535],[0.0022594262996189795,0.0029787323341504976],[0.0005856793173545108,0.012500551988690023],[0.006517178386329186,0.01659649142864983],[-0.00690077600237109,0.0007309537610978182],[0.005279710115926881,-0.012080816670726047],[-0.0020722069325609946,0.006008359980080945],[0.008150572458162858,0.0005562129933770705],[-0.007731184607053841,0.0016838292570006592],[0.00760072610811922,0.032768572484326054],[0.003919299224697402,0.02148442305492812],[-0.0038584474558200185,0.004699249190938189],[-0.008955407263688087,0.003955024706574919],[-0.007369774895589546,-0.007739010058524434],[-0.007696296840091718,-0.028268035089283106],[0.004971228343285206,-0.009675871577142472],[0.010718781360438016,-0.00135244110400459],[-0.0008398955616925991,-0.021171938293907046],[-0.0009872644789048356,0.004177012534240887],[-0.01167719469016142,-0.02871919796348846]],[[-0.005341886931325902,-0.006751339828621901],[0.0018632451722308445,-0.0013683409315057775],[-0.003962353538630786,0.02182491427903144],[-0.0015513326330063545,0.008723103732485582],[-0.007847920345836704,0.04297730654601808],[-0.003780533772244847,-0.011478028715781418],[0.0018378893654282112,-0.01794834506945096],[-0.0055614403626935115,0.022773186410037803],[-0.00017844675751776146,-0.023629082773024345],[0.010703746047688168,-0.03845373247780177],[-0.0032509386851927967,-0.015938294003612255],[0.005788462865592125,-0.020995649607138282],[-0.012311497932488123,0.021158909390812806],[0.01344808026646137,0.0065548159866761265],[0.001079305839516811,-0.0008239398373526745],[0.002515914272003924,0.022523684408870197],[-0.002852849989253344,0.004398620590171643],[0.011234056310544954,-0.01699514323397718],[-0.0038400848893812758,0.01153736022065018],[0.008163539526032755,0.02397034820213822],[-0.0026701506972394407,-0.02136984427961132],[-0.0027919002759851843,0.004452334023461186],[-0.003914707327410723,-0.016091446259600524],[-0.003998831120659121,0.031134217080718753],[-0.008899593248527115,-0.00885660241830131],[0.0025364609124870784,0.008151409667521202],[-0.00343128373902305,0.020475679620097564],[0.010849640924727167,-0.021328646404176664],[-0.004060952142782872,0.0005573142807445365],[0.013905405532965055,-0.024705365636111205],[-0.011301958951305308,0.019399536451971927],[0.001269614555887465,-0.0037612723727428994],[-0.008035971116658568,0.008545188087516743],[-0.009267766520008408,-0.0037248538572417695],[0.0021826694239919847,-0.0012957728553798457],[0.009379162358750649,-0.02186809751971158],[-0.012469677948494821,0.003185422404620387],[0.012979368361469274,-0.03696473659985712],[-0.000467514398271283,-0.00360332433550669],[-0.011579799449631735,0.015162661562615438],[-0.01090821919708608,-0.01038493188138727],[0.012779661523112482,-0.01507683928352475],[-0.014134793598558626,0.03905667558991587],[-0.0015405655505531385,0.025600387795076444],[0.002440589863448273,-0.015586940940365104],[0.0009743907548349398,0.0064938464727579154],[-0.006177919243185522,0.03000999279641688],[-0.0002469217625515794,0.0007205977491157602]]],"a":[[-0.0017302579154149585,0.0006941473603043301],[-0.001747532670590774,-0.001990737785823807],[-0.002076232790452627,-0.0031877759902803654],[-0.001608219080942305,-3.209771299009231e-05],[-0.0018442030539982284,-0.001358926277972796],[-0.0018296497503541946,-0.002120131325381998],[-0.0031325013577539547,-0.0014142491392018857],[-0.002053390730420112,-0.002359099650999499],[-0.0033380566315679996,-5.830268255762521e-05],[0.0004261700834425679,-0.0031327606577260573],[-0.0029338434366513767,-0.0005538788646570328],[-0.001073065959926941,-0.0009458599158819892]],"b":[[-0.011906768535550298,-0.004267711059554852],[0.005742475091539278,0.0073386282883512195],[-0.024554505389201564,0.0018916255360130695],[-0.007358594060555014,-0.0022871720779896352],[-0.0016611326723835983,0.00430552888362823],[-0.02463314213034088,-0.013492091892540296],[-0.004206825541692702,0.007578913376389457],[0.02482500186510917,0.014111659773477876],[-0.01921511463909156,-0.007199156217252381],[0.02105313355256771,-0.0021650351507655507],[0.007240597659157548,-0.001604644462535438],[-0.011076321507753716,-0.018123820350723192],[0.007262839409223267,-0.0007197071479865222],[0.0074804200019870076,-0.023515785778309036],[-0.015377237459138863,-0.011271204293708472],[0.00695399919307897,-0.014670166954996186],[-0.014164773682895941,0.001325073075986137],[-0.003689967630217772,-0.003914560148579987],[-0.007478616212563288,0.005316747686471131],[0.0019721080299131546,-0.02197540263218452],[-0.01925731991545667,-0.012977215492182103],[-0.008451357876260994,0.013256808361454953],[-0.0024655811287424417,1.0948421048911251e-05],[-0.006426421954653557,-0.0064252527277516925],[0.011104456139920928,-0.005351832509738753],[0.0033862589387879333,-0.007925310813610078],[-0.006385683311887343,-0.004045207190284171],[-0.017655831080177285,-0.009046039315913674],[0.010449315679432317,0.018936774280139512],[-0.00039961765641626976,-0.008741996030801877],[-0.010337539586335192,0.003208415683726005],[-0.004126678979629597,0.01182274125017419],[0.0014194071161727306,-0.0055643339998512],[0.006858029987851122,0.010277779117816516],[0.004998263608372031,0.020995585957575315],[-0.0010386276079979084,-0.023741853042656344],[0.012460380906818091,0.0017553787866490438],[0.013392966961552153,0.0071543679275374245],[-0.0018363873676965406,0.010499699136190355],[0.010957640651915436,-0.0010965172475244105],[0.021222362712199364,0.019108178671067278],[0.0031319284519225822,-0.009402964207713603],[0.013312856233334112,-0.003304304407101031],[-0.0005472012370100168,0.005171646912100322],[-0.00582675276600088,0.010712223651014038],[-0.002227183976638532,0.004354503071512821],[-0.002578927099670006,-0.018921918234352377],[-0.005146923799324589,0.017110581579962817]]}
