{"Name":"RbmSpin","Nhidden":48,"Nvisible":12,"UseHiddenBias":true,"UseVisibleBias":true,"W":[[[-0.16038085242305022,0.16149178939006567],[-0.0007271860772800825,-0.2295617070907063],[0.009138680753392614,-0.08451085358697336],[0.027216145246067535,0.048538516790643756],[-0.021940615865375858,-0.06931937616277416],[0.08624167204731692,0.027610672275739462],[-0.03268555297438666,0.047646339604969036],[0.021297727331581664,-0.13731685736338511],[-0.10768789089405575,0.02407394012866546],[0.02646303786786982,0.059037661480214866],[-0.0008225892322432433,-0.003320045732254267],[-0.06239186594955328,0.07290820470919238],[-0.17175165258908262,-0.11487910689825416],[0.15639478842523163,-0.04127983832805467],[-0.04140370929503045,0.01606124111357381],[-0.015251346927050744,-0.19322335828501172],[0.07461273221223905,0.028945448584925638],[0.08542827130679732,0.03268091577115722],[0.11695959071806522,-0.09322706080735975],[0.03047033241741663,-0.06544778911047447],[-0.05309875940908054,0.007601994535868262],[-0.13876582313425231,0.016704762794550174],[-0.14383645290178454,0.05326796409302523],[0.0757664476976888,-0.060342250173561686],[-0.06848497643128414,0.04834889478200017],[0.028072242076682696,0.01732028826175571],[-0.0015260030706334637,0.04520118913322553],[-0.025722481642098564,0.04647235371842116],[-0.0055003646242676825,-0.06858924540419925],[0.22129528294883594,0.07810765109445514],[-0.10517777752915981,-0.03742395880996875],[-0.0150901905903998,-0.05454280076182183],[-0.13564764357072104,0.00970582475724756],[-0.08470925866995033,0.08089259188675667],[0.061213500198567465,0.02458920421898682],[-0.08062058516205785,0.10116987258823527],[-0.1440553591284985,0.02111221213438646],[0.08238145304453347,0.07965656422952512],[-0.028239595263938648,-0.030542173150303015],[-0.1443415628946475,-0.03351703157405952],[-0.092590066202766,0.06232509571527956],[0.20860483310430994,0.09153749197336677],[-0.15757398533143713,-0.15437249947618809],[0.006810934732986241,0.07588880736232759],[-0.1305319427692655,0.08041001465876986],[0.012877724423397751,0.014427527550711952],[-0.0022554075307154157,-0.18529602931959488],[0.04300325374694853,-0.022171378448485518]],[[-0.10514456894048699,-0.1767287877372314],[0.008493738567197665,0.23071054424485765],[-0.09355653057619683,0.028363581027184784],[-0.04722854313140075,-0.05912995107552599],[-0.031118608390508895,0.02698826356509916],[0.12760050567037645,-0.04741163314339944],[-0.08752355691157104,-0.06586525504042154],[0.06560611544638303,0.10969967250996024],[-0.10908037832187437,0.02312985039726188],[-0.11429256922168268,-0.041999755394539394],[0.10202476642772808,0.006986729876183998],[-0.06823340391368088,0.11396245990231411],[-0.1830671813973807,0.09385731009063836],[-0.023966982814686212,0.008056029217580347],[-0.020605337810011358,0.0033513404503659945],[-0.08236607919095006,0.14826867288683682],[0.10508059256918337,-0.018116323575911697],[0.1046753187049805,0.03204001871466331],[0.11854730380855505,0.12825160160587076],[-0.037211890943807835,-0.01687403952988819],[-0.08783019493852849,0.0716279864980836],[-0.10752938841024771,-0.01294451132556476],[-0.08991182936526876,-0.0398223839721749],[0.039498825968959254,-0.005202096958460027],[0.010646147138587915,-0.05180673790357451],[0.039886702585479356,-0.11336218315922875],[-0.042049257849259496,-0.07871385588044345],[-0.0493542382823559,0.0035303019276501893],[0.10536599782764823,0.07151987953052882],[0.16509979221891688,-0.08395747996604015],[0.006515359314680313,0.009712349916849158],[0.008877835583792865,0.14174693581660774],[-0.10400060556341088,-0.013634856476633348],[-0.09781215255174754,-0.06804860665413312],[0.009226203556031508,-0.07726852742788577],[-0.1547465794467217,-0.11115379052467046],[-0.027760441488928096,0.002603298859756816],[-0.04527487796322305,-0.04977041400909568],[-0.04278469385674575,0.00041928904806893196],[-0.09254832750906465,0.03809169771155603],[-0.03865385958213536,-0.08746539346110145],[0.23542490105445402,-0.024767459405982423],[0.008492326819728547,0.0632366756041767],[0.06975539291802221,-0.11088709164405791],[-0.1611375508348797,-0.03695102984962411],[0.05905685228100683,-0.08409745748003514],[-0.10414283051867208,0.1716861037465871],[0.04872528799546308,0.06426864779448413]],[[0.020990784450621587,0.08735967207905351],[0.04139636472609374,-0.1838420954004551],[-0.1737751655412357,0.01603234797613913],[-0.03031448525491359,0.06297527228897623],[-0.034120494171841195,-0.04407067049521609],[0.10914398917267336,0.07072530941277806],[-0.09031982587625831,0.036501648261276665],[0.09706368159960432,-0.11396048067144567],[-0.056625278136515626,-0.13098366069064563],[-0.22111375040193174,0.030477626471645917],[0.17158863301238653,-0.020468968623674862],[-0.014241361212520688,-0.21202977890103097],[-0.08136252003915014,-0.03352293496523201],[-0.13016651640958452,0.025533299600978564],[0.046012226404927414,-0.02573798342486297],[-0.08902324561772687,-0.04809798611355468],[0.04842277383937765,0.00817470185686267],[0.07625466929840544,-0.11268108575842987],[0.04348226544257144,-0.10874328168529807],[-0.0589764247539214,0.08426633248573831],[-0.07677927218509778,-0.11161474099300506],[-0.0376074207849245,0.04790423638327011],[-0.04486896289180086,0.002951504079519217],[0.01211263616007338,0.03627539630748013],[0.04835462576065795,0.07581396195528776],[0.060856895576188584,0.12231766177881143],[-0.019931203702680225,0.02694710833354834],[0.04244950785567615,-0.02826813130162278],[0.1694115793861644,-0.03496731855653477],[0.060784946130229396,0.061580153302161954],[0.06528076222757224,0.023809255532438553],[0.04194093836302039,-0.12340219466316145],[-0.06616072509224599,0.050881947532445716],[-0.11050841088785182,0.03111036270832606],[-0.06436572089209651,0.03445438024170591],[-0.11452207834977532,0.11485442576512543],[0.09771482159400288,-0.0051439934198556775],[-0.1599911953217359,0.02561329956953678],[-0.0520616618962957,0.0799771186078354],[0.031562789126722404,-0.0425638586393442],[-0.002825125462404155,0.0671935692963822],[0.0961666516120218,-0.040017647050777816],[0.08006258662617638,0.004720132184912405],[0.13799535530715834,0.08739281134674677],[-0.09654436194929122,-0.019700624567864453],[0.11068745987710783,0.13012066257589777],[-0.1609187159538808,-0.1222675958277927],[0.006243122557716604,-0.10565160940583077]],[[0.11456360311164733,0.01502905400860746],[0.06197482677492227,0.05277619814274978],[-0.15872870265340205,-0.0259494784876448],[0.11520343500574286,-0.05580816116165784],[-0.030159388947679878,0.0715880381642895],[0.07677787124802418,-0.06065395716082401],[-0.0042596962330402185,-0.024014349974269333],[0.07055223963936229,0.08653143800088833],[-0.01019818005005521,0.1973392676067913],[-0.18730062599380293,-0.014347926891072461],[0.15971378106876313,0.019560202219734254],[0.059190662302835685,0.24267721508486187],[0.013368723239113825,-0.042801031967409586],[-0.08849757269957348,-0.020537152976424437],[0.14544563403879757,0.06704640496020112],[0.0022218362698598914,-0.01901680164241974],[-0.06239909763371196,-0.05039775772511274],[0.007670867693609847,0.15128995019905667],[-0.08510000419051858,0.09087168272203656],[-0.03462195642107273,-0.15842030747338914],[-0.044481128150804856,0.06054424939461952],[0.0013100504427528711,-0.10778246984489247],[-0.03497291257090056,0.012290753156621698],[0.04368153716266639,-0.024881361466049592],[0.0687751053964447,-0.13237337010688596],[0.055193892439274805,-0.06539334557350618],[0.024344748606590867,0.09537899055787093],[0.1682132354224374,0.04289195911630544],[0.12768613840949497,-0.0011811254308748732],[-0.04620056828977765,-0.03767564512178334],[0.0767850814210591,-0.013456721624917912],[0.06205685267892917,0.05681111400437],[0.0018005195015073211,-0.048698769745655374],[-0.10522097796085456,0.03320867791028517],[-0.09415790933306362,0.06882462964321327],[-0.029424104514193763,-0.11267295721038299],[0.16720220431167557,0.012192914815594348],[-0.20456584939382347,-0.027037991403454413],[-0.08541863538779403,-0.11957966624515133],[0.16922185537823245,0.020630479271115866],[0.02252929820226971,-0.030287533268562407],[-0.05366763437915496,0.0921079389333869],[0.04874391103533156,0.027096002247823964],[0.12131219882414636,0.008027305269545652],[-0.025754192228850944,0.05972245242312756],[0.13636833143466176,-0.15305225743017764],[-0.10204632026505786,0.11394699743459387],[-0.028786277070547234,0.09126568150997406]],[[0.09208362275454007,0.0013786204076032223],[0.029125000181623374,0.04694086989577443],[-0.045211833040249956,-0.01619159255199983],[0.22052812166127794,0.06985163997845631],[-0.01997603835474706,-0.050270273844853004],[0.04979180101909345,0.031054928991138046],[0.14372390364977597,-0.03643916069314646],[0.004418634469463918,-0.074332665605017],[-0.008863542197862362,-0.18700067278273194],[-0.04452388083351156,-0.001613337461342707],[0.05631731916544085,-0.04385058603425692],[0.06808900448476152,-0.16794978654152895],[0.03140002287787762,0.08943709934039297],[0.011112955856239233,-0.002903088609582854],[0.18073068831652225,-0.06941012738075496],[0.12586978502297155,0.08802911807377602],[-0.11340945458905549,0.15437349997299682],[-0.031746147068985014,-0.10096971024818222],[-0.18206616894171956,-0.07307150658927855],[-0.04425339976153438,0.15483924312408487],[-0.025679795766238685,0.034217944760581896],[0.016432159065752835,0.14816759003548172],[-0.01043998791731951,-0.014492205631296232],[0.09424346662587504,0.030847280949360126],[0.07755284866197028,0.1384524800247468],[-0.016169482069950277,0.003651264232168592],[-0.00782620137586551,-0.16708670631093892],[0.20264077238431702,-0.07324132167936555],[-0.0049366280512637755,0.014564266923199416],[-0.11545155524468778,0.023958923451539025],[0.09914588256252943,-0.01232780733246999],[0.06372454142022063,0.021848260782920067],[0.09075132302443197,0.08625773033877535],[-0.04527258384090694,-0.07458774930051452],[-0.05451527493139739,-0.13034982329823694],[0.006604320973011817,0.07154940313836666],[0.13614007514184084,0.010677113801853707],[-0.13429001878457036,0.019147892932717073],[-0.12922246303370993,0.08923889057761335],[0.2347801587027618,0.007394128720875686],[0.10865219911927447,-0.05565539772734062],[-0.09186092727324412,-0.03964308058129282],[-0.021508521349558055,-0.11031770801812972],[0.04451337343547096,-0.10568128876358393],[0.01680232818830501,-0.042137677296517025],[0.0592792066579071,0.12013996948502861],[3.614428015041351e-05,-0.10919850034573968],[0.008630424828235282,-0.028764390181330406]],[[0.011759498374932748,-0.09140489711530991],[-0.03293619602277788,-0.129103376345876],[0.10079611703794365,0.049651275606766916],[0.17553168612674028,-0.06375311647371056],[-0.015510391067943914,-0.005018474221874025],[0.059520012172716935,0.03008977296349894],[0.22574155213070457,0.05225700040384297],[-0.023414016536248083,0.0147889857567686],[-0.010223452439341033,0.06691827608397494],[0.0429246337920519,0.024454346735368077],[-0.023460263521214067,0.04696453533893773],[0.00998110694177914,0.08435192185089928],[0.007168160499967482,-0.08698071871720972],[0.026250059986502282,0.04385662904216637],[0.09793451479664503,0.07336907304396066],[0.1806920453202627,-0.1153829178323316],[-0.04008452300118205,-0.2478696363848509],[-0.025904845445127403,-0.014018421257405699],[-0.1764006602450606,0.061105703417703376],[-0.09873746293129189,-0.11711419397305868],[-0.03968684173653365,-0.12341693923313796],[0.026327731369709565,-0.13039046475578922],[0.05763128566724677,0.028280502046917823],[0.11367995586993497,-0.050489968340433324],[0.034711204223147135,-0.1279409223982264],[-0.10807783107021236,-0.010530393194365889],[-0.07614141969508527,0.15200963017005834],[0.10273639308522074,0.08058161424946934],[-0.13738264307481643,0.028785519547570578],[-0.1462481607607898,-0.03201923989854051],[0.11014614551782746,0.028501251350876528],[0.03388736999618154,-0.019177694541728556],[0.15557061871998265,-0.11258295139679692],[0.042339884999220236,0.06412286403434496],[0.01141359218940063,0.08510882106016565],[0.019715100392892163,-0.003485334420735169],[0.037586476393969386,0.002923157481517887],[-0.019452298299567152,-0.018518311761579344],[-0.1243392173548911,-0.02451414607986403],[0.14033311978837953,-0.013329503152643432],[0.20404865985265294,0.0672308798189808],[-0.06351365824719528,-0.008466308917543157],[-0.028182426893132585,0.18332460490036803],[-0.018753574849075954,0.14973173706106818],[0.047370108897344394,-0.0036321639553883508],[-0.0873354955362625,-0.0801738074351971],[0.0633661926935888,0.10400282733358558],[0.09133907336519166,-0.021018879451042197]],[[-0.04182697782057321,0.1863594625862953],[-0.07508787472843213,0.12744012167679017],[0.21165088734843193,-0.04976015745172224],[0.015490959047596663,0.044377595850066745],[-0.035911824061779236,0.009542607781645847],[0.052638830661309,-0.05599964977378917],[0.1492358736626809,-0.0788809203494616],[-0.011436033352887677,0.0041477179753206935],[0.03934239596663699,0.03626299031176758],[0.048521500256588565,-0.04067396659580007],[-0.023783777290598235,-0.024740846785014047],[-0.044837980512089426,-0.027421749992180958],[0.00040749453640376564,0.08725428145565972],[-0.05466890043754074,-0.051530429485654984],[0.029497977476186522,-0.023452293018501137],[0.11799878615626762,0.13408345042709707],[0.08311629637524401,0.24271862491213542],[-0.02465556413988957,0.12061990351455813],[-0.09219440420689558,-0.04911057690042579],[-0.1434428375556706,0.05445537120032197],[-0.05286622067758195,0.1457797563517005],[0.05436055109038439,0.04713005007130007],[0.1853074520271603,-0.023876181312191335],[0.04448359491885269,0.09890037053207464],[-0.0032604538425981817,0.07189873725785155],[-0.14956670986061818,0.04643517322255952],[-0.09142361861436277,-0.059966859174714414],[-0.09986459963734946,-0.09467446917925215],[-0.18681119960129378,-0.08651818253158379],[-0.13963121417510663,0.03883887044599822],[0.07568538346036051,-0.009390364013812515],[-0.014736329566395992,-0.030034262458934043],[0.16592265875796605,0.12476158266981692],[0.10749323654440134,-0.07854345993398139],[0.021201188057713507,0.03778971675899546],[0.04012799242404169,-0.08599805161705275],[-0.004653288911041822,-0.0101755201154449],[0.042643666082702834,-0.002504557239629855],[-0.025179794847223415,-0.011559503638231215],[-0.007974238565963073,0.0003152628336528256],[0.16751004687469187,-0.07675212117780798],[-0.04033960960503552,-0.01650994895567083],[0.05970797369305718,-0.14485205431825438],[-0.05164544580900735,-0.11359011986439493],[0.0769842542781819,-0.0019645038019285525],[-0.20075498923673937,0.03255991239009816],[0.04757693707614588,-0.019110126907014174],[0.1276166131644243,0.015007569739832163]],[[-0.024186532166618778,-0.19923047358118676],[-0.06669437137669075,-0.10090760989643724],[0.18329417711872828,0.02554981620866428],[-0.1570759462899884,-0.0012573739603043799],[-0.031085444999649,0.07293919222383177],[-0.03337896804732135,0.03490325286316503],[-0.006410826334688873,0.07588600299823581],[-0.020218083662105733,0.001358183435876369],[0.11436644771916016,-0.07024731305060837],[0.04244853010772089,0.028914204481668378],[-0.003695552098443339,-0.043191078678877844],[-0.03360261896795351,0.012086005697525057],[0.06260111354067495,-0.050271970810784196],[-0.11525196567308403,0.034590499885186525],[0.004203895318671542,-0.01994889181545259],[0.007204716023139256,-0.13878755008841934],[0.12199471823696456,-0.1593065264497825],[-0.043501707466495045,-0.17784732551960655],[-0.020922113940300344,0.011140205515206371],[-0.10296084642571159,0.005005751258500874],[-0.02902785763814841,-0.11989648812285775],[0.09664422298985977,0.026359885893370096],[0.2142221078500248,0.033979700362774486],[-0.1115271451764045,-0.12226474370729958],[0.01084347881823828,-0.07703002166225512],[-0.09027346024904563,-0.08050379975182381],[-0.03512200077183755,-0.02477485844058722],[-0.24556223563836133,0.07627220836951092],[-0.10223387174270308,0.12642289912215257],[-0.07479068174164091,-0.03307302300685025],[0.021864218335758672,-0.0510289498475534],[-0.0559290290835049,0.10206078071025089],[0.09744115653364162,-0.127488149150213],[0.15165260452722834,0.04658463502047409],[-0.0032473905412994247,-0.11822937400222971],[0.05526797272595034,0.1449477192518435],[0.02022732743740853,0.06918997589423038],[0.036038374129251156,0.007500763815681645],[0.11360392423744572,-0.03237408199541235],[-0.07208098362530414,0.0359968150331848],[0.04657408522237907,0.025909065698217246],[-0.037863198214180875,0.07759307725590597],[0.15792955447261298,0.04927806381917273],[-0.10048726215306192,0.05164386020791987],[0.09613976023161443,0.03640351992245124],[-0.14985069618773272,-0.03349468323627853],[0.027463652474882545,-0.04813307627129933],[0.06512430084639477,0.062313175376967275]],[[0.03387191251511255,0.11640176816971608],[-0.028643290616338718,0.03763945269241575],[0.03929286014701831,-0.01615328574866003],[-0.2407861416388843,-0.041280148006411874],[0.03319938784401087,-0.20493496914011947],[-0.15541518245893338,-0.01204554265079828],[-0.10702646696079526,-0.07296638330918723],[-0.05922081512165761,-0.06357196624998475],[0.12882886844804042,0.02060824562566152],[0.061834258915068045,-0.016182424625371516],[-0.040650041490121525,0.10118396889161926],[0.016505377465359843,0.040933261834570495],[0.1296210211045558,0.05793824206912266],[-0.09965992366975472,-4.1119653941440085e-05],[-0.04246046052289265,0.05880856272092987],[-0.08458523890651075,0.08487439350831304],[0.030545562415950946,0.02775508754722097],[-0.05658767716360837,0.1780424802787765],[0.020239570811393045,0.022686138009830128],[0.012498765777511323,-0.02091557376476109],[0.044004658459801296,0.09057351418482527],[0.118681693485739,-0.06340198697916313],[0.11986669977896706,-0.01823403146522806],[-0.21049412228140446,0.09209572346160744],[0.035341458688327,0.08558735549373667],[0.002310040179644097,0.031217654258291795],[0.030450933231823855,0.042312560824664],[-0.2150867175349168,-0.04225548748516256],[0.020989855163197353,-0.14166411315412858],[-0.049783962382232726,0.014177496590815686],[-0.0026368442010003897,0.08980058883242369],[-0.05931014471181115,-0.08941514635530291],[0.039467116284101045,0.08192762979957889],[0.14618007156079219,-0.07269537744810213],[-0.004563062600868142,0.10114483632291864],[0.05430654609032728,-0.1537199272398986],[0.03432671903573275,-0.08740478937673153],[0.006096062710138144,0.01551832395430444],[0.17234755467649168,0.08646574136587705],[-0.05847508199325657,-0.05853704145015906],[-0.05459086295808504,0.0063798880223271135],[-0.056034791234408354,-0.15605408230619078],[0.1658761917285912,0.010040772577982878],[-0.12574894787594992,-0.009192014772784154],[0.10008887917320322,-0.0907448181879603],[-0.019776415879875428,0.025161471092404464],[0.02332846965798088,0.09908560404455861],[-0.04650737946338339,-0.1310595719934675]],[[0.08063310648438862,-0.009724559380546918],[0.016145940573358178,0.02685585723865832],[-0.05432085389590005,0.03545839546975826],[-0.17676236344792176,0.05663993177592994],[0.09189531241799234,0.2902734545587674],[-0.21355793040745183,-0.030586076577015654],[-0.11495842940576179,0.0663968352562087],[-0.08320994128730674,0.10635156359542808],[0.07849837320865201,0.011775374905372914],[0.10947348352969233,-0.009933962357872694],[-0.13773937206076406,-0.1344319110346527],[0.06122024243024094,-0.11991331541672505],[0.1501844517150524,0.0008995395811367239],[0.0038999064216272395,-0.016454924724739944],[-0.12069527240560866,-0.06298687617509233],[-0.0994363559448512,-0.011235748640277857],[-0.1023966993093323,0.044106848908003],[-0.031082672789604637,-0.13685645490418027],[0.047913216981608116,-0.05769158831241838],[0.13730623993334282,0.037326584839587784],[0.12564709664656534,-0.08754545529028336],[0.09203314708175894,0.04628791718841326],[-0.01682978327498698,-0.013890369460587675],[-0.15669514829336118,-0.0203406708190075],[-0.0058118985125099635,-0.12523454108145196],[0.06684185886473139,0.0724039445218766],[0.06846883450475919,0.012959950426001768],[-0.040657871049037154,-0.022638784624547378],[0.05807242358464007,0.1161292810793339],[-0.02506872571795301,-0.009914222029647117],[-0.03910048466985314,-0.08484690089930338],[-0.027631951034285535,0.039686021575034515],[-0.03736565128729563,-0.03261039725831745],[0.09111684753539964,0.034095023226404675],[0.017005439105489437,-0.02238714135979649],[0.07446768047891256,0.10379777691039599],[-0.025501407487340925,0.10517984605208641],[0.045627067571637994,-0.06027557640037462],[0.13380800554222994,-0.11051935805559873],[-0.02633135051288119,0.050759836570915984],[-0.10158723138539366,-0.021932695451880577],[-0.11232894040898114,0.11882306273260221],[0.04334475821362179,0.01521131340560746],[-0.07523896270127534,0.020505861210341005],[0.09964410875775741,0.0771690992738625],[0.03957190397595578,-8.247226363714822e-05],[0.04087526586220419,-0.06891637644838353],[-0.15021016517720842,0.1466833059701134]],[[0.03606878471242919,-0.007078118477873611],[0.039659270914597686,-0.10085136516054632],[-0.047577493860491905,-0.08434826659771939],[-0.030293840243281314,-0.026778705975642608],[0.06882179005218303,-0.2816051238793541],[-0.14486119896848815,0.025920055441146343],[-0.05618042235953152,-0.029340462688500435],[-0.06343988204037114,-0.1481002171947983],[0.006103069811564855,-0.02594616444826656],[0.1372670360309156,0.031547745934561194],[-0.17307865030769667,0.10471705594263601],[0.06148811875873767,0.20259191236454066],[0.0750914804695629,-0.042597123235392095],[0.1461137272463052,-0.016785534643780495],[-0.15324159748435642,0.05060431702411175],[-0.036443086723410456,-0.10253912926941232],[-0.1371179706829413,-0.05551850368181639],[-0.0015877444695001244,0.09311330158392962],[0.05011359258946969,0.018192526827651694],[0.19502623775509276,-0.060925338912282655],[0.1264813523583638,0.08515200200053465],[0.01221996800742658,-0.005017667674363014],[-0.10969053596815827,0.03672956104195477],[-0.03464378975104976,-0.06191838820766749],[-0.09119616566046619,0.11672007083918962],[0.07090253529571523,-0.12997847989629865],[0.07373666166131329,-0.04530285329077201],[0.08532268600808729,0.07366671682820647],[0.016873616042667638,-0.08068208746860973],[0.0307693176789984,0.034756636406694116],[-0.11884313362590428,0.02264906797510726],[0.0017566568362444497,0.028613262070368402],[-0.08409947400717382,-0.012386797526438561],[-0.005479494404804993,-0.01738284336015608],[0.031719580713317055,-0.037376849449944675],[0.09896374960447653,-0.01340779981501921],[-0.1309118221548959,-0.037532701744581815],[0.13981926647426512,0.09750741234134179],[0.05916448153695389,0.06475914720700936],[-0.05418910128237764,-0.032647000126835746],[-0.12666703323245138,0.03122739424487398],[-0.09307624778258382,-0.0360984622495297],[-0.12442612548958686,-0.11794877314841362],[-0.00505325742171939,-0.02298745188778345],[0.06068951556478671,-0.020226206900385957],[0.023234795823285574,-0.02765388988282471],[0.05937914957913973,-0.030644618624106897],[-0.14514447731603333,-0.09589452627231655]],[[-0.07412295747663598,-0.07854851869805779],[0.02432736936672157,0.17444766638363732],[0.00871216881950576,0.11291269726760624],[0.054562384666998434,-0.00031269637207690586],[0.008762745673131504,0.18514174308362605],[-0.017199764529583265,-0.03946261699188744],[-0.01260955245509727,-0.015334181025000457],[-0.01681178238214244,0.14339394074771314],[-0.053937764575730116,-0.03527712092274006],[0.10983625244397138,-0.05984305938969274],[-0.10750775177571716,-0.05848626376578889],[0.005288711064262171,-0.1767034486059352],[-0.0616021628418884,0.10606585507725635],[0.22807483358580574,0.03364050122186238],[-0.09128479413740616,-0.03586407332492757],[0.0055372984864840965,0.17705972385482752],[-0.042409898455753055,-0.0013733904007228966],[0.03853873317537684,-0.06930611184949158],[0.07620242110390926,0.042242685106971746],[0.13982547818430907,0.06992478662087186],[0.03847110428632103,-0.07217697620419432],[-0.0827542764304983,-0.013757337703816647],[-0.13429614727264214,-0.07046409447961054],[0.05330764031009022,0.10305007435576542],[-0.12576984935502267,-0.09160211298300779],[0.04377962840007165,0.08808826497899716],[0.0536669066678585,0.030022923968469874],[0.06513378574903159,-0.07656359727329752],[-0.035910818926861904,0.06252711955328663],[0.1318923699161989,-0.06939736320575268],[-0.1695066711637349,0.027975356607286693],[-0.004118388013255392,-0.009669340640814006],[-0.11627428677974158,0.025089588805507743],[-0.07575192782168474,-0.044550175675860997],[0.05340594261456581,0.034503308074013125],[0.043084049307424835,-0.06719255525729106],[-0.1847885005435898,0.015819111782536],[0.16359641835024144,-0.10697578538689387],[0.0026246296227694305,0.0024854695469718226],[-0.1204247705523605,0.022173946887696135],[-0.1397645352464221,-0.03507159544124534],[0.032799794817499006,-0.06839931300661486],[-0.21865741944122902,0.186433645912187],[0.011622364679723489,0.0036214264431943953],[-0.027352035324671144,-0.0637518098060215],[0.00044253072140962687,0.03213001263499342],[0.054168093475019836,0.15040227229259728],[-0.04317435531333794,0.034348066703498506]]],"a":[[0.0015542878468612518,-0.007245914761922478],[-0.01902594863156507,-0.006280549206283341],[-0.014443107861069745,-0.0042655092208864565],[-0.01769403333723846,-0.006918034264340618],[-0.017947519864432663,0.010748848034787243],[-0.01535705159471063,-0.002212304798384543],[-7.441181096536486e-05,-0.0025029455214983657],[0.018201348520910987,-0.011881864308688355],[-0.007685370593093724,0.0029260804293657038],[0.016397860558620622,-0.0026317635520132785],[0.010315308079817703,0.012675456373341453],[0.022817855392234174,0.001128828153353738]],"b":[[-0.004214222330162757,-0.0019881640703182657],[0.007462796408092354,0.004534709989343915],[-0.022792540551585236,0.003221594983523729],[0.00434177278627061,-0.0017623213448286939],[-0.005983960219524341,0.003032557966577112],[-0.009185436075279283,-0.012300461018999988],[-0.0018117555916955185,0.006141612365920433],[0.025343735119616496,0.013102091824722398],[-0.017518892122397316,-0.006816344215985132],[0.009204980423370132,-0.0015742480203420602],[0.01895474089996216,0.0019133425844517777],[-0.007385178407067955,-0.016987521226318997],[0.0019324581224198856,-0.004455808636998919],[0.0044052127665486765,-0.02211659345167134],[-0.009150216918333126,-0.011481190698063505],[0.010486697484474495,-0.011535470734050583],[-0.011986031140805856,0.0006792551917174873],[-0.006200114995292582,-0.004081912103560034],[-0.010090241921695805,0.006641192453938287],[-0.006867788200744453,-0.016079730140304074],[-0.023127213895538897,-0.011412304738184356],[-0.00885486533912085,0.013324861759405773],[-0.0012822078748217403,0.00017956725768914235],[0.000961798248676062,-0.007425641936806163],[0.01094464337375884,-0.005258795978652885],[0.0026620980526777327,-0.008360331098714023],[-0.007399719204744525,-0.003963592072034618],[-0.008809165756586156,-0.006063575164437095],[0.007198375078297267,0.01915223029840329],[0.001804627143460774,-0.004412564888010767],[-0.006682061943840529,0.0027306737459261974],[-0.002819686522838274,0.012398695270263257],[0.0029023886781482755,-0.005966133266907597],[0.0012510865726375988,0.015866050036096358],[0.0033384700540018664,0.022073847174819645],[-0.007633459222701942,-0.017235773391460225],[0.01596268175542986,-0.0004714097271537558],[0.003999438983095291,0.004405093362862962],[-0.013433989244340092,0.008177118891531294],[0.01718567443611271,-0.0012176096374060439],[0.028210731599978216,0.013227461753833877],[0.0013236006883141872,-0.009521547333981322],[0.009583996445018318,-0.00516393947480787],[0.004951960518730626,0.007415938099559683],[-0.008535132759424897,0.014266385910579866],[-0.002072666285969347,0.0028269724355467073],[-0.008597876448484018,-0.02206679051939321],[-0.0032601083318568734,0.016319453747907244]]}
