{"Name":"RbmSpin","Nhidden":20,"Nvisible":8,"UseHiddenBias":true,"UseVisibleBias":true,"W":[[[0.006974052939932684,0.001877484734352188],[0.004008098326074184,0.004087953685916242],[0.014558401023286444,0.0021424157071248265],[0.007797616180659897,0.009715041957503385],[0.010888871323901431,-0.0005409881753817172],[-0.008723864690111195,-0.007404539021871172],[0.011692687570499707,-0.006347147164367992],[-0.0027050532970475894,-0.00443483511142412],[0.003485107763647334,-0.0011470037111878102],[0.013537816627256942,0.004936499032194263],[0.007216932137872365,-0.004730738088051545],[0.0015110730730725627,0.001713215361185019],[0.005432591435271957,-0.005292363529937223],[-0.015289230459207185,-0.0022612572430149185],[-0.001007497439286617,-0.006827377372852279],[0.00814731918040929,0.0061431228345897315],[0.0006005793987463304,0.005429514073694492],[0.009931444778391842,-0.00152012072832427],[-0.014490466854125125,-0.006810722924467733],[0.0063730747621101695,0.0022936158860000105]],[[-0.0028270238637218056,0.010974920858590238],[0.009437922066801899,-0.004788705509278048],[0.009858401052889973,-0.0023508981656256405],[0.006736813519791958,-0.0015406298496480363],[0.003083168382402565,0.0013518419495567747],[0.002550455891464667,0.0052505016978561525],[-0.002659464383968059,0.004502921643175815],[-0.006720685580868576,-0.0035446910677701584],[0.0007061712149298988,0.0072125246358537305],[0.006015097412662579,-0.0045592908507264465],[-0.016616116687976766,0.009645994389195386],[0.005203622209550367,-0.006501122378062145],[-0.009417424207216332,-0.002613118483929436],[-0.009448753477362211,0.0016184169368120248],[-0.003330215248998861,-0.006459335629563894],[-0.0026398116940907447,0.007680302634165857],[-0.00039594882756653486,-0.0025512391398496747],[-0.0036962863428643576,0.0053493821969601675],[0.002165040744595505,-0.006519618132593388],[0.011224080471248865,-0.007995639530560985]],[[0.016122402086976406,-0.0044148776534007166],[-0.010506826758899246,0.0034566624421545227],[0.015984861221110817,-0.02695872583279633],[-0.006138918337583262,0.014016889251805487],[0.008801518854146245,-0.0005711154555776756],[0.006649759456971608,-0.013306106481004006],[0.005796933460959648,0.002868270725508546],[-0.00042932599704847757,0.0033315660602484575],[0.004765118885464039,-0.0035125144517278947],[-0.0016977998177309037,-0.0017406756384814174],[0.010204113546500589,-0.009780432763477433],[-0.00020401301554954848,-0.002280718492003793],[0.005525787716760241,-0.006116142337191401],[0.0029983341271364846,0.0024303452378808257],[-0.004900714720030162,0.0002295996275018526],[0.0062341340827805555,-0.0012389689267574557],[-0.0035164661132576283,0.006852049131869129],[0.004200831121587576,-0.0063498961749899685],[-0.00820754912427904,0.0009191122577477439],[0.0005234069884118473,-0.004022581009149611]],[[0.009973507745849902,0.013913254779768283],[-0.010798036545309489,-0.004557795544904877],[-0.004469727164068444,-0.00758884513373248],[0.000257853742159201,-0.009570064245929412],[0.010095533153944245,-0.006881806252692389],[0.002029760342854593,0.011841390309141834],[0.013620370261395679,-0.0222990453284519],[0.0062045591000419896,-0.010890782017026266],[0.007566095156328307,0.003880850034361571],[-0.004034457901586991,-0.007651221352720725],[0.0052764217598009035,0.0033865457431185124],[-0.0036995910158898254,-0.0008021597504530393],[0.002709337321411218,-0.005625948856504082],[0.0026143041806921084,-0.002335420430015916],[0.0003353795696516195,-0.011798444703156741],[0.002611656604840912,0.004900658747104584],[-0.006226205034145486,-0.0017345259785507654],[0.0009125272749630781,-0.0006013389686263821],[-0.001775035004468416,0.0018939524534655177],[-0.005897819484351762,0.0011387978840603635]],[[0.009612623942255073,0.0005865669068795334],[-0.007895974227705653,-0.005887918631963316],[-0.004795449285829546,0.0010145658673004132],[-0.01029696389941983,0.007681025178099673],[0.0029102554973386256,-0.0012779504746508658],[0.010224903031818021,-0.001544586695059351],[-0.004597471526042136,-0.0034558819225240824],[0.0001016616452104768,0.0027551332185769585],[-0.004428608463841258,0.00010206180714026486],[-0.008527322675864958,-0.008870869290293843],[0.00225207713056426,-0.010775292813459746],[-0.00029133270316434776,-0.0019488775666981976],[0.010042273867043754,-0.009403705344174847],[0.00321339297322954,0.008187392751179447],[0.004228239543087022,-0.002699404798765569],[-0.004254243858368202,-0.0012045919151480611],[0.00328402875485502,0.0012477265864076878],[-0.0075650243709886236,-0.012688027745736054],[0.0033740405488702115,0.0045520670966904195],[0.007508083582892983,-0.006920507061411462]],[[0.004659745731365957,0.008367617544063581],[-0.0035377164744921676,0.0036066705664124193],[-0.015402105956585938,-0.010019796503561456],[-0.00422518829528511,0.004264369679400429],[0.004430452809882253,0.003341878568648632],[0.010000220061821984,-0.013419423022711839],[0.005413418088342453,0.004775661958688248],[0.0009501542177634019,-0.002616524806428522],[-0.00014319120135284583,0.007989031101911289],[-0.007731083430040993,0.010275760577835136],[-0.001825664090548896,0.007503513256245098],[-0.0028575494785698197,-0.0015783298155483522],[0.0030215628737046084,-0.004287606448579861],[0.003233099729208969,-0.007222170213468843],[0.003515517592945055,-0.01135992278724813],[-0.004362554068968842,0.010773590160621845],[0.00010434752037522931,-0.0016899234567124334],[-0.004066019908516988,0.013116985496282242],[0.00394587770510033,-0.009737451877108772],[0.0029177568619169455,-0.00414733259149358]],[[0.0011383075468575105,0.003793128557920935],[-0.0020937330586893853,0.0004533035220499653],[0.008480395105974571,0.0158466755488874],[0.012921936921824233,0.010122101641215133],[0.009940302173834513,-0.00047353349454865197],[-0.012434439678000281,-0.014996965716070029],[0.012140666004767167,-0.009309809651725906],[0.008659207611510306,-0.00012242908274745067],[-0.002115713202612327,0.0019156133942757917],[0.0023298128548153627,0.0048110941571692],[-0.0022354059541778064,-0.011737208527607587],[-0.0004798071766216872,0.005358728159683794],[0.004533072302764923,-0.014115589587769806],[0.0031307099654440326,0.011198543500222312],[0.0038513869176428003,-0.017059263248114687],[0.0004093662215618166,0.0062436544079761],[0.00414984319550624,0.000995368262884122],[-0.0018198110577491225,-0.0004850172377193953],[-0.0036063851936846223,-0.0014076864408925586],[0.0004267510861255385,-0.002597223540704909]],[[0.0048046315160004864,0.0002378064148919664],[-0.004280880831232756,0.0007718152102261181],[-0.010621330544508364,-0.0003352672626323744],[0.004575270220198033,0.015669868670659445],[0.005335222347146592,0.005062044890908412],[0.0030364051735903806,-0.02245199943809948],[0.0015578868206722156,0.011867716836695935],[0.0020623462617042967,0.007065751140166496],[-0.0021446321897961107,0.00019604463086615427],[-0.004442148365402953,0.004804555293212988],[0.0005151918856999044,-0.0010194917768169831],[-0.0016648883409317297,-0.002515472617440384],[0.006705117282364795,-0.003518953355885033],[0.0018186860514678412,0.0024525950601172446],[0.0045993923759067735,-0.0030661685390019292],[9.136518382827502e-05,0.004719552290624799],[0.0035505712729823353,0.004841943618488215],[-0.004040854023780722,0.0015437630829429603],[-0.001390006122434995,-0.006866292383966633],[0.0038210790144560186,-0.008094624312234986]]],"a":[[-0.00728766541536594,-0.004358623764324315],[-0.006390414538220437,-0.00314325005662904],[-0.006494798647420781,0.004163415048685888],[-9.907586594862629e-05,-0.003161665600204018],[-0.0004787336906303324,-0.0008286627839149744],[0.002203405036256379,-0.002279537444788831],[-0.0009364454345149708,-0.004904237627412851],[0.0019878444170185403,-0.0006230143191795456]],"b":[[-0.019646937071490816,0.021281558085248755],[0.06463440408919933,0.01266019218338131],[0.23898096770597924,0.025664162107872708],[-0.07470677840022845,0.003259801450515888],[0.032222706214795026,0.004489653780622385],[0.06402348354056252,0.016400344934280737],[0.0090656053098195,0.007242075473693753],[-0.0033764721221131093,-0.009214480475890179],[0.06524338682640353,0.0018368739607891246],[0.08569918900381078,0.005138369125052604],[0.0090827939676023,0.0004432950302752743],[-0.0016290527124549004,-0.000898838836984662],[-0.004026387631154842,0.005985675959792989],[-0.10998239768768028,0.016296518327669193],[-0.009190970744795026,-0.007863737011540365],[-0.0064901172146475785,0.01720500786388474],[-0.05410955496039477,-0.006876623451831125],[0.01267608669905258,0.010919953820187093],[0.029982214316814144,-0.0029445971432401122],[0.05251514450891305,0.002140228297801997]]}
