{"Name":"RbmSpin","Nhidden":24,"Nvisible":12,"UseHiddenBias":true,"UseVisibleBias":true,"W":[[[-0.47440205817558034,0.20402053200126588],[0.08452125825855626,0.22663640631287385],[-0.6949543720793848,-0.02165923143114695],[0.10965084927991592,-0.3500258695797181],[0.45192462228958213,0.16049279195119354],[-0.4306820726717721,0.15643922242864397],[-0.03237189048781354,-0.015179864111060105],[0.09605870620419728,-0.06048777714619635],[-0.007191496306236523,-0.0362239788333642],[-0.025321322621243772,-0.17520497085102707],[-0.11950711339417575,0.11943868937488744],[-0.5978860883727537,-0.11020383059202572],[0.7650150600286282,0.09065995143703998],[0.19938180962505633,0.07989819369544986],[0.26810877782525894,-0.019997194165704345],[0.021260705649921077,0.003492325987153818],[0.11736619776512362,-0.15193858449213535],[0.6788111626669037,-0.06946519166346247],[0.06006832791198384,-0.212056515656705],[-0.14118990749540317,0.25090767107786316],[0.040949544374312745,-0.03273563492139017],[-0.0175127170562665,0.21084314815250077],[0.3961456964880517,0.16799281748267123],[0.012850170169037254,-0.2921818183376534]],[[-0.21096084667465326,-0.23159305888076123],[0.12684099028905643,-0.02642211262101592],[-0.5295208837007089,0.02114096570726063],[0.2447243551966045,0.28203928318617916],[0.2292586024937673,-0.001686642373924622],[-0.36361555676851054,-0.02024015702522234],[-0.041982869093559236,0.0969838721436319],[0.6680966791689805,0.0017056036279901642],[0.13687956464066928,0.2009240597039738],[0.010505055757220246,0.19263109133199785],[0.02094338098949247,-0.0426534502627984],[-0.4430452273755224,0.11825475738872207],[0.5801296543942036,-0.09427712517388237],[0.5201414418215016,-0.006047584624276387],[0.22272642741973409,-0.06463818087539241],[-0.1428100311820009,0.01620417138519615],[0.03483658937620508,-0.001740048704824699],[0.2663621749279152,-0.10730619913218455],[0.0893072480895757,-0.0748839839827242],[-0.1714173672501039,-0.2918405852638203],[-0.049341593233377515,0.005632759813771238],[-0.008668056022245694,-0.028359398865588064],[0.3992678048409454,-0.07161219943448664],[-0.08439756199785718,0.4452045572187492]],[[-0.020845910243519984,0.033537359583383004],[0.6417913455384202,-0.019820225710627668],[-0.13172977179198408,0.06670913325059012],[0.2441568875491626,-0.2516500061395375],[-0.06625182009531555,-0.0720934160076323],[-0.19492854021400519,-0.055501042024540294],[0.13033871748973536,0.012357520233200307],[0.803516924010731,0.033887166658834345],[0.6227569706995805,-0.0278098435735851],[0.07418163611539105,-0.11875443623998098],[0.7397948975987417,-0.05031422713394349],[-0.15215053045218827,-0.06965102823169023],[0.10430711635177727,0.004264949878314394],[0.5264341997713461,-0.03121722925390164],[-0.11104866301785019,0.042280749017957094],[-0.25657845926980705,-0.0008802192932333006],[-0.17805435898770378,-0.048252899533941476],[-0.08944535893994499,0.20565243308572573],[0.6084224455830225,0.11882316971181399],[0.030810004668533335,0.3674352983633938],[-0.1799604115439425,-0.10292357283422447],[0.016803284577536392,0.006494246953722365],[0.19831845658912653,-0.08541096734942143],[-0.07258164440632962,-0.39438456153107304]],[[-0.016227120608619337,-0.05582213381488878],[0.5850608473205309,-0.0028259579718538973],[-0.04910219587888658,0.023655438290489883],[0.07780000175606927,0.020452297570505835],[-0.10970099451716886,0.0811993751435616],[-0.10652412126197572,0.016187170257121367],[0.6075339188673438,0.01616193866045472],[0.2907040778917723,-0.09267427424696095],[0.6264889713068974,-0.04605633026122862],[0.12173265602257477,0.07987612261456203],[0.7248952298217101,0.06606474367460917],[-0.044127719803056215,0.13629345469552648],[-0.05332274938894074,0.053324486677796164],[0.07915101556601374,-0.06561375639629488],[-0.34838101332976534,-0.0866502873785872],[-0.5614764486212221,-0.12540838145756864],[-0.6499248182687595,0.01354345038994257],[-0.068888627386487,-0.3114115465599657],[0.5042595284079315,-0.09757883678875766],[0.23632153174681866,-0.1987226915820171],[-0.3824991231654544,0.2486948956265252],[-0.015111470306087364,0.329698927158863],[0.17336461755869056,0.1761249013185129],[0.02254967617068996,0.2767552938354909]],[[0.13238598246140182,-0.16346477175196492],[0.11038053559024438,-0.13231426701006888],[0.06199220440206019,0.07853877345011791],[0.04051631859044205,0.16054478883347617],[-0.2380799527805858,-0.030659815637539774],[0.13368494222205915,0.16589040401983435],[0.6974798931612354,-0.03675111801480754],[-0.024554144682284323,0.039574770209920514],[0.13268939840233268,-0.004412943444944785],[0.5202013285243041,0.04537132945584165],[0.2738803429794728,-0.08879057014969795],[0.14565145424324621,-0.03946120499831583],[-0.18258624582242414,-0.11738504316034241],[0.04505922177634267,-0.13478448793343692],[-0.7944878741859798,-0.005961236911467974],[-0.41394299203848994,0.13744985193886322],[-0.6105712160583211,-0.13507954683548712],[-0.00839753377521355,0.11827618832706153],[0.1328899609976176,0.10252402129252038],[0.5383022334579013,-0.055391986897968856],[-0.3581502447592391,-0.2612452305498686],[-0.025257280575281458,-0.4704546478495816],[-0.01827249505655851,-0.10573194038610761],[0.06910736318651989,-0.2687366328741417]],[[0.44000228399758584,0.18014815060540862],[-0.004451838483650273,-0.07403809357940612],[0.34136888307156665,0.05932000180574006],[-0.013272734614300232,-0.18586969310737714],[-0.42199601546265936,-0.02750930110252006],[0.5162657716595391,-0.2730034820182442],[0.23327442415700866,-0.006253225063865282],[-0.2372579114487442,-0.04943777264430276],[-0.041527838692048416,-0.12657832678585323],[0.47640133931414547,0.0002208596764149214],[-0.019289287245781786,0.0058218030168569876],[0.4849027910402482,0.10235252797071576],[-0.4101165839545112,0.09236592015883775],[-0.02329307577404122,-0.023648887902493247],[-0.5352415319976388,0.0005964139404068804],[-0.0016589171993356174,-0.09534506390566419],[-0.13139563111444372,0.166795419974173],[-0.20823725872256674,0.003195870466327994],[0.022862279769000248,0.17361643575463023],[0.362465632862603,0.12420752732610504],[-0.006758171408310321,-0.021456668120867255],[0.00700414435045884,0.43950669068094195],[-0.41067798389530136,0.051360696062549845],[0.01184564901786543,0.4613918410594194]],[[0.6199905260674795,-0.2342565416533065],[-0.017841305512235315,-0.05032447983309095],[0.6567553242393928,-0.03698651566998421],[-0.06181400202119088,0.36357216323253744],[-0.36528996597694957,-0.06370612371401525],[0.5841728230447413,0.2519209085791122],[0.1276564779345315,-0.060094816293948375],[-0.15740337088851594,0.009290936562829092],[-0.07634421438868375,-0.016797547241291594],[0.2610576402119549,0.0390259323216551],[-0.14589406175980607,-0.04738193688496945],[0.6098600713187432,-0.09977499658720625],[-0.5606930232798253,-0.04763949707882548],[-0.011307022410400084,-0.20416228688794863],[-0.05720190847251723,-0.008803053357400423],[-0.10311874999363468,0.007877915306967897],[-0.045758809177697445,-0.08295044155159283],[-0.47401187233026154,-0.11751347961800428],[-0.06569999505675997,0.055977827676722686],[0.03995536403012734,-0.050973174940508154],[-0.01916924530659972,0.19126329709410075],[0.06402196343270798,-0.033544094669317195],[-0.5987831504848032,0.05273055685561351],[-0.039406575751887545,-0.363831576881532]],[[0.3398840641508506,0.21419892218938913],[-0.10285391461610185,-0.050138795904410456],[0.606291273282214,-0.00714061403751933],[-0.24604230373068353,-0.27504768289134346],[-0.28467469590286426,0.1036698817365162],[0.29645810408675316,-0.12316102609127123],[-0.054640511045367025,-0.023857129248345422],[-0.5139107031656774,0.03168782538024813],[-0.045658246903371794,-0.21491615521234844],[0.20269924903573605,-0.03952502472175323],[-0.24186233639697455,0.05053665823295953],[0.3596791268990407,0.08827585511836979],[-0.39653391216680495,0.08578358730483142],[-0.4926027704723318,0.20730372175249895],[0.05164485542300916,-0.038573887813994234],[-0.1584065185626726,-0.02585336936999106],[0.022044780604790495,0.06553608655763242],[-0.4660615105781928,0.11291291354105107],[-0.22538976132458421,0.053372725363267995],[-0.07862637611804991,-0.12470910816498437],[-0.06533504169317135,-0.203498803982582],[0.03233689124466786,-0.361861019492994],[-0.5537191720949182,-0.02953469344756495],[0.0024364175405602777,0.1909211655189518]],[[-0.0005562159328435015,-0.01848774804662579],[-0.6232047659624895,0.02241733571880612],[0.23300239868108957,-0.036044791880329975],[-0.38322839413360965,0.3565898982587448],[-0.12577508886859937,-0.09552324151757247],[-0.002259565454641194,-0.07290774924181957],[-0.2712129143206778,-0.10120333396251846],[-0.569151551160503,-0.008975532265080527],[-0.433644004754689,0.15800507695670463],[-0.017639633272519335,0.04661625601557907],[-0.6543581392527432,-0.10866829450811727],[0.09454920370455622,-0.18144235577275053],[-0.16457139827434952,-0.07552748063649324],[-0.7053617437223366,-0.2669846805486785],[0.06321307491454009,0.02536500628704186],[0.07261696368025458,0.146962857766714],[0.18224325347949497,0.08984773253814465],[-0.2595638046359522,-0.0045153862575458914],[-0.6708365056695369,0.015713229020812684],[-0.08674699194004844,0.07256965512221818],[0.0620188642761647,0.0026655903801938866],[-0.06118845477768304,0.4814740207729618],[-0.1453335077397209,0.028275934675045904],[0.054225117483108494,-0.1551570888856444]],[[-0.18099373122954257,0.028322420482141026],[-0.6813384484804006,-0.0218699746031802],[0.026584583724414784,-0.08854876874339841],[-0.1822445114622427,-0.248635646044418],[0.07283224647174248,-0.016699076787862227],[-0.1024498659224684,0.057383885044728],[-0.6978347227062521,0.1221591724498719],[-0.18530855409685595,0.06098031478009362],[-0.5539958097774703,-0.11510352776006925],[-0.3483662116338435,-0.08275896231625333],[-0.5291730818009707,0.11211665478975233],[-0.002905764844857087,0.11367499308433394],[-0.09112655427463186,0.09298179356122581],[-0.2868514302124453,0.25002639361931256],[0.1466067096971664,0.05591195454351974],[0.6720646744226964,-0.21169575783024716],[0.6549058649855294,0.004883702354509232],[-0.09471406098574388,0.04765282140433421],[-0.517680413426077,0.013394261810560316],[-0.15630200511018444,-0.10691132284916068],[0.39224251024852547,0.2994634990613607],[-0.0509238219198927,-0.3811367349760627],[0.1140625873484962,-0.10731016806250533],[-0.025355442204486753,-0.08925390183307721]],[[-0.19608459692332766,0.1350091416100891],[-0.19903961860966113,0.1960234815003527],[-0.09256140953190489,-0.06684811534076773],[0.023072760205151154,-0.0024448086920364196],[0.30432442197341564,0.18829080537774037],[-0.05118709503945626,0.062100708746115764],[-0.6531945076477236,-0.154898448268103],[-0.14746827216026617,-0.03922067455318978],[-0.22172411027119576,0.08924689613042557],[-0.7556519869878975,-0.02512684551981215],[-0.05254146563770697,0.026488891956942186],[-0.0349443434372443,-0.14935756052253982],[-0.02519495549717181,-0.038913690730152176],[-0.11049522848103396,0.0434061432081591],[0.5830998149800469,-0.06343531728120873],[0.6996976179621011,0.2309421780652118],[0.5996939103651562,-0.05051715180894365],[0.1352176194532442,-0.028520678568969664],[-0.05696680813137475,-0.22809214671843045],[-0.34749127896422966,-0.05411478028137625],[0.46243807070577037,-0.29618657248577274],[0.013285387026399044,0.21359656360469598],[0.1085918654430997,0.12969341491409006],[-0.016022666587616648,0.0618161083574683]],[[-0.391566395716978,-0.16558664315485164],[0.05987353782677124,-0.0752784469210773],[-0.4640354299650159,-0.03234477421549466],[0.1895876462699478,0.09904974383776811],[0.5839222564609142,-0.2135329280839471],[-0.2966167883328762,-0.17760408892840618],[-0.017388999300385812,0.14198136931214597],[0.035776548307820136,0.08631629703558007],[-0.063035137285139,0.2061375599885934],[-0.5347706073182906,0.048787548743475066],[0.02000796728293007,-0.04315093851939936],[-0.4035029824039321,0.11455501350276324],[0.42834631746019536,-0.03350334258688163],[0.19914393665962835,0.10531534748693394],[0.533228223379804,0.09161516158813438],[0.17703139281876482,-0.08816448793881727],[0.0638265886714207,0.14332490559407626],[0.5897649512200689,0.09941471740797003],[0.11773710155184844,0.038658775709719435],[-0.2278214376727413,0.01869374799675294],[0.10611631814995336,0.20771331373479296],[0.028215105639215816,-0.4365602292350638],[0.2868022793236839,-0.2655757572333415],[0.012183291278821654,0.11808420824610905]]],"a":[[-0.11347101590175687,0.006337280905003783],[-0.08048455417959063,-0.0008161425094299039],[0.10014353240429615,0.007884750914329525],[-0.0004850181392207452,-0.03235224373769014],[-0.27407646096603044,-0.015991226177158722],[-0.05835007507322515,-0.003907453164841294],[0.10612144534489237,-0.0069970633913238375],[0.0727531482062783,0.018311534113116184],[-0.12187961113598261,0.014511499415421092],[0.0039982704462192325,0.018891894872675674],[0.30330762390437005,0.014311426550452961],[0.060127487392255326,0.013191996925821126]],"b":[[0.03435706297177939,0.032516431788633705],[0.12096027134447865,0.04369113061797716],[0.022801686334634228,-0.016619847115488005],[0.004295330484134014,-0.009854543085463015],[-0.028768184744285327,0.009927842137328328],[0.08017451179153044,0.004532275914431177],[-0.020880834013090235,0.0019749708433418572],[-0.03416031933738975,-0.006234515206170778],[0.08750526465593846,0.038277489584592685],[-0.08108281229721179,0.00796832945690064],[0.10302689548543617,-0.0040482610298115985],[0.0550246636139857,-0.004455559121844809],[-0.048062025989367346,0.0018971553239240512],[-0.03849010785498364,0.016821507895990826],[0.056854370789886796,-0.005919214564922904],[0.013827564872418506,-0.0018364095796342492],[0.03170702902466837,-0.007975934286325231],[-0.05816445419569504,0.016984843129141107],[0.08948616726867178,-0.0471854936848785],[-0.03393726328237378,0.03722341742213057],[0.017502649587591766,0.011752752646812432],[0.025093440302568347,-0.07304919146088676],[-0.031158990300852552,-0.004713616088427341],[0.0037733448563934346,-0.04561022739104787]]}
