{"Name":"RbmSpin","Nhidden":20,"Nvisible":8,"UseHiddenBias":true,"UseVisibleBias":true,"W":[[[0.00881843590565096,-0.0056887559636246594],[-0.008566589344821187,-0.0009457663198181717],[0.001696877487645317,-0.0017336418679433608],[-0.0026357838274656737,0.03311869144997226],[0.004151616504542418,-0.004990616652722799],[0.0028017166700315794,0.011791365187539097],[-0.0014323284512716742,0.0028100820811211855],[0.006823563537794527,-2.392290923457868e-05],[-0.006170904971821827,0.008233452833911957],[0.008803394111018298,0.018110993609506],[-0.010703001096382163,-0.01357481772195548],[0.0024086214543420584,-0.001359179862553899],[0.008095291739479864,0.006422529263215339],[-0.00520018816573514,0.01855275217088315],[-0.0023578012731152206,0.0008403329471695609],[0.002388997469822264,-0.018623970478221345],[0.006088201071598663,0.002454300613660883],[0.004987939917025859,-0.004148693221864824],[-0.00954836280119959,0.01797114082637249],[-0.0032533615083554985,-0.004911575130340753]],[[0.006559619306607508,-0.004841781579858601],[0.0028707728045966985,-0.028352660414327328],[0.009765798058157523,-0.03476426664325113],[0.002291681194903489,-0.022698355556790714],[0.006279166952732752,-0.003483802935718258],[0.013141094796614405,-0.06161261529948119],[0.0057831076387158415,-0.01511572926758558],[-0.00025198661981521505,0.004312282291900375],[0.0013034510105811804,0.013209128608610964],[-5.4484659665415495e-05,-0.005836900987228885],[-0.0036734729761745207,-0.0029300702977310094],[-0.0030037751940799468,0.0024193572958091185],[0.0033895419670908963,-0.021271266299058914],[-0.004704529244963793,0.010195492101482103],[-0.006194755118795248,0.002866411332241981],[-0.005281921369281807,0.01973853286569513],[-0.0005603806376224345,0.007861544799551227],[-0.002551351871781309,-0.003512463434524141],[-0.0010664342486457813,0.0051795570748772194],[0.00695295937842506,-0.004102254660361207]],[[0.011965191810933114,0.028185480238483142],[-0.007509175400657412,0.027561981219133204],[0.005070988863635633,0.010895471676258237],[-0.006637275897779659,0.02073808202992825],[0.004490897208395573,-0.022940207895627972],[0.005356439156415935,-0.007133383415370434],[0.0020987157584738867,-0.00029020241068465684],[-0.013032532282925141,0.027463546931138748],[0.003522057335036804,-0.015930795414401896],[-0.005436892305451587,-0.025427880940077273],[-0.001291438486450382,-0.017152272854770837],[-0.002713983592376506,-0.027547357199039977],[-0.0004081805066573085,0.0025388747411991463],[0.0009086475988815861,0.004261874919280917],[-0.0012159396405140965,-0.029706223889757983],[-0.006725926936195255,0.0005526657144029659],[0.009283418197522987,-0.01356826390030727],[0.0016733482474271947,0.002008919296876702],[-0.002727815727098111,-0.010397568742910382],[0.007218407538975231,-0.023884147815790114]],[[0.0029514240417290246,-0.012062788954294034],[-0.009189618808938569,-0.027273058850116296],[0.008110974937577791,0.015813425653216404],[0.007259421054950685,0.025798470882138432],[0.010275726408160296,0.029679442226605613],[-0.003089628094681423,0.0022626920984408824],[0.008384845916902816,0.0011609636901044043],[-0.007078876644596444,-0.016093910156638636],[0.004805861357635876,0.0010965321452742031],[-0.007448848414629987,-0.002335944286393999],[0.014558090024459347,0.017890827735681937],[-0.005104258260108811,0.0004454443624973745],[-0.011612006553766789,-0.017291098638870513],[0.005863592196601169,0.0030517434269105815],[-0.0009204654491638281,0.014872928859952724],[-0.0007288945147649503,0.019313058263065952],[-0.004103302718439978,-0.004321957249878945],[-0.005172619104905957,0.001577890729526677],[-0.0013804061032047976,-0.02826547253227397],[-0.00698282167253735,-0.019070216555367232]],[[0.0056515442249342384,-0.0042001029256135],[0.0028132288908045188,0.005419649450706997],[0.0029235071781250847,-0.015398808582084363],[0.006625592361159843,-0.01182597240342355],[0.0024030233127932013,0.007678939365729824],[-0.006060184360721869,0.003004497127654998],[0.009527222007514819,0.02247802761364554],[0.006973208496870729,0.010922441071717031],[0.0066649394648813,-0.0010976393376790276],[0.005923612673214485,-0.0002622802285434149],[0.013802257997397175,0.0063577416521961435],[0.0029977333497470922,0.01698704758242415],[0.0008510608497609615,0.00712207580093008],[-0.0031136857746780467,-0.005661890804615514],[-0.005922297187404083,-0.02806853594598228],[0.002529093690212509,0.0020823615872138535],[-0.01228357888240789,0.008051960862425524],[-0.007630441982306302,-0.020435016419302073],[0.002600296070390138,0.013159057259026089],[0.004408075000325153,-0.00396983852238676]],[[0.01283343801694796,0.03830057542833714],[-0.0012816852914234824,0.00041494474879741377],[-0.0040450232966002826,-0.013811367397138733],[0.0014144754202220018,0.01623592929669246],[0.006695231883651847,-0.0004021363857162319],[-0.00202710972907427,-0.00643778028760595],[0.004424725578884886,-0.0025290305691345358],[0.001139681561857503,-0.007005169867108591],[-0.002324696634237051,-0.0010645629174387608],[0.0010944980704299244,0.014063691473788123],[0.006198708617844512,-0.010748373334006491],[0.0034543811007548245,0.005114887935791835],[0.00877064020190343,0.0010171503618727302],[-0.0038760244470008396,0.009845291008125777],[0.008285910980661976,0.015593842868247382],[0.006758349923768522,0.001342773797650792],[0.001751268656425901,-0.009075126488570045],[0.004830190146524361,0.015617259167364901],[-0.008780661863271753,-0.01777155110043376],[0.010359669208396743,0.023613314306415976]],[[-0.00028396726634257727,-0.014278648320168862],[0.004945809757562407,-0.001103332733123318],[-0.004103496187371427,0.009018076218103287],[0.0035009004626519197,-2.5440752076945128e-05],[0.006944461585665322,0.013496456173798238],[0.003112297367061227,-0.010525089219382494],[0.007904360639764048,-0.018941109870072137],[0.007309993007576012,-0.005312947405125246],[0.0021174890358684976,0.00326813616944737],[-0.0029361747353043393,-0.003769394579518006],[-0.00627576663095762,-0.00466887615852442],[0.003245345492670137,-0.01759313493832703],[0.005581627436207143,0.00891654681342147],[0.004522514199430654,-0.015204983823239501],[0.0064832789370904385,-0.010137163695187383],[0.009297335067805038,-0.01713601313091481],[0.002775312375624974,0.006813099268735589],[0.0026842034022754313,-0.017735360029352876],[-0.0011890552995930156,0.0041404057109485455],[0.00859160356982081,0.0006269259839814614]],[[0.001962561605055562,0.009921924219804697],[-0.00974989011057677,0.021420228639362337],[-0.0058261815889020414,0.0017312351678067078],[-0.0001905907162956984,-0.010982802663334653],[0.014245200686653685,-0.01902770234008548],[9.857378476165149e-05,0.012618585440388842],[0.006274377207642981,-0.006970314170397183],[0.006239812904503947,-0.022719131623053678],[-0.002227848635178578,0.008922355353768176],[-0.004495190035502374,0.007463567866656822],[-0.007827827722002915,0.007318730398256297],[-0.003766550799052203,0.012978197724061223],[0.013884343458085615,-0.038428239986680615],[-0.0021297832719267395,-0.010971833399112917],[0.009133557342155915,-0.02530190992788471],[-0.001999801679373755,0.03074791161428619],[-0.0014001878952070053,0.015175355192613586],[-0.004964461283217106,0.024993193832064973],[0.0021079566721946916,-0.007992208446732924],[-0.0003981182322414128,0.0013522981183529974]]],"a":[[-0.0020804800711101894,-0.0019413348103917995],[-0.004608784679910558,-0.0010712376990415825],[-0.0013993737291567348,-0.0013175487043408656],[-0.0016430432782058924,-0.0019765999227842803],[-0.0027966266554696004,-0.0021221443568269676],[-0.0011366954499062853,-0.0017094454566777648],[-0.0027992369908215547,-0.002767923186823469],[-0.0010316432842770776,-0.0022293424108585026]],"b":[[-0.0054172004926088336,0.0201575547025253],[0.008172951735418021,0.010357342445317181],[0.026012353341284458,0.018160189452712968],[-0.014158124448967637,-0.0003267330264955094],[0.009884634322462291,0.010131052696114078],[0.00693712946071937,0.015900444122468074],[0.0008927087272919166,0.005094653482452372],[0.0033482155522481095,-0.008306209472154607],[0.01326928045564109,-0.0025189662873754694],[0.018329248092713742,0.004181588893861033],[0.0026308832322502465,-0.0007150540114531269],[0.0005390043894236215,-0.0010872059408765867],[-0.0013671274296706633,0.005383164870968828],[-0.014982889679164639,0.018773459632899392],[-0.00026818467879601894,-0.006569384045083296],[-0.0027485055081996976,0.013420404577471205],[-0.009687582274310385,-0.003371551807151043],[0.0002660007767485717,0.005834180110361794],[0.00562748493799772,-0.004252941847211203],[0.009670471276350748,0.0031549737651277343]]}
