{"Name":"RbmSpin","Nhidden":24,"Nvisible":12,"UseHiddenBias":true,"UseVisibleBias":true,"W":[[[-0.6292031995668326,0.02524971336924904],[0.1768226148330369,0.04456779019257918],[-0.2540375525208306,0.05208086349045494],[0.07806408775905918,0.06593460125258216],[0.3816659517855958,-0.17814591792112602],[-0.13641142500392436,0.06019604478260902],[0.09444322620639725,-0.032840041116663624],[0.28746911512877293,0.02346486155688352],[0.39455845698741737,-0.013238412723828117],[0.0778099080612008,-0.1319641066292406],[0.07679046790142535,0.002943084856168183],[-0.24497346154894442,-0.013165701534078162],[0.3578202072524637,0.02552353315422227],[0.3903568589903957,-0.026742222083324416],[0.2354014447621864,0.1405580645484817],[-0.3290781278115703,-0.07272633500289802],[0.3089320889073826,-0.06897172996948658],[0.8414393588003272,-0.0005232584495675987],[0.25514218199854055,-0.03612007691587798],[-0.20793599914823946,-0.04336747890195149],[0.11481512680878443,0.08172679832494106],[0.3248526739833178,0.09917010927519297],[0.11809639109929258,-0.11829034811937839],[0.06278701675354846,-0.10929706467208515]],[[-0.3729857232329138,0.010583459808505401],[-0.0477280168716302,0.020914346839368336],[-0.5512145315960263,0.059914545034887495],[-0.006695384266664899,0.1081993411123545],[-0.016215684917361802,-0.15455692852648387],[-0.513903442413748,0.01621125870102104],[0.3101015034758048,0.028863467737593657],[0.21199473701192365,0.05894078247112111],[0.5351619875272758,0.005988774176135982],[0.03584678026198354,-0.09003291323491958],[0.2588471768492202,0.05379223060757881],[-0.1573972688622344,0.08111866899541384],[0.7629526941530449,0.0011518149137001684],[0.27842522581521795,-0.015128554270605946],[0.2154348769544291,0.09781069241836121],[-0.22057892839191667,-0.14360781085983107],[0.008237430853696168,-0.14967724471007407],[-0.02902526186796994,0.041035564040494014],[0.32820593371803436,-0.05785155368867499],[-0.34213778980251847,-0.1296175241743294],[-0.3589306367850046,0.1358772000924327],[0.589305114074168,-0.030812627194620894],[0.0678691657927403,-0.18296573304844352],[-0.24623368343011032,-0.05019632900657465]],[[-0.06652502157264142,-0.01958272389081986],[0.08044455432282424,0.028702309281805307],[-0.5680768621627872,-0.03170448736233973],[-0.019667362632848618,0.09080258224706478],[-0.2289116634181078,-0.005384271582988893],[-0.5974792216621709,-0.06560690262372719],[0.49868832145658426,-0.023651189764759186],[0.5050421256914258,0.025676811443785842],[0.3364631720383429,-0.01646695170358088],[-0.16541235708402505,-0.11184903771788322],[0.4062225383343767,0.03252339544384016],[-0.5119844939980718,0.10282727613290722],[0.16712495022400173,-0.027889828749823396],[0.4553240117970242,-0.05336628798477476],[-0.043683928571153115,-0.013106701164573907],[-0.24944745409228936,-0.13215479314968626],[-0.24790136577265715,-0.17754449085198648],[-0.21516513372744364,-0.0052473635874571],[0.31769892631334656,-0.047342056866466614],[-0.19813494970712303,-0.15180443422818327],[-0.3380792599005794,0.07142446944917345],[0.17432503915209446,0.05768230246974186],[0.07083201543509728,-0.07736298612311493],[-0.0074301814432706755,-0.13623975920670017]],[[0.24232764178880445,-0.027717158771038572],[-0.090702442471483,-0.0571149261197112],[0.06623289508192055,-0.059910898074688204],[0.08585438241497524,0.1944503288363592],[0.050360490348974093,-0.1163554665142151],[-0.23671817492030306,-0.07721126211940618],[0.08953061532481119,0.05846575741193885],[0.6299850681746031,0.04709015516578846],[0.1573071135362179,-0.024971005913665606],[0.06141619938174393,-0.052880647220272775],[0.14244001369616538,0.03274431751181436],[0.1052235732615079,0.04786491622098115],[-0.3108439547162715,0.002692831218406848],[0.16013415075896675,0.039061500526160225],[0.16441228217926604,-0.08895689024652792],[-0.24632030064575566,-0.06663685811275147],[-0.5637791237285882,-0.12379425486982866],[-0.13019745753858258,-0.010682691006853814],[0.2589607823898088,-0.014608435043198219],[0.41777887723535767,-0.1649080079026757],[-0.16789647648524567,0.09754705726655014],[-0.2513960921294433,0.035494052261463266],[0.08404301733261148,-0.021614058559016214],[0.09659570383949756,-0.025142228932506037]],[[0.2036779523646234,-0.04391594085591899],[0.5370156898008193,0.04656547266815475],[0.23520560993863368,-0.016932304417545483],[0.038221165173503664,0.014069118961453677],[-0.18119588907900155,0.2914173551563159],[0.07299190742151228,-0.016864160460654292],[0.13076555009646415,0.06053113497027544],[-0.2586907029176487,0.018464082946600582],[0.4192725243276624,0.061418354682633076],[0.06956217169306303,-0.028404692540004533],[0.4516458656020749,0.1047383510824517],[0.43406966720986373,-0.09001563155837916],[-0.3330065764490344,0.029737235315927785],[0.06052505496216261,0.03399768971405911],[-0.14609863557123748,-0.292323989649468],[0.005739940737015582,0.010962215432786037],[0.004907082751158787,-0.03398962001205478],[-0.02299626893661565,0.037446871886004526],[0.11707509322417818,0.0813579589748564],[0.8522764428674799,-0.13055047767999317],[-0.6053193724310321,0.001822478670703198],[-0.13467807023382045,-0.04624217362038733],[0.1130480478729167,-0.10198637142094448],[0.2663043479244522,-0.18995384330426876]],[[0.35431282277443393,-0.0015608773512713183],[0.13553353905976276,-0.15123425325291923],[0.2383146092710773,-0.0873155368199626],[0.27431941097622503,0.06972691435117924],[-0.3920916556560289,0.22659561747480828],[0.5591456780573433,0.03817160310713937],[0.1740834431526395,-0.043993314488319495],[-0.3291358891368713,-0.014364461507093595],[0.08006879183507236,0.027620966596591457],[0.5084800112630693,-0.01805006156782536],[0.0075823481101301325,-0.01595600873685455],[0.4551247232428476,-0.10732520435619666],[-0.25799900536693593,0.09438092690234381],[-0.18870928637782455,-0.010151248695019346],[-0.8305500405604918,-0.16924353748357285],[0.011228274027727083,0.03999698399131575],[0.08956281586486904,-0.1394352071160048],[0.018815610679704033,0.012975620870673615],[0.21306444461541987,0.02163495736348294],[-0.27178266403980295,0.04467322463889906],[-0.4180697910751905,-0.1480073853548794],[0.10678526436889225,-0.12783337753210636],[0.06223685883450372,-0.04847126909954884],[0.04455204485697726,0.1729141830980527]],[[0.44275803857687,0.06713754432438922],[0.027617286895156905,-0.2043266732420214],[0.046497315899647645,0.09999606189602062],[0.0031303247537899353,-0.01292823601357147],[0.024684906313154658,0.05262468015572191],[0.35094442173181084,0.16422290384485347],[0.47142523456933794,-0.06414230424246552],[-0.13574015987136412,-0.09148146136146534],[-0.1460819647147368,0.019437458412908358],[-0.09334237994038469,0.14481214905759585],[-0.2792202664479499,-0.16252929399165647],[0.1511458636960017,-0.00021289252408751986],[-0.14239666132348958,-0.0691139585485894],[-0.2843548272898821,-0.07040866716021217],[0.30481977517780073,-0.15960881834852284],[-0.2610533222503205,0.10500165542943558],[0.005749619409213867,0.06330331694423594],[-0.04627437492485766,-0.10244950602401408],[-0.029056000676629622,-0.06766149302423892],[0.0028971035648271823,0.05748124267540766],[0.12752232823486728,0.007849026694499127],[0.30642265255949774,-0.11708679367971352],[-1.019998372576071,0.12539032516430956],[-0.5220442071778566,-0.02884783565358121]],[[0.5626859250793967,0.015662542907377654],[-0.03486825072654669,-0.005949166419035386],[0.6748555620994294,0.017427079660783266],[0.2037947223784914,-0.2085992641591355],[0.04650811247256547,0.06306817945684935],[0.26076704890213426,0.06573285302857698],[-0.5614975021982406,0.0010442043518571517],[-0.1673399670642818,-0.031213566826681496],[-0.45842828017564885,-0.004391738426184695],[0.24762361666229848,0.09256536299498841],[-0.26662650547473477,-0.0633778261252363],[0.23565426114072296,0.0456799804032501],[-0.48258077454509635,-0.05438648541409276],[-0.25300825593959764,0.04333946059714883],[0.22943256626645298,-0.007457353335041571],[-0.06782251690021268,0.10561745407714421],[-0.03897448052777002,0.18913208745807314],[-0.3045614950826517,-0.09212697578875498],[-0.8489650666676581,0.003078018233944613],[-0.09272440652325716,0.16344788130983307],[0.20532065028191546,-0.10746046608301349],[-0.2135697404932666,-0.06394446278702695],[0.03805324614265268,0.2572597399175533],[-0.3301799579163615,0.058920412614413435]],[[-0.05533376518525075,-0.017893491545878066],[0.08544046593983548,0.031573211386314824],[0.6004587246395858,-0.03170475140968714],[-0.3322936919254358,-0.21741093847522297],[-0.012618280785777775,0.07790441358383726],[0.08899144110259433,-0.05517201744974821],[-0.7647247437397033,0.017545597981443596],[-0.3664788737400942,0.0035467833997579862],[-0.33973996394294464,0.05276972625314731],[0.38586124899240914,0.12516557290422073],[-0.5577236601916699,-0.004018860033924073],[0.02736327753304658,-0.05276684516162738],[-0.2641514358265645,-0.021312247173150792],[-0.3255537355407131,-0.02657711060939749],[-0.058036911618037576,-0.08404053630131311],[0.051222399359842734,0.1860456902245948],[0.10635808610837903,0.15144545199498985],[-0.37087400431907247,-0.0017102442786287896],[-0.28497002186215026,0.12372815719147565],[0.013306566593670336,0.11251805797102044],[0.3677880302024717,-0.10293187739622738],[-0.3808644195987268,0.04155668905815652],[0.1580645035242009,0.20876840010463837],[-0.3061821149868563,0.12322723889844751]],[[-0.32750263693105824,-0.04811033434070475],[-0.07743603696677662,0.2547989162251671],[-0.0825571678679312,-0.10170619707053598],[-0.7133355282520053,-0.2968340157127076],[0.2242018305252693,0.0780046692684148],[-0.07746154129014593,-0.1243731095119811],[-0.07283114766505674,0.11921920590012271],[-0.3268597100864096,-0.001263165082107177],[-0.16810561482002276,0.0739932236056347],[-0.5190205111926289,0.05063413439238283],[-0.04867597112321688,0.11831323956411945],[0.12009636864184797,-0.10926587609207052],[0.1065642992653722,0.03587176506716006],[-0.44110369881816835,0.0919035825705894],[-0.13217224147287404,0.09745741361214147],[-0.07089448007262682,-0.06396849193216857],[0.5495789032367466,0.1684046010112421],[-0.1702875617390628,0.013168993120029763],[-0.101776533055371,0.11415239046892303],[-0.17021106460896143,-0.005840146642467963],[0.3621349847174505,-0.0169969198179415],[-0.4657591963972185,0.03341527780057447],[0.07835648899659643,-0.02841958273598945],[0.34656789845592595,0.15953217034414133]],[[-0.206797242277924,-0.018856189068908482],[-0.8306343046528809,0.029516108225156677],[-0.2512326375057204,0.0024998684189181082],[0.1894340722417848,0.04113768893712797],[-0.06816186038551139,-0.06330852654964704],[0.09708568437434936,-0.020163105168871622],[-0.1608418168551192,-0.026942014358559894],[-0.06754031645616553,-0.027738142592194225],[-0.4013415719671308,-0.08265615990717648],[-0.5681119231990027,-0.004430274943051374],[-0.10309978152961727,-0.05119232593281749],[-0.17222751118812962,0.033324359889819646],[0.2243719349744024,-0.01776152168046235],[-0.22205419005777302,-0.014832393810320109],[-0.02008852323784456,0.06318633882235614],[0.745515565100533,0.032441355888136326],[-0.22383883303507882,0.2012013563686485],[0.03889860250005357,0.07316609990267749],[-0.11852714719198315,-0.09199446638509912],[-0.06297787788925235,-0.09504589356548197],[0.22649930441552882,-0.05026062510876282],[-0.23252857220806003,0.07988790370477887],[0.10224157939315397,-0.04315023775460028],[0.2930718608846005,0.021414138265709412]],[[-0.10678881064521291,-0.01497091541570267],[0.01823352399689898,-0.045968266407540065],[-0.19035536082413343,0.05714725783925815],[0.24208067426404736,0.12002634712744586],[0.20226735888151154,-0.25962149501750015],[0.11436565904795826,0.0023606476162292],[-0.18148566681584868,-0.10269456654581004],[0.07639300124674017,0.0015242037853600596],[-0.3334406039608461,-0.03308929538559815],[-0.05568362175217631,0.03559341501469292],[-0.07128589254202865,-0.04847228065837935],[-0.42601500861216174,0.0854525746399726],[0.16579704793424746,0.01324044464584008],[0.30941904584749425,-0.03760486257896601],[0.10339622832727394,0.3434354447209716],[0.6361681886061039,-0.005389045331488136],[0.060380127573399466,-0.06662164176621478],[0.3910638670699482,-0.016680648252257266],[-0.1078791841028903,-0.06890443711570648],[0.05790516367302261,0.29416380640643647],[0.4867665886606833,0.06679711607855379],[0.16011032253610588,0.008410572479038966],[0.07692405647314088,-0.028155282930616574],[0.24962506613788024,-0.00570348855195688]]],"a":[[-0.0712030852362412,0.038585560210478584],[0.0007281093732212434,0.041296957407455814],[-0.0033354045749292138,0.05358819593139117],[0.05575160770850284,-0.2605245726213513],[0.02318164667957783,0.09633512705915259],[0.02123959714894398,0.024763228504611528],[0.0012973748434357895,0.04176312008253155],[0.010386418035200528,-0.017469735293989104],[0.05945556015670212,-0.025673542688712702],[0.03574987853273435,-0.015841369789186866],[-0.14324725310806025,0.11485054443726851],[0.007700322743453835,-0.05829725852327965]],"b":[[0.0629661508820502,-0.03802169147430077],[0.09703015703843212,0.00039271639649785596],[-0.022412515643600826,-0.01872459797727598],[0.030544082819803,-0.08051566978309306],[-0.08351086114823386,0.02782788484658056],[-0.0006215878606449562,-0.024143733302462434],[-0.007375782064812949,0.009502575146578249],[0.024931879106540482,0.004785483741185249],[-0.025228292526041494,0.020656354820936876],[-0.020433819976253112,0.01146034552153047],[0.003044420208017949,0.011968355307637155],[0.10811538550458606,0.0004924897182764291],[-0.011143292145922268,0.033849386228946586],[0.030023206907739013,0.010343080219177873],[0.11930370165216664,-0.11201660878956363],[0.2291587900774222,-0.07374158279361995],[0.06652846486389763,-0.061229274062410605],[-0.08556575557808901,0.025418368354752148],[-0.020321039176721553,0.01888569406469162],[-0.03747354324885552,-0.211439175783954],[0.03431344745909943,-0.02751231641154491],[-0.021420966246034935,0.07008791229986862],[0.003032189749333949,-0.006343387805675639],[-0.05136540673634556,-0.001032499089439203]]}
