{"Name":"RbmSpin","Nhidden":40,"Nvisible":6,"UseHiddenBias":true,"UseVisibleBias":true,"W":[[[-0.007553203552852249,0.046346558445992544],[0.017760812660283485,-0.20834718174903363],[0.05041170786674695,0.14389903049098832],[0.1179367118500868,0.08561756623689104],[-0.01685450130777896,-0.0027127513289981345],[0.07950609990708192,-0.023929661514135864],[0.07646492021205316,0.1668865677886182],[-0.05666218274548165,-0.08892444891994944],[0.11424864458552508,0.034383551759859875],[0.04878571249174229,0.04644885481329385],[0.009968292227720013,0.11493327921226042],[0.02844907573221306,0.07591168731972454],[0.08581766699492074,-0.1478251779985757],[-0.07939243261142608,0.15510301144880032],[0.011923570121462695,0.15735104281324958],[0.0667037606403359,-0.05983674568352385],[0.11262016528460839,-0.03756891178402099],[0.2041536879218248,0.007608218208820365],[-0.019145861239844807,-0.06940706209153445],[0.09005397418486655,0.021644887380822316],[0.004207671027539707,-0.028379782598497647],[-0.008683866116408326,-0.18693152726684478],[-0.10660820436404178,0.028509162917068436],[-0.06782683633455237,-0.06444692894603413],[-0.01330070328761007,-0.029174403293676446],[-0.16502425011509902,0.06020926893437203],[-0.06332639674816565,0.16094461142641586],[0.15758307775708544,-0.04961553860540833],[-0.013802714957965298,0.09866290244818356],[-0.01842954366238405,-0.06712876044581352],[0.007863059492146749,0.06201742801167823],[0.0058458590082209405,0.12140087899353631],[0.07196042395978437,0.014124522557387153],[-0.04700403022026968,-0.01585558721894484],[-0.12242324847013926,-0.08399102214688303],[-0.03381601029139873,0.07301676258980326],[0.020663916375759313,-0.03975317942493744],[0.05662711193901415,-0.09187794464368056],[0.04207337604459247,-0.005136476963784015],[-0.005826301470952552,0.05331948280179841]],[[0.053740606993027115,-0.1613909683758383],[-0.031032536797294355,0.0673328576292083],[0.05728049375162052,-0.20879289040148347],[0.15008431560859148,-0.09430870884389066],[0.1336450848830043,-0.0505802664128707],[0.02284511040971343,-0.01846073809862184],[0.046557832512502076,-0.09491728456099544],[-0.03095646313026801,0.06713955705898299],[0.09999204376480894,0.03316293638530017],[0.011662925539651524,0.0242336624003711],[-0.009574392815652559,-0.0689264592209999],[-0.011865465534968608,-0.11226863975974437],[-0.00706824513955493,0.07009256922634767],[-0.0830474949644113,-0.14036225535700378],[-0.07272989016806722,-0.06369749590759612],[0.09724940702818628,0.16225548990782657],[0.031968437015123356,0.002257228186646133],[0.01020251429598333,-0.0306991354092322],[0.015214237458743248,0.03305577697605065],[-0.06256600371707664,0.05062186713590198],[-0.19700353914404256,-0.06849104771411967],[0.027437574488471263,0.06238421326873589],[-0.027757090153484706,-0.0443258832498196],[0.035748231441208304,0.11486122460376516],[0.049088227964416704,0.08843852588197977],[-0.1799765652170545,0.011919435306568494],[-0.05777138752334041,-0.15999544032816143],[0.15727049212142682,0.03820501909715167],[0.007010588321362742,-0.23451316280309017],[0.005340820764436208,-0.00861273927623539],[0.05398337559987419,-0.02663227788076392],[0.05014430274463693,-0.030750333269978884],[-0.08088715876890859,-0.048420619260034395],[0.03665689674966235,0.061317088743775],[-0.14653733948041958,0.17233122155505518],[0.00396277380596093,-0.12608468930204705],[0.0348172839129365,0.05731754141983328],[-0.05827153898927951,0.028492441173385796],[-0.01003748044030669,0.02590474766499181],[0.03196514256872449,0.0917917612667189]],[[0.06313714725962263,0.1659222976508382],[-0.040573044607604365,0.06670572410689647],[0.003399201409037793,0.17018289616802518],[0.06131365577956651,-0.0008431091437364841],[0.13321734701381174,0.06563683558168273],[-0.05892447585855793,0.026864123965647618],[-0.046145063668975764,0.03785195929347303],[0.031955344498658854,-0.05519969554330928],[-0.025225158417569424,-0.05099609805985732],[-0.03990994061724791,-0.08890587700388523],[-0.019247835173645495,-0.049275915962739],[-0.04017432971119436,0.0253592379402604],[-0.0816472574881023,-0.05992397862870206],[-0.00931660692183692,0.06370917585537189],[-0.07825111440393301,-0.009664557111554664],[0.05588928822302729,-0.12621776359503348],[-0.10000884903913146,0.1193271392654457],[-0.20848817613268536,-0.08076817911914154],[0.029931577277660514,0.07942736000801107],[-0.11065696195346789,-0.19640072643752518],[-0.19181098760651522,0.09926801603442367],[0.03827877172046727,0.02794136808042816],[0.08526345823808801,-0.09055859803413395],[0.08376576141840608,-0.16423243276990923],[0.05313416508999071,-0.12269859454428628],[-0.046038370513154896,-0.05817226769491029],[0.007087653866132578,0.08401668763141149],[-0.019936270457042007,-0.04421880931027756],[0.0075620619284148365,0.2369085625776918],[0.02210282160806593,0.13879082574069657],[0.0443069369077158,-0.006012829752228599],[0.040993281376505784,-0.032096850843007514],[-0.13077391269575256,0.05914038054358699],[0.08276133086060128,-0.06726550595042757],[-0.05709790609902811,-0.06256975003411734],[0.03353124173265495,0.058353529406500106],[0.014110142691628382,-0.13346037678653594],[-0.09513160218186797,0.0016368791742356675],[-0.045323865892299586,-0.10783348687295961],[0.034293985620644764,-0.09561292425970384]],[[0.024538359914406088,-0.01498268993574446],[-0.009634491809742383,-0.1125968664802198],[-0.055562842847106934,-0.17314704503052697],[-0.10774441779360884,0.03166045792305218],[0.003280395276512757,-0.01539266809678265],[-0.08194851731307735,-0.04494666431883797],[-0.07714138893123414,-0.04080188066390582],[0.06458853296821858,0.022921375413431255],[-0.122456708474556,-0.06405029633659721],[-0.05319293267034861,0.1180265769962565],[-0.0057145843258797025,0.11041653714715954],[-0.027872897352859548,0.07406810177300995],[-0.0759119442193171,0.05856322571612951],[0.07913596760348754,-0.0602166119197085],[-0.010287606236382113,-0.004397782868290893],[-0.05454042983729041,-0.01480016176108382],[-0.12092191658094527,-0.17142727770995186],[-0.20762896030950095,0.12284671323734009],[0.006189006292595945,-0.14823984651231076],[-0.08669514064561719,0.1521463481388421],[0.0062085103822220895,-0.029833217864479407],[0.011916248184560205,-0.021165278882909293],[0.09930434428309635,0.19843990114355564],[0.0733485170216698,0.09215060384377317],[0.008443388678791472,0.12368539238390015],[0.16898605444364534,0.09866865899634251],[0.061806736451073825,-0.01426181904580453],[-0.15565201052750638,0.11828901943113948],[0.0013060379476259117,-0.08196739390419168],[0.009711122090329765,-0.2149602677435937],[-0.010809726537501646,0.03163507823417404],[-0.012030971848235518,-0.011235026479781987],[-0.0801011699929944,-0.025708486046472655],[0.05887352745205049,0.026520835211722344],[0.12127493040814522,-0.03822256906358976],[0.031099694773638466,0.06790900052967055],[-0.022144196633067634,0.17804963869977447],[-0.04423908462517391,-0.016869556008356622],[-0.03396572318551216,0.15315543200563025],[-0.0022613043243939475,-0.048840383049693153]],[[-0.03173518294172237,-0.09057045469292481],[0.032245041188637365,-0.01319289211321772],[-0.053995180219050636,0.11217320097484851],[-0.13465521476081632,-0.01182916341533153],[-0.13902201106901668,-0.0157428789454015],[-0.02252650599874524,-0.0009418743621838791],[-0.032728048434696594,0.056951604759245836],[0.0337648820908993,-0.0334731563375894],[-0.10343317255498403,0.11249556162561382],[-0.016753665290592724,-0.04788021333779078],[0.013686569137943862,-0.0748217381303479],[0.014462770136405496,-0.11884661240385239],[0.01851568142089306,-0.07634949642276169],[0.07736201491238233,0.07083473456370344],[0.05826986845244583,0.1660401841775599],[-0.08655272947143806,0.11019893613828272],[-0.042373472785479246,0.08313210427142713],[-0.008358040653726298,-0.0345039427091574],[-0.024383418613392428,0.12406166112503854],[0.06884395939569686,-0.060873335187846773],[0.1990097609056212,0.05486152941065626],[-0.021196805559247273,-0.09468110011887679],[0.030718157574947415,-0.14757239628929095],[-0.02706502427562351,-0.014848786118724713],[-0.05235535051007582,-0.08446046145457654],[0.170324755136319,-0.05576096270398341],[0.05050438458678874,-0.0026656407707145694],[-0.14874558155496595,-0.09793817384070853],[-0.013396674851913416,-0.03211896046759027],[-0.006047516705064894,0.14873830708347882],[-0.053460416848170635,0.00916071371485991],[-0.048283248032143566,0.12347712479096369],[0.06718052693538254,-0.013164678232128],[-0.024791873399934664,0.024319217217845777],[0.14763314143750442,0.09095498630504677],[-0.004680891797712568,-0.12434058267983646],[-0.0338026093715745,-0.1806848968220413],[0.06588180214733523,-0.053783616412372746],[0.014417343058634863,-0.1331642988078038],[-0.03444313013788403,0.23179863365738448]],[[-0.0495570432822346,0.0873333839520816],[0.032961773735779715,0.1668623586320476],[-0.002926948823174757,-0.057416316812928185],[-0.04617292944021697,-0.030846803483248402],[-0.14667957667152284,0.029434484029414097],[0.0610726670864225,0.010038310562288592],[0.0605201433981069,-0.12409808787761387],[-0.031114988146829402,0.04358176230557667],[0.0308390559423905,-0.09640088822768214],[0.03583898850311018,-0.015950406658439144],[0.022151526879044797,-0.04966048998582714],[0.04171772334025025,0.025487404721968202],[0.08892759319937456,0.15980033999508178],[0.00012370440423236257,-0.09146891117080508],[0.05339314187937779,-0.2654909745488338],[-0.03724494994381814,-0.07761487765492993],[0.09364274370664542,0.014986819047122473],[0.20164913180778715,0.02212436728312298],[-0.03947810716896614,-0.0044800873521275],[0.12603567544709526,0.001765601374776688],[0.20083999371161046,-0.025196104321863356],[-0.031450991773604546,0.2056249897708338],[-0.09397196191593657,0.04660962660873795],[-0.08870012890123699,0.023984274629386387],[-0.06186669972997946,0.0615964929535365],[0.03744270830174281,-0.05174823922001617],[-0.015564989803251286,-0.058178620743157085],[0.03166197517233954,0.015845963604750133],[-0.022358416684801805,0.024244447178752394],[-0.023274374983103033,-0.009921357702695558],[-0.04556386721680034,-0.03766995510118821],[-0.03767131399258248,-0.1776533593223431],[0.1242991102543547,-0.0032799518434838398],[-0.07414588231387585,-0.01934607364686148],[0.054138127429365496,-0.045481760772079154],[-0.03895162987259823,0.05132268397291735],[-0.01881934261940473,0.0845769043178739],[0.10331024495841924,0.10354034207626182],[0.0508773423708003,0.062283420694187464],[-0.03397552647470459,-0.2258168078416211]]],"a":[[-0.0023483208341573366,-0.0032940633872408503],[-0.006752809257749648,-0.012648583878550147],[-0.008355027975260425,0.0031558923054143093],[-0.010283068731965946,-0.004380232817825322],[-0.0003698439188007211,0.0038570726398396557],[-0.009809177307197447,-0.002598876228094784]],"b":[[0.0010398624491399697,-0.0016649249823910885],[0.0072559280762517836,-0.0066368496561246115],[-0.009392300766179291,0.009473343581826122],[0.0007452207641139445,-0.005599392927150863],[-0.002170058120441847,0.0029214003163743362],[0.017876958454317964,0.0041443582218591455],[-0.009274898160101934,-0.004317170176790553],[0.004968372683571596,0.007551410716320994],[-0.021358363388133652,-0.0007283780504862411],[-0.005911837661783842,-0.002895433635859428],[3.2472200350455475e-05,0.004152485133888679],[-0.022167941854305425,-0.013115081880225164],[-0.004825868317917319,0.00961338439273104],[0.02341252098531597,0.01554812901166246],[-0.017171788136482617,-0.0019313771617788741],[0.02056131778611452,-0.004406180252445213],[0.005676916963284342,-0.0005095993895445423],[-0.009359218175113624,-0.009480084876841552],[0.00472451519132806,-0.00048129172492664097],[0.010194877672974959,-0.022736807813344508],[-0.009467104319315835,-0.011242087495615368],[0.005445592032461892,-0.016864581143342484],[-0.012032105480818575,-0.0010892213247157153],[-0.0044023929678734955,-0.004028836351077279],[-0.007046495877128976,0.005030949401212073],[0.0002113983130578164,-0.023606224538422916],[-0.018288484307603818,-0.011884487990860252],[-0.0011973691097473,0.010817209934750065],[-0.0011135553020173174,0.0026055083427800768],[-0.009694550925241421,-0.005821504766371879],[0.011170228467727568,-0.00522982457739013],[0.004689803499066756,-0.008026410479595139],[-0.006140767400158118,-0.0035229410036874812],[-0.017675154506731156,-0.010035114750626377],[0.006786076643754449,0.01778702374916359],[0.0014633951769338468,-0.008187138462991354],[-0.007663230662993728,0.002411927472593152],[-0.004843680812613987,0.01250132978988057],[0.003978166384655196,-0.004893256695513323],[0.0041318267241296155,0.010332604545327084]]}
