{"Name":"RbmSpin","Nhidden":20,"Nvisible":10,"UseHiddenBias":true,"UseVisibleBias":true,"W":[[[-0.000335017629264273,0.0001275924787246762],[-0.0011989963345588898,0.03518784057269405],[0.002637180925876391,-0.003720640831558325],[0.0047862156537409415,0.006370380795501393],[-0.002845311126233021,-0.002214146917389239],[0.012164409060067367,-0.0031934551692082095],[-0.005956433274985845,0.009963401900272395],[0.0051090079797938915,0.02220890791681129],[-0.0033294886684940525,-0.002142114874273051],[-0.002407603788514486,-0.001220612408829291],[0.007152359233287011,0.007060255791956026],[-0.0028700980809959987,0.01673766387710443],[-0.001206975703059832,0.0013358026908744708],[-0.0019630175134361227,-0.008260753785564208],[0.005546189288538101,0.013964266142420351],[0.0076544434048953,0.0003854622571379626],[-0.01419164579058845,0.020016931904713573],[9.740769670591872e-05,-0.008326141768385403],[0.006835817057003456,0.00322601612913189],[-0.0010591311449409855,-0.011686370062708833]],[[0.0035228964106416892,-0.020779020245394932],[0.002621327869933094,-0.01959111161760081],[0.005603826736304053,-0.00419322288996019],[0.013428980072310946,-0.0577966615534086],[0.006148732070484112,-0.017660232737469705],[0.0010515423744025267,0.009689002766520969],[0.0003587211750373697,0.017088610777223644],[0.0005273614785055474,-0.008521786859264765],[-0.0023128992433388753,-0.010910954097543526],[-0.003478199057925912,0.0008793667812436443],[0.0048382680309598065,-0.03479207754751008],[-0.0047085969920039215,0.01831064069387167],[-0.006053802408833071,0.0020385157916210216],[-0.005654137010007572,0.02042141145582243],[-0.0009448642043623511,0.012877023248336067],[-0.0009024549296777805,-0.00034590568566040245],[0.00027231374728178197,-0.00638922028138962],[0.007193101030695173,0.0010913077639969175],[0.0038419916794286274,0.02681283386367996],[-0.01268433991765495,0.048211198170500506]],[[0.004072719994593168,0.02390314224610337],[-0.004042288987070687,0.013264908929597046],[0.0008160905928955692,-0.0371248400535626],[0.005537151698480695,-0.011672897119158107],[0.0029535947205460798,0.0025597765412349763],[-0.005918833910104938,0.02281074761955922],[0.0035041222160359406,-0.009795571662153885],[-0.0085295705042583,-0.024818580929474036],[0.000723833257575924,-0.018490963352273557],[-0.005256360226424961,-0.016284033848953175],[0.0005364536616212623,0.005952080036020825],[0.0037811784168271852,0.005525646802429399],[-0.005732086773174232,-0.03307024392910124],[-0.008333668360721113,0.009759690598158687],[0.006837704634359705,-0.016333093502129987],[0.005404953152964432,-0.0004822211150917388],[-0.0036443486724226405,-0.003190071578681457],[0.0036864106919240586,-0.013841057517513033],[0.0018559376260565983,-0.007299836252474038],[-0.0012300466555706356,-0.0341557684017308]],[[0.002366038487206436,0.006495703243544819],[4.340819291119929e-05,0.013517345688189316],[0.004119937018837935,0.03280087712605293],[-0.0018469898321806589,0.004678940653950043],[0.0067899812318500214,-0.008509697040466151],[-0.004181437156713253,-0.0038518497375314813],[0.0031250952146030827,0.005702704614726486],[-0.008300073385919397,-0.004787869840210224],[0.008461757449302857,0.015436034261765859],[-0.004630950451574677,0.0009582470482549023],[-0.009995949045195004,-0.014605531462071166],[0.0049289494855504325,0.001206924781374487],[-0.0007816118656046089,0.017895360798765584],[-0.0035275757469318365,0.010358668243948382],[-0.0031643829899779606,0.003326130854071961],[-0.001097299286859788,0.0028594779861908794],[0.0007514462314853125,-0.025207474026856053],[-0.0071199658133105906,-0.016341073875097416],[0.003662010097579043,-0.014152691086031267],[-0.0013033616156797468,0.0027565225079062947]],[[0.00023295578332687238,-0.016886226085892565],[0.005895422936287119,-0.013405053631135892],[0.00563473327991231,0.006822696019600472],[-0.004361277209387593,-0.003785270412684523],[0.01361344882956204,0.030196271694535634],[0.005515621635139738,0.006634835692850197],[0.005416901250541546,-0.002002784625305018],[0.0060395480769079,0.004027861214489926],[0.009717995861939598,0.011047983986680752],[0.003996354257118778,0.021152695895694032],[0.0012985210625855999,0.006255716364097862],[-0.002521030541292579,-0.0027045930150413344],[-0.007571465373566281,-0.03080974590475324],[0.001638581184621759,0.002321187294485789],[-0.012416505492657198,0.0035858766954798287],[-0.008746691008431338,-0.021883541524016514],[0.0035046944043860065,0.014578034167715397],[0.006566593532279509,-0.0027199102629091453],[0.005084285193208267,0.028052918065847827],[-0.003121936081751922,-0.007054334951001988]],[[0.0008779427072480961,-0.016479048278009927],[0.0026576050762608027,0.008799956332228022],[0.003019192087299849,-0.0020742404452538886],[-0.0024677473626155094,0.004147091628246899],[0.00471088838161689,0.0027531071880209567],[0.006042698365984458,-0.00795798370820943],[0.00042062200551984733,-0.005455481808959042],[-0.004530963395296918,0.012070451781197882],[0.010347451190154748,-0.032848020768357064],[0.002190499448763759,0.00035703051754364394],[0.012109006426148311,-0.017777519954778543],[-0.0053081140604230295,0.01693445350724471],[0.004617790067698173,-0.0014628629345488538],[0.01277214015416045,-0.017225083845764128],[0.005852242054985651,-0.012173585461212283],[-0.0003491604856934386,0.016403225096344953],[-0.00285222501201341,-0.019330217780578432],[0.002588419416993903,0.01670714762042259],[0.004684189263820035,-0.01898252625820067],[-0.00024092123459157138,0.0004860703073098488]],[[-0.004364624997129873,0.010241221712591243],[0.0038967148062488007,-0.00019172864121665828],[0.006893225529979441,0.014396406823485948],[0.002891871000660248,-0.0047116849896482495],[0.0030299591447335264,-0.020825161733529836],[0.010954143507251445,0.01031867424994358],[0.002271645841644704,0.011545111401429343],[-0.006392679303140372,-0.011840550458299095],[-0.002507158201560294,-0.0014384052635480731],[-0.0035968257145743885,-0.013580626574016567],[0.007924680264361602,0.00775489641617522],[0.00019200752802230113,-0.009192670135192881],[0.0070638416164254605,-0.0035287609754193067],[0.004194754603770376,-0.012511750284718603],[0.005788161197390633,0.012413603727588941],[-0.0013092322426330914,-0.024437910535177937],[0.0011494669750336465,0.012868043733896953],[0.013430857640507764,0.00664689967809105],[-2.0926798283359506e-06,0.006381778591946717],[-0.003403920006747781,-0.0017951826106903214]],[[-0.0014416519665043797,-0.0026035579109889217],[0.0005933506044749754,-0.003304219284639387],[0.012078786119621286,-0.017445200172147804],[-0.0009632526599811621,0.014129948890440605],[0.007869021957093797,-0.008044415259935789],[0.006354213929063865,-0.014178498011246715],[0.0026348817326918125,0.006008858585466554],[-0.007788054118254402,0.012661103755287187],[-0.009154089124787516,0.010731953379440206],[-0.004478029611957502,0.012871751293666672],[0.006427170836458696,-0.023288942084133207],[0.0016526652154192339,-0.008818215324808634],[0.005594025088304524,-0.012907823381569265],[-0.0014264806794172993,0.02619993519964974],[-0.004118229987646139,0.007614520241433182],[-0.006485919924485669,0.023075369459677583],[0.004439458308707107,-0.008321926020736958],[-0.0002640372968194074,0.005091143360973531],[-0.001047448237021596,0.011897307131370244],[0.0022866785270774133,-0.015492795233197186]],[[-0.0053468555060141,-0.023154778822490764],[-0.001332951494907269,0.029520799283144113],[0.003797547324354714,0.011545165969076438],[8.562099952509406e-05,-0.01809907739199282],[0.003741085349786254,0.0036247371045964446],[0.0024006089682097795,-0.033560262071113345],[-0.003090151663635216,-0.039118648996447555],[-0.0079682696859464,-0.006725265337157173],[-0.002265734227180926,-0.01836392715385864],[-0.010054729537856251,-0.039479651128319526],[0.003687579659492301,0.014773754567463247],[-0.0005732272179306723,-0.022723367748618863],[-0.003751543393011422,0.002900028940682548],[-0.006958081099048164,-0.003830175302358759],[0.002413797559492518,-0.008363658423876015],[0.0009748412035800839,-0.011087066193842227],[-0.0022012023411270044,-0.008450850132025685],[0.0004981883553453713,-0.027686003827555497],[0.006568662251937887,0.028230397562111254],[0.00015840538569236682,0.009376196018039734]],[[-0.007845505502174227,0.00879236337814239],[0.0016663977733535284,-0.007602704707416886],[0.0031787432861353116,8.34508816205556e-05],[0.00022819384325992165,0.001968771742539093],[-0.004499421889708444,-0.011369954911665626],[0.012308634646322123,0.009140700887574937],[-0.005584699035666904,0.01626298896448203],[-0.00439965227306636,-0.0035197859294577613],[0.004851162626735769,-0.009442688235717311],[-0.007075640576291399,0.017613968443861604],[0.00614673187871719,0.0025490935312606736],[0.00081576901711123,-0.019079974781654324],[-0.0031251469475537252,-0.007023448142286481],[-0.006881747011058794,-0.0030940937450604825],[0.013071277557606906,-0.024080676435363893],[0.011472900779207186,-0.0018218892236508389],[-0.012699410154839899,-0.009307396978210527],[-0.00033007965230802476,0.005974688303951138],[0.0009753616641577275,-0.005571589573015983],[-0.002849011503072027,0.009258487458857977]]],"a":[[-0.001082367032698904,0.0017274789184232786],[-0.0029282861756203464,0.0022926373842003882],[-0.0010195533500738719,0.001943606262688856],[-0.0005848727156124981,0.0017860651970541068],[-0.0018856088954915119,0.0011281020125974966],[-0.000951164166672177,0.002324862618761883],[-0.0016041784713302504,0.001011223496130582],[-0.0006491467229148717,0.0010985318900019112],[-0.0017328195001199184,0.0032204646703727783],[-0.000861316598961193,0.0008942341125302317]],"b":[[0.025700291691833032,0.018198907667050637],[-0.014340904206831012,-0.0009655594593205535],[0.009346665876233545,0.009756709700142112],[0.007143719330270445,0.015968169368961935],[0.001093106546828656,0.005323895117616119],[0.0031923034853341085,-0.008761384424155038],[0.013635999612243637,-0.0023891228849940984],[0.01794290768553569,0.004283490567084034],[0.0029299657802267227,-0.000452703941087999],[0.0007288900781607974,-0.0007271975629941294],[-0.0011323086910868315,0.004973383528794215],[-0.014452587782602694,0.01790759366611525],[-0.0005957221455641665,-0.0062525988241515056],[-0.0027299044152325337,0.013883457070056704],[-0.008992925488517994,-0.003675599660588607],[0.0003160260316107986,0.005778941395467652],[0.005554044918449085,-0.004501497837189209],[0.009629038497575683,0.0034970827650463335],[0.0133678652754156,-0.0020559126555492794],[-0.005729177143971628,-0.0010382785813104218]]}
