{"Name":"RbmSpin","Nhidden":40,"Nvisible":8,"UseHiddenBias":true,"UseVisibleBias":true,"W":[[[0.005110850296092117,0.012141773295206488],[0.00987375970006215,0.012641744215079053],[0.0030752413686376905,0.015341597911863628],[0.004036136082012771,-0.007276605056834149],[0.0030487797698480522,0.02275496144469465],[0.0024185286413077886,-0.01832694726145102],[0.011795435053301986,-0.012011802603566879],[-0.00023875818965709612,0.008366430778152705],[-0.008644581295844138,0.007074470371400822],[-0.00604523894185952,0.008681113850893448],[-0.004280222344959952,-0.021882250471255887],[-0.007512604035435503,0.022764968109186434],[-0.011782632394652003,0.022029647350557926],[0.009323155337949068,-0.008186280762975947],[0.002561022755972657,-0.019376790010036626],[0.004728190792838057,0.001372493449431747],[-0.0013648106129660648,-0.0012628948557295466],[0.004868248980370792,-0.0002475193835489034],[-0.003418727059673687,-0.004927953530864673],[-0.0012733507042902322,-0.017592915977485045],[-0.007197203711670764,0.00634834955524076],[-0.011248651000717369,-0.005534188266931673],[0.010000856846587103,-0.02414718192861186],[-0.01592374542595073,0.014818273502179404],[-0.005866628091917397,0.03230398552190245],[0.014814535457947024,-0.0020004057395851876],[-0.0012917583399256784,0.02422064049962941],[-0.0013186029817147055,-0.02431584345563892],[-0.004513452630581776,0.011682905967870166],[-0.0020140528255882845,0.03029177773000674],[-0.003699727952726113,-0.009098095074552356],[0.008252703588143074,-0.012083933461457847],[-0.013269355082401329,0.003675853957041445],[-0.0063134657760957795,0.02015136463371476],[-0.0050659273537107365,-0.009151178471039634],[0.004104391583513499,-0.011943370211559792],[-0.002437060345265247,0.013917367350703015],[0.007006189168599907,0.004569787791437675],[0.0040950532776195606,0.011615569314862215],[-0.008625457148502417,0.0038031341344554243]],[[0.003162958803661641,-0.0351846090431743],[0.01738888429309589,-0.013130211287430187],[0.0009407396684682506,0.005189334304887957],[0.0014986478952348416,-0.005403729552855296],[0.006529660888272509,-0.009181799109797122],[-0.0005138445680812664,0.014404910413881422],[0.004480527369769831,0.0007123334400975262],[-0.001695211061452883,0.0027900179233393586],[0.00020097862541352223,-0.013222268470752916],[-8.653995000780926e-05,-0.012332877062132347],[0.003940290146479583,0.0013127907262887866],[-0.006820231573210565,-0.014278234417419705],[-0.01060539062992073,-0.018379464903406622],[0.011161873633385347,0.01499108976181455],[-0.003441436526111456,-0.0009384299573443756],[-0.001353717741609428,0.01217668876254458],[-0.005281384918668918,0.0021200542462275576],[0.001559885986743822,0.014101557981053123],[-0.006539361815534352,-0.011384727852017324],[0.005906535691927967,0.017221772305423846],[-0.005039768850214695,-0.016706047384349203],[0.004558389741872833,0.03258385714513927],[0.00048755715463774294,0.017165855187889344],[-0.015316792990169891,-0.004433228044901926],[-0.006226229110231537,-0.030724212393762804],[0.010029513648202582,0.0037446990818643692],[-0.004448218434335523,-0.025464189576422453],[-0.001278857705421847,-0.0036834755623720845],[-0.0010487115119152336,-0.006935018112587391],[0.0015750320560069624,-0.009406816325185531],[-0.00768282335529023,-0.014681586960821644],[0.005530190491747533,0.01225781561402716],[-0.011338866437285018,0.034688684268565244],[-0.002772232607953175,-0.019698303140732464],[0.0034716833648616285,0.002506355665632466],[0.002376870568391389,-0.004552889960798318],[0.002298024767859356,-0.013031287977968237],[0.0017570986033209252,0.015363807417220517],[0.01176255470234169,0.015565498414928242],[-0.0032774793119316526,0.0060727758203255105]],[[-0.0036116658251777486,0.028444259383568888],[0.0022315860522015263,-0.0014112663066085558],[-0.001544647399048158,0.00573929217587458],[-0.0028445328195491407,-0.005550200471273217],[-0.002440816838496705,0.011792820219348212],[0.0048707576566714246,-0.012836037329141044],[-0.0007560988544334855,-0.01675210625094544],[0.0012163180533712546,-0.013383613369810685],[-0.0006040634429953754,-0.0036708663732028094],[0.003860019618883124,-0.013398974089963513],[0.0022986348858401472,-0.012511379557473747],[-0.0074107338320772605,0.023069560706765527],[-0.011620252277249483,-0.00021403870192705527],[0.014223865675507553,-0.03454018449054262],[-0.010253770390222069,0.019623625800929554],[-0.012969306635418412,0.006966191196914812],[-0.005516342353663114,0.015966816960776876],[0.0015391052429609892,-0.034918670064746894],[-0.006084333757776534,0.01981574371547768],[0.0027329257294249868,0.0038075807614959024],[0.004675160249171717,-0.01926576050691155],[0.006812331610553121,-0.027239259536479345],[-0.002846483460331902,0.0022588731321254267],[0.0015168305508753415,-0.030183220083903877],[-0.002599011327401403,0.013906963689814276],[0.008646259677724,-0.029769772662844834],[-0.009289970791641183,0.04196418408018224],[-0.0016260013127187439,0.01789411926045152],[-0.0013225552019844153,0.007093895323804205],[0.006228022663804636,-0.021316019869212003],[-0.011712310761599252,0.012887945421756837],[0.0018068234926505184,0.012474703504287372],[0.00026215171124753067,-0.009410962921503648],[0.0023178819380970635,0.0026383697105589084],[0.0019575965183488623,-0.02520347757040874],[0.0029149126905236226,-0.011253594969669944],[0.005954422133467321,-0.02972589245201955],[0.0038963574769810203,-0.011966634697813451],[0.01566046994702602,-0.03996683341409305],[0.0074960261864177044,-0.03359823666493291]],[[-0.002998538646238229,-0.02227350981013148],[0.0029334985070958845,0.0009390958929045431],[-0.0014653350603346892,-0.009096831907913525],[-0.0010148649805547857,-0.022049944525566603],[0.0052574465739173,-0.010817913650589815],[0.006600271273258239,-0.003996957094646422],[-0.006796806861941547,-0.0034892166747337544],[-0.006130842254174271,0.03059174575308491],[0.001727791216093942,0.0023256593478361795],[0.0013840710805341778,0.009054454004554562],[-0.004794215248275637,0.013685074545051978],[0.005949885096599033,-0.011177521080674966],[-0.003858741436686493,0.007883907105529164],[-0.0002355802510319398,-0.002362868785846234],[-0.007967704220047254,-0.008431662737769819],[-0.011687788988774962,0.015788220716547386],[-0.00553944589998063,-0.024087939523331898],[-0.0013693620444042596,0.026260879558361015],[0.003840999585219451,-0.016594259020867988],[0.0025242662806632442,-0.013225516936562676],[0.003330699819262369,0.03500551680921292],[0.006741072064766547,-0.0019642236428198566],[-0.0027089149218035564,0.045451790501402495],[0.004289327638890112,0.04126522633241688],[-0.0010612399233581645,-0.005253051385967108],[-0.004019294086857447,0.014099847599288033],[-0.0004658520265197051,-0.008634611508789235],[-0.0011537988184494308,-0.02091204618274949],[-0.0022458028491242916,0.007524661041117818],[0.0007937826519122464,-0.006515248810838878],[-0.0095657143202606,0.0030735409414639676],[0.0072635561274378,-0.0047456523490736376],[0.005326375749356461,-0.020290869152359316],[-6.264115571947887e-05,0.008174213317343838],[-0.004539528164402404,0.017800216459545694],[0.0017947858716871482,-0.0170976673967105],[-0.0022882189613989954,0.016180009037829606],[-0.00025762068158348227,-0.006412955033622484],[0.005862911020885833,-0.013908139275538666],[-4.9053292444162365e-05,-0.003531257925527731]],[[-0.0019894246401807028,0.01495982914700048],[-0.0026580411510294636,-0.012170305730534601],[-0.010373569116929134,-0.011256473498060263],[-0.001804475071707843,-0.0060930966960622765],[-5.5087782764904086e-05,0.011115842136783094],[0.00013470057006128886,-0.021921704955198937],[-0.007500886018911706,0.017951197472436994],[-0.0022815405326700915,0.004471080094838059],[0.00034209826752291733,-0.010124890123443388],[0.0016355460882472841,-0.013380915662856046],[0.005325726847303782,0.009903034418302757],[0.0013010501947952006,-0.0017985629936250348],[-0.001113531385488086,0.01902337916053842],[0.0012074691471842599,0.01924093131284635],[-0.007100719166795967,0.036848232615719574],[-7.865588431101229e-05,-0.038932248468742],[-0.006019888201990351,0.01347766548753773],[0.0062615978394729484,-0.03129674114743797],[0.011307714652514905,0.020822395703725304],[0.0006669375481797637,-0.015368334651902498],[-0.0029664273396207345,-0.03327257394927042],[-0.0006971295237055997,-0.012683788483621854],[-0.006121863295851304,-0.005520726635557103],[0.008154178121238883,0.0012300291079800822],[0.002548240764461708,-0.004010833812885123],[-0.0037324573852104076,-0.011973237196761301],[-0.0021577919276698702,-0.013750777787906471],[0.0009203064297289494,0.026335082743991683],[-0.003632147178495183,0.0074164828468960935],[-0.0037329579276183388,0.017777418909675866],[-0.0007558332815493047,-0.002081997278418628],[0.0013968637833266294,-0.009465316035349471],[0.006840231304217757,0.015346659870192646],[0.0001095971035982678,-0.015331025773036428],[-0.002002219076347292,-0.02872509902561592],[0.005531895806625142,0.0042793462319955546],[0.00043806637759911374,-0.002876196668354581],[-0.004109827217158379,0.021010962615521597],[0.0008574194301153305,0.043941925054155714],[0.001158968845358664,0.023347413082674327]],[[-0.002356382037124339,-0.0147463272519403],[-0.00595725272020924,-0.016162226566252675],[-0.009821672235238015,0.01580732582451497],[-0.0009798809563148036,0.00391083210369752],[0.0035745909848483295,-0.0009809169588898348],[-0.00018485844644497106,-0.01620755439352369],[-0.004936126368947164,-0.03250667788200365],[-0.0005791282350187741,0.0011154047409198025],[0.005001843541469346,-0.0025532746124074506],[0.00651236842136888,-0.00733641556630752],[0.009238023969372008,0.017569746596584994],[0.0016655314824651941,-0.011234916808076815],[0.004138699674535524,-0.05262202007908751],[0.0024421701688893457,-0.006365057245819651],[-0.005501786189174989,-0.013617053718515034],[0.007446942378163659,0.0083812034583798],[-0.005205808579722294,0.008935335570426776],[0.004225723209952808,-0.008073813697546483],[0.00770689994325968,-0.005327094111142635],[0.0017410164317783953,0.020511690799518003],[-0.007283378769062533,0.016237226665664867],[-0.0023458181876471846,-0.003773936590075412],[-0.009169980502296685,-0.010989821989490991],[0.002253386019420016,-0.021824697947843575],[0.0021682756047583756,0.009700251488349257],[0.0023716930580469976,0.018020813042489744],[-0.0004127528701177749,0.006073166109316989],[-0.0016956939903859402,-0.02540947119818238],[-0.0030731269308450914,0.008179784800237557],[-0.00020934225885365528,-0.0003033090835201447],[-0.00185937719407354,-0.016366560851362667],[-0.00018852375146234568,-0.0030690237170981037],[0.008232079895710943,0.015569246407252133],[0.004992138405535024,0.01828333345832965],[0.0009228449858312872,0.0024154012171019638],[0.00895068056849908,0.025663082873436962],[0.009447458058577498,0.02895177485431208],[0.0003759229025282608,-0.03461894259499218],[-0.004347376204792402,-0.0348574693630644],[-0.0018463527174998875,0.005839979289594803]],[[-0.0009371271800945483,0.020756186379655362],[-0.014806373618768714,0.014767226446898514],[-0.007583477427554288,0.008982266358257022],[0.00027893643294466246,-0.013001032707834833],[0.00827082012273543,-0.02177940476855009],[0.004200273818646362,-0.001998356271187917],[-0.004825619364395433,-0.0014967645743562935],[-0.0021001580327604376,0.012071527175389491],[0.0074156849202671364,-0.026597576444805367],[0.009499658743253413,0.01705570256171339],[0.0073813281130062506,-0.015830743476806176],[0.0033259881697766027,-0.007099285157350071],[0.0016645435044194928,-0.008778571886130473],[0.001161502211440021,-0.00725109811681033],[0.002468070992839459,-0.005557721340460075],[0.0003530700122799661,-0.005483286689844071],[-0.006062724213025865,-0.018737093933768944],[-0.005668223286813139,0.013217895152161905],[0.0017560635317800026,0.003916619235098056],[0.0003676086351146898,1.8484498054781487e-05],[-0.0005160422631124932,-0.009267865930417401],[-0.0013336787709655326,0.01960765295505131],[-0.0010710215646186746,0.003074846114811325],[-0.0022386866152759545,0.018445753619903246],[-0.00509946653716014,0.0016347170179741648],[0.005842995640523392,-0.014827407930326265],[-0.0008673999044881618,0.018379893334490163],[0.0021944297937567135,0.02177671697594965],[-0.0008026133885407784,-0.02378848083385889],[0.0022819652093189796,-0.010034849828109276],[-0.008287058981848365,0.004546684857221704],[0.0020823148763200795,-0.03050147079749952],[0.004616155544131259,-0.025806675433644972],[0.007588050531873895,-0.012281991022397815],[-0.0020364544879184687,0.0035895452477519847],[0.011296113236930697,-0.02527961129523675],[0.007701079364395256,-0.040294905512665694],[-0.001116471132692006,0.006823605275151779],[-0.008283076839510108,0.02979114479429819],[-0.0002188527453027995,-0.002129062048513452]],[[-0.0018099447544468257,0.00021407873809094056],[-0.00040815728052232046,0.00018887072272975096],[-0.0032974099649795844,-0.018372596280369573],[0.0018628822025715433,0.011278194958510445],[0.004784020254582685,-0.009046492497753954],[0.011519489808086376,0.011086772818784781],[0.009902456040529284,0.025768513786525903],[-0.0015415243245236112,-0.0018294424838024336],[0.005494976552099039,0.03486841580203302],[0.005241818783755474,0.004880620422531277],[-0.0034658912276152344,0.015171646626356984],[0.002432471166276392,-0.012470588785111359],[0.005618292579776474,-0.0055895729305773705],[0.0017860262879540393,0.0075698670941365025],[0.00431652808346671,0.024270253608408017],[0.004325329975038084,0.013204688366604659],[-0.0036165725547349014,0.0015818995272734323],[-0.0008254116139014083,-0.016354518123692752],[0.00455436104471701,0.030958391085170088],[-0.0019039104204815302,-0.004533591086000137],[-0.000916401519244848,0.0223329291618429],[-0.008964957076164992,-0.009533406464339578],[0.008262565943332906,0.014061047022088801],[-0.0018410830131654866,-0.0009853632230928636],[-0.005442577469302264,-0.011189660686487145],[0.005843632711800059,-0.007900806538986985],[-0.0007332987468100258,-0.02838544599190557],[-0.00019286939008792033,0.013754196948413918],[-0.00429796030391214,0.0017634408189577608],[-0.002706789186411754,-0.02177315016273805],[-0.00520074166321278,-0.005205423509709713],[0.012490852378297666,0.03399199956402102],[-0.0016962932125339654,0.005833397633792402],[-0.0014074698871429387,-0.021845278969025942],[-0.00481343918483117,-0.0015922391751161346],[0.00821108096699533,0.042781386793536956],[0.007651850486852035,0.025989914616827935],[0.012720336037040716,0.014886241701847975],[-0.009250927727670978,-0.033072067568133905],[-0.013214969397093232,-0.013674377797163932]]],"a":[[-0.004182566877312698,-0.00348759189954024],[-0.0023697651072859937,-0.006013565671630545],[-0.0032063387701005085,-0.0025629392936668523],[-0.005937574898486955,-0.0016149865980128856],[-0.0015223277330783682,-0.003647881117280678],[-0.0031500396129728156,-0.004186859185570255],[-0.0038794750772232693,-0.0025540976950486163],[-0.002030178699456846,-0.0015348473061463353]],"b":[[-0.013337852260751508,0.008500755205380022],[-0.0011855755595565798,-0.0045934221621075355],[-0.00013700353047699826,0.002006892469700781],[0.01835772966154767,0.004247075746620854],[-0.012459643282055151,-0.0037981376505328555],[0.005620124840200799,0.008084664859644848],[-0.024029582794721904,0.0019320541283278734],[-0.007355262203323326,-0.0028566299240573483],[-0.0014659676916816502,0.004060842257110657],[-0.024418367414960836,-0.013357834666384459],[-0.0035939147759780727,0.007525160617699306],[0.024891993972257654,0.013695716733145336],[-0.019881130912661624,-0.006686555133983759],[0.021911018871608227,-0.0016012898141117829],[0.0061904470214585,-0.0007635877527325763],[-0.0111996685920159,-0.017067139992941613],[0.006925496088146695,-0.0004567701936479936],[0.008349337595500727,-0.02322265580952984],[-0.015793692004206144,-0.01047453912260188],[0.007924004869969425,-0.015307126471926722],[-0.013261251632996636,0.0008852384364462669],[-0.003915486245202121,-0.0037815158953519944],[-0.008134097592294914,0.005489488995942317],[0.00352019257346462,-0.022358598084461997],[-0.01905121680935188,-0.012567681302715537],[-0.008384693681160014,0.013292333578161855],[-0.0029087180237717626,0.0002748447815435549],[-0.0065897250963600825,-0.007070499609699343],[0.01093447572303753,-0.005359305895601141],[0.0037047189382894805,-0.007807266917943192],[-0.006439015151316373,-0.004585691719205031],[-0.01771729917218791,-0.009028112858180426],[0.01017565103635313,0.01846214860604587],[3.484393570034111e-05,-0.008883053624069359],[-0.010049036094051072,0.0028126801953540395],[-0.0039726326887545,0.012000670016249196],[0.0022149742031580314,-0.0047507308901811925],[0.00554922083531818,0.010534342878151408],[0.004684807772045003,0.01931615016401643],[-0.00011046020087625901,-0.024371158673270853]]}
