{"Name":"RbmSpin","Nhidden":20,"Nvisible":4,"UseHiddenBias":true,"UseVisibleBias":true,"W":[[[-0.00129287396711975,-0.0012530487890632033],[0.001280397465428738,0.00848645852487964],[0.000286967711532624,-0.006700322136848074],[0.006311813082938793,0.013171854823516882],[0.012959948490171458,-0.006254477544383493],[-0.005921999965527176,0.0007225224582810348],[0.0055123928469453295,-0.011144939033824994],[-0.003108316702394347,0.04444494473011746],[0.006297691330512102,-0.017756434580893425],[-0.001352411530105722,0.017322938514230845],[-0.0008895197629422007,0.005626044430803191],[0.0005586635148267732,0.006102002623095087],[-0.0024072424525583575,0.009549463092095036],[0.005355793787846964,0.0225254356671677],[-0.0067410917629016475,-0.01452986954784885],[0.0029905462855178934,-0.002308361405082847],[0.004091590591214911,0.011294114682905499],[-0.0018307150342129351,0.0231653165842106],[-0.0015732664271964362,0.004036143352590967],[-0.00034773701883351356,-0.023647992061200072]],[[0.0012439423329026686,0.0067650851301505055],[0.005079015032581678,-0.0009368565827063346],[-0.011798372386501799,0.026761287609431587],[0.003234430534286592,-0.0036582030487169446],[0.010161568771612435,-0.006985927360144797],[-0.004125734205669484,-0.017463436420508283],[0.014705862130645966,-0.029433515544016207],[8.694855392047064e-05,-0.012089648841458515],[0.006654897316886809,-0.006262909235623846],[0.015872127936226943,-0.0421139914996885],[0.0036615028812249798,-0.004227889989667506],[-0.004890571689706781,0.008951924821158235],[0.002953041782954586,0.007113893708708605],[0.0016529506882453848,-0.0017010454561875333],[-0.007568984310979379,0.01129081298208405],[-0.003262072084098525,-3.7853359391923866e-05],[0.0028213236494712586,-0.028156777598563602],[-0.004453652412177917,0.011694070517824768],[-0.007750283368502447,-0.004980871947770429],[-0.008026338023154465,0.013097562616540886]],[[2.2940432275073647e-05,0.0012856280461012897],[-0.0017430354760077159,-0.011466745428355886],[-0.003449166209721996,-0.005064168099794054],[0.013594581072382352,-0.00011250668290453218],[0.01492644177984285,0.042238681300282],[-0.006255512972588529,0.0204663732216277],[0.007839542880050725,0.022343620598995525],[-0.007043522380130153,0.028242554198107624],[0.005427062901194754,-0.027942487207472666],[0.00413270787419604,-0.005969336907422749],[0.0030189329598274274,-0.007073489691292647],[-0.008970256817752296,0.01596891439754131],[0.0015315068677652862,-0.01838068465699645],[-0.005104317439968099,-0.03339507212272105],[-0.002349792137582294,-0.01765858308747824],[-0.004411691811277979,-0.03601310591507869],[-0.003923728961639557,0.001176575076556994],[0.003081965653060415,0.0027116511140953207],[-0.005339332132105427,-0.02443430627607899],[-0.00988628303010617,0.007521793266475332]],[[0.00934753392538271,-0.013600627421306802],[0.0012975105455906564,0.008167136657496998],[-0.0021811974170360972,-0.01918532150959192],[0.011575018088629088,-0.03130387195595392],[0.008150267424127564,-0.008550115990665394],[-0.0040207049088119,-0.019214484189973312],[0.006805818615738903,0.007060228081245793],[0.002817281494559805,0.011395805031356107],[-0.0009593633141538865,0.029456515164826853],[-0.006672390151256724,7.288740123740045e-05],[0.0027609975704402812,0.005163785661640454],[-0.006565382424447762,-0.008211968592355621],[0.006916015699062847,-0.004069462969556729],[-0.0019714037241063418,-0.00875907118965224],[0.004672822457660171,0.01812815007313777],[-0.0022220639511159293,0.0045525473278876785],[0.002379579722813567,-0.018417394059561526],[0.004328607653049135,-0.004258065857119366],[-0.0036290030441805,0.007291504826395153],[-0.005325674474730978,0.02747936047403886]]],"a":[[0.0008991123744597865,-0.003029159635486767],[-0.0013871180741174256,-0.003236849388339641],[0.0019788427760893757,-0.003247340541795904],[0.0011276063804038184,-0.0037763122999145728]],"b":[[-0.0011281937323483753,-0.01160291773411977],[-0.01653017515724423,0.003900847559566133],[0.00043525039007466146,-0.005580736643905427],[-0.004083290094127879,0.011663822459349672],[-0.005706109658789608,0.021521413806905396],[0.00876717866861961,0.011104938248159018],[0.026616666730304397,0.01811373559680751],[-0.015647622057562573,-0.0013717135768635078],[0.010016047046612775,0.009853357693563783],[0.007547843304385465,0.016673992007175887],[0.0008321939575935258,0.0050124386778840025],[0.0032046722193216984,-0.008648346811626389],[0.013427959954389277,-0.002716450436268784],[0.0183506315917059,0.004414972848028972],[0.0022005744960168798,-0.0009371298319090201],[0.0006607706998884802,-0.0011956146610852304],[-0.001602320699088705,0.005883719155674138],[-0.014888208542722802,0.01849454215293235],[-0.0006619233602454366,-0.00635402692098597],[-0.0029772492553299078,0.014211916258421917]]}
