{"Name":"RbmSpin","Nhidden":20,"Nvisible":4,"UseHiddenBias":true,"UseVisibleBias":true,"W":[[[0.001993774278344965,0.033715061910240575],[0.0023799240656867475,0.027009751578727984],[-0.00374425046938546,-0.047219678992015186],[0.007422797317210038,0.15536869137436654],[0.010516335343886064,0.02441188370733648],[-0.005348796096184779,0.1338180113612374],[0.007926843726954865,0.007740778345785647],[-0.0021704352989729255,0.3158976971819629],[0.004673106592865846,-0.22373205519902747],[0.002344018103398796,0.19158242282850366],[0.0015784559719301172,0.01441330057306853],[-0.0034194953168602254,0.07141609282350761],[0.001782616257387704,0.03916775434493318],[0.002116421403391023,0.15207508985206059],[-0.0034066817328360353,-0.19738946223053266],[3.1875818498130013e-05,-0.046395991972890537],[0.002530310875434522,0.22489534367468828],[-0.00041283386368692535,0.09629890235488739],[-0.0034595708026600976,-0.009333226944197496],[-0.004705055927059802,-0.23953894980775237]],[[0.0019741720969844,-0.01765061071992495],[0.0020173585449710053,-0.0009223082291269415],[-0.004655105173290164,0.14475310592148227],[0.007907804548764233,-0.10322072737588485],[0.011557524725763654,-0.10042165810369962],[-0.00526655533640673,-0.1832001455726261],[0.009164999748655643,-0.15879283621853846],[-0.001831996083223538,-0.3435514973805702],[0.004823354586771153,0.1568419444183177],[0.004693731767077722,-0.23149512295707264],[0.0021790451094004537,-0.01833426996729153],[-0.004595246103899745,-0.020968795585732055],[0.002293270132543563,0.018308571786337047],[0.00035486625361318467,-0.014074779273607124],[-0.004172168494274773,0.14719093690370735],[-0.0020091120873614067,0.09418958890390287],[0.000943963789343336,-0.24245066275404575],[-0.0006145759275028782,-0.03185692933234756],[-0.005574952198070743,0.019415438682602232],[-0.0062429350654328525,0.16164593074127404]],[[0.002183080858727847,0.06414580371988392],[0.0003403409904403872,-0.0478837132567288],[-0.004564727597222078,-0.05844950781604118],[0.010023485621855713,0.11974287392037698],[0.01281675312594399,0.20223565756790252],[-0.004937996250137393,0.2220468430952103],[0.009192340275793567,0.15072483910243714],[-0.0024913233050443523,0.2521763957007704],[0.0036314790308410775,-0.28983388006041455],[0.003712232086661287,0.11590876083866591],[0.0025373593524004724,-0.01950444522331234],[-0.006399137508176089,0.08652089585540981],[0.0022305799669048013,-0.038186670934543525],[-0.0022655907311392837,-0.08352141657884761],[-0.002651751755962464,-0.19092327091285213],[-0.0032456830433716766,-0.19845698229403724],[-2.226186280941679e-06,0.1692098535271486],[0.0009627289689979739,0.03041464987154186],[-0.005399986816605061,-0.12777500431765046],[-0.007236624012756532,-0.14029552562437525]],[[0.0031705154893834856,-0.08701321794431778],[0.0011762639664953114,0.02604626307844208],[-0.004177685061829568,-0.043272443250228276],[0.009361755290406757,-0.19379356478291754],[0.011307613270160456,-0.10577772276645137],[-0.0047706043698682666,-0.1881537338143936],[0.008579432721976941,-0.010847387127284308],[-0.0007538543468033719,-0.15252894038404194],[0.004292348023961727,0.33421867498196184],[0.0012300521719227394,-0.10668356320173916],[0.002257053214819458,0.02291386502901881],[-0.0054536684881439455,-0.11415731984374562],[0.0026868555403883145,-0.02507644602247623],[-0.0002726736138470066,-0.07580864710099924],[-0.0017564437707299286,0.23835230665957152],[-0.0016823622487395966,0.1168566120113581],[0.001896716523363303,-0.18575801634645614],[0.00119088668191049,-0.06154365053507078],[-0.0038573751546488954,0.09960526253438275],[-0.005401417541575952,0.24263926898671026]]],"a":[[-0.008844764253983901,0.003992129878830165],[-0.005696730519463631,0.007596802726006874],[0.016281704362253437,0.010501851239077603],[0.0008782338680336537,-0.03538044570945192]],"b":[[-0.0012553969901254397,-0.012232867433506189],[-0.01678645509894849,0.0038451207511262034],[0.001410981244838966,-0.00509373914270314],[-0.004774747315185552,0.012686100942518005],[-0.005988382832014307,0.022380942589407135],[0.00661933472255261,0.011685158682184804],[0.025317244186778748,0.017846854796078754],[-0.012349556864048261,-0.005106791959702638],[0.013705263347485484,0.011540567439241832],[0.005819768098211793,0.017733735465596232],[0.0007098763322624306,0.004945217384919629],[0.002736193640256741,-0.008524660066469668],[0.013416839337910089,-0.002840142430685261],[0.017359682499752737,0.005288778530316714],[0.004105363576724367,-0.0014439748968081546],[0.0011601566153905765,-0.0010299411255344413],[-0.0031618990229638666,0.005562865717402855],[-0.014982990931163061,0.01893503230575382],[-0.0006453905430295057,-0.00636973144590218],[-0.0007421362575232313,0.01559530462773524]]}
