{"Name":"RbmSpin","Nhidden":20,"Nvisible":6,"UseHiddenBias":true,"UseVisibleBias":true,"W":[[[0.0015578934965481714,-0.016958196585046582],[0.00581661844100448,0.009809468914691769],[0.00991949491847409,-0.016045683885915107],[-0.006434924662939839,-0.0019812288604173726],[0.0035111434074786064,-0.00876335947996941],[-0.00158088085421405,0.05169986020905142],[0.004548702862555374,-0.014376018577231796],[-3.608713343654481e-05,0.019448737212077294],[-0.0003667104345901502,0.009845005278644127],[0.003228651446724298,0.005877318102747109],[-0.004265556890265598,0.00984662634520224],[0.004883354513960046,0.01822227718276565],[-0.0042333914630945935,-0.010803599726160946],[0.0021483361116555076,-0.004813304510066585],[0.008789940868285136,0.005668013283708792],[-0.004434313500036451,0.031102792848192198],[0.00044347811556238385,0.007207740776710553],[0.003339775626868407,-0.02442223744751677],[0.00484341560872931,0.0051248238534039306],[0.005786894574237252,-0.009368956514273644]],[[-0.0064991911521651005,0.02214763134471218],[0.004567765295558097,-0.0025099244991858283],[0.008646224872313792,-0.008570860228200038],[-0.003503758295532988,-0.023806057322270056],[0.009447373117548199,-0.022682855059146675],[-0.001121075681940777,-0.01711470875472717],[0.003719611903936979,-0.00765577839162432],[0.009342644354388741,-0.035882832108280846],[0.004250909452635406,-0.009934063936223219],[-0.0013171748877459188,0.0022148468857399487],[0.0031864922140826084,0.010879177993157338],[0.001378801836559421,-0.0037688337922996092],[-0.004565603775162296,0.005396249691944971],[-0.0033156161104967844,-0.0014580780276076102],[0.0013997092357776193,-0.02349293091123237],[-0.0029770472716822206,0.005715383457170207],[-0.007318333040003247,-0.006434275688226663],[-0.006621432032872454,0.015514401338741615],[-0.0005464400101840776,0.013064084154797446],[-0.0038777554044950456,-0.008058016034776409]],[[-0.0042601330565020775,-0.007542604365059015],[0.01562856371702221,-0.0037101176248087453],[0.014316402522381824,0.03447781353121856],[-0.007567647319276751,0.026390019894021392],[0.006278286282537284,0.013440443947316728],[-0.005239879019565091,0.023785694830990356],[0.004442185975784357,-0.029816901613779926],[0.006120799449660857,-0.0077484204923260885],[0.0027797165983328076,0.00023508727887189133],[-0.009907844896807115,0.027454199586857304],[0.0009183380790993846,-0.017625620664400345],[-0.006471537466475758,-0.02834950148460043],[-0.0013604832509615961,-0.01760142932896889],[-0.004669385202603762,-0.03002083325967147],[0.000692802737570511,0.005033277458853237],[0.002299641534990698,0.0021576916835348886],[-0.0022318756454908985,-0.03311385382150167],[-0.009030548492276956,0.004255280028317668],[0.009056528699073979,-0.01800285350860205],[0.0012468742490578818,0.007015286395581023]],[[-0.0036266948548713484,-0.017491574972596367],[0.002017859541333937,-0.024865764166330493],[0.004951602145556898,-0.006737095085568096],[-0.004596345035607162,-0.02463766863560577],[0.008292982336570399,0.016845371008646026],[0.006918275122513629,0.024585978240029463],[0.007054929782889378,0.0282795964928812],[-0.007253264228532017,-0.00016441422785535377],[0.0059642682997068,-0.004135891069240733],[-0.004515698947790268,-0.017764635169796743],[0.005684739559955916,-0.00261993017931035],[-0.0053613411238449355,-0.007166857375747683],[0.011615471707611683,0.01527049074933983],[-0.004542754710426393,-0.0021152385699586855],[-0.010395886478246711,-0.023781809360604325],[0.00661484226709581,0.004371342200632513],[-0.003988360963575538,0.020270913141964813],[-0.0022661937558602413,0.027025086455691145],[-0.004393591438364277,9.713627894831775e-05],[-0.0038482595048129685,0.011358370555372737]],[[-0.0004300814810349452,-0.023420177774870755],[-0.0051769661811412035,-0.012215794206217757],[0.0044546104015618865,-0.005708929661979732],[0.0018098996290520472,0.006100197188338735],[0.004033725732191554,-0.022593359811908246],[0.008578806063803752,-0.015438874741324956],[0.0025751392107695907,0.007052632996630329],[-0.006333407346154998,-0.0010298832570323423],[0.009543828594228098,0.02571295640461166],[0.005850139324039286,0.01687910331287903],[0.0068773028840367414,-0.00022858938315394167],[0.005682667403762979,0.0027710141174600374],[0.014100028594130294,0.005775864950800829],[0.0026652220887820486,0.020259313545185703],[0.0031081832070234913,0.01312021501511248],[-0.0035971782952586716,-0.0033677748550098733],[-0.005185434657086164,-0.029426744692149072],[0.0007581482636802811,-0.0007877653476339598],[-0.012036766862756752,0.0068220091242311735],[-0.00831306025559886,-0.025698510124955998]],[[0.006177852342455696,0.024171250639764313],[0.005880320034608033,-0.0026307530300347833],[0.013724346600794178,0.04206775862751889],[-0.00529624382271281,0.0012066016628668006],[-6.089525097110227e-05,0.0024220597632857647],[-0.00023724344299279462,0.0031805495638714655],[0.004766604308632706,0.005220709117556901],[-0.0005358420894209534,-0.008275792027559195],[0.0034984561773714006,-0.012293945620802202],[-0.0001897943563697154,-0.02035454624160264],[-0.002115547559768987,0.004723291833989766],[0.0046392815397259795,0.017960751664258572],[0.007747319043576331,-0.008240553891170111],[0.003346334145303337,0.009883943835762937],[0.00940305818041871,-0.0028520109161994304],[-0.007019863887054619,-0.009101531654238148],[0.004972372008674865,0.000894970261180118],[0.004545982682317588,0.0020102009436274585],[0.002016555859874006,-0.01028752124027511],[0.0025942710744283133,0.015793061601531634]]],"a":[[-0.0024204399879611768,-0.0030338500759091377],[-0.0043777196204382056,-0.003262392754774444],[-0.0013163647268552713,-0.0034918958545535886],[-0.002074244460467322,-0.003939431275134687],[-0.0031895431460919085,-0.0036283393062918356],[-0.001680100846647423,-0.004399684447304976]],"b":[[0.0012661210873094698,-0.0056777978902790936],[-0.004219016238598146,0.011487642281748518],[-0.004201081726944561,0.019840898010472164],[0.008670723454698931,0.010837062876717703],[0.02582587287824684,0.017978953291244347],[-0.014301745725134218,-0.0011146109963679205],[0.009835613707377991,0.010123157783669056],[0.007321624933802897,0.016161761467200678],[0.0009469473859037814,0.005216297680868291],[0.0030815678734310184,-0.008246105128873133],[0.013304512912589845,-0.002641325468997883],[0.01837319870376546,0.004252570432965942],[0.002474318766796409,-0.0009893186821526697],[0.000647602312477312,-0.001200518103161564],[-0.0014933220910684896,0.004934516335354906],[-0.01495268156918579,0.018947562901676925],[-0.00018474094785294554,-0.006702780158568632],[-0.002580506264337695,0.01395461139529587],[-0.00934647257328872,-0.0034579204542960437],[0.0002972609875916676,0.005933258797383008]]}
